~o
<STREAMINFO> 1 39
<VECSIZE> 39<NULLD><MFCC_D_A_Z_0><DIAGC>
~h "b"
<BEGINHMM>
<NUMSTATES> 5
<STATE> 2
<NUMMIXES> 17
<MIXTURE> 1 5.161868e-02
<MEAN> 39
 -8.021878e+00 5.542225e+00 1.289196e+00 1.034996e+01 7.414263e+00 6.678191e+00 4.955352e+00 2.678512e+00 4.344603e+00 2.509354e+00 3.742397e+00 1.735290e+00 -2.145549e+01 -1.056739e+00 -5.690089e-01 -1.363584e-01 1.423474e-01 1.853856e-01 4.888212e-01 7.673609e-01 1.104676e+00 1.204392e+00 1.071074e+00 1.000316e+00 7.614146e-01 -4.739152e-01 7.803195e-01 3.008024e-02 1.386850e-01 -5.528064e-01 -4.203905e-01 -6.341941e-01 -6.030896e-01 -5.599543e-01 -4.813418e-01 -4.480335e-01 -4.093490e-01 -2.854173e-01 1.511685e+00
<VARIANCE> 39
 6.031848e+00 8.701360e+00 9.548631e+00 1.495533e+01 1.416400e+01 1.692591e+01 2.145604e+01 1.900520e+01 2.317111e+01 1.879212e+01 2.240812e+01 1.254432e+01 6.681723e+00 1.157783e+00 1.362493e+00 1.664022e+00 1.802523e+00 1.425583e+00 1.613222e+00 1.706248e+00 2.202410e+00 2.005983e+00 1.942392e+00 1.590938e+00 1.743170e+00 7.521226e-01 3.167321e-01 2.582923e-01 2.497434e-01 4.739108e-01 3.771930e-01 5.556204e-01 4.694948e-01 4.756046e-01 5.045142e-01 4.216061e-01 3.371592e-01 2.735876e-01 9.378703e-01
<GCONST> 9.981537e+01
<MIXTURE> 2 8.041123e-02
<MEAN> 39
 -3.056282e+00 1.109199e+01 6.890311e+00 1.375827e+01 7.955592e+00 5.078702e+00 -4.769106e-01 -3.914236e+00 -2.356298e+00 -4.246597e+00 -1.768757e+00 -3.258807e+00 -1.948456e+01 -2.080650e+00 -2.999661e+00 -1.556338e+00 -1.387095e+00 -9.153980e-02 4.437514e-01 1.871741e+00 2.810583e+00 2.709113e+00 1.867437e+00 1.609849e+00 1.299317e+00 2.459181e+00 1.211344e+00 -9.484379e-01 -9.092407e-01 -1.599505e+00 -9.811031e-01 -8.694803e-01 -3.444148e-01 -7.353784e-03 1.289974e-01 5.964640e-01 2.844084e-01 2.643530e-01 2.269197e+00
<VARIANCE> 39
 1.192769e+01 1.078980e+01 1.254320e+01 1.443978e+01 1.675229e+01 1.899440e+01 2.747489e+01 2.449930e+01 2.197424e+01 1.961474e+01 1.816684e+01 1.613185e+01 8.340306e+00 1.422853e+00 1.675038e+00 1.483287e+00 2.546682e+00 1.886612e+00 2.666125e+00 3.107316e+00 3.031421e+00 2.907229e+00 2.734769e+00 2.734332e+00 2.346046e+00 7.432800e+00 4.054971e-01 3.729043e-01 6.786659e-01 6.536612e-01 5.357243e-01 6.785259e-01 5.565722e-01 6.449082e-01 6.514390e-01 5.710048e-01 5.113512e-01 4.283466e-01 4.969789e-01
<GCONST> 1.119245e+02
<MIXTURE> 3 7.138807e-02
<MEAN> 39
 4.213990e+00 1.115263e+01 2.303060e+00 8.360281e+00 5.260700e+00 2.168406e+00 -6.562930e-01 -8.012902e+00 -7.269633e+00 -3.464775e+00 -6.844386e-01 -2.094345e+00 -1.309138e+01 -1.945928e-01 -3.906214e-01 -5.030593e-02 -6.510007e-01 3.688530e-01 5.020298e-01 2.653609e-01 3.501472e-01 7.024662e-01 2.308890e-01 4.925398e-01 6.402593e-01 1.013594e+00 -1.598450e-01 -6.390436e-01 -2.479644e-01 -5.553240e-01 -3.015632e-01 -1.757943e-01 4.653248e-03 3.941069e-01 6.396029e-01 4.052030e-01 9.015521e-02 8.887889e-02 7.253352e-01
<VARIANCE> 39
 1.749759e+01 2.235770e+01 1.941983e+01 3.773435e+01 3.634317e+01 3.619901e+01 3.296981e+01 2.843037e+01 4.087648e+01 3.218891e+01 2.802561e+01 2.402279e+01 2.672778e+01 3.144369e+00 1.684096e+00 1.942235e+00 4.280241e+00 1.981754e+00 2.007730e+00 3.012728e+00 4.905080e+00 4.774731e+00 2.580163e+00 2.976583e+00 2.392502e+00 3.117498e+00 4.809012e-01 3.989057e-01 4.077994e-01 6.618165e-01 6.312504e-01 5.553547e-01 5.225103e-01 7.902631e-01 7.730291e-01 6.420726e-01 5.532024e-01 3.951873e-01 6.016611e-01
<GCONST> 1.210960e+02
<MIXTURE> 4 5.553590e-02
<MEAN> 39
 -8.860959e+00 5.618915e+00 1.757337e+00 1.098024e+01 7.159616e+00 7.219591e+00 4.662806e+00 2.383727e+00 3.731655e+00 2.679870e+00 2.897240e+00 1.015234e+00 -2.171735e+01 7.462348e-01 -1.827209e+00 -8.422292e-01 -2.278224e+00 -1.133560e+00 -1.082859e+00 1.660544e-01 6.436926e-01 9.085466e-01 7.451701e-01 8.068787e-01 8.598837e-01 5.184059e+00 1.702638e+00 -3.422540e-01 -2.634649e-01 -1.343107e+00 -7.763866e-01 -7.989055e-01 -8.974522e-01 -7.158449e-01 -5.678663e-01 -3.107538e-01 -3.171137e-01 -2.839096e-01 2.400820e+00
<VARIANCE> 39
 6.964419e+00 9.226415e+00 1.149454e+01 1.705758e+01 1.338610e+01 2.142292e+01 1.931714e+01 1.805838e+01 1.784913e+01 1.369262e+01 1.917440e+01 1.546867e+01 9.519135e+00 2.209961e+00 1.837243e+00 2.135117e+00 2.137934e+00 2.109559e+00 2.279369e+00 3.651617e+00 2.948098e+00 3.289004e+00 3.339407e+00 2.673477e+00 2.350996e+00 3.769942e+00 3.030225e-01 3.932007e-01 7.026370e-01 6.299731e-01 5.021785e-01 9.736895e-01 5.893181e-01 5.921940e-01 5.756198e-01 4.908573e-01 6.442358e-01 3.939294e-01 3.858574e-01
<GCONST> 1.102063e+02
<MIXTURE> 5 5.457127e-02
<MEAN> 39
 2.005057e+00 1.363120e+01 6.266667e+00 9.730144e+00 7.792285e+00 3.933364e+00 1.486217e+00 -7.324556e+00 -8.587092e+00 -4.870832e+00 -2.242733e+00 5.976131e-01 -1.583101e+01 -5.073965e-01 -2.914006e+00 -1.755871e+00 -2.519734e+00 -1.016236e+00 -4.666349e-01 -2.806854e-01 9.258030e-01 2.600147e+00 1.794437e+00 5.898511e-01 2.706901e-01 4.142212e+00 8.795273e-01 -1.412986e+00 -1.253460e+00 -1.562185e+00 -9.905890e-01 -3.229209e-02 -3.341803e-01 1.392511e-01 8.840687e-01 7.813135e-01 6.731243e-01 -2.028679e-01 1.974538e+00
<VARIANCE> 39
 1.243307e+01 1.304487e+01 1.445609e+01 1.631399e+01 1.796694e+01 2.175430e+01 2.271084e+01 2.192079e+01 1.883042e+01 1.702041e+01 2.108472e+01 1.535404e+01 1.038880e+01 2.439318e+00 1.745603e+00 1.751715e+00 3.963013e+00 2.980882e+00 2.068555e+00 2.450418e+00 2.896466e+00 2.940292e+00 2.557922e+00 2.924098e+00 1.850431e+00 2.985868e+00 3.291279e-01 4.199338e-01 4.832575e-01 6.903324e-01 5.898836e-01 7.830601e-01 8.266655e-01 7.393827e-01 6.184034e-01 6.666135e-01 6.288140e-01 5.677783e-01 2.832924e-01
<GCONST> 1.127447e+02
<MIXTURE> 6 7.078957e-02
<MEAN> 39
 4.500412e+00 1.148799e+01 3.828552e+00 1.139500e+01 7.731718e+00 1.114995e+00 -4.403578e+00 -9.514549e+00 -3.468040e+00 -8.081326e-01 -9.373172e-01 -4.958502e+00 -1.412084e+01 -1.013642e+00 -3.196420e+00 -1.790807e-01 -2.244416e+00 -1.948823e+00 -1.472454e+00 9.100186e-01 2.436670e+00 1.540478e+00 3.099798e-01 2.775874e-01 1.394599e+00 4.727040e+00 2.613429e-01 -1.463466e+00 7.575937e-02 -1.144379e+00 -1.352835e+00 -5.996101e-01 -2.119584e-02 9.617207e-01 9.091916e-02 9.017257e-02 8.528128e-02 3.741496e-01 1.909925e+00
<VARIANCE> 39
 1.182583e+01 1.022372e+01 1.586078e+01 1.671967e+01 2.144264e+01 2.980442e+01 2.768225e+01 2.145549e+01 2.253144e+01 2.299281e+01 2.288928e+01 1.851245e+01 1.399958e+01 1.919337e+00 2.079861e+00 2.694038e+00 3.905325e+00 3.201843e+00 3.737370e+00 4.795317e+00 3.085515e+00 4.910478e+00 3.315396e+00 3.018770e+00 2.331815e+00 2.873485e+00 3.000378e-01 3.672704e-01 6.483119e-01 4.826851e-01 7.269505e-01 7.130982e-01 7.493792e-01 7.134735e-01 8.768561e-01 7.774811e-01 6.529456e-01 4.488560e-01 2.751577e-01
<GCONST> 1.169975e+02
<MIXTURE> 7 5.328566e-02
<MEAN> 39
 -7.574805e+00 4.746550e+00 -3.199671e-01 8.204055e+00 6.840136e+00 5.938468e+00 4.016602e+00 -1.548643e-01 2.386111e+00 2.713254e+00 1.897111e+00 1.612079e+00 -1.981458e+01 2.315485e+00 -8.964725e-01 2.171068e-01 -1.702932e+00 -1.612842e+00 -2.126467e+00 -9.703622e-01 3.441970e-02 1.083701e-01 -5.476839e-01 -3.393082e-01 -1.788279e-01 5.910528e+00 1.160374e+00 -5.720945e-01 1.967187e-01 -9.901242e-01 -8.858086e-01 -5.231627e-01 -6.484314e-01 -8.021244e-02 -2.767412e-01 -1.216957e-01 -5.139307e-02 -1.593660e-01 1.971453e+00
<VARIANCE> 39
 1.075286e+01 1.443792e+01 1.512678e+01 1.665947e+01 2.201579e+01 2.085084e+01 1.850536e+01 2.746835e+01 2.643974e+01 2.466370e+01 2.049693e+01 1.683646e+01 1.469142e+01 2.169752e+00 2.117251e+00 2.624265e+00 3.287131e+00 2.328440e+00 2.880152e+00 2.561151e+00 3.097451e+00 3.407538e+00 2.824754e+00 1.968341e+00 2.015950e+00 4.100198e+00 1.903752e-01 4.212988e-01 8.233341e-01 7.019069e-01 7.603840e-01 7.211822e-01 6.916113e-01 6.882922e-01 8.251668e-01 7.437444e-01 5.623596e-01 4.302649e-01 4.728594e-01
<GCONST> 1.152598e+02
<MIXTURE> 8 4.742783e-02
<MEAN> 39
 5.436504e+00 1.315506e+01 2.485325e+00 5.831615e+00 3.784142e+00 5.228001e+00 4.188242e+00 -5.284284e+00 -7.026539e+00 -7.388228e+00 -4.825506e+00 -5.476081e-01 -1.410769e+01 -8.113300e-01 -2.889757e+00 -1.308776e+00 -2.148369e+00 -5.689484e-01 -7.816796e-01 -8.054867e-01 2.804508e-01 1.778540e+00 1.604516e+00 1.409441e+00 8.013487e-01 4.085203e+00 5.714474e-01 -1.154922e+00 -7.832517e-01 -1.343190e+00 -5.447715e-01 -6.672829e-02 -7.542518e-01 -4.505051e-03 4.344346e-01 7.683927e-01 8.728809e-01 2.345770e-01 1.681703e+00
<VARIANCE> 39
 1.304504e+01 1.213957e+01 1.815792e+01 2.082726e+01 2.518607e+01 2.017062e+01 2.097247e+01 2.595936e+01 2.159929e+01 1.728115e+01 2.574800e+01 2.114679e+01 1.074553e+01 2.258004e+00 1.729184e+00 1.754739e+00 5.211403e+00 3.324272e+00 2.554609e+00 2.055115e+00 3.185582e+00 2.513216e+00 2.397806e+00 2.424574e+00 2.042531e+00 2.385056e+00 2.888493e-01 3.517897e-01 4.544517e-01 1.026435e+00 5.882167e-01 7.636447e-01 8.173096e-01 7.530876e-01 6.322925e-01 7.024032e-01 5.844251e-01 5.820777e-01 2.934172e-01
<GCONST> 1.142121e+02
<MIXTURE> 9 5.248220e-02
<MEAN> 39
 -8.783058e+00 4.159718e+00 7.385464e-01 8.412853e+00 6.322447e+00 5.806514e+00 3.251080e+00 1.513242e+00 3.406193e+00 2.794477e+00 3.301627e+00 1.205453e+00 -2.181477e+01 3.987948e-01 -2.113793e-01 1.951506e-01 -1.469132e-01 -1.508813e-01 -2.625024e-01 -5.897089e-02 -1.120547e-01 6.270901e-02 -2.900503e-02 7.032449e-02 8.995037e-02 1.411947e+00 7.208133e-01 -1.870225e-01 8.230850e-02 -5.838026e-01 -3.180322e-01 -4.312045e-01 -1.881790e-01 -9.996656e-02 -1.698476e-01 -2.042943e-01 -2.049364e-01 -3.588879e-02 1.906168e+00
<VARIANCE> 39
 6.079654e+00 6.267499e+00 1.183205e+01 1.661619e+01 1.070364e+01 1.446400e+01 1.800472e+01 1.881669e+01 2.300389e+01 1.625151e+01 1.806528e+01 1.423954e+01 8.173941e+00 4.886861e-01 6.926955e-01 6.024783e-01 1.007134e+00 8.323218e-01 9.528525e-01 1.215363e+00 1.207521e+00 1.152829e+00 1.215253e+00 1.077638e+00 1.018400e+00 3.717603e+00 2.358925e-01 1.747839e-01 2.835312e-01 4.721895e-01 2.896428e-01 3.448415e-01 3.301298e-01 3.602115e-01 4.305901e-01 3.893939e-01 3.192208e-01 2.885723e-01 7.810811e-01
<GCONST> 9.130338e+01
<MIXTURE> 10 8.362807e-02
<MEAN> 39
 -2.468169e+00 1.194683e+01 7.113809e+00 1.363873e+01 9.619222e+00 5.680441e+00 9.148220e-01 -4.622269e+00 -2.675978e+00 -3.681324e+00 -2.396352e+00 -2.320995e+00 -1.930796e+01 -1.252115e+00 -3.329512e+00 -1.804382e+00 -2.506002e+00 -1.382989e+00 -8.624880e-01 1.056258e+00 2.034165e+00 1.941908e+00 1.045701e+00 7.184458e-01 8.852493e-01 4.315989e+00 1.195163e+00 -1.057344e+00 -7.143984e-01 -1.523096e+00 -1.263243e+00 -8.526451e-01 -5.023325e-01 7.204144e-02 4.837612e-02 5.333018e-01 3.403279e-01 9.093735e-02 2.264482e+00
<VARIANCE> 39
 1.059370e+01 1.060675e+01 1.364348e+01 1.384414e+01 1.676056e+01 2.072429e+01 3.149049e+01 2.508139e+01 1.974237e+01 1.873119e+01 1.463174e+01 1.339006e+01 9.113995e+00 1.685591e+00 1.635776e+00 1.723024e+00 2.555361e+00 2.268459e+00 2.686651e+00 2.488553e+00 2.768553e+00 2.543231e+00 2.458858e+00 2.305276e+00 2.087188e+00 5.109216e+00 3.141583e-01 4.596824e-01 7.533458e-01 5.624262e-01 4.670475e-01 7.228819e-01 7.530835e-01 6.501552e-01 6.473617e-01 5.810282e-01 4.213355e-01 3.699444e-01 3.218720e-01
<GCONST> 1.102679e+02
<MIXTURE> 11 6.503098e-02
<MEAN> 39
 5.393862e+00 9.844335e+00 1.341144e+00 6.666545e+00 3.684062e+00 2.485254e+00 -1.602679e+00 -8.217482e+00 -6.876311e+00 -3.910227e+00 -9.763563e-01 -2.852232e+00 -1.124564e+01 4.257202e-01 -6.477596e-01 -3.105637e-01 -1.254471e+00 -3.955285e-01 -1.080013e-01 -1.241881e-01 1.199294e-01 6.198869e-01 4.227234e-02 1.294741e-01 2.191117e-01 1.861367e+00 -1.038407e-01 -8.797284e-01 -3.049776e-01 -7.335570e-01 -3.708613e-01 -1.925849e-01 -7.576808e-02 4.954081e-01 6.762609e-01 4.829068e-01 2.110944e-01 2.533982e-01 9.589623e-01
<VARIANCE> 39
 1.861007e+01 2.557122e+01 2.057200e+01 4.630606e+01 3.425023e+01 3.641377e+01 3.906457e+01 3.485971e+01 4.436045e+01 3.570439e+01 2.986950e+01 3.406261e+01 3.231775e+01 3.473809e+00 2.283692e+00 2.787283e+00 5.081474e+00 2.517124e+00 2.750112e+00 3.076168e+00 5.756054e+00 6.317438e+00 3.922592e+00 3.473375e+00 2.504507e+00 2.956253e+00 6.328385e-01 4.459146e-01 5.168560e-01 8.763585e-01 6.204298e-01 6.834223e-01 6.865973e-01 9.588907e-01 9.520364e-01 6.797276e-01 5.967886e-01 5.223644e-01 6.401302e-01
<GCONST> 1.274227e+02
<MIXTURE> 12 6.013683e-02
<MEAN> 39
 4.518780e+00 1.022401e+01 2.602104e+00 1.023304e+01 7.662077e+00 2.070243e+00 -3.042712e+00 -9.058460e+00 -4.344088e+00 -1.643698e+00 5.599975e-02 -3.575708e+00 -1.245672e+01 -8.852967e-01 -3.440783e+00 6.668065e-01 -1.660144e+00 -2.347760e+00 -2.271615e+00 -2.292026e-01 2.216789e+00 1.602324e+00 2.533610e-01 -3.505053e-02 9.301162e-01 4.736638e+00 2.295540e-01 -1.297466e+00 5.143973e-01 -1.065648e+00 -1.493177e+00 -6.247509e-01 -2.226295e-01 9.196376e-01 -7.413670e-02 8.646075e-02 1.107679e-01 2.278750e-01 1.692692e+00
<VARIANCE> 39
 1.443948e+01 1.536130e+01 1.564234e+01 2.073399e+01 2.209537e+01 2.657490e+01 2.513488e+01 1.814195e+01 2.383517e+01 2.022639e+01 2.114822e+01 1.871920e+01 2.101482e+01 1.937788e+00 1.784576e+00 3.624330e+00 4.429423e+00 3.221237e+00 3.100025e+00 4.450395e+00 2.663515e+00 5.808920e+00 3.000553e+00 2.565785e+00 2.103821e+00 2.397814e+00 3.292103e-01 4.121235e-01 7.879227e-01 5.270222e-01 6.954567e-01 6.882036e-01 7.386277e-01 6.713833e-01 1.033020e+00 7.653114e-01 6.048063e-01 4.785509e-01 2.724809e-01
<GCONST> 1.176827e+02
<MIXTURE> 13 5.749908e-02
<MEAN> 39
 -9.111823e+00 5.822721e+00 1.711402e+00 1.050754e+01 7.039106e+00 6.427250e+00 5.037881e+00 2.032576e+00 3.180897e+00 2.314487e+00 2.893935e+00 1.507352e+00 -2.178000e+01 1.279561e+00 -1.785167e+00 -1.063472e+00 -2.516458e+00 -1.358711e+00 -1.589280e+00 -6.118019e-01 -2.528196e-01 4.190740e-01 2.301970e-01 8.792730e-02 1.398331e-01 5.687806e+00 1.598697e+00 -4.489114e-01 -3.450539e-01 -1.295836e+00 -7.102650e-01 -5.097561e-01 -7.220448e-01 -5.838347e-01 -3.501416e-01 -1.287265e-01 -2.580659e-01 -3.457477e-01 2.295654e+00
<VARIANCE> 39
 6.911582e+00 9.564861e+00 1.233569e+01 1.557621e+01 1.312718e+01 1.743806e+01 2.216624e+01 1.746899e+01 1.870500e+01 1.360176e+01 1.940458e+01 1.427367e+01 8.944923e+00 1.890497e+00 1.618304e+00 1.752989e+00 2.108803e+00 1.937150e+00 2.106881e+00 2.801227e+00 2.792987e+00 2.991931e+00 2.703786e+00 2.121492e+00 1.668124e+00 3.783627e+00 2.062211e-01 3.485112e-01 5.570745e-01 5.384030e-01 4.623584e-01 8.581173e-01 6.008014e-01 4.803823e-01 5.627678e-01 5.056480e-01 5.951007e-01 4.228238e-01 3.810705e-01
<GCONST> 1.068418e+02
<MIXTURE> 14 5.780365e-02
<MEAN> 39
 2.578549e+00 1.331129e+01 5.804515e+00 9.813989e+00 7.432208e+00 3.923530e+00 6.850365e-01 -8.156358e+00 -8.428445e+00 -4.817641e+00 -1.572988e+00 4.378778e-02 -1.540457e+01 4.872325e-02 -3.030646e+00 -1.999296e+00 -3.080376e+00 -1.423478e+00 -5.327836e-01 -2.419643e-01 9.651371e-01 2.287265e+00 1.743785e+00 7.400528e-01 7.080080e-02 4.617905e+00 7.638533e-01 -1.450768e+00 -1.177008e+00 -1.593682e+00 -9.164793e-01 -1.224452e-02 -2.791566e-01 2.993361e-01 9.208191e-01 8.493565e-01 4.840117e-01 -2.439702e-01 1.892464e+00
<VARIANCE> 39
 1.320302e+01 1.064896e+01 1.635719e+01 1.728246e+01 1.967408e+01 2.154361e+01 3.035175e+01 2.206462e+01 1.937580e+01 1.906266e+01 2.051136e+01 1.838771e+01 1.070406e+01 2.896995e+00 2.027876e+00 2.052210e+00 4.576264e+00 2.912097e+00 2.437066e+00 3.179102e+00 3.180129e+00 2.930094e+00 2.825011e+00 3.041925e+00 1.987645e+00 3.250839e+00 3.656322e-01 4.097106e-01 5.197397e-01 8.102706e-01 6.083679e-01 8.116719e-01 9.653417e-01 8.617673e-01 6.892672e-01 7.036638e-01 7.128720e-01 6.116222e-01 2.977196e-01
<GCONST> 1.159961e+02
<MIXTURE> 15 4.904041e-02
<MEAN> 39
 5.607605e+00 1.351498e+01 2.575607e+00 5.404487e+00 3.627346e+00 5.517815e+00 4.717504e+00 -4.393315e+00 -6.522110e+00 -7.670927e+00 -5.430064e+00 -8.910269e-01 -1.458904e+01 -8.502932e-01 -2.891229e+00 -1.281436e+00 -1.725355e+00 -5.589851e-01 -1.012790e+00 -9.223170e-01 2.127426e-02 1.482863e+00 1.412768e+00 1.193938e+00 7.050842e-01 4.041605e+00 5.205260e-01 -1.119142e+00 -7.978317e-01 -1.214924e+00 -5.758260e-01 -1.135021e-01 -7.778426e-01 -1.565076e-01 3.865431e-01 7.485203e-01 9.451735e-01 3.302945e-01 1.640455e+00
<VARIANCE> 39
 1.291965e+01 1.037754e+01 1.715368e+01 2.081412e+01 2.513185e+01 2.059599e+01 1.979383e+01 2.798723e+01 2.342575e+01 1.596825e+01 2.700470e+01 1.856935e+01 9.554758e+00 2.435920e+00 1.741472e+00 1.646101e+00 4.110738e+00 2.873117e+00 2.275476e+00 2.228679e+00 2.578027e+00 2.337373e+00 2.350009e+00 2.073302e+00 1.691178e+00 2.334104e+00 3.017516e-01 3.332063e-01 4.187128e-01 9.284976e-01 5.215513e-01 7.314177e-01 7.600690e-01 7.180847e-01 6.012992e-01 5.620025e-01 5.144119e-01 4.949763e-01 2.918096e-01
<GCONST> 1.117119e+02
<MIXTURE> 16 4.456252e-02
<MEAN> 39
 -7.777116e+00 5.217076e+00 9.660789e-01 9.052690e+00 6.891628e+00 6.109033e+00 4.037807e+00 1.165250e+00 3.540010e+00 1.310505e+00 2.425148e+00 1.730170e+00 -1.984561e+01 2.453489e+00 -1.295341e+00 4.056199e-01 -1.943558e+00 -2.174383e+00 -3.012075e+00 -1.382443e+00 -3.648728e-01 -5.307458e-01 -9.738740e-01 -9.385675e-01 -6.069977e-01 6.457900e+00 1.102487e+00 -5.902780e-01 3.006002e-01 -9.235324e-01 -1.016917e+00 -7.150508e-01 -6.246269e-01 -2.092052e-01 -5.500830e-01 -3.288775e-03 -1.922612e-01 -2.129434e-01 1.885147e+00
<VARIANCE> 39
 9.912009e+00 1.657482e+01 1.427760e+01 1.664053e+01 2.094876e+01 1.748518e+01 2.108278e+01 2.648487e+01 2.470595e+01 2.141140e+01 2.422458e+01 1.868864e+01 1.841309e+01 2.358522e+00 2.205469e+00 3.405881e+00 3.825209e+00 2.798903e+00 3.598832e+00 2.460613e+00 2.684078e+00 3.507644e+00 3.049898e+00 2.170456e+00 2.096928e+00 4.398328e+00 1.965830e-01 4.758293e-01 8.812003e-01 6.690512e-01 7.418180e-01 6.906447e-01 7.373670e-01 7.726184e-01 8.395017e-01 6.466243e-01 6.453326e-01 4.629421e-01 4.549979e-01
<GCONST> 1.168218e+02
<MIXTURE> 17 4.478179e-02
<MEAN> 39
 -9.029474e+00 4.269555e+00 2.575027e-01 9.230693e+00 6.309029e+00 6.505077e+00 3.814293e+00 1.789090e+00 3.410364e+00 2.256865e+00 3.211763e+00 1.678121e+00 -2.244834e+01 3.606246e-01 -6.576375e-01 -1.535804e-01 -6.914461e-01 -7.089117e-01 -9.085612e-01 -4.831435e-01 -3.837705e-01 -3.261789e-01 -6.263130e-01 -4.462336e-01 -1.667123e-01 1.989050e+00 7.584805e-01 -2.146068e-01 1.427510e-01 -6.837962e-01 -3.975693e-01 -6.631939e-01 -3.885359e-01 -1.841818e-01 -1.767030e-01 -2.318322e-01 -2.487374e-01 -1.561994e-01 2.221377e+00
<VARIANCE> 39
 6.217128e+00 8.205812e+00 1.171904e+01 1.637701e+01 1.080939e+01 1.420963e+01 1.864868e+01 2.035575e+01 2.183368e+01 1.450276e+01 1.516529e+01 1.439949e+01 6.736142e+00 4.471072e-01 1.077949e+00 6.718436e-01 1.055381e+00 9.587957e-01 1.162644e+00 9.967408e-01 1.322870e+00 1.149712e+00 1.367869e+00 1.186195e+00 1.145931e+00 4.366802e+00 2.066167e-01 2.599398e-01 3.520107e-01 3.857224e-01 3.188414e-01 3.335801e-01 2.931827e-01 4.111785e-01 4.277356e-01 3.935821e-01 3.252874e-01 3.123612e-01 7.524015e-01
<GCONST> 9.280622e+01
<STATE> 3
<NUMMIXES> 17
<MIXTURE> 1 4.496815e-02
<MEAN> 39
 -5.722746e+00 2.485348e+00 3.130876e+00 6.975093e+00 6.250794e+00 3.677017e+00 2.396642e+00 2.599882e-01 1.472420e+00 -5.965461e-01 1.587273e+00 2.419205e-01 -7.864619e+00 -2.564844e-01 -3.482105e+00 -2.689116e+00 -3.316505e+00 -8.278283e-01 -9.746087e-01 5.602005e-01 2.037141e+00 2.570215e+00 2.199859e+00 1.763532e+00 1.315921e+00 6.094662e+00 1.580377e+00 2.792688e-01 -5.893894e-01 -7.850042e-01 -5.307249e-01 -4.316093e-01 -8.200536e-01 -7.008672e-01 -5.258921e-01 -9.926583e-02 -2.422903e-01 -2.225466e-01 4.809227e-01
<VARIANCE> 39
 1.446868e+01 2.380297e+01 1.883092e+01 2.159452e+01 2.490325e+01 2.353148e+01 3.568524e+01 3.116253e+01 3.137120e+01 2.244343e+01 2.833387e+01 1.868895e+01 4.493013e+01 6.546539e+00 2.715844e+00 2.826494e+00 3.839399e+00 4.130235e+00 3.621749e+00 6.764593e+00 5.865479e+00 3.433238e+00 3.470866e+00 3.240421e+00 2.565599e+00 3.004826e+00 7.854124e-01 5.783457e-01 6.752306e-01 1.014571e+00 7.035903e-01 8.232261e-01 9.633299e-01 1.029595e+00 9.162925e-01 8.297344e-01 8.869575e-01 7.384645e-01 6.840298e-01
<GCONST> 1.280941e+02
<MIXTURE> 2 6.901129e-02
<MEAN> 39
 4.598526e-02 3.667676e+00 -2.771687e+00 -4.794173e-01 2.913738e+00 -1.034784e+00 2.414020e+00 -3.381377e+00 2.473430e-01 1.736561e+00 -5.680314e-01 3.211517e+00 4.410898e-01 3.148456e+00 -3.452059e+00 -2.030044e+00 -5.512740e+00 -3.862210e+00 1.136830e+00 -1.476314e+00 -1.188162e-01 1.755546e+00 1.338200e+00 2.238301e+00 -3.110431e-01 6.660562e+00 6.911401e-01 -9.725196e-02 1.703999e-01 -1.964533e-01 -4.293754e-01 1.002584e+00 -2.116165e-01 -1.520484e-01 -1.295455e-01 -2.331649e-01 3.105940e-01 -6.697766e-01 -5.085407e-01
<VARIANCE> 39
 1.608327e+01 1.430087e+01 1.950816e+01 2.520209e+01 2.371466e+01 2.382874e+01 3.116434e+01 2.555835e+01 2.470358e+01 2.926397e+01 1.603417e+01 1.219944e+01 2.572577e+01 3.335846e+00 3.654050e+00 3.522431e+00 4.793240e+00 3.159675e+00 5.516830e+00 5.312984e+00 6.191730e+00 5.439724e+00 4.343472e+00 3.690235e+00 4.132836e+00 3.445644e+00 4.141630e-01 5.266736e-01 4.279900e-01 7.723109e-01 5.949066e-01 6.170123e-01 7.880506e-01 6.995226e-01 6.052502e-01 6.875757e-01 4.773226e-01 4.305702e-01 5.671173e-01
<GCONST> 1.229864e+02
<MIXTURE> 3 5.677068e-02
<MEAN> 39
 -3.965541e+00 1.935236e+00 2.049794e+00 5.910174e+00 4.386353e+00 -1.576383e+00 2.537095e+00 4.198397e-01 2.211265e+00 -9.170117e-01 -2.192141e+00 9.062209e-01 -3.508176e+00 1.344701e+00 -3.814727e+00 1.405135e+00 -1.962647e+00 -3.856539e+00 -3.272672e+00 -1.326557e+00 2.141742e+00 2.459292e-01 -4.629807e-01 6.833367e-01 1.181226e+00 6.716771e+00 9.111070e-01 -7.493492e-02 8.092675e-01 -1.717419e-01 -9.891153e-01 -1.546014e-01 -7.676067e-01 -1.204010e-01 -8.145972e-01 -6.467012e-02 4.077195e-01 -1.556483e-01 1.108971e-01
<VARIANCE> 39
 1.787013e+01 1.743471e+01 1.587013e+01 2.373047e+01 2.529892e+01 2.661631e+01 2.597882e+01 2.539362e+01 2.865000e+01 2.357920e+01 2.016053e+01 1.628035e+01 3.245784e+01 3.476432e+00 2.918082e+00 2.654152e+00 4.541506e+00 3.994692e+00 2.540002e+00 5.120824e+00 3.828811e+00 3.415476e+00 3.701615e+00 3.245120e+00 2.291865e+00 3.012303e+00 3.248667e-01 4.405048e-01 3.992314e-01 6.025559e-01 6.327447e-01 6.257160e-01 7.586780e-01 6.704168e-01 8.443779e-01 7.740142e-01 5.199109e-01 4.178932e-01 5.162048e-01
<GCONST> 1.203041e+02
<MIXTURE> 4 6.295229e-02
<MEAN> 39
 -4.715430e+00 -1.419930e+00 -2.169516e+00 2.667613e+00 4.745739e+00 2.183722e+00 2.377255e+00 -8.708677e-01 3.386233e+00 2.190323e+00 2.595786e+00 1.286429e+00 6.930770e-01 2.337363e+00 -1.921571e+00 -2.640061e+00 -3.976020e+00 -1.203806e+00 -4.572246e-01 -1.020005e+00 -6.765120e-02 9.944355e-01 1.327236e+00 1.260105e+00 9.941756e-01 5.267323e+00 1.672908e+00 1.096187e+00 -4.358878e-02 -5.113064e-01 -3.082047e-01 1.398057e-01 -7.718630e-01 -5.310712e-01 -9.164170e-01 -5.886762e-01 -3.352368e-01 -7.414487e-02 -8.397169e-01
<VARIANCE> 39
 1.302689e+01 1.939431e+01 1.477942e+01 2.410789e+01 2.121500e+01 1.831614e+01 2.818575e+01 3.147685e+01 2.424671e+01 1.765289e+01 2.064857e+01 1.653600e+01 2.611723e+01 3.544008e+00 2.900577e+00 4.042865e+00 6.490780e+00 3.036635e+00 2.940551e+00 4.641518e+00 3.726257e+00 3.124016e+00 3.024460e+00 2.462065e+00 2.135087e+00 2.811350e+00 3.267168e-01 5.423460e-01 6.711948e-01 9.654586e-01 7.789567e-01 7.981576e-01 1.166224e+00 1.155831e+00 9.286245e-01 6.477758e-01 6.128663e-01 6.035076e-01 5.980225e-01
<GCONST> 1.222088e+02
<MIXTURE> 5 3.748437e-02
<MEAN> 39
 7.558632e+00 3.557216e+00 -4.659177e+00 -6.467807e+00 -1.021083e+00 4.478361e+00 -1.896300e-01 -6.062638e+00 -2.846964e+00 1.231257e+00 5.180326e+00 1.982122e+00 1.277465e+00 1.731419e+00 -3.876227e+00 -2.806722e+00 -5.625187e+00 -1.786743e+00 5.052355e-01 -3.806060e-01 8.641424e-01 2.364608e+00 2.354574e+00 2.028741e+00 -8.224031e-02 5.585105e+00 2.304113e-02 -3.113434e-02 1.940517e-01 4.125143e-01 3.999228e-01 1.532892e-01 1.862341e-01 2.708994e-02 -1.439236e-01 -8.957318e-02 -5.890831e-01 -5.905019e-01 -3.765517e-01
<VARIANCE> 39
 1.189033e+01 1.352687e+01 1.461554e+01 2.419415e+01 2.041218e+01 1.877598e+01 1.983513e+01 1.854594e+01 1.943466e+01 2.350777e+01 2.455052e+01 1.617122e+01 1.843672e+01 1.779472e+00 4.025028e+00 3.551321e+00 5.909053e+00 4.601316e+00 4.882031e+00 6.262538e+00 5.977125e+00 5.514571e+00 4.170546e+00 5.047326e+00 4.525379e+00 3.199857e+00 2.145283e-01 2.700357e-01 2.538303e-01 4.626502e-01 4.398474e-01 3.840053e-01 4.866838e-01 6.262283e-01 5.983131e-01 4.925764e-01 5.967180e-01 4.193978e-01 3.960142e-01
<GCONST> 1.171888e+02
<MIXTURE> 6 6.374126e-02
<MEAN> 39
 -5.018766e+00 1.410781e+00 1.448927e-02 4.134712e+00 2.963762e+00 1.658944e+00 2.658876e+00 6.528540e-01 4.516206e+00 1.814646e+00 2.645173e+00 2.036868e+00 -4.784451e+00 4.537945e+00 -1.767881e+00 -1.422060e+00 -4.029132e+00 -1.544158e+00 -1.439633e+00 -1.630908e+00 -8.189386e-01 -4.855398e-01 2.973319e-01 -6.529216e-01 -7.665179e-01 7.744603e+00 9.046359e-01 -2.898189e-01 -3.611240e-01 -6.693774e-01 -7.360303e-02 2.119121e-01 -3.775045e-01 -8.626329e-02 -3.791981e-01 1.117940e-01 -3.084610e-01 -3.545851e-01 -3.175030e-02
<VARIANCE> 39
 1.341359e+01 1.656489e+01 1.952752e+01 2.288168e+01 2.116178e+01 2.526754e+01 3.598734e+01 2.168252e+01 2.889274e+01 2.465001e+01 2.301538e+01 2.125439e+01 4.073335e+01 1.572103e+00 2.408595e+00 3.053696e+00 5.662098e+00 2.493003e+00 4.843119e+00 3.403614e+00 2.569192e+00 3.298267e+00 3.394958e+00 3.726719e+00 2.625159e+00 3.303804e+00 3.662699e-01 4.849458e-01 5.379422e-01 7.652522e-01 6.420376e-01 8.803654e-01 1.057857e+00 6.340547e-01 6.557058e-01 7.239503e-01 7.318724e-01 6.991873e-01 7.922611e-01
<GCONST> 1.220915e+02
<MIXTURE> 7 5.716280e-02
<MEAN> 39
 -1.774191e+00 5.402368e-01 4.056251e+00 7.047218e+00 -1.738155e-01 -4.983922e+00 9.244570e-01 2.125290e+00 1.683069e+00 -3.162070e+00 1.442731e+00 1.675886e+00 -1.359223e-01 1.347558e+00 -2.898545e+00 3.156874e+00 -2.739115e+00 -4.524903e+00 -2.602179e+00 -5.756856e-01 7.270437e-01 -2.015347e+00 1.875579e-01 6.343685e-01 8.633080e-01 6.135395e+00 4.260676e-01 4.224994e-01 7.521573e-01 -5.860078e-01 -4.724520e-01 4.914371e-01 -4.909225e-01 -8.158561e-01 -8.790219e-01 4.285169e-01 -1.905602e-01 -3.913612e-01 -5.743182e-01
<VARIANCE> 39
 2.249538e+01 1.457515e+01 2.692161e+01 2.041587e+01 3.001004e+01 3.250260e+01 4.080928e+01 3.418846e+01 3.233087e+01 2.061379e+01 3.127070e+01 2.489210e+01 2.908846e+01 4.414572e+00 3.016744e+00 3.162659e+00 6.144808e+00 3.620398e+00 4.305562e+00 5.717439e+00 5.957277e+00 4.213367e+00 7.172351e+00 3.286819e+00 2.899304e+00 3.691597e+00 3.891053e-01 4.586657e-01 4.905991e-01 6.061361e-01 6.102197e-01 9.652419e-01 9.951950e-01 9.944036e-01 7.290133e-01 6.167802e-01 9.578015e-01 5.872965e-01 7.130529e-01
<GCONST> 1.280432e+02
<MIXTURE> 8 6.492587e-02
<MEAN> 39
 6.895715e-01 5.629738e+00 1.869147e+00 5.155597e+00 5.844594e+00 2.480192e+00 1.285715e+00 -4.550042e+00 -3.514126e+00 -2.645406e+00 -2.829690e+00 -7.293699e-01 -6.705467e+00 8.769704e-01 -3.343429e+00 -2.452663e+00 -4.129801e+00 -1.931498e+00 -4.458298e-01 -1.051523e+00 5.132217e-01 2.199017e+00 1.964592e+00 1.807725e+00 9.219027e-01 5.481695e+00 1.035633e+00 -1.811714e-01 -5.085317e-01 -1.018512e+00 -6.932128e-01 2.825100e-01 -3.208979e-01 -2.828760e-02 9.227294e-02 1.430982e-01 4.489300e-01 1.982088e-02 5.021598e-01
<VARIANCE> 39
 1.870047e+01 1.637897e+01 2.333965e+01 2.461168e+01 2.429350e+01 2.708223e+01 2.431362e+01 2.318881e+01 2.105260e+01 2.216959e+01 1.992247e+01 1.829431e+01 1.740454e+01 1.896432e+00 2.440161e+00 2.842511e+00 5.104129e+00 3.640640e+00 3.158118e+00 4.411629e+00 5.352584e+00 3.829684e+00 3.265787e+00 2.766512e+00 2.972072e+00 2.516312e+00 3.233894e-01 5.503669e-01 5.213765e-01 1.124307e+00 7.432998e-01 1.024888e+00 8.739179e-01 7.723712e-01 7.164538e-01 7.905899e-01 5.680295e-01 5.448820e-01 2.969102e-01
<GCONST> 1.209657e+02
<MIXTURE> 9 8.684669e-02
<MEAN> 39
 3.833413e+00 1.401687e+00 -2.190168e+00 9.249067e-01 7.821933e-01 -2.468907e+00 -3.190154e+00 -2.936534e+00 3.955900e+00 2.282137e+00 2.177194e+00 -3.177557e+00 2.777967e+00 1.623300e+00 -5.129004e+00 -1.865912e+00 -4.697019e+00 -2.362593e+00 -1.713845e+00 -5.444304e-01 3.208309e+00 2.532544e+00 2.242937e+00 -9.223257e-01 8.864699e-02 6.887832e+00 2.271553e-01 -1.515908e-01 2.313270e-01 1.142481e-01 1.212124e-01 2.094341e-01 1.168696e-01 1.644496e-01 -5.780953e-01 -1.910395e-01 -5.755502e-01 3.954954e-02 -4.715984e-01
<VARIANCE> 39
 1.484640e+01 1.361085e+01 1.944718e+01 2.029867e+01 1.641029e+01 2.490770e+01 2.352104e+01 2.722174e+01 1.908510e+01 2.230624e+01 1.859112e+01 1.241836e+01 1.848621e+01 3.910229e+00 2.667094e+00 5.208335e+00 5.121318e+00 5.219621e+00 7.686496e+00 8.693718e+00 6.127954e+00 6.218221e+00 6.426118e+00 4.162346e+00 4.115325e+00 3.157376e+00 4.028029e-01 3.408188e-01 3.925779e-01 4.213161e-01 5.134341e-01 5.178629e-01 6.249268e-01 6.030460e-01 5.314442e-01 5.132797e-01 5.864688e-01 3.959227e-01 4.035141e-01
<GCONST> 1.210733e+02
<MIXTURE> 10 6.528726e-02
<MEAN> 39
 1.810592e-01 3.696612e+00 -2.019993e+00 -2.788616e-01 2.813174e+00 -1.784136e+00 1.883205e+00 -3.506647e+00 -8.238985e-02 1.587572e+00 -7.444524e-01 2.700151e+00 3.357573e-01 2.940728e+00 -3.775222e+00 -2.053598e+00 -5.159057e+00 -4.027270e+00 4.741778e-01 -1.654361e+00 1.894589e-01 1.983171e+00 1.308256e+00 1.939003e+00 -3.716368e-01 6.885488e+00 6.820439e-01 -1.746527e-01 8.818545e-02 -1.016326e-01 -4.300008e-01 9.354919e-01 -2.467824e-01 -4.151796e-02 3.813007e-03 -2.301580e-01 2.424743e-01 -6.387085e-01 -4.229229e-01
<VARIANCE> 39
 1.585024e+01 1.442707e+01 1.881785e+01 2.595359e+01 2.381771e+01 2.400428e+01 3.199324e+01 2.681221e+01 2.445550e+01 3.207207e+01 1.692403e+01 1.246587e+01 2.547485e+01 3.545275e+00 3.605067e+00 3.688375e+00 5.324880e+00 3.103213e+00 6.318977e+00 6.640994e+00 7.015386e+00 5.609775e+00 4.736639e+00 3.967113e+00 4.324533e+00 3.467330e+00 3.932619e-01 6.035579e-01 4.594479e-01 8.089464e-01 6.139846e-01 5.955446e-01 8.675790e-01 7.526463e-01 6.333555e-01 7.818500e-01 4.554598e-01 4.015700e-01 5.417178e-01
<GCONST> 1.244915e+02
<MIXTURE> 11 6.100995e-02
<MEAN> 39
 9.782491e-01 5.109288e+00 1.982682e+00 5.497808e+00 5.553998e+00 1.584380e+00 8.536149e-01 -5.013464e+00 -3.709134e+00 -3.026727e+00 -3.278213e+00 -1.923784e+00 -6.278185e+00 4.461771e-01 -3.040690e+00 -1.638038e+00 -3.462826e+00 -1.935198e+00 -7.632539e-01 -1.044904e+00 8.284937e-01 1.792233e+00 1.473646e+00 1.254663e+00 7.467578e-01 5.023523e+00 9.142651e-01 -1.105284e-01 -3.488359e-01 -9.700491e-01 -7.662773e-01 2.493455e-01 -4.216677e-01 1.400452e-01 3.032688e-02 1.362405e-01 4.397840e-01 1.679250e-01 4.115840e-01
<VARIANCE> 39
 2.219631e+01 1.755776e+01 2.883241e+01 2.426676e+01 2.458188e+01 2.728663e+01 2.841486e+01 2.551341e+01 1.806496e+01 2.305200e+01 2.242494e+01 2.255858e+01 1.797115e+01 3.256112e+00 2.755141e+00 3.700189e+00 5.232629e+00 3.439352e+00 3.465375e+00 5.342559e+00 4.840871e+00 4.577420e+00 3.864093e+00 2.736213e+00 2.789745e+00 2.799483e+00 4.518172e-01 6.272833e-01 4.932351e-01 1.201283e+00 7.656658e-01 1.048295e+00 8.890308e-01 8.890599e-01 6.700834e-01 7.845980e-01 5.611238e-01 5.581141e-01 3.144550e-01
<GCONST> 1.240574e+02
<MIXTURE> 12 6.819553e-02
<MEAN> 39
 -4.822151e+00 -2.430775e+00 -2.244797e+00 2.510286e+00 4.591565e+00 1.637164e+00 1.916991e+00 -1.942111e-02 3.264564e+00 2.288625e+00 2.712698e+00 9.726821e-01 1.010869e+00 2.609176e+00 -1.724837e+00 -2.284763e+00 -3.450480e+00 -1.532738e+00 -1.134244e+00 -1.110373e+00 -3.241520e-01 5.020002e-01 8.425801e-01 5.782997e-01 4.573916e-01 5.240461e+00 1.634650e+00 1.142937e+00 8.980702e-02 -2.797326e-01 -3.850729e-01 4.472855e-02 -7.131945e-01 -5.968612e-01 -8.986183e-01 -6.219968e-01 -4.164822e-01 -1.766339e-01 -9.320225e-01
<VARIANCE> 39
 1.209892e+01 1.681123e+01 1.552318e+01 2.316713e+01 2.726872e+01 2.140060e+01 2.684495e+01 2.703112e+01 2.533120e+01 1.862240e+01 2.296558e+01 1.658754e+01 2.815652e+01 3.235834e+00 2.985555e+00 3.371236e+00 5.744320e+00 2.957253e+00 3.524277e+00 4.422253e+00 4.155284e+00 3.737684e+00 3.619420e+00 2.845382e+00 2.424990e+00 3.348544e+00 3.003800e-01 4.948874e-01 6.421232e-01 9.537249e-01 8.674338e-01 1.012046e+00 1.184697e+00 1.033122e+00 1.028745e+00 5.806421e-01 7.503291e-01 6.252515e-01 6.540319e-01
<GCONST> 1.234805e+02
<MIXTURE> 13 5.162189e-02
<MEAN> 39
 -4.783103e+00 -5.241801e-01 5.652079e-02 4.508837e+00 2.366601e+00 2.148975e+00 1.950225e+00 1.314408e+00 5.364906e+00 1.280569e+00 4.107090e+00 1.913878e+00 -2.815031e+00 4.405706e+00 -1.989045e+00 -1.750152e+00 -3.630977e+00 -1.660278e+00 -2.437382e+00 -1.822504e+00 -9.186634e-01 -8.148156e-01 -4.375560e-01 -1.640616e+00 -1.083208e+00 7.305262e+00 1.004719e+00 -9.311204e-02 -4.011382e-01 -4.699733e-01 4.215598e-02 -8.177761e-02 -3.871187e-01 -7.685184e-02 -4.789546e-01 1.318616e-02 -5.869141e-01 -3.836365e-01 -3.022167e-01
<VARIANCE> 39
 1.370093e+01 1.825129e+01 1.715729e+01 2.176706e+01 2.412615e+01 2.875843e+01 2.903924e+01 2.224704e+01 3.415007e+01 2.396534e+01 2.210321e+01 2.057649e+01 3.841405e+01 1.678288e+00 1.943496e+00 3.047603e+00 4.754335e+00 2.805312e+00 4.358053e+00 3.557531e+00 2.523905e+00 2.900766e+00 2.897064e+00 4.214387e+00 2.656383e+00 3.671369e+00 4.629098e-01 4.781120e-01 5.170537e-01 6.129586e-01 7.293140e-01 9.260371e-01 1.017180e+00 7.115765e-01 9.309680e-01 6.915347e-01 7.603255e-01 7.166221e-01 7.665772e-01
<GCONST> 1.223229e+02
<MIXTURE> 14 6.084230e-02
<MEAN> 39
 -3.499869e+00 1.930044e+00 1.540309e+00 6.149927e+00 4.747965e+00 -2.145273e+00 1.559629e+00 -1.059280e+00 2.793813e+00 -7.033367e-01 -2.764984e+00 1.561220e-01 -2.459600e+00 1.305804e+00 -4.098825e+00 1.540989e+00 -2.068242e+00 -4.103464e+00 -3.582530e+00 -1.766834e+00 2.172793e+00 1.183757e-01 -5.311683e-01 5.389662e-01 8.993509e-01 6.793329e+00 8.767791e-01 -6.031859e-02 8.672916e-01 -2.525740e-01 -1.019656e+00 -1.369507e-02 -6.674712e-01 6.828030e-02 -9.753073e-01 -1.170000e-01 5.157607e-01 -7.003543e-02 -1.279934e-02
<VARIANCE> 39
 2.111907e+01 1.671117e+01 1.854448e+01 1.967939e+01 2.259841e+01 2.595809e+01 3.018200e+01 2.614440e+01 3.065504e+01 2.850826e+01 2.026507e+01 1.661358e+01 2.583267e+01 3.769162e+00 2.433259e+00 2.879117e+00 3.998597e+00 3.751498e+00 2.735199e+00 5.393054e+00 4.127589e+00 4.245931e+00 3.218093e+00 2.711598e+00 1.910101e+00 2.524611e+00 3.822469e-01 4.948671e-01 4.674109e-01 5.311862e-01 6.014590e-01 6.542064e-01 8.806716e-01 7.734467e-01 9.703642e-01 8.226658e-01 5.422587e-01 4.118262e-01 4.465310e-01
<GCONST> 1.207027e+02
<MIXTURE> 15 5.524928e-02
<MEAN> 39
 -2.515906e+00 -8.911894e-02 4.899235e+00 7.740270e+00 6.175807e-01 -5.744027e+00 3.566956e-01 2.579662e+00 1.965749e+00 -3.079220e+00 1.718501e+00 1.283655e+00 -2.203778e-01 1.686770e+00 -2.562600e+00 3.542581e+00 -2.862648e+00 -4.938582e+00 -2.816173e+00 -1.138058e+00 1.062843e-01 -2.714740e+00 -3.786306e-02 2.559618e-01 6.912605e-02 6.330862e+00 4.207829e-01 5.141739e-01 6.904405e-01 -7.667921e-01 -6.115809e-01 7.326330e-01 -4.237596e-01 -8.352504e-01 -9.514487e-01 4.940909e-01 -1.854938e-01 -3.666885e-01 -6.349102e-01
<VARIANCE> 39
 2.199068e+01 1.550646e+01 3.127463e+01 2.913249e+01 3.332296e+01 3.242859e+01 3.478205e+01 3.756052e+01 4.452743e+01 2.153163e+01 3.595966e+01 2.215549e+01 3.102626e+01 4.489280e+00 2.968415e+00 3.127911e+00 5.065583e+00 3.039974e+00 4.911571e+00 5.107524e+00 6.932928e+00 4.500313e+00 5.717856e+00 3.427874e+00 3.019243e+00 3.828615e+00 3.894492e-01 5.106604e-01 5.608647e-01 7.224998e-01 6.209581e-01 1.026531e+00 8.397145e-01 1.071072e+00 1.093531e+00 6.065934e-01 1.143798e+00 5.307035e-01 7.288248e-01
<GCONST> 1.297145e+02
<MIXTURE> 16 5.821815e-02
<MEAN> 39
 -5.045943e+00 1.480305e+00 3.109415e+00 6.027448e+00 5.240233e+00 3.187565e+00 2.113419e+00 4.740528e-02 9.901298e-01 -1.125591e+00 2.993710e-01 4.577048e-03 -5.679317e+00 1.019293e+00 -4.069392e+00 -3.204536e+00 -3.358215e+00 -1.645244e+00 -1.591040e+00 -1.978081e-01 1.866586e+00 2.204879e+00 1.907288e+00 1.072639e+00 4.922871e-01 6.428679e+00 1.808862e+00 1.401393e-01 -6.677255e-01 -6.258091e-01 -4.921309e-01 -5.224870e-01 -8.456972e-01 -5.129672e-01 -4.559164e-01 6.072097e-02 -7.617332e-02 -2.318903e-01 3.663769e-01
<VARIANCE> 39
 1.251342e+01 1.963409e+01 2.152554e+01 1.919599e+01 2.429382e+01 2.341504e+01 2.865102e+01 2.639153e+01 3.125957e+01 2.644278e+01 2.434869e+01 1.791978e+01 3.398222e+01 3.186703e+00 1.692222e+00 3.020955e+00 3.413016e+00 2.543024e+00 2.539031e+00 5.776900e+00 5.491479e+00 3.273355e+00 3.077562e+00 3.231034e+00 2.677148e+00 2.274079e+00 3.690088e-01 6.122960e-01 7.553685e-01 7.311115e-01 6.765401e-01 8.573373e-01 1.103583e+00 1.036525e+00 1.010530e+00 9.718280e-01 8.600338e-01 8.035135e-01 4.708297e-01
<GCONST> 1.234957e+02
<MIXTURE> 17 3.570747e-02
<MEAN> 39
 8.144275e+00 3.980219e+00 -3.565943e+00 -5.957722e+00 -1.103979e+00 5.269536e+00 -1.515115e+00 -6.899309e+00 -3.218056e+00 2.105118e-01 3.772698e+00 1.327847e+00 -2.114855e-01 1.398712e+00 -3.123343e+00 -2.035264e+00 -4.542090e+00 -1.434409e+00 9.229309e-02 -9.927948e-01 7.055918e-01 1.976389e+00 1.913961e+00 1.667551e+00 -3.190527e-02 4.848025e+00 -6.908592e-03 -1.416572e-01 6.313798e-02 2.972913e-01 2.606616e-01 -7.882981e-02 1.911746e-04 1.933451e-01 1.255282e-02 -1.472583e-02 -3.997768e-01 -4.545338e-01 -1.092218e-01
<VARIANCE> 39
 1.201252e+01 1.391001e+01 1.879708e+01 3.643673e+01 2.322243e+01 2.734106e+01 2.687546e+01 2.282529e+01 2.230076e+01 3.141875e+01 2.886871e+01 1.803708e+01 2.065845e+01 2.190847e+00 4.661949e+00 4.949303e+00 7.645053e+00 4.788685e+00 4.562248e+00 6.303813e+00 5.305593e+00 5.406819e+00 4.583226e+00 4.641244e+00 3.701815e+00 4.140612e+00 3.247625e-01 2.564330e-01 3.045721e-01 5.184398e-01 4.529504e-01 4.581877e-01 5.856057e-01 5.510553e-01 7.134399e-01 4.600219e-01 4.749734e-01 3.661380e-01 3.754182e-01
<GCONST> 1.211808e+02
<STATE> 4
<NUMMIXES> 17
<MIXTURE> 1 8.725332e-02
<MEAN> 39
 1.017335e+01 -1.360136e+00 -5.056515e+00 -1.261930e+01 -6.355639e+00 1.015381e+01 3.159662e-01 -8.078121e+00 7.637175e-01 3.375931e+00 6.428477e+00 1.179146e+00 7.268909e+00 2.577010e+00 -2.795295e+00 -1.572057e+00 -4.677274e+00 -2.564381e+00 2.968031e+00 -4.541349e-01 -5.968834e-01 1.330944e+00 9.667088e-01 1.532032e+00 -1.088260e+00 3.691470e+00 -7.105873e-01 6.567262e-01 5.570567e-01 1.449699e+00 1.166985e+00 -2.277185e-01 2.889033e-01 3.314241e-01 -3.165619e-01 -5.043677e-01 -7.928130e-01 -4.434763e-01 -1.619900e+00
<VARIANCE> 39
 1.059041e+01 1.300590e+01 1.693263e+01 3.592810e+01 2.282296e+01 3.638454e+01 4.400651e+01 3.343487e+01 3.086382e+01 2.847057e+01 2.291020e+01 1.615394e+01 1.155100e+01 2.268188e+00 4.078718e+00 3.095653e+00 5.568211e+00 4.132668e+00 5.450819e+00 6.815732e+00 5.152039e+00 5.928287e+00 5.086551e+00 4.231483e+00 2.414768e+00 4.669472e+00 3.997675e-01 2.864009e-01 2.587498e-01 4.278036e-01 3.196495e-01 5.998968e-01 5.000359e-01 6.466076e-01 5.504009e-01 4.384391e-01 3.775132e-01 3.324235e-01 1.694690e-01
<GCONST> 1.187638e+02
<MIXTURE> 2 4.472911e-02
<MEAN> 39
 -1.045209e+00 -4.082585e-01 2.520654e-01 6.506242e-01 3.720301e-01 -3.051966e+00 -1.552507e+00 5.821333e-01 4.296980e+00 1.392887e+00 -2.435537e-02 9.557360e-01 4.825405e+00 4.844858e-01 -2.504218e+00 -8.152183e-01 -2.854213e+00 -2.218925e+00 -1.445031e+00 -5.633714e-01 1.880067e+00 1.412104e+00 6.886723e-01 5.748152e-01 8.929736e-01 4.654501e+00 4.568062e-01 8.846326e-01 3.011994e-01 6.234498e-01 2.514590e-01 4.811224e-01 -8.909950e-02 -5.436794e-01 -8.522677e-01 -3.754497e-01 -8.830020e-02 -3.853074e-01 -1.440039e+00
<VARIANCE> 39
 4.455822e+01 2.481651e+01 2.458756e+01 2.608271e+01 2.947013e+01 3.515621e+01 5.051314e+01 3.664537e+01 2.358510e+01 2.379913e+01 2.386964e+01 1.811495e+01 2.706339e+01 1.004572e+01 6.789283e+00 5.133550e+00 6.176241e+00 8.192886e+00 5.794150e+00 8.718163e+00 6.795126e+00 4.924654e+00 5.690393e+00 3.467244e+00 3.737953e+00 5.310654e+00 4.165521e-01 4.013678e-01 6.194495e-01 6.408783e-01 7.095193e-01 7.057124e-01 9.069322e-01 9.335493e-01 5.970875e-01 7.156441e-01 5.940788e-01 4.880179e-01 3.900137e-01
<GCONST> 1.318983e+02
<MIXTURE> 3 4.620099e-02
<MEAN> 39
 1.120331e+01 2.063283e-01 -1.108184e+01 -2.207714e+00 3.750998e+00 -2.121628e-01 -7.726267e+00 -5.427543e+00 1.752007e+00 8.173749e-02 4.875550e+00 3.816746e+00 4.080167e+00 3.304621e+00 -2.332543e+00 -3.858969e+00 -1.353661e+00 -6.528291e-01 -1.073243e+00 -3.514585e+00 7.546358e-01 2.719493e+00 3.343023e-01 1.463041e+00 4.107276e-01 3.091824e+00 -3.573635e-01 4.946606e-01 8.375549e-01 8.461514e-01 8.863540e-02 1.918643e-01 3.860497e-01 4.419310e-01 -3.089678e-01 -5.416785e-01 -6.973725e-01 -4.872628e-01 -1.173110e+00
<VARIANCE> 39
 1.266448e+01 1.283218e+01 2.379560e+01 3.211422e+01 2.209752e+01 1.889679e+01 4.716750e+01 3.598035e+01 3.443783e+01 4.221281e+01 3.759247e+01 2.782737e+01 1.443896e+01 2.884660e+00 3.169744e+00 4.241823e+00 4.390596e+00 4.685989e+00 4.148446e+00 1.051933e+01 7.490552e+00 6.263256e+00 5.954012e+00 5.115306e+00 4.422105e+00 2.925765e+00 3.099647e-01 2.091038e-01 2.883230e-01 3.695765e-01 4.458098e-01 3.124018e-01 6.080234e-01 5.547406e-01 6.145726e-01 5.820311e-01 4.837480e-01 4.000642e-01 2.671627e-01
<GCONST> 1.220417e+02
<MIXTURE> 4 6.219756e-02
<MEAN> 39
 5.273338e+00 -3.718447e+00 6.657672e+00 4.138551e+00 -5.898926e+00 -8.313487e+00 -6.586984e+00 2.213388e+00 4.364117e-01 -2.557642e+00 9.139580e-01 2.568252e+00 6.657758e+00 2.063718e+00 -3.231331e+00 2.130401e+00 -1.713156e+00 -4.640562e+00 -2.030554e+00 -2.318326e+00 1.889517e+00 -8.213496e-01 -4.216656e-01 1.246040e+00 7.014933e-01 4.522575e+00 -3.352764e-01 9.691324e-01 1.992709e-02 2.457108e-01 6.664400e-01 1.021352e+00 5.829844e-01 -4.254355e-01 -5.441630e-01 1.447700e-01 2.163800e-02 -4.324449e-01 -1.625994e+00
<VARIANCE> 39
 1.225632e+01 1.871095e+01 1.723720e+01 1.850877e+01 2.177553e+01 1.352523e+01 2.474017e+01 1.800789e+01 2.138036e+01 1.998611e+01 1.389271e+01 1.240595e+01 1.564686e+01 2.768648e+00 3.581001e+00 3.913607e+00 4.246896e+00 3.872126e+00 5.248858e+00 6.177741e+00 5.434393e+00 6.069257e+00 5.100187e+00 3.626597e+00 2.531698e+00 4.060328e+00 3.202136e-01 3.251346e-01 2.396690e-01 3.375717e-01 4.390204e-01 3.295157e-01 5.830842e-01 3.911602e-01 4.585977e-01 3.605090e-01 3.333638e-01 3.102810e-01 2.846139e-01
<GCONST> 1.137873e+02
<MIXTURE> 5 6.473999e-02
<MEAN> 39
 8.827403e+00 5.238892e+00 -4.090102e+00 -1.164971e+01 -4.485734e+00 5.902166e+00 2.382705e+00 -5.031996e+00 -2.555670e+00 -9.746769e-01 2.103474e+00 4.307437e+00 2.214138e+00 3.030685e+00 -2.806861e-01 -1.109741e+00 -5.921351e+00 -3.086778e+00 1.991597e+00 -2.989388e-01 -6.509924e-01 7.036667e-02 4.438896e-01 1.252862e+00 9.658139e-01 2.624018e+00 -3.123725e-01 4.291726e-01 4.985033e-01 9.004610e-01 4.897182e-01 2.308266e-01 1.032564e-01 9.605452e-02 -1.571677e-01 -2.595399e-01 -3.635466e-01 -4.881642e-01 -1.280749e+00
<VARIANCE> 39
 1.134872e+01 1.064690e+01 1.595752e+01 3.190571e+01 3.350634e+01 2.284817e+01 2.944994e+01 3.048023e+01 2.336444e+01 2.676035e+01 2.289834e+01 1.607280e+01 1.267387e+01 2.589787e+00 3.428974e+00 3.257966e+00 6.018889e+00 7.065194e+00 5.182443e+00 5.178074e+00 5.949924e+00 4.477622e+00 4.982491e+00 4.136343e+00 2.926335e+00 4.128191e+00 3.620977e-01 3.254498e-01 2.618097e-01 5.567582e-01 3.889151e-01 4.178404e-01 3.290323e-01 5.162068e-01 5.080546e-01 4.138468e-01 3.475103e-01 2.976797e-01 2.699362e-01
<GCONST> 1.174433e+02
<MIXTURE> 6 7.695282e-02
<MEAN> 39
 8.694504e+00 -6.575170e+00 -4.774446e+00 -7.202472e+00 -5.828755e-02 -2.840950e+00 -3.413155e+00 9.697644e-01 4.762835e+00 7.071498e+00 -2.478301e+00 -5.168862e+00 9.875350e+00 1.728065e+00 -3.598634e+00 -1.366327e+00 -3.177958e+00 -7.170818e-01 -5.465580e-01 2.087779e-01 2.084558e+00 8.745033e-01 1.021753e+00 -2.080706e+00 -6.505997e-01 4.057420e+00 -7.085055e-01 9.947516e-01 6.215088e-01 1.429339e+00 6.126345e-01 7.246827e-01 4.318670e-01 -3.733372e-01 -7.026337e-01 -1.041963e+00 -4.706984e-02 3.582903e-01 -1.876543e+00
<VARIANCE> 39
 7.976260e+00 1.675378e+01 2.239226e+01 2.903291e+01 1.601138e+01 4.150496e+01 3.389869e+01 3.562590e+01 2.864859e+01 3.150513e+01 3.517764e+01 1.720005e+01 1.037481e+01 2.577250e+00 3.096547e+00 3.751495e+00 4.438400e+00 5.098093e+00 5.510314e+00 6.629078e+00 6.256676e+00 5.166775e+00 5.639358e+00 3.819236e+00 3.715854e+00 4.674919e+00 3.515246e-01 3.472783e-01 3.720953e-01 4.848954e-01 3.019529e-01 5.131296e-01 5.993722e-01 6.852583e-01 6.127306e-01 6.163576e-01 7.342781e-01 4.177077e-01 2.141610e-01
<GCONST> 1.214452e+02
<MIXTURE> 7 8.376051e-02
<MEAN> 39
 3.991672e-01 1.377871e+00 -2.318292e+00 1.653276e+00 3.283787e+00 7.179610e-01 -1.928327e-01 -2.862819e+00 1.721389e+00 2.171964e+00 2.319834e+00 7.176648e-01 2.144059e+00 4.667329e+00 -7.180537e-01 -2.188930e+00 -3.160652e+00 -1.354019e+00 -8.194102e-01 -2.742566e+00 -8.111688e-01 -2.935090e-01 1.918775e-01 3.817180e-01 3.638389e-01 3.834801e+00 3.944253e-01 4.259382e-01 7.775944e-02 1.325549e-01 7.428043e-02 3.326374e-01 -2.453332e-01 1.873973e-01 -2.407892e-01 -3.412120e-01 -2.160836e-01 -1.084841e-02 -1.418572e+00
<VARIANCE> 39
 1.566094e+01 1.571217e+01 1.823741e+01 2.522030e+01 2.058693e+01 2.373585e+01 2.633793e+01 2.925452e+01 2.604292e+01 2.389792e+01 1.967875e+01 1.614589e+01 2.070790e+01 2.695575e+00 4.911973e+00 7.297862e+00 8.146955e+00 5.442301e+00 6.939012e+00 8.061695e+00 5.788392e+00 5.233007e+00 5.639668e+00 3.882328e+00 4.367320e+00 6.058011e+00 4.217609e-01 4.414841e-01 4.348474e-01 5.375977e-01 5.905223e-01 6.360617e-01 8.239657e-01 9.161997e-01 7.748262e-01 6.365648e-01 4.951859e-01 3.806895e-01 4.287715e-01
<GCONST> 1.259206e+02
<MIXTURE> 8 4.412135e-02
<MEAN> 39
 2.376271e+00 -1.401412e+00 1.251816e+01 2.566222e+00 -8.238913e+00 -7.192907e+00 -7.080801e-01 -2.823616e-01 -7.229773e+00 -1.874166e+00 3.216183e+00 4.932826e-01 5.050783e+00 1.242518e+00 -1.534516e+00 3.620622e+00 -3.548683e+00 -4.259682e+00 -9.545782e-01 -4.546201e-01 -8.209363e-01 -3.009718e+00 1.104872e+00 2.038553e-01 2.913331e-01 3.851593e+00 -2.033265e-01 9.535536e-01 -4.192150e-01 1.510908e-01 9.076588e-01 1.026190e+00 -1.912083e-01 -5.996088e-01 3.754364e-01 2.878241e-01 -3.913966e-01 -3.455634e-01 -1.610865e+00
<VARIANCE> 39
 1.234355e+01 1.697628e+01 3.204016e+01 3.784314e+01 2.479729e+01 3.306904e+01 2.473814e+01 3.222091e+01 2.678311e+01 2.827817e+01 2.293513e+01 2.097190e+01 1.761885e+01 3.640869e+00 3.725773e+00 4.009654e+00 4.796137e+00 3.184741e+00 7.442773e+00 5.447390e+00 6.995300e+00 5.558277e+00 5.489653e+00 4.017880e+00 3.215978e+00 5.530931e+00 3.756341e-01 4.919999e-01 3.619090e-01 5.754046e-01 5.153732e-01 7.310985e-01 5.538796e-01 7.348853e-01 4.770426e-01 4.874637e-01 4.301857e-01 5.365297e-01 3.605013e-01
<GCONST> 1.241675e+02
<MIXTURE> 9 5.476694e-02
<MEAN> 39
 1.066830e+01 -6.272112e+00 -6.550362e+00 -1.297919e+01 -4.893418e+00 1.061855e+01 -2.264202e-01 -3.758603e+00 5.768262e-01 5.906610e+00 6.752222e+00 -5.714653e+00 9.977741e+00 1.311638e+00 -2.687901e+00 -1.100317e+00 -2.255007e+00 -4.872098e-01 2.023429e+00 -1.110794e-01 7.041094e-01 7.843876e-01 5.461031e-01 -2.632364e-01 -2.283840e+00 2.380149e+00 -9.615884e-01 1.035343e+00 6.378779e-01 1.764467e+00 1.202685e+00 -6.059429e-01 3.305706e-01 -2.504071e-03 -1.547636e-01 -7.310120e-01 -1.041305e+00 3.521564e-01 -1.733774e+00
<VARIANCE> 39
 9.151234e+00 1.510525e+01 1.641245e+01 2.737371e+01 2.311828e+01 2.482279e+01 4.160741e+01 2.925870e+01 3.574737e+01 2.921135e+01 3.278558e+01 2.174058e+01 1.174036e+01 2.222562e+00 2.074033e+00 1.986485e+00 4.223517e+00 3.118243e+00 3.617156e+00 3.802233e+00 3.253947e+00 3.069756e+00 4.009737e+00 3.766768e+00 2.359540e+00 2.224144e+00 2.753400e-01 3.039230e-01 3.170486e-01 4.481395e-01 3.005767e-01 5.231827e-01 4.987784e-01 5.630236e-01 6.299528e-01 5.214729e-01 5.480372e-01 4.094605e-01 2.520866e-01
<GCONST> 1.147043e+02
<MIXTURE> 10 6.305735e-02
<MEAN> 39
 8.742710e+00 5.739110e+00 -4.021218e+00 -1.087182e+01 -2.793841e+00 5.535692e+00 1.155849e+00 -4.518699e+00 -3.153000e+00 -2.082229e+00 2.482928e+00 2.922072e+00 1.125353e+00 3.087080e+00 2.583323e-01 -1.089563e+00 -5.284379e+00 -2.341170e+00 1.350567e+00 -5.929971e-01 -3.983198e-01 -6.366178e-01 9.461587e-02 9.499676e-01 3.990850e-01 2.023636e+00 -3.637284e-01 2.462394e-01 3.670712e-01 8.680573e-01 3.445674e-01 8.495332e-02 1.842779e-02 6.559798e-02 -7.519231e-02 -3.404930e-02 -3.336118e-01 -3.873792e-01 -1.096723e+00
<VARIANCE> 39
 1.225494e+01 1.236056e+01 2.051846e+01 4.018885e+01 3.364812e+01 2.510545e+01 3.093307e+01 2.776392e+01 2.746092e+01 2.853139e+01 2.798075e+01 1.980429e+01 1.349514e+01 3.536627e+00 3.530001e+00 3.902530e+00 6.564021e+00 6.740742e+00 4.603701e+00 5.913990e+00 6.502353e+00 5.103993e+00 4.636279e+00 4.257848e+00 3.454809e+00 4.013944e+00 3.550999e-01 3.735156e-01 3.520419e-01 6.222009e-01 3.987582e-01 3.935046e-01 3.856706e-01 4.852094e-01 6.111812e-01 4.275895e-01 3.993865e-01 3.006092e-01 3.845311e-01
<GCONST> 1.211010e+02
<MIXTURE> 11 7.365698e-02
<MEAN> 39
 1.011962e+00 1.364948e+00 -7.117329e-01 2.722524e+00 2.424049e+00 -2.019083e-01 -1.367410e+00 -1.663895e+00 2.753393e+00 6.682929e-01 1.473554e+00 -5.692278e-01 1.739388e+00 4.655889e+00 -1.031072e+00 -1.788310e+00 -3.288611e+00 -1.645549e+00 -1.870277e+00 -2.770064e+00 -3.890299e-01 -1.173761e+00 -1.417220e-02 -5.873835e-01 -4.468472e-01 4.065507e+00 1.929121e-01 2.262294e-01 -3.796235e-02 7.006001e-02 7.060149e-02 2.381573e-01 -1.078718e-01 2.045151e-01 -3.784614e-01 -5.375480e-02 -1.297454e-01 9.900403e-03 -1.336147e+00
<VARIANCE> 39
 2.000915e+01 1.745096e+01 2.062108e+01 2.676705e+01 2.328524e+01 2.503010e+01 3.132266e+01 3.665771e+01 2.861949e+01 2.115443e+01 2.457042e+01 1.670589e+01 2.085916e+01 2.894960e+00 4.703366e+00 7.174506e+00 8.540600e+00 5.167222e+00 8.140419e+00 7.158772e+00 6.157649e+00 5.338336e+00 5.694716e+00 5.604985e+00 4.378728e+00 6.843171e+00 5.032730e-01 4.251244e-01 3.922813e-01 5.157858e-01 5.204801e-01 6.883429e-01 8.196580e-01 1.076692e+00 8.490850e-01 5.708979e-01 5.500042e-01 4.032067e-01 5.321025e-01
<GCONST> 1.283586e+02
<MIXTURE> 12 5.855835e-02
<MEAN> 39
 9.057685e+00 -4.925298e+00 -6.293113e+00 -6.922104e+00 5.257049e-01 -7.957711e-01 -2.951111e+00 -8.905041e-01 3.802327e+00 4.536860e+00 -2.935383e+00 -5.006042e+00 8.336753e+00 2.781296e+00 -3.659617e+00 -2.042745e+00 -3.985502e+00 -5.618163e-01 -4.110446e-01 -3.323165e-01 8.290501e-01 1.079379e-01 8.188329e-01 -2.377379e+00 -1.019737e+00 4.726388e+00 -8.667068e-01 6.310997e-01 6.595691e-01 1.312545e+00 5.456451e-01 5.472437e-01 3.159487e-01 -9.197149e-02 -4.649045e-01 -6.104913e-01 9.512241e-02 3.942551e-01 -1.848706e+00
<VARIANCE> 39
 1.041562e+01 1.682873e+01 2.164526e+01 3.015174e+01 1.785802e+01 4.365524e+01 2.777170e+01 2.585570e+01 2.616823e+01 3.501317e+01 2.948831e+01 1.335941e+01 1.143278e+01 2.798505e+00 3.283480e+00 4.126630e+00 6.286026e+00 5.354143e+00 5.843778e+00 6.548855e+00 6.631960e+00 6.757500e+00 5.275938e+00 4.619823e+00 3.877780e+00 5.648078e+00 3.770232e-01 3.652008e-01 3.392497e-01 4.374786e-01 3.408551e-01 5.300278e-01 4.749568e-01 6.480311e-01 6.439965e-01 6.558873e-01 6.048672e-01 3.403352e-01 2.653961e-01
<GCONST> 1.221230e+02
<MIXTURE> 13 5.293068e-02
<MEAN> 39
 2.681154e+00 -2.363224e+00 1.986371e-02 -1.268699e-01 -2.290148e+00 -4.472245e+00 -2.514721e+00 1.471756e+00 4.622085e+00 1.373985e+00 3.172960e-01 3.461705e-01 7.162929e+00 1.791291e+00 -3.408611e+00 -8.598750e-01 -3.505806e+00 -3.040689e+00 -1.868112e+00 -4.034434e-01 2.138115e+00 1.218330e+00 6.680030e-01 -7.569940e-02 5.308118e-01 5.437107e+00 2.667397e-01 9.138850e-01 3.748403e-01 5.962215e-01 4.020765e-01 5.854014e-01 2.165389e-02 -6.042269e-01 -8.830019e-01 -4.004052e-01 -2.377179e-01 -4.155826e-01 -1.592404e+00
<VARIANCE> 39
 2.427890e+01 1.672964e+01 2.120967e+01 2.171712e+01 2.912777e+01 3.096120e+01 3.499817e+01 3.758959e+01 2.347096e+01 2.023762e+01 1.901212e+01 1.557383e+01 1.967783e+01 3.771244e+00 4.503374e+00 5.200686e+00 5.951749e+00 5.051635e+00 6.457582e+00 9.346312e+00 7.346801e+00 5.383418e+00 5.278467e+00 3.917742e+00 3.988883e+00 3.936134e+00 3.897543e-01 3.912670e-01 4.552564e-01 6.641746e-01 6.503406e-01 6.423148e-01 7.739982e-01 8.331912e-01 6.072649e-01 5.829035e-01 5.431226e-01 3.893467e-01 2.910719e-01
<GCONST> 1.258668e+02
<MIXTURE> 14 5.555725e-02
<MEAN> 39
 4.451997e+00 -3.171002e+00 8.308882e+00 5.123845e+00 -5.691880e+00 -8.880611e+00 -5.823967e+00 1.992389e+00 -1.428999e+00 -4.166467e+00 1.310048e+00 2.258079e+00 5.669256e+00 1.796478e+00 -2.803154e+00 2.903466e+00 -1.836991e+00 -5.022646e+00 -1.823421e+00 -1.897659e+00 1.444972e+00 -1.876544e+00 -9.058255e-01 1.614794e+00 2.661352e-01 4.350660e+00 -3.096653e-01 1.002727e+00 -1.979963e-02 8.321316e-02 5.404119e-01 1.178705e+00 5.392876e-01 -5.718731e-01 -5.140114e-01 3.474669e-01 3.928844e-02 -4.842339e-01 -1.578969e+00
<VARIANCE> 39
 1.272756e+01 1.656525e+01 2.106207e+01 2.156686e+01 2.323628e+01 1.640267e+01 2.493850e+01 1.874732e+01 2.299697e+01 2.283024e+01 1.557059e+01 1.329790e+01 1.537096e+01 3.001010e+00 3.214561e+00 4.692875e+00 4.456420e+00 4.624715e+00 4.994557e+00 5.482015e+00 5.944399e+00 6.614511e+00 5.301067e+00 4.167252e+00 3.002109e+00 3.936069e+00 3.609715e-01 3.430468e-01 2.945465e-01 4.003217e-01 4.960918e-01 3.961596e-01 5.816936e-01 4.517465e-01 5.023975e-01 4.216506e-01 4.102488e-01 3.453888e-01 2.798714e-01
<GCONST> 1.169816e+02
<MIXTURE> 15 3.871270e-02
<MEAN> 39
 1.100575e+01 -9.384119e-01 -9.152026e+00 -2.668615e+00 2.733429e+00 -1.070817e+00 -7.690652e+00 -4.455178e+00 5.334495e-01 2.702711e+00 5.194428e+00 6.008115e-01 4.367512e+00 3.215615e+00 -2.398723e+00 -3.107565e+00 -1.480019e+00 -8.151781e-01 -1.572450e+00 -2.539829e+00 1.156729e+00 1.426629e+00 8.409950e-01 6.943924e-01 -3.319900e-01 2.961476e+00 -5.537966e-01 5.148518e-01 8.394685e-01 9.073275e-01 6.966643e-02 1.823194e-01 5.518313e-01 2.907366e-01 -3.314317e-01 -6.614446e-01 -7.307051e-01 -2.819427e-01 -1.263304e+00
<VARIANCE> 39
 1.236553e+01 1.370855e+01 3.240190e+01 3.734130e+01 2.120110e+01 2.216315e+01 4.745818e+01 3.502831e+01 3.276130e+01 3.845626e+01 2.977983e+01 3.156992e+01 1.345488e+01 3.846755e+00 3.346469e+00 5.606931e+00 4.891047e+00 4.816909e+00 4.543588e+00 1.013383e+01 6.420598e+00 9.083209e+00 5.628900e+00 5.270916e+00 4.288376e+00 3.633953e+00 3.788095e-01 2.285770e-01 3.609469e-01 3.833038e-01 3.716013e-01 3.501936e-01 6.244605e-01 6.775270e-01 6.877045e-01 5.902298e-01 4.368473e-01 4.475738e-01 2.699405e-01
<GCONST> 1.243644e+02
<MIXTURE> 16 5.049211e-02
<MEAN> 39
 1.041061e+01 -5.547619e+00 -6.937823e+00 -1.243145e+01 -3.311430e+00 8.948520e+00 1.271926e+00 -4.480738e+00 8.065006e-01 5.607792e+00 6.767107e+00 -7.357052e+00 9.583055e+00 1.728987e+00 -2.824610e+00 -1.531057e+00 -2.669685e+00 -6.002769e-01 1.637466e+00 1.313051e-01 2.059478e-01 8.436778e-01 3.241037e-01 1.884129e-01 -3.095622e+00 3.033447e+00 -1.082746e+00 8.177775e-01 6.417942e-01 1.742524e+00 1.036386e+00 -4.420103e-01 1.463934e-01 1.502665e-01 -6.998514e-02 -6.827287e-01 -1.005884e+00 4.485186e-01 -1.795953e+00
<VARIANCE> 39
 7.726679e+00 1.529123e+01 1.767668e+01 2.329016e+01 2.229989e+01 2.089649e+01 4.770087e+01 3.263280e+01 3.613296e+01 2.177583e+01 2.745273e+01 2.034853e+01 1.054706e+01 2.526801e+00 2.522666e+00 2.778926e+00 4.726019e+00 3.351265e+00 3.208949e+00 5.388886e+00 4.750753e+00 3.878952e+00 3.716860e+00 4.137752e+00 2.556350e+00 3.312216e+00 2.825162e-01 3.294137e-01 3.442954e-01 3.537970e-01 3.301785e-01 5.126278e-01 4.996440e-01 6.365459e-01 6.363462e-01 4.140360e-01 5.380086e-01 4.867638e-01 2.416290e-01
<GCONST> 1.160877e+02
<MIXTURE> 17 4.230563e-02
<MEAN> 39
 2.450276e+00 -8.007225e-01 1.353235e+01 9.201182e-01 -9.659737e+00 -7.139350e+00 -1.115837e+00 -1.543672e+00 -8.419531e+00 5.238414e-01 3.122343e+00 -1.502211e+00 4.783398e+00 1.212798e+00 -1.291081e+00 3.612267e+00 -4.419755e+00 -4.220853e+00 -8.781934e-01 -1.077132e+00 -1.773544e+00 -3.173566e+00 2.382568e+00 -8.934909e-01 -5.487105e-02 3.845092e+00 -2.312614e-01 9.596123e-01 -4.588306e-01 1.648060e-01 9.722555e-01 9.860020e-01 -3.249965e-01 -6.259813e-01 5.533752e-01 1.039502e-01 -6.510947e-01 -1.579339e-01 -1.608176e+00
<VARIANCE> 39
 1.186979e+01 1.780244e+01 2.189242e+01 3.336372e+01 1.955692e+01 2.977488e+01 2.198525e+01 3.093995e+01 3.190224e+01 2.636199e+01 1.983438e+01 1.942828e+01 1.603107e+01 3.380284e+00 3.837648e+00 3.496724e+00 4.144308e+00 3.490481e+00 6.257153e+00 6.169474e+00 8.673107e+00 4.574054e+00 5.134621e+00 4.614652e+00 3.869496e+00 4.914651e+00 3.868656e-01 3.992939e-01 3.445668e-01 6.285095e-01 3.768282e-01 7.292787e-01 5.692473e-01 5.913938e-01 6.564791e-01 5.711710e-01 4.621191e-01 4.427219e-01 4.035506e-01
<GCONST> 1.226547e+02
<TRANSP> 5
 0.000000e+00 1.000000e+00 0.000000e+00 0.000000e+00 0.000000e+00
 0.000000e+00 4.553513e-01 5.446488e-01 0.000000e+00 0.000000e+00
 0.000000e+00 0.000000e+00 2.828690e-01 7.171310e-01 0.000000e+00
 0.000000e+00 0.000000e+00 0.000000e+00 3.082354e-01 6.917646e-01
 0.000000e+00 0.000000e+00 0.000000e+00 0.000000e+00 0.000000e+00
<ENDHMM>
~h "d"
<BEGINHMM>
<NUMSTATES> 5
<STATE> 2
<NUMMIXES> 17
<MIXTURE> 1 2.931075e-02
<MEAN> 39
 -5.090505e+00 1.068096e+01 5.794324e+00 1.408695e+01 7.608121e+00 5.453967e+00 -6.769931e-01 -3.205370e+00 -2.079198e-01 -4.179555e+00 -1.290696e+00 -3.979859e+00 -2.073344e+01 -2.257451e+00 -2.997150e+00 -1.796947e+00 -1.792114e+00 9.119070e-01 1.611129e+00 2.398830e+00 2.640863e+00 2.443664e+00 2.445763e+00 2.336745e+00 1.586430e+00 2.046609e+00 3.801579e-01 -8.933120e-01 -5.966721e-02 -1.503402e+00 -1.294469e+00 -9.724508e-01 -5.307679e-02 1.343537e-01 4.820745e-02 3.221529e-01 2.843980e-01 5.460559e-01 2.642122e+00
<VARIANCE> 39
 8.687390e+00 8.796023e+00 1.108422e+01 1.177257e+01 1.113313e+01 1.948981e+01 2.304014e+01 1.826598e+01 1.919668e+01 2.124800e+01 1.706800e+01 1.623517e+01 6.639508e+00 1.498469e+00 2.405025e+00 1.454121e+00 3.703450e+00 2.084297e+00 2.476065e+00 2.748057e+00 3.159408e+00 2.152708e+00 2.508940e+00 2.624578e+00 2.198501e+00 9.316348e+00 4.348468e-01 5.187189e-01 4.734941e-01 4.686356e-01 6.785529e-01 6.576512e-01 7.673632e-01 4.701753e-01 5.457793e-01 5.528697e-01 4.914258e-01 4.194977e-01 9.158745e-01
<GCONST> 1.105881e+02
<MIXTURE> 2 8.955033e-02
<MEAN> 39
 -5.930668e+00 -2.787289e+00 3.691927e+00 1.756898e+00 4.570705e+00 4.996739e+00 2.368887e+00 3.401645e-01 2.020505e+00 -1.324414e-01 1.862391e+00 5.331498e-01 -3.756425e+00 -1.751475e+00 -3.188937e+00 -1.187233e+00 -3.454685e+00 -8.196324e-01 -2.869022e-01 1.009459e+00 2.130872e+00 1.761418e+00 1.608937e+00 1.927022e+00 1.541021e+00 5.980757e+00 1.140279e+00 6.011840e-01 1.832772e-01 4.566862e-02 -1.105737e+00 -1.147200e+00 -5.559189e-01 -1.440207e-01 -3.384483e-01 -1.334559e-01 -5.596482e-01 -4.519273e-02 3.591980e-01
<VARIANCE> 39
 2.170490e+01 3.459716e+01 3.913558e+01 4.853056e+01 4.310335e+01 4.524111e+01 3.897437e+01 2.830582e+01 3.401276e+01 2.534114e+01 2.732151e+01 2.141014e+01 4.103219e+01 4.038262e+00 3.682396e+00 3.745671e+00 4.968106e+00 5.126576e+00 4.738874e+00 4.976930e+00 4.312555e+00 3.685669e+00 3.836508e+00 3.227170e+00 2.623492e+00 5.644772e+00 6.414730e-01 7.493906e-01 8.730669e-01 9.671264e-01 1.318500e+00 1.111138e+00 1.130964e+00 9.856724e-01 9.079725e-01 7.738106e-01 7.416443e-01 6.915393e-01 5.460753e-01
<GCONST> 1.336330e+02
<MIXTURE> 3 5.098546e-02
<MEAN> 39
 7.301383e-01 4.402694e+00 6.267306e+00 6.994173e+00 1.938228e+00 2.061770e+00 -5.801818e-01 -4.917535e+00 -4.438725e+00 -4.480505e+00 -3.958249e+00 -2.361032e+00 -8.959132e+00 -1.840474e+00 -3.141673e+00 -1.620526e-02 -2.628268e+00 -1.878024e-01 1.525850e-01 -2.103120e-01 1.867296e+00 1.519170e+00 7.846358e-01 1.977801e+00 1.489767e+00 4.359385e+00 3.086582e-01 -3.836497e-01 -1.728914e-01 -5.139838e-01 -7.166117e-01 -7.251527e-01 -2.588436e-01 4.245058e-01 4.146009e-01 4.241682e-01 2.820134e-01 2.144714e-01 1.149227e+00
<VARIANCE> 39
 2.012943e+01 4.478388e+01 3.993511e+01 3.779364e+01 4.642126e+01 4.528709e+01 3.912800e+01 4.171303e+01 3.235819e+01 2.529623e+01 2.824568e+01 1.843805e+01 2.897620e+01 3.718668e+00 3.312483e+00 4.177695e+00 5.617917e+00 7.292312e+00 5.055052e+00 6.870290e+00 6.485506e+00 5.883286e+00 5.356136e+00 4.877103e+00 3.209039e+00 3.873962e+00 5.046082e-01 7.222717e-01 6.825996e-01 7.758666e-01 1.096643e+00 1.130182e+00 1.304529e+00 1.233083e+00 1.020553e+00 6.990234e-01 6.935508e-01 5.096598e-01 4.514605e-01
<GCONST> 1.346764e+02
<MIXTURE> 4 7.550812e-02
<MEAN> 39
 -5.572552e+00 9.917779e+00 5.572355e+00 1.200183e+01 9.173650e+00 6.323852e+00 3.638544e+00 -3.266021e+00 -9.011519e-01 -2.183265e+00 -3.575184e+00 -1.630829e+00 -1.989961e+01 -1.393639e+00 -5.050571e+00 -1.537285e+00 -4.391448e+00 -1.806334e+00 2.108557e-01 5.175110e-01 1.400335e+00 1.678386e+00 1.389519e+00 2.098839e+00 1.687874e+00 6.871079e+00 1.001087e+00 -4.912118e-01 5.373688e-02 -7.429127e-01 -1.377928e+00 -1.471229e+00 -9.655749e-01 2.590774e-01 1.729124e-01 1.225394e-01 5.334761e-02 4.410444e-02 2.152349e+00
<VARIANCE> 39
 1.155593e+01 1.644265e+01 1.630630e+01 1.381401e+01 1.647843e+01 1.879247e+01 1.801530e+01 2.264546e+01 1.985404e+01 2.008382e+01 2.219446e+01 1.308792e+01 1.553214e+01 1.456334e+00 2.438278e+00 2.449237e+00 2.771582e+00 2.843511e+00 3.940775e+00 3.730654e+00 2.996198e+00 3.161027e+00 2.820417e+00 2.338727e+00 2.202955e+00 2.237711e+00 3.214512e-01 3.708754e-01 3.926356e-01 4.596249e-01 4.525837e-01 4.760991e-01 4.932584e-01 6.355518e-01 5.941736e-01 3.981869e-01 4.899509e-01 4.079153e-01 3.899095e-01
<GCONST> 1.106091e+02
<MIXTURE> 5 8.315653e-02
<MEAN> 39
 -1.094774e+01 6.088556e+00 4.199892e-01 9.674653e+00 7.851484e+00 7.254400e+00 4.555760e+00 1.403154e+00 4.498426e+00 3.309782e+00 3.340250e+00 1.934418e+00 -2.292006e+01 9.594370e-02 -2.357938e+00 -8.446717e-04 -3.212911e+00 -7.369097e-01 -7.658585e-01 -6.472551e-02 6.449192e-01 4.385414e-01 2.809708e-01 8.081157e-01 7.465452e-01 6.866800e+00 9.257324e-01 -4.282989e-02 3.315788e-01 -7.889591e-01 -9.186106e-01 -1.136700e+00 -7.743154e-01 -2.505611e-01 -4.355450e-01 -4.103386e-01 -4.572861e-01 -1.917300e-01 2.409816e+00
<VARIANCE> 39
 6.240404e+00 1.037114e+01 1.168118e+01 1.893304e+01 1.354356e+01 1.881190e+01 2.281448e+01 2.338141e+01 2.500640e+01 1.980815e+01 2.230075e+01 1.363346e+01 7.891510e+00 1.697466e+00 2.589323e+00 3.401485e+00 2.503479e+00 2.480947e+00 3.208166e+00 4.013484e+00 3.051224e+00 2.955745e+00 3.288949e+00 2.871565e+00 2.319248e+00 4.637257e+00 3.591982e-01 3.386380e-01 3.309132e-01 4.113581e-01 3.998464e-01 4.729819e-01 5.337895e-01 6.186814e-01 6.001853e-01 5.164804e-01 4.575016e-01 3.620018e-01 4.375072e-01
<GCONST> 1.102904e+02
<MIXTURE> 6 4.986782e-02
<MEAN> 39
 -2.139918e+00 7.321042e-01 4.709647e+00 2.842862e+00 2.477755e+00 -5.947796e-01 3.344062e-03 -3.769298e+00 -1.659110e+00 -2.689331e+00 -2.684693e+00 4.040745e-01 -1.668057e+00 -7.747487e-01 -1.964364e+00 2.706747e-01 -2.117189e+00 -6.808937e-01 -6.059876e-01 -9.282767e-01 1.553565e+00 1.492737e+00 2.506781e-01 9.390843e-01 1.019212e+00 3.523591e+00 1.003038e+00 -2.677907e-01 -4.440735e-02 -4.845671e-01 -1.072624e+00 -2.284154e-01 -5.101637e-01 3.029841e-01 -1.404308e-02 3.510435e-01 2.241145e-01 -7.162073e-02 6.669821e-01
<VARIANCE> 39
 2.596426e+01 3.750730e+01 3.869458e+01 4.401082e+01 5.167640e+01 4.028408e+01 4.290886e+01 3.858172e+01 4.425381e+01 2.906680e+01 2.417991e+01 2.215974e+01 3.005479e+01 2.287498e+00 3.789757e+00 3.058343e+00 4.021389e+00 3.688487e+00 4.740238e+00 5.452069e+00 7.063862e+00 6.780139e+00 3.984036e+00 3.366861e+00 3.525194e+00 3.564093e+00 5.169708e-01 6.581060e-01 8.088014e-01 1.157581e+00 1.449285e+00 1.028455e+00 1.362608e+00 1.239827e+00 1.316798e+00 9.914271e-01 8.675579e-01 7.227755e-01 4.680866e-01
<GCONST> 1.349406e+02
<MIXTURE> 7 4.814887e-02
<MEAN> 39
 -9.868305e+00 1.789807e+00 1.776405e+00 2.968723e+00 7.832868e+00 4.980186e+00 4.164688e+00 1.630573e+00 2.460578e+00 2.445383e+00 2.391637e+00 1.802150e+00 -1.165638e+01 5.077226e-01 -1.298949e+00 -3.062068e-01 -2.735623e+00 -1.179425e+00 -2.148893e+00 -6.816714e-01 -6.845669e-02 -3.382815e-01 -2.938692e-01 -1.131466e-01 2.896863e-01 7.302509e+00 6.422164e-01 3.801577e-01 1.703236e-01 -6.551212e-03 -7.837575e-01 -7.869741e-01 -5.862231e-01 -2.112436e-01 -6.506684e-02 -1.797449e-01 -3.231930e-01 -1.447371e-01 9.361365e-01
<VARIANCE> 39
 3.219631e+01 3.014339e+01 3.642504e+01 3.741628e+01 2.872167e+01 3.057337e+01 2.719291e+01 3.076564e+01 2.722286e+01 1.560472e+01 2.231733e+01 1.627882e+01 4.341923e+01 2.307263e+00 2.397043e+00 3.481015e+00 2.868446e+00 2.629820e+00 2.860062e+00 2.969980e+00 2.770661e+00 2.545220e+00 2.381637e+00 1.890822e+00 1.797493e+00 4.998044e+00 7.332357e-01 6.124296e-01 6.544818e-01 5.444891e-01 6.699878e-01 5.889181e-01 5.975880e-01 6.410562e-01 5.628071e-01 4.139893e-01 3.867916e-01 4.049134e-01 7.653599e-01
<GCONST> 1.204686e+02
<MIXTURE> 8 5.179062e-02
<MEAN> 39
 -1.552120e+00 1.436077e+01 8.103134e+00 1.423682e+01 7.066174e+00 2.237276e+00 -9.986554e-01 -7.552328e+00 -3.313917e+00 -4.770802e+00 -5.147314e+00 -2.680537e+00 -1.982717e+01 -2.081265e+00 -4.500230e+00 -1.250508e+00 -3.592019e+00 9.996639e-03 1.741849e+00 9.823686e-01 1.433935e+00 1.334013e+00 1.423237e+00 1.856581e+00 1.231717e+00 4.724409e+00 5.258501e-01 -1.698159e+00 -3.426985e-01 -1.367423e+00 -1.537090e+00 -1.022866e+00 -2.790825e-01 9.490541e-01 6.093093e-01 4.058444e-01 4.269159e-01 4.588070e-01 2.843322e+00
<VARIANCE> 39
 6.809479e+00 6.890899e+00 1.082693e+01 1.255298e+01 1.693860e+01 1.767721e+01 2.574576e+01 1.855315e+01 1.519322e+01 1.995055e+01 1.777956e+01 1.328536e+01 5.582785e+00 1.197245e+00 2.012948e+00 1.910577e+00 2.750620e+00 3.745204e+00 3.902323e+00 3.603285e+00 3.544827e+00 3.283825e+00 2.691598e+00 2.442428e+00 2.016506e+00 4.009132e+00 2.858794e-01 4.637727e-01 3.912241e-01 4.979797e-01 4.360559e-01 4.753746e-01 7.535143e-01 4.896064e-01 4.962926e-01 4.768425e-01 4.631195e-01 3.909190e-01 2.956245e-01
<GCONST> 1.075414e+02
<MIXTURE> 9 5.422065e-02
<MEAN> 39
 1.613178e+00 1.244427e+01 8.387613e+00 1.339174e+01 4.452027e+00 -1.788116e+00 -2.795755e+00 -6.009989e+00 -1.155765e+00 -2.714998e+00 -7.319684e+00 -3.079901e+00 -1.633726e+01 -1.503196e+00 -3.937209e+00 -9.169517e-01 -3.516549e+00 -8.711930e-01 8.526082e-01 5.713699e-01 1.258458e+00 5.233136e-01 4.266072e-01 1.907517e+00 1.520478e+00 5.017974e+00 1.949632e-01 -1.194792e+00 -4.311939e-01 -1.045124e+00 -8.648450e-01 -3.488963e-01 -2.778752e-01 5.979401e-01 3.459919e-01 2.578315e-01 6.116462e-01 2.597415e-01 2.002353e+00
<VARIANCE> 39
 8.723250e+00 1.520755e+01 1.524569e+01 1.907463e+01 2.395510e+01 2.775435e+01 2.377521e+01 2.928547e+01 2.379135e+01 2.665685e+01 2.782038e+01 2.153888e+01 8.197297e+00 1.430963e+00 2.550080e+00 2.567698e+00 3.579767e+00 4.038857e+00 4.801616e+00 4.022825e+00 4.292006e+00 4.003642e+00 2.896415e+00 3.603669e+00 2.470739e+00 2.676509e+00 3.570951e-01 3.676028e-01 4.372461e-01 3.746659e-01 4.868573e-01 5.875555e-01 7.065377e-01 6.369612e-01 5.112665e-01 4.933241e-01 4.805564e-01 4.225828e-01 2.927077e-01
<GCONST> 1.150931e+02
<MIXTURE> 10 1.039344e-01
<MEAN> 39
 -5.870464e+00 -3.144733e+00 3.591764e+00 1.650606e+00 5.206514e+00 5.376522e+00 3.217438e+00 -1.922256e-01 7.783875e-01 -5.752071e-01 4.918470e-01 5.396807e-03 -3.395457e+00 -1.220196e+00 -3.275356e+00 -1.028819e+00 -3.692584e+00 -1.424230e+00 -6.785083e-01 2.779396e-01 1.193751e+00 9.895006e-01 1.073100e+00 1.339534e+00 1.109817e+00 6.512392e+00 1.190582e+00 5.949680e-01 3.149769e-01 1.248097e-01 -1.216172e+00 -1.237668e+00 -8.163685e-01 -3.070813e-02 -1.795336e-01 -5.012316e-02 -3.352631e-01 -3.064483e-02 3.856268e-01
<VARIANCE> 39
 2.141782e+01 3.192491e+01 4.195716e+01 5.061547e+01 4.186868e+01 4.331830e+01 3.754619e+01 2.943867e+01 3.336968e+01 2.544740e+01 3.165844e+01 2.161784e+01 3.481510e+01 3.122066e+00 3.265187e+00 3.406310e+00 3.673199e+00 3.935126e+00 4.017606e+00 4.107486e+00 3.657366e+00 3.368114e+00 3.024262e+00 2.632884e+00 2.158092e+00 4.353712e+00 6.386157e-01 7.188277e-01 9.931217e-01 9.202203e-01 1.269910e+00 1.028718e+00 1.067304e+00 9.284955e-01 1.067923e+00 7.527745e-01 8.167974e-01 7.155769e-01 4.511617e-01
<GCONST> 1.308859e+02
<MIXTURE> 11 9.423988e-02
<MEAN> 39
 -1.118571e+01 6.578888e+00 7.532118e-01 9.294477e+00 7.940466e+00 6.939078e+00 4.912209e+00 1.157845e+00 3.586883e+00 3.278138e+00 3.020144e+00 2.369840e+00 -2.287056e+01 5.385721e-01 -2.197098e+00 2.550305e-02 -3.597345e+00 -1.009077e+00 -1.524428e+00 -8.476917e-01 -1.009490e-01 -4.127923e-01 -5.195597e-01 -6.611694e-02 1.855787e-01 7.557675e+00 8.704523e-01 -1.179553e-01 1.889269e-01 -7.691568e-01 -8.480817e-01 -1.024930e+00 -7.579679e-01 -1.712010e-01 -2.239945e-01 -3.072813e-01 -4.179280e-01 -2.279942e-01 2.182502e+00
<VARIANCE> 39
 7.436693e+00 1.023616e+01 1.126240e+01 1.878134e+01 1.551754e+01 1.834388e+01 2.086678e+01 2.260235e+01 2.590264e+01 1.870777e+01 1.985634e+01 1.509625e+01 8.192136e+00 1.363600e+00 2.091133e+00 2.885670e+00 2.308167e+00 2.777844e+00 3.065483e+00 3.242257e+00 2.962165e+00 2.224755e+00 2.389513e+00 2.344983e+00 2.165632e+00 3.385463e+00 3.991508e-01 3.280971e-01 2.992645e-01 4.286905e-01 3.930558e-01 4.448662e-01 4.876287e-01 5.079238e-01 5.876657e-01 4.497075e-01 4.031586e-01 3.973060e-01 3.937595e-01
<GCONST> 1.077042e+02
<MIXTURE> 12 4.778279e-02
<MEAN> 39
 -2.550296e+00 1.307511e+00 5.320094e+00 2.021089e+00 2.635514e+00 4.616546e-02 -6.779883e-01 -4.170827e+00 -1.698859e+00 -3.120826e+00 -2.270120e+00 -6.121874e-01 -1.313716e+00 -7.905728e-01 -1.700035e+00 2.083549e-01 -2.194973e+00 -6.167154e-01 -6.361150e-01 -8.759524e-01 1.233367e+00 1.256203e+00 2.433007e-01 4.793448e-01 4.849373e-01 3.361395e+00 1.047413e+00 -3.691042e-01 -7.091390e-02 -5.194915e-01 -1.156042e+00 -3.389820e-01 -4.217997e-01 3.277613e-01 -6.816727e-02 4.085343e-01 1.479090e-01 1.071280e-01 6.977295e-01
<VARIANCE> 39
 2.555308e+01 3.613225e+01 3.898105e+01 4.456727e+01 4.905979e+01 3.802505e+01 4.528951e+01 3.767298e+01 4.335952e+01 2.953344e+01 2.799275e+01 2.296793e+01 2.879578e+01 2.390169e+00 3.871103e+00 3.253366e+00 4.034068e+00 3.382356e+00 4.446015e+00 4.959518e+00 7.704199e+00 7.253799e+00 3.660932e+00 3.408772e+00 3.174510e+00 3.435359e+00 5.885463e-01 6.991519e-01 1.069631e+00 1.274373e+00 1.447567e+00 1.022320e+00 1.461164e+00 1.201959e+00 1.266995e+00 1.087341e+00 1.045078e+00 8.511327e-01 4.456253e-01
<GCONST> 1.357397e+02
<MIXTURE> 13 5.279886e-02
<MEAN> 39
 8.246895e-01 4.839706e+00 6.741898e+00 6.944478e+00 1.755153e+00 2.506325e+00 -3.990501e-01 -5.829921e+00 -4.881483e+00 -3.980776e+00 -3.979982e+00 -2.089967e+00 -9.013046e+00 -1.538003e+00 -3.163764e+00 -1.149306e-01 -2.516892e+00 -2.286559e-01 9.627470e-02 -6.662492e-01 1.499311e+00 1.383401e+00 4.169736e-01 1.325046e+00 1.152522e+00 4.176735e+00 2.823037e-01 -4.660244e-01 -1.486518e-01 -4.980326e-01 -6.950775e-01 -7.811593e-01 -3.225512e-01 5.744774e-01 4.326599e-01 3.809956e-01 3.422081e-01 1.508377e-01 1.167546e+00
<VARIANCE> 39
 1.916028e+01 4.443044e+01 4.015879e+01 3.790142e+01 4.365585e+01 4.265685e+01 3.963295e+01 4.142465e+01 3.353615e+01 2.362162e+01 2.762347e+01 1.875102e+01 2.703699e+01 3.176930e+00 3.398102e+00 4.201263e+00 5.296936e+00 5.938733e+00 5.147410e+00 5.905085e+00 6.392946e+00 5.999487e+00 4.343778e+00 4.648724e+00 2.945745e+00 3.905632e+00 4.773192e-01 7.250485e-01 6.890320e-01 7.460638e-01 9.516206e-01 1.034634e+00 1.175205e+00 1.117158e+00 9.903168e-01 6.499264e-01 7.177301e-01 5.361909e-01 4.470203e-01
<GCONST> 1.330087e+02
<MIXTURE> 14 4.532790e-02
<MEAN> 39
 -1.764730e+00 1.426551e+01 8.000577e+00 1.400241e+01 7.921716e+00 2.752282e+00 1.672212e-01 -6.838097e+00 -3.748817e+00 -4.083335e+00 -5.057496e+00 -2.317752e+00 -1.969423e+01 -1.993491e+00 -4.526086e+00 -1.676719e+00 -3.867161e+00 -3.047760e-01 1.353534e+00 9.469964e-01 1.158385e+00 1.006464e+00 1.180873e+00 1.459212e+00 9.163825e-01 4.815610e+00 4.361247e-01 -1.579196e+00 -3.152355e-01 -1.313054e+00 -1.438449e+00 -1.109513e+00 -4.458048e-01 8.249433e-01 6.324114e-01 3.566137e-01 3.870071e-01 4.189986e-01 2.745743e+00
<VARIANCE> 39
 6.740504e+00 7.024971e+00 1.172016e+01 1.267169e+01 1.661687e+01 1.813085e+01 2.281470e+01 1.733575e+01 1.716106e+01 1.833854e+01 1.602748e+01 1.313900e+01 5.542244e+00 1.376490e+00 1.910069e+00 2.621682e+00 2.842072e+00 2.954143e+00 3.737715e+00 2.943906e+00 3.339675e+00 2.723580e+00 2.424029e+00 2.210510e+00 2.009760e+00 3.446409e+00 3.056121e-01 5.034156e-01 4.534999e-01 5.314754e-01 3.963206e-01 4.188626e-01 6.306898e-01 4.358124e-01 5.056206e-01 4.276906e-01 4.011287e-01 4.062738e-01 2.947176e-01
<GCONST> 1.063668e+02
<MIXTURE> 15 4.143420e-02
<MEAN> 39
 -8.952756e+00 1.456759e+00 8.326411e-01 3.410849e+00 7.119365e+00 4.908651e+00 4.104175e+00 1.433108e+00 3.332856e+00 2.077069e+00 3.241778e+00 1.762608e+00 -1.106313e+01 6.500941e-01 -1.401546e+00 -7.054397e-01 -3.236460e+00 -1.724666e+00 -2.550672e+00 -8.371820e-01 -6.248138e-01 -8.988558e-01 -7.343552e-01 -3.722616e-01 1.057664e-02 7.480823e+00 5.410659e-01 4.576147e-01 3.259766e-01 -4.640316e-02 -7.705310e-01 -8.522211e-01 -5.250840e-01 -2.047787e-01 -2.230911e-01 -2.434490e-01 -4.445643e-01 -1.150771e-01 9.023604e-01
<VARIANCE> 39
 2.902469e+01 3.145351e+01 3.682399e+01 3.885575e+01 2.725191e+01 2.712024e+01 2.304134e+01 2.075957e+01 2.621057e+01 1.582396e+01 2.371793e+01 1.365629e+01 5.331905e+01 2.295443e+00 2.954116e+00 3.281737e+00 3.149293e+00 2.996097e+00 2.737357e+00 2.779173e+00 2.720165e+00 1.915767e+00 2.095160e+00 2.044940e+00 1.424698e+00 4.253706e+00 7.735471e-01 6.944225e-01 7.023728e-01 5.534134e-01 8.023986e-01 5.748358e-01 5.115017e-01 5.280009e-01 6.430498e-01 4.455803e-01 4.808675e-01 3.449091e-01 7.962556e-01
<GCONST> 1.196800e+02
<MIXTURE> 16 4.921811e-02
<MEAN> 39
 1.358266e+00 1.297582e+01 8.382360e+00 1.252262e+01 4.896640e+00 -1.426923e+00 -1.799844e+00 -4.293939e+00 -1.532539e+00 -2.318449e+00 -5.434512e+00 -3.002050e+00 -1.641798e+01 -1.526260e+00 -3.726110e+00 -7.287472e-01 -3.332762e+00 -6.067137e-01 7.433982e-01 4.570017e-01 7.397684e-01 9.753373e-02 2.380321e-01 1.100619e+00 1.059602e+00 4.671076e+00 -2.597946e-04 -1.221918e+00 -2.570183e-01 -1.026815e+00 -8.678104e-01 -3.304264e-01 -2.823155e-01 3.072578e-01 1.619669e-01 1.174796e-01 5.082052e-01 3.376071e-01 2.007521e+00
<VARIANCE> 39
 9.817400e+00 1.382661e+01 1.580820e+01 1.676446e+01 2.258013e+01 2.848492e+01 2.511331e+01 2.869848e+01 2.017773e+01 2.428073e+01 2.204196e+01 2.177553e+01 7.990623e+00 1.647124e+00 2.557106e+00 2.573870e+00 3.499413e+00 3.398116e+00 5.298143e+00 3.853781e+00 4.245254e+00 3.507114e+00 2.563658e+00 2.838198e+00 2.281918e+00 2.984820e+00 4.154502e-01 4.157714e-01 5.059737e-01 3.798896e-01 5.892062e-01 6.165525e-01 5.913038e-01 5.937448e-01 5.507209e-01 5.234164e-01 4.711134e-01 3.958808e-01 3.247927e-01
<GCONST> 1.146277e+02
<MIXTURE> 17 3.271376e-02
<MEAN> 39
 -4.965776e+00 1.110914e+01 6.067441e+00 1.359347e+01 8.192684e+00 6.002533e+00 1.460196e+00 -2.739957e+00 -4.626797e-01 -3.802167e+00 -2.332767e+00 -3.579434e+00 -2.097140e+01 -2.167023e+00 -3.179063e+00 -2.016507e+00 -2.540787e+00 3.449583e-01 8.941644e-01 1.676062e+00 1.470802e+00 1.534618e+00 1.584195e+00 1.430598e+00 9.470071e-01 2.963511e+00 4.589651e-01 -9.551750e-01 -4.361963e-02 -1.435020e+00 -1.411058e+00 -1.239510e+00 -2.425916e-01 4.487551e-02 -7.040396e-02 2.847586e-01 3.199583e-01 5.864657e-01 2.751517e+00
<VARIANCE> 39
 9.775207e+00 1.110870e+01 1.326593e+01 1.130965e+01 1.191630e+01 1.539189e+01 2.439006e+01 1.679252e+01 1.964782e+01 1.894152e+01 1.536838e+01 1.678910e+01 8.233549e+00 1.298026e+00 2.667653e+00 1.821778e+00 3.496312e+00 2.211525e+00 3.301257e+00 2.683351e+00 2.848589e+00 2.098968e+00 2.316718e+00 2.669779e+00 2.338976e+00 9.233933e+00 5.082484e-01 6.055906e-01 5.357952e-01 5.440208e-01 7.020133e-01 6.012063e-01 5.973276e-01 4.811499e-01 6.465976e-01 4.616005e-01 4.491422e-01 4.104390e-01 5.475181e-01
<GCONST> 1.109117e+02
<STATE> 3
<NUMMIXES> 17
<MIXTURE> 1 4.206260e-02
<MEAN> 39
 -7.676917e+00 -2.668290e+00 1.022735e+00 -3.324383e+00 3.246592e+00 1.913852e+00 2.315147e+00 2.796036e+00 2.804375e+00 2.108239e+00 4.863556e+00 2.369165e+00 3.130463e+00 -2.082683e+00 -1.422549e+00 -1.077306e+00 -1.930230e+00 -3.084161e-01 -4.542049e-01 1.785867e+00 2.180256e+00 1.817077e+00 1.471408e+00 1.563660e+00 1.543358e+00 3.575507e+00 1.014599e+00 1.118411e+00 4.250096e-01 1.068295e+00 -4.919028e-01 -4.722885e-01 -2.726570e-01 -7.408836e-01 -5.873702e-01 -5.968255e-01 -9.462879e-01 -2.252177e-01 -1.191584e+00
<VARIANCE> 39
 2.185060e+01 3.038515e+01 3.312743e+01 4.064268e+01 3.156171e+01 3.123243e+01 3.771098e+01 3.089091e+01 3.057792e+01 2.719827e+01 2.698896e+01 2.445996e+01 2.258938e+01 5.957861e+00 4.009055e+00 3.757282e+00 6.311845e+00 4.614212e+00 4.502294e+00 3.662645e+00 3.521812e+00 3.013410e+00 2.993799e+00 3.403222e+00 3.047546e+00 4.954164e+00 4.640735e-01 5.416802e-01 7.379679e-01 1.186256e+00 8.301746e-01 9.243093e-01 8.366810e-01 8.703395e-01 8.318036e-01 8.555728e-01 7.132869e-01 7.815769e-01 6.785682e-01
<GCONST> 1.303288e+02
<MIXTURE> 2 8.227379e-02
<MEAN> 39
 -6.246083e+00 -5.410326e+00 3.506776e+00 -1.101582e+00 -1.909222e-01 3.068905e+00 2.622356e+00 -1.558402e+00 3.311278e+00 1.087090e+00 5.922841e-01 4.306114e+00 5.533591e+00 1.806845e+00 -3.621347e+00 -1.070663e+00 -3.637741e+00 -3.183407e+00 -2.183833e+00 -2.366222e+00 2.174672e+00 1.985786e+00 1.257354e+00 1.425533e+00 3.986593e-01 7.520018e+00 1.508103e+00 1.011660e+00 -2.507838e-01 8.442260e-01 -9.544326e-02 -6.450097e-01 -9.694846e-01 2.655894e-01 -2.205688e-01 -1.401605e-01 -4.508933e-01 -1.078120e+00 -1.118441e+00
<VARIANCE> 39
 1.232051e+01 2.622370e+01 2.167578e+01 2.796729e+01 3.023467e+01 4.517324e+01 3.602042e+01 3.783195e+01 3.132423e+01 2.807622e+01 2.726462e+01 1.893265e+01 1.594255e+01 1.851859e+00 2.342339e+00 2.404717e+00 2.428578e+00 2.439633e+00 3.404167e+00 4.685469e+00 3.434460e+00 3.092736e+00 2.455147e+00 2.542922e+00 2.636002e+00 2.337685e+00 2.957225e-01 5.011311e-01 5.907038e-01 6.819205e-01 9.746320e-01 1.097019e+00 1.018535e+00 1.096461e+00 8.959962e-01 8.204646e-01 8.069194e-01 5.881835e-01 5.716249e-01
<GCONST> 1.227467e+02
<MIXTURE> 3 4.903938e-02
<MEAN> 39
 -9.166896e+00 2.602837e+00 -2.708844e+00 -5.618596e-01 3.536954e+00 -2.364899e-01 4.873726e+00 -2.850623e+00 3.314496e+00 4.375601e-01 5.687311e+00 1.016198e+00 5.920083e+00 1.623707e+00 -7.387433e-01 8.252628e-01 -2.767995e+00 -3.294851e+00 -3.353042e+00 -6.914219e-01 3.822316e-01 -3.320043e-01 2.116317e-01 -1.020604e-01 1.236953e+00 6.285331e+00 1.426292e+00 7.908747e-02 1.159251e+00 3.729532e-01 -7.995409e-01 -2.969260e-01 -9.689754e-01 4.026829e-01 -5.409995e-01 -1.723128e-01 -9.821194e-01 -2.353376e-02 -1.394914e+00
<VARIANCE> 39
 1.564382e+01 2.062808e+01 2.691319e+01 2.736293e+01 2.629679e+01 2.880489e+01 2.695243e+01 2.764664e+01 3.216504e+01 3.111501e+01 2.601485e+01 1.941877e+01 1.444369e+01 2.667282e+00 3.786645e+00 3.616368e+00 3.503321e+00 3.110847e+00 2.955061e+00 3.888023e+00 4.418193e+00 3.569632e+00 3.868909e+00 3.364787e+00 2.459635e+00 5.904878e+00 4.005145e-01 5.317415e-01 6.880165e-01 8.754835e-01 7.904777e-01 7.989366e-01 7.783360e-01 8.852100e-01 8.124934e-01 9.352546e-01 7.482030e-01 6.302771e-01 5.046923e-01
<GCONST> 1.249357e+02
<MIXTURE> 4 6.933110e-02
<MEAN> 39
 6.189536e-01 -2.282409e+00 5.269111e+00 -7.355460e-02 -3.351415e+00 -3.369311e+00 -3.515967e+00 -8.584569e-01 1.810537e+00 -2.118535e+00 2.158943e-01 2.395494e+00 5.177026e+00 8.827685e-01 -3.067907e+00 -2.657544e-01 -3.142622e+00 -2.202501e+00 -1.183017e+00 -1.767246e+00 3.001080e+00 1.772586e+00 1.103848e+00 1.305269e+00 9.138238e-01 4.646865e+00 7.312441e-01 5.598838e-01 -2.847589e-01 4.219603e-01 -5.955124e-02 -7.447891e-03 1.199419e-01 -1.804905e-01 -4.023899e-01 3.325474e-01 -4.475509e-01 -5.525323e-01 -7.758203e-01
<VARIANCE> 39
 1.343551e+01 2.018182e+01 2.575710e+01 3.543783e+01 3.371605e+01 4.452475e+01 3.482144e+01 3.757737e+01 3.847781e+01 2.584015e+01 2.554333e+01 2.219558e+01 1.647281e+01 1.594448e+00 3.002318e+00 3.572293e+00 4.728076e+00 5.205149e+00 4.970958e+00 6.799476e+00 5.229695e+00 5.760139e+00 5.232061e+00 4.568771e+00 3.049778e+00 3.992353e+00 2.245974e-01 4.467732e-01 4.426267e-01 7.707719e-01 9.713897e-01 9.259754e-01 9.903690e-01 1.087613e+00 1.064017e+00 7.040865e-01 8.459999e-01 6.112040e-01 3.581451e-01
<GCONST> 1.278913e+02
<MIXTURE> 5 4.689256e-02
<MEAN> 39
 -1.051261e+01 6.710393e-01 1.059968e+00 -5.412902e+00 7.566905e+00 -8.589728e-01 3.703187e+00 3.059576e+00 -2.464497e+00 2.942446e+00 -9.160434e-01 3.034490e+00 4.688656e+00 2.461433e+00 -5.292029e-01 9.358464e-01 -1.214184e+00 -2.559294e+00 -2.829187e+00 -2.199896e+00 -2.790979e-02 6.252767e-01 -4.655510e-01 -2.828097e-01 7.283404e-03 6.448835e+00 1.375944e+00 1.815019e-01 2.210590e-01 1.148777e+00 -1.134185e+00 2.025049e-01 -9.572849e-01 -5.004532e-01 5.946838e-01 -2.856756e-01 1.988771e-01 -4.978829e-01 -1.306445e+00
<VARIANCE> 39
 1.328880e+01 2.166358e+01 2.489607e+01 2.129519e+01 2.232966e+01 3.255492e+01 3.627852e+01 3.052034e+01 2.645781e+01 2.271307e+01 2.201967e+01 2.109039e+01 2.368109e+01 3.077391e+00 2.594143e+00 2.847717e+00 3.545786e+00 3.659663e+00 2.936433e+00 3.547190e+00 3.872954e+00 4.284200e+00 2.361105e+00 2.521919e+00 2.138272e+00 5.761595e+00 2.931609e-01 4.418298e-01 7.601506e-01 6.446400e-01 5.530431e-01 8.641954e-01 9.092287e-01 8.055890e-01 6.921814e-01 5.285591e-01 6.120197e-01 5.684403e-01 7.129728e-01
<GCONST> 1.218435e+02
<MIXTURE> 6 5.440960e-02
<MEAN> 39
 -4.878129e+00 1.348228e+00 7.620394e+00 -9.228886e-01 1.781374e+00 3.188952e+00 -9.861854e-01 -3.616684e+00 -1.734755e+00 -2.481326e+00 -1.722772e+00 3.906830e-01 1.759897e-01 -3.744167e-01 -1.600666e+00 8.929216e-01 -1.812128e+00 -1.875713e+00 -8.819908e-01 -4.228801e-01 1.338064e-01 -1.684156e-01 3.746512e-01 1.032491e+00 1.018651e+00 3.969519e+00 1.089131e+00 1.927324e-01 3.862102e-02 6.552664e-01 -8.983170e-01 -9.784427e-01 -1.894662e-01 2.556790e-01 -2.705488e-01 -5.592260e-02 1.341817e-01 -6.826206e-02 -2.634044e-01
<VARIANCE> 39
 2.188463e+01 2.851948e+01 3.532579e+01 3.879514e+01 3.954106e+01 6.805765e+01 4.284089e+01 4.163248e+01 3.339296e+01 2.594663e+01 2.444991e+01 2.005344e+01 2.641667e+01 3.375380e+00 3.775815e+00 3.034593e+00 4.050132e+00 5.028016e+00 4.963518e+00 3.884151e+00 4.413934e+00 4.299836e+00 3.765007e+00 3.234120e+00 2.439804e+00 4.260176e+00 4.030471e-01 6.347266e-01 7.049431e-01 9.516966e-01 1.093243e+00 1.840330e+00 1.028102e+00 1.104197e+00 1.078396e+00 7.523540e-01 6.440469e-01 5.510384e-01 4.327289e-01
<GCONST> 1.313468e+02
<MIXTURE> 7 5.831362e-02
<MEAN> 39
 -5.300636e+00 -7.678601e+00 -2.586506e+00 2.085732e+00 -2.586236e-01 1.176206e+00 3.677097e+00 -8.207227e-01 8.854467e-01 3.973741e-02 5.210300e-01 2.262966e+00 1.445226e+00 -1.142013e+00 -1.663759e+00 -5.269415e-01 -1.970616e+00 -1.345199e+00 -1.250889e+00 1.746730e-01 8.531507e-01 8.688430e-01 5.847667e-01 8.207428e-01 8.888250e-01 4.886421e+00 6.516752e-01 1.777448e+00 8.063329e-01 6.480404e-01 3.471477e-01 -4.286737e-01 -7.813204e-01 -2.655336e-01 -1.004988e-01 -1.853223e-01 -3.037564e-01 -2.894105e-01 -1.036346e+00
<VARIANCE> 39
 3.295674e+01 2.784770e+01 4.248374e+01 5.067651e+01 3.643837e+01 3.332946e+01 3.057301e+01 2.923953e+01 2.596911e+01 1.821359e+01 2.327896e+01 1.240288e+01 1.906743e+01 3.887339e+00 4.669395e+00 3.649188e+00 3.670519e+00 3.137721e+00 3.233623e+00 3.476386e+00 3.043951e+00 3.430906e+00 2.410967e+00 2.267255e+00 1.866048e+00 4.264387e+00 9.038031e-01 6.456679e-01 8.115812e-01 1.034444e+00 9.338472e-01 8.517513e-01 1.067165e+00 8.530959e-01 7.162543e-01 5.501052e-01 5.273573e-01 3.697622e-01 5.692520e-01
<GCONST> 1.258535e+02
<MIXTURE> 8 4.684208e-02
<MEAN> 39
 -9.358110e+00 1.221920e+00 7.148789e-01 -2.242929e+00 2.549892e+00 1.650650e+00 8.255295e-01 1.013881e+00 4.200644e+00 2.022780e+00 7.553267e+00 1.448842e+00 8.708703e+00 3.270753e+00 -1.050339e+00 4.106490e-01 -3.483291e+00 -3.766251e+00 -4.381768e+00 -1.152899e+00 3.528330e-01 -1.455882e+00 -5.856507e-01 -1.911953e+00 6.530629e-01 6.697884e+00 1.163092e+00 -1.259678e-01 8.327886e-02 7.705247e-01 -1.768425e-01 -1.273102e-01 -6.634907e-02 3.209821e-01 -2.755224e-01 -2.476598e-01 -1.305264e+00 -1.285850e-01 -2.027245e+00
<VARIANCE> 39
 1.338635e+01 2.929329e+01 3.187460e+01 2.718961e+01 3.247902e+01 3.226561e+01 4.462340e+01 2.603990e+01 2.318633e+01 3.039092e+01 1.913778e+01 1.922904e+01 1.245654e+01 1.638487e+00 3.504454e+00 3.374006e+00 3.842854e+00 2.841251e+00 2.783738e+00 2.825079e+00 3.997608e+00 2.392527e+00 3.023970e+00 3.005038e+00 2.067746e+00 5.352084e+00 4.159300e-01 7.103040e-01 9.390903e-01 7.590305e-01 9.759740e-01 1.003010e+00 9.876508e-01 8.202120e-01 7.216600e-01 9.055737e-01 6.214908e-01 5.392407e-01 4.919784e-01
<GCONST> 1.236818e+02
<MIXTURE> 9 1.014983e-01
<MEAN> 39
 -7.883858e+00 -9.796330e-01 3.116555e+00 -4.185629e+00 3.850350e+00 1.995298e+00 -1.583663e-02 7.182249e-01 1.261919e+00 -1.049809e+00 6.411080e-01 4.819695e+00 5.775666e+00 3.925298e+00 -1.649790e+00 3.917013e-01 -2.387948e+00 -2.976643e+00 -2.805527e+00 -3.751843e+00 3.611045e-01 6.401265e-01 -1.018142e-02 -8.171145e-01 -1.259728e+00 7.747509e+00 8.171502e-01 2.093878e-01 -5.528124e-01 7.774630e-01 -2.832776e-01 2.723733e-01 -2.861883e-01 -1.190392e-01 2.789239e-01 6.748733e-01 -9.729065e-02 -9.008321e-01 -1.650315e+00
<VARIANCE> 39
 1.023699e+01 2.384921e+01 2.569670e+01 2.479086e+01 3.043793e+01 4.348432e+01 4.040361e+01 3.405630e+01 2.761318e+01 2.906305e+01 2.719489e+01 2.346821e+01 2.321852e+01 1.522967e+00 2.377094e+00 2.663178e+00 3.057539e+00 2.832922e+00 3.365610e+00 3.167682e+00 3.328466e+00 3.198522e+00 2.983194e+00 2.402784e+00 2.653712e+00 2.969825e+00 3.073813e-01 5.169513e-01 6.573679e-01 6.578197e-01 6.679808e-01 1.116386e+00 9.278445e-01 9.055632e-01 8.129889e-01 7.953041e-01 7.739651e-01 6.072291e-01 7.163090e-01
<GCONST> 1.228590e+02
<MIXTURE> 10 8.015091e-02
<MEAN> 39
 -6.180032e+00 -5.333239e+00 4.453943e+00 -1.295378e+00 -3.751729e-01 4.113656e+00 1.894820e+00 -1.372413e+00 3.589563e+00 -6.999040e-02 1.721076e+00 3.798772e+00 5.507965e+00 1.824940e+00 -3.717122e+00 -9.057710e-01 -3.871741e+00 -3.337487e+00 -2.485183e+00 -2.236147e+00 2.133953e+00 1.332684e+00 1.100770e+00 9.692436e-01 2.416137e-01 7.716867e+00 1.453706e+00 9.840552e-01 -3.069841e-01 8.539959e-01 -8.045781e-02 -8.201655e-01 -8.341485e-01 2.731395e-01 -3.838952e-01 -7.207063e-03 -6.478105e-01 -9.971556e-01 -1.135222e+00
<VARIANCE> 39
 1.176858e+01 2.774350e+01 2.382596e+01 2.894069e+01 3.305587e+01 5.675296e+01 3.892373e+01 3.394580e+01 3.549574e+01 2.947816e+01 3.584413e+01 1.667733e+01 1.876627e+01 2.018500e+00 2.430527e+00 2.614724e+00 2.415569e+00 2.683384e+00 3.689229e+00 4.509770e+00 3.785091e+00 3.729489e+00 3.005862e+00 3.226632e+00 2.312942e+00 2.214150e+00 2.842034e-01 4.794704e-01 6.687111e-01 7.179518e-01 1.015234e+00 1.348000e+00 1.057762e+00 9.623027e-01 1.047548e+00 8.103195e-01 1.093124e+00 5.039489e-01 6.291115e-01
<GCONST> 1.251693e+02
<MIXTURE> 11 6.867040e-02
<MEAN> 39
 5.960072e-01 -2.464179e+00 5.929373e+00 -3.482060e-01 -3.286876e+00 -3.090446e+00 -3.627280e+00 -1.414404e+00 1.305491e+00 -2.418623e+00 -5.024731e-01 1.553638e+00 5.248405e+00 8.206021e-01 -3.144341e+00 -2.555357e-01 -3.123794e+00 -2.080909e+00 -1.332413e+00 -2.035844e+00 2.815160e+00 1.693332e+00 9.118764e-01 1.157744e+00 6.078948e-01 4.731514e+00 7.206132e-01 5.643958e-01 -3.682466e-01 4.191594e-01 -7.088108e-02 -4.447662e-02 5.941287e-02 -1.540207e-01 -3.748242e-01 3.620737e-01 -3.086734e-01 -5.078053e-01 -7.372569e-01
<VARIANCE> 39
 1.294751e+01 2.205213e+01 2.748774e+01 3.550928e+01 3.484700e+01 4.492478e+01 3.964849e+01 3.551752e+01 4.184505e+01 2.586150e+01 2.672177e+01 2.025397e+01 1.624001e+01 1.747805e+00 3.003183e+00 4.192639e+00 4.705142e+00 5.121269e+00 5.150769e+00 5.993774e+00 5.171518e+00 6.679333e+00 5.639077e+00 5.395537e+00 3.700283e+00 3.974010e+00 2.251419e-01 4.340819e-01 4.969784e-01 7.955014e-01 8.328128e-01 9.700193e-01 1.151080e+00 1.056149e+00 1.136751e+00 6.542382e-01 9.188701e-01 6.215230e-01 3.681114e-01
<GCONST> 1.291108e+02
<MIXTURE> 12 5.380240e-02
<MEAN> 39
 -6.380764e+00 -7.080886e+00 -2.129545e+00 8.791769e-02 1.050568e+00 1.265018e+00 3.010503e+00 -9.594824e-01 6.710964e-01 2.881581e-02 8.045332e-01 1.904763e+00 1.105113e+00 -7.195097e-01 -1.469555e+00 -4.585747e-01 -2.424129e+00 -1.546760e+00 -1.895708e+00 -2.704471e-01 3.469354e-02 8.282785e-02 -1.038809e-01 2.412947e-01 5.260699e-01 5.769286e+00 6.032220e-01 1.603887e+00 8.159413e-01 8.123803e-01 1.143927e-01 -4.205387e-01 -5.894887e-01 -1.666862e-01 -7.404315e-02 -1.425113e-01 -2.938955e-01 -2.328460e-01 -9.746862e-01
<VARIANCE> 39
 2.630292e+01 2.837826e+01 3.857097e+01 5.264421e+01 3.639806e+01 3.304389e+01 2.854753e+01 3.066743e+01 2.776527e+01 1.924368e+01 2.109365e+01 1.241547e+01 2.147924e+01 3.171742e+00 3.745189e+00 3.656011e+00 3.534374e+00 3.056377e+00 3.327771e+00 3.541847e+00 2.781231e+00 3.099645e+00 2.646107e+00 2.100410e+00 1.843082e+00 4.140404e+00 9.137857e-01 5.659907e-01 7.438509e-01 9.888502e-01 9.093786e-01 8.613998e-01 9.369751e-01 7.830138e-01 6.898838e-01 5.573698e-01 4.686282e-01 3.524649e-01 5.207365e-01
<GCONST> 1.242817e+02
<MIXTURE> 13 5.371839e-02
<MEAN> 39
 -4.157776e+00 2.107848e+00 7.321542e+00 -1.389916e+00 1.577913e+00 2.494709e+00 -1.629607e+00 -4.721686e+00 -2.486511e+00 -2.769212e+00 -1.921776e+00 -5.746093e-01 9.107616e-01 -1.849428e-01 -1.410042e+00 9.088952e-01 -2.010593e+00 -2.090826e+00 -7.183405e-01 -5.159811e-01 -3.129672e-01 -4.845460e-01 2.745980e-01 8.032694e-01 9.110143e-01 3.778769e+00 1.033031e+00 1.181526e-01 1.614109e-01 6.175284e-01 -9.640205e-01 -8.517441e-01 -1.242013e-01 3.070102e-01 -2.279620e-01 -3.758530e-02 1.203621e-01 2.736908e-02 -3.301162e-01
<VARIANCE> 39
 2.437441e+01 2.724096e+01 3.506603e+01 3.819805e+01 4.214597e+01 6.147002e+01 4.345199e+01 3.825378e+01 3.086896e+01 2.510169e+01 2.384731e+01 2.069734e+01 2.481223e+01 3.448092e+00 4.036251e+00 3.302940e+00 4.444809e+00 4.876431e+00 4.756620e+00 4.251765e+00 4.231519e+00 3.927967e+00 3.665637e+00 3.727487e+00 2.361741e+00 4.065137e+00 4.337682e-01 5.883147e-01 7.391858e-01 9.744712e-01 1.115890e+00 1.601637e+00 1.070899e+00 1.008080e+00 9.656794e-01 7.643231e-01 6.454288e-01 5.244746e-01 4.216281e-01
<GCONST> 1.310279e+02
<MIXTURE> 14 5.460022e-02
<MEAN> 39
 -9.718605e+00 2.558427e+00 -3.481384e+00 -8.995411e-04 3.626235e+00 3.091017e-01 5.115899e+00 -2.500430e+00 4.091477e+00 6.201490e-01 5.490411e+00 8.268235e-01 5.764279e+00 1.720246e+00 -1.236266e-01 8.648559e-01 -3.051643e+00 -3.577345e+00 -3.703982e+00 -1.076117e+00 -7.641236e-01 -1.280729e+00 -3.234427e-01 -6.729931e-01 4.783708e-01 6.417398e+00 1.346492e+00 9.199114e-02 1.255946e+00 2.873090e-01 -7.800074e-01 -3.613460e-01 -9.606619e-01 2.717921e-01 -6.622227e-01 -7.340138e-02 -8.545555e-01 4.524156e-03 -1.487958e+00
<VARIANCE> 39
 1.631451e+01 2.224095e+01 2.638317e+01 2.633096e+01 2.731701e+01 2.724175e+01 2.792211e+01 2.638529e+01 3.146188e+01 2.588027e+01 2.031578e+01 2.075665e+01 1.667060e+01 2.483187e+00 3.282673e+00 3.679184e+00 3.174244e+00 3.090721e+00 2.987874e+00 3.464318e+00 4.429619e+00 3.367935e+00 3.693958e+00 2.742927e+00 2.536122e+00 5.906197e+00 3.976636e-01 5.433114e-01 6.208940e-01 7.630356e-01 7.329205e-01 7.890422e-01 8.042451e-01 8.972124e-01 8.339730e-01 7.440426e-01 6.700073e-01 6.342203e-01 5.653267e-01
<GCONST> 1.235791e+02
<MIXTURE> 15 3.760284e-02
<MEAN> 39
 -9.985663e+00 2.188108e+00 1.202199e+00 -2.260905e+00 3.077903e+00 1.930233e+00 1.533505e+00 1.049855e+00 4.415705e+00 2.602770e+00 6.785473e+00 6.924865e-01 8.178438e+00 3.112471e+00 -9.544507e-01 2.850956e-01 -3.587113e+00 -4.261337e+00 -4.404048e+00 -1.437644e+00 -3.990022e-01 -2.206495e+00 -1.204209e+00 -2.200988e+00 1.288496e-01 6.323930e+00 1.270526e+00 -2.076707e-01 1.298037e-01 7.717167e-01 -3.441611e-01 -2.749383e-01 -1.913186e-01 1.751043e-01 -5.271816e-01 -3.824816e-01 -1.199369e+00 -7.249065e-02 -2.033369e+00
<VARIANCE> 39
 1.547336e+01 3.101053e+01 3.889933e+01 3.128199e+01 3.492913e+01 3.938221e+01 3.820190e+01 2.674353e+01 2.374951e+01 3.101925e+01 1.842280e+01 1.945342e+01 1.280604e+01 1.876727e+00 3.858785e+00 3.668483e+00 3.824804e+00 2.620442e+00 2.912508e+00 2.212813e+00 4.998044e+00 2.327309e+00 3.199292e+00 2.954003e+00 2.193973e+00 6.274505e+00 5.072407e-01 7.264047e-01 1.228297e+00 8.279320e-01 1.032797e+00 1.320754e+00 8.791112e-01 8.397920e-01 7.327837e-01 8.585007e-01 6.537091e-01 6.204776e-01 4.840539e-01
<GCONST> 1.258481e+02
<MIXTURE> 16 5.016922e-02
<MEAN> 39
 -8.007854e+00 -2.578258e+00 1.278067e+00 -4.778343e+00 4.046427e+00 1.795612e+00 1.489947e+00 3.014766e+00 2.894886e+00 1.862300e+00 4.576322e+00 1.785738e+00 3.828611e+00 -9.104369e-01 -1.267610e+00 -6.008051e-01 -2.224218e+00 -9.739948e-01 -1.225660e+00 8.129807e-01 1.241287e+00 8.787111e-01 7.728147e-01 5.021881e-01 8.049176e-01 4.151875e+00 1.265571e+00 1.091698e+00 4.467460e-01 1.166357e+00 -7.456108e-01 -6.326358e-01 -3.053606e-01 -8.940809e-01 -7.203025e-01 -5.238408e-01 -9.390869e-01 -2.375898e-01 -1.269570e+00
<VARIANCE> 39
 2.216938e+01 2.399093e+01 2.613050e+01 3.195223e+01 3.587620e+01 3.204193e+01 3.571050e+01 2.918613e+01 3.501903e+01 3.184102e+01 2.755472e+01 2.246063e+01 1.810056e+01 4.825986e+00 2.645648e+00 3.637817e+00 4.670776e+00 4.641208e+00 3.340856e+00 3.548879e+00 3.347591e+00 2.928044e+00 2.617752e+00 3.079275e+00 2.523512e+00 6.220188e+00 6.023828e-01 5.468817e-01 7.190235e-01 8.854715e-01 1.261348e+00 1.059325e+00 9.273308e-01 8.816771e-01 9.810349e-01 1.004465e+00 7.975894e-01 7.318817e-01 5.789182e-01
<GCONST> 1.289552e+02
<MIXTURE> 17 5.061201e-02
<MEAN> 39
 -1.047692e+01 5.683039e-01 5.974336e-01 -5.437222e+00 7.189851e+00 -1.550456e+00 3.476363e+00 2.075842e+00 -2.600965e+00 2.889879e+00 -9.199104e-01 2.789345e+00 4.908803e+00 2.276898e+00 -5.896577e-01 7.871937e-01 -1.726058e+00 -2.694288e+00 -3.167071e+00 -2.149892e+00 -5.234923e-01 3.901621e-02 -6.294315e-01 -5.698632e-01 -8.430579e-03 6.712712e+00 1.365102e+00 2.221908e-01 3.984889e-01 1.181707e+00 -1.121759e+00 2.156484e-01 -9.341047e-01 -3.367220e-01 5.847920e-01 -3.602427e-01 1.929425e-01 -4.144884e-01 -1.340972e+00
<VARIANCE> 39
 1.601589e+01 2.192728e+01 2.744588e+01 1.928403e+01 2.344032e+01 3.457612e+01 3.242955e+01 2.775577e+01 2.317912e+01 2.256884e+01 1.794627e+01 2.008567e+01 2.127460e+01 3.048634e+00 2.559454e+00 3.016673e+00 3.844401e+00 3.353341e+00 2.728682e+00 3.070875e+00 2.759963e+00 3.965303e+00 2.481010e+00 2.452285e+00 2.115713e+00 5.376616e+00 3.374779e-01 5.076466e-01 7.633009e-01 6.439111e-01 6.172989e-01 8.612185e-01 8.667102e-01 7.443754e-01 6.979216e-01 5.586975e-01 5.143239e-01 5.197415e-01 6.988972e-01
<GCONST> 1.208218e+02
<STATE> 4
<NUMMIXES> 17
<MIXTURE> 1 3.754047e-02
<MEAN> 39
 -9.579492e+00 1.912580e-01 -8.653296e-01 -1.972125e+00 2.496454e+00 -2.866670e-01 2.616363e+00 1.364328e+00 1.814047e+00 6.852071e-01 1.968392e+00 3.227124e+00 1.794922e+00 -1.213963e+00 1.305823e+00 8.411170e-02 5.341044e-01 3.117803e-01 -5.449614e-01 6.429237e-01 1.103189e+00 7.705976e-01 6.135527e-01 1.045399e-01 6.472512e-01 5.091335e-01 7.264926e-01 9.321046e-01 5.332713e-01 1.309495e+00 2.892085e-01 2.240735e-01 -1.681526e-01 -3.002282e-01 -1.765872e-01 -2.369777e-01 -4.372029e-01 -3.635427e-01 -1.821986e+00
<VARIANCE> 39
 3.781088e+01 4.110046e+01 4.675459e+01 3.844222e+01 4.307187e+01 3.278935e+01 2.978699e+01 3.009621e+01 2.997043e+01 2.208973e+01 2.248104e+01 1.944244e+01 2.327454e+01 4.454327e+00 4.388623e+00 3.849990e+00 4.009924e+00 3.021287e+00 3.965619e+00 3.137445e+00 2.807699e+00 2.661859e+00 1.987276e+00 2.462760e+00 2.766748e+00 6.682505e+00 6.619627e-01 8.129624e-01 7.767673e-01 7.894260e-01 8.694238e-01 7.475577e-01 6.905313e-01 5.445626e-01 5.791565e-01 5.402914e-01 4.726487e-01 4.139690e-01 6.507297e-01
<GCONST> 1.264067e+02
<MIXTURE> 2 7.854006e-02
<MEAN> 39
 3.147870e+00 -1.891419e+00 2.484533e+00 -8.641515e-01 -3.495834e+00 -3.363561e+00 -7.823919e+00 -1.395479e+00 6.843152e+00 2.601883e+00 -1.172602e+00 -1.173478e+00 8.582044e+00 3.362753e+00 -8.585063e-01 -1.907105e+00 -1.439741e+00 -1.430595e+00 -1.005229e+00 -2.909531e+00 7.990779e-01 1.722764e+00 1.314972e+00 7.751522e-01 -1.671156e+00 2.623704e+00 7.354800e-02 6.255845e-01 -4.188406e-01 5.284350e-01 8.031371e-01 8.194954e-01 8.715615e-01 -1.755005e-01 -8.561944e-01 -1.690750e-01 -1.828468e-02 -2.727621e-01 -1.892618e+00
<VARIANCE> 39
 1.362305e+01 1.618107e+01 1.986940e+01 2.295153e+01 2.408468e+01 2.305267e+01 3.124039e+01 2.739727e+01 2.110869e+01 2.177917e+01 1.655746e+01 1.774039e+01 1.108818e+01 2.556123e+00 3.620192e+00 3.677390e+00 5.581479e+00 4.196439e+00 6.907519e+00 7.430275e+00 8.424762e+00 6.016207e+00 5.205620e+00 5.254459e+00 4.203013e+00 3.703073e+00 3.217358e-01 5.021430e-01 4.053611e-01 5.186256e-01 5.479809e-01 6.364049e-01 7.071908e-01 6.889546e-01 6.847512e-01 6.316876e-01 4.931567e-01 5.586169e-01 3.362803e-01
<GCONST> 1.227126e+02
<MIXTURE> 3 6.327472e-02
<MEAN> 39
 1.637472e+00 5.812115e-01 7.201138e+00 -6.135441e-01 -5.519222e+00 -8.777488e+00 -4.418736e+00 1.314803e+00 1.878451e-02 -1.991008e+00 3.261426e-01 3.487856e+00 7.736410e+00 2.840469e+00 -1.474761e+00 7.579671e-01 -4.547726e-01 -3.658459e+00 -2.138392e+00 -2.075610e+00 1.757043e+00 6.573008e-01 2.299197e-01 1.623833e-01 1.870904e-01 2.394001e+00 1.148588e-01 2.858354e-01 -3.161807e-01 7.444121e-01 5.478975e-01 9.055455e-01 3.843347e-01 -2.096665e-01 -4.150227e-02 1.267370e-01 -3.891113e-01 -6.684450e-01 -1.677243e+00
<VARIANCE> 39
 1.200870e+01 1.907513e+01 2.431892e+01 1.898082e+01 2.920054e+01 1.884065e+01 2.293089e+01 2.018719e+01 2.368716e+01 1.769739e+01 1.632946e+01 1.228091e+01 1.453096e+01 2.662548e+00 2.683187e+00 3.752120e+00 4.072454e+00 4.727255e+00 4.926381e+00 6.094383e+00 4.675561e+00 4.896271e+00 3.915478e+00 5.048518e+00 3.615924e+00 3.411140e+00 2.560654e-01 5.413160e-01 3.530544e-01 4.124398e-01 5.866344e-01 5.718762e-01 4.702065e-01 5.612705e-01 6.078534e-01 4.853781e-01 4.284274e-01 3.250616e-01 3.503446e-01
<GCONST> 1.174167e+02
<MIXTURE> 4 6.239918e-02
<MEAN> 39
 -5.373967e+00 5.724742e+00 4.136659e+00 1.455483e+00 1.998353e+00 -6.393101e+00 6.156410e-01 -1.644273e+00 -8.922007e-01 4.728706e-01 -2.383145e+00 2.529109e+00 4.842337e+00 3.861694e+00 -4.326262e-02 1.045061e+00 7.341904e-01 -2.821297e+00 -1.652191e+00 -3.143370e+00 -3.157755e-01 6.512446e-01 -4.482256e-01 1.084404e-01 -5.608823e-01 1.714773e+00 7.796047e-01 -5.539436e-01 -1.497461e-01 3.677514e-01 -1.663810e-01 9.497781e-01 -4.005867e-01 1.013202e-01 2.207998e-01 -6.937362e-02 3.459239e-01 -3.719523e-01 -1.437638e+00
<VARIANCE> 39
 2.321679e+01 2.089540e+01 3.523247e+01 3.158561e+01 2.480115e+01 2.754949e+01 2.846484e+01 2.293462e+01 2.867489e+01 1.960767e+01 1.809066e+01 1.765145e+01 1.615266e+01 3.153849e+00 2.875538e+00 6.933173e+00 3.978237e+00 6.420533e+00 5.177306e+00 5.224536e+00 4.142430e+00 4.660324e+00 3.858769e+00 3.026031e+00 3.301720e+00 2.589623e+00 5.905434e-01 4.577581e-01 6.737961e-01 7.455174e-01 5.114045e-01 7.039490e-01 6.346641e-01 6.278538e-01 5.443274e-01 4.793149e-01 4.157919e-01 4.220509e-01 6.207906e-01
<GCONST> 1.235089e+02
<MIXTURE> 5 4.638094e-02
<MEAN> 39
 6.938319e+00 -8.046713e+00 3.668459e+00 -2.600211e+00 -8.036362e+00 -2.288179e+00 -1.423853e+01 7.732479e+00 4.159097e+00 2.789157e+00 7.748404e-01 -2.094495e+00 1.114516e+01 2.522923e+00 -1.921586e+00 -1.681973e+00 -1.166806e+00 -9.741345e-01 5.473357e-01 -2.176721e+00 2.433761e+00 6.640923e-01 1.329151e+00 2.635209e-01 -1.922474e+00 1.390614e+00 -6.135955e-01 7.730604e-01 -5.794321e-01 5.184900e-01 1.290070e+00 7.949260e-01 1.810408e+00 -1.053713e+00 -4.185600e-01 -2.770067e-01 -2.532866e-01 -5.770990e-02 -1.530062e+00
<VARIANCE> 39
