~o
<STREAMINFO> 1 39
<VECSIZE> 39<NULLD><MFCC_D_A_Z_0><DIAGC>
~h "b"
<BEGINHMM>
<NUMSTATES> 5
<STATE> 2
<MEAN> 39
 -1.018506e+00 9.956116e+00 3.390299e+00 1.004008e+01 6.905149e+00 4.537500e+00 1.230035e+00 -4.453530e+00 -2.942909e+00 -2.046363e+00 -6.391921e-01 -1.157864e+00 -1.743731e+01 -4.864437e-01 -1.716955e+00 -6.138503e-01 -1.239960e+00 -5.890663e-01 -5.051103e-01 2.455064e-01 8.973082e-01 1.150055e+00 5.992131e-01 4.384040e-01 5.310041e-01 2.687120e+00 6.317778e-01 -8.734204e-01 -3.642643e-01 -1.099104e+00 -7.891099e-01 -4.803630e-01 -3.591350e-01 1.465381e-01 2.251791e-01 2.871921e-01 2.081093e-01 8.525515e-02 1.817603e+00
<VARIANCE> 39
 4.288015e+01 2.388943e+01 2.282223e+01 2.589872e+01 2.333913e+01 2.569862e+01 3.448328e+01 4.035060e+01 4.196782e+01 3.148277e+01 2.710647e+01 2.203849e+01 2.371856e+01 2.974419e+00 3.156583e+00 2.461869e+00 3.516171e+00 2.525431e+00 2.867191e+00 3.195521e+00 3.959256e+00 4.062695e+00 3.142534e+00 2.681418e+00 2.187295e+00 6.522277e+00 5.867152e-01 6.457478e-01 8.766982e-01 8.700203e-01 7.042708e-01 7.344475e-01 6.894796e-01 8.399175e-01 8.283074e-01 7.569726e-01 6.292112e-01 4.674938e-01 8.570141e-01
<GCONST> 1.261857e+02
<STATE> 3
<MEAN> 39
 -2.603953e+00 2.998029e+00 9.368603e-01 5.286946e+00 4.538992e+00 1.475763e+00 1.816965e+00 -1.379634e+00 1.157182e+00 -9.265951e-02 5.028678e-01 4.772361e-01 -6.098259e+00 1.772060e+00 -3.029599e+00 -1.127249e+00 -3.522100e+00 -2.414583e+00 -1.501687e+00 -9.736338e-01 8.097458e-01 9.787118e-01 8.753716e-01 7.044556e-01 4.223291e-01 6.293231e+00 1.044144e+00 -9.855440e-02 -3.260062e-02 -6.584291e-01 -5.857975e-01 1.272970e-02 -5.366027e-01 -2.082987e-01 -4.371257e-01 -4.583710e-03 -2.574855e-02 -2.216315e-01 3.656917e-01
<VARIANCE> 39
 3.132199e+01 2.320712e+01 2.354695e+01 3.092489e+01 2.632324e+01 3.438304e+01 3.157898e+01 3.522242e+01 3.621606e+01 2.766733e+01 2.814850e+01 2.046546e+01 6.207851e+01 4.805509e+00 3.600204e+00 6.472030e+00 5.625429e+00 4.520710e+00 5.271545e+00 5.590360e+00 5.803514e+00 6.032329e+00 4.832168e+00 4.119158e+00 3.248901e+00 3.743251e+00 6.113127e-01 7.207972e-01 7.969870e-01 8.495266e-01 7.463687e-01 1.007679e+00 9.557990e-01 9.901544e-01 9.890354e-01 7.924389e-01 8.272541e-01 5.891138e-01 1.008189e+00
<GCONST> 1.339517e+02
<STATE> 4
<MEAN> 39
 5.078450e+00 -8.776541e-01 -1.896425e+00 -2.994721e+00 -1.430349e+00 -4.716274e-01 -1.558830e+00 -1.849326e+00 1.165995e+00 1.540191e+00 1.942672e+00 1.105997e-01 5.124037e+00 2.670175e+00 -2.522281e+00 -9.729504e-01 -3.736980e+00 -2.416637e+00 -4.607612e-01 -1.169261e+00 5.448455e-01 1.966644e-01 6.780498e-01 2.970239e-01 -1.791937e-01 4.476540e+00 -1.487509e-01 6.106932e-01 3.478503e-01 6.382778e-01 4.289423e-01 4.634500e-01 1.104131e-01 -1.219009e-01 -3.948244e-01 -3.087894e-01 -3.032587e-01 -2.081687e-01 -1.434877e+00
<VARIANCE> 39
 3.504502e+01 2.868917e+01 4.747634e+01 6.260236e+01 3.604722e+01 5.506094e+01 4.201000e+01 4.064408e+01 3.748351e+01 3.362333e+01 3.045444e+01 2.640640e+01 2.349669e+01 4.478696e+00 5.396857e+00 8.301291e+00 7.344506e+00 6.924809e+00 8.583055e+00 8.346107e+00 7.861883e+00 7.693226e+00 5.866254e+00 5.928873e+00 4.467858e+00 5.727459e+00 6.817563e-01 4.997796e-01 4.681655e-01 8.595620e-01 6.482119e-01 7.048609e-01 7.504649e-01 8.188516e-01 7.698820e-01 6.850447e-01 6.217547e-01 5.046617e-01 4.462342e-01
<GCONST> 1.371421e+02
<TRANSP> 5
 0.000000e+00 1.000000e+00 0.000000e+00 0.000000e+00 0.000000e+00
 0.000000e+00 4.792071e-01 5.207929e-01 0.000000e+00 0.000000e+00
 0.000000e+00 0.000000e+00 2.448659e-01 7.551341e-01 0.000000e+00
 0.000000e+00 0.000000e+00 0.000000e+00 3.641128e-01 6.358871e-01
 0.000000e+00 0.000000e+00 0.000000e+00 0.000000e+00 0.000000e+00
<ENDHMM>
~h "d"
<BEGINHMM>
<NUMSTATES> 5
<STATE> 2
<MEAN> 39
 -3.615182e+00 8.701642e+00 5.226803e+00 1.013724e+01 5.888900e+00 2.981884e+00 8.100961e-01 -3.653658e+00 -1.114574e+00 -1.886897e+00 -2.414711e+00 -1.432045e+00 -1.635743e+01 -1.237339e+00 -2.750474e+00 -6.771668e-01 -2.499429e+00 -1.743417e-01 3.233697e-01 3.855536e-01 1.043326e+00 8.698245e-01 6.272641e-01 1.121801e+00 8.406010e-01 3.942741e+00 4.242651e-01 -7.309700e-01 -9.503570e-02 -9.499093e-01 -9.810041e-01 -7.643229e-01 -3.629167e-01 3.259375e-01 1.658959e-01 1.665744e-01 1.896490e-01 2.423067e-01 1.975744e+00
<VARIANCE> 39
 3.659282e+01 3.622792e+01 2.967737e+01 3.522138e+01 3.277179e+01 3.600776e+01 3.614146e+01 3.617612e+01 3.526251e+01 3.020735e+01 3.378728e+01 2.177416e+01 4.983415e+01 3.099675e+00 4.545985e+00 3.434521e+00 4.715696e+00 4.088327e+00 4.766817e+00 4.675540e+00 4.635079e+00 4.419633e+00 3.759835e+00 3.558797e+00 2.746840e+00 8.028192e+00 5.989811e-01 8.265228e-01 5.965881e-01 7.283551e-01 8.429626e-01 8.034598e-01 8.482370e-01 8.206795e-01 7.692162e-01 6.508010e-01 6.407308e-01 4.989477e-01 1.032193e+00
<GCONST> 1.321088e+02
<STATE> 3
<MEAN> 39
 -6.814390e+00 -1.738245e+00 2.337571e+00 5.816350e-01 3.595403e+00 3.367605e+00 2.402934e+00 -4.821351e-01 1.579489e+00 3.127576e-01 1.525865e+00 1.641762e+00 -1.131800e+00 9.389983e-02 -2.216798e+00 -2.170162e-01 -3.074905e+00 -1.922809e+00 -1.663670e+00 -6.455945e-01 9.775852e-01 6.388889e-01 4.916624e-01 7.539067e-01 8.256270e-01 6.225498e+00 1.144711e+00 5.610149e-01 2.660611e-01 3.711211e-01 -7.415761e-01 -7.848101e-01 -6.651630e-01 -5.079473e-02 -2.426175e-01 -1.184472e-01 -4.176053e-01 -2.896395e-01 -2.314733e-01
<VARIANCE> 39
 2.863075e+01 3.811826e+01 4.105090e+01 4.783266e+01 4.210464e+01 4.528423e+01 3.991663e+01 3.669579e+01 3.674935e+01 2.978332e+01 3.289737e+01 2.116405e+01 7.506496e+01 4.336796e+00 4.479671e+00 3.698527e+00 4.212813e+00 4.243213e+00 4.796622e+00 5.114237e+00 4.897902e+00 4.638339e+00 3.736890e+00 3.554405e+00 2.571447e+00 6.865023e+00 5.793999e-01 8.138579e-01 9.349291e-01 1.017590e+00 1.082869e+00 1.094026e+00 1.064503e+00 1.035274e+00 1.015221e+00 8.316661e-01 8.662258e-01 6.534628e-01 1.297597e+00
<GCONST> 1.368854e+02
<STATE> 4
<MEAN> 39
 -2.429818e+00 -2.259167e-04 3.765148e+00 -1.340318e+00 -2.219534e+00 -4.150963e+00 -1.832453e+00 2.918189e-01 1.747671e+00 1.099756e-01 1.886498e-01 1.736977e+00 6.626378e+00 2.788627e+00 -1.028112e+00 -1.218621e-01 -1.097545e+00 -2.160930e+00 -1.912568e+00 -1.869993e+00 9.173822e-01 2.811162e-01 2.848963e-01 -4.476351e-01 -4.287022e-01 2.717061e+00 4.709835e-01 2.629900e-01 -2.603596e-01 7.049671e-01 4.507267e-01 6.438038e-01 7.060642e-02 -1.315113e-01 -1.728259e-01 -1.909174e-02 -2.055541e-01 -4.185397e-01 -1.614228e+00
<VARIANCE> 39
 4.556096e+01 3.589859e+01 3.559690e+01 3.580230e+01 4.530297e+01 4.269793e+01 4.845689e+01 3.847041e+01 3.684157e+01 2.715474e+01 2.660543e+01 2.223874e+01 2.277409e+01 4.856879e+00 4.634838e+00 5.734812e+00 5.781461e+00 6.610881e+00 6.424953e+00 7.403354e+00 6.300547e+00 6.020720e+00 4.720301e+00 5.694660e+00 4.162923e+00 7.328979e+00 8.192724e-01 8.335804e-01 6.974571e-01 7.846684e-01 1.074722e+00 1.128177e+00 1.127200e+00 8.916509e-01 8.437873e-01 7.070711e-01 7.405397e-01 5.870484e-01 5.994263e-01
<GCONST> 1.378057e+02
<TRANSP> 5
 0.000000e+00 1.000000e+00 0.000000e+00 0.000000e+00 0.000000e+00
 0.000000e+00 3.123293e-01 6.876707e-01 0.000000e+00 0.000000e+00
 0.000000e+00 0.000000e+00 2.963236e-01 7.036764e-01 0.000000e+00
 0.000000e+00 0.000000e+00 0.000000e+00 4.500563e-01 5.499437e-01
 0.000000e+00 0.000000e+00 0.000000e+00 0.000000e+00 0.000000e+00
<ENDHMM>
~h "f"
<BEGINHMM>
<NUMSTATES> 5
<STATE> 2
<MEAN> 39
 -5.058578e+00 1.825991e+00 -8.582517e-01 3.683477e+00 3.800608e+00 2.073924e+00 3.250461e+00 -1.898905e-01 1.139729e+00 -8.360549e-02 -5.340881e-01 5.002510e-01 -1.148650e+00 -4.098059e+00 -1.316011e-01 -2.310600e-01 1.029551e+00 6.724769e-01 4.784630e-01 8.230475e-01 5.898408e-01 7.113788e-01 3.221813e-01 4.283032e-01 6.626007e-01 -9.812100e-01 2.234586e-01 -4.889204e-01 -1.744634e-01 -4.585401e-01 -4.300115e-01 -2.142754e-01 -3.429867e-01 1.417845e-02 -3.903714e-02 9.877523e-02 6.413607e-02 -2.531826e-02 3.415291e-01
<VARIANCE> 39
 6.194744e+01 2.161880e+01 2.757876e+01 3.188391e+01 2.431820e+01 3.213006e+01 3.045197e+01 2.669073e+01 2.713152e+01 2.502056e+01 2.250027e+01 1.966763e+01 3.259788e+01 4.772859e+00 4.219964e+00 4.759497e+00 5.619406e+00 4.242217e+00 4.925069e+00 4.759578e+00 4.182540e+00 4.179028e+00 3.696643e+00 3.709628e+00 2.775950e+00 3.484329e+00 1.165433e+00 5.827526e-01 5.827447e-01 7.148545e-01 6.282598e-01 6.010472e-01 6.875890e-01 6.646044e-01 6.218728e-01 5.884068e-01 5.208709e-01 4.550824e-01 4.534380e-01
<GCONST> 1.274968e+02
<STATE> 3
<MEAN> 39
 -1.328673e+01 -1.466222e+00 -3.503027e+00 3.122711e+00 2.589818e+00 1.450462e+00 2.841215e+00 7.268929e-01 2.146238e+00 1.309839e+00 5.203068e-01 1.790990e+00 -1.206838e+00 8.580357e-02 -1.910767e-01 -1.650638e-01 -1.267598e-01 -7.510949e-02 -5.557375e-02 -7.151898e-02 -4.759868e-02 4.124567e-02 8.654010e-02 3.990428e-02 -4.026913e-03 1.369333e-01 8.603799e-01 1.570012e-01 1.472888e-01 -1.035976e-01 -2.157014e-02 -6.340768e-02 -1.210198e-01 -9.610572e-02 -1.021653e-01 -8.394422e-02 -6.996018e-02 -1.137355e-01 1.077007e-01
<VARIANCE> 39
 1.255726e+01 1.595321e+01 1.710769e+01 1.794434e+01 1.766465e+01 2.035115e+01 2.046234e+01 2.095487e+01 2.254700e+01 1.902780e+01 2.161079e+01 1.485599e+01 2.165314e+01 2.328214e+00 1.003834e+00 1.185936e+00 1.257921e+00 1.359279e+00 1.442374e+00 1.528890e+00 1.590587e+00 1.579504e+00 1.532489e+00 1.463028e+00 1.301030e+00 1.456208e+00 4.988978e-01 2.465755e-01 2.977339e-01 3.509974e-01 3.517368e-01 3.919883e-01 4.250861e-01 4.023540e-01 3.946726e-01 3.630538e-01 3.650366e-01 3.107985e-01 2.984086e-01
<GCONST> 1.008424e+02
<STATE> 4
<MEAN> 39
 -4.839613e+00 -2.944756e-02 -2.361080e+00 1.900105e+00 2.457974e+00 1.257466e+00 2.422482e+00 -2.561941e-01 1.698343e+00 8.397067e-01 1.585174e-01 7.881741e-01 -1.678523e-01 5.136840e+00 9.068868e-02 3.066767e-02 -1.632587e+00 -1.215075e+00 -5.708301e-01 -1.389476e+00 -5.259024e-01 -6.178001e-01 -4.823061e-01 -1.461574e-01 -5.425457e-01 1.167915e+00 4.031067e-01 -3.165780e-01 -1.348226e-01 -4.063342e-01 -3.830414e-01 -7.631169e-02 -4.039407e-01 6.599385e-02 -8.389337e-02 -3.981450e-02 8.471932e-02 -2.467522e-02 2.947006e-01
<VARIANCE> 39
 6.757682e+01 2.289791e+01 2.898780e+01 3.160956e+01 2.719942e+01 2.717058e+01 2.989156e+01 2.666925e+01 2.670692e+01 2.173116e+01 2.137875e+01 1.813501e+01 2.227671e+01 4.766410e+00 3.831681e+00 5.319715e+00 5.559190e+00 4.877895e+00 5.860539e+00 5.925955e+00 4.509999e+00 4.527132e+00 3.551912e+00 3.744836e+00 2.895414e+00 3.642828e+00 1.278412e+00 5.119984e-01 5.240157e-01 6.690643e-01 6.663541e-01 7.043463e-01 7.756385e-01 6.909028e-01 6.700903e-01 5.947191e-01 5.094476e-01 4.379504e-01 4.705256e-01
<GCONST> 1.279137e+02
<TRANSP> 5
 0.000000e+00 1.000000e+00 0.000000e+00 0.000000e+00 0.000000e+00
 0.000000e+00 6.077058e-01 3.922941e-01 0.000000e+00 0.000000e+00
 0.000000e+00 0.000000e+00 8.296776e-01 1.703224e-01 0.000000e+00
 0.000000e+00 0.000000e+00 0.000000e+00 5.932739e-01 4.067261e-01
 0.000000e+00 0.000000e+00 0.000000e+00 0.000000e+00 0.000000e+00
<ENDHMM>
~h "g"
<BEGINHMM>
<NUMSTATES> 5
<STATE> 2
<MEAN> 39
 -3.897723e+00 2.565151e-01 -1.646561e+00 8.078656e+00 8.057111e+00 1.211856e+00 5.901256e-01 -1.147805e+00 3.967002e-01 5.586691e-01 -9.260670e-01 2.821977e-01 -9.692379e+00 -9.196027e-02 -3.640451e+00 -2.594655e+00 -2.262154e+00 7.558793e-01 -8.801812e-03 -5.777161e-01 7.892979e-01 1.445776e+00 1.579874e+00 1.368793e-01 7.655626e-01 4.212997e+00 7.981515e-01 4.062146e-01 5.673733e-01 -5.904708e-01 -1.115527e+00 -6.462440e-01 -3.030362e-01 -2.219203e-01 -5.288741e-01 -5.199554e-03 2.183956e-01 -9.524378e-02 9.616041e-01
<VARIANCE> 39
 3.362597e+01 6.049292e+01 6.139829e+01 4.637921e+01 5.248517e+01 5.457929e+01 4.635230e+01 5.218586e+01 5.015208e+01 3.463823e+01 3.434034e+01 2.063211e+01 6.497956e+01 3.448067e+00 6.232409e+00 6.568435e+00 5.942298e+00 7.146184e+00 7.679615e+00 6.995509e+00 7.490677e+00 6.351329e+00 5.061191e+00 4.227633e+00 3.297853e+00 6.044764e+00 6.352270e-01 1.249673e+00 9.417949e-01 1.150490e+00 1.091217e+00 1.069976e+00 1.068174e+00 1.211997e+00 9.235622e-01 9.234768e-01 1.005597e+00 5.415449e-01 1.159363e+00
<GCONST> 1.434417e+02
<STATE> 3
<MEAN> 39
 -2.622676e+00 -5.169904e+00 -6.132796e+00 1.742814e+00 6.588719e+00 -1.319638e+00 -1.210252e+00 -9.831359e-01 1.386594e+00 3.979357e+00 -6.842422e-01 1.465539e+00 5.605596e-01 1.329413e+00 -1.960051e-01 2.445189e-01 -1.524939e+00 -1.071640e+00 -1.026371e+00 -1.186370e+00 -2.435519e-01 4.619261e-03 4.764090e-01 3.722202e-01 1.536683e-01 3.034326e+00 7.875714e-01 1.350627e+00 1.139585e+00 4.016615e-01 -8.114641e-01 -3.033504e-01 -2.934447e-01 -2.424891e-01 -6.523374e-01 -6.812229e-01 1.665424e-01 -2.680425e-01 -7.887987e-01
<VARIANCE> 39
 2.658439e+01 4.792198e+01 7.141204e+01 5.176554e+01 6.547960e+01 6.597933e+01 6.118742e+01 6.029311e+01 6.238960e+01 4.405793e+01 3.569202e+01 2.675752e+01 2.402181e+01 3.852513e+00 7.150491e+00 5.927904e+00 7.207562e+00 5.729321e+00 5.922642e+00 5.074772e+00 5.273002e+00 5.022516e+00 4.595900e+00 3.829693e+00 2.739010e+00 6.844774e+00 5.403152e-01 1.147313e+00 1.117043e+00 1.189357e+00 1.143993e+00 1.288974e+00 1.341970e+00 1.337720e+00 1.270909e+00 1.163772e+00 9.338294e-01 7.189984e-01 6.745360e-01
<GCONST> 1.432598e+02
<STATE> 4
<MEAN> 39
 2.536299e+00 2.071039e+00 1.820014e+00 1.467100e+00 4.515761e-01 -4.344546e+00 -4.085467e+00 -3.572772e+00 -2.203716e+00 1.574088e+00 7.681711e-01 3.901142e-01 2.066178e+00 2.582483e+00 6.676564e-01 1.015615e+00 -1.245808e+00 -2.046470e+00 -9.916111e-01 -1.559104e+00 1.147983e-01 -6.452539e-01 -5.713547e-01 7.065336e-01 -2.300845e-01 1.380847e+00 -4.885401e-02 -3.161274e-01 -3.702461e-01 1.275219e-01 1.763753e-01 2.958756e-01 2.052600e-01 4.014578e-01 1.361049e-01 -1.906941e-01 -7.307112e-02 -7.797276e-02 -5.148864e-01
<VARIANCE> 39
 2.953224e+01 3.501904e+01 6.921516e+01 6.271958e+01 8.606824e+01 6.310062e+01 5.234577e+01 5.958287e+01 5.147057e+01 4.140258e+01 3.577956e+01 2.479156e+01 2.819238e+01 3.552498e+00 4.389150e+00 4.642036e+00 7.122032e+00 5.879578e+00 6.785809e+00 7.094825e+00 6.043083e+00 6.877802e+00 6.865537e+00 5.327635e+00 3.604178e+00 1.919977e+00 4.380617e-01 8.499601e-01 7.790668e-01 6.895877e-01 9.825460e-01 9.037818e-01 9.469420e-01 9.232584e-01 9.269282e-01 8.437487e-01 6.756446e-01 5.432870e-01 6.241210e-01
<GCONST> 1.390009e+02
<TRANSP> 5
 0.000000e+00 1.000000e+00 0.000000e+00 0.000000e+00 0.000000e+00
 0.000000e+00 2.092486e-01 7.907514e-01 0.000000e+00 0.000000e+00
 0.000000e+00 0.000000e+00 4.622342e-01 5.377658e-01 0.000000e+00
 0.000000e+00 0.000000e+00 0.000000e+00 3.709961e-01 6.290039e-01
 0.000000e+00 0.000000e+00 0.000000e+00 0.000000e+00 0.000000e+00
<ENDHMM>
~h "k"
<BEGINHMM>
<NUMSTATES> 5
<STATE> 2
<MEAN> 39
 -5.477204e+00 -7.452407e+00 -4.823005e+00 1.985636e+00 5.223292e+00 1.176495e+00 1.174656e+00 1.603323e+00 3.794708e-01 3.620379e+00 -1.687103e-02 1.817881e+00 -2.209350e+00 6.724075e-01 -1.941603e+00 -1.203363e+00 -2.657683e+00 -8.714070e-01 -1.352448e+00 -5.528110e-01 1.272054e-01 -2.275735e-01 6.963117e-01 -3.920091e-01 9.811356e-02 6.207648e+00 -7.977777e-02 1.319482e+00 8.000584e-01 2.905763e-01 -1.551221e-01 -1.803615e-01 1.094583e-01 -1.376837e-01 -1.982130e-02 -2.865875e-01 7.854934e-02 -9.557105e-02 -4.623528e-01
<VARIANCE> 39
 3.344170e+01 3.755553e+01 6.931172e+01 5.404905e+01 5.350769e+01 5.275036e+01 5.532371e+01 4.874771e+01 5.197512e+01 3.457922e+01 2.988810e+01 2.330494e+01 4.751877e+01 3.691393e+00 3.468426e+00 4.682436e+00 4.257358e+00 4.736245e+00 4.710890e+00 4.648561e+00 4.442379e+00 4.618381e+00 3.576700e+00 3.283265e+00 2.569237e+00 5.645315e+00 8.393525e-01 7.941654e-01 8.893226e-01 8.866056e-01 9.823623e-01 9.385603e-01 9.301431e-01 8.527628e-01 9.342554e-01 6.970244e-01 6.359718e-01 5.341400e-01 1.458117e+00
<GCONST> 1.370430e+02
<STATE> 3
<MEAN> 39
 -6.656309e+00 -4.397186e+00 -4.414519e+00 -1.398988e+00 3.633277e+00 -1.306224e-01 1.411711e+00 1.178967e+00 1.359150e+00 5.216677e+00 1.327653e-01 1.991640e+00 3.774278e+00 -1.930883e-01 1.447872e+00 1.022962e+00 -6.909236e-01 -4.640691e-01 -5.274200e-01 3.672624e-01 -2.346877e-01 1.953657e-01 -2.724971e-01 3.433955e-02 2.558028e-02 1.972128e+00 1.437872e-01 9.525449e-01 6.876316e-01 7.933706e-01 8.309066e-02 3.199250e-01 1.899985e-01 -1.371317e-01 -1.198282e-01 -5.496145e-01 1.046302e-01 -1.405591e-01 -1.707413e+00
<VARIANCE> 39
 3.191448e+01 2.997977e+01 6.193072e+01 4.984530e+01 5.372566e+01 5.381181e+01 5.047281e+01 5.164922e+01 5.753134e+01 3.958459e+01 3.378730e+01 2.561891e+01 2.402518e+01 4.444338e+00 3.336652e+00 2.653866e+00 4.016253e+00 3.667062e+00 3.845731e+00 3.537703e+00 3.279557e+00 3.399602e+00 2.823527e+00 2.621183e+00 2.222531e+00 6.866107e+00 6.766393e-01 7.409950e-01 7.608119e-01 8.761030e-01 9.391168e-01 9.413632e-01 9.405292e-01 9.452487e-01 1.018576e+00 8.007365e-01 7.240890e-01 6.079104e-01 8.336031e-01
<GCONST> 1.336521e+02
<STATE> 4
<MEAN> 39
 -5.480954e+00 3.326313e-01 1.308951e+00 1.077874e-01 2.658186e+00 6.383169e-01 4.076583e+00 -5.700059e-01 5.039721e-01 1.691963e+00 -1.049679e-01 1.265808e+00 2.065289e+00 2.038208e+00 6.157157e-01 7.899547e-01 -1.322351e-01 -1.152935e+00 -4.914763e-01 -2.747262e-01 -1.882249e-01 -8.030682e-01 -1.186288e+00 -6.246365e-02 -5.364373e-01 3.807906e-01 5.266203e-01 -4.317016e-01 -3.190068e-01 -1.644986e-01 -2.820581e-01 -5.808468e-02 -4.077595e-01 1.312491e-01 -1.008904e-01 -1.309324e-02 7.294144e-02 -8.236117e-02 3.508037e-02
<VARIANCE> 39
 4.695402e+01 3.022133e+01 5.913819e+01 4.271033e+01 5.569836e+01 4.983193e+01 4.500855e+01 4.688016e+01 4.381639e+01 3.274574e+01 3.049358e+01 2.369456e+01 2.454864e+01 5.958032e+00 4.170091e+00 3.660939e+00 4.684783e+00 5.123192e+00 5.332424e+00 5.408225e+00 5.257266e+00 5.210017e+00 3.872869e+00 4.138462e+00 2.973792e+00 2.649974e+00 5.620192e-01 5.519032e-01 4.974291e-01 6.608307e-01 7.240615e-01 8.219660e-01 7.631612e-01 8.111855e-01 7.885192e-01 6.694824e-01 6.434613e-01 4.925481e-01 8.853034e-01
<GCONST> 1.334123e+02
<TRANSP> 5
 0.000000e+00 1.000000e+00 0.000000e+00 0.000000e+00 0.000000e+00
 0.000000e+00 2.786132e-01 7.213868e-01 0.000000e+00 0.000000e+00
 0.000000e+00 0.000000e+00 4.321812e-01 5.678188e-01 0.000000e+00
 0.000000e+00 0.000000e+00 0.000000e+00 6.236910e-01 3.763090e-01
 0.000000e+00 0.000000e+00 0.000000e+00 0.000000e+00 0.000000e+00
<ENDHMM>
~h "l"
<BEGINHMM>
<NUMSTATES> 5
<STATE> 2
<MEAN> 39
 8.682780e+00 3.210577e+00 -5.127374e+00 -1.389725e+01 -5.637532e-01 6.741662e+00 -1.706415e+00 -6.449690e+00 -9.334207e-01 7.691836e-01 2.367019e+00 -2.990105e-01 4.753103e+00 4.957623e-01 4.395775e-01 -2.252065e-01 -1.083091e+00 5.572688e-02 5.852987e-01 -1.469963e-01 -4.277600e-01 -4.446300e-01 1.448335e-02 3.916795e-01 2.317367e-01 -6.877627e-02 -2.709593e-01 -3.869781e-01 7.585675e-02 5.427464e-01 7.231925e-02 -3.257377e-01 -8.373556e-02 3.503104e-01 2.856817e-01 8.100580e-02 -1.736010e-01 -1.253283e-01 1.072407e-01
<VARIANCE> 39
 1.346735e+01 4.095488e+01 3.619408e+01 5.742407e+01 5.205705e+01 5.244118e+01 6.673733e+01 5.336901e+01 5.543414e+01 4.990740e+01 4.042019e+01 3.597032e+01 2.337006e+01 1.553715e+00 2.919185e+00 1.968827e+00 4.439157e+00 3.130486e+00 4.164807e+00 4.247923e+00 4.111089e+00 3.776668e+00 3.904692e+00 3.269085e+00 2.932999e+00 1.870778e+00 2.953527e-01 4.194610e-01 3.378980e-01 6.155738e-01 6.340472e-01 6.752875e-01 7.120911e-01 8.108356e-01 8.334658e-01 7.786121e-01 6.196201e-01 5.970119e-01 2.076501e-01
<GCONST> 1.267091e+02
<STATE> 3
<MEAN> 39
 8.378755e+00 1.153519e+00 -5.739397e+00 -1.320615e+01 1.748224e+00 6.546580e+00 -4.542298e+00 -7.208977e+00 5.127244e-01 4.042448e+00 3.148440e+00 -2.358264e+00 6.140244e+00 -3.609530e-01 -1.464790e+00 1.503576e-01 1.345731e+00 3.279123e-01 -1.156084e+00 -1.081264e+00 9.785783e-01 1.670221e+00 7.420203e-01 -1.027856e+00 -1.140470e+00 8.119448e-01 -3.341913e-01 -1.320565e-01 4.207296e-01 7.053187e-01 -2.981049e-01 -5.804592e-01 2.878202e-01 6.538678e-01 1.300757e-01 -4.999144e-01 -4.849533e-01 1.904759e-01 -1.163229e-01
<VARIANCE> 39
 1.099063e+01 2.717883e+01 3.558966e+01 4.516994e+01 4.201475e+01 4.913103e+01 6.599417e+01 4.811203e+01 4.907680e+01 4.706524e+01 3.979387e+01 3.564471e+01 1.895413e+01 8.212576e-01 3.266415e+00 2.204853e+00 4.230978e+00 3.194555e+00 4.971447e+00 4.562112e+00 4.662126e+00 4.909620e+00 4.222059e+00 3.651296e+00 3.480532e+00 1.877819e+00 2.802942e-01 3.708276e-01 3.785077e-01 5.997296e-01 7.125155e-01 6.666464e-01 7.295831e-01 8.153682e-01 7.934187e-01 7.736530e-01 6.165326e-01 6.334476e-01 2.340601e-01
<GCONST> 1.257542e+02
<STATE> 4
<MEAN> 39
 6.802746e+00 -1.955749e+00 -2.672403e+00 -7.164116e+00 1.755371e-01 -4.999175e-01 -6.666057e+00 -1.093445e+00 4.482080e+00 2.035243e+00 -1.983007e+00 -2.547279e+00 7.203913e+00 -7.974665e-01 -6.595516e-01 1.828742e+00 1.909328e+00 -1.398470e+00 -1.911442e+00 5.864466e-01 1.862082e+00 -3.621816e-01 -1.331838e+00 -6.966341e-01 7.550049e-01 1.034706e-01 -1.589799e-01 3.384037e-01 3.618989e-01 -4.788641e-02 -2.594575e-01 3.427033e-01 5.458174e-01 -2.923873e-01 -7.978588e-01 -2.232986e-01 4.401643e-01 2.971828e-01 -3.290564e-01
<VARIANCE> 39
 1.172843e+01 2.880543e+01 4.672705e+01 5.535639e+01 4.286292e+01 7.071160e+01 5.933051e+01 5.286154e+01 5.036031e+01 5.066377e+01 3.986076e+01 3.743806e+01 2.271761e+01 1.082526e+00 2.945236e+00 4.206566e+00 3.838165e+00 4.957996e+00 5.286557e+00 4.662379e+00 5.636255e+00 6.301573e+00 4.421801e+00 4.007297e+00 3.526872e+00 1.777727e+00 2.462824e-01 3.063644e-01 3.709325e-01 8.094718e-01 6.992473e-01 9.531870e-01 8.012900e-01 9.083989e-01 9.464434e-01 9.048328e-01 6.534432e-01 7.049646e-01 1.824935e-01
<GCONST> 1.295863e+02
<TRANSP> 5
 0.000000e+00 1.000000e+00 0.000000e+00 0.000000e+00 0.000000e+00
 0.000000e+00 7.111718e-01 2.888282e-01 0.000000e+00 0.000000e+00
 0.000000e+00 0.000000e+00 4.422473e-01 5.577527e-01 0.000000e+00
 0.000000e+00 0.000000e+00 0.000000e+00 4.577345e-01 5.422655e-01
 0.000000e+00 0.000000e+00 0.000000e+00 0.000000e+00 0.000000e+00
<ENDHMM>
~h "m"
<BEGINHMM>
<NUMSTATES> 5
<STATE> 2
<MEAN> 39
 6.213254e+00 2.993549e+00 -9.323157e-02 3.895256e+00 7.184812e-01 -1.495461e+00 -1.165512e+00 -6.351956e+00 -6.251425e+00 -6.921680e-01 4.386568e-01 -3.537612e+00 -2.464760e+00 3.028486e-01 1.433129e+00 9.988216e-01 1.769914e+00 1.995218e-01 -1.137020e+00 8.284257e-02 -2.313554e+00 -2.511057e+00 3.352068e-01 2.467446e-01 -8.009263e-01 -8.991637e-01 -2.624378e-01 -3.922268e-01 1.294422e-01 -2.900954e-01 -1.928774e-01 1.053878e-01 -7.039687e-02 4.410638e-01 3.652577e-01 -3.051121e-02 -7.104889e-02 1.629453e-01 4.495562e-01
<VARIANCE> 39
 1.943583e+01 3.295796e+01 3.007412e+01 4.163772e+01 3.849584e+01 4.463082e+01 5.476038e+01 4.798237e+01 5.485122e+01 4.279358e+01 4.535253e+01 3.761880e+01 3.257504e+01 4.495570e+00 2.838012e+00 4.175766e+00 4.301500e+00 5.359434e+00 4.556900e+00 6.223649e+00 5.340942e+00 5.886110e+00 5.103199e+00 5.308774e+00 3.986928e+00 5.113233e+00 3.290906e-01 4.252902e-01 5.716258e-01 6.273930e-01 6.269023e-01 6.095640e-01 7.591597e-01 7.824633e-01 9.416674e-01 6.490573e-01 6.755716e-01 5.398641e-01 3.195008e-01
<GCONST> 1.323853e+02
<STATE> 3
<MEAN> 39
 6.094189e+00 3.609092e+00 2.419283e+00 6.332345e+00 1.209006e-01 -3.303219e+00 -1.673352e+00 -9.362706e+00 -9.669875e+00 4.924030e-01 5.392537e-01 -4.919752e+00 -2.501229e+00 -8.370589e-04 -4.617673e-02 1.972871e-01 1.962487e-02 -1.404861e-01 -4.204845e-02 -9.187061e-02 -1.034655e-01 -2.214124e-02 -7.298195e-02 -7.010147e-02 1.568329e-02 2.547145e-01 -9.571239e-02 -4.382547e-01 -2.689216e-01 -6.761132e-01 -1.352726e-01 3.700818e-01 -2.110760e-02 7.829002e-01 8.377714e-01 -1.700839e-01 -9.938891e-02 3.121410e-01 3.852735e-01
<VARIANCE> 39
 9.332288e+00 1.884040e+01 2.390954e+01 3.252723e+01 3.786546e+01 5.070726e+01 5.754800e+01 4.864859e+01 5.154506e+01 4.853543e+01 5.741439e+01 4.622798e+01 1.572131e+01 1.081438e+00 1.867632e+00 1.507718e+00 2.135521e+00 2.082687e+00 2.076874e+00 2.468168e+00 2.789538e+00 3.385947e+00 2.374940e+00 2.446939e+00 2.046451e+00 2.212698e+00 3.316867e-01 2.827943e-01 5.061425e-01 5.002251e-01 5.754085e-01 5.595497e-01 6.886342e-01 7.209054e-01 8.572598e-01 6.841468e-01 7.139535e-01 5.930872e-01 2.251112e-01
<GCONST> 1.187620e+02
<STATE> 4
<MEAN> 39
 6.150863e+00 1.707916e+00 8.368363e-01 3.568691e+00 -5.449247e-01 -2.026437e+00 -2.129477e+00 -6.553819e+00 -5.598500e+00 -1.078402e+00 -8.042209e-02 -3.514014e+00 1.576323e-01 -1.155130e-01 -1.580267e+00 -3.370243e-01 -2.276118e+00 -1.030458e+00 9.645583e-01 -1.545219e-01 2.428150e+00 2.339140e+00 -6.471459e-01 -4.470546e-01 9.293036e-01 1.810355e+00 -2.781339e-01 -1.778759e-01 1.181295e-01 -3.941917e-01 -1.097333e-01 2.681340e-01 1.840863e-01 4.888666e-01 1.656008e-01 3.883722e-02 -1.305960e-02 1.498111e-01 9.182507e-02
<VARIANCE> 39
 1.202448e+01 2.661137e+01 2.872414e+01 4.020384e+01 3.509140e+01 4.554954e+01 4.749327e+01 4.917123e+01 6.200016e+01 4.108819e+01 4.519603e+01 3.560333e+01 2.776264e+01 2.100923e+00 3.630225e+00 5.675409e+00 5.179278e+00 5.459662e+00 4.778708e+00 5.454072e+00 5.526953e+00 6.800894e+00 5.003279e+00 5.178953e+00 4.000795e+00 3.557887e+00 3.484878e-01 4.035882e-01 5.879288e-01 6.418409e-01 6.612903e-01 6.694465e-01 7.187549e-01 8.526065e-01 1.203913e+00 6.897301e-01 6.946446e-01 5.441872e-01 3.309722e-01
<GCONST> 1.315822e+02
<TRANSP> 5
 0.000000e+00 1.000000e+00 0.000000e+00 0.000000e+00 0.000000e+00
 0.000000e+00 3.911934e-01 6.088066e-01 0.000000e+00 0.000000e+00
 0.000000e+00 0.000000e+00 6.690133e-01 3.309866e-01 0.000000e+00
 0.000000e+00 0.000000e+00 0.000000e+00 4.322183e-01 5.677817e-01
 0.000000e+00 0.000000e+00 0.000000e+00 0.000000e+00 0.000000e+00
<ENDHMM>
~h "n"
<BEGINHMM>
<NUMSTATES> 5
<STATE> 2
<MEAN> 39
 5.705647e+00 3.105859e-01 2.106250e+00 1.119989e+00 -2.994074e+00 -2.409134e+00 -1.192833e+00 -1.656224e+00 -3.595942e+00 -1.564527e+00 -2.665469e+00 -2.196072e+00 1.052023e+00 1.781662e-01 1.919217e+00 2.431254e-01 1.723683e+00 1.344368e-02 -6.739744e-01 1.248022e+00 -3.141456e+00 -1.503053e+00 1.297842e+00 -8.163685e-01 -2.569769e-01 -2.073281e+00 -1.729515e-01 2.181139e-02 4.328816e-02 -1.034121e-01 -6.824462e-02 1.397223e-01 1.291777e-01 -1.173005e-01 4.074363e-02 6.714111e-02 1.594886e-02 8.338965e-02 8.016984e-02
<VARIANCE> 39
 1.100660e+01 2.692931e+01 3.434347e+01 3.860140e+01 3.989486e+01 4.016431e+01 4.448842e+01 6.619194e+01 5.463651e+01 4.491981e+01 3.877415e+01 3.670703e+01 2.529399e+01 1.490112e+00 2.559218e+00 4.385180e+00 3.752371e+00 4.907506e+00 5.210722e+00 5.207914e+00 6.643107e+00 6.259609e+00 4.740655e+00 4.276791e+00 3.767785e+00 2.321589e+00 1.980786e-01 3.508793e-01 4.196181e-01 4.738327e-01 5.620316e-01 5.302504e-01 6.365867e-01 1.007733e+00 7.254457e-01 6.123328e-01 5.267306e-01 4.671610e-01 2.982523e-01
<GCONST> 1.267995e+02
<STATE> 3
<MEAN> 39
 5.863015e+00 4.624496e+00 3.031623e+00 4.535319e+00 -4.252303e+00 -3.202497e+00 3.229341e+00 -1.013664e+01 -7.474275e+00 2.483904e+00 -4.816783e+00 -2.191069e+00 -2.934858e+00 -1.434015e-01 8.771788e-01 1.195071e-01 5.249335e-01 7.785136e-02 -1.469276e-02 3.499576e-01 -1.075851e+00 -4.263896e-01 2.492510e-01 -2.632948e-01 1.832449e-03 -7.923433e-01 -2.851987e-01 -5.120749e-01 -4.723687e-02 -5.140378e-01 2.002605e-01 2.575012e-01 -5.382502e-01 1.151335e+00 6.169668e-01 -5.324103e-01 3.219529e-01 1.049826e-01 5.117676e-01
<VARIANCE> 39
 9.826391e+00 1.924720e+01 2.336751e+01 3.325116e+01 3.579469e+01 3.997133e+01 4.647086e+01 5.542146e+01 5.182410e+01 4.819991e+01 4.434673e+01 4.289279e+01 1.591648e+01 8.425807e-01 2.499463e+00 2.012937e+00 2.403983e+00 2.501390e+00 2.639891e+00 3.419060e+00 5.517069e+00 3.831188e+00 3.189748e+00 2.548804e+00 2.184698e+00 2.128755e+00 2.927501e-01 4.547809e-01 5.742161e-01 6.204518e-01 7.066894e-01 7.535576e-01 7.772473e-01 1.077139e+00 1.016523e+00 7.820511e-01 7.015295e-01 6.321060e-01 3.539518e-01
<GCONST> 1.230208e+02
<STATE> 4
<MEAN> 39
 4.684351e+00 3.712358e+00 3.011988e+00 3.520969e+00 -2.886803e+00 -2.405796e+00 1.467910e-01 -6.798411e+00 -5.152246e+00 -2.325148e-01 -4.166296e+00 -2.069591e+00 -2.101801e+00 -1.001806e+00 -7.862807e-01 -2.389705e-01 -9.649776e-01 7.735212e-01 6.977610e-01 -9.737599e-01 2.061662e+00 1.269765e+00 -8.785886e-01 5.919959e-01 1.939430e-01 7.937835e-01 -3.275176e-01 -3.936087e-01 -2.154555e-01 -3.985352e-01 1.331098e-01 3.048642e-01 9.196725e-03 6.775119e-01 3.637604e-01 -5.796658e-02 2.738203e-01 1.149121e-01 3.584036e-01
<VARIANCE> 39
 1.392811e+01 3.641327e+01 2.794870e+01 3.714631e+01 3.837544e+01 3.714001e+01 4.889273e+01 6.338533e+01 5.494469e+01 4.806515e+01 3.971977e+01 3.775809e+01 3.263663e+01 3.000262e+00 5.199623e+00 4.195581e+00 4.916289e+00 4.798522e+00 4.737457e+00 5.548121e+00 8.598607e+00 6.658360e+00 5.034467e+00 4.449729e+00 3.833753e+00 4.914721e+00 5.113484e-01 6.737593e-01 5.699115e-01 6.678107e-01 7.663163e-01 7.338009e-01 8.717246e-01 1.357503e+00 1.094720e+00 8.526371e-01 7.294037e-01 6.206185e-01 5.276169e-01
<GCONST> 1.355937e+02
<TRANSP> 5
 0.000000e+00 1.000000e+00 0.000000e+00 0.000000e+00 0.000000e+00
 0.000000e+00 4.012488e-01 5.987511e-01 0.000000e+00 0.000000e+00
 0.000000e+00 0.000000e+00 5.861912e-01 4.138088e-01 0.000000e+00
 0.000000e+00 0.000000e+00 0.000000e+00 4.134967e-01 5.865033e-01
 0.000000e+00 0.000000e+00 0.000000e+00 0.000000e+00 0.000000e+00
<ENDHMM>
~h "p"
<BEGINHMM>
<NUMSTATES> 5
<STATE> 2
<MEAN> 39
 -8.383965e+00 3.542187e+00 -2.866378e-01 6.841759e+00 5.360282e+00 4.729205e+00 4.406797e+00 9.434062e-01 3.165006e+00 2.570513e+00 2.266827e+00 1.952946e+00 -1.722163e+01 8.838646e-01 -1.568714e+00 -3.794911e-01 -1.194898e+00 -4.167258e-01 -9.151279e-01 -2.272990e-01 2.978833e-01 5.798398e-01 1.251010e-01 3.161406e-02 6.826251e-02 5.261923e+00 8.487943e-01 -1.917134e-01 -2.711267e-02 -3.661292e-01 -1.583589e-01 -2.936262e-01 -3.033670e-01 -2.410814e-01 -3.154517e-01 -2.480100e-01 -2.311078e-01 -1.972732e-01 1.339302e+00
<VARIANCE> 39
 1.156177e+01 1.411002e+01 1.605928e+01 2.100666e+01 1.857669e+01 2.258492e+01 2.137537e+01 2.243270e+01 2.298340e+01 1.942305e+01 1.936047e+01 1.564078e+01 5.074675e+01 1.955238e+00 1.987976e+00 1.877672e+00 2.474616e+00 2.150924e+00 2.595727e+00 2.554327e+00 2.879365e+00 2.937798e+00 2.477849e+00 2.076665e+00 1.873628e+00 7.239664e+00 5.213622e-01 3.760575e-01 4.469596e-01 5.374007e-01 5.036190e-01 5.801039e-01 6.064522e-01 5.983981e-01 6.151923e-01 4.877547e-01 4.390629e-01 3.826009e-01 1.165030e+00
<GCONST> 1.143436e+02
<STATE> 3
<MEAN> 39
 -5.058942e+00 -2.583700e+00 -1.836263e+00 2.951836e+00 4.438273e+00 2.175914e+00 3.951824e+00 1.597608e+00 4.599802e+00 2.521813e+00 2.177777e+00 1.780097e+00 1.669120e+00 1.655571e+00 -1.335445e+00 -7.352322e-01 -1.364536e+00 -3.892075e-01 -6.134472e-01 -4.283918e-01 -2.319538e-01 -3.259536e-01 -3.568203e-01 -5.178365e-01 -3.194801e-01 3.354741e+00 4.706309e-01 4.934258e-01 -1.077236e-02 -9.576620e-05 -1.485072e-01 5.897453e-02 -3.215599e-01 -2.651312e-01 -4.964682e-01 -2.728150e-01 -2.363547e-01 -1.767386e-01 -1.259372e+00
<VARIANCE> 39
 1.464076e+01 2.235391e+01 2.722944e+01 3.056360e+01 2.749992e+01 3.051036e+01 3.199294e+01 3.111290e+01 2.869776e+01 2.413035e+01 2.416507e+01 1.815467e+01 2.656883e+01 3.748366e+00 2.658592e+00 2.951405e+00 3.659725e+00 3.381253e+00 4.126814e+00 4.001560e+00 3.420633e+00 3.336915e+00 2.792565e+00 2.506195e+00 2.024410e+00 1.120172e+01 5.588766e-01 5.022868e-01 5.019854e-01 6.335875e-01 6.513035e-01 6.763992e-01 7.512020e-01 7.561166e-01 7.522560e-01 5.930533e-01 5.567208e-01 4.579887e-01 9.360208e-01
<GCONST> 1.238933e+02
<STATE> 4
<MEAN> 39
 5.902789e-01 -1.581983e+00 -3.546771e+00 -6.272204e-01 3.139845e+00 2.245141e+00 3.029865e+00 -7.078361e-01 8.298323e-01 6.058686e-02 -7.049217e-01 -1.294266e-01 9.756101e-01 3.289673e+00 1.892482e-01 -5.733618e-01 -1.571690e+00 -1.314650e+00 -5.935099e-01 -1.662000e+00 -5.161813e-01 -1.117901e+00 -7.794114e-01 -5.178769e-01 -5.274231e-01 1.479939e+00 6.957585e-02 -1.747019e-02 6.290954e-02 7.594986e-03 -2.387217e-01 -4.844176e-03 -2.977766e-01 1.696111e-01 1.117233e-01 1.161961e-01 2.632366e-01 8.542717e-02 -1.001086e-01
<VARIANCE> 39
 4.255647e+01 3.375462e+01 4.846451e+01 5.519084e+01 4.731167e+01 4.874028e+01 5.231534e+01 4.382912e+01 3.778857e+01 3.410340e+01 2.781672e+01 2.297433e+01 2.571524e+01 4.255709e+00 3.847872e+00 4.977702e+00 5.643318e+00 5.361879e+00 5.927548e+00 6.335114e+00 5.606876e+00 5.436218e+00 4.019925e+00 4.329915e+00 2.943349e+00 4.329275e+00 7.005154e-01 6.508491e-01 4.988879e-01 6.719114e-01 7.292827e-01 7.399875e-01 8.185871e-01 7.864005e-01 7.709000e-01 7.261057e-01 5.687658e-01 4.670223e-01 1.146884e+00
<GCONST> 1.347387e+02
<TRANSP> 5
 0.000000e+00 1.000000e+00 0.000000e+00 0.000000e+00 0.000000e+00
 0.000000e+00 4.362392e-01 5.637608e-01 0.000000e+00 0.000000e+00
 0.000000e+00 0.000000e+00 6.001487e-01 3.998513e-01 0.000000e+00
 0.000000e+00 0.000000e+00 0.000000e+00 5.193563e-01 4.806438e-01
 0.000000e+00 0.000000e+00 0.000000e+00 0.000000e+00 0.000000e+00
<ENDHMM>
~h "q"
<BEGINHMM>
<NUMSTATES> 5
<STATE> 2
<MEAN> 39
 -2.346556e+00 9.932126e-01 -1.918875e+00 8.941994e-01 -6.325340e-01 5.201749e-02 8.335615e-01 1.458445e+00 4.409827e+00 3.707631e+00 1.294039e+00 2.013922e-01 -9.599021e+00 -3.701010e-01 2.723635e-01 3.137576e-02 2.837359e-02 3.488577e-01 9.520856e-01 8.489143e-01 1.016075e-01 2.311080e-02 6.201549e-02 1.501207e-01 -2.176787e-02 -8.336232e-01 4.225194e-01 -2.450117e-01 6.577557e-02 -3.711287e-01 -6.317284e-02 6.968763e-02 -1.256119e-02 -1.994839e-01 -4.912661e-01 -3.243681e-01 -2.078541e-01 -8.307607e-02 9.667378e-01
<VARIANCE> 39
 5.159698e+01 3.755869e+01 6.224056e+01 6.852628e+01 7.523895e+01 8.130349e+01 6.790836e+01 7.172333e+01 7.103677e+01 6.046615e+01 5.845384e+01 4.919078e+01 9.785909e+01 5.475240e+00 4.532864e+00 5.181145e+00 7.356104e+00 7.259130e+00 7.274518e+00 6.653836e+00 7.443236e+00 7.512540e+00 6.039730e+00 5.653012e+00 4.626264e+00 1.077167e+01 1.090860e+00 8.221129e-01 8.386148e-01 1.454636e+00 1.482206e+00 1.402889e+00 1.316550e+00 1.377566e+00 1.339751e+00 1.184126e+00 1.143476e+00 9.416102e-01 1.887204e+00
<GCONST> 1.524922e+02
<STATE> 3
<MEAN> 39
 -1.941972e-02 1.277521e-02 -1.551157e+00 -1.082123e+00 -8.463964e-01 1.855139e+00 2.518208e+00 1.429516e-01 6.450856e-01 1.320544e+00 -8.721075e-02 -3.351950e-01 -5.515502e+00 1.845547e+00 -8.840401e-01 9.298564e-02 -2.048954e+00 -9.954653e-01 1.225063e-01 1.036067e-01 -4.499353e-01 -1.155213e+00 -7.450974e-01 -6.145064e-01 -4.465577e-01 3.163165e+00 2.989616e-01 -2.029713e-01 4.149186e-02 -2.722742e-01 -1.406248e-01 -1.001773e-01 -2.423549e-01 3.572348e-02 -1.502477e-02 -4.515571e-02 -1.034444e-02 -3.288261e-02 6.462675e-01
<VARIANCE> 39
 4.189534e+01 4.229564e+01 8.349278e+01 6.118534e+01 7.166685e+01 7.141949e+01 5.956017e+01 5.219547e+01 4.695334e+01 4.069301e+01 3.760773e+01 3.102392e+01 7.355145e+01 4.745890e+00 4.407979e+00 5.092521e+00 7.147299e+00 6.979463e+00 6.711199e+00 6.475209e+00 6.547513e+00 5.406434e+00 4.761746e+00 4.786212e+00 3.712119e+00 1.092157e+01 4.722903e-01 5.123885e-01 4.940800e-01 6.651360e-01 7.738028e-01 7.438442e-01 7.956405e-01 7.826821e-01 7.512746e-01 6.664839e-01 6.313828e-01 5.216643e-01 6.857135e-01
<GCONST> 1.402015e+02
<STATE> 4
<MEAN> 39
 3.596334e+00 -2.216931e+00 -7.827218e-01 -5.978964e+00 -3.749421e+00 9.705833e-01 2.119883e+00 -1.659516e-01 -1.202114e+00 3.705994e-01 -1.238163e+00 -1.406701e+00 1.828925e+00 1.375190e+00 -8.686827e-01 1.828805e-01 -1.456900e+00 -5.700413e-01 2.395599e-01 -1.182093e-01 -4.120428e-02 -6.350696e-01 -4.951738e-01 -2.088973e-01 -2.938427e-01 2.821668e+00 -3.061648e-01 1.343827e-01 1.931468e-02 4.320327e-01 2.335882e-01 6.546964e-02 -1.259120e-01 1.287635e-01 2.516202e-01 9.025548e-02 1.915099e-01 1.306286e-01 -4.465506e-01
<VARIANCE> 39
 2.418816e+01 4.467842e+01 9.718063e+01 6.026016e+01 7.161552e+01 7.401140e+01 6.086208e+01 5.906116e+01 4.867818e+01 4.546129e+01 3.898845e+01 3.304135e+01 3.911908e+01 2.954432e+00 3.064617e+00 2.818882e+00 4.638495e+00 4.358647e+00 4.388545e+00 3.991101e+00 4.198225e+00 3.849624e+00 3.322707e+00 3.368926e+00 2.590312e+00 6.500526e+00 4.155844e-01 5.290308e-01 5.290822e-01 7.402027e-01 6.905086e-01 6.452571e-01 7.138245e-01 7.422289e-01 6.459929e-01 6.239439e-01 5.686442e-01 4.759187e-01 9.130569e-01
<GCONST> 1.335586e+02
<TRANSP> 5
 0.000000e+00 1.000000e+00 0.000000e+00 0.000000e+00 0.000000e+00
 0.000000e+00 5.883772e-01 4.116228e-01 0.000000e+00 0.000000e+00
 0.000000e+00 0.000000e+00 2.173827e-01 7.826173e-01 0.000000e+00
 0.000000e+00 0.000000e+00 0.000000e+00 3.916153e-01 6.083847e-01
 0.000000e+00 0.000000e+00 0.000000e+00 0.000000e+00 0.000000e+00
<ENDHMM>
~h "r"
<BEGINHMM>
<NUMSTATES> 5
<STATE> 2
<MEAN> 39
 1.195776e+01 -1.521369e+00 -9.598796e+00 1.973645e+00 4.599854e+00 -3.695818e+00 -1.037173e+01 -1.412589e+00 7.374573e-01 -1.176946e+00 1.108213e+00 2.347529e+00 1.785181e+00 1.314645e+00 -4.136286e-01 -1.033287e+00 1.324883e-03 2.254384e-01 -5.620399e-01 -1.466565e+00 4.361947e-01 6.053879e-01 -8.195060e-02 -7.038680e-02 1.589927e-01 4.816223e-01 -5.162776e-01 -3.388135e-01 5.452903e-01 6.208612e-02 -4.597479e-01 -8.140550e-02 4.321614e-01 4.070342e-01 5.095314e-03 8.231915e-03 -3.784712e-04 -8.300746e-02 1.580370e-01
<VARIANCE> 39
 1.602199e+01 3.236031e+01 5.318513e+01 3.318258e+01 4.062898e+01 5.253336e+01 5.977089e+01 7.765439e+01 5.349149e+01 3.539090e+01 3.259646e+01 3.447171e+01 2.437295e+01 3.770202e+00 2.669655e+00 3.598034e+00 2.775245e+00 3.919200e+00 5.002707e+00 5.967042e+00 5.258042e+00 4.422240e+00 3.641578e+00 2.854881e+00 2.439362e+00 1.989049e+00 4.705597e-01 3.528126e-01 4.444710e-01 4.219829e-01 4.764685e-01 6.905143e-01 9.133627e-01 7.933018e-01 6.482099e-01 5.624421e-01 4.816563e-01 4.342703e-01 2.307956e-01
<GCONST> 1.267730e+02
<STATE> 3
<MEAN> 39
 1.275102e+01 -6.996130e+00 -9.797814e+00 3.561632e+00 2.904895e+00 -7.971153e+00 -1.337733e+01 5.828075e+00 4.596187e+00 -1.777147e+00 -9.750660e-03 1.780390e+00 5.749973e+00 -2.676001e-01 -9.953606e-01 1.403644e+00 4.429515e-01 -1.510300e+00 -1.103637e+00 4.655384e-01 1.548899e+00 -1.716913e-01 -6.589928e-01 -3.571491e-02 -1.131117e-02 6.253088e-01 -6.550761e-01 2.266503e-01 7.615954e-01 -1.988987e-01 -3.940468e-01 4.433542e-01 1.051171e+00 -3.141999e-01 -6.065056e-01 1.339976e-02 1.823809e-01 -9.546865e-02 -1.907320e-01
<VARIANCE> 39
 9.616931e+00 1.746956e+01 5.051390e+01 3.370507e+01 5.218663e+01 5.908725e+01 8.153544e+01 7.053640e+01 6.043568e+01 3.983837e+01 3.278410e+01 3.117898e+01 1.269501e+01 1.207140e+00 2.344051e+00 2.919462e+00 2.484305e+00 3.399381e+00 3.712751e+00 4.844310e+00 5.176300e+00 4.019687e+00 3.353884e+00 3.019093e+00 2.377632e+00 1.872009e+00 4.006821e-01 2.159332e-01 3.436256e-01 3.917530e-01 5.341950e-01 6.227392e-01 8.413500e-01 6.669514e-01 6.381758e-01 5.539838e-01 4.426649e-01 3.971785e-01 1.711305e-01
<GCONST> 1.214931e+02
<STATE> 4
<MEAN> 39
 1.041177e+01 -8.592012e+00 -3.262015e+00 3.717593e+00 -3.024862e+00 -9.878028e+00 -7.379538e+00 8.655873e+00 -7.800487e-02 -3.329723e+00 1.582028e+00 1.338236e+00 6.890680e+00 -1.146734e+00 7.201106e-02 2.548141e+00 -6.264713e-01 -1.831231e+00 5.076824e-01 2.072247e+00 -4.277527e-01 -1.483661e+00 1.578685e-01 3.809958e-01 -4.936742e-01 1.280069e-01 -3.627666e-01 5.195500e-01 1.251448e-01 -3.234807e-01 2.992802e-01 6.968064e-01 2.216659e-01 -8.202649e-01 -3.932646e-02 3.331978e-01 -1.203061e-01 -1.741591e-01 -3.247342e-01
<VARIANCE> 39
 1.063618e+01 1.908449e+01 6.538100e+01 3.498489e+01 5.384245e+01 7.195004e+01 8.541966e+01 6.283344e+01 7.243095e+01 4.952027e+01 3.700608e+01 3.343358e+01 1.463889e+01 9.310375e-01 2.185986e+00 2.902172e+00 3.217386e+00 3.867686e+00 3.748907e+00 4.606252e+00 5.046076e+00 4.257193e+00 3.497452e+00 3.324891e+00 2.737447e+00 2.206793e+00 3.247820e-01 2.395458e-01 3.557504e-01 4.264420e-01 5.169835e-01 6.911856e-01 9.410710e-01 7.158912e-01 7.081558e-01 5.726911e-01 5.003318e-01 4.272099e-01 1.947119e-01
<GCONST> 1.240852e+02
<TRANSP> 5
 0.000000e+00 1.000000e+00 0.000000e+00 0.000000e+00 0.000000e+00
 0.000000e+00 5.877107e-01 4.122893e-01 0.000000e+00 0.000000e+00
 0.000000e+00 0.000000e+00 4.694287e-01 5.305713e-01 0.000000e+00
 0.000000e+00 0.000000e+00 0.000000e+00 4.543299e-01 5.456701e-01
 0.000000e+00 0.000000e+00 0.000000e+00 0.000000e+00 0.000000e+00
<ENDHMM>
~h "s"
<BEGINHMM>
<NUMSTATES> 5
<STATE> 2
<MEAN> 39
 -1.022931e+01 6.949704e+00 8.406090e-02 1.248242e+00 5.015992e+00 -1.754731e+00 3.270773e+00 4.267559e-01 1.117378e+00 -1.316439e-01 -8.359553e-01 1.232240e+00 3.509819e+00 -4.693647e+00 1.485322e+00 -9.860600e-01 3.573178e-01 1.946961e+00 1.010057e+00 1.541711e+00 8.511481e-01 4.943732e-01 2.856319e-01 8.469057e-01 6.956985e-01 3.050946e-02 4.020212e-01 -5.129947e-01 -1.138049e-01 -1.552319e-01 -3.317464e-01 7.477149e-02 -3.027999e-01 6.680010e-02 -6.215657e-02 9.271631e-02 4.130108e-02 -6.374255e-02 3.969394e-02
<VARIANCE> 39
 8.332742e+01 3.108734e+01 4.067091e+01 4.243712e+01 4.875175e+01 4.550589e+01 4.331271e+01 3.835929e+01 3.387058e+01 3.297331e+01 3.206041e+01 2.285041e+01 1.870792e+01 4.070118e+00 4.128778e+00 4.607610e+00 5.405971e+00 4.504257e+00 5.130411e+00 5.061803e+00 4.514745e+00 4.319895e+00 4.097693e+00 3.993031e+00 2.990015e+00 2.248509e+00 1.411497e+00 5.883845e-01 6.315477e-01 6.815870e-01 7.652909e-01 7.897115e-01 8.248200e-01 7.743744e-01 6.205345e-01 6.825323e-01 6.180438e-01 4.979416e-01 3.210170e-01
<GCONST> 1.319697e+02
<STATE> 3
<MEAN> 39
 -1.923158e+01 8.286413e+00 -3.899061e+00 1.854571e+00 7.753967e+00 6.798624e-01 5.388979e+00 2.507934e+00 2.111878e+00 1.355873e+00 1.254316e+00 2.609456e+00 3.497935e+00 -1.423615e-01 -8.176633e-02 -8.591615e-02 -1.109444e-01 3.501311e-02 1.395364e-02 -4.185363e-02 5.673109e-02 5.716375e-02 6.726741e-02 1.394175e-02 6.056226e-03 1.942572e-02 6.295612e-01 -2.130273e-01 2.624100e-01 -3.605774e-02 -1.986237e-01 -1.594393e-01 -2.010856e-01 -1.238301e-01 -3.856774e-02 -6.846057e-02 -1.102474e-01 -1.022244e-01 -1.390956e-01
<VARIANCE> 39
 1.291968e+01 2.279137e+01 2.695561e+01 5.443938e+01 3.695274e+01 3.941211e+01 3.167295e+01 2.693539e+01 2.786088e+01 2.076649e+01 2.800206e+01 1.656229e+01 1.349578e+01 1.136536e+00 1.210059e+00 1.213966e+00 1.307740e+00 1.448755e+00 1.635929e+00 1.560624e+00 1.583940e+00 1.531253e+00 1.489492e+00 1.335645e+00 1.227148e+00 6.211507e-01 3.921267e-01 2.355125e-01 2.719050e-01 3.129540e-01 3.391894e-01 3.819666e-01 3.807794e-01 3.665872e-01 3.512738e-01 3.367109e-01 3.141188e-01 2.743999e-01 1.633090e-01
<GCONST> 1.019230e+02
<STATE> 4
<MEAN> 39
 -1.558120e+01 5.771807e+00 -1.032364e+00 1.700615e-01 6.786472e+00 -8.248363e-01 3.595033e+00 2.192563e+00 2.249178e+00 9.535733e-01 1.740080e-01 1.836231e+00 3.234628e+00 3.461910e+00 -1.311264e+00 1.218185e+00 -1.580781e-01 -1.264428e+00 -4.320564e-01 -1.567320e+00 -7.106715e-01 -1.388359e-01 -1.568118e-01 -3.942968e-01 -6.105978e-01 -8.265932e-01 7.876603e-01 -2.521800e-01 4.396654e-02 1.011612e-01 -3.663154e-01 1.050383e-01 -2.924549e-01 -1.668895e-01 -1.183216e-01 3.493664e-02 3.292150e-03 -1.066674e-01 -3.282261e-01
<VARIANCE> 39
 4.258402e+01 2.721324e+01 3.385444e+01 4.429960e+01 4.263329e+01 4.280398e+01 4.156804e+01 3.539230e+01 3.316678e+01 2.603069e+01 3.169987e+01 2.043956e+01 1.632658e+01 6.042852e+00 2.788811e+00 3.551809e+00 4.464746e+00 4.736299e+00 5.386178e+00 4.783646e+00 3.877160e+00 3.633081e+00 2.926572e+00 3.219215e+00 2.404762e+00 4.222488e+00 6.970587e-01 4.663139e-01 5.655285e-01 6.877416e-01 6.652912e-01 7.753335e-01 9.104882e-01 6.899619e-01 6.109328e-01 5.531893e-01 5.853395e-01 4.334591e-01 8.960072e-01
<GCONST> 1.287133e+02
<TRANSP> 5
 0.000000e+00 1.000000e+00 0.000000e+00 0.000000e+00 0.000000e+00
 0.000000e+00 6.601977e-01 3.398023e-01 0.000000e+00 0.000000e+00
 0.000000e+00 0.000000e+00 8.357168e-01 1.642832e-01 0.000000e+00
 0.000000e+00 0.000000e+00 0.000000e+00 6.135745e-01 3.864255e-01
 0.000000e+00 0.000000e+00 0.000000e+00 0.000000e+00 0.000000e+00
<ENDHMM>
~h "t"
<BEGINHMM>
<NUMSTATES> 5
<STATE> 2
<MEAN> 39
 -9.410921e+00 3.467573e-01 6.127302e-01 3.954735e+00 5.432506e+00 4.922183e+00 4.090895e+00 9.974098e-01 2.907731e+00 2.091403e+00 2.419165e+00 2.111389e+00 -1.196075e+01 -5.125324e-01 -1.721602e+00 -5.009050e-01 -2.622315e+00 -9.233211e-01 -1.028322e+00 8.522476e-02 4.846969e-01 2.020050e-01 3.642345e-02 4.200793e-01 5.660436e-01 6.023603e+00 2.459074e-01 5.534341e-01 2.605206e-01 -1.588189e-01 -4.125757e-01 -7.329544e-01 -2.227862e-01 -1.216228e-01 -3.003686e-01 -2.402385e-01 -2.973312e-01 -1.165392e-01 1.181485e+00
<VARIANCE> 39
 2.259795e+01 4.645387e+01 3.308680e+01 4.586595e+01 3.278138e+01 3.043525e+01 2.819209e+01 2.751519e+01 2.780136e+01 2.162724e+01 2.222389e+01 1.600971e+01 1.007990e+02 3.132457e+00 3.252879e+00 3.430096e+00 4.043394e+00 3.340704e+00 3.246930e+00 3.312085e+00 3.418489e+00 3.235523e+00 2.835603e+00 2.540684e+00 2.168308e+00 7.719147e+00 7.841195e-01 7.024415e-01 6.902842e-01 8.793612e-01 8.016907e-01 6.795449e-01 6.583956e-01 6.733182e-01 6.315633e-01 5.248464e-01 4.862818e-01 4.066241e-01 2.045717e+00
<GCONST> 1.276066e+02
<STATE> 3
<MEAN> 39
 -1.206327e+01 7.604378e-02 -5.622396e-01 -2.622827e+00 2.610776e+00 6.273912e-01 4.536531e+00 1.758325e+00 2.227110e+00 1.721712e+00 2.921622e+00 3.348510e+00 5.581902e+00 2.479922e-01 1.666643e-01 4.460229e-01 -6.311416e-01 -1.054329e+00 -1.643313e+00 4.974196e-02 2.781356e-01 -2.381231e-01 -3.703556e-01 -4.274591e-01 6.310405e-02 3.253804e+00 9.986739e-01 2.757275e-01 3.783685e-01 9.236084e-01 -7.173888e-02 -2.778077e-02 -3.511471e-01 -2.098652e-01 -2.206876e-01 -1.908782e-01 -4.003683e-01 -3.432457e-01 -1.734060e+00
<VARIANCE> 39
 2.166515e+01 3.763865e+01 3.387026e+01 3.301561e+01 3.329428e+01 3.422690e+01 3.427092e+01 3.057570e+01 2.928651e+01 2.638135e+01 2.721369e+01 2.055726e+01 1.894828e+01 4.316529e+00 2.762346e+00 2.952557e+00 4.510315e+00 3.463904e+00 3.512977e+00 3.452980e+00 3.156796e+00 2.922185e+00 2.549062e+00 2.373132e+00 2.104489e+00 1.178450e+01 6.548183e-01 8.210891e-01 7.443871e-01 7.766424e-01 8.190048e-01 7.991573e-01 8.262234e-01 7.309901e-01 6.866698e-01 6.322134e-01 5.781007e-01 4.992501e-01 9.476523e-01
<GCONST> 1.271227e+02
<STATE> 4
<MEAN> 39
 -6.272686e+00 -2.324113e-01 1.980860e+00 1.521364e+00 9.767952e-01 -2.176327e+00 3.600405e+00 1.466161e+00 1.207916e+00 -3.528014e-01 -7.052605e-01 1.474492e+00 3.308558e+00 3.643059e+00 -5.145943e-01 3.609976e-01 3.461950e-01 -1.131784e+00 -1.036002e+00 -1.691758e+00 -3.336675e-01 -6.036670e-01 -5.808368e-01 -8.663921e-01 -7.844695e-01 -1.024811e-03 4.788856e-01 -1.860986e-01 -1.811799e-01 -1.644645e-01 -8.592280e-02 2.683896e-01 -4.262539e-01 -7.389405e-02 -3.985057e-02 8.705547e-02 1.933390e-01 -7.894888e-02 -2.871834e-01
<VARIANCE> 39
 4.607234e+01 3.004284e+01 3.376732e+01 3.131613e+01 3.955334e+01 3.912676e+01 4.321024e+01 3.626550e+01 3.288327e+01 2.949263e+01 2.893452e+01 2.190741e+01 2.322766e+01 4.901181e+00 3.461123e+00 5.138432e+00 4.427542e+00 5.791793e+00 5.479781e+00 6.016400e+00 4.501972e+00 4.656902e+00 3.947698e+00 3.913145e+00 2.898944e+00 3.686970e+00 8.527261e-01 5.406601e-01 5.520541e-01 7.160444e-01 7.542304e-01 8.127072e-01 9.125032e-01 7.924030e-01 6.905960e-01 6.624785e-01 6.156526e-01 5.156431e-01 1.284879e+00
<GCONST> 1.322117e+02
<TRANSP> 5
 0.000000e+00 1.000000e+00 0.000000e+00 0.000000e+00 0.000000e+00
 0.000000e+00 3.514937e-01 6.485062e-01 0.000000e+00 0.000000e+00
 0.000000e+00 0.000000e+00 5.360281e-01 4.639719e-01 0.000000e+00
 0.000000e+00 0.000000e+00 0.000000e+00 5.631441e-01 4.368558e-01
 0.000000e+00 0.000000e+00 0.000000e+00 0.000000e+00 0.000000e+00
<ENDHMM>
~h "v"
<BEGINHMM>
<NUMSTATES> 5
<STATE> 2
<MEAN> 39
 6.953793e+00 6.684713e-01 -2.379750e+00 1.050999e+00 7.351547e-01 -2.016615e+00 -5.238292e+00 -4.117268e+00 -5.255922e-01 8.995772e-01 1.253771e+00 -1.020074e+00 5.888499e-01 -1.881012e+00 2.357606e+00 -2.426107e-02 1.482998e+00 1.579432e+00 8.257688e-01 8.228188e-01 -1.275014e+00 -7.167010e-01 -6.079730e-01 -1.398435e-01 2.447799e-01 -2.291253e+00 -5.962688e-01 -1.862570e-01 3.485983e-01 -6.877489e-02 -1.784231e-01 1.218797e-01 3.709115e-01 4.611033e-01 8.729687e-02 -1.260033e-01 -2.685035e-01 9.411224e-03 2.412853e-01
<VARIANCE> 39
 2.345610e+01 2.113558e+01 3.431799e+01 3.177172e+01 2.392636e+01 3.566460e+01 3.495914e+01 3.391653e+01 3.084559e+01 2.968016e+01 2.657477e+01 2.860253e+01 2.184901e+01 2.839640e+00 2.644710e+00 3.693524e+00 4.077398e+00 3.562396e+00 4.242925e+00 5.303338e+00 5.504885e+00 4.213026e+00 3.851976e+00 3.657754e+00 2.847377e+00 2.110875e+00 3.716057e-01 3.922211e-01 3.665313e-01 4.390375e-01 4.776333e-01 4.780803e-01 5.860859e-01 5.800560e-01 5.434285e-01 5.080738e-01 4.762467e-01 4.559687e-01 2.961085e-01
<GCONST> 1.215972e+02
<STATE> 3
<MEAN> 39
 8.292093e-01 5.451754e+00 -1.161211e-01 4.274004e+00 3.228989e+00 3.146740e-01 -2.156912e+00 -5.274998e+00 -2.573132e+00 -1.389912e+00 -5.978003e-01 -8.090539e-01 -3.939655e+00 -2.188736e+00 6.563237e-01 4.780782e-01 8.879603e-01 7.078328e-01 5.364730e-01 1.040244e+00 3.352953e-01 1.627897e-02 -4.293862e-01 -4.096113e-01 1.232938e-01 -7.637405e-01 4.852723e-01 -8.913192e-01 -1.185662e-01 -5.871979e-01 -5.377040e-01 -2.994561e-01 -1.956329e-01 5.259809e-01 3.697936e-01 2.880050e-01 1.268745e-01 2.416959e-02 8.838838e-01
<VARIANCE> 39
 3.159313e+01 1.862218e+01 3.119028e+01 3.090890e+01 2.233342e+01 2.805648e+01 3.323695e+01 2.611287e+01 2.420966e+01 2.443032e+01 2.248944e+01 2.321062e+01 2.836000e+01 3.778442e+00 2.158396e+00 2.215195e+00 2.879902e+00 2.313695e+00 3.116205e+00 3.118643e+00 2.847290e+00 2.561405e+00 2.599816e+00 2.457850e+00 1.842502e+00 2.090708e+00 5.622380e-01 4.382377e-01 5.967932e-01 5.832211e-01 5.674174e-01 6.348386e-01 8.012488e-01 7.337565e-01 6.254314e-01 5.890576e-01 5.274172e-01 4.273089e-01 4.717084e-01
<GCONST> 1.191238e+02
<STATE> 4
<MEAN> 39
 -2.703714e+00 2.748412e+00 -7.151730e-01 3.787341e+00 2.781253e+00 3.177882e-01 1.053802e-01 -2.171916e+00 -6.701129e-02 -5.457235e-01 -2.561883e-01 1.697112e-02 -1.867197e+00 1.031792e+00 -1.181770e+00 -4.813021e-01 -1.166994e+00 -8.259071e-01 -6.460888e-01 -3.076405e-01 7.157081e-01 5.208727e-01 3.927852e-01 2.840371e-01 1.293366e-01 1.457492e+00 9.124328e-01 -3.401451e-01 -5.233488e-02 -4.545692e-01 -3.666621e-01 -2.126007e-01 -3.934981e-01 7.641762e-02 -3.885321e-02 8.775273e-02 6.520100e-02 -6.871544e-02 3.525494e-01
<VARIANCE> 39
 5.718854e+01 2.499355e+01 3.018269e+01 3.259428e+01 2.597095e+01 3.124426e+01 3.683557e+01 3.075698e+01 2.775584e+01 2.381220e+01 2.204870e+01 2.057001e+01 3.186337e+01 7.676604e+00 3.227326e+00 3.288572e+00 4.050518e+00 3.527267e+00 3.983995e+00 4.739440e+00 3.777531e+00 3.375039e+00 2.772330e+00 2.596746e+00 2.213016e+00 4.180103e+00 9.625604e-01 6.348633e-01 6.073365e-01 7.415423e-01 6.388645e-01 7.763442e-01 8.273510e-01 7.610809e-01 6.876191e-01 6.012333e-01 5.517741e-01 4.332171e-01 6.454062e-01
<GCONST> 1.271728e+02
<TRANSP> 5
 0.000000e+00 1.000000e+00 0.000000e+00 0.000000e+00 0.000000e+00
 0.000000e+00 4.076087e-01 5.923913e-01 0.000000e+00 0.000000e+00
 0.000000e+00 0.000000e+00 4.761196e-01 5.238804e-01 0.000000e+00
 0.000000e+00 0.000000e+00 0.000000e+00 5.785344e-01 4.214656e-01
 0.000000e+00 0.000000e+00 0.000000e+00 0.000000e+00 0.000000e+00
<ENDHMM>
~h "w"
<BEGINHMM>
<NUMSTATES> 5
<STATE> 2
<MEAN> 39
 9.199184e+00 7.075844e+00 -3.364446e+00 -4.411639e+00 -2.079073e+00 2.467811e+00 -1.209635e+00 -4.712326e+00 -6.327209e+00 -1.610054e+00 4.198158e-01 -5.495540e-01 -4.366554e+00 1.567695e+00 1.386882e+00 -4.071803e-01 -2.000734e+00 -1.543541e+00 5.349885e-01 7.557659e-01 -1.497309e-03 -4.356743e-01 -6.319375e-01 -1.496062e-01 6.573045e-02 3.378615e-02 -3.340452e-01 -5.368096e-01 2.315395e-01 -4.123017e-02 -2.229435e-01 -1.610341e-01 -7.152621e-02 3.775058e-01 3.420155e-01 1.859629e-01 1.507296e-02 -1.892298e-02 4.549737e-01
<VARIANCE> 39
 1.820168e+01 3.045850e+01 2.279516e+01 3.890855e+01 4.241223e+01 3.563670e+01 4.925442e+01 3.482463e+01 4.559605e+01 3.477776e+01 3.215862e+01 2.513304e+01 2.353568e+01 4.025659e+00 2.741866e+00 3.799567e+00 4.973825e+00 4.868438e+00 5.167488e+00 5.984140e+00 4.883892e+00 5.367692e+00 4.027593e+00 3.630117e+00 2.882014e+00 4.166787e+00 3.836931e-01 5.436910e-01 5.844527e-01 6.701159e-01 9.804797e-01 8.564451e-01 1.040632e+00 7.938598e-01 8.664301e-01 8.274335e-01 6.456308e-01 5.140742e-01 2.546703e-01
<GCONST> 1.298884e+02
<STATE> 3
<MEAN> 39
 1.190538e+01 7.482598e+00 -3.995932e+00 -1.267226e+01 -9.059120e+00 5.010511e+00 1.919726e+00 -1.313842e+00 -4.474724e+00 -2.703672e+00 6.483598e-01 -5.104489e-02 -1.463080e+00 4.533075e-01 -1.158304e+00 -4.853194e-01 -1.480260e+00 -3.478158e-01 1.009597e+00 -4.633486e-02 2.281795e-02 1.021148e-01 4.717220e-01 7.020797e-01 3.038327e-01 1.488484e+00 -4.215296e-01 -6.151103e-01 -1.259982e-01 5.069454e-01 7.209787e-01 6.517588e-02 -2.233591e-01 -1.434057e-01 1.725095e-01 3.500486e-01 1.685195e-01 -1.866370e-02 1.698889e-01
<VARIANCE> 39
 7.307405e+00 2.169487e+01 2.381384e+01 3.586680e+01 3.961681e+01 3.646743e+01 3.763540e+01 3.651361e+01 4.318706e+01 3.298452e+01 2.824871e+01 2.604369e+01 1.339418e+01 1.124466e+00 2.056474e+00 1.766675e+00 2.985158e+00 4.038797e+00 3.304379e+00 3.711633e+00 3.157623e+00 3.526781e+00 3.502574e+00 3.089002e+00 2.331290e+00 1.754783e+00 3.475505e-01 2.534740e-01 2.769362e-01 4.807177e-01 4.762422e-01 5.739831e-01 6.082205e-01 5.867364e-01 7.319903e-01 5.811498e-01 4.993466e-01 4.714816e-01 1.709017e-01
<GCONST> 1.162149e+02
<STATE> 4
<MEAN> 39
 1.131805e+01 -7.907147e-01 -6.174368e+00 -1.092951e+01 -2.771022e+00 7.081653e+00 -3.331042e+00 -4.086937e+00 -4.168067e+00 3.106437e+00 4.615647e+00 -8.595919e-02 4.643797e+00 -5.273874e-01 -2.175707e+00 1.157558e-01 1.110812e+00 1.078966e+00 -9.738573e-01 -1.496661e+00 4.712364e-01 1.654025e+00 1.289295e+00 -2.272902e-01 -9.610823e-01 1.653434e+00 -3.734510e-01 2.015305e-01 3.965984e-01 5.800843e-01 -1.313074e-01 -6.541514e-01 2.854249e-01 5.089304e-01 3.581629e-01 -4.570580e-01 -6.051738e-01 -1.385233e-01 -3.281232e-01
<VARIANCE> 39
 8.988554e+00 2.444378e+01 3.224107e+01 5.664287e+01 4.969822e+01 6.039885e+01 7.689523e+01 4.667739e+01 5.453864e+01 6.584256e+01 5.170760e+01 3.768853e+01 1.541233e+01 6.000008e-01 1.519041e+00 2.591736e+00 3.590038e+00 3.710173e+00 6.093715e+00 5.204507e+00 5.046519e+00 4.042406e+00 4.541057e+00 4.566060e+00 3.124461e+00 9.665912e-01 2.705353e-01 2.883125e-01 3.649193e-01 5.807497e-01 7.952831e-01 7.371717e-01 9.867989e-01 7.892950e-01 9.494858e-01 1.035294e+00 7.557424e-01 7.390576e-01 1.646894e-01
<GCONST> 1.260370e+02
<TRANSP> 5
 0.000000e+00 1.000000e+00 0.000000e+00 0.000000e+00 0.000000e+00
 0.000000e+00 6.277289e-01 3.722710e-01 0.000000e+00 0.000000e+00
 0.000000e+00 0.000000e+00 6.827452e-01 3.172548e-01 0.000000e+00
 0.000000e+00 0.000000e+00 0.000000e+00 5.398964e-01 4.601036e-01
 0.000000e+00 0.000000e+00 0.000000e+00 0.000000e+00 0.000000e+00
<ENDHMM>
~h "y"
<BEGINHMM>
<NUMSTATES> 5
<STATE> 2
<MEAN> 39
 -4.627789e-01 4.993176e+00 1.803163e+01 -3.004789e+00 -7.462786e+00 -1.497270e-01 -5.088796e+00 -5.094115e+00 -7.196120e+00 -1.699966e+00 -1.002434e+00 -6.252269e-01 8.119015e-01 1.642275e-01 -2.049715e-01 7.167825e-01 -1.099510e-01 -8.146932e-01 -2.429111e-02 -7.632456e-04 -1.685973e-01 -4.351429e-01 3.467350e-02 2.439404e-01 -5.310845e-03 3.816738e-01 1.522233e-01 -2.629236e-01 -5.362962e-01 1.431897e-01 1.130838e-01 -2.428353e-01 7.737025e-02 2.169588e-01 2.019981e-01 1.333897e-01 8.082899e-02 2.230364e-02 8.362617e-02
<VARIANCE> 39
 1.094730e+01 2.714312e+01 2.383833e+01 4.722877e+01 3.552067e+01 3.328561e+01 3.269516e+01 3.908852e+01 3.214112e+01 4.034986e+01 3.029383e+01 2.458110e+01 1.754835e+01 1.768261e+00 2.288679e+00 2.907149e+00 2.032196e+00 3.344711e+00 3.524596e+00 2.786644e+00 2.655883e+00 2.778122e+00 2.551981e+00 1.804190e+00 1.562527e+00 1.746771e+00 1.926307e-01 2.010645e-01 4.025519e-01 4.134241e-01 6.039554e-01 5.272396e-01 4.587498e-01 4.994794e-01 5.032861e-01 4.105122e-01 3.159780e-01 2.856741e-01 1.705679e-01
<GCONST> 1.130548e+02
<STATE> 3
<MEAN> 39
 2.811678e+00 -1.676257e+00 1.556362e+01 6.890506e-01 -1.273700e+01 -5.373613e+00 -1.522881e+00 -1.621319e+00 -9.074803e+00 -8.045626e-01 3.414802e+00 -3.902618e-01 4.634308e+00 9.441559e-01 -1.173106e+00 -1.455182e+00 9.330953e-01 -6.905822e-02 -1.872317e+00 5.689368e-02 1.697994e+00 2.268203e-02 -2.960605e-01 8.444909e-01 4.096753e-01 4.723587e-01 -2.480324e-03 8.268803e-02 -4.709318e-01 1.492140e-02 5.727790e-01 2.341471e-02 -2.975913e-01 2.404976e-01 4.462602e-01 -1.856724e-01 -2.031869e-01 1.458408e-01 -1.623314e-01
<VARIANCE> 39
 8.161303e+00 1.411736e+01 2.678401e+01 3.966070e+01 2.023576e+01 3.471969e+01 3.322520e+01 3.480840e+01 3.530804e+01 5.562321e+01 2.702685e+01 2.249533e+01 1.110974e+01 9.192303e-01 1.019662e+00 1.548932e+00 1.429768e+00 1.698725e+00 2.368208e+00 3.173933e+00 2.705162e+00 2.255995e+00 2.094893e+00 1.602331e+00 1.507482e+00 6.034786e-01 1.367415e-01 1.346178e-01 2.968805e-01 2.406611e-01 3.724669e-01 3.739186e-01 4.048108e-01 3.405506e-01 4.448406e-01 4.051198e-01 3.037998e-01 2.358611e-01 7.281761e-02
<GCONST> 1.020473e+02
<STATE> 4
<MEAN> 39
 6.109227e+00 -4.889950e+00 7.992471e+00 4.225613e+00 -8.711660e+00 -1.170656e+01 -4.744557e+00 5.934499e+00 -5.458490e+00 -4.230134e+00 4.096825e+00 2.909995e+00 5.295849e+00 9.846235e-01 -6.556147e-01 -2.490514e+00 4.018663e-01 1.589236e+00 -8.098150e-01 -1.476242e+00 1.420203e+00 1.803036e+00 -3.143011e-01 -5.383659e-01 4.721927e-01 8.576643e-02 -1.573961e-01 2.992609e-01 -4.908063e-02 -2.610683e-01 3.202607e-01 6.707186e-01 -7.873324e-02 -5.768065e-01 2.681527e-01 2.606016e-01 -3.246941e-01 -2.582817e-01 -2.210984e-01
<VARIANCE> 39
 9.719870e+00 1.671194e+01 3.702671e+01 3.492294e+01 3.077152e+01 4.232108e+01 5.436106e+01 3.907450e+01 4.224598e+01 4.857066e+01 2.815728e+01 2.594191e+01 1.432340e+01 6.299582e-01 9.497381e-01 2.079969e+00 1.545168e+00 2.059504e+00 2.478568e+00 3.230126e+00 2.852683e+00 2.867654e+00 2.685049e+00 1.831567e+00 1.796883e+00 4.887869e-01 1.324347e-01 1.585938e-01 3.058702e-01 3.065401e-01 4.045589e-01 5.392156e-01 5.175583e-01 4.755331e-01 4.796259e-01 4.915394e-01 3.644965e-01 2.831069e-01 8.712836e-02
<GCONST> 1.073576e+02
<TRANSP> 5
 0.000000e+00 1.000000e+00 0.000000e+00 0.000000e+00 0.000000e+00
 0.000000e+00 8.251551e-01 1.748449e-01 0.000000e+00 0.000000e+00
 0.000000e+00 0.000000e+00 6.873369e-01 3.126631e-01 0.000000e+00
 0.000000e+00 0.000000e+00 0.000000e+00 5.355015e-01 4.644985e-01
 0.000000e+00 0.000000e+00 0.000000e+00 0.000000e+00 0.000000e+00
<ENDHMM>
~h "z"
<BEGINHMM>
<NUMSTATES> 5
<STATE> 2
<MEAN> 39
 -4.440674e+00 9.368282e+00 2.711073e+00 1.051159e+00 2.744467e+00 -6.397221e+00 -2.909106e+00 -3.438937e+00 -3.513041e-01 -1.045483e+00 -2.221661e+00 6.695915e-01 2.977990e+00 -4.475849e+00 2.305671e+00 -7.018625e-01 4.769552e-01 2.503988e+00 1.016255e+00 1.505522e+00 6.455201e-01 4.958880e-01 -4.439595e-02 4.387090e-01 3.067174e-01 -3.849236e-01 -1.395541e-01 -6.750945e-01 -1.139874e-01 -8.037689e-02 -1.467604e-01 5.098847e-01 2.759353e-01 4.855931e-01 4.922851e-02 1.714271e-01 2.046093e-01 9.512084e-03 4.499340e-02
<VARIANCE> 39
 4.849878e+01 3.653060e+01 3.752152e+01 4.449950e+01 5.183789e+01 4.747740e+01 4.241627e+01 3.549805e+01 3.318595e+01 3.717112e+01 2.798743e+01 2.395987e+01 1.903400e+01 3.052144e+00 4.426320e+00 3.825374e+00 5.704750e+00 3.915987e+00 5.859920e+00 4.732990e+00 5.166062e+00 4.142229e+00 3.817248e+00 3.650129e+00 3.343086e+00 1.548161e+00 9.158638e-01 7.344998e-01 5.037261e-01 6.077709e-01 7.604516e-01 7.414154e-01 7.096429e-01 6.617222e-01 5.725942e-01 6.518165e-01 5.083498e-01 4.974359e-01 1.709027e-01
<GCONST> 1.289543e+02
<STATE> 3
<MEAN> 39
 -1.774855e+01 9.857063e+00 -1.379623e+00 1.765990e+00 8.512326e+00 -1.641702e-01 4.189975e+00 1.948408e+00 1.617712e+00 5.427061e-01 3.355374e-01 2.007721e+00 1.816633e+00 -9.392089e-01 -6.478341e-01 -5.254982e-01 -2.086511e-01 1.744478e-01 4.635685e-01 5.802141e-01 6.346445e-01 3.722073e-01 3.079928e-01 2.891622e-01 1.578505e-01 1.768403e-01 1.294086e+00 -4.176337e-01 2.805247e-01 -1.185653e-01 -6.171409e-01 -4.581113e-01 -5.537319e-01 -3.589328e-01 -1.279952e-01 -5.210155e-02 -1.670227e-01 -1.306119e-01 -1.824824e-03
<VARIANCE> 39
 1.771530e+01 2.739738e+01 3.900149e+01 5.430086e+01 3.780675e+01 4.358543e+01 3.990166e+01 3.332359e+01 2.863800e+01 2.370784e+01 2.852477e+01 1.784133e+01 1.314353e+01 4.318131e+00 1.624475e+00 1.968802e+00 1.818193e+00 2.355997e+00 3.262754e+00 2.824299e+00 2.472586e+00 2.223898e+00 2.011557e+00 1.768633e+00 1.540425e+00 8.515195e-01 6.423066e-01 4.946057e-01 4.372642e-01 5.529084e-01 5.553413e-01 6.635745e-01 5.934663e-01 5.467718e-01 4.999482e-01 4.546224e-01 4.242837e-01 3.797883e-01 2.458822e-01
<GCONST> 1.155947e+02
<STATE> 4
<MEAN> 39
 -1.247199e+01 6.186997e+00 1.685152e-01 2.258399e-01 5.522598e+00 -2.297453e+00 1.235229e+00 9.541434e-01 1.931877e+00 6.814907e-01 -2.196335e-01 1.297591e+00 2.907290e+00 3.350588e+00 -1.675668e+00 4.434644e-01 -1.839116e-01 -1.483234e+00 -6.108485e-01 -1.293891e+00 -6.486418e-01 -8.832715e-02 7.551737e-02 -2.727756e-01 -3.942312e-01 -4.945906e-01 6.473256e-01 -1.700277e-01 9.449573e-03 1.148084e-01 -2.120729e-01 1.363143e-01 -1.269649e-01 -9.727638e-02 -1.302009e-01 -1.577022e-03 -2.646696e-02 -7.799331e-02 -4.047867e-01
<VARIANCE> 39
 5.062793e+01 3.430060e+01 3.730405e+01 4.502238e+01 4.416294e+01 5.396463e+01 4.923045e+01 4.199910e+01 3.420907e+01 2.930373e+01 2.962908e+01 2.035760e+01 1.943258e+01 5.474919e+00 3.446105e+00 3.390323e+00 4.330311e+00 4.487698e+00 5.356547e+00 4.759324e+00 3.905669e+00 3.528413e+00 3.054296e+00 2.923168e+00 2.428291e+00 3.797594e+00 8.866550e-01 5.578583e-01 5.284344e-01 6.400937e-01 6.793166e-01 8.510914e-01 8.219475e-01 7.631669e-01 6.326708e-01 5.583410e-01 5.251051e-01 4.313573e-01 5.594819e-01
<GCONST> 1.297422e+02
<TRANSP> 5
 0.000000e+00 1.000000e+00 0.000000e+00 0.000000e+00 0.000000e+00
 0.000000e+00 6.626959e-01 3.373041e-01 0.000000e+00 0.000000e+00
 0.000000e+00 0.000000e+00 7.442077e-01 2.557922e-01 0.000000e+00
 0.000000e+00 0.000000e+00 0.000000e+00 6.138491e-01 3.861509e-01
 0.000000e+00 0.000000e+00 0.000000e+00 0.000000e+00 0.000000e+00
<ENDHMM>
~h "aa"
<BEGINHMM>
<NUMSTATES> 5
<STATE> 2
<MEAN> 39
 8.791534e+00 -8.144208e+00 -7.671010e+00 -6.673699e+00 -2.985089e-01 3.893337e+00 -1.132733e+00 1.598998e+00 2.509751e+00 8.805308e-01 -6.419953e-01 -4.005640e+00 1.043395e+01 9.757832e-01 -1.531049e+00 -1.594394e+00 -9.599655e-01 8.520842e-01 1.470834e+00 3.347953e-01 -2.457952e-02 2.355082e-01 -8.413517e-02 7.843240e-02 -6.778725e-01 1.022776e+00 -5.836403e-01 3.777598e-01 2.770607e-01 4.481341e-01 3.146182e-01 -3.089174e-02 2.370093e-01 -2.562168e-01 -1.470346e-01 -9.391113e-02 6.797641e-02 3.047242e-01 -5.151991e-01
<VARIANCE> 39
 1.202894e+01 2.446110e+01 3.182358e+01 4.542407e+01 4.429430e+01 6.765634e+01 6.257090e+01 6.355833e+01 4.731419e+01 4.442112e+01 4.739328e+01 3.365085e+01 1.463756e+01 2.285858e+00 2.025967e+00 2.886076e+00 3.538316e+00 4.140700e+00 3.774820e+00 4.642542e+00 4.692172e+00 4.036155e+00 3.386827e+00 3.508759e+00 3.265712e+00 1.262300e+00 3.982455e-01 3.188404e-01 3.615937e-01 5.170727e-01 6.257462e-01 7.867539e-01 9.101341e-01 8.762247e-01 7.009334e-01 6.323298e-01 6.833867e-01 5.216902e-01 2.541916e-01
<GCONST> 1.257234e+02
<STATE> 3
<MEAN> 39
 9.582805e+00 -9.475567e+00 -1.117381e+01 -7.690646e+00 3.777339e+00 7.886755e+00 8.273515e-01 -9.216372e-01 2.454223e+00 -3.689083e-01 2.181765e-01 -3.928260e+00 1.045348e+01 3.324597e-02 -1.572685e-01 -2.667906e-01 3.525008e-01 3.777614e-01 -2.967847e-01 -1.851266e-01 1.360550e-01 1.791971e-01 -1.601807e-01 -1.124200e-01 -3.837471e-02 1.468256e-02 -2.547405e-02 1.818608e-01 1.571139e-01 1.160774e-01 -1.815278e-01 -3.188076e-01 -1.517669e-01 1.569778e-01 1.845067e-02 1.708140e-02 -6.469658e-02 5.251089e-02 -1.365978e-01
<VARIANCE> 39
 1.023575e+01 2.334679e+01 2.559521e+01 5.066398e+01 4.463990e+01 5.989075e+01 6.409756e+01 6.295837e+01 4.628747e+01 3.991517e+01 4.047847e+01 3.486392e+01 1.319367e+01 2.491060e-01 7.090771e-01 8.197764e-01 1.395478e+00 1.373037e+00 1.917419e+00 1.907752e+00 1.898969e+00 1.511603e+00 1.422607e+00 1.372231e+00 1.344462e+00 2.377867e-01 4.567949e-02 1.037755e-01 1.294084e-01 1.848073e-01 2.107082e-01 2.380392e-01 3.030750e-01 2.746325e-01 2.588761e-01 2.485407e-01 2.295789e-01 2.246257e-01 4.505538e-02
<GCONST> 9.509482e+01
<STATE> 4
<MEAN> 39
 9.273900e+00 -9.459205e+00 -1.081911e+01 -5.341977e+00 3.410284e+00 3.558861e+00 -8.240216e-01 1.670287e+00 3.442970e+00 -6.541979e-01 -1.772490e+00 -4.445682e+00 1.010340e+01 -1.134127e-01 1.109263e+00 7.881554e-01 1.012054e+00 -6.374396e-01 -1.759939e+00 -7.047284e-01 7.753388e-01 3.993738e-02 9.769633e-02 -4.011810e-01 4.551267e-01 -1.136000e+00 -3.051163e-01 5.459120e-01 4.844217e-01 3.539264e-01 -4.013962e-02 -9.736589e-02 -7.054386e-03 -2.340940e-01 -1.980902e-01 4.510453e-02 9.475200e-02 2.360828e-01 -6.017480e-01
<VARIANCE> 39
 1.208589e+01 2.478200e+01 3.231409e+01 4.115943e+01 4.090679e+01 6.331431e+01 6.822663e+01 6.565548e+01 5.096568e+01 4.388094e+01 4.429198e+01 3.830908e+01 1.453014e+01 7.252511e-01 1.879005e+00 2.287312e+00 2.808595e+00 3.275853e+00 3.028337e+00 4.313900e+00 3.755491e+00 3.428696e+00 3.229045e+00 2.974680e+00 2.692841e+00 1.223433e+00 2.936893e-01 3.185930e-01 2.960503e-01 4.499151e-01 4.670543e-01 5.664263e-01 6.097900e-01 6.528870e-01 5.632029e-01 5.437989e-01 5.107529e-01 4.769984e-01 3.004853e-01
<GCONST> 1.201668e+02
<TRANSP> 5
 0.000000e+00 1.000000e+00 0.000000e+00 0.000000e+00 0.000000e+00
 0.000000e+00 6.158159e-01 3.841842e-01 0.000000e+00 0.000000e+00
 0.000000e+00 0.000000e+00 8.496168e-01 1.503832e-01 0.000000e+00
 0.000000e+00 0.000000e+00 0.000000e+00 5.816051e-01 4.183949e-01
 0.000000e+00 0.000000e+00 0.000000e+00 0.000000e+00 0.000000e+00
<ENDHMM>
~h "ae"
<BEGINHMM>
<NUMSTATES> 5
<STATE> 2
<MEAN> 39
 5.063652e+00 -8.738901e+00 4.577460e-01 -4.187047e+00 -6.443410e+00 -2.165193e+00 2.294668e+00 6.155005e+00 1.505938e+00 -1.542808e+00 -2.689489e+00 -2.521615e+00 1.159372e+01 -1.241309e-01 -9.610724e-01 -6.375533e-02 -5.197761e-01 5.745431e-02 6.104495e-01 8.901150e-01 5.241321e-01 8.186835e-02 -4.988506e-01 -3.545513e-01 -1.468775e-01 7.888635e-01 -1.850641e-01 4.258810e-01 -9.401547e-02 3.115939e-01 3.621022e-01 7.830516e-02 -3.514574e-02 -3.827121e-01 -5.822679e-02 2.781438e-02 6.100322e-02 1.326015e-01 -4.455709e-01
<VARIANCE> 39
 1.302188e+01 2.271500e+01 3.627226e+01 2.819830e+01 3.848900e+01 3.976474e+01 4.694166e+01 4.149231e+01 5.212300e+01 3.389594e+01 2.955722e+01 2.674518e+01 1.416171e+01 6.915669e-01 1.486215e+00 1.795591e+00 1.777408e+00 2.157820e+00 2.279053e+00 2.753378e+00 2.889734e+00 2.322153e+00 2.065737e+00 1.984292e+00 1.856288e+00 7.063352e-01 2.423954e-01 2.501073e-01 2.606184e-01 3.121206e-01 4.003767e-01 4.179276e-01 5.308721e-01 4.673229e-01 4.394779e-01 4.016277e-01 3.791358e-01 3.292300e-01 1.731181e-01
<GCONST> 1.093211e+02
<STATE> 3
<MEAN> 39
 4.498669e+00 -9.125663e+00 -1.209179e+00 -3.437798e+00 -3.927727e+00 -3.865741e-01 4.514049e+00 4.933022e+00 1.428158e+00 -3.633514e+00 -3.669383e+00 -1.819191e+00 1.142079e+01 1.364416e-02 2.990797e-02 -1.993708e-01 7.721769e-02 2.451269e-01 3.634621e-03 -1.890055e-02 -7.058825e-02 1.860771e-02 -8.241194e-02 -9.062644e-02 3.520897e-02 -8.527837e-02 3.352292e-02 1.685420e-01 1.370188e-02 4.314315e-02 -2.040653e-02 -1.319674e-01 -1.717983e-01 -4.719471e-02 -7.132544e-03 1.190971e-01 5.194367e-02 -1.351735e-02 -1.464689e-01
<VARIANCE> 39
 9.940640e+00 2.059274e+01 3.160785e+01 2.473207e+01 3.990039e+01 3.578822e+01 3.668128e+01 3.759693e+01 4.882673e+01 2.947980e+01 2.865082e+01 2.910760e+01 1.597294e+01 2.203857e-01 5.250283e-01 8.391716e-01 7.453595e-01 1.118433e+00 1.127307e+00 1.281684e+00 1.186422e+00 1.130365e+00 1.102035e+00 1.048919e+00 8.924016e-01 1.848470e-01 3.744212e-02 1.010886e-01 1.170837e-01 1.294470e-01 1.703694e-01 1.774459e-01 1.993998e-01 2.068692e-01 2.006894e-01 1.866071e-01 1.852037e-01 1.606469e-01 4.306943e-02
<GCONST> 8.501534e+01
<STATE> 4
<MEAN> 39
 5.194665e+00 -7.840239e+00 -2.478581e+00 -3.311709e+00 -3.115371e+00 -2.264185e+00 2.603199e+00 4.809202e+00 2.164279e+00 -2.451020e+00 -4.219854e+00 -2.466855e+00 1.021041e+01 -1.474414e-01 1.785925e+00 3.377876e-01 6.126664e-01 1.581044e-01 -7.186378e-01 -7.480055e-01 -6.522089e-01 -3.434552e-01 7.241076e-01 4.232318e-01 9.938585e-02 -1.619219e+00 -4.251599e-01 6.769136e-01 2.913943e-01 4.417047e-01 2.251341e-01 1.177372e-01 2.320684e-02 -3.603630e-01 -2.519704e-01 6.223968e-02 2.126141e-01 1.261890e-01 -7.508673e-01
<VARIANCE> 39
 1.195997e+01 2.350493e+01 3.383098e+01 2.554868e+01 4.216984e+01 4.186116e+01 4.836016e+01 4.293834e+01 4.602303e+01 3.957163e+01 3.621169e+01 3.460192e+01 2.435443e+01 1.257294e+00 2.461580e+00 2.647819e+00 2.298968e+00 3.352122e+00 3.094190e+00 3.488366e+00 3.709580e+00 3.916145e+00 3.026522e+00 3.028096e+00 2.579439e+00 1.617825e+00 4.241506e-01 3.272036e-01 3.134481e-01 4.158330e-01 5.183179e-01 5.418707e-01 6.538271e-01 6.281422e-01 6.262060e-01 5.933302e-01 5.461396e-01 4.555392e-01 3.263725e-01
<GCONST> 1.201971e+02
<TRANSP> 5
 0.000000e+00 1.000000e+00 0.000000e+00 0.000000e+00 0.000000e+00
 0.000000e+00 6.376899e-01 3.623101e-01 0.000000e+00 0.000000e+00
 0.000000e+00 0.000000e+00 8.550311e-01 1.449689e-01 0.000000e+00
 0.000000e+00 0.000000e+00 0.000000e+00 6.567933e-01 3.432067e-01
 0.000000e+00 0.000000e+00 0.000000e+00 0.000000e+00 0.000000e+00
<ENDHMM>
~h "ah"
<BEGINHMM>
<NUMSTATES> 5
<STATE> 2
<MEAN> 39
 7.950054e+00 -6.064174e+00 -4.011924e+00 -6.318259e+00 -1.827644e+00 9.988664e-01 -4.773606e+00 8.222318e-01 3.500735e+00 1.732173e+00 -1.558694e+00 -3.586027e+00 9.997794e+00 1.294273e+00 -1.950190e+00 -7.219032e-01 -1.447695e+00 -1.583471e-01 7.408794e-01 -8.174753e-01 7.889811e-01 1.191427e+00 1.108451e-01 -5.861400e-01 -9.421249e-01 1.620810e+00 -7.532931e-01 4.714793e-01 1.672131e-01 5.236982e-01 3.781206e-01 2.390246e-03 4.851299e-01 -1.632946e-01 -2.584323e-01 -1.124428e-01 7.582712e-02 2.656685e-01 -6.414773e-01
<VARIANCE> 39
 1.204520e+01 2.299428e+01 3.527447e+01 3.469734e+01 4.271216e+01 6.552393e+01 5.013206e+01 5.298616e+01 4.186730e+01 5.007729e+01 5.234552e+01 3.585597e+01 1.515934e+01 3.810236e+00 2.448261e+00 2.946812e+00 4.296431e+00 4.651403e+00 5.471038e+00 5.185143e+00 5.131780e+00 4.709175e+00 4.287544e+00 4.548537e+00 3.604458e+00 1.772564e+00 5.638593e-01 4.128592e-01 4.504083e-01 6.161804e-01 6.815442e-01 9.259907e-01 8.544069e-01 8.583987e-01 7.386590e-01 7.181945e-01 8.210595e-01 6.158792e-01 3.680009e-01
<GCONST> 1.299755e+02
<STATE> 3
<MEAN> 39
 7.888159e+00 -8.006481e+00 -5.366673e+00 -6.977345e+00 5.798995e-01 2.795346e+00 -4.024746e+00 2.013391e+00 4.900257e+00 6.417736e-01 -2.888041e+00 -4.136218e+00 1.074422e+01 -2.704141e-03 1.622704e-01 1.046130e-02 6.131111e-02 1.565973e-01 -1.542445e-01 -4.584591e-02 -6.174503e-02 2.433602e-02 -3.803916e-02 -1.110647e-01 -6.353455e-03 -1.878791e-01 -1.273094e-01 5.173898e-01 2.382705e-01 3.359717e-01 -8.768380e-02 -2.639938e-01 5.649454e-02 -2.489662e-01 -3.412049e-01 2.797871e-02 1.487617e-01 2.017201e-01 -4.927452e-01
<VARIANCE> 39
 1.066556e+01 1.802219e+01 2.493425e+01 3.222131e+01 4.025325e+01 5.656492e+01 4.862321e+01 4.615218e+01 4.113921e+01 5.109910e+01 4.168067e+01 3.862864e+01 1.484031e+01 4.081539e-01 9.713480e-01 1.376850e+00 1.592651e+00 1.877259e+00 2.733567e+00 2.147513e+00 2.357948e+00 1.973238e+00 1.976934e+00 2.097594e+00 1.889717e+00 5.296885e-01 1.445244e-01 2.519923e-01 2.118772e-01 3.312573e-01 3.612707e-01 4.042928e-01 4.849853e-01 5.020788e-01 4.615905e-01 4.126911e-01 3.917446e-01 3.961684e-01 2.002893e-01
<GCONST> 1.075891e+02
<STATE> 4
<MEAN> 39
 8.260327e+00 -5.388365e+00 -4.071464e+00 -6.047788e+00 -7.156525e-01 1.004579e-01 -5.079332e+00 5.744502e-01 3.478660e+00 1.688949e+00 -1.999647e+00 -3.473189e+00 8.584956e+00 -6.463723e-01 2.304937e+00 1.065599e+00 1.736869e+00 8.750708e-02 -8.502746e-01 3.717377e-01 -1.252143e+00 -1.388653e+00 -1.339346e-01 3.259909e-01 7.129196e-01 -2.365965e+00 -6.045274e-01 5.899809e-01 2.888976e-01 6.191174e-01 2.233681e-01 1.707075e-01 4.148006e-01 -3.434962e-01 -3.833932e-01 -1.748108e-01 7.200037e-03 1.474816e-01 -7.221865e-01
<VARIANCE> 39
 1.172824e+01 2.301695e+01 3.015843e+01 3.552020e+01 3.724666e+01 6.533917e+01 5.202111e+01 5.354810e+01 4.460815e+01 5.860670e+01 5.166833e+01 3.961295e+01 1.793611e+01 1.881752e+00 2.303507e+00 2.622829e+00 3.500606e+00 3.957159e+00 4.380681e+00 4.998834e+00 5.130095e+00 5.023313e+00 4.581695e+00 4.300454e+00 3.667005e+00 2.146945e+00 4.500416e-01 4.564863e-01 4.063597e-01 6.066706e-01 5.984722e-01 8.527928e-01 7.798889e-01 9.562970e-01 7.481242e-01 8.194950e-01 7.873033e-01 6.152617e-01 5.237566e-01
<GCONST> 1.289905e+02
<TRANSP> 5
 0.000000e+00 1.000000e+00 0.000000e+00 0.000000e+00 0.000000e+00
 0.000000e+00 4.566839e-01 5.433161e-01 0.000000e+00 0.000000e+00
 0.000000e+00 0.000000e+00 7.521672e-01 2.478328e-01 0.000000e+00
 0.000000e+00 0.000000e+00 0.000000e+00 4.727599e-01 5.272401e-01
 0.000000e+00 0.000000e+00 0.000000e+00 0.000000e+00 0.000000e+00
<ENDHMM>
~h "ao"
<BEGINHMM>
<NUMSTATES> 5
<STATE> 2
<MEAN> 39
 1.055471e+01 -1.579115e+00 -7.996545e+00 -1.198673e+01 -4.050823e+00 7.233705e+00 1.906219e+00 -1.292106e+00 -9.512708e-01 5.229008e-01 2.154234e+00 -1.426917e+00 5.627394e+00 6.683664e-01 -5.332181e-01 -6.568272e-01 -1.475871e+00 -2.296801e-03 1.334122e+00 6.171888e-01 -1.114011e-01 -1.897344e-01 -1.833823e-01 3.427316e-01 1.256740e-01 7.553045e-01 -4.623892e-01 8.957957e-02 9.682672e-02 5.507871e-01 4.004910e-01 -2.250315e-01 -2.834436e-02 6.283363e-03 7.539617e-02 -6.526370e-02 -5.442329e-02 1.565908e-01 -2.761789e-01
<VARIANCE> 39
 1.249449e+01 4.037971e+01 3.214516e+01 5.210415e+01 6.944733e+01 5.723598e+01 7.506512e+01 5.124995e+01 5.204395e+01 5.374567e+01 4.700278e+01 3.762078e+01 2.258813e+01 1.850792e+00 2.166852e+00 2.346713e+00 3.797413e+00 4.237524e+00 3.918104e+00 4.029019e+00 3.807667e+00 3.684307e+00 3.486174e+00 3.286741e+00 2.890407e+00 1.254040e+00 4.378828e-01 3.579897e-01 3.415106e-01 5.331806e-01 6.216419e-01 6.118035e-01 7.854344e-01 6.379122e-01 7.312190e-01 6.123011e-01 6.258109e-01 4.899659e-01 2.107006e-01
<GCONST> 1.257885e+02
<STATE> 3
<MEAN> 39
 1.020106e+01 -2.488463e+00 -9.616282e+00 -1.555556e+01 -1.190378e+00 1.181717e+01 4.480541e+00 -2.696559e+00 3.494110e-01 -8.656704e-01 1.858247e+00 -4.771720e-01 6.780457e+00 -1.737530e-02 -2.115848e-01 -1.656316e-01 1.390974e-01 4.313495e-01 7.978336e-03 -1.791646e-01 -1.065792e-01 5.920127e-02 8.456447e-02 1.239203e-01 -2.178174e-02 1.617335e-01 -2.604247e-02 1.545890e-02 4.370239e-02 2.541985e-01 2.270861e-02 -2.598426e-01 -2.020086e-01 2.564207e-02 3.517791e-02 1.078001e-01 -1.100829e-02 -8.512440e-02 -6.553856e-02
<VARIANCE> 39
 9.296759e+00 3.192350e+01 2.500389e+01 5.147231e+01 7.003120e+01 4.875602e+01 6.834055e+01 4.332800e+01 3.960120e+01 4.410533e+01 3.737391e+01 3.457221e+01 1.592981e+01 1.914441e-01 9.654467e-01 7.849736e-01 1.460510e+00 1.507605e+00 1.423097e+00 1.562912e+00 1.365954e+00 1.341183e+00 1.488533e+00 1.386062e+00 1.345057e+00 3.235387e-01 3.335676e-02 9.507156e-02 1.087305e-01 1.741326e-01 2.073566e-01 2.239692e-01 2.470614e-01 2.340132e-01 2.401498e-01 2.346009e-01 2.258778e-01 2.053952e-01 3.733313e-02
<GCONST> 9.333762e+01
<STATE> 4
<MEAN> 39
 1.038883e+01 -5.493749e+00 -1.104802e+01 -8.825703e+00 1.563712e+00 6.546923e+00 2.222646e-02 -1.253533e+00 4.188325e-01 1.637972e+00 2.993655e+00 -2.635624e+00 7.689728e+00 -1.828674e-01 -1.518174e-01 1.644416e-01 1.923604e+00 4.598126e-01 -1.760384e+00 -1.286392e+00 4.775992e-01 7.908482e-01 3.553036e-01 -5.810424e-01 -2.824964e-01 -2.712131e-01 -1.650799e-01 3.247673e-01 3.712697e-01 2.950165e-01 -1.866706e-01 -2.797633e-01 -3.518344e-02 6.618936e-02 8.466041e-02 -1.383743e-01 -2.686397e-01 1.926740e-01 -3.438140e-01
<VARIANCE> 39
 1.272495e+01 2.794765e+01 2.659492e+01 5.243399e+01 4.644618e+01 5.703036e+01 7.204730e+01 5.611353e+01 5.448561e+01 5.659427e+01 5.414090e+01 5.490875e+01 1.420528e+01 4.447206e-01 1.947921e+00 2.038970e+00 2.567026e+00 3.775290e+00 2.907225e+00 4.014475e+00 3.382704e+00 3.578773e+00 3.378950e+00 3.171228e+00 3.084680e+00 8.260964e-01 1.957444e-01 2.249084e-01 2.542191e-01 3.953921e-01 4.563310e-01 5.206326e-01 6.530424e-01 5.900833e-01 6.059353e-01 5.877458e-01 5.958419e-01 6.170658e-01 1.329759e-01
<GCONST> 1.188988e+02
<TRANSP> 5
 0.000000e+00 1.000000e+00 0.000000e+00 0.000000e+00 0.000000e+00
 0.000000e+00 6.438490e-01 3.561510e-01 0.000000e+00 0.000000e+00
 0.000000e+00 0.000000e+00 8.476105e-01 1.523895e-01 0.000000e+00
 0.000000e+00 0.000000e+00 0.000000e+00 6.588702e-01 3.411298e-01
 0.000000e+00 0.000000e+00 0.000000e+00 0.000000e+00 0.000000e+00
<ENDHMM>
~h "aw"
<BEGINHMM>
<NUMSTATES> 5
<STATE> 2
<MEAN> 39
 5.631989e+00 -1.030575e+01 -2.499313e+00 -3.100780e+00 -2.184692e+00 1.639312e-01 1.833984e+00 4.118459e+00 9.344795e-01 -2.947626e+00 -3.943506e+00 -2.099423e+00 1.182983e+01 3.072827e-01 -1.143736e+00 -8.180627e-01 -2.054545e-01 8.292266e-01 7.939152e-01 -1.342245e-01 3.993657e-02 4.702227e-01 -4.217825e-01 -4.492602e-01 -2.770767e-01 7.189903e-01 -2.232561e-01 4.319840e-01 8.094073e-03 1.546747e-01 2.734666e-01 1.407390e-01 -5.012695e-02 -3.751089e-01 -4.280345e-02 1.328146e-01 1.755851e-01 5.481773e-02 -4.653557e-01
<VARIANCE> 39
 1.201759e+01 2.192613e+01 3.751783e+01 3.186264e+01 4.912077e+01 4.170054e+01 4.944286e+01 5.004128e+01 4.604622e+01 3.955957e+01 2.803753e+01 2.991021e+01 1.335369e+01 9.852934e-01 1.896881e+00 1.829916e+00 2.146660e+00 2.741849e+00 2.627695e+00 3.614887e+00 3.225021e+00 2.595408e+00 2.296870e+00 2.127024e+00 2.054577e+00 1.141211e+00 3.096323e-01 2.677345e-01 2.673662e-01 3.642706e-01 4.460670e-01 4.412465e-01 5.851800e-01 5.879103e-01 5.375122e-01 4.242775e-01 3.954813e-01 3.773296e-01 1.879027e-01
<GCONST> 1.138596e+02
<STATE> 3
<MEAN> 39
 7.274629e+00 -1.077736e+01 -7.092116e+00 -4.557459e+00 3.378566e+00 4.722554e+00 2.047980e-01 -2.333897e-01 3.898050e+00 -2.398956e+00 -3.823007e+00 -3.729852e+00 1.142289e+01 2.709906e-01 3.599811e-01 -4.519367e-01 -5.522197e-01 3.723026e-01 7.225413e-01 -2.392881e-01 -6.315795e-01 5.687762e-02 3.313576e-01 4.115874e-01 -1.444010e-01 -3.058138e-01 2.588794e-02 1.943478e-01 6.462894e-02 -7.690786e-02 -2.038259e-01 -6.372815e-02 1.856102e-02 3.107365e-02 -1.172799e-01 8.146010e-02 1.251237e-01 8.213481e-02 -1.297421e-01
<VARIANCE> 39
 9.202824e+00 1.722761e+01 2.454066e+01 3.526654e+01 3.628606e+01 4.722501e+01 5.768233e+01 4.798378e+01 3.654523e+01 3.852521e+01 3.101809e+01 3.336015e+01 1.371496e+01 2.162967e-01 5.797251e-01 6.703196e-01 1.100822e+00 1.247416e+00 1.303148e+00 1.477877e+00 1.524832e+00 1.473377e+00 1.329251e+00 1.377819e+00 1.201442e+00 1.911042e-01 3.470239e-02 8.715975e-02 1.066075e-01 1.466729e-01 1.806433e-01 2.091984e-01 2.476320e-01 2.332462e-01 2.280711e-01 1.957414e-01 2.144194e-01 1.982529e-01 3.248265e-02
<GCONST> 8.834791e+01
<STATE> 4
<MEAN> 39
 9.700557e+00 -5.343772e+00 -8.945369e+00 -1.035480e+01 1.272142e+00 8.255631e+00 1.920093e-01 -2.650817e+00 1.269812e+00 5.272041e-01 9.269203e-01 -2.933522e+00 7.618617e+00 8.119106e-02 1.207660e+00 3.913713e-01 1.370019e-01 -9.051684e-01 -6.958292e-01 -1.369523e-01 1.095859e-02 -5.252302e-01 4.190755e-01 3.365418e-01 3.607067e-01 -1.089505e+00 -2.485944e-01 1.293322e-01 3.326892e-01 5.997392e-01 -2.335974e-02 -4.535208e-01 -3.552391e-02 4.647568e-03 -1.303698e-02 -4.537125e-02 -2.034926e-01 3.262600e-02 -2.523453e-01
<VARIANCE> 39
 1.044902e+01 2.789722e+01 2.352585e+01 4.627754e+01 5.306239e+01 4.828737e+01 6.494730e+01 4.285629e+01 4.338791e+01 4.534592e+01 4.491453e+01 3.714812e+01 2.287196e+01 6.242567e-01 1.710454e+00 1.695449e+00 3.564357e+00 2.831871e+00 3.288233e+00 3.236157e+00 2.930850e+00 2.913862e+00 2.761009e+00 2.830184e+00 2.679718e+00 9.078736e-01 1.642255e-01 2.853199e-01 2.798975e-01 4.114732e-01 5.401831e-01 4.146704e-01 5.620047e-01 5.294617e-01 5.173758e-01 5.301194e-01 4.965676e-01 4.641561e-01 2.145646e-01
<GCONST> 1.163885e+02
<TRANSP> 5
 0.000000e+00 1.000000e+00 0.000000e+00 0.000000e+00 0.000000e+00
 0.000000e+00 7.272797e-01 2.727204e-01 0.000000e+00 0.000000e+00
 0.000000e+00 0.000000e+00 8.537272e-01 1.462728e-01 0.000000e+00
 0.000000e+00 0.000000e+00 0.000000e+00 7.692571e-01 2.307430e-01
 0.000000e+00 0.000000e+00 0.000000e+00 0.000000e+00 0.000000e+00
<ENDHMM>
~h "ax"
<BEGINHMM>
<NUMSTATES> 5
<STATE> 2
<MEAN> 39
 7.036487e+00 -1.660330e+00 -2.452250e+00 -4.346069e+00 -7.280904e-01 -1.014547e+00 -5.847196e+00 -1.974700e+00 2.879253e+00 2.472347e+00 -1.519080e+00 -2.479118e+00 5.618787e+00 1.884608e+00 -9.521070e-01 -1.317110e-01 -1.222975e+00 -5.453671e-01 1.389017e-01 -1.515373e+00 -2.021368e-02 3.917383e-01 5.183065e-01 -1.926941e-01 -6.199362e-01 9.865109e-01 -7.014523e-01 5.337544e-01 1.312688e-01 4.974952e-01 2.663963e-01 2.444952e-01 6.471474e-01 -1.337387e-01 -4.627322e-01 -1.902061e-01 2.125583e-01 2.386084e-01 -8.520294e-01
<VARIANCE> 39
 1.622592e+01 2.605040e+01 3.211606e+01 4.119518e+01 3.475462e+01 5.250618e+01 4.469139e+01 4.814021e+01 4.022264e+01 4.704192e+01 4.350953e+01 2.885286e+01 1.735813e+01 5.572736e+00 2.985723e+00 3.403891e+00 5.434532e+00 4.614968e+00 5.684147e+00 5.304029e+00 6.074946e+00 4.887272e+00 4.052135e+00 4.732746e+00 3.359718e+00 2.551785e+00 6.303936e-01 4.388520e-01 4.837143e-01 7.403789e-01 6.265854e-01 8.375276e-01 8.592215e-01 8.555913e-01 8.323613e-01 8.148600e-01 8.055906e-01 5.818193e-01 6.016276e-01
<GCONST> 1.318690e+02
<STATE> 3
<MEAN> 39
 8.221439e+00 -3.357190e+00 -2.431692e+00 -5.685441e+00 -1.016730e+00 1.136205e-01 -7.070516e+00 -1.294745e+00 2.926485e+00 3.380399e+00 -1.403239e+00 -3.136478e+00 6.454431e+00 3.218147e-01 4.919406e-01 8.904366e-02 6.468255e-02 1.445698e-01 2.697556e-01 1.131884e-01 -5.073175e-01 -5.600041e-01 1.260730e-02 2.712407e-01 5.323714e-02 -6.791510e-01 -9.040452e-01 9.230749e-01 2.015986e-01 8.206143e-01 3.722212e-01 2.619615e-02 8.789765e-01 -2.969505e-01 -5.411010e-01 -3.831982e-01 1.393578e-01 3.194676e-01 -1.033865e+00
<VARIANCE> 39
 1.092342e+01 2.311239e+01 3.296469e+01 3.876269e+01 3.386118e+01 5.790137e+01 4.913828e+01 5.425863e+01 4.099188e+01 4.824846e+01 4.758573e+01 3.215520e+01 1.438485e+01 2.346959e+00 2.217424e+00 2.570815e+00 4.391596e+00 3.431295e+00 4.187571e+00 3.630713e+00 4.205418e+00 3.859178e+00 3.457691e+00 3.675020e+00 2.902811e+00 1.739484e+00 7.154440e-01 4.713344e-01 5.404579e-01 8.242244e-01 7.736400e-01 1.065652e+00 1.097679e+00 1.139865e+00 9.597088e-01 9.095958e-01 9.299447e-01 6.852062e-01 5.710897e-01
<GCONST> 1.293845e+02
<STATE> 4
<MEAN> 39
 7.952868e+00 -5.881037e-01 -2.454338e+00 -4.491915e+00 -3.076509e-01 2.839816e-01 -5.467569e+00 -3.539204e+00 1.107008e+00 2.677242e+00 -2.719075e-01 -2.175415e+00 3.865744e+00 -1.112363e+00 2.049859e+00 5.661941e-01 1.460136e+00 7.104893e-01 1.816341e-01 1.425629e+00 -8.333507e-01 -1.329622e+00 -7.723830e-01 2.503476e-01 5.032802e-01 -2.210223e+00 -8.625891e-01 4.508367e-01 1.920015e-01 5.648043e-01 2.419680e-01 6.130369e-02 5.760906e-01 8.002769e-02 -2.019890e-01 -2.702548e-01 -5.744832e-02 1.538190e-01 -6.008765e-01
<VARIANCE> 39
 1.406903e+01 2.357857e+01 3.310126e+01 4.445010e+01 3.573383e+01 5.842918e+01 4.837762e+01 4.970796e+01 4.372927e+01 4.712803e+01 4.615886e+01 3.215439e+01 1.677803e+01 3.580221e+00 2.415529e+00 3.005722e+00 6.080682e+00 4.101682e+00 4.889007e+00 4.883970e+00 5.262541e+00 5.314784e+00 4.514806e+00 4.378550e+00 3.562448e+00 3.457903e+00 6.364658e-01 4.924409e-01 4.839817e-01 6.918314e-01 6.682428e-01 9.336405e-01 8.543705e-01 9.704345e-01 8.011069e-01 7.898251e-01 8.262194e-01 6.006536e-01 5.355299e-01
<GCONST> 1.317355e+02
<TRANSP> 5
 0.000000e+00 1.000000e+00 0.000000e+00 0.000000e+00 0.000000e+00
 0.000000e+00 2.015436e-01 7.984564e-01 0.000000e+00 0.000000e+00
 0.000000e+00 0.000000e+00 3.038976e-01 6.961024e-01 0.000000e+00
 0.000000e+00 0.000000e+00 0.000000e+00 1.606610e-01 8.393390e-01
 0.000000e+00 0.000000e+00 0.000000e+00 0.000000e+00 0.000000e+00
<ENDHMM>
~h "ay"
<BEGINHMM>
<NUMSTATES> 5
<STATE> 2
<MEAN> 39
 8.344792e+00 -8.217061e+00 -8.181218e+00 -7.616373e+00 2.023549e+00 5.867897e+00 1.470175e-01 -1.188094e+00 3.417304e+00 6.948899e-01 -1.988238e+00 -4.664221e+00 1.023178e+01 3.929963e-01 -1.841179e+00 -3.843689e-01 -2.046674e-01 4.108584e-01 4.756851e-01 4.820851e-02 3.934754e-01 8.018603e-01 -4.294904e-01 -7.645754e-01 -5.788755e-01 1.211181e+00 -5.541422e-01 4.788702e-01 4.568273e-01 5.903609e-01 2.349292e-02 -4.137334e-01 1.029374e-01 4.361366e-02 -2.214944e-01 -1.426549e-01 6.452561e-02 3.707561e-01 -5.223369e-01
<VARIANCE> 39
 1.179930e+01 2.492858e+01 2.582644e+01 3.923262e+01 4.412265e+01 5.824943e+01 5.205023e+01 5.123470e+01 4.098186e+01 4.609133e+01 4.540271e+01 3.386449e+01 1.355087e+01 2.219284e+00 1.982511e+00 2.850835e+00 4.008957e+00 3.463775e+00 4.648857e+00 3.599032e+00 4.131789e+00 3.423010e+00 3.069430e+00 2.999212e+00 3.110408e+00 1.368646e+00 4.679472e-01 3.193942e-01 3.564817e-01 5.681995e-01 6.391852e-01 6.767690e-01 6.791924e-01 7.227395e-01 6.334988e-01 5.915033e-01 6.836976e-01 5.281830e-01 2.295771e-01
<GCONST> 1.232869e+02
<STATE> 3
<MEAN> 39
 7.635112e+00 -1.076986e+01 -7.766507e+00 -4.850154e+00 3.425770e+00 4.761119e+00 5.162594e-01 -8.132417e-02 4.797469e+00 -1.711516e+00 -3.856207e+00 -4.399639e+00 1.110865e+01 -2.160555e-01 -2.393299e-01 6.164969e-01 6.178756e-01 -4.794767e-01 -9.107987e-01 1.197162e-01 8.385993e-01 8.491681e-02 -5.040676e-01 -3.338495e-01 3.021671e-01 7.673997e-02 -2.638162e-02 2.376182e-01 1.907737e-01 -1.492997e-02 -2.924389e-01 -2.106949e-01 4.659142e-02 1.180295e-01 -1.825207e-01 1.354201e-02 1.779550e-01 1.559800e-01 -1.194408e-01
<VARIANCE> 39
 1.047720e+01 2.182414e+01 2.147409e+01 3.360749e+01 4.049698e+01 4.886301e+01 5.228346e+01 4.699292e+01 4.048521e+01 3.983801e+01 3.419574e+01 3.626421e+01 1.350174e+01 2.289322e-01 6.143691e-01 1.018469e+00 1.206229e+00 1.641298e+00 2.095259e+00 1.685691e+00 2.218354e+00 1.474015e+00 1.360863e+00 1.379076e+00 1.369546e+00 1.873492e-01 3.982078e-02 1.229679e-01 1.249569e-01 1.638892e-01 2.201012e-01 2.233389e-01 2.637791e-01 2.710020e-01 2.841807e-01 2.316399e-01 2.745592e-01 2.566983e-01 4.668641e-02
<GCONST> 9.335911e+01
<STATE> 4
<MEAN> 39
 5.492025e+00 -8.889669e+00 1.690615e-01 -3.131838e+00 -4.840668e+00 -3.205476e+00 2.489406e+00 6.234396e+00 1.571519e+00 -2.726614e+00 -2.877991e+00 -9.959111e-01 1.034825e+01 -3.114929e-01 1.190537e+00 1.582298e+00 1.787445e-01 -1.583501e+00 -1.235628e+00 1.065335e-01 3.800666e-02 -1.000223e+00 4.453908e-01 9.086155e-01 5.005987e-01 -7.046147e-01 -1.354423e-02 3.943463e-01 -8.749650e-02 9.472430e-02 3.102622e-01 2.572736e-01 -2.031367e-01 -6.048108e-01 -1.189020e-01 2.327664e-01 9.785844e-02 -1.232729e-01 -4.011348e-01
<VARIANCE> 39
 1.099901e+01 2.452196e+01 3.412091e+01 2.722057e+01 4.523616e+01 4.088220e+01 4.686677e+01 3.853347e+01 4.889364e+01 3.719624e+01 3.155403e+01 2.826951e+01 1.711839e+01 4.807025e-01 1.187746e+00 2.044988e+00 2.236772e+00 3.107985e+00 2.710500e+00 3.703027e+00 3.758727e+00 3.159464e+00 3.002812e+00 2.489934e+00 2.883838e+00 5.430146e-01 1.088927e-01 2.411706e-01 2.512358e-01 3.602937e-01 4.637854e-01 3.801862e-01 5.260971e-01 5.148071e-01 5.620553e-01 5.010439e-01 4.808505e-01 3.992251e-01 1.725833e-01
<GCONST> 1.118464e+02
<TRANSP> 5
 0.000000e+00 1.000000e+00 0.000000e+00 0.000000e+00 0.000000e+00
 0.000000e+00 5.752792e-01 4.247208e-01 0.000000e+00 0.000000e+00
 0.000000e+00 0.000000e+00 8.289971e-01 1.710029e-01 0.000000e+00
 0.000000e+00 0.000000e+00 0.000000e+00 7.609013e-01 2.390987e-01
 0.000000e+00 0.000000e+00 0.000000e+00 0.000000e+00 0.000000e+00
<ENDHMM>
~h "ch"
<BEGINHMM>
<NUMSTATES> 5
<STATE> 2
<MEAN> 39
 -1.622123e+01 -4.931643e-01 4.683799e+00 -2.711546e+00 3.601600e+00 6.582043e+00 1.456362e+00 9.460468e-01 3.447780e+00 4.708977e-01 2.598513e+00 2.024206e+00 1.152241e+00 -2.370970e+00 3.563243e-01 1.025325e+00 -9.040120e-01 -7.313030e-01 2.057165e-01 6.262417e-01 2.098284e-01 4.006503e-01 8.700666e-02 3.266578e-01 2.253765e-01 3.643778e+00 6.257879e-01 4.305099e-01 1.838200e-01 7.577611e-01 -2.533708e-01 -4.925270e-01 1.182209e-01 -1.029216e-01 -3.004254e-01 -9.560482e-02 -2.389266e-01 -1.304737e-01 -5.680377e-01
<VARIANCE> 39
 3.377752e+01 4.411348e+01 3.696290e+01 2.912285e+01 4.023143e+01 2.706128e+01 2.933062e+01 3.013193e+01 2.219725e+01 2.012988e+01 2.089846e+01 1.356291e+01 2.960232e+01 3.240303e+00 3.823814e+00 3.010665e+00 4.059318e+00 2.710906e+00 2.528012e+00 2.392293e+00 2.348962e+00 2.082626e+00 1.945674e+00 1.717129e+00 1.496227e+00 4.955733e+00 8.135945e-01 8.878649e-01 7.125342e-01 6.340176e-01 5.641448e-01 5.681186e-01 5.234507e-01 5.339997e-01 4.528742e-01 4.319639e-01 3.549154e-01 3.072372e-01 9.971351e-01
<GCONST> 1.201108e+02
<STATE> 3
<MEAN> 39
 -1.890446e+01 6.993834e-01 7.685189e+00 -1.009597e+00 -9.549971e-02 4.734336e+00 4.781085e+00 7.520459e-01 3.007076e+00 6.597804e-01 2.184715e+00 2.114634e+00 6.803536e+00 1.211329e+00 -4.263940e-01 -9.312757e-02 6.157188e-01 -8.797708e-01 -1.095663e+00 2.260240e-01 -3.632346e-02 -3.560029e-01 -9.097946e-02 -2.693427e-01 -1.263214e-01 1.674441e-01 1.056118e+00 -1.460273e-01 -2.556189e-01 1.400678e-01 7.757785e-02 -2.987231e-01 -4.014404e-01 -2.430405e-02 -1.551404e-01 -1.543471e-01 -1.309005e-01 -8.870704e-02 -6.944687e-01
<VARIANCE> 39
 1.486392e+01 2.422586e+01 2.449770e+01 2.233946e+01 4.248506e+01 2.580620e+01 2.740645e+01 2.683985e+01 2.088903e+01 2.230993e+01 2.322169e+01 1.727911e+01 1.140057e+01 2.817713e+00 1.304125e+00 1.965662e+00 1.887912e+00 2.256547e+00 2.257129e+00 1.937528e+00 2.071888e+00 1.641296e+00 1.671271e+00 1.579799e+00 1.279450e+00 1.796087e+00 5.420708e-01 3.058219e-01 4.597152e-01 3.520733e-01 4.708454e-01 4.706524e-01 4.735613e-01 4.129768e-01 3.805349e-01 3.774056e-01 3.465626e-01 2.938001e-01 3.553834e-01
<GCONST> 1.079538e+02
<STATE> 4
<MEAN> 39
 -7.006328e+00 -1.458845e+00 5.861068e+00 2.314600e+00 -2.968543e+00 -1.687239e+00 2.463044e+00 5.425479e-01 7.428573e-01 -1.190735e+00 7.776206e-02 7.556195e-01 4.397867e+00 5.108528e+00 -6.728034e-01 -6.449717e-01 1.026488e-01 -6.732769e-01 -1.950798e+00 -2.197704e+00 1.439973e-01 -8.609946e-01 -8.320475e-01 -5.481108e-01 -4.223020e-01 -4.161294e-01 1.039062e-01 -1.819078e-01 -2.213250e-01 -5.064593e-01 1.191305e-01 3.523229e-01 -4.401667e-01 1.373987e-01 1.076418e-01 1.356745e-01 1.779592e-01 1.741208e-02 1.838717e-01
<VARIANCE> 39
 7.796874e+01 2.400171e+01 3.206906e+01 3.134644e+01 4.206502e+01 4.245967e+01 4.198944e+01 3.177004e+01 3.299964e+01 2.638250e+01 2.568101e+01 1.931162e+01 1.571631e+01 4.023354e+00 2.945769e+00 4.283597e+00 4.054536e+00 5.828584e+00 5.776345e+00 6.769504e+00 4.963205e+00 4.732467e+00 3.648978e+00 3.770249e+00 2.664413e+00 2.933028e+00 1.156905e+00 4.126430e-01 4.887827e-01 5.244722e-01 7.437796e-01 8.028371e-01 9.897295e-01 7.507309e-01 7.088822e-01 6.432141e-01 5.490040e-01 4.206357e-01 6.234778e-01
<GCONST> 1.294922e+02
<TRANSP> 5
 0.000000e+00 1.000000e+00 0.000000e+00 0.000000e+00 0.000000e+00
 0.000000e+00 6.720561e-01 3.279440e-01 0.000000e+00 0.000000e+00
 0.000000e+00 0.000000e+00 7.407617e-01 2.592383e-01 0.000000e+00
 0.000000e+00 0.000000e+00 0.000000e+00 5.811483e-01 4.188516e-01
 0.000000e+00 0.000000e+00 0.000000e+00 0.000000e+00 0.000000e+00
<ENDHMM>
~h "dh"
<BEGINHMM>
<NUMSTATES> 5
<STATE> 2
<MEAN> 39
 -5.170103e+00 6.872733e+00 9.966622e-02 6.558609e+00 4.701303e+00 1.906030e+00 1.032098e+00 -2.749207e+00 7.782646e-01 7.585942e-01 -3.839998e-01 -3.195213e-01 -1.209236e+01 -1.370487e-01 2.001705e-02 -6.706972e-02 -8.932475e-02 -8.138959e-02 -1.759105e-01 3.537649e-02 9.542736e-02 1.488383e-01 -2.136615e-01 -8.283177e-02 2.187490e-02 1.024244e+00 4.254048e-01 -4.881347e-01 -8.887056e-02 -4.620629e-01 -5.145506e-01 -4.329526e-01 -1.410481e-01 2.198116e-01 1.802289e-01 2.126666e-02 2.247160e-02 9.013169e-02 1.156133e+00
<VARIANCE> 39
 5.683448e+01 2.314084e+01 2.952486e+01 3.308576e+01 2.935081e+01 3.989583e+01 4.390408e+01 4.336739e+01 3.519933e+01 2.794399e+01 3.199202e+01 2.757678e+01 7.149356e+01 3.393876e+00 2.897803e+00 3.120651e+00 3.675002e+00 2.903923e+00 3.254481e+00 3.217142e+00 3.333619e+00 2.985675e+00 2.357739e+00 2.368738e+00 2.226747e+00 9.289131e+00 7.122394e-01 5.734960e-01 6.652267e-01 7.744055e-01 6.308700e-01 6.834516e-01 7.168984e-01 7.363642e-01 6.458288e-01 5.383947e-01 5.055438e-01 5.006211e-01 1.119972e+00
<GCONST> 1.281354e+02
<STATE> 3
<MEAN> 39
 -5.729645e+00 4.340581e+00 -1.995283e+00 4.286539e+00 3.013308e+00 5.458558e-01 2.545481e+00 -1.249465e+00 2.322654e+00 2.854278e-01 2.384522e-01 9.239880e-01 -4.761440e+00 2.156008e+00 -9.893351e-01 -1.835348e-01 -1.509043e+00 -1.892583e+00 -1.930985e+00 -1.105792e+00 2.439719e-01 5.255684e-01 -1.784581e-01 -3.218541e-01 -9.617895e-02 4.525050e+00 7.713028e-01 -3.460164e-01 3.826620e-01 -3.509965e-01 -5.309635e-01 -3.557054e-01 -5.010150e-01 7.963447e-02 -5.326551e-02 1.610937e-01 -1.238679e-01 -1.578025e-01 3.142795e-01
<VARIANCE> 39
 3.772535e+01 3.031223e+01 2.792195e+01 3.068686e+01 2.670919e+01 3.574341e+01 4.047640e+01 3.438416e+01 2.833272e+01 2.537198e+01 3.123882e+01 2.340276e+01 5.470068e+01 4.314389e+00 2.735496e+00 3.461348e+00 3.118350e+00 3.368932e+00 3.683820e+00 4.247492e+00 4.258169e+00 4.111613e+00 3.306337e+00 3.133568e+00 3.208507e+00 5.533939e+00 5.395356e-01 7.423507e-01 7.209430e-01 7.227165e-01 5.928693e-01 7.564348e-01 8.308778e-01 7.221096e-01 7.172728e-01 6.035740e-01 6.818144e-01 5.435143e-01 9.877366e-01
<GCONST> 1.289137e+02
<STATE> 4
<MEAN> 39
 2.025582e+00 2.155603e+00 -9.976810e-01 9.338703e-01 -2.537738e+00 -5.131224e+00 -1.993884e+00 -1.065302e+00 3.414639e+00 5.545732e-01 -1.302192e+00 -6.137903e-01 4.212084e+00 2.422720e+00 -1.822758e+00 6.235490e-01 -1.719993e+00 -2.088033e+00 -1.626612e+00 -1.346739e+00 7.200673e-01 3.292896e-01 1.594627e-01 -4.277554e-01 -3.405362e-01 3.341510e+00 -3.670128e-01 -9.206571e-02 2.404083e-01 1.641675e-01 3.275900e-01 5.465233e-01 2.450979e-01 1.098666e-01 -2.655007e-01 2.438983e-02 6.449873e-02 5.243174e-02 -9.275731e-01
<VARIANCE> 39
 2.398376e+01 2.494232e+01 2.466951e+01 2.612768e+01 3.156260e+01 3.087947e+01 4.020325e+01 3.307381e+01 2.762194e+01 2.970206e+01 2.436792e+01 2.677164e+01 2.365972e+01 3.481934e+00 3.409226e+00 4.082599e+00 4.196669e+00 4.258837e+00 5.195426e+00 6.243593e+00 5.117321e+00 5.161540e+00 3.928470e+00 4.328711e+00 3.693887e+00 4.258123e+00 6.251309e-01 4.501946e-01 4.755869e-01 5.497347e-01 5.963280e-01 5.654197e-01 7.037320e-01 5.890103e-01 5.730286e-01 5.471265e-01 5.341616e-01 4.960988e-01 5.997444e-01
<GCONST> 1.264986e+02
<TRANSP> 5
 0.000000e+00 1.000000e+00 0.000000e+00 0.000000e+00 0.000000e+00
 0.000000e+00 5.455893e-01 4.544106e-01 0.000000e+00 0.000000e+00
 0.000000e+00 0.000000e+00 3.819253e-01 6.180748e-01 0.000000e+00
 0.000000e+00 0.000000e+00 0.000000e+00 4.383582e-01 5.616418e-01
 0.000000e+00 0.000000e+00 0.000000e+00 0.000000e+00 0.000000e+00
<ENDHMM>
~h "dx"
<BEGINHMM>
<NUMSTATES> 5
<STATE> 2
<MEAN> 39
 7.410898e+00 -4.912897e+00 1.308548e-01 1.627927e+00 -7.145972e+00 -2.218851e+00 -4.011235e+00 -1.180468e+00 3.360399e+00 3.275307e-01 -5.267442e-01 -1.833783e+00 4.976910e+00 -4.752350e-01 1.068113e+00 8.684022e-01 2.354167e+00 6.649986e-01 -7.315648e-01 -2.505603e-01 -1.006292e+00 3.140428e-02 -3.503070e-01 -5.150574e-01 5.712399e-01 -2.337569e+00 -9.659508e-02 -3.787431e-02 -1.058567e-02 -5.378780e-01 2.762366e-01 6.959309e-02 5.749436e-02 2.283803e-01 -3.012446e-01 5.836271e-02 1.194959e-01 1.101538e-01 3.289127e-01
<VARIANCE> 39
 1.797073e+01 2.916877e+01 1.001996e+02 4.647115e+01 4.768081e+01 4.784090e+01 5.460419e+01 5.370296e+01 6.684971e+01 5.192318e+01 3.631115e+01 3.364457e+01 2.284154e+01 1.937618e+00 2.572833e+00 4.544143e+00 5.266672e+00 7.482074e+00 6.460608e+00 7.778489e+00 6.033911e+00 5.787009e+00 4.995606e+00 5.292802e+00 3.852481e+00 2.240173e+00 1.807379e-01 2.786429e-01 3.780670e-01 6.135134e-01 7.500631e-01 6.216788e-01 7.850736e-01 7.702248e-01 7.330443e-01 6.919588e-01 6.493550e-01 4.992446e-01 4.036816e-01
<GCONST> 1.317562e+02
<STATE> 3
<MEAN> 39
 4.912445e+00 -4.721577e-01 2.740742e+00 6.241391e+00 -2.591785e+00 -3.308041e+00 -3.294806e+00 -3.662343e+00 1.076346e+00 -9.541398e-01 -2.197963e+00 -1.170376e+00 -1.408188e+00 -6.678866e-01 5.228721e-01 5.983971e-01 3.589939e-01 6.696079e-01 -3.903846e-01 -1.083350e-01 -1.189081e-01 -2.139176e-01 -1.660895e-01 -8.781458e-02 5.830258e-01 -5.569721e-01 2.780111e-01 -6.026016e-01 -1.535627e-01 -1.169877e+00 -5.520188e-01 8.901040e-02 -2.558780e-01 6.833820e-01 -6.520310e-02 1.977602e-01 3.909200e-01 1.516051e-02 1.251477e+00
<VARIANCE> 39
 2.317663e+01 3.961398e+01 7.281588e+01 4.602507e+01 5.585449e+01 3.843098e+01 4.392726e+01 4.653265e+01 5.505683e+01 4.626896e+01 3.224512e+01 2.546596e+01 3.873040e+01 1.815904e+00 1.920735e+00 3.619091e+00 4.092022e+00 4.411942e+00 4.557307e+00 5.654769e+00 4.108555e+00 4.207025e+00 3.269392e+00 3.512635e+00 2.908321e+00 1.957115e+00 3.625822e-01 5.594149e-01 7.555561e-01 9.213523e-01 1.400544e+00 1.090409e+00 1.386631e+00 1.252529e+00 1.137704e+00 1.093702e+00 1.098448e+00 6.736936e-01 6.696550e-01
<GCONST> 1.343635e+02
<STATE> 4
<MEAN> 39
 3.830624e+00 -2.508283e+00 3.718038e+00 2.522468e+00 -4.387808e+00 -3.762797e+00 -4.195768e+00 -1.473002e+00 1.393826e+00 -9.734219e-01 -6.064606e-01 4.547301e-01 3.111669e+00 4.959897e-01 -8.669249e-01 2.009873e-01 -1.315069e+00 -9.751620e-01 -3.909171e-01 -9.048054e-01 1.175369e+00 -1.365173e-01 2.728432e-01 5.644532e-01 3.964052e-01 1.621071e+00 4.631401e-01 -2.995958e-01 -2.830748e-01 -5.062910e-01 -4.007381e-01 9.436697e-02 -1.312639e-01 3.581569e-01 -9.925990e-02 1.740078e-01 1.488838e-01 -1.970865e-01 5.028943e-01
<VARIANCE> 39
 3.419414e+01 3.332080e+01 7.620261e+01 4.020230e+01 5.271335e+01 4.016911e+01 4.407542e+01 4.422746e+01 5.226509e+01 3.992179e+01 2.885963e+01 2.344567e+01 2.175221e+01 1.843742e+00 2.223664e+00 3.620627e+00 4.097438e+00 4.478819e+00 3.866915e+00 5.066901e+00 4.829836e+00 4.571924e+00 3.882453e+00 3.766795e+00 2.601603e+00 2.729542e+00 4.821535e-01 4.627449e-01 7.711163e-01 8.373793e-01 1.391442e+00 1.014766e+00 1.134761e+00 9.480269e-01 9.160374e-01 8.055210e-01 8.277361e-01 6.126662e-01 4.210513e-01
<GCONST> 1.321689e+02
<TRANSP> 5
 0.000000e+00 1.000000e+00 0.000000e+00 0.000000e+00 0.000000e+00
 0.000000e+00 2.136540e-01 7.863460e-01 0.000000e+00 0.000000e+00
 0.000000e+00 0.000000e+00 1.840257e-01 8.159742e-01 0.000000e+00
 0.000000e+00 0.000000e+00 0.000000e+00 2.675418e-01 7.324582e-01
 0.000000e+00 0.000000e+00 0.000000e+00 0.000000e+00 0.000000e+00
<ENDHMM>
~h "eh"
<BEGINHMM>
<NUMSTATES> 5
<STATE> 2
<MEAN> 39
 5.799745e+00 -5.987112e+00 2.805482e+00 -3.268812e+00 -7.382372e+00 -5.559236e+00 -2.224867e+00 4.205231e+00 1.183402e+00 -2.181639e-01 -1.105098e+00 -7.957678e-01 1.011341e+01 1.238562e+00 -2.120656e+00 -2.442998e-01 -9.380320e-01 -1.061615e+00 -4.399124e-01 -5.041202e-01 1.712533e+00 5.646724e-01 -2.640428e-01 -1.056288e-01 -1.755249e-01 1.696307e+00 -6.804032e-01 4.227710e-01 -2.307687e-01 2.655987e-01 6.371760e-01 4.660789e-01 4.100255e-01 -2.200369e-01 -2.445434e-02 3.432958e-02 7.649423e-02 9.080081e-02 -5.833614e-01
<VARIANCE> 39
 1.278922e+01 2.385691e+01 3.976069e+01 3.299599e+01 3.651263e+01 3.938716e+01 5.498057e+01 4.461845e+01 5.159365e+01 3.795507e+01 3.586313e+01 3.068152e+01 1.329720e+01 3.515625e+00 2.363093e+00 2.969623e+00 3.231645e+00 3.835710e+00 4.374275e+00 6.304424e+00 4.547951e+00 4.312585e+00 3.575141e+00 3.319530e+00 2.666306e+00 1.670524e+00 5.015437e-01 4.174213e-01 4.004824e-01 5.234869e-01 5.755767e-01 6.316184e-01 7.740626e-01 7.560509e-01 7.876687e-01 5.924154e-01 6.054713e-01 4.687823e-01 3.399963e-01
<GCONST> 1.250339e+02
<STATE> 3
<MEAN> 39
