~o
<STREAMINFO> 1 39
<VECSIZE> 39<NULLD><MFCC_D_A_Z_0><DIAGC>
~h "!ENTER"
<BEGINHMM>
<NUMSTATES> 5
<STATE> 2
<MEAN> 39
 2.192336e-07 -2.630119e-07 1.289736e-07 2.348907e-07 -2.089070e-07 7.988559e-08 1.048760e-07 1.180897e-07 -1.038646e-07 -2.856375e-08 2.746552e-07 -8.837457e-08 3.182411e-07 3.500773e-03 3.751628e-03 -3.257372e-04 8.666156e-04 4.723849e-03 -5.871324e-04 2.243232e-04 -5.077833e-03 -4.136956e-03 -6.560450e-04 -4.315032e-03 -2.692462e-03 3.635468e-03 -9.594065e-05 -2.103182e-04 1.351101e-04 -1.660745e-05 -3.384858e-04 -2.177446e-04 -1.438297e-04 1.636923e-04 2.628955e-04 5.659813e-06 2.228582e-04 2.034429e-04 -1.621444e-05
<VARIANCE> 39
 9.634293e+01 5.412502e+01 7.125948e+01 7.240816e+01 7.061290e+01 6.556955e+01 6.711686e+01 5.772457e+01 5.529247e+01 4.097031e+01 3.866037e+01 3.128725e+01 1.108260e+02 4.562119e+00 3.524040e+00 3.336660e+00 4.190866e+00 4.308098e+00 4.198834e+00 4.401053e+00 4.303353e+00 3.944832e+00 3.243082e+00 2.985256e+00 2.440741e+00 5.602357e+00 6.297894e-01 5.834262e-01 5.081020e-01 6.770256e-01 7.052158e-01 7.098505e-01 7.490681e-01 7.594846e-01 6.945500e-01 5.957192e-01 5.417727e-01 4.464096e-01 8.994175e-01
<GCONST> 1.367967e+02
<STATE> 3
<MEAN> 39
 2.192336e-07 -2.630119e-07 1.289736e-07 2.348907e-07 -2.089070e-07 7.988559e-08 1.048760e-07 1.180897e-07 -1.038646e-07 -2.856375e-08 2.746552e-07 -8.837457e-08 3.182411e-07 3.500773e-03 3.751628e-03 -3.257372e-04 8.666156e-04 4.723849e-03 -5.871324e-04 2.243232e-04 -5.077833e-03 -4.136956e-03 -6.560450e-04 -4.315032e-03 -2.692462e-03 3.635468e-03 -9.594065e-05 -2.103182e-04 1.351101e-04 -1.660745e-05 -3.384858e-04 -2.177446e-04 -1.438297e-04 1.636923e-04 2.628955e-04 5.659813e-06 2.228582e-04 2.034429e-04 -1.621444e-05
<VARIANCE> 39
 9.634293e+01 5.412502e+01 7.125948e+01 7.240816e+01 7.061290e+01 6.556955e+01 6.711686e+01 5.772457e+01 5.529247e+01 4.097031e+01 3.866037e+01 3.128725e+01 1.108260e+02 4.562119e+00 3.524040e+00 3.336660e+00 4.190866e+00 4.308098e+00 4.198834e+00 4.401053e+00 4.303353e+00 3.944832e+00 3.243082e+00 2.985256e+00 2.440741e+00 5.602357e+00 6.297894e-01 5.834262e-01 5.081020e-01 6.770256e-01 7.052158e-01 7.098505e-01 7.490681e-01 7.594846e-01 6.945500e-01 5.957192e-01 5.417727e-01 4.464096e-01 8.994175e-01
<GCONST> 1.367967e+02
<STATE> 4
<MEAN> 39
 2.192336e-07 -2.630119e-07 1.289736e-07 2.348907e-07 -2.089070e-07 7.988559e-08 1.048760e-07 1.180897e-07 -1.038646e-07 -2.856375e-08 2.746552e-07 -8.837457e-08 3.182411e-07 3.500773e-03 3.751628e-03 -3.257372e-04 8.666156e-04 4.723849e-03 -5.871324e-04 2.243232e-04 -5.077833e-03 -4.136956e-03 -6.560450e-04 -4.315032e-03 -2.692462e-03 3.635468e-03 -9.594065e-05 -2.103182e-04 1.351101e-04 -1.660745e-05 -3.384858e-04 -2.177446e-04 -1.438297e-04 1.636923e-04 2.628955e-04 5.659813e-06 2.228582e-04 2.034429e-04 -1.621444e-05
<VARIANCE> 39
 9.634293e+01 5.412502e+01 7.125948e+01 7.240816e+01 7.061290e+01 6.556955e+01 6.711686e+01 5.772457e+01 5.529247e+01 4.097031e+01 3.866037e+01 3.128725e+01 1.108260e+02 4.562119e+00 3.524040e+00 3.336660e+00 4.190866e+00 4.308098e+00 4.198834e+00 4.401053e+00 4.303353e+00 3.944832e+00 3.243082e+00 2.985256e+00 2.440741e+00 5.602357e+00 6.297894e-01 5.834262e-01 5.081020e-01 6.770256e-01 7.052158e-01 7.098505e-01 7.490681e-01 7.594846e-01 6.945500e-01 5.957192e-01 5.417727e-01 4.464096e-01 8.994175e-01
<GCONST> 1.367967e+02
<TRANSP> 5
 0.000000e+00 1.000000e+00 0.000000e+00 0.000000e+00 0.000000e+00
 0.000000e+00 6.000000e-01 4.000000e-01 0.000000e+00 0.000000e+00
 0.000000e+00 0.000000e+00 6.000000e-01 4.000000e-01 0.000000e+00
 0.000000e+00 0.000000e+00 0.000000e+00 7.000000e-01 3.000000e-01
 0.000000e+00 0.000000e+00 0.000000e+00 0.000000e+00 0.000000e+00
<ENDHMM>
~h "dh"
<BEGINHMM>
<NUMSTATES> 5
<STATE> 2
<MEAN> 39
 2.192336e-07 -2.630119e-07 1.289736e-07 2.348907e-07 -2.089070e-07 7.988559e-08 1.048760e-07 1.180897e-07 -1.038646e-07 -2.856375e-08 2.746552e-07 -8.837457e-08 3.182411e-07 3.500773e-03 3.751628e-03 -3.257372e-04 8.666156e-04 4.723849e-03 -5.871324e-04 2.243232e-04 -5.077833e-03 -4.136956e-03 -6.560450e-04 -4.315032e-03 -2.692462e-03 3.635468e-03 -9.594065e-05 -2.103182e-04 1.351101e-04 -1.660745e-05 -3.384858e-04 -2.177446e-04 -1.438297e-04 1.636923e-04 2.628955e-04 5.659813e-06 2.228582e-04 2.034429e-04 -1.621444e-05
<VARIANCE> 39
 9.634293e+01 5.412502e+01 7.125948e+01 7.240816e+01 7.061290e+01 6.556955e+01 6.711686e+01 5.772457e+01 5.529247e+01 4.097031e+01 3.866037e+01 3.128725e+01 1.108260e+02 4.562119e+00 3.524040e+00 3.336660e+00 4.190866e+00 4.308098e+00 4.198834e+00 4.401053e+00 4.303353e+00 3.944832e+00 3.243082e+00 2.985256e+00 2.440741e+00 5.602357e+00 6.297894e-01 5.834262e-01 5.081020e-01 6.770256e-01 7.052158e-01 7.098505e-01 7.490681e-01 7.594846e-01 6.945500e-01 5.957192e-01 5.417727e-01 4.464096e-01 8.994175e-01
<GCONST> 1.367967e+02
<STATE> 3
<MEAN> 39
 2.192336e-07 -2.630119e-07 1.289736e-07 2.348907e-07 -2.089070e-07 7.988559e-08 1.048760e-07 1.180897e-07 -1.038646e-07 -2.856375e-08 2.746552e-07 -8.837457e-08 3.182411e-07 3.500773e-03 3.751628e-03 -3.257372e-04 8.666156e-04 4.723849e-03 -5.871324e-04 2.243232e-04 -5.077833e-03 -4.136956e-03 -6.560450e-04 -4.315032e-03 -2.692462e-03 3.635468e-03 -9.594065e-05 -2.103182e-04 1.351101e-04 -1.660745e-05 -3.384858e-04 -2.177446e-04 -1.438297e-04 1.636923e-04 2.628955e-04 5.659813e-06 2.228582e-04 2.034429e-04 -1.621444e-05
<VARIANCE> 39
 9.634293e+01 5.412502e+01 7.125948e+01 7.240816e+01 7.061290e+01 6.556955e+01 6.711686e+01 5.772457e+01 5.529247e+01 4.097031e+01 3.866037e+01 3.128725e+01 1.108260e+02 4.562119e+00 3.524040e+00 3.336660e+00 4.190866e+00 4.308098e+00 4.198834e+00 4.401053e+00 4.303353e+00 3.944832e+00 3.243082e+00 2.985256e+00 2.440741e+00 5.602357e+00 6.297894e-01 5.834262e-01 5.081020e-01 6.770256e-01 7.052158e-01 7.098505e-01 7.490681e-01 7.594846e-01 6.945500e-01 5.957192e-01 5.417727e-01 4.464096e-01 8.994175e-01
<GCONST> 1.367967e+02
<STATE> 4
<MEAN> 39
 2.192336e-07 -2.630119e-07 1.289736e-07 2.348907e-07 -2.089070e-07 7.988559e-08 1.048760e-07 1.180897e-07 -1.038646e-07 -2.856375e-08 2.746552e-07 -8.837457e-08 3.182411e-07 3.500773e-03 3.751628e-03 -3.257372e-04 8.666156e-04 4.723849e-03 -5.871324e-04 2.243232e-04 -5.077833e-03 -4.136956e-03 -6.560450e-04 -4.315032e-03 -2.692462e-03 3.635468e-03 -9.594065e-05 -2.103182e-04 1.351101e-04 -1.660745e-05 -3.384858e-04 -2.177446e-04 -1.438297e-04 1.636923e-04 2.628955e-04 5.659813e-06 2.228582e-04 2.034429e-04 -1.621444e-05
<VARIANCE> 39
 9.634293e+01 5.412502e+01 7.125948e+01 7.240816e+01 7.061290e+01 6.556955e+01 6.711686e+01 5.772457e+01 5.529247e+01 4.097031e+01 3.866037e+01 3.128725e+01 1.108260e+02 4.562119e+00 3.524040e+00 3.336660e+00 4.190866e+00 4.308098e+00 4.198834e+00 4.401053e+00 4.303353e+00 3.944832e+00 3.243082e+00 2.985256e+00 2.440741e+00 5.602357e+00 6.297894e-01 5.834262e-01 5.081020e-01 6.770256e-01 7.052158e-01 7.098505e-01 7.490681e-01 7.594846e-01 6.945500e-01 5.957192e-01 5.417727e-01 4.464096e-01 8.994175e-01
<GCONST> 1.367967e+02
<TRANSP> 5
 0.000000e+00 1.000000e+00 0.000000e+00 0.000000e+00 0.000000e+00
 0.000000e+00 6.000000e-01 4.000000e-01 0.000000e+00 0.000000e+00
 0.000000e+00 0.000000e+00 6.000000e-01 4.000000e-01 0.000000e+00
 0.000000e+00 0.000000e+00 0.000000e+00 7.000000e-01 3.000000e-01
 0.000000e+00 0.000000e+00 0.000000e+00 0.000000e+00 0.000000e+00
<ENDHMM>
~h "ih"
<BEGINHMM>
<NUMSTATES> 5
<STATE> 2
<MEAN> 39
 2.192336e-07 -2.630119e-07 1.289736e-07 2.348907e-07 -2.089070e-07 7.988559e-08 1.048760e-07 1.180897e-07 -1.038646e-07 -2.856375e-08 2.746552e-07 -8.837457e-08 3.182411e-07 3.500773e-03 3.751628e-03 -3.257372e-04 8.666156e-04 4.723849e-03 -5.871324e-04 2.243232e-04 -5.077833e-03 -4.136956e-03 -6.560450e-04 -4.315032e-03 -2.692462e-03 3.635468e-03 -9.594065e-05 -2.103182e-04 1.351101e-04 -1.660745e-05 -3.384858e-04 -2.177446e-04 -1.438297e-04 1.636923e-04 2.628955e-04 5.659813e-06 2.228582e-04 2.034429e-04 -1.621444e-05
<VARIANCE> 39
 9.634293e+01 5.412502e+01 7.125948e+01 7.240816e+01 7.061290e+01 6.556955e+01 6.711686e+01 5.772457e+01 5.529247e+01 4.097031e+01 3.866037e+01 3.128725e+01 1.108260e+02 4.562119e+00 3.524040e+00 3.336660e+00 4.190866e+00 4.308098e+00 4.198834e+00 4.401053e+00 4.303353e+00 3.944832e+00 3.243082e+00 2.985256e+00 2.440741e+00 5.602357e+00 6.297894e-01 5.834262e-01 5.081020e-01 6.770256e-01 7.052158e-01 7.098505e-01 7.490681e-01 7.594846e-01 6.945500e-01 5.957192e-01 5.417727e-01 4.464096e-01 8.994175e-01
<GCONST> 1.367967e+02
<STATE> 3
<MEAN> 39
 2.192336e-07 -2.630119e-07 1.289736e-07 2.348907e-07 -2.089070e-07 7.988559e-08 1.048760e-07 1.180897e-07 -1.038646e-07 -2.856375e-08 2.746552e-07 -8.837457e-08 3.182411e-07 3.500773e-03 3.751628e-03 -3.257372e-04 8.666156e-04 4.723849e-03 -5.871324e-04 2.243232e-04 -5.077833e-03 -4.136956e-03 -6.560450e-04 -4.315032e-03 -2.692462e-03 3.635468e-03 -9.594065e-05 -2.103182e-04 1.351101e-04 -1.660745e-05 -3.384858e-04 -2.177446e-04 -1.438297e-04 1.636923e-04 2.628955e-04 5.659813e-06 2.228582e-04 2.034429e-04 -1.621444e-05
<VARIANCE> 39
 9.634293e+01 5.412502e+01 7.125948e+01 7.240816e+01 7.061290e+01 6.556955e+01 6.711686e+01 5.772457e+01 5.529247e+01 4.097031e+01 3.866037e+01 3.128725e+01 1.108260e+02 4.562119e+00 3.524040e+00 3.336660e+00 4.190866e+00 4.308098e+00 4.198834e+00 4.401053e+00 4.303353e+00 3.944832e+00 3.243082e+00 2.985256e+00 2.440741e+00 5.602357e+00 6.297894e-01 5.834262e-01 5.081020e-01 6.770256e-01 7.052158e-01 7.098505e-01 7.490681e-01 7.594846e-01 6.945500e-01 5.957192e-01 5.417727e-01 4.464096e-01 8.994175e-01
<GCONST> 1.367967e+02
<STATE> 4
<MEAN> 39
 2.192336e-07 -2.630119e-07 1.289736e-07 2.348907e-07 -2.089070e-07 7.988559e-08 1.048760e-07 1.180897e-07 -1.038646e-07 -2.856375e-08 2.746552e-07 -8.837457e-08 3.182411e-07 3.500773e-03 3.751628e-03 -3.257372e-04 8.666156e-04 4.723849e-03 -5.871324e-04 2.243232e-04 -5.077833e-03 -4.136956e-03 -6.560450e-04 -4.315032e-03 -2.692462e-03 3.635468e-03 -9.594065e-05 -2.103182e-04 1.351101e-04 -1.660745e-05 -3.384858e-04 -2.177446e-04 -1.438297e-04 1.636923e-04 2.628955e-04 5.659813e-06 2.228582e-04 2.034429e-04 -1.621444e-05
<VARIANCE> 39
 9.634293e+01 5.412502e+01 7.125948e+01 7.240816e+01 7.061290e+01 6.556955e+01 6.711686e+01 5.772457e+01 5.529247e+01 4.097031e+01 3.866037e+01 3.128725e+01 1.108260e+02 4.562119e+00 3.524040e+00 3.336660e+00 4.190866e+00 4.308098e+00 4.198834e+00 4.401053e+00 4.303353e+00 3.944832e+00 3.243082e+00 2.985256e+00 2.440741e+00 5.602357e+00 6.297894e-01 5.834262e-01 5.081020e-01 6.770256e-01 7.052158e-01 7.098505e-01 7.490681e-01 7.594846e-01 6.945500e-01 5.957192e-01 5.417727e-01 4.464096e-01 8.994175e-01
<GCONST> 1.367967e+02
<TRANSP> 5
 0.000000e+00 1.000000e+00 0.000000e+00 0.000000e+00 0.000000e+00
 0.000000e+00 6.000000e-01 4.000000e-01 0.000000e+00 0.000000e+00
 0.000000e+00 0.000000e+00 6.000000e-01 4.000000e-01 0.000000e+00
 0.000000e+00 0.000000e+00 0.000000e+00 7.000000e-01 3.000000e-01
 0.000000e+00 0.000000e+00 0.000000e+00 0.000000e+00 0.000000e+00
<ENDHMM>
~h "bcl"
<BEGINHMM>
<NUMSTATES> 5
<STATE> 2
<MEAN> 39
 2.192336e-07 -2.630119e-07 1.289736e-07 2.348907e-07 -2.089070e-07 7.988559e-08 1.048760e-07 1.180897e-07 -1.038646e-07 -2.856375e-08 2.746552e-07 -8.837457e-08 3.182411e-07 3.500773e-03 3.751628e-03 -3.257372e-04 8.666156e-04 4.723849e-03 -5.871324e-04 2.243232e-04 -5.077833e-03 -4.136956e-03 -6.560450e-04 -4.315032e-03 -2.692462e-03 3.635468e-03 -9.594065e-05 -2.103182e-04 1.351101e-04 -1.660745e-05 -3.384858e-04 -2.177446e-04 -1.438297e-04 1.636923e-04 2.628955e-04 5.659813e-06 2.228582e-04 2.034429e-04 -1.621444e-05
<VARIANCE> 39
 9.634293e+01 5.412502e+01 7.125948e+01 7.240816e+01 7.061290e+01 6.556955e+01 6.711686e+01 5.772457e+01 5.529247e+01 4.097031e+01 3.866037e+01 3.128725e+01 1.108260e+02 4.562119e+00 3.524040e+00 3.336660e+00 4.190866e+00 4.308098e+00 4.198834e+00 4.401053e+00 4.303353e+00 3.944832e+00 3.243082e+00 2.985256e+00 2.440741e+00 5.602357e+00 6.297894e-01 5.834262e-01 5.081020e-01 6.770256e-01 7.052158e-01 7.098505e-01 7.490681e-01 7.594846e-01 6.945500e-01 5.957192e-01 5.417727e-01 4.464096e-01 8.994175e-01
<GCONST> 1.367967e+02
<STATE> 3
<MEAN> 39
 2.192336e-07 -2.630119e-07 1.289736e-07 2.348907e-07 -2.089070e-07 7.988559e-08 1.048760e-07 1.180897e-07 -1.038646e-07 -2.856375e-08 2.746552e-07 -8.837457e-08 3.182411e-07 3.500773e-03 3.751628e-03 -3.257372e-04 8.666156e-04 4.723849e-03 -5.871324e-04 2.243232e-04 -5.077833e-03 -4.136956e-03 -6.560450e-04 -4.315032e-03 -2.692462e-03 3.635468e-03 -9.594065e-05 -2.103182e-04 1.351101e-04 -1.660745e-05 -3.384858e-04 -2.177446e-04 -1.438297e-04 1.636923e-04 2.628955e-04 5.659813e-06 2.228582e-04 2.034429e-04 -1.621444e-05
<VARIANCE> 39
 9.634293e+01 5.412502e+01 7.125948e+01 7.240816e+01 7.061290e+01 6.556955e+01 6.711686e+01 5.772457e+01 5.529247e+01 4.097031e+01 3.866037e+01 3.128725e+01 1.108260e+02 4.562119e+00 3.524040e+00 3.336660e+00 4.190866e+00 4.308098e+00 4.198834e+00 4.401053e+00 4.303353e+00 3.944832e+00 3.243082e+00 2.985256e+00 2.440741e+00 5.602357e+00 6.297894e-01 5.834262e-01 5.081020e-01 6.770256e-01 7.052158e-01 7.098505e-01 7.490681e-01 7.594846e-01 6.945500e-01 5.957192e-01 5.417727e-01 4.464096e-01 8.994175e-01
<GCONST> 1.367967e+02
<STATE> 4
<MEAN> 39
 2.192336e-07 -2.630119e-07 1.289736e-07 2.348907e-07 -2.089070e-07 7.988559e-08 1.048760e-07 1.180897e-07 -1.038646e-07 -2.856375e-08 2.746552e-07 -8.837457e-08 3.182411e-07 3.500773e-03 3.751628e-03 -3.257372e-04 8.666156e-04 4.723849e-03 -5.871324e-04 2.243232e-04 -5.077833e-03 -4.136956e-03 -6.560450e-04 -4.315032e-03 -2.692462e-03 3.635468e-03 -9.594065e-05 -2.103182e-04 1.351101e-04 -1.660745e-05 -3.384858e-04 -2.177446e-04 -1.438297e-04 1.636923e-04 2.628955e-04 5.659813e-06 2.228582e-04 2.034429e-04 -1.621444e-05
<VARIANCE> 39
 9.634293e+01 5.412502e+01 7.125948e+01 7.240816e+01 7.061290e+01 6.556955e+01 6.711686e+01 5.772457e+01 5.529247e+01 4.097031e+01 3.866037e+01 3.128725e+01 1.108260e+02 4.562119e+00 3.524040e+00 3.336660e+00 4.190866e+00 4.308098e+00 4.198834e+00 4.401053e+00 4.303353e+00 3.944832e+00 3.243082e+00 2.985256e+00 2.440741e+00 5.602357e+00 6.297894e-01 5.834262e-01 5.081020e-01 6.770256e-01 7.052158e-01 7.098505e-01 7.490681e-01 7.594846e-01 6.945500e-01 5.957192e-01 5.417727e-01 4.464096e-01 8.994175e-01
<GCONST> 1.367967e+02
<TRANSP> 5
 0.000000e+00 1.000000e+00 0.000000e+00 0.000000e+00 0.000000e+00
 0.000000e+00 6.000000e-01 4.000000e-01 0.000000e+00 0.000000e+00
 0.000000e+00 0.000000e+00 6.000000e-01 4.000000e-01 0.000000e+00
 0.000000e+00 0.000000e+00 0.000000e+00 7.000000e-01 3.000000e-01
 0.000000e+00 0.000000e+00 0.000000e+00 0.000000e+00 0.000000e+00
<ENDHMM>
~h "b"
<BEGINHMM>
<NUMSTATES> 5
<STATE> 2
<MEAN> 39
 2.192336e-07 -2.630119e-07 1.289736e-07 2.348907e-07 -2.089070e-07 7.988559e-08 1.048760e-07 1.180897e-07 -1.038646e-07 -2.856375e-08 2.746552e-07 -8.837457e-08 3.182411e-07 3.500773e-03 3.751628e-03 -3.257372e-04 8.666156e-04 4.723849e-03 -5.871324e-04 2.243232e-04 -5.077833e-03 -4.136956e-03 -6.560450e-04 -4.315032e-03 -2.692462e-03 3.635468e-03 -9.594065e-05 -2.103182e-04 1.351101e-04 -1.660745e-05 -3.384858e-04 -2.177446e-04 -1.438297e-04 1.636923e-04 2.628955e-04 5.659813e-06 2.228582e-04 2.034429e-04 -1.621444e-05
<VARIANCE> 39
 9.634293e+01 5.412502e+01 7.125948e+01 7.240816e+01 7.061290e+01 6.556955e+01 6.711686e+01 5.772457e+01 5.529247e+01 4.097031e+01 3.866037e+01 3.128725e+01 1.108260e+02 4.562119e+00 3.524040e+00 3.336660e+00 4.190866e+00 4.308098e+00 4.198834e+00 4.401053e+00 4.303353e+00 3.944832e+00 3.243082e+00 2.985256e+00 2.440741e+00 5.602357e+00 6.297894e-01 5.834262e-01 5.081020e-01 6.770256e-01 7.052158e-01 7.098505e-01 7.490681e-01 7.594846e-01 6.945500e-01 5.957192e-01 5.417727e-01 4.464096e-01 8.994175e-01
<GCONST> 1.367967e+02
<STATE> 3
<MEAN> 39
 2.192336e-07 -2.630119e-07 1.289736e-07 2.348907e-07 -2.089070e-07 7.988559e-08 1.048760e-07 1.180897e-07 -1.038646e-07 -2.856375e-08 2.746552e-07 -8.837457e-08 3.182411e-07 3.500773e-03 3.751628e-03 -3.257372e-04 8.666156e-04 4.723849e-03 -5.871324e-04 2.243232e-04 -5.077833e-03 -4.136956e-03 -6.560450e-04 -4.315032e-03 -2.692462e-03 3.635468e-03 -9.594065e-05 -2.103182e-04 1.351101e-04 -1.660745e-05 -3.384858e-04 -2.177446e-04 -1.438297e-04 1.636923e-04 2.628955e-04 5.659813e-06 2.228582e-04 2.034429e-04 -1.621444e-05
<VARIANCE> 39
 9.634293e+01 5.412502e+01 7.125948e+01 7.240816e+01 7.061290e+01 6.556955e+01 6.711686e+01 5.772457e+01 5.529247e+01 4.097031e+01 3.866037e+01 3.128725e+01 1.108260e+02 4.562119e+00 3.524040e+00 3.336660e+00 4.190866e+00 4.308098e+00 4.198834e+00 4.401053e+00 4.303353e+00 3.944832e+00 3.243082e+00 2.985256e+00 2.440741e+00 5.602357e+00 6.297894e-01 5.834262e-01 5.081020e-01 6.770256e-01 7.052158e-01 7.098505e-01 7.490681e-01 7.594846e-01 6.945500e-01 5.957192e-01 5.417727e-01 4.464096e-01 8.994175e-01
<GCONST> 1.367967e+02
<STATE> 4
<MEAN> 39
 2.192336e-07 -2.630119e-07 1.289736e-07 2.348907e-07 -2.089070e-07 7.988559e-08 1.048760e-07 1.180897e-07 -1.038646e-07 -2.856375e-08 2.746552e-07 -8.837457e-08 3.182411e-07 3.500773e-03 3.751628e-03 -3.257372e-04 8.666156e-04 4.723849e-03 -5.871324e-04 2.243232e-04 -5.077833e-03 -4.136956e-03 -6.560450e-04 -4.315032e-03 -2.692462e-03 3.635468e-03 -9.594065e-05 -2.103182e-04 1.351101e-04 -1.660745e-05 -3.384858e-04 -2.177446e-04 -1.438297e-04 1.636923e-04 2.628955e-04 5.659813e-06 2.228582e-04 2.034429e-04 -1.621444e-05
<VARIANCE> 39
 9.634293e+01 5.412502e+01 7.125948e+01 7.240816e+01 7.061290e+01 6.556955e+01 6.711686e+01 5.772457e+01 5.529247e+01 4.097031e+01 3.866037e+01 3.128725e+01 1.108260e+02 4.562119e+00 3.524040e+00 3.336660e+00 4.190866e+00 4.308098e+00 4.198834e+00 4.401053e+00 4.303353e+00 3.944832e+00 3.243082e+00 2.985256e+00 2.440741e+00 5.602357e+00 6.297894e-01 5.834262e-01 5.081020e-01 6.770256e-01 7.052158e-01 7.098505e-01 7.490681e-01 7.594846e-01 6.945500e-01 5.957192e-01 5.417727e-01 4.464096e-01 8.994175e-01
<GCONST> 1.367967e+02
<TRANSP> 5
 0.000000e+00 1.000000e+00 0.000000e+00 0.000000e+00 0.000000e+00
 0.000000e+00 6.000000e-01 4.000000e-01 0.000000e+00 0.000000e+00
 0.000000e+00 0.000000e+00 6.000000e-01 4.000000e-01 0.000000e+00
 0.000000e+00 0.000000e+00 0.000000e+00 7.000000e-01 3.000000e-01
 0.000000e+00 0.000000e+00 0.000000e+00 0.000000e+00 0.000000e+00
<ENDHMM>
~h "ah"
<BEGINHMM>
<NUMSTATES> 5
<STATE> 2
<MEAN> 39
 2.192336e-07 -2.630119e-07 1.289736e-07 2.348907e-07 -2.089070e-07 7.988559e-08 1.048760e-07 1.180897e-07 -1.038646e-07 -2.856375e-08 2.746552e-07 -8.837457e-08 3.182411e-07 3.500773e-03 3.751628e-03 -3.257372e-04 8.666156e-04 4.723849e-03 -5.871324e-04 2.243232e-04 -5.077833e-03 -4.136956e-03 -6.560450e-04 -4.315032e-03 -2.692462e-03 3.635468e-03 -9.594065e-05 -2.103182e-04 1.351101e-04 -1.660745e-05 -3.384858e-04 -2.177446e-04 -1.438297e-04 1.636923e-04 2.628955e-04 5.659813e-06 2.228582e-04 2.034429e-04 -1.621444e-05
<VARIANCE> 39
 9.634293e+01 5.412502e+01 7.125948e+01 7.240816e+01 7.061290e+01 6.556955e+01 6.711686e+01 5.772457e+01 5.529247e+01 4.097031e+01 3.866037e+01 3.128725e+01 1.108260e+02 4.562119e+00 3.524040e+00 3.336660e+00 4.190866e+00 4.308098e+00 4.198834e+00 4.401053e+00 4.303353e+00 3.944832e+00 3.243082e+00 2.985256e+00 2.440741e+00 5.602357e+00 6.297894e-01 5.834262e-01 5.081020e-01 6.770256e-01 7.052158e-01 7.098505e-01 7.490681e-01 7.594846e-01 6.945500e-01 5.957192e-01 5.417727e-01 4.464096e-01 8.994175e-01
<GCONST> 1.367967e+02
<STATE> 3
<MEAN> 39
 2.192336e-07 -2.630119e-07 1.289736e-07 2.348907e-07 -2.089070e-07 7.988559e-08 1.048760e-07 1.180897e-07 -1.038646e-07 -2.856375e-08 2.746552e-07 -8.837457e-08 3.182411e-07 3.500773e-03 3.751628e-03 -3.257372e-04 8.666156e-04 4.723849e-03 -5.871324e-04 2.243232e-04 -5.077833e-03 -4.136956e-03 -6.560450e-04 -4.315032e-03 -2.692462e-03 3.635468e-03 -9.594065e-05 -2.103182e-04 1.351101e-04 -1.660745e-05 -3.384858e-04 -2.177446e-04 -1.438297e-04 1.636923e-04 2.628955e-04 5.659813e-06 2.228582e-04 2.034429e-04 -1.621444e-05
<VARIANCE> 39
 9.634293e+01 5.412502e+01 7.125948e+01 7.240816e+01 7.061290e+01 6.556955e+01 6.711686e+01 5.772457e+01 5.529247e+01 4.097031e+01 3.866037e+01 3.128725e+01 1.108260e+02 4.562119e+00 3.524040e+00 3.336660e+00 4.190866e+00 4.308098e+00 4.198834e+00 4.401053e+00 4.303353e+00 3.944832e+00 3.243082e+00 2.985256e+00 2.440741e+00 5.602357e+00 6.297894e-01 5.834262e-01 5.081020e-01 6.770256e-01 7.052158e-01 7.098505e-01 7.490681e-01 7.594846e-01 6.945500e-01 5.957192e-01 5.417727e-01 4.464096e-01 8.994175e-01
<GCONST> 1.367967e+02
<STATE> 4
<MEAN> 39
 2.192336e-07 -2.630119e-07 1.289736e-07 2.348907e-07 -2.089070e-07 7.988559e-08 1.048760e-07 1.180897e-07 -1.038646e-07 -2.856375e-08 2.746552e-07 -8.837457e-08 3.182411e-07 3.500773e-03 3.751628e-03 -3.257372e-04 8.666156e-04 4.723849e-03 -5.871324e-04 2.243232e-04 -5.077833e-03 -4.136956e-03 -6.560450e-04 -4.315032e-03 -2.692462e-03 3.635468e-03 -9.594065e-05 -2.103182e-04 1.351101e-04 -1.660745e-05 -3.384858e-04 -2.177446e-04 -1.438297e-04 1.636923e-04 2.628955e-04 5.659813e-06 2.228582e-04 2.034429e-04 -1.621444e-05
<VARIANCE> 39
 9.634293e+01 5.412502e+01 7.125948e+01 7.240816e+01 7.061290e+01 6.556955e+01 6.711686e+01 5.772457e+01 5.529247e+01 4.097031e+01 3.866037e+01 3.128725e+01 1.108260e+02 4.562119e+00 3.524040e+00 3.336660e+00 4.190866e+00 4.308098e+00 4.198834e+00 4.401053e+00 4.303353e+00 3.944832e+00 3.243082e+00 2.985256e+00 2.440741e+00 5.602357e+00 6.297894e-01 5.834262e-01 5.081020e-01 6.770256e-01 7.052158e-01 7.098505e-01 7.490681e-01 7.594846e-01 6.945500e-01 5.957192e-01 5.417727e-01 4.464096e-01 8.994175e-01
<GCONST> 1.367967e+02
<TRANSP> 5
 0.000000e+00 1.000000e+00 0.000000e+00 0.000000e+00 0.000000e+00
 0.000000e+00 6.000000e-01 4.000000e-01 0.000000e+00 0.000000e+00
 0.000000e+00 0.000000e+00 6.000000e-01 4.000000e-01 0.000000e+00
 0.000000e+00 0.000000e+00 0.000000e+00 7.000000e-01 3.000000e-01
 0.000000e+00 0.000000e+00 0.000000e+00 0.000000e+00 0.000000e+00
<ENDHMM>
~h "dx"
<BEGINHMM>
<NUMSTATES> 5
<STATE> 2
<MEAN> 39
 2.192336e-07 -2.630119e-07 1.289736e-07 2.348907e-07 -2.089070e-07 7.988559e-08 1.048760e-07 1.180897e-07 -1.038646e-07 -2.856375e-08 2.746552e-07 -8.837457e-08 3.182411e-07 3.500773e-03 3.751628e-03 -3.257372e-04 8.666156e-04 4.723849e-03 -5.871324e-04 2.243232e-04 -5.077833e-03 -4.136956e-03 -6.560450e-04 -4.315032e-03 -2.692462e-03 3.635468e-03 -9.594065e-05 -2.103182e-04 1.351101e-04 -1.660745e-05 -3.384858e-04 -2.177446e-04 -1.438297e-04 1.636923e-04 2.628955e-04 5.659813e-06 2.228582e-04 2.034429e-04 -1.621444e-05
<VARIANCE> 39
 9.634293e+01 5.412502e+01 7.125948e+01 7.240816e+01 7.061290e+01 6.556955e+01 6.711686e+01 5.772457e+01 5.529247e+01 4.097031e+01 3.866037e+01 3.128725e+01 1.108260e+02 4.562119e+00 3.524040e+00 3.336660e+00 4.190866e+00 4.308098e+00 4.198834e+00 4.401053e+00 4.303353e+00 3.944832e+00 3.243082e+00 2.985256e+00 2.440741e+00 5.602357e+00 6.297894e-01 5.834262e-01 5.081020e-01 6.770256e-01 7.052158e-01 7.098505e-01 7.490681e-01 7.594846e-01 6.945500e-01 5.957192e-01 5.417727e-01 4.464096e-01 8.994175e-01
<GCONST> 1.367967e+02
<STATE> 3
<MEAN> 39
 2.192336e-07 -2.630119e-07 1.289736e-07 2.348907e-07 -2.089070e-07 7.988559e-08 1.048760e-07 1.180897e-07 -1.038646e-07 -2.856375e-08 2.746552e-07 -8.837457e-08 3.182411e-07 3.500773e-03 3.751628e-03 -3.257372e-04 8.666156e-04 4.723849e-03 -5.871324e-04 2.243232e-04 -5.077833e-03 -4.136956e-03 -6.560450e-04 -4.315032e-03 -2.692462e-03 3.635468e-03 -9.594065e-05 -2.103182e-04 1.351101e-04 -1.660745e-05 -3.384858e-04 -2.177446e-04 -1.438297e-04 1.636923e-04 2.628955e-04 5.659813e-06 2.228582e-04 2.034429e-04 -1.621444e-05
<VARIANCE> 39
 9.634293e+01 5.412502e+01 7.125948e+01 7.240816e+01 7.061290e+01 6.556955e+01 6.711686e+01 5.772457e+01 5.529247e+01 4.097031e+01 3.866037e+01 3.128725e+01 1.108260e+02 4.562119e+00 3.524040e+00 3.336660e+00 4.190866e+00 4.308098e+00 4.198834e+00 4.401053e+00 4.303353e+00 3.944832e+00 3.243082e+00 2.985256e+00 2.440741e+00 5.602357e+00 6.297894e-01 5.834262e-01 5.081020e-01 6.770256e-01 7.052158e-01 7.098505e-01 7.490681e-01 7.594846e-01 6.945500e-01 5.957192e-01 5.417727e-01 4.464096e-01 8.994175e-01
<GCONST> 1.367967e+02
<STATE> 4
<MEAN> 39
 2.192336e-07 -2.630119e-07 1.289736e-07 2.348907e-07 -2.089070e-07 7.988559e-08 1.048760e-07 1.180897e-07 -1.038646e-07 -2.856375e-08 2.746552e-07 -8.837457e-08 3.182411e-07 3.500773e-03 3.751628e-03 -3.257372e-04 8.666156e-04 4.723849e-03 -5.871324e-04 2.243232e-04 -5.077833e-03 -4.136956e-03 -6.560450e-04 -4.315032e-03 -2.692462e-03 3.635468e-03 -9.594065e-05 -2.103182e-04 1.351101e-04 -1.660745e-05 -3.384858e-04 -2.177446e-04 -1.438297e-04 1.636923e-04 2.628955e-04 5.659813e-06 2.228582e-04 2.034429e-04 -1.621444e-05
<VARIANCE> 39
 9.634293e+01 5.412502e+01 7.125948e+01 7.240816e+01 7.061290e+01 6.556955e+01 6.711686e+01 5.772457e+01 5.529247e+01 4.097031e+01 3.866037e+01 3.128725e+01 1.108260e+02 4.562119e+00 3.524040e+00 3.336660e+00 4.190866e+00 4.308098e+00 4.198834e+00 4.401053e+00 4.303353e+00 3.944832e+00 3.243082e+00 2.985256e+00 2.440741e+00 5.602357e+00 6.297894e-01 5.834262e-01 5.081020e-01 6.770256e-01 7.052158e-01 7.098505e-01 7.490681e-01 7.594846e-01 6.945500e-01 5.957192e-01 5.417727e-01 4.464096e-01 8.994175e-01
<GCONST> 1.367967e+02
<TRANSP> 5
 0.000000e+00 1.000000e+00 0.000000e+00 0.000000e+00 0.000000e+00
 0.000000e+00 6.000000e-01 4.000000e-01 0.000000e+00 0.000000e+00
 0.000000e+00 0.000000e+00 6.000000e-01 4.000000e-01 0.000000e+00
 0.000000e+00 0.000000e+00 0.000000e+00 7.000000e-01 3.000000e-01
 0.000000e+00 0.000000e+00 0.000000e+00 0.000000e+00 0.000000e+00
<ENDHMM>
~h "iy"
<BEGINHMM>
<NUMSTATES> 5
<STATE> 2
<MEAN> 39
 2.192336e-07 -2.630119e-07 1.289736e-07 2.348907e-07 -2.089070e-07 7.988559e-08 1.048760e-07 1.180897e-07 -1.038646e-07 -2.856375e-08 2.746552e-07 -8.837457e-08 3.182411e-07 3.500773e-03 3.751628e-03 -3.257372e-04 8.666156e-04 4.723849e-03 -5.871324e-04 2.243232e-04 -5.077833e-03 -4.136956e-03 -6.560450e-04 -4.315032e-03 -2.692462e-03 3.635468e-03 -9.594065e-05 -2.103182e-04 1.351101e-04 -1.660745e-05 -3.384858e-04 -2.177446e-04 -1.438297e-04 1.636923e-04 2.628955e-04 5.659813e-06 2.228582e-04 2.034429e-04 -1.621444e-05
<VARIANCE> 39
 9.634293e+01 5.412502e+01 7.125948e+01 7.240816e+01 7.061290e+01 6.556955e+01 6.711686e+01 5.772457e+01 5.529247e+01 4.097031e+01 3.866037e+01 3.128725e+01 1.108260e+02 4.562119e+00 3.524040e+00 3.336660e+00 4.190866e+00 4.308098e+00 4.198834e+00 4.401053e+00 4.303353e+00 3.944832e+00 3.243082e+00 2.985256e+00 2.440741e+00 5.602357e+00 6.297894e-01 5.834262e-01 5.081020e-01 6.770256e-01 7.052158e-01 7.098505e-01 7.490681e-01 7.594846e-01 6.945500e-01 5.957192e-01 5.417727e-01 4.464096e-01 8.994175e-01
<GCONST> 1.367967e+02
<STATE> 3
<MEAN> 39
 2.192336e-07 -2.630119e-07 1.289736e-07 2.348907e-07 -2.089070e-07 7.988559e-08 1.048760e-07 1.180897e-07 -1.038646e-07 -2.856375e-08 2.746552e-07 -8.837457e-08 3.182411e-07 3.500773e-03 3.751628e-03 -3.257372e-04 8.666156e-04 4.723849e-03 -5.871324e-04 2.243232e-04 -5.077833e-03 -4.136956e-03 -6.560450e-04 -4.315032e-03 -2.692462e-03 3.635468e-03 -9.594065e-05 -2.103182e-04 1.351101e-04 -1.660745e-05 -3.384858e-04 -2.177446e-04 -1.438297e-04 1.636923e-04 2.628955e-04 5.659813e-06 2.228582e-04 2.034429e-04 -1.621444e-05
<VARIANCE> 39
 9.634293e+01 5.412502e+01 7.125948e+01 7.240816e+01 7.061290e+01 6.556955e+01 6.711686e+01 5.772457e+01 5.529247e+01 4.097031e+01 3.866037e+01 3.128725e+01 1.108260e+02 4.562119e+00 3.524040e+00 3.336660e+00 4.190866e+00 4.308098e+00 4.198834e+00 4.401053e+00 4.303353e+00 3.944832e+00 3.243082e+00 2.985256e+00 2.440741e+00 5.602357e+00 6.297894e-01 5.834262e-01 5.081020e-01 6.770256e-01 7.052158e-01 7.098505e-01 7.490681e-01 7.594846e-01 6.945500e-01 5.957192e-01 5.417727e-01 4.464096e-01 8.994175e-01
<GCONST> 1.367967e+02
<STATE> 4
<MEAN> 39
 2.192336e-07 -2.630119e-07 1.289736e-07 2.348907e-07 -2.089070e-07 7.988559e-08 1.048760e-07 1.180897e-07 -1.038646e-07 -2.856375e-08 2.746552e-07 -8.837457e-08 3.182411e-07 3.500773e-03 3.751628e-03 -3.257372e-04 8.666156e-04 4.723849e-03 -5.871324e-04 2.243232e-04 -5.077833e-03 -4.136956e-03 -6.560450e-04 -4.315032e-03 -2.692462e-03 3.635468e-03 -9.594065e-05 -2.103182e-04 1.351101e-04 -1.660745e-05 -3.384858e-04 -2.177446e-04 -1.438297e-04 1.636923e-04 2.628955e-04 5.659813e-06 2.228582e-04 2.034429e-04 -1.621444e-05
<VARIANCE> 39
 9.634293e+01 5.412502e+01 7.125948e+01 7.240816e+01 7.061290e+01 6.556955e+01 6.711686e+01 5.772457e+01 5.529247e+01 4.097031e+01 3.866037e+01 3.128725e+01 1.108260e+02 4.562119e+00 3.524040e+00 3.336660e+00 4.190866e+00 4.308098e+00 4.198834e+00 4.401053e+00 4.303353e+00 3.944832e+00 3.243082e+00 2.985256e+00 2.440741e+00 5.602357e+00 6.297894e-01 5.834262e-01 5.081020e-01 6.770256e-01 7.052158e-01 7.098505e-01 7.490681e-01 7.594846e-01 6.945500e-01 5.957192e-01 5.417727e-01 4.464096e-01 8.994175e-01
<GCONST> 1.367967e+02
<TRANSP> 5
 0.000000e+00 1.000000e+00 0.000000e+00 0.000000e+00 0.000000e+00
 0.000000e+00 6.000000e-01 4.000000e-01 0.000000e+00 0.000000e+00
 0.000000e+00 0.000000e+00 6.000000e-01 4.000000e-01 0.000000e+00
 0.000000e+00 0.000000e+00 0.000000e+00 7.000000e-01 3.000000e-01
 0.000000e+00 0.000000e+00 0.000000e+00 0.000000e+00 0.000000e+00
<ENDHMM>
~h "z"
<BEGINHMM>
<NUMSTATES> 5
<STATE> 2
<MEAN> 39
 2.192336e-07 -2.630119e-07 1.289736e-07 2.348907e-07 -2.089070e-07 7.988559e-08 1.048760e-07 1.180897e-07 -1.038646e-07 -2.856375e-08 2.746552e-07 -8.837457e-08 3.182411e-07 3.500773e-03 3.751628e-03 -3.257372e-04 8.666156e-04 4.723849e-03 -5.871324e-04 2.243232e-04 -5.077833e-03 -4.136956e-03 -6.560450e-04 -4.315032e-03 -2.692462e-03 3.635468e-03 -9.594065e-05 -2.103182e-04 1.351101e-04 -1.660745e-05 -3.384858e-04 -2.177446e-04 -1.438297e-04 1.636923e-04 2.628955e-04 5.659813e-06 2.228582e-04 2.034429e-04 -1.621444e-05
<VARIANCE> 39
 9.634293e+01 5.412502e+01 7.125948e+01 7.240816e+01 7.061290e+01 6.556955e+01 6.711686e+01 5.772457e+01 5.529247e+01 4.097031e+01 3.866037e+01 3.128725e+01 1.108260e+02 4.562119e+00 3.524040e+00 3.336660e+00 4.190866e+00 4.308098e+00 4.198834e+00 4.401053e+00 4.303353e+00 3.944832e+00 3.243082e+00 2.985256e+00 2.440741e+00 5.602357e+00 6.297894e-01 5.834262e-01 5.081020e-01 6.770256e-01 7.052158e-01 7.098505e-01 7.490681e-01 7.594846e-01 6.945500e-01 5.957192e-01 5.417727e-01 4.464096e-01 8.994175e-01
<GCONST> 1.367967e+02
<STATE> 3
<MEAN> 39
 2.192336e-07 -2.630119e-07 1.289736e-07 2.348907e-07 -2.089070e-07 7.988559e-08 1.048760e-07 1.180897e-07 -1.038646e-07 -2.856375e-08 2.746552e-07 -8.837457e-08 3.182411e-07 3.500773e-03 3.751628e-03 -3.257372e-04 8.666156e-04 4.723849e-03 -5.871324e-04 2.243232e-04 -5.077833e-03 -4.136956e-03 -6.560450e-04 -4.315032e-03 -2.692462e-03 3.635468e-03 -9.594065e-05 -2.103182e-04 1.351101e-04 -1.660745e-05 -3.384858e-04 -2.177446e-04 -1.438297e-04 1.636923e-04 2.628955e-04 5.659813e-06 2.228582e-04 2.034429e-04 -1.621444e-05
<VARIANCE> 39
 9.634293e+01 5.412502e+01 7.125948e+01 7.240816e+01 7.061290e+01 6.556955e+01 6.711686e+01 5.772457e+01 5.529247e+01 4.097031e+01 3.866037e+01 3.128725e+01 1.108260e+02 4.562119e+00 3.524040e+00 3.336660e+00 4.190866e+00 4.308098e+00 4.198834e+00 4.401053e+00 4.303353e+00 3.944832e+00 3.243082e+00 2.985256e+00 2.440741e+00 5.602357e+00 6.297894e-01 5.834262e-01 5.081020e-01 6.770256e-01 7.052158e-01 7.098505e-01 7.490681e-01 7.594846e-01 6.945500e-01 5.957192e-01 5.417727e-01 4.464096e-01 8.994175e-01
<GCONST> 1.367967e+02
<STATE> 4
<MEAN> 39
 2.192336e-07 -2.630119e-07 1.289736e-07 2.348907e-07 -2.089070e-07 7.988559e-08 1.048760e-07 1.180897e-07 -1.038646e-07 -2.856375e-08 2.746552e-07 -8.837457e-08 3.182411e-07 3.500773e-03 3.751628e-03 -3.257372e-04 8.666156e-04 4.723849e-03 -5.871324e-04 2.243232e-04 -5.077833e-03 -4.136956e-03 -6.560450e-04 -4.315032e-03 -2.692462e-03 3.635468e-03 -9.594065e-05 -2.103182e-04 1.351101e-04 -1.660745e-05 -3.384858e-04 -2.177446e-04 -1.438297e-04 1.636923e-04 2.628955e-04 5.659813e-06 2.228582e-04 2.034429e-04 -1.621444e-05
<VARIANCE> 39
 9.634293e+01 5.412502e+01 7.125948e+01 7.240816e+01 7.061290e+01 6.556955e+01 6.711686e+01 5.772457e+01 5.529247e+01 4.097031e+01 3.866037e+01 3.128725e+01 1.108260e+02 4.562119e+00 3.524040e+00 3.336660e+00 4.190866e+00 4.308098e+00 4.198834e+00 4.401053e+00 4.303353e+00 3.944832e+00 3.243082e+00 2.985256e+00 2.440741e+00 5.602357e+00 6.297894e-01 5.834262e-01 5.081020e-01 6.770256e-01 7.052158e-01 7.098505e-01 7.490681e-01 7.594846e-01 6.945500e-01 5.957192e-01 5.417727e-01 4.464096e-01 8.994175e-01
<GCONST> 1.367967e+02
<TRANSP> 5
 0.000000e+00 1.000000e+00 0.000000e+00 0.000000e+00 0.000000e+00
 0.000000e+00 6.000000e-01 4.000000e-01 0.000000e+00 0.000000e+00
 0.000000e+00 0.000000e+00 6.000000e-01 4.000000e-01 0.000000e+00
 0.000000e+00 0.000000e+00 0.000000e+00 7.000000e-01 3.000000e-01
 0.000000e+00 0.000000e+00 0.000000e+00 0.000000e+00 0.000000e+00
<ENDHMM>
~h "ix"
<BEGINHMM>
<NUMSTATES> 5
<STATE> 2
<MEAN> 39
 2.192336e-07 -2.630119e-07 1.289736e-07 2.348907e-07 -2.089070e-07 7.988559e-08 1.048760e-07 1.180897e-07 -1.038646e-07 -2.856375e-08 2.746552e-07 -8.837457e-08 3.182411e-07 3.500773e-03 3.751628e-03 -3.257372e-04 8.666156e-04 4.723849e-03 -5.871324e-04 2.243232e-04 -5.077833e-03 -4.136956e-03 -6.560450e-04 -4.315032e-03 -2.692462e-03 3.635468e-03 -9.594065e-05 -2.103182e-04 1.351101e-04 -1.660745e-05 -3.384858e-04 -2.177446e-04 -1.438297e-04 1.636923e-04 2.628955e-04 5.659813e-06 2.228582e-04 2.034429e-04 -1.621444e-05
<VARIANCE> 39
 9.634293e+01 5.412502e+01 7.125948e+01 7.240816e+01 7.061290e+01 6.556955e+01 6.711686e+01 5.772457e+01 5.529247e+01 4.097031e+01 3.866037e+01 3.128725e+01 1.108260e+02 4.562119e+00 3.524040e+00 3.336660e+00 4.190866e+00 4.308098e+00 4.198834e+00 4.401053e+00 4.303353e+00 3.944832e+00 3.243082e+00 2.985256e+00 2.440741e+00 5.602357e+00 6.297894e-01 5.834262e-01 5.081020e-01 6.770256e-01 7.052158e-01 7.098505e-01 7.490681e-01 7.594846e-01 6.945500e-01 5.957192e-01 5.417727e-01 4.464096e-01 8.994175e-01
<GCONST> 1.367967e+02
<STATE> 3
<MEAN> 39
 2.192336e-07 -2.630119e-07 1.289736e-07 2.348907e-07 -2.089070e-07 7.988559e-08 1.048760e-07 1.180897e-07 -1.038646e-07 -2.856375e-08 2.746552e-07 -8.837457e-08 3.182411e-07 3.500773e-03 3.751628e-03 -3.257372e-04 8.666156e-04 4.723849e-03 -5.871324e-04 2.243232e-04 -5.077833e-03 -4.136956e-03 -6.560450e-04 -4.315032e-03 -2.692462e-03 3.635468e-03 -9.594065e-05 -2.103182e-04 1.351101e-04 -1.660745e-05 -3.384858e-04 -2.177446e-04 -1.438297e-04 1.636923e-04 2.628955e-04 5.659813e-06 2.228582e-04 2.034429e-04 -1.621444e-05
<VARIANCE> 39
 9.634293e+01 5.412502e+01 7.125948e+01 7.240816e+01 7.061290e+01 6.556955e+01 6.711686e+01 5.772457e+01 5.529247e+01 4.097031e+01 3.866037e+01 3.128725e+01 1.108260e+02 4.562119e+00 3.524040e+00 3.336660e+00 4.190866e+00 4.308098e+00 4.198834e+00 4.401053e+00 4.303353e+00 3.944832e+00 3.243082e+00 2.985256e+00 2.440741e+00 5.602357e+00 6.297894e-01 5.834262e-01 5.081020e-01 6.770256e-01 7.052158e-01 7.098505e-01 7.490681e-01 7.594846e-01 6.945500e-01 5.957192e-01 5.417727e-01 4.464096e-01 8.994175e-01
<GCONST> 1.367967e+02
<STATE> 4
<MEAN> 39
 2.192336e-07 -2.630119e-07 1.289736e-07 2.348907e-07 -2.089070e-07 7.988559e-08 1.048760e-07 1.180897e-07 -1.038646e-07 -2.856375e-08 2.746552e-07 -8.837457e-08 3.182411e-07 3.500773e-03 3.751628e-03 -3.257372e-04 8.666156e-04 4.723849e-03 -5.871324e-04 2.243232e-04 -5.077833e-03 -4.136956e-03 -6.560450e-04 -4.315032e-03 -2.692462e-03 3.635468e-03 -9.594065e-05 -2.103182e-04 1.351101e-04 -1.660745e-05 -3.384858e-04 -2.177446e-04 -1.438297e-04 1.636923e-04 2.628955e-04 5.659813e-06 2.228582e-04 2.034429e-04 -1.621444e-05
<VARIANCE> 39
 9.634293e+01 5.412502e+01 7.125948e+01 7.240816e+01 7.061290e+01 6.556955e+01 6.711686e+01 5.772457e+01 5.529247e+01 4.097031e+01 3.866037e+01 3.128725e+01 1.108260e+02 4.562119e+00 3.524040e+00 3.336660e+00 4.190866e+00 4.308098e+00 4.198834e+00 4.401053e+00 4.303353e+00 3.944832e+00 3.243082e+00 2.985256e+00 2.440741e+00 5.602357e+00 6.297894e-01 5.834262e-01 5.081020e-01 6.770256e-01 7.052158e-01 7.098505e-01 7.490681e-01 7.594846e-01 6.945500e-01 5.957192e-01 5.417727e-01 4.464096e-01 8.994175e-01
<GCONST> 1.367967e+02
<TRANSP> 5
 0.000000e+00 1.000000e+00 0.000000e+00 0.000000e+00 0.000000e+00
 0.000000e+00 6.000000e-01 4.000000e-01 0.000000e+00 0.000000e+00
 0.000000e+00 0.000000e+00 6.000000e-01 4.000000e-01 0.000000e+00
 0.000000e+00 0.000000e+00 0.000000e+00 7.000000e-01 3.000000e-01
 0.000000e+00 0.000000e+00 0.000000e+00 0.000000e+00 0.000000e+00
<ENDHMM>
~h "n"
<BEGINHMM>
<NUMSTATES> 5
<STATE> 2
<MEAN> 39
 2.192336e-07 -2.630119e-07 1.289736e-07 2.348907e-07 -2.089070e-07 7.988559e-08 1.048760e-07 1.180897e-07 -1.038646e-07 -2.856375e-08 2.746552e-07 -8.837457e-08 3.182411e-07 3.500773e-03 3.751628e-03 -3.257372e-04 8.666156e-04 4.723849e-03 -5.871324e-04 2.243232e-04 -5.077833e-03 -4.136956e-03 -6.560450e-04 -4.315032e-03 -2.692462e-03 3.635468e-03 -9.594065e-05 -2.103182e-04 1.351101e-04 -1.660745e-05 -3.384858e-04 -2.177446e-04 -1.438297e-04 1.636923e-04 2.628955e-04 5.659813e-06 2.228582e-04 2.034429e-04 -1.621444e-05
<VARIANCE> 39
 9.634293e+01 5.412502e+01 7.125948e+01 7.240816e+01 7.061290e+01 6.556955e+01 6.711686e+01 5.772457e+01 5.529247e+01 4.097031e+01 3.866037e+01 3.128725e+01 1.108260e+02 4.562119e+00 3.524040e+00 3.336660e+00 4.190866e+00 4.308098e+00 4.198834e+00 4.401053e+00 4.303353e+00 3.944832e+00 3.243082e+00 2.985256e+00 2.440741e+00 5.602357e+00 6.297894e-01 5.834262e-01 5.081020e-01 6.770256e-01 7.052158e-01 7.098505e-01 7.490681e-01 7.594846e-01 6.945500e-01 5.957192e-01 5.417727e-01 4.464096e-01 8.994175e-01
<GCONST> 1.367967e+02
<STATE> 3
<MEAN> 39
 2.192336e-07 -2.630119e-07 1.289736e-07 2.348907e-07 -2.089070e-07 7.988559e-08 1.048760e-07 1.180897e-07 -1.038646e-07 -2.856375e-08 2.746552e-07 -8.837457e-08 3.182411e-07 3.500773e-03 3.751628e-03 -3.257372e-04 8.666156e-04 4.723849e-03 -5.871324e-04 2.243232e-04 -5.077833e-03 -4.136956e-03 -6.560450e-04 -4.315032e-03 -2.692462e-03 3.635468e-03 -9.594065e-05 -2.103182e-04 1.351101e-04 -1.660745e-05 -3.384858e-04 -2.177446e-04 -1.438297e-04 1.636923e-04 2.628955e-04 5.659813e-06 2.228582e-04 2.034429e-04 -1.621444e-05
<VARIANCE> 39
 9.634293e+01 5.412502e+01 7.125948e+01 7.240816e+01 7.061290e+01 6.556955e+01 6.711686e+01 5.772457e+01 5.529247e+01 4.097031e+01 3.866037e+01 3.128725e+01 1.108260e+02 4.562119e+00 3.524040e+00 3.336660e+00 4.190866e+00 4.308098e+00 4.198834e+00 4.401053e+00 4.303353e+00 3.944832e+00 3.243082e+00 2.985256e+00 2.440741e+00 5.602357e+00 6.297894e-01 5.834262e-01 5.081020e-01 6.770256e-01 7.052158e-01 7.098505e-01 7.490681e-01 7.594846e-01 6.945500e-01 5.957192e-01 5.417727e-01 4.464096e-01 8.994175e-01
<GCONST> 1.367967e+02
<STATE> 4
<MEAN> 39
 2.192336e-07 -2.630119e-07 1.289736e-07 2.348907e-07 -2.089070e-07 7.988559e-08 1.048760e-07 1.180897e-07 -1.038646e-07 -2.856375e-08 2.746552e-07 -8.837457e-08 3.182411e-07 3.500773e-03 3.751628e-03 -3.257372e-04 8.666156e-04 4.723849e-03 -5.871324e-04 2.243232e-04 -5.077833e-03 -4.136956e-03 -6.560450e-04 -4.315032e-03 -2.692462e-03 3.635468e-03 -9.594065e-05 -2.103182e-04 1.351101e-04 -1.660745e-05 -3.384858e-04 -2.177446e-04 -1.438297e-04 1.636923e-04 2.628955e-04 5.659813e-06 2.228582e-04 2.034429e-04 -1.621444e-05
<VARIANCE> 39
 9.634293e+01 5.412502e+01 7.125948e+01 7.240816e+01 7.061290e+01 6.556955e+01 6.711686e+01 5.772457e+01 5.529247e+01 4.097031e+01 3.866037e+01 3.128725e+01 1.108260e+02 4.562119e+00 3.524040e+00 3.336660e+00 4.190866e+00 4.308098e+00 4.198834e+00 4.401053e+00 4.303353e+00 3.944832e+00 3.243082e+00 2.985256e+00 2.440741e+00 5.602357e+00 6.297894e-01 5.834262e-01 5.081020e-01 6.770256e-01 7.052158e-01 7.098505e-01 7.490681e-01 7.594846e-01 6.945500e-01 5.957192e-01 5.417727e-01 4.464096e-01 8.994175e-01
<GCONST> 1.367967e+02
<TRANSP> 5
 0.000000e+00 1.000000e+00 0.000000e+00 0.000000e+00 0.000000e+00
 0.000000e+00 6.000000e-01 4.000000e-01 0.000000e+00 0.000000e+00
 0.000000e+00 0.000000e+00 6.000000e-01 4.000000e-01 0.000000e+00
 0.000000e+00 0.000000e+00 0.000000e+00 7.000000e-01 3.000000e-01
 0.000000e+00 0.000000e+00 0.000000e+00 0.000000e+00 0.000000e+00
<ENDHMM>
~h "v"
<BEGINHMM>
<NUMSTATES> 5
<STATE> 2
<MEAN> 39
 2.192336e-07 -2.630119e-07 1.289736e-07 2.348907e-07 -2.089070e-07 7.988559e-08 1.048760e-07 1.180897e-07 -1.038646e-07 -2.856375e-08 2.746552e-07 -8.837457e-08 3.182411e-07 3.500773e-03 3.751628e-03 -3.257372e-04 8.666156e-04 4.723849e-03 -5.871324e-04 2.243232e-04 -5.077833e-03 -4.136956e-03 -6.560450e-04 -4.315032e-03 -2.692462e-03 3.635468e-03 -9.594065e-05 -2.103182e-04 1.351101e-04 -1.660745e-05 -3.384858e-04 -2.177446e-04 -1.438297e-04 1.636923e-04 2.628955e-04 5.659813e-06 2.228582e-04 2.034429e-04 -1.621444e-05
<VARIANCE> 39
 9.634293e+01 5.412502e+01 7.125948e+01 7.240816e+01 7.061290e+01 6.556955e+01 6.711686e+01 5.772457e+01 5.529247e+01 4.097031e+01 3.866037e+01 3.128725e+01 1.108260e+02 4.562119e+00 3.524040e+00 3.336660e+00 4.190866e+00 4.308098e+00 4.198834e+00 4.401053e+00 4.303353e+00 3.944832e+00 3.243082e+00 2.985256e+00 2.440741e+00 5.602357e+00 6.297894e-01 5.834262e-01 5.081020e-01 6.770256e-01 7.052158e-01 7.098505e-01 7.490681e-01 7.594846e-01 6.945500e-01 5.957192e-01 5.417727e-01 4.464096e-01 8.994175e-01
<GCONST> 1.367967e+02
<STATE> 3
<MEAN> 39
 2.192336e-07 -2.630119e-07 1.289736e-07 2.348907e-07 -2.089070e-07 7.988559e-08 1.048760e-07 1.180897e-07 -1.038646e-07 -2.856375e-08 2.746552e-07 -8.837457e-08 3.182411e-07 3.500773e-03 3.751628e-03 -3.257372e-04 8.666156e-04 4.723849e-03 -5.871324e-04 2.243232e-04 -5.077833e-03 -4.136956e-03 -6.560450e-04 -4.315032e-03 -2.692462e-03 3.635468e-03 -9.594065e-05 -2.103182e-04 1.351101e-04 -1.660745e-05 -3.384858e-04 -2.177446e-04 -1.438297e-04 1.636923e-04 2.628955e-04 5.659813e-06 2.228582e-04 2.034429e-04 -1.621444e-05
<VARIANCE> 39
 9.634293e+01 5.412502e+01 7.125948e+01 7.240816e+01 7.061290e+01 6.556955e+01 6.711686e+01 5.772457e+01 5.529247e+01 4.097031e+01 3.866037e+01 3.128725e+01 1.108260e+02 4.562119e+00 3.524040e+00 3.336660e+00 4.190866e+00 4.308098e+00 4.198834e+00 4.401053e+00 4.303353e+00 3.944832e+00 3.243082e+00 2.985256e+00 2.440741e+00 5.602357e+00 6.297894e-01 5.834262e-01 5.081020e-01 6.770256e-01 7.052158e-01 7.098505e-01 7.490681e-01 7.594846e-01 6.945500e-01 5.957192e-01 5.417727e-01 4.464096e-01 8.994175e-01
<GCONST> 1.367967e+02
<STATE> 4
<MEAN> 39
 2.192336e-07 -2.630119e-07 1.289736e-07 2.348907e-07 -2.089070e-07 7.988559e-08 1.048760e-07 1.180897e-07 -1.038646e-07 -2.856375e-08 2.746552e-07 -8.837457e-08 3.182411e-07 3.500773e-03 3.751628e-03 -3.257372e-04 8.666156e-04 4.723849e-03 -5.871324e-04 2.243232e-04 -5.077833e-03 -4.136956e-03 -6.560450e-04 -4.315032e-03 -2.692462e-03 3.635468e-03 -9.594065e-05 -2.103182e-04 1.351101e-04 -1.660745e-05 -3.384858e-04 -2.177446e-04 -1.438297e-04 1.636923e-04 2.628955e-04 5.659813e-06 2.228582e-04 2.034429e-04 -1.621444e-05
<VARIANCE> 39
 9.634293e+01 5.412502e+01 7.125948e+01 7.240816e+01 7.061290e+01 6.556955e+01 6.711686e+01 5.772457e+01 5.529247e+01 4.097031e+01 3.866037e+01 3.128725e+01 1.108260e+02 4.562119e+00 3.524040e+00 3.336660e+00 4.190866e+00 4.308098e+00 4.198834e+00 4.401053e+00 4.303353e+00 3.944832e+00 3.243082e+00 2.985256e+00 2.440741e+00 5.602357e+00 6.297894e-01 5.834262e-01 5.081020e-01 6.770256e-01 7.052158e-01 7.098505e-01 7.490681e-01 7.594846e-01 6.945500e-01 5.957192e-01 5.417727e-01 4.464096e-01 8.994175e-01
<GCONST> 1.367967e+02
<TRANSP> 5
 0.000000e+00 1.000000e+00 0.000000e+00 0.000000e+00 0.000000e+00
 0.000000e+00 6.000000e-01 4.000000e-01 0.000000e+00 0.000000e+00
 0.000000e+00 0.000000e+00 6.000000e-01 4.000000e-01 0.000000e+00
 0.000000e+00 0.000000e+00 0.000000e+00 7.000000e-01 3.000000e-01
 0.000000e+00 0.000000e+00 0.000000e+00 0.000000e+00 0.000000e+00
<ENDHMM>
~h "er"
<BEGINHMM>
<NUMSTATES> 5
<STATE> 2
<MEAN> 39
 2.192336e-07 -2.630119e-07 1.289736e-07 2.348907e-07 -2.089070e-07 7.988559e-08 1.048760e-07 1.180897e-07 -1.038646e-07 -2.856375e-08 2.746552e-07 -8.837457e-08 3.182411e-07 3.500773e-03 3.751628e-03 -3.257372e-04 8.666156e-04 4.723849e-03 -5.871324e-04 2.243232e-04 -5.077833e-03 -4.136956e-03 -6.560450e-04 -4.315032e-03 -2.692462e-03 3.635468e-03 -9.594065e-05 -2.103182e-04 1.351101e-04 -1.660745e-05 -3.384858e-04 -2.177446e-04 -1.438297e-04 1.636923e-04 2.628955e-04 5.659813e-06 2.228582e-04 2.034429e-04 -1.621444e-05
<VARIANCE> 39
 9.634293e+01 5.412502e+01 7.125948e+01 7.240816e+01 7.061290e+01 6.556955e+01 6.711686e+01 5.772457e+01 5.529247e+01 4.097031e+01 3.866037e+01 3.128725e+01 1.108260e+02 4.562119e+00 3.524040e+00 3.336660e+00 4.190866e+00 4.308098e+00 4.198834e+00 4.401053e+00 4.303353e+00 3.944832e+00 3.243082e+00 2.985256e+00 2.440741e+00 5.602357e+00 6.297894e-01 5.834262e-01 5.081020e-01 6.770256e-01 7.052158e-01 7.098505e-01 7.490681e-01 7.594846e-01 6.945500e-01 5.957192e-01 5.417727e-01 4.464096e-01 8.994175e-01
<GCONST> 1.367967e+02
<STATE> 3
<MEAN> 39
 2.192336e-07 -2.630119e-07 1.289736e-07 2.348907e-07 -2.089070e-07 7.988559e-08 1.048760e-07 1.180897e-07 -1.038646e-07 -2.856375e-08 2.746552e-07 -8.837457e-08 3.182411e-07 3.500773e-03 3.751628e-03 -3.257372e-04 8.666156e-04 4.723849e-03 -5.871324e-04 2.243232e-04 -5.077833e-03 -4.136956e-03 -6.560450e-04 -4.315032e-03 -2.692462e-03 3.635468e-03 -9.594065e-05 -2.103182e-04 1.351101e-04 -1.660745e-05 -3.384858e-04 -2.177446e-04 -1.438297e-04 1.636923e-04 2.628955e-04 5.659813e-06 2.228582e-04 2.034429e-04 -1.621444e-05
<VARIANCE> 39
 9.634293e+01 5.412502e+01 7.125948e+01 7.240816e+01 7.061290e+01 6.556955e+01 6.711686e+01 5.772457e+01 5.529247e+01 4.097031e+01 3.866037e+01 3.128725e+01 1.108260e+02 4.562119e+00 3.524040e+00 3.336660e+00 4.190866e+00 4.308098e+00 4.198834e+00 4.401053e+00 4.303353e+00 3.944832e+00 3.243082e+00 2.985256e+00 2.440741e+00 5.602357e+00 6.297894e-01 5.834262e-01 5.081020e-01 6.770256e-01 7.052158e-01 7.098505e-01 7.490681e-01 7.594846e-01 6.945500e-01 5.957192e-01 5.417727e-01 4.464096e-01 8.994175e-01
<GCONST> 1.367967e+02
<STATE> 4
<MEAN> 39
 2.192336e-07 -2.630119e-07 1.289736e-07 2.348907e-07 -2.089070e-07 7.988559e-08 1.048760e-07 1.180897e-07 -1.038646e-07 -2.856375e-08 2.746552e-07 -8.837457e-08 3.182411e-07 3.500773e-03 3.751628e-03 -3.257372e-04 8.666156e-04 4.723849e-03 -5.871324e-04 2.243232e-04 -5.077833e-03 -4.136956e-03 -6.560450e-04 -4.315032e-03 -2.692462e-03 3.635468e-03 -9.594065e-05 -2.103182e-04 1.351101e-04 -1.660745e-05 -3.384858e-04 -2.177446e-04 -1.438297e-04 1.636923e-04 2.628955e-04 5.659813e-06 2.228582e-04 2.034429e-04 -1.621444e-05
<VARIANCE> 39
 9.634293e+01 5.412502e+01 7.125948e+01 7.240816e+01 7.061290e+01 6.556955e+01 6.711686e+01 5.772457e+01 5.529247e+01 4.097031e+01 3.866037e+01 3.128725e+01 1.108260e+02 4.562119e+00 3.524040e+00 3.336660e+00 4.190866e+00 4.308098e+00 4.198834e+00 4.401053e+00 4.303353e+00 3.944832e+00 3.243082e+00 2.985256e+00 2.440741e+00 5.602357e+00 6.297894e-01 5.834262e-01 5.081020e-01 6.770256e-01 7.052158e-01 7.098505e-01 7.490681e-01 7.594846e-01 6.945500e-01 5.957192e-01 5.417727e-01 4.464096e-01 8.994175e-01
<GCONST> 1.367967e+02
<TRANSP> 5
 0.000000e+00 1.000000e+00 0.000000e+00 0.000000e+00 0.000000e+00
 0.000000e+00 6.000000e-01 4.000000e-01 0.000000e+00 0.000000e+00
 0.000000e+00 0.000000e+00 6.000000e-01 4.000000e-01 0.000000e+00
 0.000000e+00 0.000000e+00 0.000000e+00 7.000000e-01 3.000000e-01
 0.000000e+00 0.000000e+00 0.000000e+00 0.000000e+00 0.000000e+00
<ENDHMM>
~h "l"
<BEGINHMM>
<NUMSTATES> 5
<STATE> 2
<MEAN> 39
 2.192336e-07 -2.630119e-07 1.289736e-07 2.348907e-07 -2.089070e-07 7.988559e-08 1.048760e-07 1.180897e-07 -1.038646e-07 -2.856375e-08 2.746552e-07 -8.837457e-08 3.182411e-07 3.500773e-03 3.751628e-03 -3.257372e-04 8.666156e-04 4.723849e-03 -5.871324e-04 2.243232e-04 -5.077833e-03 -4.136956e-03 -6.560450e-04 -4.315032e-03 -2.692462e-03 3.635468e-03 -9.594065e-05 -2.103182e-04 1.351101e-04 -1.660745e-05 -3.384858e-04 -2.177446e-04 -1.438297e-04 1.636923e-04 2.628955e-04 5.659813e-06 2.228582e-04 2.034429e-04 -1.621444e-05
<VARIANCE> 39
 9.634293e+01 5.412502e+01 7.125948e+01 7.240816e+01 7.061290e+01 6.556955e+01 6.711686e+01 5.772457e+01 5.529247e+01 4.097031e+01 3.866037e+01 3.128725e+01 1.108260e+02 4.562119e+00 3.524040e+00 3.336660e+00 4.190866e+00 4.308098e+00 4.198834e+00 4.401053e+00 4.303353e+00 3.944832e+00 3.243082e+00 2.985256e+00 2.440741e+00 5.602357e+00 6.297894e-01 5.834262e-01 5.081020e-01 6.770256e-01 7.052158e-01 7.098505e-01 7.490681e-01 7.594846e-01 6.945500e-01 5.957192e-01 5.417727e-01 4.464096e-01 8.994175e-01
<GCONST> 1.367967e+02
<STATE> 3
<MEAN> 39
 2.192336e-07 -2.630119e-07 1.289736e-07 2.348907e-07 -2.089070e-07 7.988559e-08 1.048760e-07 1.180897e-07 -1.038646e-07 -2.856375e-08 2.746552e-07 -8.837457e-08 3.182411e-07 3.500773e-03 3.751628e-03 -3.257372e-04 8.666156e-04 4.723849e-03 -5.871324e-04 2.243232e-04 -5.077833e-03 -4.136956e-03 -6.560450e-04 -4.315032e-03 -2.692462e-03 3.635468e-03 -9.594065e-05 -2.103182e-04 1.351101e-04 -1.660745e-05 -3.384858e-04 -2.177446e-04 -1.438297e-04 1.636923e-04 2.628955e-04 5.659813e-06 2.228582e-04 2.034429e-04 -1.621444e-05
<VARIANCE> 39
 9.634293e+01 5.412502e+01 7.125948e+01 7.240816e+01 7.061290e+01 6.556955e+01 6.711686e+01 5.772457e+01 5.529247e+01 4.097031e+01 3.866037e+01 3.128725e+01 1.108260e+02 4.562119e+00 3.524040e+00 3.336660e+00 4.190866e+00 4.308098e+00 4.198834e+00 4.401053e+00 4.303353e+00 3.944832e+00 3.243082e+00 2.985256e+00 2.440741e+00 5.602357e+00 6.297894e-01 5.834262e-01 5.081020e-01 6.770256e-01 7.052158e-01 7.098505e-01 7.490681e-01 7.594846e-01 6.945500e-01 5.957192e-01 5.417727e-01 4.464096e-01 8.994175e-01
<GCONST> 1.367967e+02
<STATE> 4
<MEAN> 39
 2.192336e-07 -2.630119e-07 1.289736e-07 2.348907e-07 -2.089070e-07 7.988559e-08 1.048760e-07 1.180897e-07 -1.038646e-07 -2.856375e-08 2.746552e-07 -8.837457e-08 3.182411e-07 3.500773e-03 3.751628e-03 -3.257372e-04 8.666156e-04 4.723849e-03 -5.871324e-04 2.243232e-04 -5.077833e-03 -4.136956e-03 -6.560450e-04 -4.315032e-03 -2.692462e-03 3.635468e-03 -9.594065e-05 -2.103182e-04 1.351101e-04 -1.660745e-05 -3.384858e-04 -2.177446e-04 -1.438297e-04 1.636923e-04 2.628955e-04 5.659813e-06 2.228582e-04 2.034429e-04 -1.621444e-05
<VARIANCE> 39
 9.634293e+01 5.412502e+01 7.125948e+01 7.240816e+01 7.061290e+01 6.556955e+01 6.711686e+01 5.772457e+01 5.529247e+01 4.097031e+01 3.866037e+01 3.128725e+01 1.108260e+02 4.562119e+00 3.524040e+00 3.336660e+00 4.190866e+00 4.308098e+00 4.198834e+00 4.401053e+00 4.303353e+00 3.944832e+00 3.243082e+00 2.985256e+00 2.440741e+00 5.602357e+00 6.297894e-01 5.834262e-01 5.081020e-01 6.770256e-01 7.052158e-01 7.098505e-01 7.490681e-01 7.594846e-01 6.945500e-01 5.957192e-01 5.417727e-01 4.464096e-01 8.994175e-01
<GCONST> 1.367967e+02
<TRANSP> 5
 0.000000e+00 1.000000e+00 0.000000e+00 0.000000e+00 0.000000e+00
 0.000000e+00 6.000000e-01 4.000000e-01 0.000000e+00 0.000000e+00
 0.000000e+00 0.000000e+00 6.000000e-01 4.000000e-01 0.000000e+00
 0.000000e+00 0.000000e+00 0.000000e+00 7.000000e-01 3.000000e-01
 0.000000e+00 0.000000e+00 0.000000e+00 0.000000e+00 0.000000e+00
<ENDHMM>
~h "tcl"
<BEGINHMM>
<NUMSTATES> 5
<STATE> 2
<MEAN> 39
 2.192336e-07 -2.630119e-07 1.289736e-07 2.348907e-07 -2.089070e-07 7.988559e-08 1.048760e-07 1.180897e-07 -1.038646e-07 -2.856375e-08 2.746552e-07 -8.837457e-08 3.182411e-07 3.500773e-03 3.751628e-03 -3.257372e-04 8.666156e-04 4.723849e-03 -5.871324e-04 2.243232e-04 -5.077833e-03 -4.136956e-03 -6.560450e-04 -4.315032e-03 -2.692462e-03 3.635468e-03 -9.594065e-05 -2.103182e-04 1.351101e-04 -1.660745e-05 -3.384858e-04 -2.177446e-04 -1.438297e-04 1.636923e-04 2.628955e-04 5.659813e-06 2.228582e-04 2.034429e-04 -1.621444e-05
<VARIANCE> 39
 9.634293e+01 5.412502e+01 7.125948e+01 7.240816e+01 7.061290e+01 6.556955e+01 6.711686e+01 5.772457e+01 5.529247e+01 4.097031e+01 3.866037e+01 3.128725e+01 1.108260e+02 4.562119e+00 3.524040e+00 3.336660e+00 4.190866e+00 4.308098e+00 4.198834e+00 4.401053e+00 4.303353e+00 3.944832e+00 3.243082e+00 2.985256e+00 2.440741e+00 5.602357e+00 6.297894e-01 5.834262e-01 5.081020e-01 6.770256e-01 7.052158e-01 7.098505e-01 7.490681e-01 7.594846e-01 6.945500e-01 5.957192e-01 5.417727e-01 4.464096e-01 8.994175e-01
<GCONST> 1.367967e+02
<STATE> 3
<MEAN> 39
 2.192336e-07 -2.630119e-07 1.289736e-07 2.348907e-07 -2.089070e-07 7.988559e-08 1.048760e-07 1.180897e-07 -1.038646e-07 -2.856375e-08 2.746552e-07 -8.837457e-08 3.182411e-07 3.500773e-03 3.751628e-03 -3.257372e-04 8.666156e-04 4.723849e-03 -5.871324e-04 2.243232e-04 -5.077833e-03 -4.136956e-03 -6.560450e-04 -4.315032e-03 -2.692462e-03 3.635468e-03 -9.594065e-05 -2.103182e-04 1.351101e-04 -1.660745e-05 -3.384858e-04 -2.177446e-04 -1.438297e-04 1.636923e-04 2.628955e-04 5.659813e-06 2.228582e-04 2.034429e-04 -1.621444e-05
<VARIANCE> 39
 9.634293e+01 5.412502e+01 7.125948e+01 7.240816e+01 7.061290e+01 6.556955e+01 6.711686e+01 5.772457e+01 5.529247e+01 4.097031e+01 3.866037e+01 3.128725e+01 1.108260e+02 4.562119e+00 3.524040e+00 3.336660e+00 4.190866e+00 4.308098e+00 4.198834e+00 4.401053e+00 4.303353e+00 3.944832e+00 3.243082e+00 2.985256e+00 2.440741e+00 5.602357e+00 6.297894e-01 5.834262e-01 5.081020e-01 6.770256e-01 7.052158e-01 7.098505e-01 7.490681e-01 7.594846e-01 6.945500e-01 5.957192e-01 5.417727e-01 4.464096e-01 8.994175e-01
<GCONST> 1.367967e+02
<STATE> 4
<MEAN> 39
 2.192336e-07 -2.630119e-07 1.289736e-07 2.348907e-07 -2.089070e-07 7.988559e-08 1.048760e-07 1.180897e-07 -1.038646e-07 -2.856375e-08 2.746552e-07 -8.837457e-08 3.182411e-07 3.500773e-03 3.751628e-03 -3.257372e-04 8.666156e-04 4.723849e-03 -5.871324e-04 2.243232e-04 -5.077833e-03 -4.136956e-03 -6.560450e-04 -4.315032e-03 -2.692462e-03 3.635468e-03 -9.594065e-05 -2.103182e-04 1.351101e-04 -1.660745e-05 -3.384858e-04 -2.177446e-04 -1.438297e-04 1.636923e-04 2.628955e-04 5.659813e-06 2.228582e-04 2.034429e-04 -1.621444e-05
<VARIANCE> 39
 9.634293e+01 5.412502e+01 7.125948e+01 7.240816e+01 7.061290e+01 6.556955e+01 6.711686e+01 5.772457e+01 5.529247e+01 4.097031e+01 3.866037e+01 3.128725e+01 1.108260e+02 4.562119e+00 3.524040e+00 3.336660e+00 4.190866e+00 4.308098e+00 4.198834e+00 4.401053e+00 4.303353e+00 3.944832e+00 3.243082e+00 2.985256e+00 2.440741e+00 5.602357e+00 6.297894e-01 5.834262e-01 5.081020e-01 6.770256e-01 7.052158e-01 7.098505e-01 7.490681e-01 7.594846e-01 6.945500e-01 5.957192e-01 5.417727e-01 4.464096e-01 8.994175e-01
<GCONST> 1.367967e+02
<TRANSP> 5
 0.000000e+00 1.000000e+00 0.000000e+00 0.000000e+00 0.000000e+00
 0.000000e+00 6.000000e-01 4.000000e-01 0.000000e+00 0.000000e+00
 0.000000e+00 0.000000e+00 6.000000e-01 4.000000e-01 0.000000e+00
 0.000000e+00 0.000000e+00 0.000000e+00 7.000000e-01 3.000000e-01
 0.000000e+00 0.000000e+00 0.000000e+00 0.000000e+00 0.000000e+00
<ENDHMM>
~h "t"
<BEGINHMM>
<NUMSTATES> 5
<STATE> 2
<MEAN> 39
 2.192336e-07 -2.630119e-07 1.289736e-07 2.348907e-07 -2.089070e-07 7.988559e-08 1.048760e-07 1.180897e-07 -1.038646e-07 -2.856375e-08 2.746552e-07 -8.837457e-08 3.182411e-07 3.500773e-03 3.751628e-03 -3.257372e-04 8.666156e-04 4.723849e-03 -5.871324e-04 2.243232e-04 -5.077833e-03 -4.136956e-03 -6.560450e-04 -4.315032e-03 -2.692462e-03 3.635468e-03 -9.594065e-05 -2.103182e-04 1.351101e-04 -1.660745e-05 -3.384858e-04 -2.177446e-04 -1.438297e-04 1.636923e-04 2.628955e-04 5.659813e-06 2.228582e-04 2.034429e-04 -1.621444e-05
<VARIANCE> 39
 9.634293e+01 5.412502e+01 7.125948e+01 7.240816e+01 7.061290e+01 6.556955e+01 6.711686e+01 5.772457e+01 5.529247e+01 4.097031e+01 3.866037e+01 3.128725e+01 1.108260e+02 4.562119e+00 3.524040e+00 3.336660e+00 4.190866e+00 4.308098e+00 4.198834e+00 4.401053e+00 4.303353e+00 3.944832e+00 3.243082e+00 2.985256e+00 2.440741e+00 5.602357e+00 6.297894e-01 5.834262e-01 5.081020e-01 6.770256e-01 7.052158e-01 7.098505e-01 7.490681e-01 7.594846e-01 6.945500e-01 5.957192e-01 5.417727e-01 4.464096e-01 8.994175e-01
<GCONST> 1.367967e+02
<STATE> 3
<MEAN> 39
 2.192336e-07 -2.630119e-07 1.289736e-07 2.348907e-07 -2.089070e-07 7.988559e-08 1.048760e-07 1.180897e-07 -1.038646e-07 -2.856375e-08 2.746552e-07 -8.837457e-08 3.182411e-07 3.500773e-03 3.751628e-03 -3.257372e-04 8.666156e-04 4.723849e-03 -5.871324e-04 2.243232e-04 -5.077833e-03 -4.136956e-03 -6.560450e-04 -4.315032e-03 -2.692462e-03 3.635468e-03 -9.594065e-05 -2.103182e-04 1.351101e-04 -1.660745e-05 -3.384858e-04 -2.177446e-04 -1.438297e-04 1.636923e-04 2.628955e-04 5.659813e-06 2.228582e-04 2.034429e-04 -1.621444e-05
<VARIANCE> 39
 9.634293e+01 5.412502e+01 7.125948e+01 7.240816e+01 7.061290e+01 6.556955e+01 6.711686e+01 5.772457e+01 5.529247e+01 4.097031e+01 3.866037e+01 3.128725e+01 1.108260e+02 4.562119e+00 3.524040e+00 3.336660e+00 4.190866e+00 4.308098e+00 4.198834e+00 4.401053e+00 4.303353e+00 3.944832e+00 3.243082e+00 2.985256e+00 2.440741e+00 5.602357e+00 6.297894e-01 5.834262e-01 5.081020e-01 6.770256e-01 7.052158e-01 7.098505e-01 7.490681e-01 7.594846e-01 6.945500e-01 5.957192e-01 5.417727e-01 4.464096e-01 8.994175e-01
<GCONST> 1.367967e+02
<STATE> 4
<MEAN> 39
 2.192336e-07 -2.630119e-07 1.289736e-07 2.348907e-07 -2.089070e-07 7.988559e-08 1.048760e-07 1.180897e-07 -1.038646e-07 -2.856375e-08 2.746552e-07 -8.837457e-08 3.182411e-07 3.500773e-03 3.751628e-03 -3.257372e-04 8.666156e-04 4.723849e-03 -5.871324e-04 2.243232e-04 -5.077833e-03 -4.136956e-03 -6.560450e-04 -4.315032e-03 -2.692462e-03 3.635468e-03 -9.594065e-05 -2.103182e-04 1.351101e-04 -1.660745e-05 -3.384858e-04 -2.177446e-04 -1.438297e-04 1.636923e-04 2.628955e-04 5.659813e-06 2.228582e-04 2.034429e-04 -1.621444e-05
<VARIANCE> 39
 9.634293e+01 5.412502e+01 7.125948e+01 7.240816e+01 7.061290e+01 6.556955e+01 6.711686e+01 5.772457e+01 5.529247e+01 4.097031e+01 3.866037e+01 3.128725e+01 1.108260e+02 4.562119e+00 3.524040e+00 3.336660e+00 4.190866e+00 4.308098e+00 4.198834e+00 4.401053e+00 4.303353e+00 3.944832e+00 3.243082e+00 2.985256e+00 2.440741e+00 5.602357e+00 6.297894e-01 5.834262e-01 5.081020e-01 6.770256e-01 7.052158e-01 7.098505e-01 7.490681e-01 7.594846e-01 6.945500e-01 5.957192e-01 5.417727e-01 4.464096e-01 8.994175e-01
<GCONST> 1.367967e+02
<TRANSP> 5
 0.000000e+00 1.000000e+00 0.000000e+00 0.000000e+00 0.000000e+00
 0.000000e+00 6.000000e-01 4.000000e-01 0.000000e+00 0.000000e+00
 0.000000e+00 0.000000e+00 6.000000e-01 4.000000e-01 0.000000e+00
 0.000000e+00 0.000000e+00 0.000000e+00 7.000000e-01 3.000000e-01
 0.000000e+00 0.000000e+00 0.000000e+00 0.000000e+00 0.000000e+00
<ENDHMM>
~h "uh"
<BEGINHMM>
<NUMSTATES> 5
<STATE> 2
<MEAN> 39
 2.192336e-07 -2.630119e-07 1.289736e-07 2.348907e-07 -2.089070e-07 7.988559e-08 1.048760e-07 1.180897e-07 -1.038646e-07 -2.856375e-08 2.746552e-07 -8.837457e-08 3.182411e-07 3.500773e-03 3.751628e-03 -3.257372e-04 8.666156e-04 4.723849e-03 -5.871324e-04 2.243232e-04 -5.077833e-03 -4.136956e-03 -6.560450e-04 -4.315032e-03 -2.692462e-03 3.635468e-03 -9.594065e-05 -2.103182e-04 1.351101e-04 -1.660745e-05 -3.384858e-04 -2.177446e-04 -1.438297e-04 1.636923e-04 2.628955e-04 5.659813e-06 2.228582e-04 2.034429e-04 -1.621444e-05
<VARIANCE> 39
 9.634293e+01 5.412502e+01 7.125948e+01 7.240816e+01 7.061290e+01 6.556955e+01 6.711686e+01 5.772457e+01 5.529247e+01 4.097031e+01 3.866037e+01 3.128725e+01 1.108260e+02 4.562119e+00 3.524040e+00 3.336660e+00 4.190866e+00 4.308098e+00 4.198834e+00 4.401053e+00 4.303353e+00 3.944832e+00 3.243082e+00 2.985256e+00 2.440741e+00 5.602357e+00 6.297894e-01 5.834262e-01 5.081020e-01 6.770256e-01 7.052158e-01 7.098505e-01 7.490681e-01 7.594846e-01 6.945500e-01 5.957192e-01 5.417727e-01 4.464096e-01 8.994175e-01
<GCONST> 1.367967e+02
<STATE> 3
<MEAN> 39
 2.192336e-07 -2.630119e-07 1.289736e-07 2.348907e-07 -2.089070e-07 7.988559e-08 1.048760e-07 1.180897e-07 -1.038646e-07 -2.856375e-08 2.746552e-07 -8.837457e-08 3.182411e-07 3.500773e-03 3.751628e-03 -3.257372e-04 8.666156e-04 4.723849e-03 -5.871324e-04 2.243232e-04 -5.077833e-03 -4.136956e-03 -6.560450e-04 -4.315032e-03 -2.692462e-03 3.635468e-03 -9.594065e-05 -2.103182e-04 1.351101e-04 -1.660745e-05 -3.384858e-04 -2.177446e-04 -1.438297e-04 1.636923e-04 2.628955e-04 5.659813e-06 2.228582e-04 2.034429e-04 -1.621444e-05
<VARIANCE> 39
 9.634293e+01 5.412502e+01 7.125948e+01 7.240816e+01 7.061290e+01 6.556955e+01 6.711686e+01 5.772457e+01 5.529247e+01 4.097031e+01 3.866037e+01 3.128725e+01 1.108260e+02 4.562119e+00 3.524040e+00 3.336660e+00 4.190866e+00 4.308098e+00 4.198834e+00 4.401053e+00 4.303353e+00 3.944832e+00 3.243082e+00 2.985256e+00 2.440741e+00 5.602357e+00 6.297894e-01 5.834262e-01 5.081020e-01 6.770256e-01 7.052158e-01 7.098505e-01 7.490681e-01 7.594846e-01 6.945500e-01 5.957192e-01 5.417727e-01 4.464096e-01 8.994175e-01
<GCONST> 1.367967e+02
<STATE> 4
<MEAN> 39
 2.192336e-07 -2.630119e-07 1.289736e-07 2.348907e-07 -2.089070e-07 7.988559e-08 1.048760e-07 1.180897e-07 -1.038646e-07 -2.856375e-08 2.746552e-07 -8.837457e-08 3.182411e-07 3.500773e-03 3.751628e-03 -3.257372e-04 8.666156e-04 4.723849e-03 -5.871324e-04 2.243232e-04 -5.077833e-03 -4.136956e-03 -6.560450e-04 -4.315032e-03 -2.692462e-03 3.635468e-03 -9.594065e-05 -2.103182e-04 1.351101e-04 -1.660745e-05 -3.384858e-04 -2.177446e-04 -1.438297e-04 1.636923e-04 2.628955e-04 5.659813e-06 2.228582e-04 2.034429e-04 -1.621444e-05
<VARIANCE> 39
 9.634293e+01 5.412502e+01 7.125948e+01 7.240816e+01 7.061290e+01 6.556955e+01 6.711686e+01 5.772457e+01 5.529247e+01 4.097031e+01 3.866037e+01 3.128725e+01 1.108260e+02 4.562119e+00 3.524040e+00 3.336660e+00 4.190866e+00 4.308098e+00 4.198834e+00 4.401053e+00 4.303353e+00 3.944832e+00 3.243082e+00 2.985256e+00 2.440741e+00 5.602357e+00 6.297894e-01 5.834262e-01 5.081020e-01 6.770256e-01 7.052158e-01 7.098505e-01 7.490681e-01 7.594846e-01 6.945500e-01 5.957192e-01 5.417727e-01 4.464096e-01 8.994175e-01
<GCONST> 1.367967e+02
<TRANSP> 5
 0.000000e+00 1.000000e+00 0.000000e+00 0.000000e+00 0.000000e+00
 0.000000e+00 6.000000e-01 4.000000e-01 0.000000e+00 0.000000e+00
 0.000000e+00 0.000000e+00 6.000000e-01 4.000000e-01 0.000000e+00
 0.000000e+00 0.000000e+00 0.000000e+00 7.000000e-01 3.000000e-01
 0.000000e+00 0.000000e+00 0.000000e+00 0.000000e+00 0.000000e+00
<ENDHMM>
~h "kcl"
<BEGINHMM>
<NUMSTATES> 5
<STATE> 2
<MEAN> 39
 2.192336e-07 -2.630119e-07 1.289736e-07 2.348907e-07 -2.089070e-07 7.988559e-08 1.048760e-07 1.180897e-07 -1.038646e-07 -2.856375e-08 2.746552e-07 -8.837457e-08 3.182411e-07 3.500773e-03 3.751628e-03 -3.257372e-04 8.666156e-04 4.723849e-03 -5.871324e-04 2.243232e-04 -5.077833e-03 -4.136956e-03 -6.560450e-04 -4.315032e-03 -2.692462e-03 3.635468e-03 -9.594065e-05 -2.103182e-04 1.351101e-04 -1.660745e-05 -3.384858e-04 -2.177446e-04 -1.438297e-04 1.636923e-04 2.628955e-04 5.659813e-06 2.228582e-04 2.034429e-04 -1.621444e-05
<VARIANCE> 39
 9.634293e+01 5.412502e+01 7.125948e+01 7.240816e+01 7.061290e+01 6.556955e+01 6.711686e+01 5.772457e+01 5.529247e+01 4.097031e+01 3.866037e+01 3.128725e+01 1.108260e+02 4.562119e+00 3.524040e+00 3.336660e+00 4.190866e+00 4.308098e+00 4.198834e+00 4.401053e+00 4.303353e+00 3.944832e+00 3.243082e+00 2.985256e+00 2.440741e+00 5.602357e+00 6.297894e-01 5.834262e-01 5.081020e-01 6.770256e-01 7.052158e-01 7.098505e-01 7.490681e-01 7.594846e-01 6.945500e-01 5.957192e-01 5.417727e-01 4.464096e-01 8.994175e-01
<GCONST> 1.367967e+02
<STATE> 3
<MEAN> 39
 2.192336e-07 -2.630119e-07 1.289736e-07 2.348907e-07 -2.089070e-07 7.988559e-08 1.048760e-07 1.180897e-07 -1.038646e-07 -2.856375e-08 2.746552e-07 -8.837457e-08 3.182411e-07 3.500773e-03 3.751628e-03 -3.257372e-04 8.666156e-04 4.723849e-03 -5.871324e-04 2.243232e-04 -5.077833e-03 -4.136956e-03 -6.560450e-04 -4.315032e-03 -2.692462e-03 3.635468e-03 -9.594065e-05 -2.103182e-04 1.351101e-04 -1.660745e-05 -3.384858e-04 -2.177446e-04 -1.438297e-04 1.636923e-04 2.628955e-04 5.659813e-06 2.228582e-04 2.034429e-04 -1.621444e-05
<VARIANCE> 39
 9.634293e+01 5.412502e+01 7.125948e+01 7.240816e+01 7.061290e+01 6.556955e+01 6.711686e+01 5.772457e+01 5.529247e+01 4.097031e+01 3.866037e+01 3.128725e+01 1.108260e+02 4.562119e+00 3.524040e+00 3.336660e+00 4.190866e+00 4.308098e+00 4.198834e+00 4.401053e+00 4.303353e+00 3.944832e+00 3.243082e+00 2.985256e+00 2.440741e+00 5.602357e+00 6.297894e-01 5.834262e-01 5.081020e-01 6.770256e-01 7.052158e-01 7.098505e-01 7.490681e-01 7.594846e-01 6.945500e-01 5.957192e-01 5.417727e-01 4.464096e-01 8.994175e-01
<GCONST> 1.367967e+02
<STATE> 4
<MEAN> 39
 2.192336e-07 -2.630119e-07 1.289736e-07 2.348907e-07 -2.089070e-07 7.988559e-08 1.048760e-07 1.180897e-07 -1.038646e-07 -2.856375e-08 2.746552e-07 -8.837457e-08 3.182411e-07 3.500773e-03 3.751628e-03 -3.257372e-04 8.666156e-04 4.723849e-03 -5.871324e-04 2.243232e-04 -5.077833e-03 -4.136956e-03 -6.560450e-04 -4.315032e-03 -2.692462e-03 3.635468e-03 -9.594065e-05 -2.103182e-04 1.351101e-04 -1.660745e-05 -3.384858e-04 -2.177446e-04 -1.438297e-04 1.636923e-04 2.628955e-04 5.659813e-06 2.228582e-04 2.034429e-04 -1.621444e-05
<VARIANCE> 39
 9.634293e+01 5.412502e+01 7.125948e+01 7.240816e+01 7.061290e+01 6.556955e+01 6.711686e+01 5.772457e+01 5.529247e+01 4.097031e+01 3.866037e+01 3.128725e+01 1.108260e+02 4.562119e+00 3.524040e+00 3.336660e+00 4.190866e+00 4.308098e+00 4.198834e+00 4.401053e+00 4.303353e+00 3.944832e+00 3.243082e+00 2.985256e+00 2.440741e+00 5.602357e+00 6.297894e-01 5.834262e-01 5.081020e-01 6.770256e-01 7.052158e-01 7.098505e-01 7.490681e-01 7.594846e-01 6.945500e-01 5.957192e-01 5.417727e-01 4.464096e-01 8.994175e-01
<GCONST> 1.367967e+02
<TRANSP> 5
 0.000000e+00 1.000000e+00 0.000000e+00 0.000000e+00 0.000000e+00
 0.000000e+00 6.000000e-01 4.000000e-01 0.000000e+00 0.000000e+00
 0.000000e+00 0.000000e+00 6.000000e-01 4.000000e-01 0.000000e+00
 0.000000e+00 0.000000e+00 0.000000e+00 7.000000e-01 3.000000e-01
 0.000000e+00 0.000000e+00 0.000000e+00 0.000000e+00 0.000000e+00
<ENDHMM>
~h "k"
<BEGINHMM>
<NUMSTATES> 5
<STATE> 2
<MEAN> 39
 2.192336e-07 -2.630119e-07 1.289736e-07 2.348907e-07 -2.089070e-07 7.988559e-08 1.048760e-07 1.180897e-07 -1.038646e-07 -2.856375e-08 2.746552e-07 -8.837457e-08 3.182411e-07 3.500773e-03 3.751628e-03 -3.257372e-04 8.666156e-04 4.723849e-03 -5.871324e-04 2.243232e-04 -5.077833e-03 -4.136956e-03 -6.560450e-04 -4.315032e-03 -2.692462e-03 3.635468e-03 -9.594065e-05 -2.103182e-04 1.351101e-04 -1.660745e-05 -3.384858e-04 -2.177446e-04 -1.438297e-04 1.636923e-04 2.628955e-04 5.659813e-06 2.228582e-04 2.034429e-04 -1.621444e-05
<VARIANCE> 39
 9.634293e+01 5.412502e+01 7.125948e+01 7.240816e+01 7.061290e+01 6.556955e+01 6.711686e+01 5.772457e+01 5.529247e+01 4.097031e+01 3.866037e+01 3.128725e+01 1.108260e+02 4.562119e+00 3.524040e+00 3.336660e+00 4.190866e+00 4.308098e+00 4.198834e+00 4.401053e+00 4.303353e+00 3.944832e+00 3.243082e+00 2.985256e+00 2.440741e+00 5.602357e+00 6.297894e-01 5.834262e-01 5.081020e-01 6.770256e-01 7.052158e-01 7.098505e-01 7.490681e-01 7.594846e-01 6.945500e-01 5.957192e-01 5.417727e-01 4.464096e-01 8.994175e-01
<GCONST> 1.367967e+02
<STATE> 3
<MEAN> 39
 2.192336e-07 -2.630119e-07 1.289736e-07 2.348907e-07 -2.089070e-07 7.988559e-08 1.048760e-07 1.180897e-07 -1.038646e-07 -2.856375e-08 2.746552e-07 -8.837457e-08 3.182411e-07 3.500773e-03 3.751628e-03 -3.257372e-04 8.666156e-04 4.723849e-03 -5.871324e-04 2.243232e-04 -5.077833e-03 -4.136956e-03 -6.560450e-04 -4.315032e-03 -2.692462e-03 3.635468e-03 -9.594065e-05 -2.103182e-04 1.351101e-04 -1.660745e-05 -3.384858e-04 -2.177446e-04 -1.438297e-04 1.636923e-04 2.628955e-04 5.659813e-06 2.228582e-04 2.034429e-04 -1.621444e-05
<VARIANCE> 39
 9.634293e+01 5.412502e+01 7.125948e+01 7.240816e+01 7.061290e+01 6.556955e+01 6.711686e+01 5.772457e+01 5.529247e+01 4.097031e+01 3.866037e+01 3.128725e+01 1.108260e+02 4.562119e+00 3.524040e+00 3.336660e+00 4.190866e+00 4.308098e+00 4.198834e+00 4.401053e+00 4.303353e+00 3.944832e+00 3.243082e+00 2.985256e+00 2.440741e+00 5.602357e+00 6.297894e-01 5.834262e-01 5.081020e-01 6.770256e-01 7.052158e-01 7.098505e-01 7.490681e-01 7.594846e-01 6.945500e-01 5.957192e-01 5.417727e-01 4.464096e-01 8.994175e-01
<GCONST> 1.367967e+02
<STATE> 4
<MEAN> 39
 2.192336e-07 -2.630119e-07 1.289736e-07 2.348907e-07 -2.089070e-07 7.988559e-08 1.048760e-07 1.180897e-07 -1.038646e-07 -2.856375e-08 2.746552e-07 -8.837457e-08 3.182411e-07 3.500773e-03 3.751628e-03 -3.257372e-04 8.666156e-04 4.723849e-03 -5.871324e-04 2.243232e-04 -5.077833e-03 -4.136956e-03 -6.560450e-04 -4.315032e-03 -2.692462e-03 3.635468e-03 -9.594065e-05 -2.103182e-04 1.351101e-04 -1.660745e-05 -3.384858e-04 -2.177446e-04 -1.438297e-04 1.636923e-04 2.628955e-04 5.659813e-06 2.228582e-04 2.034429e-04 -1.621444e-05
<VARIANCE> 39
 9.634293e+01 5.412502e+01 7.125948e+01 7.240816e+01 7.061290e+01 6.556955e+01 6.711686e+01 5.772457e+01 5.529247e+01 4.097031e+01 3.866037e+01 3.128725e+01 1.108260e+02 4.562119e+00 3.524040e+00 3.336660e+00 4.190866e+00 4.308098e+00 4.198834e+00 4.401053e+00 4.303353e+00 3.944832e+00 3.243082e+00 2.985256e+00 2.440741e+00 5.602357e+00 6.297894e-01 5.834262e-01 5.081020e-01 6.770256e-01 7.052158e-01 7.098505e-01 7.490681e-01 7.594846e-01 6.945500e-01 5.957192e-01 5.417727e-01 4.464096e-01 8.994175e-01
<GCONST> 1.367967e+02
<TRANSP> 5
 0.000000e+00 1.000000e+00 0.000000e+00 0.000000e+00 0.000000e+00
 0.000000e+00 6.000000e-01 4.000000e-01 0.000000e+00 0.000000e+00
 0.000000e+00 0.000000e+00 6.000000e-01 4.000000e-01 0.000000e+00
 0.000000e+00 0.000000e+00 0.000000e+00 7.000000e-01 3.000000e-01
 0.000000e+00 0.000000e+00 0.000000e+00 0.000000e+00 0.000000e+00
<ENDHMM>
~h "dcl"
<BEGINHMM>
<NUMSTATES> 5
<STATE> 2
<MEAN> 39
 2.192336e-07 -2.630119e-07 1.289736e-07 2.348907e-07 -2.089070e-07 7.988559e-08 1.048760e-07 1.180897e-07 -1.038646e-07 -2.856375e-08 2.746552e-07 -8.837457e-08 3.182411e-07 3.500773e-03 3.751628e-03 -3.257372e-04 8.666156e-04 4.723849e-03 -5.871324e-04 2.243232e-04 -5.077833e-03 -4.136956e-03 -6.560450e-04 -4.315032e-03 -2.692462e-03 3.635468e-03 -9.594065e-05 -2.103182e-04 1.351101e-04 -1.660745e-05 -3.384858e-04 -2.177446e-04 -1.438297e-04 1.636923e-04 2.628955e-04 5.659813e-06 2.228582e-04 2.034429e-04 -1.621444e-05
<VARIANCE> 39
 9.634293e+01 5.412502e+01 7.125948e+01 7.240816e+01 7.061290e+01 6.556955e+01 6.711686e+01 5.772457e+01 5.529247e+01 4.097031e+01 3.866037e+01 3.128725e+01 1.108260e+02 4.562119e+00 3.524040e+00 3.336660e+00 4.190866e+00 4.308098e+00 4.198834e+00 4.401053e+00 4.303353e+00 3.944832e+00 3.243082e+00 2.985256e+00 2.440741e+00 5.602357e+00 6.297894e-01 5.834262e-01 5.081020e-01 6.770256e-01 7.052158e-01 7.098505e-01 7.490681e-01 7.594846e-01 6.945500e-01 5.957192e-01 5.417727e-01 4.464096e-01 8.994175e-01
<GCONST> 1.367967e+02
<STATE> 3
<MEAN> 39
 2.192336e-07 -2.630119e-07 1.289736e-07 2.348907e-07 -2.089070e-07 7.988559e-08 1.048760e-07 1.180897e-07 -1.038646e-07 -2.856375e-08 2.746552e-07 -8.837457e-08 3.182411e-07 3.500773e-03 3.751628e-03 -3.257372e-04 8.666156e-04 4.723849e-03 -5.871324e-04 2.243232e-04 -5.077833e-03 -4.136956e-03 -6.560450e-04 -4.315032e-03 -2.692462e-03 3.635468e-03 -9.594065e-05 -2.103182e-04 1.351101e-04 -1.660745e-05 -3.384858e-04 -2.177446e-04 -1.438297e-04 1.636923e-04 2.628955e-04 5.659813e-06 2.228582e-04 2.034429e-04 -1.621444e-05
<VARIANCE> 39
 9.634293e+01 5.412502e+01 7.125948e+01 7.240816e+01 7.061290e+01 6.556955e+01 6.711686e+01 5.772457e+01 5.529247e+01 4.097031e+01 3.866037e+01 3.128725e+01 1.108260e+02 4.562119e+00 3.524040e+00 3.336660e+00 4.190866e+00 4.308098e+00 4.198834e+00 4.401053e+00 4.303353e+00 3.944832e+00 3.243082e+00 2.985256e+00 2.440741e+00 5.602357e+00 6.297894e-01 5.834262e-01 5.081020e-01 6.770256e-01 7.052158e-01 7.098505e-01 7.490681e-01 7.594846e-01 6.945500e-01 5.957192e-01 5.417727e-01 4.464096e-01 8.994175e-01
<GCONST> 1.367967e+02
<STATE> 4
<MEAN> 39
 2.192336e-07 -2.630119e-07 1.289736e-07 2.348907e-07 -2.089070e-07 7.988559e-08 1.048760e-07 1.180897e-07 -1.038646e-07 -2.856375e-08 2.746552e-07 -8.837457e-08 3.182411e-07 3.500773e-03 3.751628e-03 -3.257372e-04 8.666156e-04 4.723849e-03 -5.871324e-04 2.243232e-04 -5.077833e-03 -4.136956e-03 -6.560450e-04 -4.315032e-03 -2.692462e-03 3.635468e-03 -9.594065e-05 -2.103182e-04 1.351101e-04 -1.660745e-05 -3.384858e-04 -2.177446e-04 -1.438297e-04 1.636923e-04 2.628955e-04 5.659813e-06 2.228582e-04 2.034429e-04 -1.621444e-05
<VARIANCE> 39
 9.634293e+01 5.412502e+01 7.125948e+01 7.240816e+01 7.061290e+01 6.556955e+01 6.711686e+01 5.772457e+01 5.529247e+01 4.097031e+01 3.866037e+01 3.128725e+01 1.108260e+02 4.562119e+00 3.524040e+00 3.336660e+00 4.190866e+00 4.308098e+00 4.198834e+00 4.401053e+00 4.303353e+00 3.944832e+00 3.243082e+00 2.985256e+00 2.440741e+00 5.602357e+00 6.297894e-01 5.834262e-01 5.081020e-01 6.770256e-01 7.052158e-01 7.098505e-01 7.490681e-01 7.594846e-01 6.945500e-01 5.957192e-01 5.417727e-01 4.464096e-01 8.994175e-01
<GCONST> 1.367967e+02
<TRANSP> 5
 0.000000e+00 1.000000e+00 0.000000e+00 0.000000e+00 0.000000e+00
 0.000000e+00 6.000000e-01 4.000000e-01 0.000000e+00 0.000000e+00
 0.000000e+00 0.000000e+00 6.000000e-01 4.000000e-01 0.000000e+00
 0.000000e+00 0.000000e+00 0.000000e+00 7.000000e-01 3.000000e-01
 0.000000e+00 0.000000e+00 0.000000e+00 0.000000e+00 0.000000e+00
<ENDHMM>
~h "ae"
<BEGINHMM>
<NUMSTATES> 5
<STATE> 2
<MEAN> 39
 2.192336e-07 -2.630119e-07 1.289736e-07 2.348907e-07 -2.089070e-07 7.988559e-08 1.048760e-07 1.180897e-07 -1.038646e-07 -2.856375e-08 2.746552e-07 -8.837457e-08 3.182411e-07 3.500773e-03 3.751628e-03 -3.257372e-04 8.666156e-04 4.723849e-03 -5.871324e-04 2.243232e-04 -5.077833e-03 -4.136956e-03 -6.560450e-04 -4.315032e-03 -2.692462e-03 3.635468e-03 -9.594065e-05 -2.103182e-04 1.351101e-04 -1.660745e-05 -3.384858e-04 -2.177446e-04 -1.438297e-04 1.636923e-04 2.628955e-04 5.659813e-06 2.228582e-04 2.034429e-04 -1.621444e-05
<VARIANCE> 39
 9.634293e+01 5.412502e+01 7.125948e+01 7.240816e+01 7.061290e+01 6.556955e+01 6.711686e+01 5.772457e+01 5.529247e+01 4.097031e+01 3.866037e+01 3.128725e+01 1.108260e+02 4.562119e+00 3.524040e+00 3.336660e+00 4.190866e+00 4.308098e+00 4.198834e+00 4.401053e+00 4.303353e+00 3.944832e+00 3.243082e+00 2.985256e+00 2.440741e+00 5.602357e+00 6.297894e-01 5.834262e-01 5.081020e-01 6.770256e-01 7.052158e-01 7.098505e-01 7.490681e-01 7.594846e-01 6.945500e-01 5.957192e-01 5.417727e-01 4.464096e-01 8.994175e-01
<GCONST> 1.367967e+02
<STATE> 3
<MEAN> 39
 2.192336e-07 -2.630119e-07 1.289736e-07 2.348907e-07 -2.089070e-07 7.988559e-08 1.048760e-07 1.180897e-07 -1.038646e-07 -2.856375e-08 2.746552e-07 -8.837457e-08 3.182411e-07 3.500773e-03 3.751628e-03 -3.257372e-04 8.666156e-04 4.723849e-03 -5.871324e-04 2.243232e-04 -5.077833e-03 -4.136956e-03 -6.560450e-04 -4.315032e-03 -2.692462e-03 3.635468e-03 -9.594065e-05 -2.103182e-04 1.351101e-04 -1.660745e-05 -3.384858e-04 -2.177446e-04 -1.438297e-04 1.636923e-04 2.628955e-04 5.659813e-06 2.228582e-04 2.034429e-04 -1.621444e-05
<VARIANCE> 39
 9.634293e+01 5.412502e+01 7.125948e+01 7.240816e+01 7.061290e+01 6.556955e+01 6.711686e+01 5.772457e+01 5.529247e+01 4.097031e+01 3.866037e+01 3.128725e+01 1.108260e+02 4.562119e+00 3.524040e+00 3.336660e+00 4.190866e+00 4.308098e+00 4.198834e+00 4.401053e+00 4.303353e+00 3.944832e+00 3.243082e+00 2.985256e+00 2.440741e+00 5.602357e+00 6.297894e-01 5.834262e-01 5.081020e-01 6.770256e-01 7.052158e-01 7.098505e-01 7.490681e-01 7.594846e-01 6.945500e-01 5.957192e-01 5.417727e-01 4.464096e-01 8.994175e-01
<GCONST> 1.367967e+02
<STATE> 4
<MEAN> 39
 2.192336e-07 -2.630119e-07 1.289736e-07 2.348907e-07 -2.089070e-07 7.988559e-08 1.048760e-07 1.180897e-07 -1.038646e-07 -2.856375e-08 2.746552e-07 -8.837457e-08 3.182411e-07 3.500773e-03 3.751628e-03 -3.257372e-04 8.666156e-04 4.723849e-03 -5.871324e-04 2.243232e-04 -5.077833e-03 -4.136956e-03 -6.560450e-04 -4.315032e-03 -2.692462e-03 3.635468e-03 -9.594065e-05 -2.103182e-04 1.351101e-04 -1.660745e-05 -3.384858e-04 -2.177446e-04 -1.438297e-04 1.636923e-04 2.628955e-04 5.659813e-06 2.228582e-04 2.034429e-04 -1.621444e-05
<VARIANCE> 39
 9.634293e+01 5.412502e+01 7.125948e+01 7.240816e+01 7.061290e+01 6.556955e+01 6.711686e+01 5.772457e+01 5.529247e+01 4.097031e+01 3.866037e+01 3.128725e+01 1.108260e+02 4.562119e+00 3.524040e+00 3.336660e+00 4.190866e+00 4.308098e+00 4.198834e+00 4.401053e+00 4.303353e+00 3.944832e+00 3.243082e+00 2.985256e+00 2.440741e+00 5.602357e+00 6.297894e-01 5.834262e-01 5.081020e-01 6.770256e-01 7.052158e-01 7.098505e-01 7.490681e-01 7.594846e-01 6.945500e-01 5.957192e-01 5.417727e-01 4.464096e-01 8.994175e-01
<GCONST> 1.367967e+02
<TRANSP> 5
 0.000000e+00 1.000000e+00 0.000000e+00 0.000000e+00 0.000000e+00
 0.000000e+00 6.000000e-01 4.000000e-01 0.000000e+00 0.000000e+00
 0.000000e+00 0.000000e+00 6.000000e-01 4.000000e-01 0.000000e+00
 0.000000e+00 0.000000e+00 0.000000e+00 7.000000e-01 3.000000e-01
 0.000000e+00 0.000000e+00 0.000000e+00 0.000000e+00 0.000000e+00
<ENDHMM>
~h "nx"
<BEGINHMM>
<NUMSTATES> 5
<STATE> 2
<MEAN> 39
 2.192336e-07 -2.630119e-07 1.289736e-07 2.348907e-07 -2.089070e-07 7.988559e-08 1.048760e-07 1.180897e-07 -1.038646e-07 -2.856375e-08 2.746552e-07 -8.837457e-08 3.182411e-07 3.500773e-03 3.751628e-03 -3.257372e-04 8.666156e-04 4.723849e-03 -5.871324e-04 2.243232e-04 -5.077833e-03 -4.136956e-03 -6.560450e-04 -4.315032e-03 -2.692462e-03 3.635468e-03 -9.594065e-05 -2.103182e-04 1.351101e-04 -1.660745e-05 -3.384858e-04 -2.177446e-04 -1.438297e-04 1.636923e-04 2.628955e-04 5.659813e-06 2.228582e-04 2.034429e-04 -1.621444e-05
<VARIANCE> 39
 9.634293e+01 5.412502e+01 7.125948e+01 7.240816e+01 7.061290e+01 6.556955e+01 6.711686e+01 5.772457e+01 5.529247e+01 4.097031e+01 3.866037e+01 3.128725e+01 1.108260e+02 4.562119e+00 3.524040e+00 3.336660e+00 4.190866e+00 4.308098e+00 4.198834e+00 4.401053e+00 4.303353e+00 3.944832e+00 3.243082e+00 2.985256e+00 2.440741e+00 5.602357e+00 6.297894e-01 5.834262e-01 5.081020e-01 6.770256e-01 7.052158e-01 7.098505e-01 7.490681e-01 7.594846e-01 6.945500e-01 5.957192e-01 5.417727e-01 4.464096e-01 8.994175e-01
<GCONST> 1.367967e+02
<STATE> 3
<MEAN> 39
 2.192336e-07 -2.630119e-07 1.289736e-07 2.348907e-07 -2.089070e-07 7.988559e-08 1.048760e-07 1.180897e-07 -1.038646e-07 -2.856375e-08 2.746552e-07 -8.837457e-08 3.182411e-07 3.500773e-03 3.751628e-03 -3.257372e-04 8.666156e-04 4.723849e-03 -5.871324e-04 2.243232e-04 -5.077833e-03 -4.136956e-03 -6.560450e-04 -4.315032e-03 -2.692462e-03 3.635468e-03 -9.594065e-05 -2.103182e-04 1.351101e-04 -1.660745e-05 -3.384858e-04 -2.177446e-04 -1.438297e-04 1.636923e-04 2.628955e-04 5.659813e-06 2.228582e-04 2.034429e-04 -1.621444e-05
<VARIANCE> 39
 9.634293e+01 5.412502e+01 7.125948e+01 7.240816e+01 7.061290e+01 6.556955e+01 6.711686e+01 5.772457e+01 5.529247e+01 4.097031e+01 3.866037e+01 3.128725e+01 1.108260e+02 4.562119e+00 3.524040e+00 3.336660e+00 4.190866e+00 4.308098e+00 4.198834e+00 4.401053e+00 4.303353e+00 3.944832e+00 3.243082e+00 2.985256e+00 2.440741e+00 5.602357e+00 6.297894e-01 5.834262e-01 5.081020e-01 6.770256e-01 7.052158e-01 7.098505e-01 7.490681e-01 7.594846e-01 6.945500e-01 5.957192e-01 5.417727e-01 4.464096e-01 8.994175e-01
<GCONST> 1.367967e+02
<STATE> 4
<MEAN> 39
 2.192336e-07 -2.630119e-07 1.289736e-07 2.348907e-07 -2.089070e-07 7.988559e-08 1.048760e-07 1.180897e-07 -1.038646e-07 -2.856375e-08 2.746552e-07 -8.837457e-08 3.182411e-07 3.500773e-03 3.751628e-03 -3.257372e-04 8.666156e-04 4.723849e-03 -5.871324e-04 2.243232e-04 -5.077833e-03 -4.136956e-03 -6.560450e-04 -4.315032e-03 -2.692462e-03 3.635468e-03 -9.594065e-05 -2.103182e-04 1.351101e-04 -1.660745e-05 -3.384858e-04 -2.177446e-04 -1.438297e-04 1.636923e-04 2.628955e-04 5.659813e-06 2.228582e-04 2.034429e-04 -1.621444e-05
<VARIANCE> 39
 9.634293e+01 5.412502e+01 7.125948e+01 7.240816e+01 7.061290e+01 6.556955e+01 6.711686e+01 5.772457e+01 5.529247e+01 4.097031e+01 3.866037e+01 3.128725e+01 1.108260e+02 4.562119e+00 3.524040e+00 3.336660e+00 4.190866e+00 4.308098e+00 4.198834e+00 4.401053e+00 4.303353e+00 3.944832e+00 3.243082e+00 2.985256e+00 2.440741e+00 5.602357e+00 6.297894e-01 5.834262e-01 5.081020e-01 6.770256e-01 7.052158e-01 7.098505e-01 7.490681e-01 7.594846e-01 6.945500e-01 5.957192e-01 5.417727e-01 4.464096e-01 8.994175e-01
<GCONST> 1.367967e+02
<TRANSP> 5
 0.000000e+00 1.000000e+00 0.000000e+00 0.000000e+00 0.000000e+00
 0.000000e+00 6.000000e-01 4.000000e-01 0.000000e+00 0.000000e+00
 0.000000e+00 0.000000e+00 6.000000e-01 4.000000e-01 0.000000e+00
 0.000000e+00 0.000000e+00 0.000000e+00 7.000000e-01 3.000000e-01
 0.000000e+00 0.000000e+00 0.000000e+00 0.000000e+00 0.000000e+00
<ENDHMM>
~h "jh"
<BEGINHMM>
<NUMSTATES> 5
<STATE> 2
<MEAN> 39
 2.192336e-07 -2.630119e-07 1.289736e-07 2.348907e-07 -2.089070e-07 7.988559e-08 1.048760e-07 1.180897e-07 -1.038646e-07 -2.856375e-08 2.746552e-07 -8.837457e-08 3.182411e-07 3.500773e-03 3.751628e-03 -3.257372e-04 8.666156e-04 4.723849e-03 -5.871324e-04 2.243232e-04 -5.077833e-03 -4.136956e-03 -6.560450e-04 -4.315032e-03 -2.692462e-03 3.635468e-03 -9.594065e-05 -2.103182e-04 1.351101e-04 -1.660745e-05 -3.384858e-04 -2.177446e-04 -1.438297e-04 1.636923e-04 2.628955e-04 5.659813e-06 2.228582e-04 2.034429e-04 -1.621444e-05
<VARIANCE> 39
 9.634293e+01 5.412502e+01 7.125948e+01 7.240816e+01 7.061290e+01 6.556955e+01 6.711686e+01 5.772457e+01 5.529247e+01 4.097031e+01 3.866037e+01 3.128725e+01 1.108260e+02 4.562119e+00 3.524040e+00 3.336660e+00 4.190866e+00 4.308098e+00 4.198834e+00 4.401053e+00 4.303353e+00 3.944832e+00 3.243082e+00 2.985256e+00 2.440741e+00 5.602357e+00 6.297894e-01 5.834262e-01 5.081020e-01 6.770256e-01 7.052158e-01 7.098505e-01 7.490681e-01 7.594846e-01 6.945500e-01 5.957192e-01 5.417727e-01 4.464096e-01 8.994175e-01
<GCONST> 1.367967e+02
<STATE> 3
<MEAN> 39
 2.192336e-07 -2.630119e-07 1.289736e-07 2.348907e-07 -2.089070e-07 7.988559e-08 1.048760e-07 1.180897e-07 -1.038646e-07 -2.856375e-08 2.746552e-07 -8.837457e-08 3.182411e-07 3.500773e-03 3.751628e-03 -3.257372e-04 8.666156e-04 4.723849e-03 -5.871324e-04 2.243232e-04 -5.077833e-03 -4.136956e-03 -6.560450e-04 -4.315032e-03 -2.692462e-03 3.635468e-03 -9.594065e-05 -2.103182e-04 1.351101e-04 -1.660745e-05 -3.384858e-04 -2.177446e-04 -1.438297e-04 1.636923e-04 2.628955e-04 5.659813e-06 2.228582e-04 2.034429e-04 -1.621444e-05
<VARIANCE> 39
 9.634293e+01 5.412502e+01 7.125948e+01 7.240816e+01 7.061290e+01 6.556955e+01 6.711686e+01 5.772457e+01 5.529247e+01 4.097031e+01 3.866037e+01 3.128725e+01 1.108260e+02 4.562119e+00 3.524040e+00 3.336660e+00 4.190866e+00 4.308098e+00 4.198834e+00 4.401053e+00 4.303353e+00 3.944832e+00 3.243082e+00 2.985256e+00 2.440741e+00 5.602357e+00 6.297894e-01 5.834262e-01 5.081020e-01 6.770256e-01 7.052158e-01 7.098505e-01 7.490681e-01 7.594846e-01 6.945500e-01 5.957192e-01 5.417727e-01 4.464096e-01 8.994175e-01
<GCONST> 1.367967e+02
<STATE> 4
<MEAN> 39
 2.192336e-07 -2.630119e-07 1.289736e-07 2.348907e-07 -2.089070e-07 7.988559e-08 1.048760e-07 1.180897e-07 -1.038646e-07 -2.856375e-08 2.746552e-07 -8.837457e-08 3.182411e-07 3.500773e-03 3.751628e-03 -3.257372e-04 8.666156e-04 4.723849e-03 -5.871324e-04 2.243232e-04 -5.077833e-03 -4.136956e-03 -6.560450e-04 -4.315032e-03 -2.692462e-03 3.635468e-03 -9.594065e-05 -2.103182e-04 1.351101e-04 -1.660745e-05 -3.384858e-04 -2.177446e-04 -1.438297e-04 1.636923e-04 2.628955e-04 5.659813e-06 2.228582e-04 2.034429e-04 -1.621444e-05
<VARIANCE> 39
 9.634293e+01 5.412502e+01 7.125948e+01 7.240816e+01 7.061290e+01 6.556955e+01 6.711686e+01 5.772457e+01 5.529247e+01 4.097031e+01 3.866037e+01 3.128725e+01 1.108260e+02 4.562119e+00 3.524040e+00 3.336660e+00 4.190866e+00 4.308098e+00 4.198834e+00 4.401053e+00 4.303353e+00 3.944832e+00 3.243082e+00 2.985256e+00 2.440741e+00 5.602357e+00 6.297894e-01 5.834262e-01 5.081020e-01 6.770256e-01 7.052158e-01 7.098505e-01 7.490681e-01 7.594846e-01 6.945500e-01 5.957192e-01 5.417727e-01 4.464096e-01 8.994175e-01
<GCONST> 1.367967e+02
<TRANSP> 5
 0.000000e+00 1.000000e+00 0.000000e+00 0.000000e+00 0.000000e+00
 0.000000e+00 6.000000e-01 4.000000e-01 0.000000e+00 0.000000e+00
 0.000000e+00 0.000000e+00 6.000000e-01 4.000000e-01 0.000000e+00
 0.000000e+00 0.000000e+00 0.000000e+00 7.000000e-01 3.000000e-01
 0.000000e+00 0.000000e+00 0.000000e+00 0.000000e+00 0.000000e+00
<ENDHMM>
~h "hh"
<BEGINHMM>
<NUMSTATES> 5
<STATE> 2
<MEAN> 39
 2.192336e-07 -2.630119e-07 1.289736e-07 2.348907e-07 -2.089070e-07 7.988559e-08 1.048760e-07 1.180897e-07 -1.038646e-07 -2.856375e-08 2.746552e-07 -8.837457e-08 3.182411e-07 3.500773e-03 3.751628e-03 -3.257372e-04 8.666156e-04 4.723849e-03 -5.871324e-04 2.243232e-04 -5.077833e-03 -4.136956e-03 -6.560450e-04 -4.315032e-03 -2.692462e-03 3.635468e-03 -9.594065e-05 -2.103182e-04 1.351101e-04 -1.660745e-05 -3.384858e-04 -2.177446e-04 -1.438297e-04 1.636923e-04 2.628955e-04 5.659813e-06 2.228582e-04 2.034429e-04 -1.621444e-05
<VARIANCE> 39
 9.634293e+01 5.412502e+01 7.125948e+01 7.240816e+01 7.061290e+01 6.556955e+01 6.711686e+01 5.772457e+01 5.529247e+01 4.097031e+01 3.866037e+01 3.128725e+01 1.108260e+02 4.562119e+00 3.524040e+00 3.336660e+00 4.190866e+00 4.308098e+00 4.198834e+00 4.401053e+00 4.303353e+00 3.944832e+00 3.243082e+00 2.985256e+00 2.440741e+00 5.602357e+00 6.297894e-01 5.834262e-01 5.081020e-01 6.770256e-01 7.052158e-01 7.098505e-01 7.490681e-01 7.594846e-01 6.945500e-01 5.957192e-01 5.417727e-01 4.464096e-01 8.994175e-01
<GCONST> 1.367967e+02
<STATE> 3
<MEAN> 39
 2.192336e-07 -2.630119e-07 1.289736e-07 2.348907e-07 -2.089070e-07 7.988559e-08 1.048760e-07 1.180897e-07 -1.038646e-07 -2.856375e-08 2.746552e-07 -8.837457e-08 3.182411e-07 3.500773e-03 3.751628e-03 -3.257372e-04 8.666156e-04 4.723849e-03 -5.871324e-04 2.243232e-04 -5.077833e-03 -4.136956e-03 -6.560450e-04 -4.315032e-03 -2.692462e-03 3.635468e-03 -9.594065e-05 -2.103182e-04 1.351101e-04 -1.660745e-05 -3.384858e-04 -2.177446e-04 -1.438297e-04 1.636923e-04 2.628955e-04 5.659813e-06 2.228582e-04 2.034429e-04 -1.621444e-05
<VARIANCE> 39
 9.634293e+01 5.412502e+01 7.125948e+01 7.240816e+01 7.061290e+01 6.556955e+01 6.711686e+01 5.772457e+01 5.529247e+01 4.097031e+01 3.866037e+01 3.128725e+01 1.108260e+02 4.562119e+00 3.524040e+00 3.336660e+00 4.190866e+00 4.308098e+00 4.198834e+00 4.401053e+00 4.303353e+00 3.944832e+00 3.243082e+00 2.985256e+00 2.440741e+00 5.602357e+00 6.297894e-01 5.834262e-01 5.081020e-01 6.770256e-01 7.052158e-01 7.098505e-01 7.490681e-01 7.594846e-01 6.945500e-01 5.957192e-01 5.417727e-01 4.464096e-01 8.994175e-01
<GCONST> 1.367967e+02
<STATE> 4
<MEAN> 39
 2.192336e-07 -2.630119e-07 1.289736e-07 2.348907e-07 -2.089070e-07 7.988559e-08 1.048760e-07 1.180897e-07 -1.038646e-07 -2.856375e-08 2.746552e-07 -8.837457e-08 3.182411e-07 3.500773e-03 3.751628e-03 -3.257372e-04 8.666156e-04 4.723849e-03 -5.871324e-04 2.243232e-04 -5.077833e-03 -4.136956e-03 -6.560450e-04 -4.315032e-03 -2.692462e-03 3.635468e-03 -9.594065e-05 -2.103182e-04 1.351101e-04 -1.660745e-05 -3.384858e-04 -2.177446e-04 -1.438297e-04 1.636923e-04 2.628955e-04 5.659813e-06 2.228582e-04 2.034429e-04 -1.621444e-05
<VARIANCE> 39
 9.634293e+01 5.412502e+01 7.125948e+01 7.240816e+01 7.061290e+01 6.556955e+01 6.711686e+01 5.772457e+01 5.529247e+01 4.097031e+01 3.866037e+01 3.128725e+01 1.108260e+02 4.562119e+00 3.524040e+00 3.336660e+00 4.190866e+00 4.308098e+00 4.198834e+00 4.401053e+00 4.303353e+00 3.944832e+00 3.243082e+00 2.985256e+00 2.440741e+00 5.602357e+00 6.297894e-01 5.834262e-01 5.081020e-01 6.770256e-01 7.052158e-01 7.098505e-01 7.490681e-01 7.594846e-01 6.945500e-01 5.957192e-01 5.417727e-01 4.464096e-01 8.994175e-01
<GCONST> 1.367967e+02
<TRANSP> 5
 0.000000e+00 1.000000e+00 0.000000e+00 0.000000e+00 0.000000e+00
 0.000000e+00 6.000000e-01 4.000000e-01 0.000000e+00 0.000000e+00
 0.000000e+00 0.000000e+00 6.000000e-01 4.000000e-01 0.000000e+00
 0.000000e+00 0.000000e+00 0.000000e+00 7.000000e-01 3.000000e-01
 0.000000e+00 0.000000e+00 0.000000e+00 0.000000e+00 0.000000e+00
<ENDHMM>
~h "m"
<BEGINHMM>
<NUMSTATES> 5
<STATE> 2
<MEAN> 39
 2.192336e-07 -2.630119e-07 1.289736e-07 2.348907e-07 -2.089070e-07 7.988559e-08 1.048760e-07 1.180897e-07 -1.038646e-07 -2.856375e-08 2.746552e-07 -8.837457e-08 3.182411e-07 3.500773e-03 3.751628e-03 -3.257372e-04 8.666156e-04 4.723849e-03 -5.871324e-04 2.243232e-04 -5.077833e-03 -4.136956e-03 -6.560450e-04 -4.315032e-03 -2.692462e-03 3.635468e-03 -9.594065e-05 -2.103182e-04 1.351101e-04 -1.660745e-05 -3.384858e-04 -2.177446e-04 -1.438297e-04 1.636923e-04 2.628955e-04 5.659813e-06 2.228582e-04 2.034429e-04 -1.621444e-05
<VARIANCE> 39
 9.634293e+01 5.412502e+01 7.125948e+01 7.240816e+01 7.061290e+01 6.556955e+01 6.711686e+01 5.772457e+01 5.529247e+01 4.097031e+01 3.866037e+01 3.128725e+01 1.108260e+02 4.562119e+00 3.524040e+00 3.336660e+00 4.190866e+00 4.308098e+00 4.198834e+00 4.401053e+00 4.303353e+00 3.944832e+00 3.243082e+00 2.985256e+00 2.440741e+00 5.602357e+00 6.297894e-01 5.834262e-01 5.081020e-01 6.770256e-01 7.052158e-01 7.098505e-01 7.490681e-01 7.594846e-01 6.945500e-01 5.957192e-01 5.417727e-01 4.464096e-01 8.994175e-01
<GCONST> 1.367967e+02
<STATE> 3
<MEAN> 39
 2.192336e-07 -2.630119e-07 1.289736e-07 2.348907e-07 -2.089070e-07 7.988559e-08 1.048760e-07 1.180897e-07 -1.038646e-07 -2.856375e-08 2.746552e-07 -8.837457e-08 3.182411e-07 3.500773e-03 3.751628e-03 -3.257372e-04 8.666156e-04 4.723849e-03 -5.871324e-04 2.243232e-04 -5.077833e-03 -4.136956e-03 -6.560450e-04 -4.315032e-03 -2.692462e-03 3.635468e-03 -9.594065e-05 -2.103182e-04 1.351101e-04 -1.660745e-05 -3.384858e-04 -2.177446e-04 -1.438297e-04 1.636923e-04 2.628955e-04 5.659813e-06 2.228582e-04 2.034429e-04 -1.621444e-05
<VARIANCE> 39
 9.634293e+01 5.412502e+01 7.125948e+01 7.240816e+01 7.061290e+01 6.556955e+01 6.711686e+01 5.772457e+01 5.529247e+01 4.097031e+01 3.866037e+01 3.128725e+01 1.108260e+02 4.562119e+00 3.524040e+00 3.336660e+00 4.190866e+00 4.308098e+00 4.198834e+00 4.401053e+00 4.303353e+00 3.944832e+00 3.243082e+00 2.985256e+00 2.440741e+00 5.602357e+00 6.297894e-01 5.834262e-01 5.081020e-01 6.770256e-01 7.052158e-01 7.098505e-01 7.490681e-01 7.594846e-01 6.945500e-01 5.957192e-01 5.417727e-01 4.464096e-01 8.994175e-01
<GCONST> 1.367967e+02
<STATE> 4
<MEAN> 39
 2.192336e-07 -2.630119e-07 1.289736e-07 2.348907e-07 -2.089070e-07 7.988559e-08 1.048760e-07 1.180897e-07 -1.038646e-07 -2.856375e-08 2.746552e-07 -8.837457e-08 3.182411e-07 3.500773e-03 3.751628e-03 -3.257372e-04 8.666156e-04 4.723849e-03 -5.871324e-04 2.243232e-04 -5.077833e-03 -4.136956e-03 -6.560450e-04 -4.315032e-03 -2.692462e-03 3.635468e-03 -9.594065e-05 -2.103182e-04 1.351101e-04 -1.660745e-05 -3.384858e-04 -2.177446e-04 -1.438297e-04 1.636923e-04 2.628955e-04 5.659813e-06 2.228582e-04 2.034429e-04 -1.621444e-05
<VARIANCE> 39
 9.634293e+01 5.412502e+01 7.125948e+01 7.240816e+01 7.061290e+01 6.556955e+01 6.711686e+01 5.772457e+01 5.529247e+01 4.097031e+01 3.866037e+01 3.128725e+01 1.108260e+02 4.562119e+00 3.524040e+00 3.336660e+00 4.190866e+00 4.308098e+00 4.198834e+00 4.401053e+00 4.303353e+00 3.944832e+00 3.243082e+00 2.985256e+00 2.440741e+00 5.602357e+00 6.297894e-01 5.834262e-01 5.081020e-01 6.770256e-01 7.052158e-01 7.098505e-01 7.490681e-01 7.594846e-01 6.945500e-01 5.957192e-01 5.417727e-01 4.464096e-01 8.994175e-01
<GCONST> 1.367967e+02
<TRANSP> 5
 0.000000e+00 1.000000e+00 0.000000e+00 0.000000e+00 0.000000e+00
 0.000000e+00 6.000000e-01 4.000000e-01 0.000000e+00 0.000000e+00
 0.000000e+00 0.000000e+00 6.000000e-01 4.000000e-01 0.000000e+00
 0.000000e+00 0.000000e+00 0.000000e+00 7.000000e-01 3.000000e-01
 0.000000e+00 0.000000e+00 0.000000e+00 0.000000e+00 0.000000e+00
<ENDHMM>
~h "!EXIT"
<BEGINHMM>
<NUMSTATES> 5
<STATE> 2
<MEAN> 39
 2.192336e-07 -2.630119e-07 1.289736e-07 2.348907e-07 -2.089070e-07 7.988559e-08 1.048760e-07 1.180897e-07 -1.038646e-07 -2.856375e-08 2.746552e-07 -8.837457e-08 3.182411e-07 3.500773e-03 3.751628e-03 -3.257372e-04 8.666156e-04 4.723849e-03 -5.871324e-04 2.243232e-04 -5.077833e-03 -4.136956e-03 -6.560450e-04 -4.315032e-03 -2.692462e-03 3.635468e-03 -9.594065e-05 -2.103182e-04 1.351101e-04 -1.660745e-05 -3.384858e-04 -2.177446e-04 -1.438297e-04 1.636923e-04 2.628955e-04 5.659813e-06 2.228582e-04 2.034429e-04 -1.621444e-05
<VARIANCE> 39
 9.634293e+01 5.412502e+01 7.125948e+01 7.240816e+01 7.061290e+01 6.556955e+01 6.711686e+01 5.772457e+01 5.529247e+01 4.097031e+01 3.866037e+01 3.128725e+01 1.108260e+02 4.562119e+00 3.524040e+00 3.336660e+00 4.190866e+00 4.308098e+00 4.198834e+00 4.401053e+00 4.303353e+00 3.944832e+00 3.243082e+00 2.985256e+00 2.440741e+00 5.602357e+00 6.297894e-01 5.834262e-01 5.081020e-01 6.770256e-01 7.052158e-01 7.098505e-01 7.490681e-01 7.594846e-01 6.945500e-01 5.957192e-01 5.417727e-01 4.464096e-01 8.994175e-01
<GCONST> 1.367967e+02
<STATE> 3
<MEAN> 39
 2.192336e-07 -2.630119e-07 1.289736e-07 2.348907e-07 -2.089070e-07 7.988559e-08 1.048760e-07 1.180897e-07 -1.038646e-07 -2.856375e-08 2.746552e-07 -8.837457e-08 3.182411e-07 3.500773e-03 3.751628e-03 -3.257372e-04 8.666156e-04 4.723849e-03 -5.871324e-04 2.243232e-04 -5.077833e-03 -4.136956e-03 -6.560450e-04 -4.315032e-03 -2.692462e-03 3.635468e-03 -9.594065e-05 -2.103182e-04 1.351101e-04 -1.660745e-05 -3.384858e-04 -2.177446e-04 -1.438297e-04 1.636923e-04 2.628955e-04 5.659813e-06 2.228582e-04 2.034429e-04 -1.621444e-05
<VARIANCE> 39
 9.634293e+01 5.412502e+01 7.125948e+01 7.240816e+01 7.061290e+01 6.556955e+01 6.711686e+01 5.772457e+01 5.529247e+01 4.097031e+01 3.866037e+01 3.128725e+01 1.108260e+02 4.562119e+00 3.524040e+00 3.336660e+00 4.190866e+00 4.308098e+00 4.198834e+00 4.401053e+00 4.303353e+00 3.944832e+00 3.243082e+00 2.985256e+00 2.440741e+00 5.602357e+00 6.297894e-01 5.834262e-01 5.081020e-01 6.770256e-01 7.052158e-01 7.098505e-01 7.490681e-01 7.594846e-01 6.945500e-01 5.957192e-01 5.417727e-01 4.464096e-01 8.994175e-01
<GCONST> 1.367967e+02
<STATE> 4
<MEAN> 39
 2.192336e-07 -2.630119e-07 1.289736e-07 2.348907e-07 -2.089070e-07 7.988559e-08 1.048760e-07 1.180897e-07 -1.038646e-07 -2.856375e-08 2.746552e-07 -8.837457e-08 3.182411e-07 3.500773e-03 3.751628e-03 -3.257372e-04 8.666156e-04 4.723849e-03 -5.871324e-04 2.243232e-04 -5.077833e-03 -4.136956e-03 -6.560450e-04 -4.315032e-03 -2.692462e-03 3.635468e-03 -9.594065e-05 -2.103182e-04 1.351101e-04 -1.660745e-05 -3.384858e-04 -2.177446e-04 -1.438297e-04 1.636923e-04 2.628955e-04 5.659813e-06 2.228582e-04 2.034429e-04 -1.621444e-05
<VARIANCE> 39
 9.634293e+01 5.412502e+01 7.125948e+01 7.240816e+01 7.061290e+01 6.556955e+01 6.711686e+01 5.772457e+01 5.529247e+01 4.097031e+01 3.866037e+01 3.128725e+01 1.108260e+02 4.562119e+00 3.524040e+00 3.336660e+00 4.190866e+00 4.308098e+00 4.198834e+00 4.401053e+00 4.303353e+00 3.944832e+00 3.243082e+00 2.985256e+00 2.440741e+00 5.602357e+00 6.297894e-01 5.834262e-01 5.081020e-01 6.770256e-01 7.052158e-01 7.098505e-01 7.490681e-01 7.594846e-01 6.945500e-01 5.957192e-01 5.417727e-01 4.464096e-01 8.994175e-01
<GCONST> 1.367967e+02
<TRANSP> 5
 0.000000e+00 1.000000e+00 0.000000e+00 0.000000e+00 0.000000e+00
 0.000000e+00 6.000000e-01 4.000000e-01 0.000000e+00 0.000000e+00
 0.000000e+00 0.000000e+00 6.000000e-01 4.000000e-01 0.000000e+00
 0.000000e+00 0.000000e+00 0.000000e+00 7.000000e-01 3.000000e-01
 0.000000e+00 0.000000e+00 0.000000e+00 0.000000e+00 0.000000e+00
<ENDHMM>
~h "el"
<BEGINHMM>
<NUMSTATES> 5
<STATE> 2
<MEAN> 39
 2.192336e-07 -2.630119e-07 1.289736e-07 2.348907e-07 -2.089070e-07 7.988559e-08 1.048760e-07 1.180897e-07 -1.038646e-07 -2.856375e-08 2.746552e-07 -8.837457e-08 3.182411e-07 3.500773e-03 3.751628e-03 -3.257372e-04 8.666156e-04 4.723849e-03 -5.871324e-04 2.243232e-04 -5.077833e-03 -4.136956e-03 -6.560450e-04 -4.315032e-03 -2.692462e-03 3.635468e-03 -9.594065e-05 -2.103182e-04 1.351101e-04 -1.660745e-05 -3.384858e-04 -2.177446e-04 -1.438297e-04 1.636923e-04 2.628955e-04 5.659813e-06 2.228582e-04 2.034429e-04 -1.621444e-05
<VARIANCE> 39
 9.634293e+01 5.412502e+01 7.125948e+01 7.240816e+01 7.061290e+01 6.556955e+01 6.711686e+01 5.772457e+01 5.529247e+01 4.097031e+01 3.866037e+01 3.128725e+01 1.108260e+02 4.562119e+00 3.524040e+00 3.336660e+00 4.190866e+00 4.308098e+00 4.198834e+00 4.401053e+00 4.303353e+00 3.944832e+00 3.243082e+00 2.985256e+00 2.440741e+00 5.602357e+00 6.297894e-01 5.834262e-01 5.081020e-01 6.770256e-01 7.052158e-01 7.098505e-01 7.490681e-01 7.594846e-01 6.945500e-01 5.957192e-01 5.417727e-01 4.464096e-01 8.994175e-01
<GCONST> 1.367967e+02
<STATE> 3
<MEAN> 39
 2.192336e-07 -2.630119e-07 1.289736e-07 2.348907e-07 -2.089070e-07 7.988559e-08 1.048760e-07 1.180897e-07 -1.038646e-07 -2.856375e-08 2.746552e-07 -8.837457e-08 3.182411e-07 3.500773e-03 3.751628e-03 -3.257372e-04 8.666156e-04 4.723849e-03 -5.871324e-04 2.243232e-04 -5.077833e-03 -4.136956e-03 -6.560450e-04 -4.315032e-03 -2.692462e-03 3.635468e-03 -9.594065e-05 -2.103182e-04 1.351101e-04 -1.660745e-05 -3.384858e-04 -2.177446e-04 -1.438297e-04 1.636923e-04 2.628955e-04 5.659813e-06 2.228582e-04 2.034429e-04 -1.621444e-05
<VARIANCE> 39
 9.634293e+01 5.412502e+01 7.125948e+01 7.240816e+01 7.061290e+01 6.556955e+01 6.711686e+01 5.772457e+01 5.529247e+01 4.097031e+01 3.866037e+01 3.128725e+01 1.108260e+02 4.562119e+00 3.524040e+00 3.336660e+00 4.190866e+00 4.308098e+00 4.198834e+00 4.401053e+00 4.303353e+00 3.944832e+00 3.243082e+00 2.985256e+00 2.440741e+00 5.602357e+00 6.297894e-01 5.834262e-01 5.081020e-01 6.770256e-01 7.052158e-01 7.098505e-01 7.490681e-01 7.594846e-01 6.945500e-01 5.957192e-01 5.417727e-01 4.464096e-01 8.994175e-01
<GCONST> 1.367967e+02
<STATE> 4
<MEAN> 39
 2.192336e-07 -2.630119e-07 1.289736e-07 2.348907e-07 -2.089070e-07 7.988559e-08 1.048760e-07 1.180897e-07 -1.038646e-07 -2.856375e-08 2.746552e-07 -8.837457e-08 3.182411e-07 3.500773e-03 3.751628e-03 -3.257372e-04 8.666156e-04 4.723849e-03 -5.871324e-04 2.243232e-04 -5.077833e-03 -4.136956e-03 -6.560450e-04 -4.315032e-03 -2.692462e-03 3.635468e-03 -9.594065e-05 -2.103182e-04 1.351101e-04 -1.660745e-05 -3.384858e-04 -2.177446e-04 -1.438297e-04 1.636923e-04 2.628955e-04 5.659813e-06 2.228582e-04 2.034429e-04 -1.621444e-05
<VARIANCE> 39
 9.634293e+01 5.412502e+01 7.125948e+01 7.240816e+01 7.061290e+01 6.556955e+01 6.711686e+01 5.772457e+01 5.529247e+01 4.097031e+01 3.866037e+01 3.128725e+01 1.108260e+02 4.562119e+00 3.524040e+00 3.336660e+00 4.190866e+00 4.308098e+00 4.198834e+00 4.401053e+00 4.303353e+00 3.944832e+00 3.243082e+00 2.985256e+00 2.440741e+00 5.602357e+00 6.297894e-01 5.834262e-01 5.081020e-01 6.770256e-01 7.052158e-01 7.098505e-01 7.490681e-01 7.594846e-01 6.945500e-01 5.957192e-01 5.417727e-01 4.464096e-01 8.994175e-01
<GCONST> 1.367967e+02
<TRANSP> 5
 0.000000e+00 1.000000e+00 0.000000e+00 0.000000e+00 0.000000e+00
 0.000000e+00 6.000000e-01 4.000000e-01 0.000000e+00 0.000000e+00
 0.000000e+00 0.000000e+00 6.000000e-01 4.000000e-01 0.000000e+00
 0.000000e+00 0.000000e+00 0.000000e+00 7.000000e-01 3.000000e-01
 0.000000e+00 0.000000e+00 0.000000e+00 0.000000e+00 0.000000e+00
<ENDHMM>
~h "s"
<BEGINHMM>
<NUMSTATES> 5
<STATE> 2
<MEAN> 39
 2.192336e-07 -2.630119e-07 1.289736e-07 2.348907e-07 -2.089070e-07 7.988559e-08 1.048760e-07 1.180897e-07 -1.038646e-07 -2.856375e-08 2.746552e-07 -8.837457e-08 3.182411e-07 3.500773e-03 3.751628e-03 -3.257372e-04 8.666156e-04 4.723849e-03 -5.871324e-04 2.243232e-04 -5.077833e-03 -4.136956e-03 -6.560450e-04 -4.315032e-03 -2.692462e-03 3.635468e-03 -9.594065e-05 -2.103182e-04 1.351101e-04 -1.660745e-05 -3.384858e-04 -2.177446e-04 -1.438297e-04 1.636923e-04 2.628955e-04 5.659813e-06 2.228582e-04 2.034429e-04 -1.621444e-05
<VARIANCE> 39
 9.634293e+01 5.412502e+01 7.125948e+01 7.240816e+01 7.061290e+01 6.556955e+01 6.711686e+01 5.772457e+01 5.529247e+01 4.097031e+01 3.866037e+01 3.128725e+01 1.108260e+02 4.562119e+00 3.524040e+00 3.336660e+00 4.190866e+00 4.308098e+00 4.198834e+00 4.401053e+00 4.303353e+00 3.944832e+00 3.243082e+00 2.985256e+00 2.440741e+00 5.602357e+00 6.297894e-01 5.834262e-01 5.081020e-01 6.770256e-01 7.052158e-01 7.098505e-01 7.490681e-01 7.594846e-01 6.945500e-01 5.957192e-01 5.417727e-01 4.464096e-01 8.994175e-01
<GCONST> 1.367967e+02
<STATE> 3
<MEAN> 39
