~o
<STREAMINFO> 1 39
<VECSIZE> 39<NULLD><MFCC_D_A_Z_0><DIAGC>
~h "b"
<BEGINHMM>
<NUMSTATES> 5
<STATE> 2
<NUMMIXES> 17
<MIXTURE> 1 5.996023e-02
<MEAN> 39
 -8.064841e+00 5.459696e+00 1.266695e+00 1.033615e+01 7.296791e+00 6.778983e+00 4.633132e+00 2.548610e+00 4.414332e+00 2.538623e+00 3.701919e+00 1.575357e+00 -2.146392e+01 -9.872078e-01 -5.689180e-01 -1.386185e-01 1.076794e-01 1.872698e-01 4.448616e-01 7.572165e-01 1.042550e+00 1.189566e+00 1.046123e+00 9.528379e-01 7.454287e-01 -3.779729e-01 7.716724e-01 6.098070e-03 1.249599e-01 -5.698146e-01 -4.331639e-01 -6.435318e-01 -5.542281e-01 -5.294570e-01 -4.755673e-01 -4.391312e-01 -3.974095e-01 -2.584001e-01 1.515562e+00
<VARIANCE> 39
 6.100254e+00 8.883924e+00 9.405261e+00 1.457753e+01 1.399959e+01 1.675669e+01 2.260298e+01 1.836739e+01 2.314069e+01 1.886524e+01 2.202982e+01 1.266923e+01 6.562813e+00 1.264416e+00 1.437136e+00 1.629333e+00 1.864707e+00 1.356694e+00 1.608541e+00 1.759974e+00 2.313825e+00 2.166625e+00 1.987636e+00 1.621422e+00 1.810030e+00 1.059359e+00 3.263607e-01 2.452195e-01 2.548773e-01 4.854553e-01 3.883644e-01 5.701804e-01 4.901910e-01 4.767899e-01 5.079371e-01 4.243713e-01 3.461993e-01 2.789167e-01 9.589449e-01
<GCONST> 1.006662e+02
<MIXTURE> 2 8.408329e-02
<MEAN> 39
 -2.730869e+00 1.150903e+01 7.071392e+00 1.388430e+01 8.643355e+00 5.362072e+00 -1.227783e-01 -4.214537e+00 -2.292633e+00 -3.798161e+00 -1.684750e+00 -2.823324e+00 -1.936161e+01 -1.781760e+00 -3.026563e+00 -1.551648e+00 -1.669375e+00 -4.002679e-01 1.313110e-01 1.723851e+00 2.675432e+00 2.572062e+00 1.683263e+00 1.402935e+00 1.242713e+00 3.051577e+00 1.196626e+00 -1.004775e+00 -8.617164e-01 -1.578498e+00 -1.064251e+00 -8.764611e-01 -3.650063e-01 5.488054e-02 1.255942e-01 5.637810e-01 3.092811e-01 2.282263e-01 2.296570e+00
<VARIANCE> 39
 1.209612e+01 1.123946e+01 1.255376e+01 1.417548e+01 1.718887e+01 1.978889e+01 2.887081e+01 2.507433e+01 2.208400e+01 2.015066e+01 1.771611e+01 1.593339e+01 8.189164e+00 1.624300e+00 1.691257e+00 1.561278e+00 2.832428e+00 2.364931e+00 2.936329e+00 3.062133e+00 3.024365e+00 2.915198e+00 2.787435e+00 2.868757e+00 2.401825e+00 7.251408e+00 3.850180e-01 4.152516e-01 7.249849e-01 6.257151e-01 5.384616e-01 6.865025e-01 6.392348e-01 6.466801e-01 6.614130e-01 5.788286e-01 4.976335e-01 4.148003e-01 4.202662e-01
<GCONST> 1.127890e+02
<MIXTURE> 3 6.711656e-02
<MEAN> 39
 4.935235e+00 1.066390e+01 2.160275e+00 7.548980e+00 4.374347e+00 2.250109e+00 -1.145429e+00 -7.987811e+00 -7.282529e+00 -3.461566e+00 -7.613996e-01 -2.416702e+00 -1.226688e+01 -1.329695e-01 -6.211110e-01 -1.673286e-01 -1.052667e+00 1.758027e-01 4.329588e-01 3.218423e-01 5.388663e-01 1.066864e+00 4.058446e-01 5.808628e-01 7.698334e-01 1.593488e+00 -1.241460e-01 -7.678910e-01 -3.155066e-01 -6.981964e-01 -3.116120e-01 -1.373487e-01 3.254439e-02 4.385973e-01 6.884710e-01 4.698797e-01 1.579237e-01 1.725910e-01 9.267058e-01
<VARIANCE> 39
 1.731068e+01 2.355899e+01 1.999259e+01 4.109915e+01 3.718596e+01 3.735954e+01 3.772629e+01 3.131855e+01 4.277185e+01 3.538499e+01 2.959009e+01 2.834754e+01 2.970633e+01 3.566897e+00 2.234137e+00 2.299318e+00 5.302653e+00 2.346291e+00 2.364105e+00 3.559131e+00 5.601959e+00 5.548104e+00 3.093313e+00 3.331151e+00 2.656379e+00 3.877834e+00 5.570731e-01 4.397997e-01 4.637257e-01 7.464799e-01 6.718088e-01 6.550390e-01 6.298187e-01 8.896143e-01 8.787997e-01 7.414938e-01 6.217649e-01 4.869699e-01 6.727844e-01
<GCONST> 1.259296e+02
<MIXTURE> 4 5.619464e-02
<MEAN> 39
 -8.865347e+00 5.601159e+00 1.527475e+00 1.071004e+01 7.158614e+00 6.977304e+00 4.874979e+00 2.081163e+00 3.401563e+00 2.846928e+00 2.867755e+00 1.323520e+00 -2.161803e+01 1.095503e+00 -1.618126e+00 -7.535156e-01 -2.259785e+00 -1.119892e+00 -1.116437e+00 -3.704261e-02 4.366587e-01 8.211514e-01 6.169425e-01 6.310387e-01 6.723970e-01 5.484225e+00 1.649545e+00 -3.902614e-01 -2.780789e-01 -1.340154e+00 -7.287737e-01 -6.394886e-01 -8.220558e-01 -5.986290e-01 -4.252020e-01 -2.305256e-01 -2.265939e-01 -2.661603e-01 2.350346e+00
<VARIANCE> 39
 7.205098e+00 9.651409e+00 1.248120e+01 1.732878e+01 1.445439e+01 2.136555e+01 1.982979e+01 1.991252e+01 1.866849e+01 1.463041e+01 1.954894e+01 1.518012e+01 1.034264e+01 2.163657e+00 1.824151e+00 2.160396e+00 2.287452e+00 1.960378e+00 2.164303e+00 3.413942e+00 2.983560e+00 3.129358e+00 3.137609e+00 2.416452e+00 2.143271e+00 3.623374e+00 2.795832e-01 3.844652e-01 6.756279e-01 6.185245e-01 5.191514e-01 9.797789e-01 6.126269e-01 6.002724e-01 5.653223e-01 5.236899e-01 6.326294e-01 4.043645e-01 4.065289e-01
<GCONST> 1.103395e+02
<MIXTURE> 5 5.256451e-02
<MEAN> 39
 2.202149e+00 1.356690e+01 6.088431e+00 9.449411e+00 7.647572e+00 4.106451e+00 1.766554e+00 -7.069493e+00 -8.528145e+00 -4.983092e+00 -2.330360e+00 7.093115e-01 -1.561350e+01 -4.434373e-01 -2.901191e+00 -1.736725e+00 -2.537838e+00 -1.008734e+00 -4.416763e-01 -3.052035e-01 8.432008e-01 2.582013e+00 1.900828e+00 7.719454e-01 3.068032e-01 4.213470e+00 8.864138e-01 -1.384614e+00 -1.234262e+00 -1.516894e+00 -9.467350e-01 -3.059343e-02 -3.664580e-01 1.333071e-01 8.811899e-01 7.591439e-01 6.991449e-01 -1.661994e-01 1.940913e+00
<VARIANCE> 39
 1.293824e+01 1.304910e+01 1.491324e+01 1.693112e+01 1.819041e+01 2.175736e+01 2.246233e+01 2.288423e+01 1.931505e+01 1.685452e+01 2.163418e+01 1.579431e+01 1.073734e+01 2.541114e+00 1.730395e+00 1.804134e+00 4.052972e+00 3.061830e+00 2.096468e+00 2.429765e+00 2.868859e+00 2.759159e+00 2.482110e+00 2.985677e+00 1.835592e+00 2.970104e+00 3.179775e-01 4.212558e-01 4.870504e-01 7.350075e-01 6.043943e-01 8.069162e-01 8.736897e-01 7.481827e-01 6.244619e-01 6.723866e-01 6.158223e-01 5.900729e-01 2.842416e-01
<GCONST> 1.132203e+02
<MIXTURE> 6 6.679551e-02
<MEAN> 39
 4.656065e+00 1.098882e+01 3.278455e+00 1.099620e+01 7.959273e+00 1.806528e+00 -3.441133e+00 -9.258928e+00 -3.748374e+00 -8.600718e-01 -3.503789e-01 -4.162468e+00 -1.344512e+01 -9.249571e-01 -3.179278e+00 1.059987e-01 -1.986246e+00 -2.051850e+00 -1.753197e+00 4.207225e-01 2.381374e+00 1.672110e+00 3.751832e-01 2.271033e-01 1.260378e+00 4.649035e+00 2.494789e-01 -1.399020e+00 2.236488e-01 -1.072283e+00 -1.405735e+00 -6.106594e-01 -1.143002e-01 9.683155e-01 5.309458e-02 7.049843e-02 8.838557e-02 3.195135e-01 1.836344e+00
<VARIANCE> 39
 1.335456e+01 1.221888e+01 1.616563e+01 1.836335e+01 2.067999e+01 2.848161e+01 2.614861e+01 2.035871e+01 2.398838e+01 2.177702e+01 2.227105e+01 1.850054e+01 1.709712e+01 1.937978e+00 2.147414e+00 3.006127e+00 4.254310e+00 3.271315e+00 3.441912e+00 4.705547e+00 3.076360e+00 5.103783e+00 3.306298e+00 2.853105e+00 2.332602e+00 2.967478e+00 2.982676e-01 3.866462e-01 6.975449e-01 5.067779e-01 7.298198e-01 6.785865e-01 7.311510e-01 7.079763e-01 9.856560e-01 7.542007e-01 6.179096e-01 4.661307e-01 2.939547e-01
<GCONST> 1.177899e+02
<MIXTURE> 7 4.942550e-02
<MEAN> 39
 -7.648832e+00 5.162712e+00 4.126326e-01 8.751901e+00 7.016949e+00 6.275221e+00 4.310571e+00 6.860912e-01 3.278185e+00 2.442776e+00 2.423718e+00 1.938118e+00 -2.004360e+01 2.421813e+00 -1.026598e+00 2.387627e-01 -1.764717e+00 -1.727736e+00 -2.309900e+00 -1.009948e+00 -1.877449e-02 -2.949683e-02 -5.425223e-01 -4.187426e-01 -2.279915e-01 6.164717e+00 1.154834e+00 -6.036643e-01 1.861530e-01 -9.688916e-01 -9.035257e-01 -5.727399e-01 -6.392577e-01 -1.259179e-01 -3.675857e-01 -5.057852e-02 -1.050133e-01 -1.858333e-01 1.974128e+00
<VARIANCE> 39
 1.021375e+01 1.500167e+01 1.454103e+01 1.653290e+01 2.043635e+01 1.903259e+01 1.893281e+01 2.610221e+01 2.483343e+01 2.222526e+01 2.236849e+01 1.676941e+01 1.486356e+01 2.231490e+00 2.219324e+00 2.913956e+00 3.513767e+00 2.448122e+00 3.138460e+00 2.536548e+00 2.826874e+00 3.458576e+00 2.863415e+00 2.038138e+00 2.048800e+00 4.127637e+00 1.909120e-01 4.216509e-01 8.218241e-01 6.850551e-01 7.595780e-01 6.914275e-01 6.853251e-01 6.930087e-01 8.172884e-01 7.010861e-01 5.829782e-01 4.384277e-01 4.531601e-01
<GCONST> 1.151772e+02
<MIXTURE> 8 4.933050e-02
<MEAN> 39
 4.979172e+00 1.325840e+01 2.839675e+00 6.456074e+00 4.377140e+00 5.206198e+00 4.185927e+00 -5.380065e+00 -6.765934e+00 -7.008229e+00 -4.550692e+00 -3.805574e-01 -1.434694e+01 -6.300333e-01 -2.942920e+00 -1.408516e+00 -2.290296e+00 -7.522778e-01 -7.684205e-01 -6.996831e-01 3.585964e-01 1.764356e+00 1.641538e+00 1.424402e+00 7.665046e-01 4.291302e+00 5.947223e-01 -1.172017e+00 -7.852237e-01 -1.375934e+00 -5.908642e-01 -1.044619e-02 -6.995719e-01 1.583703e-02 4.511760e-01 7.942823e-01 8.507313e-01 1.871099e-01 1.691363e+00
<VARIANCE> 39
 1.473073e+01 1.160530e+01 1.845279e+01 2.184091e+01 2.498711e+01 1.921009e+01 2.229432e+01 2.733753e+01 2.123022e+01 1.805673e+01 2.710580e+01 1.956957e+01 1.028829e+01 2.678845e+00 1.822647e+00 1.850958e+00 5.194274e+00 3.398998e+00 2.462615e+00 2.229405e+00 3.174224e+00 2.409512e+00 2.431767e+00 2.365296e+00 1.964368e+00 2.650193e+00 2.897055e-01 3.608405e-01 4.251355e-01 9.993349e-01 5.660829e-01 7.384017e-01 8.179799e-01 7.736992e-01 6.344492e-01 6.722696e-01 6.152175e-01 5.944300e-01 2.906134e-01
<GCONST> 1.146291e+02
<MIXTURE> 9 4.834237e-02
<MEAN> 39
 -8.749150e+00 4.306380e+00 8.255617e-01 8.689553e+00 6.486172e+00 6.139979e+00 3.628795e+00 2.055818e+00 3.804234e+00 2.964255e+00 3.529104e+00 1.586482e+00 -2.193695e+01 4.508849e-01 -3.271585e-01 1.549544e-01 -2.607389e-01 -2.592618e-01 -4.039429e-01 -6.583361e-02 -7.743480e-02 5.357287e-02 -6.230098e-02 3.625354e-02 1.239980e-01 1.729094e+00 7.791561e-01 -1.918251e-01 1.065348e-01 -6.211716e-01 -3.384475e-01 -4.960970e-01 -2.385496e-01 -1.412235e-01 -1.977192e-01 -1.951367e-01 -1.844066e-01 -7.432470e-02 2.062099e+00
<VARIANCE> 39
 6.035013e+00 6.790475e+00 1.149075e+01 1.669988e+01 1.093620e+01 1.364661e+01 1.860174e+01 1.836121e+01 2.133960e+01 1.586023e+01 1.745733e+01 1.443345e+01 7.776635e+00 4.992094e-01 9.166898e-01 6.799504e-01 1.087287e+00 8.983011e-01 9.926009e-01 1.220040e+00 1.268703e+00 1.218066e+00 1.274167e+00 1.169856e+00 1.100240e+00 4.160196e+00 2.387857e-01 2.034672e-01 3.192895e-01 4.749370e-01 3.080752e-01 3.682327e-01 3.417495e-01 3.916538e-01 4.067931e-01 4.052067e-01 3.049390e-01 3.107009e-01 7.516586e-01
<GCONST> 9.270406e+01
<MIXTURE> 10 8.663960e-02
<MEAN> 39
 -2.521440e+00 1.165411e+01 7.026653e+00 1.348589e+01 8.947847e+00 5.277978e+00 1.998918e-01 -4.698937e+00 -2.825937e+00 -3.901786e+00 -2.294726e+00 -2.678350e+00 -1.934064e+01 -1.513968e+00 -3.311169e+00 -1.764669e+00 -2.253253e+00 -1.109348e+00 -6.072321e-01 1.219356e+00 2.161546e+00 2.020471e+00 1.147575e+00 8.163832e-01 9.032828e-01 3.817052e+00 1.185036e+00 -1.044995e+00 -7.731635e-01 -1.545834e+00 -1.193246e+00 -8.609416e-01 -4.464247e-01 5.589386e-02 6.343384e-02 5.425572e-01 2.871263e-01 1.061717e-01 2.257866e+00
<VARIANCE> 39
 1.169202e+01 1.074494e+01 1.368456e+01 1.410564e+01 1.739301e+01 2.121885e+01 3.252948e+01 2.610846e+01 2.051225e+01 1.888570e+01 1.515386e+01 1.438258e+01 9.441651e+00 1.706476e+00 1.674332e+00 1.715204e+00 2.696155e+00 2.299099e+00 2.853856e+00 2.689662e+00 2.838361e+00 2.735678e+00 2.650273e+00 2.595649e+00 2.146257e+00 6.340459e+00 3.499166e-01 4.438137e-01 7.670290e-01 5.763330e-01 4.865977e-01 7.084135e-01 6.874676e-01 6.762998e-01 6.571894e-01 5.950879e-01 4.468197e-01 3.879369e-01 3.732391e-01
<GCONST> 1.118717e+02
<MIXTURE> 11 6.829932e-02
<MEAN> 39
 5.317425e+00 1.035213e+01 1.721284e+00 7.098030e+00 3.787052e+00 2.144814e+00 -1.775819e+00 -8.390728e+00 -7.060022e+00 -4.084703e+00 -1.147564e+00 -3.088385e+00 -1.181702e+01 1.755414e-01 -7.955683e-01 -3.484043e-01 -1.291950e+00 -3.181784e-01 -5.373232e-02 -1.762665e-02 2.704766e-01 6.748813e-01 3.673978e-02 1.002932e-01 2.735241e-01 1.893023e+00 -1.122035e-01 -8.877922e-01 -3.342623e-01 -7.534136e-01 -3.884855e-01 -2.016974e-01 -5.666307e-02 4.620329e-01 6.476924e-01 4.838597e-01 1.758746e-01 2.207087e-01 9.910724e-01
<VARIANCE> 39
 1.759813e+01 2.320967e+01 2.006461e+01 4.218955e+01 3.613233e+01 3.794880e+01 3.939913e+01 3.386350e+01 4.372347e+01 3.588815e+01 3.065480e+01 3.280947e+01 2.884108e+01 3.459855e+00 2.514570e+00 2.601435e+00 5.199277e+00 2.575978e+00 2.704799e+00 3.397842e+00 5.531025e+00 5.973597e+00 3.822764e+00 3.313249e+00 2.555087e+00 3.453150e+00 5.955022e-01 4.564057e-01 5.047976e-01 8.397052e-01 6.591613e-01 7.041150e-01 6.616298e-01 9.264150e-01 9.084091e-01 7.019917e-01 6.234207e-01 5.278390e-01 6.643677e-01
<GCONST> 1.272417e+02
<MIXTURE> 12 6.180291e-02
<MEAN> 39
 4.602380e+00 1.055819e+01 2.688354e+00 1.044726e+01 7.700975e+00 1.853290e+00 -3.535949e+00 -9.347795e+00 -4.315282e+00 -1.470151e+00 -2.394010e-01 -4.122866e+00 -1.298669e+01 -8.657840e-01 -3.342736e+00 4.018911e-01 -1.845073e+00 -2.277583e+00 -2.138898e+00 -2.835149e-02 2.151837e+00 1.533109e+00 2.114197e-01 -3.776383e-02 9.175004e-01 4.718385e+00 2.098023e-01 -1.365842e+00 3.980320e-01 -1.108850e+00 -1.458711e+00 -6.291314e-01 -1.738411e-01 9.376926e-01 8.830051e-03 8.754113e-02 9.217817e-02 2.632996e-01 1.751728e+00
<VARIANCE> 39
 1.358034e+01 1.439904e+01 1.566744e+01 1.975882e+01 2.180167e+01 2.761461e+01 2.634274e+01 1.896656e+01 2.365959e+01 2.136505e+01 2.180238e+01 1.962013e+01 1.882561e+01 1.957326e+00 2.049249e+00 3.536845e+00 4.396489e+00 3.142776e+00 3.216047e+00 4.616880e+00 2.975637e+00 5.679198e+00 3.095316e+00 2.693330e+00 2.189342e+00 2.687054e+00 3.272536e-01 3.987130e-01 7.904958e-01 5.181738e-01 6.921758e-01 6.918221e-01 7.500690e-01 6.771515e-01 1.029152e+00 7.702995e-01 6.345828e-01 4.869279e-01 2.772095e-01
<GCONST> 1.181852e+02
<MIXTURE> 13 5.785813e-02
<MEAN> 39
 -8.985833e+00 5.590401e+00 1.422190e+00 1.031996e+01 7.019136e+00 6.463051e+00 4.736079e+00 1.765283e+00 2.987263e+00 2.266983e+00 2.591549e+00 1.179285e+00 -2.153398e+01 1.124935e+00 -1.786006e+00 -1.002524e+00 -2.464033e+00 -1.401303e+00 -1.595439e+00 -4.973987e-01 -8.662368e-02 4.557244e-01 2.272955e-01 1.751743e-01 2.329286e-01 5.471219e+00 1.613216e+00 -4.061055e-01 -2.751445e-01 -1.307851e+00 -7.743625e-01 -6.029993e-01 -7.765738e-01 -6.239701e-01 -4.310725e-01 -2.028662e-01 -2.769312e-01 -3.334638e-01 2.308641e+00
<VARIANCE> 39
 7.387732e+00 9.848391e+00 1.335803e+01 1.659396e+01 1.395921e+01 1.894327e+01 2.186504e+01 1.980219e+01 1.891393e+01 1.435130e+01 1.913800e+01 1.457218e+01 1.008687e+01 1.966428e+00 1.821581e+00 1.964879e+00 2.163076e+00 2.011710e+00 2.168272e+00 3.031703e+00 3.050789e+00 3.042743e+00 2.943607e+00 2.267692e+00 1.859868e+00 3.683392e+00 2.514693e-01 3.684258e-01 6.339332e-01 5.778955e-01 4.913294e-01 9.190533e-01 6.311808e-01 5.652659e-01 6.122905e-01 5.316803e-01 6.228555e-01 4.259738e-01 3.991074e-01
<GCONST> 1.093390e+02
<MIXTURE> 14 5.177988e-02
<MEAN> 39
 2.443446e+00 1.343133e+01 5.819589e+00 9.298258e+00 7.410083e+00 4.013525e+00 1.354573e+00 -7.380823e+00 -8.565884e+00 -5.129403e+00 -2.342707e+00 3.265962e-01 -1.548986e+01 -2.967515e-01 -2.995457e+00 -1.880908e+00 -2.683064e+00 -1.216768e+00 -6.350221e-01 -4.198935e-01 7.268430e-01 2.284747e+00 1.722072e+00 7.018243e-01 8.762340e-02 4.318671e+00 8.288100e-01 -1.392329e+00 -1.207609e+00 -1.541631e+00 -9.570405e-01 -5.517120e-02 -3.843343e-01 1.590844e-01 8.752444e-01 7.748010e-01 6.258131e-01 -1.825250e-01 1.888315e+00
<VARIANCE> 39
 1.282905e+01 1.157131e+01 1.586814e+01 1.785872e+01 1.944889e+01 2.147616e+01 2.552936e+01 2.284437e+01 1.828427e+01 1.784472e+01 2.082656e+01 1.665173e+01 1.070904e+01 2.623087e+00 1.812501e+00 1.887175e+00 4.186098e+00 2.945495e+00 2.174130e+00 2.745252e+00 2.915768e+00 2.684996e+00 2.590519e+00 2.937749e+00 1.902342e+00 3.025480e+00 3.294340e-01 4.107684e-01 5.136310e-01 8.146538e-01 6.015053e-01 7.909065e-01 9.249504e-01 8.187120e-01 6.585568e-01 6.713406e-01 6.444429e-01 6.025107e-01 2.948680e-01
<GCONST> 1.141896e+02
<MIXTURE> 15 4.870031e-02
<MEAN> 39
 5.091956e+00 1.324410e+01 2.726839e+00 6.136104e+00 4.125938e+00 5.098593e+00 4.303962e+00 -5.197571e+00 -6.558217e+00 -7.354156e+00 -4.804577e+00 -8.055505e-01 -1.456211e+01 -5.520034e-01 -2.988198e+00 -1.497250e+00 -2.179223e+00 -8.682637e-01 -9.887416e-01 -9.179187e-01 1.549254e-01 1.501123e+00 1.409469e+00 1.170545e+00 5.896350e-01 4.272220e+00 5.437578e-01 -1.158745e+00 -8.015145e-01 -1.322649e+00 -6.357338e-01 -6.064092e-02 -7.497150e-01 -4.889593e-02 4.274745e-01 7.837214e-01 8.603509e-01 2.028745e-01 1.640269e+00
<VARIANCE> 39
 1.443024e+01 1.069097e+01 1.777387e+01 2.247895e+01 2.578830e+01 1.986175e+01 2.227231e+01 2.842756e+01 2.205693e+01 1.816431e+01 2.870659e+01 1.805194e+01 9.977878e+00 2.914208e+00 1.877453e+00 1.787472e+00 4.754077e+00 3.147450e+00 2.334364e+00 2.459928e+00 2.862544e+00 2.402853e+00 2.503964e+00 2.188967e+00 1.807669e+00 2.520882e+00 2.925985e-01 3.680928e-01 4.125929e-01 9.442253e-01 5.558940e-01 7.445379e-01 8.118044e-01 7.823395e-01 6.288232e-01 6.087877e-01 5.956830e-01 5.628848e-01 2.952091e-01
<GCONST> 1.140394e+02
<MIXTURE> 16 4.514486e-02
<MEAN> 39
 -7.857143e+00 5.140241e+00 6.377934e-01 8.852721e+00 6.711498e+00 5.882426e+00 4.025561e+00 8.094793e-01 3.225691e+00 1.305066e+00 2.281959e+00 1.637427e+00 -2.001320e+01 2.375271e+00 -1.322729e+00 1.810068e-01 -2.018813e+00 -2.068091e+00 -2.887976e+00 -1.405852e+00 -4.125936e-01 -4.887791e-01 -9.530959e-01 -9.173608e-01 -6.326128e-01 6.321065e+00 1.123851e+00 -5.912806e-01 2.555323e-01 -9.299157e-01 -9.748858e-01 -6.731034e-01 -6.446860e-01 -2.024260e-01 -4.928269e-01 -2.409112e-02 -1.994691e-01 -2.444476e-01 1.902986e+00
<VARIANCE> 39
 9.861721e+00 1.571719e+01 1.433597e+01 1.728952e+01 2.068704e+01 1.776521e+01 2.095506e+01 2.531694e+01 2.513710e+01 2.129803e+01 2.362239e+01 1.784689e+01 1.675220e+01 2.360209e+00 2.213653e+00 3.275292e+00 3.635942e+00 2.614359e+00 3.475905e+00 2.391134e+00 2.727957e+00 3.483615e+00 3.043877e+00 2.147245e+00 2.089779e+00 4.446358e+00 1.962128e-01 4.613188e-01 8.775675e-01 6.365455e-01 7.312879e-01 7.210271e-01 7.319423e-01 7.116287e-01 8.309249e-01 6.523594e-01 6.400901e-01 4.587678e-01 4.497332e-01
<GCONST> 1.162134e+02
<MIXTURE> 17 4.595412e-02
<MEAN> 39
 -9.081917e+00 4.191724e+00 2.255734e-01 8.859463e+00 6.094905e+00 6.206117e+00 3.530750e+00 1.699868e+00 3.173192e+00 2.232892e+00 3.016031e+00 1.508101e+00 -2.236546e+01 2.919537e-01 -5.914998e-01 -1.698805e-01 -6.263803e-01 -6.579638e-01 -8.334929e-01 -4.586163e-01 -3.499235e-01 -2.988082e-01 -5.464706e-01 -4.017858e-01 -1.792047e-01 1.700377e+00 7.507359e-01 -2.039044e-01 1.005972e-01 -6.643561e-01 -3.951281e-01 -6.396434e-01 -3.737031e-01 -2.292987e-01 -2.236436e-01 -2.695439e-01 -2.778335e-01 -1.649184e-01 2.150672e+00
<VARIANCE> 39
 6.050608e+00 7.866250e+00 1.209692e+01 1.681486e+01 1.093729e+01 1.412040e+01 1.899113e+01 1.981294e+01 2.118926e+01 1.425935e+01 1.537786e+01 1.471548e+01 7.380147e+00 4.819310e-01 1.051672e+00 7.584470e-01 1.089855e+00 9.899183e-01 1.143036e+00 1.022831e+00 1.335327e+00 1.228221e+00 1.430095e+00 1.191143e+00 1.204538e+00 4.120214e+00 2.304865e-01 2.482781e-01 3.444634e-01 4.119457e-01 3.076961e-01 3.528365e-01 3.111274e-01 4.121240e-01 4.190846e-01 3.857143e-01 3.313132e-01 3.212803e-01 8.061568e-01
<GCONST> 9.349660e+01
<STATE> 3
<NUMMIXES> 17
<MIXTURE> 1 4.916915e-02
<MEAN> 39
 -5.247271e+00 2.488016e+00 3.352274e+00 6.660599e+00 6.253026e+00 3.730502e+00 2.170094e+00 4.119555e-02 1.184114e+00 -5.742819e-01 1.132364e+00 3.102636e-01 -7.346385e+00 9.353638e-02 -3.594328e+00 -2.796826e+00 -3.385487e+00 -9.556113e-01 -9.761756e-01 3.963747e-01 1.992893e+00 2.643800e+00 2.310146e+00 1.765050e+00 1.220799e+00 6.294784e+00 1.605939e+00 2.252058e-01 -6.333183e-01 -7.670034e-01 -5.229323e-01 -4.116478e-01 -7.634950e-01 -6.129600e-01 -4.637742e-01 -4.159457e-02 -1.329555e-01 -1.877511e-01 4.659403e-01
<VARIANCE> 39
 1.552687e+01 2.339885e+01 2.037799e+01 2.179307e+01 2.597532e+01 2.329421e+01 3.505842e+01 3.104160e+01 3.264010e+01 2.311659e+01 2.709349e+01 1.851650e+01 4.166537e+01 5.680346e+00 2.510039e+00 2.985099e+00 3.835189e+00 3.922689e+00 3.451829e+00 6.726007e+00 5.897624e+00 3.411199e+00 3.387755e+00 3.251980e+00 2.700369e+00 2.741595e+00 7.050793e-01 6.035073e-01 6.986557e-01 9.304222e-01 7.009618e-01 8.499967e-01 1.011223e+00 1.012598e+00 9.309286e-01 8.767140e-01 8.609626e-01 7.483546e-01 6.063640e-01
<GCONST> 1.277274e+02
<MIXTURE> 2 7.307783e-02
<MEAN> 39
 2.361344e-01 3.870412e+00 -2.467591e+00 -2.442716e-01 2.896010e+00 -1.134644e+00 2.386237e+00 -3.481472e+00 1.981382e-01 1.717286e+00 -3.556371e-01 3.203934e+00 3.094847e-01 3.038537e+00 -3.629349e+00 -1.919316e+00 -5.216372e+00 -3.826855e+00 8.846623e-01 -1.601556e+00 1.945197e-01 1.934227e+00 1.427413e+00 2.163546e+00 -2.234767e-01 6.747808e+00 6.730052e-01 -1.752775e-01 1.513088e-01 -1.231690e-01 -4.017369e-01 9.315669e-01 -2.653629e-01 -5.859365e-02 -8.262093e-02 -1.983883e-01 2.848492e-01 -6.450098e-01 -4.410071e-01
<VARIANCE> 39
 1.618398e+01 1.386497e+01 1.995616e+01 2.567888e+01 2.419720e+01 2.442819e+01 3.106642e+01 2.571700e+01 2.472230e+01 2.954449e+01 1.598624e+01 1.213981e+01 2.555905e+01 3.402457e+00 3.680867e+00 3.663836e+00 5.264221e+00 3.324788e+00 6.195340e+00 5.741294e+00 6.581644e+00 5.497968e+00 4.584453e+00 3.827612e+00 4.196927e+00 3.452587e+00 3.989750e-01 5.205320e-01 4.170881e-01 7.432277e-01 5.787088e-01 6.362495e-01 8.177983e-01 7.171415e-01 6.067122e-01 7.181593e-01 4.757343e-01 4.401422e-01 5.469952e-01
<GCONST> 1.236115e+02
<MIXTURE> 3 5.791033e-02
<MEAN> 39
 -3.837679e+00 1.948745e+00 2.084538e+00 6.185332e+00 4.344872e+00 -1.505238e+00 2.530410e+00 4.296010e-01 2.559918e+00 -8.781995e-01 -1.938299e+00 8.361244e-01 -3.505527e+00 1.367297e+00 -3.758914e+00 1.523498e+00 -1.987309e+00 -3.850260e+00 -3.262778e+00 -1.224736e+00 2.177632e+00 1.461969e-01 -3.732879e-01 7.021660e-01 1.245003e+00 6.764713e+00 8.829709e-01 -5.893657e-02 8.238913e-01 -2.360195e-01 -9.722652e-01 -1.421431e-01 -7.250944e-01 -1.117392e-01 -8.682618e-01 -3.355891e-02 3.873415e-01 -1.266375e-01 1.025519e-01
<VARIANCE> 39
 1.885822e+01 1.701942e+01 1.631890e+01 2.282874e+01 2.527889e+01 2.702646e+01 2.670449e+01 2.648391e+01 2.806027e+01 2.414709e+01 2.144520e+01 1.691928e+01 3.206865e+01 3.591207e+00 2.856901e+00 2.657473e+00 4.509999e+00 3.830831e+00 2.612098e+00 5.240369e+00 3.917814e+00 3.502243e+00 3.785421e+00 3.073509e+00 2.249532e+00 2.992483e+00 3.412603e-01 4.442928e-01 4.096582e-01 5.921148e-01 6.320133e-01 6.431590e-01 7.741029e-01 7.057173e-01 8.170547e-01 7.854929e-01 5.730397e-01 4.189171e-01 5.067575e-01
<GCONST> 1.207309e+02
<MIXTURE> 4 6.342641e-02
<MEAN> 39
 -4.968221e+00 -1.351094e+00 -2.021296e+00 2.724687e+00 4.897483e+00 2.214700e+00 2.526774e+00 -5.148804e-01 3.476020e+00 2.761862e+00 2.871171e+00 1.643977e+00 3.334464e-01 2.632562e+00 -1.690249e+00 -2.475451e+00 -3.736584e+00 -1.182674e+00 -5.329322e-01 -1.049201e+00 -1.648635e-01 8.794938e-01 1.189395e+00 1.147906e+00 9.113129e-01 5.374129e+00 1.630799e+00 1.024574e+00 -6.686246e-02 -4.298427e-01 -2.853765e-01 1.528232e-01 -7.567955e-01 -5.067595e-01 -8.455725e-01 -5.873433e-01 -3.064469e-01 -9.769350e-02 -8.173659e-01
<VARIANCE> 39
 1.267156e+01 2.044224e+01 1.465587e+01 2.442735e+01 2.149083e+01 1.828041e+01 2.937718e+01 3.141451e+01 2.500061e+01 1.718900e+01 2.173234e+01 1.645565e+01 3.058794e+01 3.686317e+00 3.076995e+00 3.943555e+00 6.334630e+00 2.977033e+00 2.879040e+00 4.780689e+00 3.717060e+00 3.345855e+00 3.185797e+00 2.547207e+00 2.227543e+00 3.150693e+00 3.452481e-01 5.970021e-01 6.457933e-01 9.249346e-01 7.698124e-01 8.332132e-01 1.142157e+00 1.151986e+00 9.470146e-01 6.438671e-01 6.673006e-01 6.293614e-01 6.852120e-01
<GCONST> 1.231968e+02
<MIXTURE> 5 3.507942e-02
<MEAN> 39
 7.497362e+00 3.483859e+00 -4.246601e+00 -5.934583e+00 -8.200040e-01 4.678490e+00 -7.971367e-01 -5.939461e+00 -2.709374e+00 1.094550e+00 5.008420e+00 1.709781e+00 8.618568e-01 1.650520e+00 -3.634530e+00 -2.519363e+00 -5.258695e+00 -1.543166e+00 3.102947e-01 -4.686667e-01 9.349284e-01 2.360349e+00 2.346877e+00 1.780876e+00 4.631123e-02 5.387402e+00 3.270211e-02 -8.978864e-02 1.552593e-01 3.297622e-01 3.828203e-01 6.527705e-02 1.600194e-01 7.749423e-02 -8.465591e-02 -2.027475e-02 -5.680441e-01 -4.861478e-01 -2.600352e-01
<VARIANCE> 39
 1.410316e+01 1.385972e+01 1.671012e+01 3.061003e+01 2.076733e+01 2.310540e+01 2.201600e+01 2.163571e+01 2.249333e+01 2.388962e+01 2.391107e+01 1.627051e+01 1.861011e+01 2.038054e+00 4.465271e+00 4.105669e+00 6.718940e+00 4.439070e+00 5.032911e+00 6.575867e+00 5.792386e+00 5.540121e+00 4.692127e+00 5.010369e+00 4.193621e+00 3.860051e+00 2.549519e-01 2.648800e-01 2.741338e-01 4.896179e-01 4.563348e-01 4.051197e-01 5.032365e-01 6.581870e-01 6.045071e-01 4.840953e-01 5.721026e-01 3.840543e-01 4.022472e-01
<GCONST> 1.194779e+02
<MIXTURE> 6 5.999530e-02
<MEAN> 39
 -4.979278e+00 6.580454e-01 1.446147e-01 4.366949e+00 3.069784e+00 2.041715e+00 2.510406e+00 1.137706e+00 5.069134e+00 1.955533e+00 3.293917e+00 2.022319e+00 -3.598017e+00 4.524143e+00 -1.778574e+00 -1.538272e+00 -3.674089e+00 -1.404062e+00 -1.690035e+00 -1.645765e+00 -6.540002e-01 -4.519736e-01 2.131383e-01 -7.876194e-01 -7.535640e-01 7.554393e+00 9.464742e-01 -1.572092e-01 -3.640311e-01 -5.495814e-01 -1.819204e-02 7.174264e-02 -4.116991e-01 -5.567788e-02 -4.532647e-01 6.161997e-02 -3.937029e-01 -3.273704e-01 -2.203685e-01
<VARIANCE> 39
 1.313956e+01 1.792836e+01 1.848188e+01 2.276564e+01 2.192702e+01 2.619249e+01 3.464043e+01 2.147642e+01 3.050923e+01 2.424809e+01 2.314449e+01 2.169459e+01 3.965639e+01 1.741317e+00 2.227137e+00 3.133164e+00 5.442259e+00 2.402166e+00 4.736322e+00 3.613187e+00 2.790675e+00 3.381615e+00 3.523968e+00 4.106880e+00 2.687168e+00 3.843384e+00 3.985925e-01 5.423797e-01 5.410509e-01 7.477027e-01 6.400687e-01 9.347056e-01 1.028425e+00 7.071891e-01 7.846757e-01 7.110419e-01 7.788092e-01 7.164335e-01 7.786332e-01
<GCONST> 1.231255e+02
<MIXTURE> 7 5.636026e-02
<MEAN> 39
 -2.138086e+00 4.792126e-01 3.952843e+00 7.418951e+00 5.579416e-01 -5.089707e+00 8.205127e-01 2.218713e+00 2.155246e+00 -2.795552e+00 1.350774e+00 1.666214e+00 -2.937594e-01 1.546940e+00 -2.788068e+00 3.269534e+00 -2.618697e+00 -4.562088e+00 -2.655536e+00 -7.594368e-01 7.061954e-01 -1.975619e+00 1.207673e-01 5.890081e-01 7.074910e-01 6.285762e+00 4.271722e-01 4.260516e-01 7.685243e-01 -6.171323e-01 -5.379074e-01 5.658231e-01 -4.186909e-01 -7.454122e-01 -9.151285e-01 4.105687e-01 -1.224522e-01 -3.451401e-01 -5.711771e-01
<VARIANCE> 39
 2.209194e+01 1.530175e+01 2.780717e+01 2.248745e+01 3.180151e+01 3.289347e+01 3.831247e+01 3.564017e+01 3.606991e+01 2.238670e+01 3.275725e+01 2.365436e+01 2.909134e+01 4.591449e+00 2.950296e+00 3.264667e+00 5.717587e+00 3.431137e+00 4.398458e+00 5.566239e+00 6.363037e+00 4.583951e+00 6.493525e+00 3.462673e+00 2.872960e+00 3.741645e+00 3.899828e-01 5.005502e-01 4.975960e-01 6.656058e-01 6.293835e-01 9.534066e-01 9.612259e-01 1.021696e+00 8.552721e-01 6.425391e-01 9.972215e-01 5.659763e-01 6.800289e-01
<GCONST> 1.288284e+02
<MIXTURE> 8 6.382416e-02
<MEAN> 39
 3.580596e-01 5.056279e+00 1.710197e+00 5.065211e+00 5.748829e+00 2.398464e+00 1.564464e+00 -4.268981e+00 -3.102299e+00 -2.565815e+00 -2.804078e+00 -9.097500e-01 -6.185376e+00 8.018906e-01 -3.136506e+00 -2.147652e+00 -3.869775e+00 -1.869843e+00 -5.149827e-01 -9.811613e-01 6.436594e-01 2.097038e+00 1.789924e+00 1.647788e+00 9.907806e-01 5.359853e+00 1.059524e+00 -9.935235e-02 -4.322314e-01 -9.948406e-01 -7.154558e-01 2.764301e-01 -3.802659e-01 -1.562748e-02 4.344184e-02 1.267677e-01 4.756613e-01 1.151411e-01 4.336104e-01
<VARIANCE> 39
 2.120835e+01 1.844154e+01 2.512171e+01 2.583674e+01 2.438617e+01 2.753100e+01 2.581390e+01 2.375648e+01 2.152511e+01 2.253471e+01 2.011235e+01 1.955166e+01 1.879899e+01 2.275071e+00 2.678593e+00 3.147898e+00 5.178294e+00 3.464386e+00 3.346110e+00 4.181067e+00 5.303705e+00 3.758309e+00 3.424372e+00 2.772485e+00 2.882478e+00 2.749487e+00 3.671277e-01 5.808378e-01 5.288873e-01 1.164287e+00 7.494072e-01 1.050422e+00 9.116375e-01 8.167633e-01 6.899054e-01 7.955341e-01 5.344269e-01 5.453966e-01 3.169691e-01
<GCONST> 1.223887e+02
<MIXTURE> 9 8.289846e-02
<MEAN> 39
 4.121567e+00 1.505749e+00 -2.343360e+00 7.336723e-01 8.894684e-01 -2.041871e+00 -3.407124e+00 -3.141088e+00 3.939857e+00 2.253155e+00 2.204105e+00 -3.237814e+00 2.446958e+00 1.700624e+00 -5.000231e+00 -1.976544e+00 -4.694471e+00 -2.155256e+00 -1.706016e+00 -5.302273e-01 3.073590e+00 2.475480e+00 2.152003e+00 -9.343383e-01 7.635241e-02 6.811092e+00 1.875836e-01 -1.863253e-01 2.142580e-01 1.280811e-01 1.294956e-01 1.658726e-01 1.467226e-01 1.862549e-01 -5.719746e-01 -1.917436e-01 -5.719943e-01 4.633881e-02 -4.315476e-01
<VARIANCE> 39
 1.448140e+01 1.352370e+01 1.905487e+01 2.035725e+01 1.628217e+01 2.489090e+01 2.360396e+01 2.665557e+01 2.073450e+01 2.270519e+01 1.917930e+01 1.240562e+01 2.014598e+01 4.364606e+00 2.799554e+00 5.304415e+00 5.238474e+00 5.037310e+00 7.965901e+00 8.362667e+00 6.698099e+00 6.709469e+00 6.395732e+00 4.631480e+00 4.029966e+00 3.360681e+00 3.971783e-01 3.310225e-01 3.920752e-01 4.262218e-01 5.279498e-01 5.186239e-01 6.146597e-01 5.884885e-01 5.886107e-01 5.206125e-01 5.875003e-01 3.971168e-01 4.094146e-01
<GCONST> 1.217753e+02
<MIXTURE> 10 7.156869e-02
<MEAN> 39
 3.715650e-01 3.748774e+00 -2.286130e+00 -4.248857e-01 2.612636e+00 -1.697354e+00 1.955958e+00 -3.747001e+00 -7.368122e-02 1.229047e+00 -7.887096e-01 2.672910e+00 2.405055e-01 2.853669e+00 -3.787699e+00 -2.039335e+00 -5.236435e+00 -4.019499e+00 4.519071e-01 -1.744428e+00 1.621152e-01 1.868105e+00 1.286081e+00 1.899620e+00 -4.214140e-01 6.789292e+00 6.714357e-01 -1.655871e-01 1.132310e-01 -1.131228e-01 -4.229955e-01 9.035057e-01 -2.934302e-01 -3.364709e-02 -4.322636e-02 -2.058348e-01 2.185827e-01 -6.523732e-01 -4.176210e-01
<VARIANCE> 39
 1.655626e+01 1.420599e+01 1.900130e+01 2.659989e+01 2.402257e+01 2.389244e+01 3.062197e+01 2.568710e+01 2.468204e+01 3.150892e+01 1.695266e+01 1.281846e+01 2.502440e+01 3.465845e+00 3.599190e+00 3.699425e+00 5.413011e+00 3.260732e+00 6.390702e+00 6.310308e+00 7.028302e+00 5.633367e+00 4.582303e+00 3.927943e+00 4.296870e+00 3.461566e+00 3.801948e-01 5.792663e-01 4.500566e-01 7.690448e-01 6.215165e-01 6.011934e-01 8.388401e-01 7.228709e-01 6.204461e-01 7.605442e-01 4.571225e-01 4.145644e-01 5.281555e-01
<GCONST> 1.241975e+02
<MIXTURE> 11 6.263191e-02
<MEAN> 39
 5.216695e-01 4.790196e+00 1.800096e+00 5.104146e+00 5.521914e+00 1.682567e+00 1.092231e+00 -4.685261e+00 -3.454755e+00 -3.106756e+00 -3.364734e+00 -1.749092e+00 -5.970004e+00 6.303287e-01 -3.115297e+00 -1.888701e+00 -3.657612e+00 -2.011071e+00 -7.461572e-01 -1.095591e+00 6.900800e-01 1.765676e+00 1.444019e+00 1.298025e+00 6.918771e-01 5.137972e+00 1.011107e+00 -5.697348e-02 -3.800782e-01 -9.759989e-01 -7.865816e-01 2.709517e-01 -4.327960e-01 4.091481e-02 1.843360e-03 1.225739e-01 4.347188e-01 1.162396e-01 3.564771e-01
<VARIANCE> 39
 2.252120e+01 1.835385e+01 2.660332e+01 2.562972e+01 2.538400e+01 2.758758e+01 2.598247e+01 2.342614e+01 1.900754e+01 2.362789e+01 2.138205e+01 2.125115e+01 1.893769e+01 2.611346e+00 2.612356e+00 3.400799e+00 5.248800e+00 3.282411e+00 3.464520e+00 4.727217e+00 4.788935e+00 4.077244e+00 3.576519e+00 2.696305e+00 2.792801e+00 2.764743e+00 4.215495e-01 6.323155e-01 5.249920e-01 1.178323e+00 7.638476e-01 1.031658e+00 9.097220e-01 8.441324e-01 7.002747e-01 7.715203e-01 5.451412e-01 5.657247e-01 3.252175e-01
<GCONST> 1.232050e+02
<MIXTURE> 12 6.729417e-02
<MEAN> 39
 -4.886318e+00 -1.857095e+00 -2.276838e+00 2.588941e+00 4.437700e+00 1.498344e+00 2.000151e+00 -4.550928e-01 3.012301e+00 2.247174e+00 2.573818e+00 1.049658e+00 4.144714e-01 2.646302e+00 -1.810207e+00 -2.519331e+00 -3.622532e+00 -1.489595e+00 -1.034200e+00 -1.223400e+00 -4.354551e-01 5.122424e-01 7.498676e-01 6.823524e-01 4.857801e-01 5.358359e+00 1.627390e+00 1.032856e+00 3.152763e-03 -3.637349e-01 -3.515896e-01 7.966909e-02 -7.453899e-01 -5.542544e-01 -8.510311e-01 -6.357939e-01 -3.993718e-01 -1.886721e-01 -8.388403e-01
<VARIANCE> 39
 1.221709e+01 1.867786e+01 1.527530e+01 2.261825e+01 2.483929e+01 1.992101e+01 2.643258e+01 2.808521e+01 2.565352e+01 1.782073e+01 2.211925e+01 1.712917e+01 3.093295e+01 3.483164e+00 3.059244e+00 3.607331e+00 6.042298e+00 2.874852e+00 3.192045e+00 4.702228e+00 3.964470e+00 3.619107e+00 3.577719e+00 2.800557e+00 2.369758e+00 3.273535e+00 3.273578e-01 5.905042e-01 6.438701e-01 9.551805e-01 8.226268e-01 8.688815e-01 1.211558e+00 1.113646e+00 1.048871e+00 5.956719e-01 7.250767e-01 6.510378e-01 7.004918e-01
<GCONST> 1.237470e+02
<MIXTURE> 13 5.404153e-02
<MEAN> 39
 -4.763377e+00 -3.930062e-01 -6.366374e-02 4.389841e+00 2.566407e+00 1.904544e+00 1.891123e+00 9.844236e-01 5.169292e+00 1.277000e+00 3.549466e+00 1.665641e+00 -2.962356e+00 4.360070e+00 -2.009255e+00 -1.839069e+00 -3.774131e+00 -1.672908e+00 -2.262952e+00 -1.950141e+00 -9.712923e-01 -7.848495e-01 -3.855409e-01 -1.475879e+00 -1.124103e+00 7.198387e+00 1.028458e+00 -8.783194e-02 -4.121825e-01 -4.913761e-01 -1.152508e-02 -5.284426e-02 -4.382810e-01 -1.199392e-01 -5.010667e-01 -1.698061e-02 -5.335833e-01 -4.133946e-01 -2.873065e-01
<VARIANCE> 39
 1.327591e+01 1.917586e+01 1.696884e+01 2.249495e+01 2.379977e+01 2.844684e+01 3.010408e+01 2.192117e+01 3.255967e+01 2.401748e+01 2.294567e+01 2.043612e+01 3.828859e+01 1.805408e+00 2.028185e+00 2.911879e+00 4.904659e+00 2.538296e+00 4.558792e+00 3.721195e+00 2.711314e+00 3.119503e+00 3.192902e+00 4.420115e+00 2.691704e+00 3.837999e+00 4.686092e-01 5.330123e-01 5.178164e-01 6.477304e-01 6.862761e-01 9.709965e-01 1.052532e+00 7.543161e-01 9.466798e-01 6.948861e-01 7.656685e-01 7.054464e-01 8.023330e-01
<GCONST> 1.230944e+02
<MIXTURE> 14 5.881971e-02
<MEAN> 39
 -3.673034e+00 1.882232e+00 1.763602e+00 6.009532e+00 4.268116e+00 -1.809080e+00 1.844300e+00 -4.548162e-01 2.467962e+00 -1.214761e+00 -2.406183e+00 2.793864e-01 -3.098830e+00 1.256366e+00 -3.976392e+00 1.484568e+00 -2.154733e+00 -4.071496e+00 -3.561645e+00 -1.464113e+00 1.932203e+00 -8.441788e-02 -5.629457e-01 4.430616e-01 9.524496e-01 6.730246e+00 8.903216e-01 -5.241409e-02 8.573225e-01 -2.664151e-01 -9.989417e-01 -1.163756e-01 -7.104050e-01 -7.688800e-02 -9.505327e-01 -4.920286e-02 4.216843e-01 -1.123486e-01 5.939622e-02
<VARIANCE> 39
 2.016395e+01 1.671199e+01 1.780545e+01 2.025281e+01 2.444530e+01 2.690217e+01 2.816582e+01 2.584695e+01 2.869133e+01 2.684773e+01 2.218823e+01 1.727791e+01 2.842788e+01 3.604955e+00 2.585377e+00 2.725304e+00 4.437480e+00 3.633465e+00 2.768849e+00 5.471520e+00 4.175119e+00 4.084633e+00 3.440125e+00 2.941876e+00 2.025978e+00 2.663712e+00 3.797365e-01 4.737432e-01 4.578035e-01 5.657887e-01 6.232363e-01 6.899399e-01 8.310844e-01 7.765975e-01 8.623211e-01 8.174713e-01 6.286697e-01 4.086692e-01 4.647216e-01
<GCONST> 1.211538e+02
<MIXTURE> 15 5.583541e-02
<MEAN> 39
 -2.276245e+00 5.031254e-02 4.541727e+00 7.358298e+00 5.011541e-01 -5.543160e+00 1.610073e-01 2.210762e+00 1.874504e+00 -3.056395e+00 1.326762e+00 1.071201e+00 -2.798270e-01 1.537666e+00 -2.831434e+00 3.362154e+00 -2.887223e+00 -4.885195e+00 -2.903546e+00 -1.144616e+00 3.413427e-01 -2.537770e+00 -9.977545e-02 2.862735e-01 1.697064e-01 6.340943e+00 4.375520e-01 4.605272e-01 7.237429e-01 -7.300259e-01 -6.346139e-01 6.575809e-01 -4.397016e-01 -8.021095e-01 -9.664558e-01 4.449967e-01 -1.521995e-01 -3.647587e-01 -5.700682e-01
<VARIANCE> 39
 2.328945e+01 1.565790e+01 3.070819e+01 2.677185e+01 3.312756e+01 3.083604e+01 3.681345e+01 3.771570e+01 4.383565e+01 2.227416e+01 3.527089e+01 2.279498e+01 2.934800e+01 4.604660e+00 3.044396e+00 3.277872e+00 5.248762e+00 3.293391e+00 4.786489e+00 5.660549e+00 6.804252e+00 4.690441e+00 5.899203e+00 3.415408e+00 3.000134e+00 3.706425e+00 3.879143e-01 5.139782e-01 5.499402e-01 6.823198e-01 6.159862e-01 1.024135e+00 9.236920e-01 1.101213e+00 1.060575e+00 6.292266e-01 1.097500e+00 5.581352e-01 6.785491e-01
<GCONST> 1.299387e+02
<MIXTURE> 16 5.388070e-02
<MEAN> 39
 -4.950721e+00 1.862921e+00 3.032252e+00 6.110582e+00 5.454341e+00 3.093727e+00 1.882178e+00 -1.933830e-01 6.433467e-01 -1.123737e+00 3.187105e-01 -2.789516e-01 -6.368421e+00 6.111851e-01 -3.914026e+00 -3.135560e+00 -3.449355e+00 -1.475622e+00 -1.419952e+00 -3.553335e-02 1.770786e+00 2.121173e+00 1.875782e+00 1.190009e+00 6.382200e-01 6.200155e+00 1.694099e+00 1.754594e-01 -6.502746e-01 -6.870633e-01 -4.929835e-01 -4.736921e-01 -7.712534e-01 -5.656148e-01 -4.543900e-01 1.588362e-02 -1.271799e-01 -2.265350e-01 3.994480e-01
<VARIANCE> 39
 1.467616e+01 2.152084e+01 2.165156e+01 2.081192e+01 2.463317e+01 2.453679e+01 3.148444e+01 2.766696e+01 3.032839e+01 2.386453e+01 2.482274e+01 1.734688e+01 3.800022e+01 4.689527e+00 2.259794e+00 3.120939e+00 3.744535e+00 3.075024e+00 2.833498e+00 6.023897e+00 5.879350e+00 3.402627e+00 3.172426e+00 3.222434e+00 2.657891e+00 2.555188e+00 5.600241e-01 6.481464e-01 7.434373e-01 8.450199e-01 7.007288e-01 8.753223e-01 1.102950e+00 1.044104e+00 1.003726e+00 9.089298e-01 8.794802e-01 7.361012e-01 5.546731e-01
<GCONST> 1.260783e+02
<MIXTURE> 17 3.418052e-02
<MEAN> 39
 7.778367e+00 3.461984e+00 -3.827960e+00 -5.595539e+00 -1.168762e+00 4.623837e+00 -1.500988e+00 -6.552622e+00 -2.772174e+00 7.164341e-01 4.175377e+00 9.800366e-01 5.619476e-01 1.469688e+00 -3.610727e+00 -2.313576e+00 -5.038728e+00 -1.534459e+00 1.229535e-01 -7.487032e-01 9.439089e-01 2.087335e+00 2.210535e+00 1.543211e+00 -2.186457e-01 5.276489e+00 1.246745e-02 -1.126541e-01 9.300953e-02 2.960236e-01 3.216096e-01 -1.165789e-03 7.205337e-02 1.103104e-01 -6.393661e-02 -6.057311e-02 -5.361540e-01 -5.162204e-01 -2.047305e-01
<VARIANCE> 39
 1.387874e+01 1.370717e+01 1.838498e+01 3.352364e+01 2.129864e+01 2.650590e+01 2.456353e+01 2.334434e+01 2.228059e+01 2.848316e+01 2.694319e+01 1.790903e+01 1.993473e+01 2.188055e+00 4.584977e+00 4.701660e+00 7.309082e+00 4.685534e+00 4.623036e+00 6.668785e+00 5.480663e+00 5.547305e+00 4.856660e+00 5.058741e+00 4.082371e+00 3.937663e+00 3.052658e-01 2.523013e-01 2.866114e-01 4.844738e-01 4.408578e-01 4.240083e-01 5.533383e-01 5.973420e-01 6.764550e-01 4.625227e-01 5.146212e-01 3.595048e-01 3.950094e-01
<GCONST> 1.207702e+02
<STATE> 4
<NUMMIXES> 17
<MIXTURE> 1 8.618163e-02
<MEAN> 39
 1.021927e+01 -1.769778e+00 -5.105315e+00 -1.267268e+01 -6.356580e+00 1.031705e+01 -8.617267e-02 -7.803894e+00 9.192230e-01 3.579706e+00 6.727138e+00 9.010108e-01 7.479207e+00 2.371240e+00 -2.859506e+00 -1.468129e+00 -4.475025e+00 -2.448667e+00 2.959394e+00 -5.193123e-01 -3.304539e-01 1.389154e+00 1.032071e+00 1.445074e+00 -1.138633e+00 3.525014e+00 -6.714846e-01 7.268452e-01 5.790317e-01 1.467474e+00 1.165143e+00 -2.766058e-01 3.227430e-01 2.809428e-01 -3.750302e-01 -5.416660e-01 -8.467061e-01 -4.078182e-01 -1.602197e+00
<VARIANCE> 39
 1.069619e+01 1.427394e+01 1.679983e+01 3.611512e+01 2.252013e+01 3.935940e+01 4.581974e+01 3.324057e+01 3.061936e+01 2.996891e+01 2.236566e+01 1.727878e+01 1.190285e+01 2.168536e+00 4.064789e+00 2.838198e+00 5.795451e+00 4.145309e+00 5.475870e+00 6.227131e+00 4.614842e+00 5.545932e+00 4.932137e+00 4.180880e+00 2.225665e+00 4.400913e+00 3.624632e-01 2.659306e-01 2.375114e-01 4.277777e-01 3.058247e-01 6.492568e-01 5.249327e-01 6.455244e-01 5.392621e-01 4.545312e-01 3.673167e-01 3.427911e-01 1.609508e-01
<GCONST> 1.183334e+02
<MIXTURE> 2 5.022895e-02
<MEAN> 39
 1.460297e-01 -1.019535e+00 -1.445409e-01 7.323908e-01 -1.529327e-01 -3.445511e+00 -1.966059e+00 6.782426e-01 4.383149e+00 1.641523e+00 8.782113e-02 8.415869e-01 5.501614e+00 1.193475e+00 -2.815416e+00 -7.238587e-01 -3.059924e+00 -2.743767e+00 -1.380954e+00 -6.961554e-01 1.928057e+00 1.476125e+00 7.764149e-01 5.386133e-01 8.923719e-01 5.000087e+00 4.132055e-01 8.902413e-01 3.876296e-01 5.311677e-01 2.566337e-01 6.140923e-01 2.080068e-02 -4.732648e-01 -8.153988e-01 -3.950464e-01 -6.949190e-02 -3.241608e-01 -1.469781e+00
<VARIANCE> 39
 3.822417e+01 2.269801e+01 2.252809e+01 2.315494e+01 2.961156e+01 3.250722e+01 4.358013e+01 3.402431e+01 2.197397e+01 2.235077e+01 2.026049e+01 1.616365e+01 2.417541e+01 8.301740e+00 6.696908e+00 4.981903e+00 6.609172e+00 7.128097e+00 6.242888e+00 9.083208e+00 7.753859e+00 5.026922e+00 5.686534e+00 3.479574e+00 3.768542e+00 4.943017e+00 4.175885e-01 4.132053e-01 5.384964e-01 6.472615e-01 6.836210e-01 6.399949e-01 8.387890e-01 8.506149e-01 5.992335e-01 6.441727e-01 5.211235e-01 4.706763e-01 3.493437e-01
<GCONST> 1.297475e+02
<MIXTURE> 3 4.353765e-02
<MEAN> 39
 1.088756e+01 -6.708453e-01 -1.019161e+01 -3.786058e+00 3.281180e+00 -2.356605e-01 -6.941370e+00 -4.500249e+00 1.547300e+00 1.992884e+00 4.646034e+00 2.229050e+00 5.026114e+00 2.953796e+00 -2.517402e+00 -3.416113e+00 -1.766035e+00 -5.755552e-01 -9.306643e-01 -2.624795e+00 1.135653e+00 2.448472e+00 7.834833e-01 1.114040e+00 1.620439e-01 3.264372e+00 -3.681632e-01 5.905564e-01 8.546052e-01 1.002611e+00 1.646626e-01 2.509730e-01 4.104370e-01 2.721030e-01 -3.909471e-01 -6.534751e-01 -6.591067e-01 -3.579285e-01 -1.257498e+00
<VARIANCE> 39
 1.289423e+01 1.429914e+01 2.590398e+01 4.011510e+01 2.293023e+01 2.073847e+01 5.375634e+01 3.801432e+01 3.683565e+01 4.883875e+01 3.973003e+01 3.337932e+01 1.647984e+01 3.198040e+00 3.254788e+00 5.000648e+00 4.820703e+00 4.981399e+00 4.678977e+00 1.232390e+01 7.490225e+00 6.838511e+00 6.062891e+00 5.722165e+00 4.763475e+00 3.044818e+00 3.003319e-01 2.203702e-01 3.152297e-01 4.922071e-01 4.593669e-01 3.778692e-01 6.681319e-01 6.708837e-01 6.821851e-01 6.136461e-01 5.211324e-01 4.316804e-01 2.959173e-01
<GCONST> 1.257445e+02
<MIXTURE> 4 6.050278e-02
<MEAN> 39
 4.763269e+00 -3.270211e+00 7.593940e+00 4.682889e+00 -5.815760e+00 -8.460429e+00 -5.918635e+00 2.184118e+00 -4.155309e-01 -3.295854e+00 1.147231e+00 2.820306e+00 6.227726e+00 1.927979e+00 -2.968748e+00 2.538988e+00 -1.663945e+00 -4.747529e+00 -1.873431e+00 -2.045447e+00 1.719066e+00 -1.239113e+00 -5.270569e-01 1.454269e+00 7.431157e-01 4.444926e+00 -2.961574e-01 9.891180e-01 1.487742e-02 1.898413e-01 6.358222e-01 1.101743e+00 5.378803e-01 -4.768148e-01 -5.272602e-01 2.488445e-01 3.752425e-02 -4.573462e-01 -1.595717e+00
<VARIANCE> 39
 1.278605e+01 1.803908e+01 1.827871e+01 2.060150e+01 2.208641e+01 1.466447e+01 2.692435e+01 1.881359e+01 2.301831e+01 2.148584e+01 1.468323e+01 1.264812e+01 1.634154e+01 2.774917e+00 3.555239e+00 4.177321e+00 4.449715e+00 4.092596e+00 5.428998e+00 6.091793e+00 5.772468e+00 6.066248e+00 5.361850e+00 3.739702e+00 2.609994e+00 4.052823e+00 3.225809e-01 3.239116e-01 2.610197e-01 3.710862e-01 4.647834e-01 3.677562e-01 6.082064e-01 4.093164e-01 4.991674e-01 3.736736e-01 3.669802e-01 3.235267e-01 2.770054e-01
<GCONST> 1.154672e+02
<MIXTURE> 5 7.046060e-02
<MEAN> 39
 8.940708e+00 5.380739e+00 -4.077515e+00 -1.131240e+01 -3.855546e+00 6.083302e+00 1.899696e+00 -5.102291e+00 -2.715677e+00 -9.324787e-01 2.620921e+00 4.140603e+00 1.963533e+00 3.130409e+00 -1.888125e-01 -1.121663e+00 -5.529042e+00 -2.720839e+00 1.884732e+00 -4.307585e-01 -5.463569e-01 5.468551e-03 4.331774e-01 1.269852e+00 8.739812e-01 2.501834e+00 -3.705465e-01 3.405883e-01 4.575627e-01 9.152048e-01 4.984551e-01 1.874150e-01 9.871325e-02 1.419490e-01 -7.929786e-02 -1.790107e-01 -3.449184e-01 -4.364915e-01 -1.214859e+00
<VARIANCE> 39
 1.159945e+01 1.179970e+01 1.816098e+01 3.692581e+01 3.499464e+01 2.333625e+01 3.096668e+01 3.020463e+01 2.459356e+01 2.803169e+01 2.426492e+01 1.686631e+01 1.375919e+01 2.916035e+00 3.493521e+00 3.540001e+00 6.453027e+00 6.930862e+00 5.186117e+00 5.623395e+00 6.348364e+00 4.777124e+00 4.890707e+00 4.148810e+00 3.156504e+00 4.187373e+00 3.789466e-01 3.440988e-01 2.795220e-01 5.869866e-01 3.934008e-01 4.102577e-01 3.496176e-01 5.033911e-01 5.613714e-01 4.396475e-01 3.551358e-01 3.089323e-01 3.227446e-01
<GCONST> 1.194391e+02
<MIXTURE> 6 6.745791e-02
<MEAN> 39
 8.862131e+00 -5.457716e+00 -5.329457e+00 -6.586473e+00 4.405960e-01 -2.021027e+00 -3.240440e+00 2.200274e-01 4.359544e+00 6.438426e+00 -2.165318e+00 -4.869746e+00 9.044234e+00 2.294534e+00 -3.581364e+00 -1.620191e+00 -3.432292e+00 -6.480493e-01 -5.208489e-01 -3.037191e-02 1.744431e+00 6.207066e-01 1.163191e+00 -1.991343e+00 -7.607135e-01 4.474721e+00 -8.002350e-01 8.083706e-01 6.577864e-01 1.351651e+00 5.917433e-01 6.895674e-01 4.499608e-01 -1.734259e-01 -5.261744e-01 -8.349591e-01 1.796610e-02 4.183407e-01 -1.854752e+00
<VARIANCE> 39
 9.219494e+00 1.752317e+01 2.250751e+01 2.994668e+01 1.602917e+01 4.312586e+01 3.160851e+01 3.205776e+01 2.769965e+01 3.151615e+01 3.285135e+01 1.580255e+01 1.153934e+01 3.030647e+00 3.262085e+00 3.925311e+00 4.764292e+00 5.576078e+00 6.174232e+00 6.976940e+00 6.804982e+00 5.714087e+00 5.431875e+00 4.443691e+00 3.942451e+00 5.574570e+00 3.655784e-01 4.047486e-01 3.460585e-01 4.887961e-01 3.085627e-01 5.011542e-01 5.667161e-01 7.081262e-01 6.152982e-01 6.462841e-01 6.939644e-01 3.843864e-01 2.352733e-01
<GCONST> 1.226822e+02
<MIXTURE> 7 8.219704e-02
<MEAN> 39
 5.785489e-01 1.217712e+00 -1.744873e+00 2.021292e+00 2.805416e+00 3.203801e-01 -4.174218e-01 -2.083240e+00 2.410650e+00 1.781669e+00 2.231635e+00 6.446980e-01 2.423838e+00 4.585253e+00 -8.995876e-01 -1.931818e+00 -3.056727e+00 -1.453122e+00 -1.180684e+00 -2.494601e+00 -3.582462e-01 -2.796342e-01 3.509370e-01 2.315910e-01 2.929441e-01 4.015065e+00 3.357702e-01 4.018015e-01 8.226950e-02 1.500558e-01 1.217172e-01 3.422814e-01 -1.335158e-01 1.716900e-01 -3.168134e-01 -2.341575e-01 -1.766068e-01 -4.809219e-03 -1.413566e+00
<VARIANCE> 39
 1.738223e+01 1.525820e+01 1.886548e+01 2.495687e+01 2.227801e+01 2.415881e+01 2.857973e+01 3.339524e+01 2.619476e+01 2.319679e+01 2.132481e+01 1.592693e+01 2.109834e+01 2.928030e+00 5.001667e+00 7.422919e+00 8.255148e+00 5.616137e+00 7.601642e+00 8.252177e+00 6.236301e+00 5.572783e+00 5.717752e+00 4.433920e+00 4.204997e+00 6.311155e+00 4.496152e-01 4.560923e-01 4.317640e-01 5.447012e-01 5.936680e-01 6.542528e-01 8.329180e-01 9.845451e-01 7.531682e-01 6.437384e-01 5.336238e-01 3.786616e-01 4.318096e-01
<GCONST> 1.272332e+02
<MIXTURE> 8 4.450506e-02
<MEAN> 39
 2.276980e+00 -1.166202e+00 1.256557e+01 2.319185e+00 -8.169190e+00 -6.989964e+00 -6.638483e-01 -2.655105e-01 -7.103894e+00 -1.258741e+00 3.526672e+00 4.385723e-02 5.003277e+00 1.283115e+00 -1.428868e+00 3.701554e+00 -3.785126e+00 -4.233361e+00 -9.127767e-01 -5.854422e-01 -8.938941e-01 -3.017399e+00 1.544612e+00 -5.686020e-03 3.220735e-01 3.948840e+00 -1.956515e-01 9.614001e-01 -3.901381e-01 1.461267e-01 9.078216e-01 1.022025e+00 -2.174260e-01 -5.939072e-01 4.183814e-01 2.717406e-01 -4.617413e-01 -2.435502e-01 -1.614142e+00
<VARIANCE> 39
 1.267039e+01 1.776232e+01 3.059593e+01 3.668224e+01 2.447784e+01 3.312492e+01 2.487972e+01 3.314290e+01 2.937387e+01 2.854055e+01 2.317956e+01 2.047984e+01 1.747834e+01 3.573047e+00 3.825778e+00 3.709055e+00 4.504004e+00 3.166764e+00 7.277730e+00 6.003715e+00 7.854930e+00 5.382281e+00 5.630473e+00 4.221236e+00 3.310565e+00 5.475752e+00 3.765148e-01 4.724435e-01 3.629470e-01 6.193598e-01 4.947085e-01 7.732939e-01 5.849054e-01 7.082056e-01 5.144207e-01 5.360227e-01 4.546311e-01 5.107136e-01 3.892631e-01
<GCONST> 1.247022e+02
<MIXTURE> 9 4.740438e-02
<MEAN> 39
 1.073493e+01 -5.460704e+00 -6.506496e+00 -1.282145e+01 -4.698600e+00 1.010946e+01 5.196405e-01 -4.420889e+00 5.548520e-01 5.664246e+00 7.205371e+00 -5.561368e+00 9.607479e+00 1.670485e+00 -2.746455e+00 -1.339348e+00 -2.661875e+00 -6.784452e-01 2.032942e+00 1.122755e-01 4.541216e-01 9.114483e-01 5.415282e-01 1.585984e-01 -2.434990e+00 2.830209e+00 -1.025172e+00 9.278154e-01 6.423633e-01 1.766223e+00 1.218444e+00 -4.554723e-01 2.997557e-01 1.143070e-01 -7.866412e-02 -6.630173e-01 -1.051198e+00 3.297200e-01 -1.783781e+00
<VARIANCE> 39
 8.141361e+00 1.571719e+01 1.567588e+01 2.565997e+01 2.233744e+01 2.265466e+01 4.332791e+01 2.902183e+01 3.438546e+01 2.723710e+01 2.979434e+01 2.232168e+01 1.158139e+01 2.486403e+00 2.276556e+00 2.562431e+00 4.800138e+00 3.359245e+00 3.442281e+00 4.703024e+00 4.276649e+00 3.587171e+00 4.396697e+00 3.901887e+00 2.635488e+00 3.176383e+00 2.787065e-01 3.584430e-01 3.154393e-01 4.027888e-01 3.098609e-01 4.877360e-01 4.826648e-01 6.045586e-01 5.878310e-01 4.862154e-01 5.335199e-01 4.526432e-01 2.615975e-01
<GCONST> 1.161155e+02
<MIXTURE> 10 7.028224e-02
<MEAN> 39
 8.958561e+00 5.279427e+00 -4.234451e+00 -1.090807e+01 -3.397611e+00 5.730340e+00 1.334318e+00 -4.991086e+00 -3.147049e+00 -1.711826e+00 2.362302e+00 3.167211e+00 1.536168e+00 3.110672e+00 -3.368508e-02 -1.217703e+00 -5.503492e+00 -2.600289e+00 1.511085e+00 -6.928836e-01 -6.095583e-01 -4.885041e-01 1.184323e-01 1.031772e+00 4.248254e-01 2.236079e+00 -3.774129e-01 2.904073e-01 3.920662e-01 8.779060e-01 3.915426e-01 8.040970e-02 1.511508e-03 8.493855e-02 -7.695828e-02 -1.177403e-01 -3.661306e-01 -4.575849e-01 -1.154674e+00
<VARIANCE> 39
 1.186806e+01 1.240821e+01 1.952190e+01 3.999676e+01 3.576980e+01 2.548620e+01 3.114509e+01 2.896134e+01 2.621642e+01 2.819216e+01 2.686387e+01 1.888107e+01 1.345487e+01 3.174558e+00 3.592559e+00 3.882591e+00 6.560730e+00 6.916281e+00 4.862029e+00 6.062418e+00 6.370247e+00 5.122036e+00 4.667780e+00 4.332258e+00 3.344089e+00 4.100488e+00 3.904671e-01 3.699392e-01 3.299682e-01 5.964460e-01 4.287355e-01 3.969953e-01 3.644836e-01 4.817160e-01 5.838281e-01 4.268460e-01 3.721103e-01 2.987883e-01 3.564614e-01
<GCONST> 1.207943e+02
<MIXTURE> 11 7.469744e-02
<MEAN> 39
 1.075128e+00 1.217677e+00 -1.145615e+00 2.211081e+00 2.331165e+00 -3.008272e-01 -1.381982e+00 -2.002962e+00 2.291836e+00 7.483873e-01 1.666148e+00 -3.165448e-01 2.265893e+00 4.494516e+00 -1.078507e+00 -2.030148e+00 -3.384012e+00 -1.719692e+00 -1.744443e+00 -2.788296e+00 -4.831917e-01 -9.744263e-01 -4.251780e-02 -4.202406e-01 -3.552825e-01 3.941162e+00 2.729070e-01 3.332721e-01 7.709073e-03 1.065820e-01 5.883603e-02 2.412838e-01 -1.824950e-01 1.313360e-01 -3.983860e-01 -1.692013e-01 -2.183222e-01 -7.113632e-02 -1.414934e+00
<VARIANCE> 39
 1.963693e+01 1.647655e+01 2.035929e+01 2.684779e+01 2.388300e+01 2.398969e+01 3.002928e+01 3.725697e+01 2.795109e+01 2.149334e+01 2.287754e+01 1.676008e+01 1.954726e+01 3.138586e+00 5.125000e+00 7.421622e+00 8.467853e+00 5.227800e+00 7.837329e+00 7.968835e+00 6.440002e+00 5.812526e+00 5.415964e+00 5.165203e+00 4.347043e+00 6.573800e+00 4.995225e-01 4.399400e-01 4.090710e-01 5.458751e-01 5.557536e-01 6.723644e-01 8.164954e-01 1.083073e+00 8.474058e-01 6.205444e-01 5.254088e-01 3.911629e-01 4.735247e-01
<GCONST> 1.283704e+02
<MIXTURE> 12 6.088344e-02
<MEAN> 39
 8.910716e+00 -5.244987e+00 -5.795721e+00 -6.769975e+00 1.566860e-01 -1.741890e+00 -3.642063e+00 -5.817001e-01 3.688792e+00 5.020911e+00 -2.745703e+00 -5.325662e+00 8.482839e+00 2.579506e+00 -3.661676e+00 -1.850846e+00 -3.865806e+00 -8.084614e-01 -7.270672e-01 -4.416391e-01 1.127831e+00 1.806413e-01 8.199673e-01 -2.349883e+00 -1.063312e+00 4.581660e+00 -8.092406e-01 7.004557e-01 6.114808e-01 1.295355e+00 5.148802e-01 5.702764e-01 3.478473e-01 -1.581775e-01 -5.310814e-01 -7.395039e-01 2.117866e-02 3.655621e-01 -1.848876e+00
<VARIANCE> 39
 1.019684e+01 1.677782e+01 2.258787e+01 2.998348e+01 1.672948e+01 4.537600e+01 2.876807e+01 2.950718e+01 2.675898e+01 3.375568e+01 3.120044e+01 1.426543e+01 1.262923e+01 3.093800e+00 3.309608e+00 4.082951e+00 5.884310e+00 5.209285e+00 6.160169e+00 6.644734e+00 7.035141e+00 6.518488e+00 5.011159e+00 4.611377e+00 3.826407e+00 5.261141e+00 3.684598e-01 3.822814e-01 3.533822e-01 4.454945e-01 3.427256e-01 5.392109e-01 4.966037e-01 7.056535e-01 6.613635e-01 6.847609e-01 6.060027e-01 3.392524e-01 2.619203e-01
<GCONST> 1.227299e+02
<MIXTURE> 13 5.254195e-02
<MEAN> 39
 1.515418e+00 -1.490141e+00 -2.119843e-01 1.760786e-01 -1.030200e+00 -4.009830e+00 -2.331082e+00 4.334057e-01 4.112959e+00 1.217416e+00 -6.520902e-02 2.727975e-01 6.035742e+00 1.449114e+00 -2.968439e+00 -8.508786e-01 -3.319511e+00 -2.860553e+00 -1.614257e+00 -7.340741e-01 1.735306e+00 1.094961e+00 5.325216e-01 1.265213e-01 5.427877e-01 5.052421e+00 3.423726e-01 8.900616e-01 3.523969e-01 5.165950e-01 2.285171e-01 5.553473e-01 -2.109136e-02 -5.429834e-01 -8.643018e-01 -4.230498e-01 -1.838135e-01 -3.582118e-01 -1.511898e+00
<VARIANCE> 39
 3.472467e+01 2.033682e+01 2.383737e+01 2.313424e+01 3.194546e+01 3.197487e+01 4.040519e+01 3.699365e+01 2.323779e+01 2.198082e+01 2.026121e+01 1.649941e+01 2.162618e+01 6.241014e+00 5.838867e+00 5.204160e+00 6.257493e+00 6.090597e+00 6.353827e+00 9.066948e+00 7.595528e+00 5.010445e+00 5.311306e+00 3.581389e+00 3.669071e+00 4.518285e+00 4.262777e-01 4.365382e-01 5.106009e-01 7.224362e-01 6.739845e-01 6.411315e-01 8.379042e-01 8.867036e-01 6.369110e-01 6.329441e-01 5.221971e-01 4.269775e-01 3.283795e-01
<GCONST> 1.289046e+02
<MIXTURE> 14 5.755466e-02
<MEAN> 39
 4.570710e+00 -3.354162e+00 7.920048e+00 4.730167e+00 -5.941070e+00 -8.839002e+00 -5.979854e+00 1.765064e+00 -1.106625e+00 -3.760781e+00 1.132056e+00 2.241338e+00 5.973495e+00 1.810184e+00 -2.968048e+00 2.652436e+00 -1.973916e+00 -4.989054e+00 -1.981709e+00 -1.982746e+00 1.381463e+00 -1.685027e+00 -7.962182e-01 1.433968e+00 3.542077e-01 4.419530e+00 -3.011790e-01 9.962217e-01 -1.889700e-02 1.226923e-01 5.702118e-01 1.114391e+00 5.037884e-01 -5.646412e-01 -5.169609e-01 2.830287e-01 2.299015e-03 -5.053710e-01 -1.601464e+00
<VARIANCE> 39
 1.212307e+01 1.743890e+01 1.968253e+01 2.123668e+01 2.257904e+01 1.667531e+01 2.583377e+01 1.861314e+01 2.277725e+01 2.207028e+01 1.506849e+01 1.308207e+01 1.528867e+01 2.934660e+00 3.352864e+00 4.396880e+00 4.651796e+00 4.479338e+00 5.185902e+00 5.738802e+00 6.010028e+00 6.547909e+00 5.496927e+00 4.106573e+00 2.897490e+00 3.967377e+00 3.463073e-01 3.399357e-01 2.832638e-01 3.933184e-01 4.932222e-01 3.844020e-01 5.952405e-01 4.516502e-01 5.030134e-01 4.192849e-01 4.030432e-01 3.352220e-01 2.866712e-01
<GCONST> 1.167146e+02
<MIXTURE> 15 4.094134e-02
<MEAN> 39
 1.064048e+01 -1.283419e+00 -9.507150e+00 -3.814195e+00 2.765819e+00 -6.742728e-01 -6.835503e+00 -4.355591e+00 1.193877e+00 2.626151e+00 4.451567e+00 7.891023e-01 4.964120e+00 2.928812e+00 -2.632224e+00 -3.266925e+00 -1.771349e+00 -6.729702e-01 -1.241711e+00 -2.340831e+00 1.046174e+00 1.794361e+00 7.364897e-01 6.238711e-01 -2.733715e-01 3.186942e+00 -4.759481e-01 5.633566e-01 8.398713e-01 1.008372e+00 1.022625e-01 1.854157e-01 4.156975e-01 1.842352e-01 -4.364136e-01 -7.331906e-01 -7.294570e-01 -3.405989e-01 -1.298243e+00
<VARIANCE> 39
 1.290921e+01 1.533903e+01 3.025465e+01 4.284562e+01 2.209315e+01 2.310915e+01 5.148572e+01 3.832922e+01 3.577416e+01 4.551160e+01 3.521748e+01 3.435348e+01 1.595402e+01 3.530846e+00 3.188087e+00 5.560645e+00 5.296026e+00 4.846058e+00 4.561155e+00 1.201791e+01 6.834290e+00 8.582172e+00 6.110823e+00 5.906751e+00 4.574443e+00 3.366247e+00 3.502472e-01 2.407914e-01 3.425972e-01 4.417516e-01 3.971821e-01 3.682032e-01 6.894926e-01 7.312703e-01 7.540706e-01 6.461388e-01 4.778456e-01 4.609466e-01 2.958166e-01
<GCONST> 1.265785e+02
<MIXTURE> 16 4.872499e-02
<MEAN> 39
 1.053189e+01 -5.544251e+00 -6.712200e+00 -1.261500e+01 -4.145302e+00 9.495924e+00 9.682653e-01 -4.644300e+00 6.944757e-01 5.464391e+00 6.929731e+00 -6.766162e+00 9.518516e+00 1.754713e+00 -2.904743e+00 -1.530824e+00 -2.833859e+00 -8.541085e-01 1.792202e+00 2.711365e-02 1.420716e-01 7.816235e-01 3.343175e-01 2.000242e-01 -3.000932e+00 3.055948e+00 -1.102419e+00 8.095467e-01 6.009147e-01 1.740209e+00 1.109560e+00 -5.023413e-01 1.828390e-01 1.448047e-01 -7.508725e-02 -6.691806e-01 -1.048084e+00 3.635606e-01 -1.793730e+00
<VARIANCE> 39
 7.507924e+00 1.557838e+01 1.550882e+01 2.462806e+01 2.210992e+01 2.144832e+01 4.410872e+01 3.111707e+01 3.462931e+01 2.344785e+01 2.838127e+01 2.139980e+01 1.104816e+01 2.502684e+00 2.514406e+00 2.792708e+00 4.884036e+00 3.336378e+00 3.315748e+00 5.112621e+00 5.063939e+00 3.772960e+00 3.864131e+00 4.257320e+00 2.732067e+00 3.638141e+00 2.802283e-01 3.506706e-01 3.348117e-01 3.810682e-01 3.044958e-01 5.267938e-01 4.492489e-01 6.166297e-01 6.236124e-01 4.281430e-01 5.445787e-01 4.930636e-01 2.508029e-01
<GCONST> 1.163047e+02
<MIXTURE> 17 4.189577e-02
<MEAN> 39
 2.143720e+00 -1.017544e+00 1.314104e+01 1.712259e+00 -9.054845e+00 -7.139882e+00 -1.039117e+00 -1.009690e+00 -7.972344e+00 -4.148863e-01 3.166597e+00 -1.021475e+00 4.730953e+00 1.223340e+00 -1.484545e+00 3.623209e+00 -4.268710e+00 -4.353044e+00 -9.828247e-01 -9.992132e-01 -1.586690e+00 -3.263808e+00 1.939259e+00 -6.686920e-01 -9.829523e-02 3.988699e+00 -1.897576e-01 9.538811e-01 -4.306048e-01 7.897017e-02 8.833616e-01 9.778708e-01 -3.143898e-01 -6.922059e-01 4.410191e-01 1.795312e-01 -6.292050e-01 -2.514097e-01 -1.605611e+00
<VARIANCE> 39
 1.254699e+01 1.754599e+01 2.545087e+01 3.529097e+01 2.184639e+01 3.130889e+01 2.419494e+01 3.318285e+01 3.281272e+01 2.791675e+01 2.026282e+01 2.075434e+01 1.694065e+01 3.587595e+00 3.800728e+00 3.700842e+00 4.303643e+00 3.482778e+00 6.513869e+00 6.006478e+00 8.547168e+00 4.886911e+00 5.693936e+00 4.721042e+00 3.634246e+00 4.820879e+00 4.076277e-01 4.137295e-01 3.476492e-01 6.375250e-01 4.354708e-01 7.425765e-01 6.383523e-01 6.599086e-01 6.541075e-01 5.657166e-01 5.011191e-01 4.910473e-01 3.930276e-01
<GCONST> 1.243513e+02
<TRANSP> 5
 0.000000e+00 1.000000e+00 0.000000e+00 0.000000e+00 0.000000e+00
 0.000000e+00 4.538143e-01 5.461857e-01 0.000000e+00 0.000000e+00
 0.000000e+00 0.000000e+00 2.747243e-01 7.252757e-01 0.000000e+00
 0.000000e+00 0.000000e+00 0.000000e+00 2.954991e-01 7.045009e-01
 0.000000e+00 0.000000e+00 0.000000e+00 0.000000e+00 0.000000e+00
<ENDHMM>
~h "d"
<BEGINHMM>
<NUMSTATES> 5
<STATE> 2
<NUMMIXES> 17
<MIXTURE> 1 3.134993e-02
<MEAN> 39
 -4.819158e+00 1.095598e+01 6.087983e+00 1.402311e+01 8.004786e+00 5.364364e+00 -2.744627e-01 -3.287928e+00 -3.413066e-01 -4.140635e+00 -1.559692e+00 -3.833692e+00 -2.053613e+01 -2.172903e+00 -3.081825e+00 -1.721725e+00 -1.994876e+00 8.334934e-01 1.570303e+00 2.310722e+00 2.461594e+00 2.256368e+00 2.305570e+00 2.248381e+00 1.517962e+00 2.418748e+00 3.984298e-01 -9.565277e-01 -4.414943e-02 -1.480589e+00 -1.363014e+00 -9.944349e-01 -5.384040e-02 1.968911e-01 8.524217e-02 3.445669e-01 3.084976e-01 5.933447e-01 2.695471e+00
<VARIANCE> 39
 9.180605e+00 1.002071e+01 1.155195e+01 1.168303e+01 1.200534e+01 1.944957e+01 2.406351e+01 1.872375e+01 1.981333e+01 2.054972e+01 1.782573e+01 1.640311e+01 7.094038e+00 1.428356e+00 2.879588e+00 1.641148e+00 3.858115e+00 2.206953e+00 2.706698e+00 2.927810e+00 3.383229e+00 2.325383e+00 2.691686e+00 2.772533e+00 2.292280e+00 9.259108e+00 4.706583e-01 5.538803e-01 4.738056e-01 4.980590e-01 6.883411e-01 6.917492e-01 7.266124e-01 5.118005e-01 5.697611e-01 5.461532e-01 4.724652e-01 4.314116e-01 8.079264e-01
<GCONST> 1.120726e+02
<MIXTURE> 2 9.257589e-02
<MEAN> 39
 -5.938047e+00 -2.668057e+00 3.574569e+00 1.794168e+00 5.015907e+00 5.155504e+00 2.752785e+00 4.886476e-01 1.882974e+00 3.187679e-04 1.671148e+00 4.321753e-01 -3.861268e+00 -1.592227e+00 -3.059617e+00 -1.048565e+00 -3.348294e+00 -8.192080e-01 -3.031999e-01 9.942154e-01 1.977830e+00 1.664102e+00 1.582414e+00 1.849495e+00 1.528219e+00 6.060545e+00 1.153945e+00 5.888948e-01 2.515978e-01 5.685008e-02 -1.168402e+00 -1.154531e+00 -5.996630e-01 -1.228162e-01 -2.930493e-01 -1.097339e-01 -4.734614e-01 1.741884e-03 4.071467e-01
<VARIANCE> 39
 2.252858e+01 3.331273e+01 4.011391e+01 4.913515e+01 4.329111e+01 4.463018e+01 3.790931e+01 2.817762e+01 3.462147e+01 2.565820e+01 2.852848e+01 2.159689e+01 4.206432e+01 3.841125e+00 3.696490e+00 3.623019e+00 4.860579e+00 4.863811e+00 4.670398e+00 4.744542e+00 4.249218e+00 3.740434e+00 3.671067e+00 3.141385e+00 2.512330e+00 5.723003e+00 6.585669e-01 7.290523e-01 9.107550e-01 9.767700e-01 1.321860e+00 1.109791e+00 1.118110e+00 9.795722e-01 9.321859e-01 7.844221e-01 7.683354e-01 7.110820e-01 5.592478e-01
<GCONST> 1.335796e+02
<MIXTURE> 3 5.123368e-02
<MEAN> 39
 6.590135e-01 4.119053e+00 6.400113e+00 6.800391e+00 1.751582e+00 1.728630e+00 -5.262805e-01 -4.916815e+00 -4.082531e+00 -4.213289e+00 -3.807816e+00 -1.833845e+00 -8.300281e+00 -1.625348e+00 -3.034210e+00 1.665446e-01 -2.505650e+00 -2.877562e-01 1.253244e-01 -2.725281e-01 1.921135e+00 1.649650e+00 7.252297e-01 1.934159e+00 1.532468e+00 4.302981e+00 3.755646e-01 -4.024988e-01 -1.796779e-01 -4.819379e-01 -7.160278e-01 -6.550487e-01 -2.562189e-01 4.941042e-01 3.978327e-01 4.353668e-01 2.934900e-01 1.788256e-01 1.101649e+00
<VARIANCE> 39
 1.960757e+01 4.830255e+01 3.824650e+01 3.887098e+01 4.505565e+01 4.698057e+01 4.008945e+01 4.235805e+01 3.300182e+01 2.582258e+01 2.826528e+01 1.975109e+01 3.363496e+01 3.412692e+00 3.384086e+00 3.955987e+00 5.474874e+00 6.858503e+00 5.006474e+00 6.642677e+00 6.499961e+00 5.863650e+00 5.236587e+00 4.796237e+00 3.210577e+00 4.045414e+00 5.284092e-01 7.281608e-01 6.431341e-01 7.887170e-01 1.119417e+00 1.161903e+00 1.328605e+00 1.222775e+00 1.056819e+00 7.052251e-01 6.958881e-01 5.235184e-01 4.663392e-01
<GCONST> 1.349455e+02
<MIXTURE> 4 7.924262e-02
<MEAN> 39
 -5.446591e+00 9.973447e+00 5.517335e+00 1.201940e+01 9.004703e+00 6.044836e+00 3.621772e+00 -3.414903e+00 -8.934687e-01 -2.099660e+00 -3.796031e+00 -1.549174e+00 -1.977678e+01 -1.352321e+00 -5.023179e+00 -1.483029e+00 -4.318656e+00 -1.857997e+00 2.685922e-01 4.646155e-01 1.352136e+00 1.642626e+00 1.300888e+00 2.094733e+00 1.697424e+00 6.772830e+00 9.796906e-01 -5.342934e-01 3.098599e-02 -7.315800e-01 -1.332392e+00 -1.424590e+00 -9.696733e-01 2.956459e-01 2.008509e-01 1.241150e-01 7.994922e-02 3.013104e-02 2.149446e+00
<VARIANCE> 39
 1.278026e+01 1.760327e+01 1.673724e+01 1.402155e+01 1.748640e+01 2.034155e+01 1.909897e+01 2.393597e+01 2.038593e+01 1.952339e+01 2.331047e+01 1.297066e+01 1.634812e+01 1.472382e+00 2.508655e+00 2.451553e+00 2.779952e+00 2.893366e+00 3.979269e+00 3.681741e+00 3.025934e+00 3.170964e+00 2.767550e+00 2.281574e+00 2.209018e+00 2.401336e+00 3.344755e-01 3.932738e-01 3.996883e-01 4.420829e-01 4.385993e-01 5.018385e-01 4.984497e-01 6.584343e-01 5.898736e-01 3.954076e-01 4.989997e-01 4.009590e-01 3.989376e-01
<GCONST> 1.114148e+02
<MIXTURE> 5 8.637758e-02
<MEAN> 39
 -1.107708e+01 6.280688e+00 5.189584e-01 9.515292e+00 8.024399e+00 7.173243e+00 4.897345e+00 1.382877e+00 4.267519e+00 3.440979e+00 3.302672e+00 2.204142e+00 -2.279592e+01 3.200985e-01 -2.217070e+00 1.719975e-01 -3.195591e+00 -7.268544e-01 -8.620797e-01 -2.250779e-01 5.715142e-01 3.083526e-01 1.356633e-01 6.512026e-01 6.667112e-01 7.149653e+00 9.160785e-01 -7.617887e-02 2.917982e-01 -7.500889e-01 -8.775471e-01 -1.064382e+00 -7.730374e-01 -1.630604e-01 -3.107798e-01 -3.287363e-01 -3.972217e-01 -1.853388e-01 2.332866e+00
<VARIANCE> 39
 6.720583e+00 1.060055e+01 1.184101e+01 1.901494e+01 1.426479e+01 1.853682e+01 2.298815e+01 2.362596e+01 2.609816e+01 1.952038e+01 2.192028e+01 1.413870e+01 8.772069e+00 1.657991e+00 2.398611e+00 3.181924e+00 2.519422e+00 2.545466e+00 3.202151e+00 3.881494e+00 3.042035e+00 2.857058e+00 3.078182e+00 2.792109e+00 2.282486e+00 4.323744e+00 3.594272e-01 3.215686e-01 3.235046e-01 4.127741e-01 3.878098e-01 4.483709e-01 5.298972e-01 5.755287e-01 5.922846e-01 4.985760e-01 4.322706e-01 3.752074e-01 4.499163e-01
<GCONST> 1.099498e+02
<MIXTURE> 6 5.108961e-02
<MEAN> 39
 -2.016706e+00 1.630318e+00 5.268604e+00 3.294999e+00 2.675901e+00 1.996466e-01 -6.657159e-02 -4.199071e+00 -2.076680e+00 -2.815469e+00 -2.700204e+00 -1.146429e-01 -2.887269e+00 -7.292113e-01 -1.938098e+00 2.856826e-01 -2.136010e+00 -5.953069e-01 -4.458135e-01 -8.014811e-01 1.387064e+00 1.411626e+00 3.714273e-01 9.315096e-01 9.615631e-01 3.585735e+00 9.164057e-01 -3.473974e-01 -5.396085e-02 -4.988491e-01 -1.051335e+00 -3.227855e-01 -4.586157e-01 4.140119e-01 8.437838e-02 3.734936e-01 2.676802e-01 3.768489e-02 7.881622e-01
<VARIANCE> 39
 2.657768e+01 4.121950e+01 3.986023e+01 4.482885e+01 4.901049e+01 4.171119e+01 4.410017e+01 3.797158e+01 4.486996e+01 2.850504e+01 2.564537e+01 2.313860e+01 3.744542e+01 2.435539e+00 3.917402e+00 3.081116e+00 4.144671e+00 3.688858e+00 4.676675e+00 5.006524e+00 6.970707e+00 6.665106e+00 3.782573e+00 3.418475e+00 3.288860e+00 4.077341e+00 6.387380e-01 7.001197e-01 8.916510e-01 1.152052e+00 1.445372e+00 1.115316e+00 1.384128e+00 1.192128e+00 1.325461e+00 9.987957e-01 9.046180e-01 7.385190e-01 4.927022e-01
<GCONST> 1.359984e+02
<MIXTURE> 7 4.714860e-02
<MEAN> 39
 -9.614279e+00 2.249419e+00 1.633882e+00 3.878644e+00 7.969652e+00 5.364030e+00 4.172289e+00 1.835458e+00 3.313077e+00 2.531596e+00 3.124746e+00 1.827547e+00 -1.258655e+01 5.431837e-01 -1.273836e+00 -4.231298e-01 -2.807199e+00 -1.238672e+00 -2.127025e+00 -5.314953e-01 -1.867459e-01 -4.386873e-01 -3.172958e-01 -5.897012e-02 2.959990e-01 7.446645e+00 5.775162e-01 3.905895e-01 2.007889e-01 -7.614487e-02 -7.749000e-01 -8.217498e-01 -5.164906e-01 -1.925187e-01 -1.296527e-01 -1.871161e-01 -3.390465e-01 -1.051162e-01 1.040468e+00
<VARIANCE> 39
 3.072847e+01 2.920543e+01 3.299233e+01 3.904015e+01 2.667344e+01 2.851033e+01 2.403272e+01 2.618355e+01 2.644641e+01 1.573379e+01 2.225269e+01 1.455885e+01 4.941361e+01 2.151293e+00 2.502834e+00 3.382042e+00 2.801498e+00 2.660917e+00 2.795590e+00 2.755752e+00 2.758898e+00 2.336708e+00 2.243305e+00 1.867391e+00 1.705864e+00 4.731570e+00 7.394149e-01 6.218263e-01 6.432806e-01 5.676288e-01 6.874350e-01 5.599146e-01 5.431578e-01 5.668943e-01 5.725594e-01 4.220724e-01 3.911402e-01 3.765062e-01 8.798230e-01
<GCONST> 1.193839e+02
<MIXTURE> 8 5.057607e-02
<MEAN> 39
 -1.538425e+00 1.423763e+01 8.055060e+00 1.419435e+01 7.521689e+00 2.581231e+00 -6.538490e-01 -7.107883e+00 -3.332478e+00 -4.612297e+00 -5.032533e+00 -2.596617e+00 -1.970454e+01 -2.021233e+00 -4.397701e+00 -1.340036e+00 -3.639313e+00 -3.705779e-02 1.554613e+00 1.087093e+00 1.477844e+00 1.326681e+00 1.444011e+00 1.794836e+00 1.243938e+00 4.786098e+00 4.921662e-01 -1.580458e+00 -3.058673e-01 -1.333181e+00 -1.500631e+00 -1.041312e+00 -3.029392e-01 8.696413e-01 6.065917e-01 4.093610e-01 4.150428e-01 4.670878e-01 2.783716e+00
<VARIANCE> 39
 7.321404e+00 7.140234e+00 1.133262e+01 1.284434e+01 1.707415e+01 1.833895e+01 2.452226e+01 1.861740e+01 1.579669e+01 1.975100e+01 1.737931e+01 1.390956e+01 5.885292e+00 1.257486e+00 2.036365e+00 2.099932e+00 2.828668e+00 3.347208e+00 4.041307e+00 3.359594e+00 3.342565e+00 3.181020e+00 2.620652e+00 2.406730e+00 2.031656e+00 3.756408e+00 3.044511e-01 4.832662e-01 4.112394e-01 4.940676e-01 4.446560e-01 4.713532e-01 7.017301e-01 4.890461e-01 5.306562e-01 4.666957e-01 4.362396e-01 3.935561e-01 3.161604e-01
<GCONST> 1.078129e+02
<MIXTURE> 9 4.818380e-02
<MEAN> 39
 1.413656e+00 1.258953e+01 8.346652e+00 1.309921e+01 4.756970e+00 -1.363919e+00 -2.082262e+00 -5.223241e+00 -1.230823e+00 -2.446648e+00 -6.570082e+00 -2.857366e+00 -1.640360e+01 -1.506503e+00 -3.926796e+00 -8.161339e-01 -3.551388e+00 -8.298281e-01 7.838734e-01 5.386457e-01 1.117841e+00 4.569165e-01 4.595238e-01 1.732433e+00 1.513765e+00 5.166240e+00 1.792248e-01 -1.131337e+00 -3.683929e-01 -9.717705e-01 -8.635098e-01 -3.906333e-01 -3.187119e-01 5.060002e-01 3.251995e-01 2.225067e-01 5.519854e-01 2.622131e-01 1.985290e+00
<VARIANCE> 39
 9.687426e+00 1.587080e+01 1.560635e+01 1.852863e+01 2.412520e+01 2.954524e+01 2.380559e+01 2.839158e+01 2.196575e+01 2.407545e+01 2.538428e+01 2.029495e+01 8.507812e+00 1.568544e+00 2.523590e+00 2.726543e+00 3.336817e+00 3.733681e+00 5.108204e+00 4.066831e+00 4.291876e+00 3.957658e+00 2.674358e+00 3.418540e+00 2.286979e+00 2.401437e+00 3.795001e-01 3.816051e-01 4.754876e-01 3.599379e-01 4.952012e-01 5.962613e-01 6.470852e-01 6.264879e-01 4.984448e-01 4.837238e-01 4.466376e-01 3.919436e-01 2.955290e-01
<GCONST> 1.146001e+02
<MIXTURE> 10 1.010597e-01
<MEAN> 39
 -6.028451e+00 -2.872206e+00 3.384229e+00 1.701739e+00 5.042665e+00 4.924095e+00 2.672961e+00 -1.083251e-01 1.038153e+00 -5.315111e-01 8.630210e-01 -8.030820e-02 -3.453272e+00 -1.509854e+00 -3.199117e+00 -1.204291e+00 -3.526361e+00 -1.173308e+00 -6.286415e-01 4.049506e-01 1.313715e+00 1.052461e+00 1.073627e+00 1.310849e+00 1.043800e+00 6.096014e+00 1.159895e+00 5.842222e-01 3.020539e-01 5.634575e-02 -1.212488e+00 -1.192176e+00 -7.128494e-01 -1.331949e-01 -2.888599e-01 -1.023637e-01 -4.265656e-01 -2.327235e-02 3.837874e-01
<VARIANCE> 39
 2.216570e+01 3.304094e+01 4.345964e+01 5.095636e+01 4.141745e+01 4.339986e+01 3.752903e+01 2.852586e+01 3.243216e+01 2.570149e+01 3.071073e+01 2.183121e+01 3.861308e+01 3.467840e+00 3.508144e+00 3.647433e+00 4.289622e+00 4.395905e+00 4.192863e+00 4.335886e+00 3.964778e+00 3.518355e+00 3.298044e+00 2.852972e+00 2.343299e+00 4.973638e+00 7.222892e-01 7.313328e-01 9.728172e-01 9.492155e-01 1.305412e+00 1.079706e+00 1.070404e+00 9.270971e-01 1.031047e+00 7.567891e-01 8.227124e-01 7.081309e-01 5.240810e-01
<GCONST> 1.324795e+02
<MIXTURE> 11 9.245780e-02
<MEAN> 39
 -1.114488e+01 6.370223e+00 5.556262e-01 9.238326e+00 7.773578e+00 6.929088e+00 4.848364e+00 1.067857e+00 3.550884e+00 3.143737e+00 2.850774e+00 2.148468e+00 -2.277366e+01 3.714536e-01 -2.364345e+00 -5.673669e-02 -3.581406e+00 -1.037121e+00 -1.408919e+00 -7.693565e-01 1.536438e-02 -2.657120e-01 -3.979639e-01 7.693287e-02 2.626345e-01 7.244422e+00 8.960620e-01 -9.932713e-02 2.346688e-01 -7.973180e-01 -8.832649e-01 -1.080584e+00 -8.089868e-01 -2.408473e-01 -3.108670e-01 -3.735830e-01 -4.669375e-01 -2.480115e-01 2.246586e+00
<VARIANCE> 39
 7.365999e+00 1.021530e+01 1.184972e+01 1.932037e+01 1.495968e+01 1.848342e+01 2.173866e+01 2.313131e+01 2.553981e+01 1.892377e+01 2.034648e+01 1.513684e+01 8.761432e+00 1.495435e+00 2.241282e+00 2.976030e+00 2.381732e+00 2.682594e+00 3.087864e+00 3.496902e+00 2.985131e+00 2.477582e+00 2.766285e+00 2.572667e+00 2.285321e+00 4.101369e+00 3.955732e-01 3.330250e-01 3.125612e-01 4.410273e-01 4.111706e-01 4.745722e-01 4.936438e-01 5.479794e-01 6.233814e-01 4.739088e-01 4.194641e-01 3.941470e-01 4.368166e-01
<GCONST> 1.092927e+02
<MIXTURE> 12 4.983208e-02
<MEAN> 39
 -2.073694e+00 1.756376e+00 5.449223e+00 2.800987e+00 2.577119e+00 2.128468e-01 -5.552053e-01 -4.693169e+00 -2.482334e+00 -3.315248e+00 -2.894934e+00 -7.843605e-01 -2.473538e+00 -7.931407e-01 -1.895802e+00 1.368373e-01 -2.290840e+00 -6.988052e-01 -6.573365e-01 -9.895491e-01 1.065857e+00 1.155301e+00 1.312660e-01 4.737339e-01 5.085036e-01 3.502983e+00 9.092135e-01 -4.016499e-01 -7.648869e-02 -5.323514e-01 -1.103823e+00 -3.911020e-01 -4.539495e-01 3.966960e-01 3.672482e-02 3.910997e-01 2.297256e-01 6.257269e-02 7.645414e-01
<VARIANCE> 39
 2.624044e+01 4.048100e+01 4.098457e+01 4.592562e+01 4.961165e+01 4.034216e+01 4.632981e+01 3.713151e+01 4.440362e+01 2.889065e+01 2.802715e+01 2.293903e+01 3.629962e+01 2.420759e+00 3.923726e+00 3.240678e+00 4.117032e+00 3.589380e+00 4.454332e+00 4.748471e+00 7.286617e+00 7.017525e+00 3.643733e+00 3.542218e+00 3.134181e+00 3.875098e+00 6.534754e-01 7.312783e-01 1.027151e+00 1.206115e+00 1.386060e+00 1.057807e+00 1.451169e+00 1.189206e+00 1.283883e+00 1.044195e+00 1.003341e+00 8.185547e-01 4.752933e-01
<GCONST> 1.363695e+02
<MIXTURE> 13 5.183199e-02
<MEAN> 39
 6.018073e-01 4.320552e+00 6.669512e+00 6.606996e+00 1.658219e+00 1.810675e+00 -6.880140e-01 -5.537735e+00 -4.545615e+00 -4.228608e+00 -4.043077e+00 -2.041738e+00 -8.174361e+00 -1.562014e+00 -3.147551e+00 -8.809229e-02 -2.559057e+00 -3.766682e-01 -7.651004e-02 -6.494204e-01 1.570982e+00 1.285123e+00 3.328488e-01 1.401535e+00 1.156572e+00 4.166027e+00 3.548675e-01 -4.330382e-01 -1.914201e-01 -5.065901e-01 -7.290370e-01 -7.046506e-01 -3.306012e-01 5.007980e-01 3.662728e-01 3.925617e-01 2.899058e-01 1.119462e-01 1.080556e+00
<VARIANCE> 39
 1.940924e+01 4.790414e+01 3.836135e+01 4.042938e+01 4.494913e+01 4.519139e+01 4.256342e+01 4.192576e+01 3.351884e+01 2.493070e+01 2.811855e+01 1.969426e+01 3.220854e+01 3.213594e+00 3.363590e+00 4.066734e+00 5.239495e+00 6.220574e+00 5.135571e+00 6.121314e+00 6.527967e+00 6.077870e+00 4.638467e+00 4.723533e+00 3.126429e+00 3.997726e+00 5.129693e-01 7.320336e-01 6.587740e-01 7.899792e-01 1.040926e+00 1.089149e+00 1.275187e+00 1.163534e+00 1.022068e+00 6.729740e-01 7.206970e-01 5.416650e-01 4.690845e-01
<GCONST> 1.343035e+02
<MIXTURE> 14 4.702095e-02
<MEAN> 39
 -1.744314e+00 1.406839e+01 7.914376e+00 1.403672e+01 7.687640e+00 2.677383e+00 -1.994136e-01 -6.963935e+00 -3.720369e+00 -4.384187e+00 -5.110382e+00 -2.629474e+00 -1.970848e+01 -2.083927e+00 -4.512456e+00 -1.725031e+00 -3.919950e+00 -3.152198e-01 1.259054e+00 9.405250e-01 1.174228e+00 9.879850e-01 1.134038e+00 1.474867e+00 9.521101e-01 4.823144e+00 4.325926e-01 -1.552410e+00 -3.165104e-01 -1.342965e+00 -1.458929e+00 -1.124073e+00 -4.009742e-01 8.088314e-01 5.687174e-01 3.691325e-01 3.939099e-01 4.332040e-01 2.736844e+00
<VARIANCE> 39
 7.249098e+00 7.603518e+00 1.192928e+01 1.287306e+01 1.686539e+01 1.834044e+01 2.372168e+01 1.846775e+01 1.746245e+01 1.937171e+01 1.663251e+01 1.383827e+01 5.778905e+00 1.366630e+00 1.962818e+00 2.533866e+00 2.877410e+00 3.067462e+00 3.868270e+00 3.036124e+00 3.325040e+00 2.881207e+00 2.586158e+00 2.276093e+00 2.072297e+00 3.364762e+00 3.173160e-01 5.330079e-01 4.601904e-01 5.304029e-01 4.371035e-01 4.523049e-01 6.455292e-01 4.751631e-01 5.654444e-01 4.303469e-01 4.255576e-01 4.088373e-01 3.150596e-01
<GCONST> 1.077793e+02
<MIXTURE> 15 4.281216e-02
<MEAN> 39
 -9.365771e+00 2.018523e+00 1.129068e+00 3.789172e+00 7.298875e+00 5.116471e+00 3.942939e+00 1.378796e+00 3.153192e+00 2.074039e+00 3.001431e+00 1.683438e+00 -1.225516e+01 5.585440e-01 -1.468751e+00 -7.589163e-01 -3.256843e+00 -1.671322e+00 -2.550491e+00 -8.612582e-01 -6.608355e-01 -8.869441e-01 -7.227251e-01 -4.211803e-01 -3.297048e-02 7.295948e+00 5.613180e-01 3.967274e-01 2.597227e-01 -1.151715e-01 -7.937109e-01 -8.924431e-01 -5.314521e-01 -2.445885e-01 -2.441899e-01 -2.771514e-01 -4.407449e-01 -1.258740e-01 1.048447e+00
<VARIANCE> 39
 2.952866e+01 2.956046e+01 3.425951e+01 3.905136e+01 2.616650e+01 2.718275e+01 2.235198e+01 2.156598e+01 2.617734e+01 1.592465e+01 2.322029e+01 1.390333e+01 5.482903e+01 2.196645e+00 2.820517e+00 3.260262e+00 3.033422e+00 2.939960e+00 2.710922e+00 2.679753e+00 2.735059e+00 1.957156e+00 2.085838e+00 2.012066e+00 1.487051e+00 4.538611e+00 7.634779e-01 6.592731e-01 6.717663e-01 5.767950e-01 7.510027e-01 5.536805e-01 5.084986e-01 5.425162e-01 6.013784e-01 4.293411e-01 4.409913e-01 3.490768e-01 9.022120e-01
<GCONST> 1.192771e+02
<MIXTURE> 16 4.440957e-02
<MEAN> 39
 1.237983e+00 1.257747e+01 8.265818e+00 1.266741e+01 4.984391e+00 -1.262628e+00 -1.752028e+00 -4.750999e+00 -1.589559e+00 -2.305344e+00 -5.985849e+00 -3.126244e+00 -1.635882e+01 -1.556199e+00 -3.949838e+00 -8.175758e-01 -3.605304e+00 -8.844497e-01 6.812610e-01 3.371747e-01 8.473247e-01 1.368444e-01 2.138944e-01 1.237272e+00 1.127375e+00 5.030110e+00 9.515911e-02 -1.178692e+00 -3.060533e-01 -1.019833e+00 -8.869864e-01 -4.049474e-01 -4.017815e-01 3.536275e-01 2.196600e-01 1.354877e-01 5.056521e-01 2.806885e-01 1.973271e+00
<VARIANCE> 39
 1.053532e+01 1.525195e+01 1.612585e+01 1.739219e+01 2.213416e+01 3.047119e+01 2.534980e+01 2.834292e+01 2.031019e+01 2.316075e+01 2.335118e+01 2.124611e+01 8.252016e+00 1.647127e+00 2.350602e+00 2.621801e+00 3.323049e+00 3.395543e+00 5.389220e+00 3.979990e+00 4.253906e+00 3.720891e+00 2.618260e+00 3.096959e+00 2.292507e+00 2.418101e+00 3.930228e-01 4.083489e-01 5.004681e-01 3.745209e-01 5.416147e-01 6.290688e-01 6.003469e-01 6.109236e-01 5.332518e-01 4.730895e-01 4.728092e-01 3.949148e-01 3.056386e-01
<GCONST> 1.145046e+02
<MIXTURE> 17 3.278743e-02
<MEAN> 39
 -4.737904e+00 1.102489e+01 6.097608e+00 1.361989e+01 7.770649e+00 5.476738e+00 4.389661e-01 -3.412408e+00 -9.407631e-01 -4.215051e+00 -2.281499e+00 -3.828084e+00 -2.086438e+01 -2.288927e+00 -3.347485e+00 -2.015779e+00 -2.555652e+00 3.831722e-01 1.010185e+00 1.767020e+00 1.734216e+00 1.709203e+00 1.737052e+00 1.626697e+00 1.017829e+00 2.987028e+00 4.628119e-01 -9.503165e-01 -9.215696e-02 -1.459089e+00 -1.418106e+00 -1.181570e+00 -1.889146e-01 1.054588e-01 -1.607575e-02 2.885855e-01 2.789887e-01 5.474712e-01 2.695442e+00
<VARIANCE> 39
 1.012490e+01 1.089130e+01 1.291176e+01 1.171279e+01 1.216315e+01 1.772180e+01 2.491556e+01 1.877417e+01 1.960640e+01 2.003822e+01 1.700918e+01 1.612934e+01 7.905753e+00 1.299114e+00 2.924791e+00 1.801076e+00 3.617033e+00 2.239692e+00 3.119045e+00 3.130327e+00 3.144393e+00 2.300144e+00 2.559827e+00 2.817397e+00 2.408143e+00 9.556259e+00 4.970814e-01 5.964525e-01 4.975461e-01 5.241557e-01 7.199383e-01 6.423101e-01 6.340826e-01 5.038093e-01 6.116105e-01 4.865671e-01 4.723957e-01 3.936701e-01 6.539007e-01
<GCONST> 1.121688e+02
<STATE> 3
<NUMMIXES> 17
<MIXTURE> 1 4.323371e-02
<MEAN> 39
 -7.596111e+00 -2.754658e+00 1.169095e+00 -3.458357e+00 3.270506e+00 2.100317e+00 2.324929e+00 2.934293e+00 2.712458e+00 2.120670e+00 4.769729e+00 2.384814e+00 3.281948e+00 -1.769544e+00 -1.338799e+00 -8.806335e-01 -1.946855e+00 -4.056436e-01 -4.977501e-01 1.687511e+00 2.078031e+00 1.712500e+00 1.425957e+00 1.473273e+00 1.506452e+00 3.792144e+00 1.074889e+00 1.137601e+00 4.532131e-01 1.092116e+00 -5.117341e-01 -5.014737e-01 -2.537096e-01 -7.427602e-01 -5.587951e-01 -5.517966e-01 -9.096806e-01 -2.011393e-01 -1.178738e+00
<VARIANCE> 39
 2.259784e+01 3.016373e+01 3.156064e+01 3.882511e+01 3.545593e+01 3.135707e+01 3.769129e+01 3.229729e+01 3.165370e+01 2.847861e+01 2.767237e+01 2.387319e+01 2.226806e+01 5.854254e+00 3.884477e+00 3.778832e+00 6.104593e+00 4.657699e+00 4.338482e+00 3.684212e+00 3.517988e+00 3.139993e+00 2.812272e+00 3.366118e+00 2.833154e+00 5.350323e+00 4.970270e-01 5.612751e-01 7.317221e-01 1.128324e+00 9.655584e-01 8.997933e-01 8.892857e-01 9.083063e-01 8.577771e-01 8.570008e-01 7.551455e-01 7.588990e-01 6.564389e-01
<GCONST> 1.306645e+02
<MIXTURE> 2 8.544387e-02
<MEAN> 39
 -6.213491e+00 -4.952497e+00 3.784956e+00 -1.412933e+00 9.344344e-02 2.894819e+00 2.364125e+00 -1.247198e+00 3.329684e+00 9.165832e-01 1.096474e+00 4.327189e+00 5.889558e+00 1.877946e+00 -3.513400e+00 -9.211062e-01 -3.566578e+00 -3.179442e+00 -2.243900e+00 -2.279068e+00 2.234293e+00 1.882617e+00 1.300409e+00 1.365575e+00 4.798551e-01 7.545668e+00 1.491192e+00 9.807728e-01 -2.319724e-01 9.001569e-01 -1.216837e-01 -6.093915e-01 -9.112731e-01 2.370468e-01 -2.429028e-01 -1.109480e-01 -5.102338e-01 -1.021930e+00 -1.175909e+00
<VARIANCE> 39
 1.243501e+01 2.596802e+01 2.239433e+01 2.755283e+01 3.079171e+01 4.922321e+01 3.550332e+01 3.627172e+01 3.321253e+01 2.851135e+01 2.867501e+01 1.832851e+01 1.587162e+01 1.922505e+00 2.339734e+00 2.540046e+00 2.446906e+00 2.548634e+00 3.405561e+00 4.820254e+00 3.494793e+00 3.369183e+00 2.607410e+00 2.759025e+00 2.576951e+00 2.416824e+00 3.020513e-01 4.844117e-01 6.463436e-01 6.823071e-01 1.019253e+00 1.153111e+00 1.001451e+00 1.048467e+00 9.057522e-01 8.319432e-01 8.406030e-01 5.788264e-01 5.754514e-01
<GCONST> 1.234924e+02
<MIXTURE> 3 4.951235e-02
<MEAN> 39
 -9.193905e+00 2.347330e+00 -2.415031e+00 -5.768591e-01 3.598529e+00 9.187585e-02 4.626853e+00 -2.281468e+00 3.456266e+00 5.726156e-01 6.233488e+00 1.076414e+00 6.118345e+00 1.881131e+00 -5.908929e-01 9.550107e-01 -2.694153e+00 -3.231013e+00 -3.426988e+00 -6.772171e-01 3.502069e-01 -4.379055e-01 1.059285e-01 -3.158799e-01 1.200068e+00 6.431479e+00 1.367871e+00 6.239411e-02 1.062132e+00 4.063582e-01 -7.078223e-01 -2.441828e-01 -8.537304e-01 4.230966e-01 -4.655717e-01 -1.097092e-01 -9.959100e-01 1.986783e-02 -1.445056e+00
<VARIANCE> 39
 1.525333e+01 2.167654e+01 2.945829e+01 2.705890e+01 2.682878e+01 2.862065e+01 3.003057e+01 2.886941e+01 3.120854e+01 2.942470e+01 2.491776e+01 1.991261e+01 1.585842e+01 2.772364e+00 3.667357e+00 3.436514e+00 3.644533e+00 3.159088e+00 2.933159e+00 3.836223e+00 4.442731e+00 3.415580e+00 3.728759e+00 3.413811e+00 2.474954e+00 5.946918e+00 3.984860e-01 5.501840e-01 7.958150e-01 8.685027e-01 8.168862e-01 8.127465e-01 8.341694e-01 9.029266e-01 7.845916e-01 8.947774e-01 7.450269e-01 6.154026e-01 5.391333e-01
<GCONST> 1.254000e+02
<MIXTURE> 4 6.661757e-02
<MEAN> 39
 3.576601e-01 -2.445475e+00 5.384965e+00 4.029142e-01 -3.031112e+00 -2.522817e+00 -3.123395e+00 -1.004858e+00 1.870608e+00 -2.144801e+00 4.875073e-02 2.467270e+00 4.610519e+00 8.559390e-01 -3.072014e+00 -2.376374e-01 -3.120263e+00 -2.084204e+00 -1.074172e+00 -1.769832e+00 2.990086e+00 1.872988e+00 1.119092e+00 1.433606e+00 9.787332e-01 4.765749e+00 7.639365e-01 5.404162e-01 -3.056378e-01 3.586491e-01 -6.781641e-02 -8.193506e-02 8.176048e-02 -1.124628e-01 -3.772901e-01 3.737403e-01 -3.678820e-01 -5.257201e-01 -6.632079e-01
<VARIANCE> 39
 1.482600e+01 2.125688e+01 2.720516e+01 3.652430e+01 3.400618e+01 5.063777e+01 3.925287e+01 3.741476e+01 3.957972e+01 2.521227e+01 2.611242e+01 2.217760e+01 1.846582e+01 1.627899e+00 3.188236e+00 3.649591e+00 4.684521e+00 5.173821e+00 4.895247e+00 6.342906e+00 5.301848e+00 5.949290e+00 5.267085e+00 4.561353e+00 3.059799e+00 4.252179e+00 2.328168e-01 4.536796e-01 4.760213e-01 7.828967e-01 9.501652e-01 1.018300e+00 1.088716e+00 1.126922e+00 1.123202e+00 6.880471e-01 8.536139e-01 6.024141e-01 3.642465e-01
<GCONST> 1.290230e+02
<MIXTURE> 5 4.399163e-02
<MEAN> 39
 -1.032003e+01 6.986867e-01 1.116444e+00 -5.294007e+00 7.497298e+00 -6.668991e-01 3.653495e+00 3.026706e+00 -2.299542e+00 2.949989e+00 -9.051228e-01 3.181807e+00 4.801291e+00 2.646300e+00 -4.808876e-01 9.761971e-01 -1.113341e+00 -2.556427e+00 -2.701932e+00 -2.240156e+00 -1.733426e-02 7.478092e-01 -4.405717e-01 -2.685576e-01 -3.990909e-02 6.557957e+00 1.323907e+00 1.687510e-01 1.698112e-01 1.141626e+00 -1.094403e+00 2.509949e-01 -9.128299e-01 -4.534106e-01 6.436822e-01 -2.437541e-01 2.346696e-01 -4.946140e-01 -1.334762e+00
<VARIANCE> 39
 1.297463e+01 2.146285e+01 2.564456e+01 2.147268e+01 2.265697e+01 3.558035e+01 3.724231e+01 3.025524e+01 2.675299e+01 2.302054e+01 2.336145e+01 2.129054e+01 2.438858e+01 2.973485e+00 2.380561e+00 2.809364e+00 3.460335e+00 3.547119e+00 3.069971e+00 3.606440e+00 3.734705e+00 4.126635e+00 2.316315e+00 2.443794e+00 2.225015e+00 5.537787e+00 2.870139e-01 4.361270e-01 7.762955e-01 6.358691e-01 5.723698e-01 9.117952e-01 9.277390e-01 8.090215e-01 6.604862e-01 5.514612e-01 6.142057e-01 5.733590e-01 7.174919e-01
<GCONST> 1.219386e+02
<MIXTURE> 6 5.629814e-02
<MEAN> 39
 -4.285428e+00 1.293454e+00 7.389046e+00 -9.082945e-01 1.381597e+00 2.870524e+00 -9.578072e-01 -3.734895e+00 -1.633056e+00 -2.362583e+00 -1.470323e+00 4.497080e-01 6.371968e-01 -1.666073e-01 -1.570021e+00 9.374370e-01 -1.905635e+00 -1.921165e+00 -8.407387e-01 -4.513734e-01 2.821001e-01 -8.299521e-03 4.564070e-01 1.064005e+00 1.059775e+00 4.000502e+00 1.048734e+00 1.973616e-01 5.175841e-02 6.345899e-01 -8.324561e-01 -8.783485e-01 -1.742325e-01 2.890652e-01 -2.334744e-01 -4.702634e-03 1.221050e-01 -4.504849e-02 -2.887541e-01
<VARIANCE> 39
 2.274615e+01 2.895885e+01 3.641344e+01 3.850536e+01 3.980814e+01 6.826493e+01 4.298436e+01 4.055349e+01 3.366292e+01 2.590096e+01 2.547909e+01 2.040899e+01 2.652010e+01 3.292515e+00 4.020185e+00 3.149813e+00 4.242125e+00 4.622644e+00 5.045486e+00 4.145643e+00 4.719464e+00 4.665201e+00 4.059252e+00 3.395597e+00 2.438232e+00 4.596979e+00 3.966274e-01 6.376579e-01 7.096620e-01 9.592313e-01 1.081411e+00 1.815593e+00 1.046633e+00 1.064669e+00 1.024434e+00 7.493637e-01 6.496708e-01 5.601935e-01 4.467255e-01
<GCONST> 1.319081e+02
<MIXTURE> 7 5.903217e-02
<MEAN> 39
 -5.875641e+00 -7.252004e+00 -1.926300e+00 1.095636e+00 6.669449e-01 1.738685e+00 3.664044e+00 -3.053563e-01 1.274078e+00 3.508056e-01 1.039529e+00 2.201231e+00 1.307204e+00 -8.857399e-01 -1.579754e+00 -3.472209e-01 -2.129336e+00 -1.391461e+00 -1.384499e+00 1.949968e-01 7.459787e-01 7.045646e-01 5.204810e-01 7.412369e-01 8.542573e-01 5.443026e+00 7.063263e-01 1.693586e+00 7.994785e-01 7.440420e-01 1.809775e-01 -4.980850e-01 -7.089759e-01 -2.357872e-01 -1.106118e-01 -1.811823e-01 -3.021079e-01 -2.375405e-01 -9.479865e-01
<VARIANCE> 39
 3.045835e+01 2.918933e+01 4.309874e+01 5.166474e+01 3.707500e+01 3.546527e+01 3.057061e+01 3.066069e+01 2.759890e+01 1.931190e+01 2.444188e+01 1.244017e+01 2.019802e+01 3.485150e+00 4.203719e+00 3.517242e+00 3.703472e+00 3.131905e+00 3.075165e+00 3.385020e+00 2.938570e+00 3.435901e+00 2.476453e+00 2.190469e+00 1.825968e+00 4.744293e+00 8.994690e-01 6.337305e-01 8.235905e-01 9.959236e-01 1.041798e+00 8.901445e-01 1.068784e+00 8.335911e-01 7.581604e-01 5.674808e-01 5.244606e-01 3.796769e-01 5.794564e-01
<GCONST> 1.261454e+02
<MIXTURE> 8 4.668873e-02
<MEAN> 39
 -9.900681e+00 1.409070e+00 2.821849e-01 -2.016217e+00 3.176787e+00 2.019693e+00 1.792199e+00 1.150385e+00 4.754470e+00 2.591239e+00 7.166596e+00 1.473388e+00 8.337556e+00 3.073361e+00 -6.502289e-01 6.120353e-01 -3.232638e+00 -3.727878e+00 -4.165849e+00 -1.129791e+00 1.133127e-02 -1.578770e+00 -6.154793e-01 -1.671054e+00 5.195831e-01 6.582738e+00 1.235098e+00 -1.053900e-01 2.526738e-01 7.289845e-01 -3.210636e-01 -2.019566e-01 -2.008483e-01 2.728456e-01 -3.903628e-01 -2.334736e-01 -1.131091e+00 -6.357840e-02 -1.965138e+00
<VARIANCE> 39
 1.422896e+01 2.904287e+01 3.531088e+01 2.950836e+01 3.315509e+01 3.354986e+01 4.467877e+01 2.702601e+01 2.490348e+01 2.985902e+01 1.925084e+01 1.992769e+01 1.399974e+01 2.043738e+00 3.615761e+00 3.591038e+00 3.967894e+00 2.881638e+00 2.837208e+00 2.554449e+00 4.424003e+00 2.347417e+00 3.029461e+00 2.844028e+00 2.080410e+00 6.088660e+00 4.409659e-01 7.352948e-01 1.126356e+00 8.256601e-01 1.051726e+00 1.027638e+00 1.037279e+00 8.677716e-01 7.994589e-01 8.719340e-01 6.659829e-01 5.705032e-01 5.484195e-01
<GCONST> 1.255339e+02
<MIXTURE> 9 1.026777e-01
<MEAN> 39
 -7.986323e+00 -8.058740e-01 2.931848e+00 -4.282041e+00 4.166853e+00 1.719255e+00 6.741549e-02 6.796527e-01 8.612699e-01 -8.099306e-01 3.848192e-01 4.559476e+00 5.447541e+00 3.759163e+00 -1.580956e+00 4.599621e-01 -2.414148e+00 -2.924136e+00 -2.887434e+00 -3.610476e+00 2.510364e-01 5.239028e-01 -7.978953e-02 -8.008325e-01 -1.173883e+00 7.721422e+00 8.283233e-01 2.028265e-01 -4.697031e-01 8.034849e-01 -3.444112e-01 2.628002e-01 -3.059799e-01 -1.082237e-01 3.306074e-01 6.157340e-01 -4.722764e-02 -8.325286e-01 -1.600231e+00
<VARIANCE> 39
 1.091003e+01 2.458922e+01 2.646462e+01 2.374723e+01 3.040523e+01 4.289735e+01 3.913260e+01 3.267630e+01 2.681459e+01 2.970490e+01 2.481565e+01 2.345782e+01 2.483001e+01 1.963713e+00 2.381211e+00 2.620969e+00 3.112712e+00 2.920229e+00 3.199094e+00 3.340651e+00 3.069690e+00 3.255959e+00 2.961002e+00 2.319016e+00 2.668925e+00 3.094771e+00 3.147283e-01 5.154078e-01 7.178449e-01 6.454961e-01 6.729537e-01 1.113332e+00 9.275563e-01 8.575454e-01 7.506061e-01 8.041968e-01 6.961768e-01 6.075311e-01 7.581609e-01
<GCONST> 1.229730e+02
<MIXTURE> 10 8.357573e-02
<MEAN> 39
 -6.233723e+00 -4.929449e+00 3.968359e+00 -1.673417e+00 -1.569089e-01 3.032497e+00 2.031781e+00 -1.503888e+00 2.934445e+00 1.556350e-01 1.171215e+00 3.778027e+00 5.697695e+00 1.787504e+00 -3.664512e+00 -9.739434e-01 -3.806407e+00 -3.398652e+00 -2.497377e+00 -2.350001e+00 2.020563e+00 1.367791e+00 1.003605e+00 9.853749e-01 1.560491e-01 7.543437e+00 1.449715e+00 9.640989e-01 -2.342375e-01 8.878857e-01 -1.348948e-01 -6.856930e-01 -8.814510e-01 2.406619e-01 -3.093294e-01 -7.035012e-02 -5.768053e-01 -1.037369e+00 -1.179743e+00
<VARIANCE> 39
 1.214899e+01 2.753926e+01 2.303907e+01 2.884484e+01 3.273415e+01 5.312110e+01 3.681095e+01 3.364056e+01 3.468132e+01 2.958724e+01 3.127001e+01 1.740899e+01 1.692555e+01 2.013250e+00 2.406183e+00 2.538425e+00 2.380865e+00 2.615910e+00 3.614822e+00 4.544858e+00 3.649710e+00 3.645562e+00 2.813060e+00 3.075404e+00 2.446298e+00 2.254098e+00 2.988990e-01 4.683248e-01 6.661918e-01 7.020527e-01 1.018044e+00 1.284865e+00 9.934356e-01 9.710225e-01 1.003343e+00 8.406630e-01 9.754875e-01 5.412784e-01 6.027750e-01
<GCONST> 1.244157e+02
<MIXTURE> 11 6.670593e-02
<MEAN> 39
 3.514288e-01 -2.606863e+00 5.688387e+00 1.009898e-01 -3.198378e+00 -2.772115e+00 -3.380813e+00 -1.521199e+00 1.310867e+00 -2.667506e+00 -5.635137e-01 1.564108e+00 4.614085e+00 7.483900e-01 -3.223145e+00 -2.700773e-01 -3.243217e+00 -2.111363e+00 -1.333850e+00 -2.045412e+00 2.721267e+00 1.589461e+00 8.652139e-01 1.137787e+00 6.210451e-01 4.808272e+00 7.336989e-01 5.339291e-01 -3.649821e-01 3.389004e-01 -9.905223e-02 -9.777436e-02 -5.299238e-03 -1.239583e-01 -3.673387e-01 3.624335e-01 -3.381998e-01 -5.415438e-01 -6.638282e-01
<VARIANCE> 39
 1.421399e+01 2.329126e+01 2.781180e+01 3.668371e+01 3.555014e+01 5.107477e+01 4.214667e+01 3.709194e+01 4.147666e+01 2.500022e+01 2.636259e+01 2.040020e+01 1.851590e+01 1.740662e+00 3.202553e+00 4.003770e+00 4.707386e+00 5.208457e+00 5.062532e+00 5.873171e+00 5.291220e+00 6.386448e+00 5.492911e+00 5.177585e+00 3.486968e+00 4.344999e+00 2.371731e-01 4.419558e-01 5.077903e-01 7.991773e-01 8.655533e-01 1.029956e+00 1.221915e+00 1.102200e+00 1.144804e+00 6.437564e-01 8.932109e-01 6.204804e-01 3.688379e-01
<GCONST> 1.298322e+02
<MIXTURE> 12 5.747551e-02
<MEAN> 39
 -6.172806e+00 -7.286982e+00 -1.936542e+00 5.141391e-01 9.100398e-01 1.524809e+00 3.092633e+00 -8.550981e-01 8.049461e-01 9.369826e-02 7.434742e-01 1.779770e+00 1.013701e+00 -8.390619e-01 -1.784862e+00 -6.457987e-01 -2.505825e+00 -1.653338e+00 -1.809246e+00 -2.339605e-01 1.685722e-01 1.908031e-01 3.219911e-02 3.254064e-01 5.716523e-01 5.638645e+00 6.874900e-01 1.614731e+00 7.865108e-01 7.263477e-01 5.919601e-02 -5.264419e-01 -6.944593e-01 -2.488042e-01 -1.505772e-01 -1.943611e-01 -3.559257e-01 -2.743714e-01 -9.348114e-01
<VARIANCE> 39
 2.714084e+01 2.916178e+01 4.138801e+01 5.167108e+01 3.781578e+01 3.564887e+01 2.956426e+01 3.080662e+01 2.951754e+01 1.968640e+01 2.320417e+01 1.272046e+01 2.135093e+01 3.305440e+00 3.844449e+00 3.440669e+00 3.644398e+00 3.104216e+00 3.210417e+00 3.350967e+00 2.880867e+00 3.178167e+00 2.615528e+00 2.117560e+00 1.835750e+00 4.476995e+00 9.597381e-01 6.110067e-01 8.040340e-01 9.935783e-01 9.962225e-01 9.300602e-01 9.771776e-01 8.110809e-01 7.706041e-01 5.809206e-01 5.339115e-01 3.767172e-01 5.311167e-01
<GCONST> 1.256580e+02
<MIXTURE> 13 5.460913e-02
<MEAN> 39
 -3.930242e+00 1.528495e+00 7.264044e+00 -1.372740e+00 1.120566e+00 2.432200e+00 -1.572423e+00 -4.703438e+00 -2.281544e+00 -2.922001e+00 -2.017533e+00 -3.506674e-01 9.270840e-01 -1.651546e-01 -1.610723e+00 8.252003e-01 -2.098209e+00 -2.120923e+00 -9.049577e-01 -6.777420e-01 -1.401520e-01 -4.133750e-01 2.233555e-01 7.565429e-01 8.506889e-01 3.894442e+00 1.018376e+00 1.623584e-01 1.007834e-01 6.095042e-01 -8.989120e-01 -8.797522e-01 -1.703903e-01 2.969693e-01 -2.591738e-01 -2.245552e-02 1.033325e-01 -5.362671e-02 -3.386468e-01
<VARIANCE> 39
 2.320003e+01 2.850872e+01 3.569654e+01 3.771399e+01 4.081659e+01 6.678922e+01 4.283471e+01 3.871978e+01 3.266021e+01 2.510147e+01 2.447537e+01 2.072173e+01 2.610295e+01 3.291564e+00 4.064969e+00 3.275487e+00 4.451077e+00 4.480473e+00 4.821049e+00 4.350492e+00 4.654589e+00 4.350131e+00 3.851219e+00 3.684236e+00 2.474207e+00 4.269215e+00 4.216805e-01 6.031735e-01 7.506629e-01 9.464871e-01 1.072958e+00 1.659645e+00 1.074323e+00 1.047512e+00 9.775777e-01 7.560166e-01 6.837400e-01 5.438573e-01 4.317641e-01
<GCONST> 1.315880e+02
<MIXTURE> 14 5.174594e-02
<MEAN> 39
 -9.405796e+00 2.534760e+00 -2.679280e+00 -5.265633e-01 3.291646e+00 -1.499794e-01 4.356851e+00 -2.568763e+00 3.243488e+00 2.468279e-01 5.664234e+00 6.593320e-01 5.913907e+00 1.797891e+00 -5.139316e-01 6.954740e-01 -3.152602e+00 -3.583460e+00 -3.786233e+00 -1.077450e+00 -3.616925e-01 -1.096158e+00 -2.782231e-01 -7.825975e-01 6.757275e-01 6.336888e+00 1.339891e+00 7.911693e-02 1.079889e+00 3.660662e-01 -7.388172e-01 -3.076826e-01 -8.756314e-01 2.878931e-01 -5.761920e-01 -1.166756e-01 -1.010692e+00 -3.739549e-02 -1.497011e+00
<VARIANCE> 39
 1.635307e+01 2.279964e+01 2.942999e+01 2.715054e+01 2.829770e+01 2.891836e+01 2.987703e+01 2.793099e+01 3.071562e+01 2.622059e+01 2.219767e+01 2.090952e+01 1.665129e+01 2.651110e+00 3.459793e+00 3.490643e+00 3.432669e+00 3.153833e+00 3.004155e+00 3.737866e+00 4.552149e+00 3.421782e+00 3.777252e+00 3.153552e+00 2.549115e+00 5.602140e+00 4.092593e-01 5.468819e-01 7.508333e-01 7.887782e-01 8.149397e-01 8.404550e-01 8.584673e-01 9.154803e-01 8.355260e-01 8.169643e-01 7.390420e-01 6.382436e-01 5.528829e-01
<GCONST> 1.251428e+02
<MIXTURE> 15 4.169148e-02
<MEAN> 39
 -1.015271e+01 2.017316e+00 6.422948e-01 -2.185822e+00 3.146963e+00 1.911030e+00 1.640679e+00 8.027680e-01 4.371007e+00 2.318026e+00 6.550067e+00 7.072144e-01 7.924556e+00 2.900986e+00 -8.186768e-01 3.079584e-01 -3.584635e+00 -4.177299e+00 -4.439143e+00 -1.484456e+00 -6.116105e-01 -2.196409e+00 -1.176815e+00 -2.150585e+00 4.038210e-02 6.302450e+00 1.301350e+00 -1.512202e-01 2.568748e-01 7.206316e-01 -4.138815e-01 -3.328185e-01 -2.729818e-01 1.060990e-01 -5.757174e-01 -3.684508e-01 -1.179704e+00 -1.066675e-01 -1.997045e+00
<VARIANCE> 39
 1.513563e+01 3.078600e+01 3.957931e+01 3.068312e+01 3.537855e+01 3.664000e+01 4.090731e+01 2.792038e+01 2.441086e+01 3.006455e+01 1.804758e+01 1.961697e+01 1.387357e+01 2.125847e+00 3.868422e+00 3.654762e+00 3.757497e+00 2.722995e+00 2.908123e+00 2.278022e+00 4.956595e+00 2.390510e+00 3.127441e+00 2.968117e+00 2.218317e+00 6.289648e+00 4.998092e-01 7.135150e-01 1.286530e+00 8.260636e-01 1.071053e+00 1.235381e+00 9.832465e-01 8.760905e-01 7.770723e-01 8.673520e-01 6.723912e-01 6.170574e-01 5.138220e-01
<GCONST> 1.264049e+02
<MIXTURE> 16 4.647706e-02
<MEAN> 39
 -7.785254e+00 -2.642404e+00 7.666654e-01 -4.107217e+00 3.488466e+00 1.528735e+00 1.538030e+00 2.363998e+00 2.494024e+00 1.612632e+00 4.223347e+00 1.848391e+00 3.221522e+00 -1.445503e+00 -1.492979e+00 -9.627437e-01 -2.318222e+00 -8.647125e-01 -1.062423e+00 9.365706e-01 1.457608e+00 1.050820e+00 8.799062e-01 7.771673e-01 9.327273e-01 3.902359e+00 1.127329e+00 1.118591e+00 4.494633e-01 1.085688e+00 -6.293734e-01 -6.014206e-01 -3.268308e-01 -8.214793e-01 -6.592134e-01 -5.355183e-01 -9.348884e-01 -2.664967e-01 -1.225064e+00
<VARIANCE> 39
 2.332771e+01 2.818368e+01 2.941917e+01 3.816918e+01 3.760117e+01 3.053638e+01 3.630183e+01 3.057603e+01 3.399830e+01 2.861387e+01 2.797448e+01 2.237790e+01 1.979973e+01 5.450736e+00 3.124799e+00 3.705596e+00 5.105056e+00 4.604385e+00 3.595096e+00 3.686602e+00 3.468835e+00 3.003609e+00 2.716031e+00 3.105038e+00 2.641155e+00 5.812269e+00 5.810317e-01 5.963535e-01 7.298158e-01 9.709303e-01 1.215724e+00 9.849208e-01 9.168553e-01 8.875851e-01 9.633283e-01 9.293592e-01 8.044717e-01 7.071497e-01 6.055374e-01
<GCONST> 1.300395e+02
<MIXTURE> 17 4.421180e-02
<MEAN> 39
 -1.035446e+01 5.774692e-01 8.928345e-01 -5.511550e+00 7.143682e+00 -1.430248e+00 3.266000e+00 2.391062e+00 -2.624907e+00 2.671938e+00 -1.104493e+00 2.870872e+00 4.775783e+00 2.523021e+00 -6.723621e-01 6.817334e-01 -1.596007e+00 -2.820392e+00 -3.050294e+00 -2.407302e+00 -5.098048e-01 2.463636e-01 -6.577430e-01 -6.281418e-01 -2.396289e-01 6.619438e+00 1.316809e+00 1.631616e-01 2.345123e-01 1.124548e+00 -1.103545e+00 2.521871e-01 -9.167905e-01 -4.275516e-01 6.173709e-01 -2.960335e-01 2.108290e-01 -4.928205e-01 -1.338871e+00
<VARIANCE> 39
 1.454978e+01 2.103399e+01 2.715902e+01 1.990787e+01 2.346123e+01 3.786507e+01 3.523717e+01 2.927675e+01 2.433912e+01 2.228998e+01 2.104348e+01 2.153189e+01 2.263108e+01 3.025790e+00 2.313098e+00 2.956366e+00 3.641424e+00 3.489966e+00 3.041169e+00 3.320191e+00 3.035912e+00 4.056430e+00 2.397655e+00 2.485151e+00 2.267794e+00 5.561989e+00 3.096918e-01 4.687794e-01 7.852276e-01 6.455525e-01 6.249269e-01 8.925141e-01 9.024836e-01 7.572629e-01 6.989514e-01 5.793960e-01 5.947882e-01 5.618742e-01 7.366956e-01
<GCONST> 1.217891e+02
<STATE> 4
<NUMMIXES> 17
<MIXTURE> 1 3.975677e-02
<MEAN> 39
 -9.406931e+00 4.424707e-02 -7.358755e-01 -1.460965e+00 2.192326e+00 -1.773878e-01 2.914894e+00 1.514384e+00 1.896113e+00 7.625449e-01 1.919455e+00 3.129236e+00 2.047550e+00 -9.942619e-01 1.322489e+00 2.774577e-01 5.622141e-01 3.129527e-01 -5.599163e-01 6.139107e-01 1.059286e+00 7.956476e-01 5.769845e-01 6.602132e-02 6.273227e-01 7.742524e-01 7.702349e-01 9.378093e-01 5.394152e-01 1.263800e+00 3.421735e-01 2.197485e-01 -2.050115e-01 -2.983953e-01 -1.654893e-01 -2.104540e-01 -4.052303e-01 -3.246768e-01 -1.786395e+00
<VARIANCE> 39
 3.990412e+01 3.875946e+01 4.721506e+01 4.084671e+01 4.150868e+01 3.420223e+01 3.103663e+01 3.018015e+01 3.027681e+01 2.092620e+01 2.297898e+01 1.883090e+01 2.264391e+01 4.342275e+00 4.227821e+00 3.591347e+00 3.857422e+00 2.978827e+00 4.119687e+00 3.326345e+00 2.866721e+00 2.755360e+00 1.989777e+00 2.235832e+00 2.555274e+00 6.555483e+00 6.765642e-01 8.153284e-01 7.831541e-01 8.337103e-01 8.150340e-01 7.780707e-01 7.242244e-01 5.521873e-01 5.598965e-01 5.418965e-01 4.719715e-01 3.994631e-01 6.102690e-01
<GCONST> 1.262049e+02
<MIXTURE> 2 8.020794e-02
<MEAN> 39
 3.047287e+00 -1.736967e+00 2.685890e+00 -8.703412e-01 -3.383050e+00 -3.275851e+00 -7.730069e+00 -1.280142e+00 7.009050e+00 2.434783e+00 -1.042601e+00 -9.306402e-01 8.714764e+00 3.349088e+00 -9.283743e-01 -1.804406e+00 -1.404340e+00 -1.538886e+00 -9.201404e-01 -2.898294e+00 9.479084e-01 1.832392e+00 1.350431e+00 8.716611e-01 -1.660571e+00 2.766923e+00 8.868176e-02 6.239437e-01 -4.075384e-01 5.642728e-01 7.929461e-01 8.205105e-01 8.678541e-01 -1.688759e-01 -8.460566e-01 -1.220384e-01 -2.409789e-02 -2.984151e-01 -1.894304e+00
<VARIANCE> 39
 1.392367e+01 1.653582e+01 2.014274e+01 2.189685e+01 2.429092e+01 2.320819e+01 3.144340e+01 2.688455e+01 2.194304e+01 2.296350e+01 1.690359e+01 1.852858e+01 1.129053e+01 2.619734e+00 3.685440e+00 3.754092e+00 5.694442e+00 4.150442e+00 6.809430e+00 7.355444e+00 8.291787e+00 5.920033e+00 5.172246e+00 5.242555e+00 4.221781e+00 4.153914e+00 3.184878e-01 4.956816e-01 4.009644e-01 5.021709e-01 5.406687e-01 6.732083e-01 7.075304e-01 6.893972e-01 6.793714e-01 6.501405e-01 5.254754e-01 5.805262e-01 3.322639e-01
<GCONST> 1.231143e+02
<MIXTURE> 3 6.270561e-02
<MEAN> 39
 1.618489e+00 9.623254e-01 6.791128e+00 -8.998581e-01 -5.580651e+00 -8.904735e+00 -3.774940e+00 1.180618e+00 2.551788e-01 -1.458869e+00 3.655781e-01 3.762038e+00 7.976408e+00 3.003320e+00 -1.579511e+00 7.676655e-01 -5.717666e-01 -3.570234e+00 -2.022810e+00 -1.904944e+00 1.836624e+00 7.407581e-01 3.728105e-01 -1.755346e-02 2.734963e-01 2.390548e+00 5.365691e-02 1.785690e-01 -3.188955e-01 7.347540e-01 6.491671e-01 1.015714e+00 3.822321e-01 -1.111504e-01 2.934960e-02 1.210726e-01 -3.453504e-01 -6.548340e-01 -1.673123e+00
<VARIANCE> 39
 1.173853e+01 1.929721e+01 2.551231e+01 1.974964e+01 3.014217e+01 1.910907e+01 2.310091e+01 2.059564e+01 2.375104e+01 1.998199e+01 1.677943e+01 1.256788e+01 1.461234e+01 2.691915e+00 2.858608e+00 3.915577e+00 4.321031e+00 4.898061e+00 4.926377e+00 6.466193e+00 4.719829e+00 4.860797e+00 4.004552e+00 5.454216e+00 3.717878e+00 3.638934e+00 2.887917e-01 5.880188e-01 3.732561e-01 4.274897e-01 6.884465e-01 5.905688e-01 4.665131e-01 5.818682e-01 5.917906e-01 5.220087e-01 4.444302e-01 3.231678e-01 3.789678e-01
<GCONST> 1.188818e+02
<MIXTURE> 4 6.360941e-02
<MEAN> 39
 -5.416205e+00 5.486849e+00 4.869576e+00 2.221529e+00 1.721143e+00 -5.832113e+00 6.768043e-01 -1.826628e+00 -9.323179e-01 1.514585e-01 -2.090943e+00 2.334532e+00 4.479204e+00 3.696282e+00 5.748492e-02 1.101311e+00 7.956746e-01 -2.524960e+00 -1.666830e+00 -2.909043e+00 -2.633385e-01 5.116122e-01 -3.609547e-01 2.726283e-01 -3.069849e-01 1.633365e+00 8.343486e-01 -5.227801e-01 -1.913207e-01 3.316043e-01 -1.584300e-01 8.245772e-01 -4.122395e-01 1.527221e-01 1.880521e-01 -6.833790e-02 3.296977e-01 -2.829776e-01 -1.316739e+00
<VARIANCE> 39
 2.412845e+01 2.180743e+01 3.938134e+01 3.284169e+01 2.644688e+01 3.177582e+01 2.869888e+01 2.436259e+01 3.188982e+01 1.985057e+01 1.771230e+01 1.744603e+01 1.659504e+01 3.965286e+00 2.758048e+00 7.008967e+00 3.941262e+00 6.808187e+00 5.476151e+00 5.769639e+00 4.079172e+00 4.530520e+00 3.715679e+00 3.056673e+00 3.052076e+00 2.448196e+00 5.939488e-01 4.832099e-01 6.978678e-01 8.023930e-01 5.219092e-01 8.601109e-01 6.488374e-01 6.349782e-01 5.944390e-01 4.877305e-01 4.373952e-01 4.279370e-01 6.465287e-01
<GCONST> 1.249585e+02
<MIXTURE> 5 4.373350e-02
<MEAN> 39
 6.897802e+00 -7.993742e+00 3.566392e+00 -2.749963e+00 -7.725688e+00 -2.671290e+00 -1.323152e+01 7.980765e+00 4.371207e+00 2.962949e+00 5.201468e-01 -1.824962e+00 1.129007e+01 2.610722e+00 -2.035794e+00 -1.733493e+00 -1.022965e+00 -9.015326e-01 6.684559e-01 -1.959604e+00 2.443487e+00 7.540894e-01 1.367939e+00 1.030608e-01 -1.887935e+00 1.314631e+00 -6.745867e-01 7.160313e-01 -5.851555e-01 5.041109e-01 1.333295e+00 9.259377e-01 1.728508e+00 -1.033304e+00 -3.563651e-01 -2.642697e-01 -1.723740e-01 -5.862366e-02 -1.493838e+00
<VARIANCE> 39
