~o
<STREAMINFO> 1 39
<VECSIZE> 39<NULLD><MFCC_D_A_Z_0><DIAGC>
~h "b"
<BEGINHMM>
<NUMSTATES> 5
<STATE> 2
<NUMMIXES> 17
<MIXTURE> 1 6.136366e-02
<MEAN> 39
 -8.063055e+00 5.392057e+00 1.294264e+00 1.036823e+01 7.249464e+00 6.823678e+00 4.525403e+00 2.546519e+00 4.639281e+00 2.706687e+00 3.707970e+00 1.416726e+00 -2.147173e+01 -8.858262e-01 -5.456569e-01 -1.359098e-01 6.947871e-02 1.926461e-01 4.543618e-01 7.860345e-01 1.001552e+00 1.138857e+00 9.986153e-01 9.414698e-01 7.634586e-01 -1.896746e-01 7.559569e-01 -7.711963e-03 1.255941e-01 -5.809988e-01 -4.292026e-01 -6.432994e-01 -5.052060e-01 -5.041932e-01 -4.743930e-01 -4.424305e-01 -3.787689e-01 -2.167858e-01 1.541855e+00
<VARIANCE> 39
 5.884679e+00 8.925756e+00 8.940778e+00 1.416310e+01 1.383630e+01 1.664746e+01 2.278063e+01 1.763228e+01 2.222942e+01 1.859438e+01 2.210010e+01 1.271056e+01 6.615023e+00 1.344779e+00 1.472031e+00 1.521658e+00 1.807902e+00 1.255530e+00 1.516212e+00 1.833398e+00 2.424180e+00 2.306052e+00 2.025275e+00 1.689632e+00 1.763352e+00 1.582748e+00 3.351541e-01 2.379418e-01 2.469583e-01 4.887996e-01 3.917522e-01 5.611048e-01 5.062009e-01 4.902821e-01 4.940953e-01 4.298572e-01 3.587087e-01 2.847950e-01 9.871284e-01
<GCONST> 1.009937e+02
<MIXTURE> 2 9.157040e-02
<MEAN> 39
 -1.814279e+00 1.227546e+01 7.770517e+00 1.443331e+01 9.616460e+00 6.170323e+00 1.049976e+00 -3.524301e+00 -1.646999e+00 -2.840959e+00 -1.094400e+00 -1.942823e+00 -1.870482e+01 -1.388302e+00 -2.899048e+00 -1.346807e+00 -1.579606e+00 -4.371018e-01 8.104506e-02 1.815316e+00 2.744418e+00 2.618910e+00 1.714343e+00 1.392649e+00 1.374509e+00 3.947591e+00 1.298406e+00 -9.086770e-01 -6.322820e-01 -1.400701e+00 -9.909292e-01 -7.071176e-01 -2.366286e-01 2.364488e-01 2.633196e-01 6.924810e-01 4.330733e-01 2.940285e-01 2.406907e+00
<VARIANCE> 39
 1.251867e+01 1.122846e+01 1.305674e+01 1.417604e+01 1.722971e+01 2.072292e+01 3.096121e+01 2.604777e+01 2.205952e+01 1.965980e+01 1.659459e+01 1.543870e+01 8.973973e+00 1.660181e+00 1.717499e+00 1.661724e+00 2.832747e+00 2.487785e+00 3.033452e+00 2.932958e+00 2.936478e+00 2.919661e+00 2.826528e+00 2.905118e+00 2.353358e+00 6.862593e+00 3.811878e-01 4.374695e-01 7.777655e-01 5.921807e-01 5.220553e-01 6.891056e-01 6.660904e-01 6.729463e-01 6.716769e-01 5.934602e-01 4.780909e-01 4.072749e-01 3.911042e-01
<GCONST> 1.130710e+02
<MIXTURE> 3 6.642335e-02
<MEAN> 39
 6.052223e+00 1.154067e+01 3.026204e+00 8.759298e+00 5.375135e+00 3.240652e+00 -6.479137e-01 -7.144853e+00 -5.584724e+00 -2.357253e+00 -1.184411e-01 -1.881752e+00 -1.111465e+01 1.455038e-01 -6.864786e-01 3.153378e-02 -8.679192e-01 1.518735e-01 4.067924e-01 6.946263e-01 1.180581e+00 1.579941e+00 7.370050e-01 7.619005e-01 1.007529e+00 2.516280e+00 9.771770e-02 -7.876112e-01 -1.844268e-01 -6.568720e-01 -2.797032e-01 -4.012570e-02 1.724494e-01 6.816058e-01 8.211522e-01 6.458172e-01 3.331001e-01 3.570928e-01 1.306927e+00
<VARIANCE> 39
 1.646696e+01 2.132734e+01 1.983886e+01 4.097054e+01 3.570291e+01 3.770254e+01 3.949470e+01 3.143751e+01 4.259553e+01 3.542713e+01 2.982563e+01 2.993941e+01 2.747745e+01 3.475239e+00 2.892320e+00 2.484617e+00 5.499911e+00 2.790091e+00 2.839411e+00 3.991773e+00 5.688467e+00 5.654529e+00 3.516722e+00 3.522549e+00 2.738916e+00 4.202401e+00 5.419343e-01 4.607893e-01 5.018097e-01 7.607620e-01 7.310615e-01 7.444575e-01 6.828337e-01 9.067038e-01 9.330872e-01 7.891794e-01 6.560940e-01 5.338647e-01 6.472289e-01
<GCONST> 1.275743e+02
<MIXTURE> 4 5.705280e-02
<MEAN> 39
 -8.212833e+00 6.084431e+00 1.877999e+00 1.104681e+01 7.849912e+00 7.522679e+00 5.614294e+00 2.490249e+00 3.868052e+00 3.416757e+00 3.479730e+00 2.031976e+00 -2.072169e+01 1.572026e+00 -1.242747e+00 -4.106048e-01 -1.944300e+00 -1.000093e+00 -1.111163e+00 2.482486e-02 5.038025e-01 9.326025e-01 6.445547e-01 6.116769e-01 6.560563e-01 5.894081e+00 1.676997e+00 -2.966046e-01 -5.724470e-02 -1.146894e+00 -6.109595e-01 -3.914247e-01 -6.110173e-01 -3.739923e-01 -2.319068e-01 -4.787549e-02 -5.469626e-02 -1.382461e-01 2.423963e+00
<VARIANCE> 39
 7.936285e+00 1.036181e+01 1.380931e+01 1.753250e+01 1.541517e+01 2.046557e+01 2.059323e+01 2.202759e+01 1.941114e+01 1.586735e+01 1.959476e+01 1.488108e+01 1.092521e+01 2.078798e+00 1.955213e+00 2.295928e+00 2.467916e+00 1.967974e+00 2.167892e+00 3.169501e+00 3.044262e+00 3.094150e+00 3.119042e+00 2.259148e+00 1.990498e+00 3.579291e+00 2.780817e-01 3.787549e-01 6.924370e-01 6.237727e-01 5.427474e-01 9.325787e-01 6.385913e-01 6.392057e-01 5.990260e-01 5.515817e-01 6.196385e-01 4.214524e-01 4.231450e-01
<GCONST> 1.111668e+02
<MIXTURE> 5 5.023210e-02
<MEAN> 39
 3.366862e+00 1.416382e+01 6.313700e+00 9.643398e+00 7.975684e+00 5.135732e+00 3.103824e+00 -5.700197e+00 -7.435822e+00 -4.562472e+00 -1.926287e+00 1.299103e+00 -1.465401e+01 -1.413052e-01 -2.688945e+00 -1.475047e+00 -2.123266e+00 -6.756610e-01 -2.803425e-01 -1.601513e-01 9.900051e-01 2.670181e+00 2.141506e+00 1.233420e+00 5.797011e-01 4.572248e+00 9.623058e-01 -1.203630e+00 -1.024686e+00 -1.296426e+00 -7.463533e-01 1.354625e-01 -2.630659e-01 2.616183e-01 9.619186e-01 8.983195e-01 8.889391e-01 4.778305e-02 1.975073e+00
<VARIANCE> 39
 1.372352e+01 1.296611e+01 1.644519e+01 1.871741e+01 2.028205e+01 2.113824e+01 2.306788e+01 2.386488e+01 1.944333e+01 1.753787e+01 2.261852e+01 1.632725e+01 1.115672e+01 2.495174e+00 1.715335e+00 1.810718e+00 4.152539e+00 3.146403e+00 2.149730e+00 2.460849e+00 2.893672e+00 2.605128e+00 2.434137e+00 2.888350e+00 1.892988e+00 2.877604e+00 3.148409e-01 4.209528e-01 5.092061e-01 8.055176e-01 6.217980e-01 7.845898e-01 8.945825e-01 7.758301e-01 6.516593e-01 6.595711e-01 6.144004e-01 5.965210e-01 2.989466e-01
<GCONST> 1.140136e+02
<MIXTURE> 6 6.301170e-02
<MEAN> 39
 5.648573e+00 1.133005e+01 3.313279e+00 1.117412e+01 8.576475e+00 3.194213e+00 -2.161401e+00 -8.371619e+00 -3.331007e+00 -4.038586e-01 7.546100e-01 -3.006852e+00 -1.202144e+01 -4.641197e-01 -2.710780e+00 6.408290e-01 -1.391619e+00 -1.705519e+00 -1.528220e+00 3.802619e-01 2.423615e+00 2.048256e+00 6.603763e-01 4.034335e-01 1.247322e+00 4.829269e+00 2.960057e-01 -1.231467e+00 4.729836e-01 -9.202638e-01 -1.201109e+00 -4.231792e-01 5.478725e-03 1.117943e+00 3.047016e-01 2.724191e-01 2.609065e-01 4.224997e-01 1.860118e+00
<VARIANCE> 39
 1.419092e+01 1.445672e+01 1.648352e+01 2.203987e+01 2.393428e+01 2.864164e+01 2.682961e+01 2.085473e+01 2.560367e+01 2.315873e+01 2.303320e+01 2.087027e+01 1.974088e+01 2.243513e+00 2.559071e+00 3.345896e+00 4.542804e+00 3.380098e+00 3.437447e+00 4.365133e+00 3.587872e+00 5.635802e+00 3.351342e+00 2.829107e+00 2.351388e+00 3.388418e+00 3.431120e-01 4.082009e-01 7.946856e-01 5.632892e-01 7.628624e-01 6.916892e-01 7.282790e-01 7.333905e-01 1.092192e+00 7.663546e-01 6.161548e-01 5.032898e-01 3.211942e-01
<GCONST> 1.205027e+02
<MIXTURE> 7 4.741399e-02
<MEAN> 39
 -7.373288e+00 6.098262e+00 1.546326e+00 9.870077e+00 7.750010e+00 6.975307e+00 5.209853e+00 2.058776e+00 4.395829e+00 2.625936e+00 3.520099e+00 2.682454e+00 -1.957968e+01 2.587260e+00 -1.015024e+00 3.869336e-01 -1.615998e+00 -1.555824e+00 -2.219275e+00 -9.012561e-01 6.054109e-02 1.179504e-01 -3.436874e-01 -3.701411e-01 -1.454738e-01 6.643982e+00 1.271235e+00 -4.604441e-01 3.479269e-01 -7.953250e-01 -7.431605e-01 -4.624995e-01 -4.848846e-01 -5.221720e-02 -2.627172e-01 1.286949e-01 -3.151381e-02 -1.149573e-01 2.111509e+00
<VARIANCE> 39
 9.640057e+00 1.495206e+01 1.377736e+01 1.707252e+01 1.919586e+01 1.782475e+01 2.080374e+01 2.339424e+01 2.399050e+01 2.015463e+01 2.307977e+01 1.673260e+01 1.490784e+01 2.362804e+00 2.216034e+00 3.084727e+00 3.403010e+00 2.491348e+00 3.364142e+00 2.479379e+00 2.723142e+00 3.422539e+00 2.999007e+00 2.148303e+00 2.073305e+00 4.249238e+00 2.103077e-01 4.283261e-01 8.382267e-01 6.452240e-01 7.180318e-01 7.107018e-01 6.961187e-01 6.772467e-01 7.966051e-01 6.381133e-01 6.185884e-01 4.496092e-01 4.440966e-01
<GCONST> 1.150680e+02
<MIXTURE> 8 4.943775e-02
<MEAN> 39
 5.079649e+00 1.386847e+01 4.321554e+00 8.122867e+00 6.091868e+00 5.695836e+00 4.746820e+00 -4.711830e+00 -5.822567e+00 -5.735206e+00 -3.031363e+00 4.053037e-01 -1.401317e+01 -6.118959e-02 -2.745301e+00 -1.343311e+00 -2.019758e+00 -6.526788e-01 -5.429980e-01 -3.976411e-01 7.584431e-01 2.041314e+00 1.865256e+00 1.482144e+00 8.230146e-01 4.756375e+00 7.463810e-01 -1.081366e+00 -7.185344e-01 -1.219795e+00 -5.590640e-01 1.671596e-01 -4.848699e-01 2.191812e-01 6.677255e-01 9.524172e-01 9.533201e-01 2.507568e-01 1.807464e+00
<VARIANCE> 39
 1.601055e+01 1.133220e+01 1.876008e+01 2.329881e+01 2.569457e+01 1.926685e+01 2.477431e+01 2.791283e+01 2.121784e+01 1.939156e+01 2.800487e+01 1.773096e+01 1.047710e+01 2.901253e+00 1.920528e+00 1.865175e+00 4.793920e+00 3.225887e+00 2.346890e+00 2.536839e+00 3.064683e+00 2.460297e+00 2.503461e+00 2.369767e+00 1.944549e+00 2.721922e+00 2.952564e-01 3.897849e-01 4.381039e-01 9.518356e-01 5.709040e-01 7.571881e-01 8.510360e-01 8.043658e-01 6.496204e-01 6.367281e-01 6.432085e-01 5.972396e-01 2.973345e-01
<GCONST> 1.153023e+02
<MIXTURE> 9 4.417244e-02
<MEAN> 39
 -8.433929e+00 4.890918e+00 1.268276e+00 9.613173e+00 7.014135e+00 7.077318e+00 4.613237e+00 3.016686e+00 4.505216e+00 3.487822e+00 4.070007e+00 2.324938e+00 -2.161231e+01 4.433420e-01 -3.129655e-01 1.319962e-01 -2.504065e-01 -2.742596e-01 -4.046445e-01 -9.949356e-04 1.028111e-01 1.766136e-01 2.552384e-02 8.988687e-02 2.356478e-01 2.059684e+00 9.255098e-01 -8.337825e-02 2.151301e-01 -5.129008e-01 -2.720316e-01 -4.821410e-01 -2.445562e-01 -1.328010e-01 -1.460169e-01 -1.394279e-01 -1.382154e-01 -4.088956e-02 2.307900e+00
<VARIANCE> 39
 6.038478e+00 7.401223e+00 1.173575e+01 1.706191e+01 1.109087e+01 1.414111e+01 1.957551e+01 1.889095e+01 2.087977e+01 1.509899e+01 1.612695e+01 1.466901e+01 7.530762e+00 5.679516e-01 1.157697e+00 8.811012e-01 1.175723e+00 1.025928e+00 1.118499e+00 1.136960e+00 1.371658e+00 1.416539e+00 1.474939e+00 1.311839e+00 1.283351e+00 3.983158e+00 2.642266e-01 2.394309e-01 3.363639e-01 4.583585e-01 3.131762e-01 3.903948e-01 3.344171e-01 4.208254e-01 4.182072e-01 3.908169e-01 3.186446e-01 3.208080e-01 7.665273e-01
<GCONST> 9.477071e+01
<MIXTURE> 10 9.157040e-02
<MEAN> 39
 -3.229549e+00 1.093510e+01 6.325152e+00 1.292727e+01 7.956113e+00 4.349426e+00 -1.175737e+00 -5.565782e+00 -3.525701e+00 -4.614533e+00 -2.723858e+00 -3.514507e+00 -1.990308e+01 -1.903694e+00 -3.423262e+00 -1.862439e+00 -2.252836e+00 -1.068010e+00 -6.156273e-01 1.130280e+00 2.058972e+00 1.935430e+00 1.041851e+00 7.108729e-01 7.608828e-01 2.899729e+00 1.051444e+00 -1.173243e+00 -9.850460e-01 -1.708515e+00 -1.279943e+00 -1.039167e+00 -5.630860e-01 -9.168445e-02 -6.450397e-02 3.843355e-01 1.564969e-01 3.875610e-02 2.156754e+00
<VARIANCE> 39
 1.251867e+01 1.122846e+01 1.305674e+01 1.417604e+01 1.722971e+01 2.072292e+01 3.096121e+01 2.604777e+01 2.205952e+01 1.965980e+01 1.659459e+01 1.543870e+01 8.973973e+00 1.660181e+00 1.717499e+00 1.661724e+00 2.832747e+00 2.487785e+00 3.033452e+00 2.932958e+00 2.936478e+00 2.919661e+00 2.826528e+00 2.905118e+00 2.353358e+00 6.862593e+00 3.811878e-01 4.374695e-01 7.777655e-01 5.921807e-01 5.220553e-01 6.891056e-01 6.660904e-01 6.729463e-01 6.716769e-01 5.934602e-01 4.780909e-01 4.072749e-01 3.911042e-01
<GCONST> 1.130710e+02
<MIXTURE> 11 6.642335e-02
<MEAN> 39
 4.429043e+00 9.693409e+00 1.244570e+00 6.198969e+00 2.985059e+00 7.845560e-01 -3.161706e+00 -9.387620e+00 -8.195333e+00 -4.738081e+00 -2.302955e+00 -4.070428e+00 -1.321141e+01 -6.001760e-01 -1.366751e+00 -5.989730e-01 -1.805995e+00 -5.162691e-01 -2.672297e-01 -1.045505e-01 2.265604e-01 6.287709e-01 -1.311201e-02 1.116231e-02 3.455418e-01 1.696290e+00 -1.967471e-01 -1.059137e+00 -4.677809e-01 -1.005759e+00 -6.217118e-01 -3.852535e-01 -1.580856e-01 3.007218e-01 4.347664e-01 2.904742e-01 9.101525e-03 6.482860e-02 9.851249e-01
<VARIANCE> 39
 1.646696e+01 2.132734e+01 1.983886e+01 4.097054e+01 3.570291e+01 3.770254e+01 3.949470e+01 3.143751e+01 4.259553e+01 3.542713e+01 2.982563e+01 2.993941e+01 2.747745e+01 3.475239e+00 2.892320e+00 2.484617e+00 5.499911e+00 2.790091e+00 2.839411e+00 3.991773e+00 5.688467e+00 5.654529e+00 3.516722e+00 3.522549e+00 2.738916e+00 4.202401e+00 5.419343e-01 4.607893e-01 5.018097e-01 7.607620e-01 7.310615e-01 7.444575e-01 6.828337e-01 9.067038e-01 9.330872e-01 7.891794e-01 6.560940e-01 5.338647e-01 6.472289e-01
<GCONST> 1.275743e+02
<MIXTURE> 12 6.301170e-02
<MEAN> 39
 4.141739e+00 9.809170e+00 1.689283e+00 9.296258e+00 6.619568e+00 1.053497e+00 -4.233293e+00 -1.019830e+01 -5.355010e+00 -2.328799e+00 -1.165107e+00 -4.834212e+00 -1.379866e+01 -1.063254e+00 -3.350664e+00 -9.084260e-02 -2.244173e+00 -2.440921e+00 -2.269834e+00 -4.554541e-01 1.665947e+00 1.098662e+00 -7.189053e-02 -2.693645e-01 6.339521e-01 4.092963e+00 6.170267e-02 -1.487029e+00 1.164030e-01 -1.220474e+00 -1.550477e+00 -7.558506e-01 -3.358783e-01 7.753897e-01 -1.133304e-01 -7.774764e-02 -5.307566e-02 1.387280e-01 1.633422e+00
<VARIANCE> 39
 1.419092e+01 1.445672e+01 1.648352e+01 2.203987e+01 2.393428e+01 2.864164e+01 2.682961e+01 2.085473e+01 2.560367e+01 2.315873e+01 2.303320e+01 2.087027e+01 1.974088e+01 2.243513e+00 2.559071e+00 3.345896e+00 4.542804e+00 3.380098e+00 3.437447e+00 4.365133e+00 3.587872e+00 5.635802e+00 3.351342e+00 2.829107e+00 2.351388e+00 3.388418e+00 3.431120e-01 4.082009e-01 7.946856e-01 5.632892e-01 7.628624e-01 6.916892e-01 7.282790e-01 7.333905e-01 1.092192e+00 7.663546e-01 6.161548e-01 5.032898e-01 3.211942e-01
<GCONST> 1.205027e+02
<MIXTURE> 13 5.705280e-02
<MEAN> 39
 -9.339689e+00 4.796840e+00 3.915634e-01 9.371933e+00 6.279426e+00 5.713124e+00 3.799104e+00 6.129069e-01 2.105729e+00 1.823403e+00 1.709091e+00 4.889359e-01 -2.204383e+01 9.953042e-01 -1.802063e+00 -1.016698e+00 -2.572684e+00 -1.561231e+00 -1.700113e+00 -6.872988e-01 -1.941101e-01 2.289947e-01 -6.187770e-02 1.045847e-02 9.171626e-02 5.137321e+00 1.466063e+00 -5.427769e-01 -3.900959e-01 -1.462811e+00 -9.056451e-01 -7.777051e-01 -9.306650e-01 -6.937936e-01 -5.414938e-01 -3.449497e-01 -3.695647e-01 -3.979235e-01 2.163765e+00
<VARIANCE> 39
 7.936285e+00 1.036181e+01 1.380931e+01 1.753250e+01 1.541517e+01 2.046557e+01 2.059323e+01 2.202759e+01 1.941114e+01 1.586735e+01 1.959476e+01 1.488108e+01 1.092521e+01 2.078798e+00 1.955213e+00 2.295928e+00 2.467916e+00 1.967974e+00 2.167892e+00 3.169501e+00 3.044262e+00 3.094150e+00 3.119042e+00 2.259148e+00 1.990498e+00 3.579291e+00 2.780817e-01 3.787549e-01 6.924370e-01 6.237727e-01 5.427474e-01 9.325787e-01 6.385913e-01 6.392057e-01 5.990260e-01 5.515817e-01 6.196385e-01 4.214524e-01 4.231450e-01
<GCONST> 1.111668e+02
<MIXTURE> 14 5.023210e-02
<MEAN> 39
 1.885052e+00 1.272348e+01 4.691594e+00 7.912853e+00 6.174260e+00 3.296678e+00 1.182662e+00 -7.654265e+00 -9.199606e+00 -6.237602e+00 -3.828645e+00 -3.171763e-01 -1.599007e+01 -7.731500e-01 -3.212829e+00 -2.013299e+00 -2.938377e+00 -1.385185e+00 -8.668208e-01 -7.876351e-01 3.095733e-01 2.024565e+00 1.517437e+00 5.536141e-01 2.935749e-02 3.893708e+00 7.378631e-01 -1.463154e+00 -1.310120e+00 -1.655428e+00 -1.061770e+00 -2.188458e-01 -6.413954e-01 -9.070653e-02 6.390170e-01 5.734636e-01 5.754044e-01 -2.611561e-01 1.756369e+00
<VARIANCE> 39
 1.372352e+01 1.296611e+01 1.644519e+01 1.871741e+01 2.028205e+01 2.113824e+01 2.306788e+01 2.386488e+01 1.944333e+01 1.753787e+01 2.261852e+01 1.632725e+01 1.115672e+01 2.495174e+00 1.715335e+00 1.810718e+00 4.152539e+00 3.146403e+00 2.149730e+00 2.460849e+00 2.893672e+00 2.605128e+00 2.434137e+00 2.888350e+00 1.892988e+00 2.877604e+00 3.148409e-01 4.209528e-01 5.092061e-01 8.055176e-01 6.217980e-01 7.845898e-01 8.945825e-01 7.758301e-01 6.516593e-01 6.595711e-01 6.144004e-01 5.965210e-01 2.989466e-01
<GCONST> 1.140136e+02
<MIXTURE> 15 4.943775e-02
<MEAN> 39
 3.479121e+00 1.252193e+01 2.589038e+00 6.192113e+00 4.064276e+00 3.940075e+00 2.755868e+00 -6.825134e+00 -7.665081e+00 -7.496640e+00 -5.148148e+00 -1.279022e+00 -1.530791e+01 -7.425122e-01 -3.299633e+00 -1.889597e+00 -2.895559e+00 -1.371109e+00 -1.155780e+00 -1.034739e+00 5.819368e-02 1.413900e+00 1.232363e+00 8.663821e-01 2.652262e-01 4.096445e+00 5.290310e-01 -1.331097e+00 -9.832921e-01 -1.610043e+00 -8.612968e-01 -1.809066e-01 -8.538764e-01 -1.395646e-01 3.453293e-01 6.332362e-01 6.325189e-01 -5.836831e-02 1.589350e+00
<VARIANCE> 39
 1.601055e+01 1.133220e+01 1.876008e+01 2.329881e+01 2.569457e+01 1.926685e+01 2.477431e+01 2.791283e+01 2.121784e+01 1.939156e+01 2.800487e+01 1.773096e+01 1.047710e+01 2.901253e+00 1.920528e+00 1.865175e+00 4.793920e+00 3.225887e+00 2.346890e+00 2.536839e+00 3.064683e+00 2.460297e+00 2.503461e+00 2.369767e+00 1.944549e+00 2.721922e+00 2.952564e-01 3.897849e-01 4.381039e-01 9.518356e-01 5.709040e-01 7.571881e-01 8.510360e-01 8.043658e-01 6.496204e-01 6.367281e-01 6.432085e-01 5.972396e-01 2.973345e-01
<GCONST> 1.153023e+02
<MIXTURE> 16 4.741399e-02
<MEAN> 39
 -8.615226e+00 4.551546e+00 6.161100e-02 8.217321e+00 5.997486e+00 5.286531e+00 3.385408e+00 1.240721e-01 2.436625e+00 8.301798e-01 1.598443e+00 1.046234e+00 -2.112410e+01 1.972404e+00 -1.610478e+00 -3.156020e-01 -2.353888e+00 -2.187184e+00 -2.952939e+00 -1.531098e+00 -5.995367e-01 -6.220539e-01 -1.036393e+00 -9.564247e-01 -7.214328e-01 5.819436e+00 1.087797e+00 -7.222306e-01 -1.829205e-02 -1.116628e+00 -1.082108e+00 -7.997121e-01 -8.186196e-01 -3.813972e-01 -6.197282e-01 -1.908331e-01 -3.461154e-01 -3.831689e-01 1.844947e+00
<VARIANCE> 39
 9.640057e+00 1.495206e+01 1.377736e+01 1.707252e+01 1.919586e+01 1.782475e+01 2.080374e+01 2.339424e+01 2.399050e+01 2.015463e+01 2.307977e+01 1.673260e+01 1.490784e+01 2.362804e+00 2.216034e+00 3.084727e+00 3.403010e+00 2.491348e+00 3.364142e+00 2.479379e+00 2.723142e+00 3.422539e+00 2.999007e+00 2.148303e+00 2.073305e+00 4.249238e+00 2.103077e-01 4.283261e-01 8.382267e-01 6.452240e-01 7.180318e-01 7.107018e-01 6.961187e-01 6.772467e-01 7.966051e-01 6.381133e-01 6.185884e-01 4.496092e-01 4.440966e-01
<GCONST> 1.150680e+02
<MIXTURE> 17 4.417244e-02
<MEAN> 39
 -9.416862e+00 3.802710e+00 -1.020229e-01 7.960931e+00 5.682017e+00 5.573132e+00 2.843469e+00 1.278138e+00 2.677440e+00 1.933525e+00 2.463673e+00 7.929322e-01 -2.271000e+01 1.418918e-01 -7.433509e-01 -2.434717e-01 -6.841295e-01 -6.794120e-01 -8.276809e-01 -4.275082e-01 -3.656601e-01 -2.994602e-01 -4.602644e-01 -3.682553e-01 -2.174925e-01 1.261370e+00 7.198978e-01 -2.791049e-01 -1.685751e-02 -7.837095e-01 -4.958802e-01 -7.320673e-01 -4.758714e-01 -3.922852e-01 -4.046927e-01 -3.894893e-01 -3.640099e-01 -2.674492e-01 1.957694e+00
<VARIANCE> 39
 6.038478e+00 7.401223e+00 1.173575e+01 1.706191e+01 1.109087e+01 1.414111e+01 1.957551e+01 1.889095e+01 2.087977e+01 1.509899e+01 1.612695e+01 1.466901e+01 7.530762e+00 5.679516e-01 1.157697e+00 8.811012e-01 1.175723e+00 1.025928e+00 1.118499e+00 1.136960e+00 1.371658e+00 1.416539e+00 1.474939e+00 1.311839e+00 1.283351e+00 3.983158e+00 2.642266e-01 2.394309e-01 3.363639e-01 4.583585e-01 3.131762e-01 3.903948e-01 3.344171e-01 4.208254e-01 4.182072e-01 3.908169e-01 3.186446e-01 3.208080e-01 7.665273e-01
<GCONST> 9.477071e+01
<STATE> 3
<NUMMIXES> 17
<MIXTURE> 1 5.300020e-02
<MEAN> 39
 -3.579447e+00 3.576679e+00 3.875791e+00 6.942915e+00 7.024217e+00 4.351877e+00 3.199804e+00 5.329812e-01 1.511028e+00 4.812157e-02 1.296000e+00 7.541382e-01 -5.592190e+00 7.542179e-01 -3.263234e+00 -2.492855e+00 -3.158317e+00 -8.185054e-01 -6.357720e-01 6.245233e-01 2.157439e+00 2.715703e+00 2.423659e+00 1.973934e+00 1.351906e+00 6.451235e+00 1.710541e+00 3.586313e-01 -4.324999e-01 -5.506503e-01 -3.574969e-01 -1.489288e-01 -4.779661e-01 -3.519895e-01 -2.093699e-01 1.677357e-01 1.305538e-01 3.165707e-03 5.728648e-01
<VARIANCE> 39
 1.932115e+01 2.306626e+01 2.158528e+01 2.317658e+01 2.552554e+01 2.502581e+01 3.430468e+01 3.123250e+01 3.145162e+01 2.324997e+01 2.626357e+01 1.806589e+01 3.805677e+01 5.232417e+00 2.656802e+00 3.075566e+00 4.019401e+00 3.828510e+00 3.347584e+00 6.111037e+00 6.307457e+00 3.620012e+00 3.430742e+00 3.160633e+00 2.691069e+00 2.761334e+00 6.943982e-01 6.630128e-01 7.092002e-01 9.555978e-01 7.363417e-01 9.376327e-01 1.071853e+00 1.017901e+00 9.516895e-01 8.651813e-01 8.568563e-01 7.034319e-01 5.850300e-01
<GCONST> 1.281644e+02
<MIXTURE> 2 7.984890e-02
<MEAN> 39
 1.442363e+00 4.609651e+00 -1.525242e+00 7.357188e-01 3.528869e+00 -3.574440e-01 3.218300e+00 -2.740528e+00 1.113335e+00 2.386437e+00 4.135607e-01 3.560056e+00 1.326024e+00 3.177470e+00 -3.477445e+00 -1.550222e+00 -4.635436e+00 -3.506882e+00 1.005836e+00 -1.225515e+00 9.571545e-01 2.415022e+00 1.859142e+00 2.338680e+00 1.486074e-01 7.104588e+00 7.705509e-01 -4.958096e-02 2.813422e-01 9.037208e-02 -2.147163e-01 1.007148e+00 -1.399339e-01 1.732832e-01 7.171147e-02 -2.994373e-03 3.488570e-01 -4.937815e-01 -2.717840e-01
<VARIANCE> 39
 1.703879e+01 1.343696e+01 1.967121e+01 2.706586e+01 2.488627e+01 2.504967e+01 2.961852e+01 2.563827e+01 2.472405e+01 3.049831e+01 1.670293e+01 1.292959e+01 2.397754e+01 3.466544e+00 3.639869e+00 3.764072e+00 5.486789e+00 3.485430e+00 6.791826e+00 6.347114e+00 7.078380e+00 5.562845e+00 4.639410e+00 3.933740e+00 4.318904e+00 3.453858e+00 3.805957e-01 5.052668e-01 4.075458e-01 7.102958e-01 6.091798e-01 6.501219e-01 8.135586e-01 7.125146e-01 5.935671e-01 7.386038e-01 4.698058e-01 4.368489e-01 5.125578e-01
<GCONST> 1.240521e+02
<MIXTURE> 3 5.726470e-02
<MEAN> 39
 -2.660305e+00 2.681272e+00 3.030469e+00 7.217550e+00 4.812779e+00 -6.931450e-01 3.235925e+00 1.470863e+00 3.488354e+00 -3.782883e-01 -6.479436e-01 1.468192e+00 -2.259967e+00 1.680431e+00 -3.352223e+00 1.992358e+00 -1.654668e+00 -3.535270e+00 -2.971351e+00 -6.475953e-01 2.304609e+00 1.793229e-01 1.591259e-02 8.972226e-01 1.426305e+00 7.012550e+00 9.629362e-01 1.175949e-01 9.649718e-01 -1.646522e-01 -7.805640e-01 5.433539e-02 -5.101653e-01 -2.420770e-02 -7.375592e-01 2.011646e-01 4.706684e-01 -4.543662e-04 2.194010e-01
<VARIANCE> 39
 2.023835e+01 1.717713e+01 1.795492e+01 2.143382e+01 2.679494e+01 2.846788e+01 2.880945e+01 2.805339e+01 2.735211e+01 2.405494e+01 2.415420e+01 1.835988e+01 3.172084e+01 3.741348e+00 2.815891e+00 2.792897e+00 4.849703e+00 3.734661e+00 2.894287e+00 5.435000e+00 4.230707e+00 3.973426e+00 4.146070e+00 3.149838e+00 2.245181e+00 3.136088e+00 3.824663e-01 4.749200e-01 4.368510e-01 5.946780e-01 6.449838e-01 7.091601e-01 8.175825e-01 8.038934e-01 7.619821e-01 7.838272e-01 6.995867e-01 4.362017e-01 5.323414e-01
<GCONST> 1.226427e+02
<MIXTURE> 4 6.330125e-02
<MEAN> 39
 -4.279695e+00 -8.405483e-02 -1.095001e+00 3.853256e+00 5.446766e+00 2.794234e+00 3.497559e+00 5.467119e-01 4.259569e+00 3.632089e+00 3.741359e+00 2.475112e+00 7.254173e-01 3.389810e+00 -1.293611e+00 -2.080310e+00 -3.138000e+00 -9.379781e-01 -4.371904e-01 -8.473060e-01 -5.343422e-02 9.643923e-01 1.204416e+00 1.157234e+00 8.857694e-01 5.989614e+00 1.666767e+00 9.984601e-01 2.607714e-02 -2.303496e-01 -9.099758e-02 3.065026e-01 -5.291446e-01 -2.194572e-01 -5.413541e-01 -3.954388e-01 -1.561334e-01 -9.737357e-03 -5.421889e-01
<VARIANCE> 39
 1.291562e+01 2.135106e+01 1.562946e+01 2.374147e+01 2.115679e+01 1.957786e+01 2.974973e+01 2.993842e+01 2.611577e+01 1.802588e+01 2.236263e+01 1.788637e+01 3.570049e+01 3.790271e+00 3.187964e+00 3.978738e+00 6.172334e+00 2.887941e+00 3.021195e+00 5.045865e+00 3.705380e+00 3.633240e+00 3.615893e+00 2.786133e+00 2.536607e+00 3.780406e+00 3.995748e-01 7.478830e-01 6.243373e-01 9.001988e-01 7.204447e-01 8.209678e-01 1.153049e+00 1.142456e+00 9.892451e-01 6.729612e-01 7.090636e-01 6.908805e-01 7.860807e-01
<GCONST> 1.250058e+02
<MIXTURE> 5 3.548462e-02
<MEAN> 39
 7.662892e+00 3.635931e+00 -2.746080e+00 -3.062760e+00 2.529999e-01 4.439507e+00 -8.274422e-01 -4.419809e+00 -3.771597e-01 2.411438e+00 5.415410e+00 1.135579e+00 2.036771e+00 1.877357e+00 -3.516779e+00 -1.875001e+00 -4.669995e+00 -1.126619e+00 2.652637e-01 1.740426e-01 1.861202e+00 2.826399e+00 2.878547e+00 1.498391e+00 4.085524e-01 6.125951e+00 1.700050e-01 -2.524202e-02 2.457536e-01 3.791297e-01 4.777510e-01 1.603018e-01 3.139306e-01 2.564325e-01 3.222544e-02 7.264615e-02 -4.914315e-01 -2.723606e-01 -1.321199e-01
<VARIANCE> 39
 1.791541e+01 1.441806e+01 1.866538e+01 3.586020e+01 2.062154e+01 2.997812e+01 2.381834e+01 2.762043e+01 2.736981e+01 2.402919e+01 2.327856e+01 1.834728e+01 1.911697e+01 2.649267e+00 4.583945e+00 4.488269e+00 6.588792e+00 4.575505e+00 5.875702e+00 7.156830e+00 6.152081e+00 5.870294e+00 5.442430e+00 5.545387e+00 4.352854e+00 4.231930e+00 3.063577e-01 2.676773e-01 2.951413e-01 4.663921e-01 4.651714e-01 4.107508e-01 5.328310e-01 6.654232e-01 6.171072e-01 4.647556e-01 5.579579e-01 3.770362e-01 3.989299e-01
<GCONST> 1.222976e+02
<MIXTURE> 6 5.898265e-02
<MEAN> 39
 -4.019627e+00 5.050778e-01 7.272632e-01 5.275585e+00 4.083942e+00 2.916146e+00 3.082679e+00 1.928461e+00 6.229183e+00 2.705203e+00 4.379896e+00 2.510716e+00 -1.263175e+00 4.622380e+00 -1.645742e+00 -1.589205e+00 -3.154657e+00 -1.163222e+00 -1.569755e+00 -1.463787e+00 -3.334777e-01 -1.350450e-01 3.667225e-01 -5.378910e-01 -4.980518e-01 7.426729e+00 1.220266e+00 1.925809e-01 -2.294264e-01 -2.693331e-01 1.309172e-01 1.543079e-01 -2.999471e-01 6.256022e-02 -3.618840e-01 8.325257e-02 -2.938945e-01 -1.993628e-01 -2.039405e-01
<VARIANCE> 39
 1.294673e+01 1.909529e+01 1.676857e+01 2.292288e+01 2.335513e+01 2.709381e+01 3.063535e+01 2.259001e+01 3.170981e+01 2.269599e+01 2.309187e+01 2.074393e+01 3.792880e+01 2.206333e+00 2.201965e+00 3.184955e+00 5.081733e+00 2.397201e+00 4.538335e+00 4.227600e+00 3.196661e+00 3.553933e+00 3.696150e+00 4.681071e+00 2.982934e+00 4.286470e+00 4.717368e-01 6.273999e-01 5.409476e-01 7.021456e-01 6.675916e-01 9.952903e-01 1.061419e+00 8.521534e-01 9.972192e-01 7.113244e-01 7.931658e-01 6.851639e-01 8.180230e-01
<GCONST> 1.246890e+02
<MIXTURE> 7 5.611570e-02
<MEAN> 39
 -1.402493e+00 1.240762e+00 4.917029e+00 8.259452e+00 2.351346e+00 -3.739083e+00 1.566168e+00 3.036378e+00 3.560712e+00 -1.612093e+00 2.059533e+00 2.071898e+00 3.363270e-01 2.025522e+00 -2.625648e+00 3.499507e+00 -2.225886e+00 -4.317386e+00 -2.543732e+00 -6.641021e-01 1.265586e+00 -1.549498e+00 3.649254e-01 7.429837e-01 7.699570e-01 6.858428e+00 6.043148e-01 5.155854e-01 9.031605e-01 -4.877958e-01 -5.109615e-01 7.458180e-01 -2.206497e-01 -4.335328e-01 -7.621749e-01 5.318931e-01 1.516804e-01 -1.464901e-01 -3.116086e-01
<VARIANCE> 39
 2.312101e+01 1.614563e+01 2.888621e+01 2.433309e+01 3.233852e+01 3.333997e+01 3.729277e+01 3.658180e+01 4.153628e+01 2.415327e+01 3.440987e+01 2.238156e+01 2.911180e+01 4.660840e+00 2.967665e+00 3.559465e+00 5.227067e+00 3.349319e+00 4.471184e+00 5.716210e+00 6.692086e+00 5.165200e+00 5.628696e+00 3.524399e+00 2.839373e+00 3.611621e+00 4.058178e-01 5.553339e-01 5.244045e-01 6.814966e-01 6.173407e-01 1.008819e+00 9.316343e-01 1.111009e+00 1.030204e+00 6.754234e-01 1.039554e+00 5.522043e-01 6.197408e-01
<GCONST> 1.297889e+02
<MIXTURE> 8 6.469550e-02
<MEAN> 39
 7.910858e-01 5.126223e+00 2.654445e+00 5.942302e+00 6.539492e+00 3.224249e+00 2.463383e+00 -3.009150e+00 -1.826032e+00 -1.749452e+00 -1.955717e+00 -4.047274e-01 -4.639964e+00 1.071402e+00 -2.795379e+00 -1.706172e+00 -3.279704e+00 -1.560090e+00 -3.153917e-01 -5.131505e-01 1.217811e+00 2.275370e+00 1.911242e+00 1.713048e+00 1.149589e+00 5.639997e+00 1.247273e+00 1.751081e-01 -2.384437e-01 -7.410500e-01 -5.661077e-01 4.328671e-01 -2.407404e-01 1.358643e-01 1.228727e-01 2.897322e-01 5.731804e-01 2.736428e-01 4.451198e-01
<VARIANCE> 39
 2.410931e+01 2.033605e+01 2.586154e+01 2.775097e+01 2.583007e+01 2.811071e+01 2.598192e+01 2.426995e+01 2.217628e+01 2.441616e+01 2.144824e+01 2.093184e+01 2.118826e+01 2.512495e+00 2.639224e+00 3.302699e+00 5.110565e+00 3.223005e+00 3.482529e+00 4.257819e+00 5.054038e+00 3.688307e+00 3.444184e+00 2.755890e+00 2.777804e+00 2.956939e+00 4.439601e-01 6.519986e-01 5.739285e-01 1.149911e+00 7.723736e-01 1.064103e+00 9.438652e-01 8.480620e-01 7.280191e-01 8.010568e-01 5.456465e-01 5.779834e-01 3.591565e-01
<GCONST> 1.240122e+02
<MIXTURE> 9 6.260790e-02
<MEAN> 39
 4.748852e+00 1.720464e+00 -2.619418e+00 1.633067e-01 8.573133e-01 -1.312242e+00 -3.526265e+00 -3.567265e+00 3.647711e+00 2.150521e+00 2.362610e+00 -3.143239e+00 1.988227e+00 1.791968e+00 -4.788153e+00 -2.136211e+00 -4.764108e+00 -1.926745e+00 -1.517929e+00 -5.792687e-01 2.875701e+00 2.413519e+00 2.029176e+00 -8.579978e-01 1.016951e-03 6.654344e+00 1.157577e-01 -2.392876e-01 1.762990e-01 1.539145e-01 1.587593e-01 1.283189e-01 1.657037e-01 1.982207e-01 -5.599682e-01 -1.805421e-01 -5.806422e-01 2.202293e-02 -3.706191e-01
<VARIANCE> 39
 1.398677e+01 1.368987e+01 1.835345e+01 2.278561e+01 1.571653e+01 2.759305e+01 2.340515e+01 2.517818e+01 2.593770e+01 2.344518e+01 2.065608e+01 1.406115e+01 2.197938e+01 4.710847e+00 3.071063e+00 5.367284e+00 5.544875e+00 4.721723e+00 8.031546e+00 7.518368e+00 7.523152e+00 7.181743e+00 6.347108e+00 5.870731e+00 3.864060e+00 3.733331e+00 3.713666e-01 3.095271e-01 3.845621e-01 4.334297e-01 5.256114e-01 5.118784e-01 5.930611e-01 5.552908e-01 6.906953e-01 5.388732e-01 5.601029e-01 4.102130e-01 4.114124e-01
<GCONST> 1.228598e+02
<MIXTURE> 10 7.984890e-02
<MEAN> 39
 -2.087595e-01 3.143393e+00 -3.299332e+00 -1.345276e+00 1.533423e+00 -2.359430e+00 1.041384e+00 -4.765898e+00 -8.755967e-01 1.774265e-01 -1.221208e+00 2.121746e+00 -6.326511e-01 2.432724e+00 -4.240583e+00 -2.326270e+00 -5.572392e+00 -4.253654e+00 -3.660974e-02 -2.233255e+00 -1.070545e-01 1.471594e+00 9.975703e-01 1.545334e+00 -6.826715e-01 6.361206e+00 5.237811e-01 -3.339095e-01 2.598497e-02 -2.467441e-01 -5.269163e-01 6.846271e-01 -5.007238e-01 -1.643591e-01 -2.364617e-01 -3.467626e-01 7.468744e-02 -7.581597e-01 -5.581566e-01
<VARIANCE> 39
 1.703879e+01 1.343696e+01 1.967121e+01 2.706586e+01 2.488627e+01 2.504967e+01 2.961852e+01 2.563827e+01 2.472405e+01 3.049831e+01 1.670293e+01 1.292959e+01 2.397754e+01 3.466544e+00 3.639869e+00 3.764072e+00 5.486789e+00 3.485430e+00 6.791826e+00 6.347114e+00 7.078380e+00 5.562845e+00 4.639410e+00 3.933740e+00 4.318904e+00 3.453858e+00 3.805957e-01 5.052668e-01 4.075458e-01 7.102958e-01 6.091798e-01 6.501219e-01 8.135586e-01 7.125146e-01 5.935671e-01 7.386038e-01 4.698058e-01 4.368489e-01 5.125578e-01
<GCONST> 1.240521e+02
<MIXTURE> 11 6.469550e-02
<MEAN> 39
 -1.172964e+00 3.322402e+00 6.202751e-01 3.835134e+00 4.506560e+00 1.103467e+00 4.244847e-01 -4.979732e+00 -3.709700e+00 -3.725960e+00 -3.808207e+00 -2.234781e+00 -6.481192e+00 4.373684e-01 -3.445207e+00 -2.433105e+00 -4.183966e+00 -2.278200e+00 -1.061853e+00 -1.338530e+00 3.185635e-01 1.507172e+00 1.168902e+00 1.049012e+00 4.829195e-01 4.952167e+00 9.807513e-01 -1.478776e-01 -5.414760e-01 -1.169986e+00 -9.176469e-01 2.024567e-02 -6.293514e-01 -2.324968e-01 -2.184235e-01 -6.827485e-02 2.777088e-01 -3.045803e-02 2.054012e-01
<VARIANCE> 39
 2.410931e+01 2.033605e+01 2.586154e+01 2.775097e+01 2.583007e+01 2.811071e+01 2.598192e+01 2.426995e+01 2.217628e+01 2.441616e+01 2.144824e+01 2.093184e+01 2.118826e+01 2.512495e+00 2.639224e+00 3.302699e+00 5.110565e+00 3.223005e+00 3.482529e+00 4.257819e+00 5.054038e+00 3.688307e+00 3.444184e+00 2.755890e+00 2.777804e+00 2.956939e+00 4.439601e-01 6.519986e-01 5.739285e-01 1.149911e+00 7.723736e-01 1.064103e+00 9.438652e-01 8.480620e-01 7.280191e-01 8.010568e-01 5.456465e-01 5.779834e-01 3.591565e-01
<GCONST> 1.240122e+02
<MIXTURE> 12 6.330125e-02
<MEAN> 39
 -5.717227e+00 -1.932343e+00 -2.676365e+00 1.904248e+00 3.606906e+00 1.024359e+00 1.315827e+00 -1.641929e+00 2.215425e+00 1.933813e+00 1.849793e+00 7.834204e-01 -1.664578e+00 2.611066e+00 -2.007805e+00 -2.878181e+00 -4.131768e+00 -1.617736e+00 -1.132454e+00 -1.745826e+00 -8.234087e-01 2.019499e-01 4.437962e-01 4.895651e-01 2.487002e-01 5.211884e+00 1.413919e+00 6.525391e-01 -2.899829e-01 -6.098648e-01 -4.305136e-01 -5.592646e-02 -9.586651e-01 -6.470002e-01 -9.391973e-01 -7.235756e-01 -4.929571e-01 -3.422142e-01 -8.968337e-01
<VARIANCE> 39
 1.291562e+01 2.135106e+01 1.562946e+01 2.374147e+01 2.115679e+01 1.957786e+01 2.974973e+01 2.993842e+01 2.611577e+01 1.802588e+01 2.236263e+01 1.788637e+01 3.570049e+01 3.790271e+00 3.187964e+00 3.978738e+00 6.172334e+00 2.887941e+00 3.021195e+00 5.045865e+00 3.705380e+00 3.633240e+00 3.615893e+00 2.786133e+00 2.536607e+00 3.780406e+00 3.995748e-01 7.478830e-01 6.243373e-01 9.001988e-01 7.204447e-01 8.209678e-01 1.153049e+00 1.142456e+00 9.892451e-01 6.729612e-01 7.090636e-01 6.908805e-01 7.860807e-01
<GCONST> 1.250058e+02
<MIXTURE> 13 5.898265e-02
<MEAN> 39
 -5.458889e+00 -1.242849e+00 -9.107147e-01 3.360471e+00 2.150856e+00 8.340777e-01 8.687109e-01 2.730262e-02 3.976725e+00 7.995908e-01 2.457736e+00 6.888958e-01 -3.726629e+00 4.028230e+00 -2.239302e+00 -2.303063e+00 -4.056365e+00 -1.782538e+00 -2.421889e+00 -2.286232e+00 -1.048646e+00 -8.891201e-01 -4.022924e-01 -1.403322e+00 -1.188899e+00 6.598577e+00 9.455339e-01 -1.242534e-01 -5.236230e-01 -6.045097e-01 -1.959079e-01 -2.447490e-01 -7.120479e-01 -3.066884e-01 -7.613274e-01 -2.541076e-01 -6.501339e-01 -5.304614e-01 -5.657189e-01
<VARIANCE> 39
 1.294673e+01 1.909529e+01 1.676857e+01 2.292288e+01 2.335513e+01 2.709381e+01 3.063535e+01 2.259001e+01 3.170981e+01 2.269599e+01 2.309187e+01 2.074393e+01 3.792880e+01 2.206333e+00 2.201965e+00 3.184955e+00 5.081733e+00 2.397201e+00 4.538335e+00 4.227600e+00 3.196661e+00 3.553933e+00 3.696150e+00 4.681071e+00 2.982934e+00 4.286470e+00 4.717368e-01 6.273999e-01 5.409476e-01 7.021456e-01 6.675916e-01 9.952903e-01 1.061419e+00 8.521534e-01 9.972192e-01 7.113244e-01 7.931658e-01 6.851639e-01 8.180230e-01
<GCONST> 1.246890e+02
<MIXTURE> 14 5.726470e-02
<MEAN> 39
 -4.459787e+00 1.023460e+00 1.335539e+00 5.365684e+00 2.742226e+00 -2.827357e+00 1.088947e+00 -6.477552e-01 1.396384e+00 -2.340122e+00 -2.613821e+00 -2.457457e-01 -4.512817e+00 9.067287e-01 -4.023448e+00 1.323880e+00 -2.535550e+00 -4.308280e+00 -3.651855e+00 -1.580119e+00 1.481861e+00 -6.180153e-01 -7.985634e-01 1.873112e-01 8.269475e-01 6.304190e+00 7.155607e-01 -1.580629e-01 7.005930e-01 -4.731137e-01 -1.101807e+00 -2.825112e-01 -8.718464e-01 -3.828481e-01 -1.086726e+00 -1.529714e-01 1.361032e-01 -2.646366e-01 -7.244593e-02
<VARIANCE> 39
 2.023835e+01 1.717713e+01 1.795492e+01 2.143382e+01 2.679494e+01 2.846788e+01 2.880945e+01 2.805339e+01 2.735211e+01 2.405494e+01 2.415420e+01 1.835988e+01 3.172084e+01 3.741348e+00 2.815891e+00 2.792897e+00 4.849703e+00 3.734661e+00 2.894287e+00 5.435000e+00 4.230707e+00 3.973426e+00 4.146070e+00 3.149838e+00 2.245181e+00 3.136088e+00 3.824663e-01 4.749200e-01 4.368510e-01 5.946780e-01 6.449838e-01 7.091601e-01 8.175825e-01 8.038934e-01 7.619821e-01 7.838272e-01 6.995867e-01 4.362017e-01 5.323414e-01
<GCONST> 1.226427e+02
<MIXTURE> 15 5.611570e-02
<MEAN> 39
 -3.325865e+00 -3.665032e-01 2.767193e+00 6.286308e+00 7.666767e-02 -6.048714e+00 -8.765446e-01 6.170622e-01 9.827660e-01 -3.577932e+00 -2.868644e-01 1.795319e-01 -1.821887e+00 1.161963e+00 -3.314724e+00 2.744845e+00 -3.140398e+00 -5.049432e+00 -3.389539e+00 -1.620446e+00 2.308235e-01 -2.458581e+00 -5.840696e-01 -7.951647e-03 9.593940e-02 6.098258e+00 3.494994e-01 2.175024e-01 6.134974e-01 -8.180071e-01 -8.252456e-01 3.440581e-01 -6.067345e-01 -8.551504e-01 -1.168171e+00 2.031565e-01 -2.561537e-01 -4.437319e-01 -6.265031e-01
<VARIANCE> 39
 2.312101e+01 1.614563e+01 2.888621e+01 2.433309e+01 3.233852e+01 3.333997e+01 3.729277e+01 3.658180e+01 4.153628e+01 2.415327e+01 3.440987e+01 2.238156e+01 2.911180e+01 4.660840e+00 2.967665e+00 3.559465e+00 5.227067e+00 3.349319e+00 4.471184e+00 5.716210e+00 6.692086e+00 5.165200e+00 5.628696e+00 3.524399e+00 2.839373e+00 3.611621e+00 4.058178e-01 5.553339e-01 5.244045e-01 6.814966e-01 6.173407e-01 1.008819e+00 9.316343e-01 1.111009e+00 1.030204e+00 6.754234e-01 1.039554e+00 5.522043e-01 6.197408e-01
<GCONST> 1.297889e+02
<MIXTURE> 16 5.300020e-02
<MEAN> 39
 -5.337680e+00 1.655585e+00 2.017393e+00 5.017233e+00 5.003305e+00 2.350845e+00 8.569959e-01 -1.702461e+00 -7.322416e-01 -1.880607e+00 -7.539196e-01 -9.460213e-01 -8.059796e+00 -1.607612e-01 -3.915222e+00 -3.194347e+00 -3.960255e+00 -1.601169e+00 -1.367628e+00 -3.642972e-01 1.152853e+00 1.954649e+00 1.682769e+00 1.262808e+00 6.957264e-01 5.786545e+00 1.377219e+00 3.292890e-02 -7.693561e-01 -9.416690e-01 -7.007383e-01 -5.362546e-01 -8.920875e-01 -7.555538e-01 -5.995882e-01 -2.043248e-01 -2.397124e-01 -3.323177e-01 2.669158e-01
<VARIANCE> 39
 1.932115e+01 2.306626e+01 2.158528e+01 2.317658e+01 2.552554e+01 2.502581e+01 3.430468e+01 3.123250e+01 3.145162e+01 2.324997e+01 2.626357e+01 1.806589e+01 3.805677e+01 5.232417e+00 2.656802e+00 3.075566e+00 4.019401e+00 3.828510e+00 3.347584e+00 6.111037e+00 6.307457e+00 3.620012e+00 3.430742e+00 3.160633e+00 2.691069e+00 2.761334e+00 6.943982e-01 6.630128e-01 7.092002e-01 9.555978e-01 7.363417e-01 9.376327e-01 1.071853e+00 1.017901e+00 9.516895e-01 8.651813e-01 8.568563e-01 7.034319e-01 5.850300e-01
<GCONST> 1.281644e+02
<MIXTURE> 17 3.548462e-02
<MEAN> 39
 5.969828e+00 2.117085e+00 -4.474218e+00 -5.458096e+00 -1.563438e+00 2.249416e+00 -2.779604e+00 -6.522015e+00 -2.469806e+00 4.506544e-01 3.485496e+00 -5.777701e-01 2.878529e-01 1.226295e+00 -4.373185e+00 -2.722423e+00 -5.696741e+00 -1.982237e+00 -7.043301e-01 -8.960474e-01 8.690662e-01 1.857251e+00 1.945387e+00 5.564451e-01 -4.259874e-01 5.303085e+00 -5.139339e-02 -2.321922e-01 2.844598e-02 1.059581e-01 2.049370e-01 -9.605761e-02 2.194946e-02 -6.986137e-02 -2.819992e-01 -2.000458e-01 -7.902178e-01 -5.179737e-01 -3.847635e-01
<VARIANCE> 39
 1.791541e+01 1.441806e+01 1.866538e+01 3.586020e+01 2.062154e+01 2.997812e+01 2.381834e+01 2.762043e+01 2.736981e+01 2.402919e+01 2.327856e+01 1.834728e+01 1.911697e+01 2.649267e+00 4.583945e+00 4.488269e+00 6.588792e+00 4.575505e+00 5.875702e+00 7.156830e+00 6.152081e+00 5.870294e+00 5.442430e+00 5.545387e+00 4.352854e+00 4.231930e+00 3.063577e-01 2.676773e-01 2.951413e-01 4.663921e-01 4.651714e-01 4.107508e-01 5.328310e-01 6.654232e-01 6.171072e-01 4.647556e-01 5.579579e-01 3.770362e-01 3.989299e-01
<GCONST> 1.222976e+02
<STATE> 4
<NUMMIXES> 17
<MIXTURE> 1 6.953921e-02
<MEAN> 39
 1.032064e+01 -2.371488e+00 -5.321241e+00 -1.263668e+01 -6.201666e+00 1.035174e+01 -2.709757e-01 -7.476624e+00 9.394893e-01 3.869288e+00 7.123462e+00 3.750705e-01 7.777630e+00 2.238931e+00 -2.922934e+00 -1.449613e+00 -4.248600e+00 -2.295984e+00 2.926571e+00 -4.767377e-01 -1.387541e-01 1.435713e+00 1.058145e+00 1.362352e+00 -1.238876e+00 3.410300e+00 -6.632354e-01 7.984769e-01 6.087170e-01 1.495076e+00 1.167109e+00 -2.958972e-01 3.542668e-01 2.369696e-01 -3.973069e-01 -5.809510e-01 -9.068354e-01 -3.491555e-01 -1.608103e+00
<VARIANCE> 39
 1.074917e+01 1.611864e+01 1.666938e+01 3.419608e+01 2.171245e+01 3.987223e+01 4.672943e+01 3.233061e+01 3.033123e+01 3.049187e+01 2.242842e+01 2.029421e+01 1.198128e+01 2.064327e+00 3.974658e+00 2.701754e+00 5.864475e+00 4.172007e+00 5.560335e+00 5.871417e+00 4.261886e+00 5.276784e+00 4.915284e+00 4.303474e+00 2.293331e+00 4.198915e+00 3.338610e-01 2.557352e-01 2.272231e-01 4.085237e-01 3.020028e-01 6.717251e-01 5.461630e-01 6.330546e-01 5.449384e-01 4.558967e-01 3.753739e-01 3.854040e-01 1.622733e-01
<GCONST> 1.182674e+02
<MIXTURE> 2 5.779275e-02
<MEAN> 39
 1.912367e+00 5.867171e-02 3.470535e-01 1.808489e+00 1.221286e+00 -2.162349e+00 -7.969215e-01 1.072582e+00 4.768694e+00 2.431494e+00 1.131660e+00 1.400370e+00 6.098661e+00 2.376231e+00 -2.037239e+00 -3.618735e-01 -2.640253e+00 -2.236418e+00 -8.491009e-01 -4.882916e-01 1.987224e+00 1.524039e+00 1.076171e+00 8.138789e-01 1.091406e+00 5.290526e+00 5.144299e-01 9.750861e-01 5.107526e-01 5.698794e-01 3.391584e-01 7.622059e-01 2.131885e-01 -2.024984e-01 -5.931270e-01 -2.404104e-01 3.281134e-02 -1.139717e-01 -1.351621e+00
<VARIANCE> 39
 3.469505e+01 2.177501e+01 2.349529e+01 2.332416e+01 3.045725e+01 3.183294e+01 4.043118e+01 3.230798e+01 2.242202e+01 2.229112e+01 2.023264e+01 1.603968e+01 2.296716e+01 7.878809e+00 6.890327e+00 5.381200e+00 7.080735e+00 6.718051e+00 6.603515e+00 8.953603e+00 8.417600e+00 5.220496e+00 5.501391e+00 3.519640e+00 3.636134e+00 5.035452e+00 4.526384e-01 4.627672e-01 5.093629e-01 6.869331e-01 6.625524e-01 6.058285e-01 8.485529e-01 8.497072e-01 6.493972e-01 6.296090e-01 4.911756e-01 4.525756e-01 3.456808e-01
<GCONST> 1.297524e+02
<MIXTURE> 3 4.888510e-02
<MEAN> 39
 1.089086e+01 -1.147116e+00 -7.780959e+00 -3.954364e+00 3.413142e+00 6.635822e-01 -4.399363e+00 -2.289008e+00 3.280323e+00 5.130148e+00 4.422224e+00 1.235473e+00 6.976956e+00 2.992021e+00 -2.465160e+00 -2.496285e+00 -1.814395e+00 -1.207418e-01 -3.466718e-01 -1.149993e+00 1.811628e+00 2.502304e+00 1.423199e+00 7.874330e-01 2.072551e-01 3.869087e+00 -3.361749e-01 7.738907e-01 9.241486e-01 1.311866e+00 3.829793e-01 4.214298e-01 5.374328e-01 2.629235e-01 -2.986346e-01 -6.473328e-01 -4.257712e-01 -7.210308e-02 -1.293778e+00
<VARIANCE> 39
 1.318366e+01 1.957045e+01 2.981108e+01 4.354987e+01 2.352727e+01 2.570051e+01 5.342732e+01 4.003796e+01 3.926612e+01 5.034455e+01 4.261333e+01 3.814218e+01 1.898294e+01 3.418745e+00 3.363287e+00 5.442329e+00 5.372619e+00 5.148231e+00 5.042081e+00 1.254000e+01 7.292161e+00 7.174421e+00 6.175778e+00 6.800840e+00 4.826976e+00 3.468225e+00 3.369699e-01 2.924126e-01 3.463288e-01 5.401778e-01 4.452138e-01 4.405360e-01 6.986381e-01 7.510331e-01 7.616271e-01 6.746654e-01 5.764912e-01 5.148121e-01 3.383738e-01
<GCONST> 1.292824e+02
<MIXTURE> 4 5.765475e-02
<MEAN> 39
 5.069033e+00 -2.239874e+00 9.076458e+00 5.724877e+00 -5.063533e+00 -7.761792e+00 -4.342313e+00 2.770310e+00 -3.229473e-01 -2.835926e+00 2.075879e+00 3.347001e+00 6.714740e+00 2.131230e+00 -2.481171e+00 3.157557e+00 -1.463795e+00 -4.472990e+00 -1.418671e+00 -1.367676e+00 1.875623e+00 -1.203220e+00 -1.384951e-01 1.843886e+00 9.488099e-01 4.842465e+00 -1.665585e-01 1.104297e+00 9.416392e-02 2.657858e-01 7.572496e-01 1.230261e+00 6.126170e-01 -4.118978e-01 -3.368905e-01 4.366921e-01 1.254796e-01 -3.804177e-01 -1.484647e+00
<VARIANCE> 39
 1.301058e+01 1.776674e+01 1.910077e+01 2.194647e+01 2.266154e+01 1.701552e+01 2.975866e+01 1.969094e+01 2.327521e+01 2.236177e+01 1.559383e+01 1.353575e+01 1.629758e+01 2.865925e+00 3.588551e+00 4.137341e+00 4.911577e+00 4.228521e+00 5.641665e+00 6.094919e+00 6.137214e+00 5.957751e+00 5.862184e+00 3.997231e+00 2.805432e+00 4.202457e+00 3.381862e-01 3.414055e-01 2.909292e-01 3.953555e-01 5.050675e-01 3.965082e-01 6.532531e-01 4.458838e-01 5.479444e-01 3.968784e-01 4.076222e-01 3.408652e-01 2.919268e-01
<GCONST> 1.175331e+02
<MIXTURE> 5 7.765780e-02
<MEAN> 39
 9.817111e+00 5.846745e+00 -3.214103e+00 -1.001513e+01 -2.617652e+00 7.296954e+00 2.645878e+00 -4.137552e+00 -2.015736e+00 -4.875624e-02 3.708306e+00 4.477560e+00 2.624375e+00 3.471478e+00 1.684058e-01 -7.810199e-01 -4.908072e+00 -2.099679e+00 2.189630e+00 -1.394121e-01 -8.055511e-02 2.194891e-01 7.158436e-01 1.574666e+00 9.624305e-01 2.757277e+00 -2.877819e-01 4.137326e-01 5.190319e-01 1.089377e+00 6.253667e-01 2.126262e-01 1.682802e-01 2.847092e-01 1.046495e-01 -1.742958e-02 -2.460425e-01 -3.339441e-01 -1.049741e+00
<VARIANCE> 39
 1.190533e+01 1.282620e+01 1.953642e+01 4.043399e+01 3.763391e+01 2.561571e+01 3.200957e+01 3.029706e+01 2.581877e+01 2.919888e+01 2.589487e+01 1.789666e+01 1.433213e+01 3.035690e+00 3.501765e+00 3.835879e+00 6.553360e+00 6.766404e+00 5.174617e+00 5.908038e+00 6.219584e+00 5.055173e+00 4.689036e+00 4.217174e+00 3.236632e+00 4.088145e+00 4.107755e-01 3.638222e-01 3.027709e-01 5.943276e-01 4.372990e-01 4.055145e-01 3.656476e-01 4.921967e-01 5.793809e-01 4.406525e-01 3.635228e-01 3.015497e-01 3.567139e-01
<GCONST> 1.208200e+02
<MIXTURE> 6 5.910815e-02
<MEAN> 39
 9.731066e+00 -3.634715e+00 -5.050577e+00 -4.888417e+00 1.424608e+00 -2.929239e-01 -2.699788e+00 2.376579e-01 4.470675e+00 6.420987e+00 -4.412149e-01 -3.999321e+00 8.702813e+00 3.192492e+00 -3.069436e+00 -1.560020e+00 -3.150527e+00 -2.549419e-01 -3.090417e-01 -7.590520e-02 1.801860e+00 8.140880e-01 1.497076e+00 -1.417642e+00 -5.820296e-01 4.988993e+00 -6.800418e-01 7.696717e-01 7.553012e-01 1.367885e+00 6.121300e-01 7.123901e-01 5.501217e-01 1.232496e-01 -2.773436e-01 -5.431234e-01 1.205287e-01 4.894454e-01 -1.677435e+00
<VARIANCE> 39
 1.078465e+01 1.861940e+01 2.296309e+01 3.160177e+01 1.624552e+01 4.382811e+01 3.161197e+01 3.143771e+01 2.833036e+01 3.195100e+01 3.394304e+01 1.654379e+01 1.454506e+01 3.501205e+00 3.712999e+00 4.406007e+00 5.552171e+00 5.343425e+00 6.731481e+00 7.835582e+00 7.167648e+00 6.807909e+00 5.201086e+00 5.459543e+00 3.939037e+00 5.751702e+00 3.702387e-01 3.934778e-01 3.546707e-01 4.637019e-01 3.458450e-01 5.398956e-01 5.161489e-01 7.389511e-01 6.799059e-01 6.317516e-01 6.303456e-01 3.762948e-01 2.943887e-01
<GCONST> 1.247299e+02
<MIXTURE> 7 7.344910e-02
<MEAN> 39
 1.934586e+00 1.577592e+00 -2.785510e-01 2.906557e+00 2.896341e+00 3.640486e-01 -5.875468e-03 -2.002305e-01 3.825418e+00 1.901137e+00 2.711725e+00 9.988639e-01 4.026283e+00 4.525192e+00 -8.244741e-01 -1.221052e+00 -2.681566e+00 -1.373628e+00 -1.041906e+00 -1.696716e+00 4.583555e-01 6.562886e-02 6.904850e-01 2.734844e-01 3.705151e-01 4.659433e+00 4.422507e-01 5.994456e-01 2.406542e-01 3.347560e-01 2.690137e-01 5.035452e-01 7.170435e-02 2.317529e-01 -2.977907e-01 -4.894197e-02 -6.540528e-02 3.166426e-02 -1.338287e+00
<VARIANCE> 39
 2.015751e+01 1.610819e+01 1.927416e+01 2.612220e+01 2.586483e+01 2.616579e+01 2.950915e+01 3.759262e+01 2.659772e+01 2.128586e+01 2.212634e+01 1.555913e+01 1.961136e+01 3.666766e+00 5.689391e+00 7.453452e+00 8.482524e+00 5.676038e+00 7.730925e+00 8.628346e+00 6.894884e+00 6.157277e+00 5.477047e+00 5.008209e+00 4.164080e+00 6.452950e+00 4.925680e-01 4.827211e-01 4.475772e-01 5.828690e-01 6.132330e-01 6.853803e-01 8.366226e-01 1.098229e+00 7.674187e-01 6.277355e-01 5.434057e-01 3.921316e-01 3.943434e-01
<GCONST> 1.289006e+02
<MIXTURE> 8 4.347479e-02
<MEAN> 39
 2.814395e+00 -3.540967e-01 1.354612e+01 3.727149e+00 -7.177918e+00 -5.831090e+00 3.042459e-02 1.122568e+00 -5.839119e+00 -6.873202e-02 4.394443e+00 4.908876e-01 5.650046e+00 1.689723e+00 -1.129086e+00 4.064440e+00 -3.522483e+00 -4.019759e+00 -4.872595e-01 -4.069232e-01 -5.124183e-01 -2.728549e+00 2.088597e+00 1.790549e-01 3.968489e-01 4.524868e+00 -5.170628e-02 1.089071e+00 -2.395994e-01 2.078293e-01 9.597242e-01 1.167977e+00 -7.322182e-02 -5.257489e-01 5.176723e-01 4.256787e-01 -4.025662e-01 -1.115669e-01 -1.476722e+00
<VARIANCE> 39
 1.375037e+01 1.780322e+01 2.892484e+01 3.578164e+01 2.465857e+01 3.287463e+01 2.691008e+01 3.478585e+01 3.348730e+01 2.947208e+01 2.301884e+01 2.092937e+01 1.761149e+01 3.585612e+00 3.725527e+00 3.784784e+00 4.448455e+00 3.418750e+00 6.896205e+00 6.060865e+00 8.623786e+00 5.150212e+00 5.964838e+00 4.770094e+00 3.456539e+00 4.990138e+00 4.012197e-01 4.307540e-01 3.751175e-01 6.368987e-01 5.056845e-01 7.686225e-01 6.886956e-01 7.037724e-01 6.421035e-01 5.948823e-01 5.274909e-01 4.969317e-01 4.122765e-01
<GCONST> 1.259235e+02
<MIXTURE> 9 4.720676e-02
<MEAN> 39
 1.113326e+01 -3.752793e+00 -5.574281e+00 -1.146572e+01 -4.038671e+00 1.072492e+01 2.116550e+00 -4.256231e+00 1.831456e+00 6.107779e+00 8.434130e+00 -3.951172e+00 9.796830e+00 2.293340e+00 -2.649942e+00 -1.266093e+00 -2.774637e+00 -8.756020e-01 2.525877e+00 4.725253e-01 5.269250e-01 1.384980e+00 9.455485e-01 1.023325e+00 -2.290003e+00 3.757638e+00 -9.246644e-01 8.913109e-01 7.084841e-01 1.821323e+00 1.306843e+00 -2.627982e-01 3.838133e-01 3.625979e-01 4.241417e-02 -4.687223e-01 -9.037682e-01 3.325699e-01 -1.677133e+00
<VARIANCE> 39
 7.696638e+00 1.630548e+01 1.422012e+01 2.627343e+01 2.126807e+01 2.315906e+01 4.192136e+01 3.061520e+01 3.106327e+01 2.533633e+01 2.800126e+01 2.564792e+01 1.226407e+01 2.552321e+00 2.710942e+00 2.828314e+00 5.154280e+00 3.628454e+00 3.585584e+00 5.596214e+00 5.394265e+00 4.061943e+00 4.350417e+00 4.302286e+00 2.921523e+00 4.111876e+00 3.114004e-01 3.508465e-01 3.086803e-01 4.080456e-01 2.957337e-01 5.042590e-01 4.329934e-01 6.135366e-01 5.447028e-01 4.421911e-01 5.250213e-01 5.256313e-01 2.607037e-01
<GCONST> 1.173755e+02
<MIXTURE> 10 7.765780e-02
<MEAN> 39
 8.436948e+00 4.414197e+00 -4.982104e+00 -1.255863e+01 -5.071512e+00 5.272475e+00 3.827980e-01 -6.339262e+00 -4.048223e+00 -2.210196e+00 1.672826e+00 2.785382e+00 1.110063e+00 2.774548e+00 -5.801144e-01 -1.564436e+00 -5.932054e+00 -3.140171e+00 1.279718e+00 -1.111670e+00 -1.078119e+00 -6.798595e-01 -1.503237e-01 7.532358e-01 2.428048e-01 1.948511e+00 -5.441489e-01 1.724619e-01 2.989334e-01 7.810064e-01 3.608523e-01 -4.209384e-02 -7.359500e-02 4.082233e-03 -1.998188e-01 -2.829562e-01 -4.872139e-01 -5.535983e-01 -1.288643e+00
<VARIANCE> 39
 1.190533e+01 1.282620e+01 1.953642e+01 4.043399e+01 3.763391e+01 2.561571e+01 3.200957e+01 3.029706e+01 2.581877e+01 2.919888e+01 2.589487e+01 1.789666e+01 1.433213e+01 3.035690e+00 3.501765e+00 3.835879e+00 6.553360e+00 6.766404e+00 5.174617e+00 5.908038e+00 6.219584e+00 5.055173e+00 4.689036e+00 4.217174e+00 3.236632e+00 4.088145e+00 4.107755e-01 3.638222e-01 3.027709e-01 5.943276e-01 4.372990e-01 4.055145e-01 3.656476e-01 4.921967e-01 5.793809e-01 4.406525e-01 3.635228e-01 3.015497e-01 3.567139e-01
<GCONST> 1.208200e+02
<MIXTURE> 11 7.344910e-02
<MEAN> 39
 1.387016e-01 -2.780801e-02 -2.034645e+00 8.621614e-01 8.620415e-01 -1.682052e+00 -2.178769e+00 -2.652743e+00 1.762499e+00 5.567306e-02 8.301791e-01 -5.789386e-01 2.254895e+00 3.759240e+00 -1.778572e+00 -2.313092e+00 -3.846557e+00 -2.326606e+00 -2.154088e+00 -2.871678e+00 -5.919689e-01 -9.269257e-01 -2.456386e-01 -6.216768e-01 -4.457280e-01 3.643327e+00 1.615179e-01 3.215331e-01 -2.695063e-02 2.937257e-02 -4.422309e-02 1.723944e-01 -2.941639e-01 -1.874328e-01 -6.482005e-01 -3.658610e-01 -3.602695e-01 -2.188174e-01 -1.589475e+00
<VARIANCE> 39
 2.015751e+01 1.610819e+01 1.927416e+01 2.612220e+01 2.586483e+01 2.616579e+01 2.950915e+01 3.759262e+01 2.659772e+01 2.128586e+01 2.212634e+01 1.555913e+01 1.961136e+01 3.666766e+00 5.689391e+00 7.453452e+00 8.482524e+00 5.676038e+00 7.730925e+00 8.628346e+00 6.894884e+00 6.157277e+00 5.477047e+00 5.008209e+00 4.164080e+00 6.452950e+00 4.925680e-01 4.827211e-01 4.475772e-01 5.828690e-01 6.132330e-01 6.853803e-01 8.366226e-01 1.098229e+00 7.674187e-01 6.277355e-01 5.434057e-01 3.921316e-01 3.943434e-01
<GCONST> 1.289006e+02
<MIXTURE> 12 5.910815e-02
<MEAN> 39
 8.417467e+00 -5.360723e+00 -6.967370e+00 -7.137035e+00 -1.876217e-01 -2.941036e+00 -4.948769e+00 -2.005116e+00 2.341623e+00 4.159979e+00 -2.771641e+00 -5.626283e+00 7.177293e+00 2.444032e+00 -3.840202e+00 -2.399640e+00 -4.093049e+00 -1.179576e+00 -1.346846e+00 -1.195590e+00 7.309617e-01 -2.295908e-01 5.848402e-01 -2.352268e+00 -1.375910e+00 4.029685e+00 -9.234308e-01 5.187605e-01 5.170842e-01 1.095503e+00 3.768957e-01 4.184797e-01 2.627477e-01 -2.205995e-01 -6.071692e-01 -8.610546e-01 -1.970485e-01 2.440739e-01 -1.894465e+00
<VARIANCE> 39
 1.078465e+01 1.861940e+01 2.296309e+01 3.160177e+01 1.624552e+01 4.382811e+01 3.161197e+01 3.143771e+01 2.833036e+01 3.195100e+01 3.394304e+01 1.654379e+01 1.454506e+01 3.501205e+00 3.712999e+00 4.406007e+00 5.552171e+00 5.343425e+00 6.731481e+00 7.835582e+00 7.167648e+00 6.807909e+00 5.201086e+00 5.459543e+00 3.939037e+00 5.751702e+00 3.702387e-01 3.934778e-01 3.546707e-01 4.637019e-01 3.458450e-01 5.398956e-01 5.161489e-01 7.389511e-01 6.799059e-01 6.317516e-01 6.303456e-01 3.762948e-01 2.943887e-01
<GCONST> 1.247299e+02
<MIXTURE> 13 5.779275e-02
<MEAN> 39
 -4.437332e-01 -1.807876e+00 -1.591824e+00 -1.233143e-01 -9.862377e-01 -4.419177e+00 -3.340342e+00 -1.201023e+00 2.874618e+00 5.429556e-01 -6.675681e-01 -2.016128e-01 4.181699e+00 1.253463e+00 -3.087217e+00 -1.289770e+00 -3.704639e+00 -3.273186e+00 -1.876993e+00 -1.685194e+00 8.267000e-01 6.101029e-01 1.379694e-01 6.345072e-02 3.286597e-01 4.392934e+00 2.453163e-01 7.029781e-01 2.252739e-01 2.383537e-01 1.356906e-02 4.508659e-01 -1.552792e-01 -5.712166e-01 -9.154677e-01 -5.578020e-01 -2.475244e-01 -3.830667e-01 -1.586799e+00
<VARIANCE> 39
 3.469505e+01 2.177501e+01 2.349529e+01 2.332416e+01 3.045725e+01 3.183294e+01 4.043118e+01 3.230798e+01 2.242202e+01 2.229112e+01 2.023264e+01 1.603968e+01 2.296716e+01 7.878809e+00 6.890327e+00 5.381200e+00 7.080735e+00 6.718051e+00 6.603515e+00 8.953603e+00 8.417600e+00 5.220496e+00 5.501391e+00 3.519640e+00 3.636134e+00 5.035452e+00 4.526384e-01 4.627672e-01 5.093629e-01 6.869331e-01 6.625524e-01 6.058285e-01 8.485529e-01 8.497072e-01 6.493972e-01 6.296090e-01 4.911756e-01 4.525756e-01 3.456808e-01
<GCONST> 1.297524e+02
<MIXTURE> 14 5.765475e-02
<MEAN> 39
 3.626225e+00 -3.925898e+00 7.328281e+00 3.850995e+00 -6.967699e+00 -9.411787e+00 -6.524373e+00 9.953315e-01 -2.252723e+00 -4.727456e+00 4.963175e-01 1.875363e+00 5.099930e+00 1.454068e+00 -3.238910e+00 2.343939e+00 -2.350279e+00 -5.295524e+00 -2.368759e+00 -2.355192e+00 8.846869e-01 -2.179560e+00 -1.106973e+00 1.044162e+00 2.788329e-01 4.022469e+00 -3.991736e-01 8.705776e-01 -1.215875e-01 1.427659e-02 4.729772e-01 9.783852e-01 2.893207e-01 -6.789960e-01 -6.329836e-01 1.846989e-01 -1.299016e-01 -6.139523e-01 -1.700768e+00
<VARIANCE> 39
 1.301058e+01 1.776674e+01 1.910077e+01 2.194647e+01 2.266154e+01 1.701552e+01 2.975866e+01 1.969094e+01 2.327521e+01 2.236177e+01 1.559383e+01 1.353575e+01 1.629758e+01 2.865925e+00 3.588551e+00 4.137341e+00 4.911577e+00 4.228521e+00 5.641665e+00 6.094919e+00 6.137214e+00 5.957751e+00 5.862184e+00 3.997231e+00 2.805432e+00 4.202457e+00 3.381862e-01 3.414055e-01 2.909292e-01 3.953555e-01 5.050675e-01 3.965082e-01 6.532531e-01 4.458838e-01 5.479444e-01 3.968784e-01 4.076222e-01 3.408652e-01 2.919268e-01
<GCONST> 1.175331e+02
<MIXTURE> 15 4.888510e-02
<MEAN> 39
 9.438484e+00 -2.916656e+00 -9.964940e+00 -6.594058e+00 1.472946e+00 -1.364245e+00 -7.323123e+00 -4.820030e+00 7.738154e-01 2.291992e+00 1.811068e+00 -1.234901e+00 5.234179e+00 2.252427e+00 -3.198730e+00 -3.429437e+00 -2.741551e+00 -1.028330e+00 -1.244855e+00 -2.566467e+00 7.314680e-01 1.430900e+00 4.291545e-01 -2.557038e-01 -6.715601e-01 3.124160e+00 -5.683713e-01 5.575900e-01 6.887498e-01 1.017879e+00 1.160819e-01 1.559382e-01 2.030945e-01 -8.372518e-02 -6.477196e-01 -9.758848e-01 -7.294793e-01 -3.591047e-01 -1.526458e+00
<VARIANCE> 39
 1.318366e+01 1.957045e+01 2.981108e+01 4.354987e+01 2.352727e+01 2.570051e+01 5.342732e+01 4.003796e+01 3.926612e+01 5.034455e+01 4.261333e+01 3.814218e+01 1.898294e+01 3.418745e+00 3.363287e+00 5.442329e+00 5.372619e+00 5.148231e+00 5.042081e+00 1.254000e+01 7.292161e+00 7.174421e+00 6.175778e+00 6.800840e+00 4.826976e+00 3.468225e+00 3.369699e-01 2.924126e-01 3.463288e-01 5.401778e-01 4.452138e-01 4.405360e-01 6.986381e-01 7.510331e-01 7.616271e-01 6.746654e-01 5.764912e-01 5.148121e-01 3.383738e-01
<GCONST> 1.292824e+02
<MIXTURE> 16 4.720676e-02
<MEAN> 39
 1.002354e+01 -5.367995e+00 -7.082664e+00 -1.351602e+01 -5.883364e+00 8.799969e+00 -4.733180e-01 -6.469471e+00 -3.979213e-01 4.094370e+00 6.317482e+00 -5.976923e+00 8.396026e+00 1.654300e+00 -3.308540e+00 -1.938797e+00 -3.682759e+00 -1.637542e+00 1.768451e+00 -4.737275e-01 -4.020974e-01 5.788091e-01 1.112423e-01 1.936468e-01 -2.973701e+00 2.946528e+00 -1.147877e+00 6.543817e-01 4.862481e-01 1.565809e+00 1.089317e+00 -5.468430e-01 1.206043e-01 4.928353e-02 -2.528018e-01 -7.347121e-01 -1.193602e+00 4.256813e-02 -1.881369e+00
<VARIANCE> 39
 7.696638e+00 1.630548e+01 1.422012e+01 2.627343e+01 2.126807e+01 2.315906e+01 4.192136e+01 3.061520e+01 3.106327e+01 2.533633e+01 2.800126e+01 2.564792e+01 1.226407e+01 2.552321e+00 2.710942e+00 2.828314e+00 5.154280e+00 3.628454e+00 3.585584e+00 5.596214e+00 5.394265e+00 4.061943e+00 4.350417e+00 4.302286e+00 2.921523e+00 4.111876e+00 3.114004e-01 3.508465e-01 3.086803e-01 4.080456e-01 2.957337e-01 5.042590e-01 4.329934e-01 6.135366e-01 5.447028e-01 4.421911e-01 5.250213e-01 5.256313e-01 2.607037e-01
<GCONST> 1.173755e+02
<MIXTURE> 17 4.347479e-02
<MEAN> 39
 1.331135e+00 -2.041851e+00 1.139484e+01 1.334439e+00 -9.164214e+00 -8.124546e+00 -2.044573e+00 -1.236613e+00 -8.153848e+00 -2.240260e+00 2.475325e+00 -1.339058e+00 3.971404e+00 9.322948e-01 -1.901151e+00 3.286259e+00 -4.366137e+00 -4.759353e+00 -1.537685e+00 -1.391676e+00 -1.687070e+00 -3.636312e+00 1.111677e+00 -6.945669e-01 -3.468218e-01 3.631324e+00 -3.050739e-01 8.265435e-01 -4.845868e-01 -1.113944e-01 6.752782e-01 8.172928e-01 -4.051726e-01 -8.613135e-01 1.971469e-01 1.171643e-01 -6.930804e-01 -3.935405e-01 -1.733557e+00
<VARIANCE> 39
 1.375037e+01 1.780322e+01 2.892484e+01 3.578164e+01 2.465857e+01 3.287463e+01 2.691008e+01 3.478585e+01 3.348730e+01 2.947208e+01 2.301884e+01 2.092937e+01 1.761149e+01 3.585612e+00 3.725527e+00 3.784784e+00 4.448455e+00 3.418750e+00 6.896205e+00 6.060865e+00 8.623786e+00 5.150212e+00 5.964838e+00 4.770094e+00 3.456539e+00 4.990138e+00 4.012197e-01 4.307540e-01 3.751175e-01 6.368987e-01 5.056845e-01 7.686225e-01 6.886956e-01 7.037724e-01 6.421035e-01 5.948823e-01 5.274909e-01 4.969317e-01 4.122765e-01
<GCONST> 1.259235e+02
<TRANSP> 5
 0.000000e+00 1.000000e+00 0.000000e+00 0.000000e+00 0.000000e+00
 0.000000e+00 4.501967e-01 5.498033e-01 0.000000e+00 0.000000e+00
 0.000000e+00 0.000000e+00 2.671830e-01 7.328170e-01 0.000000e+00
 0.000000e+00 0.000000e+00 0.000000e+00 2.890979e-01 7.109021e-01
 0.000000e+00 0.000000e+00 0.000000e+00 0.000000e+00 0.000000e+00
<ENDHMM>
~h "d"
<BEGINHMM>
<NUMSTATES> 5
<STATE> 2
<NUMMIXES> 17
<MIXTURE> 1 3.482176e-02
<MEAN> 39
 -3.624317e+00 1.198271e+01 7.041633e+00 1.445777e+01 8.611538e+00 5.791453e+00 7.290941e-01 -3.158464e+00 -1.985325e-01 -3.460980e+00 -1.542037e+00 -2.944864e+00 -1.987995e+01 -1.974051e+00 -3.141583e+00 -1.445086e+00 -2.133758e+00 8.119748e-01 1.698940e+00 2.314739e+00 2.509788e+00 2.307122e+00 2.348434e+00 2.437815e+00 1.696561e+00 3.823032e+00 6.086987e-01 -8.714484e-01 2.987844e-02 -1.300628e+00 -1.263204e+00 -8.902901e-01 3.882651e-02 4.221391e-01 2.819481e-01 4.768566e-01 4.272685e-01 6.716657e-01 2.839987e+00
<VARIANCE> 39
 1.093091e+01 1.099706e+01 1.231802e+01 1.180807e+01 1.323605e+01 2.046760e+01 2.471423e+01 2.097678e+01 2.009274e+01 2.048316e+01 1.963478e+01 1.577165e+01 7.693696e+00 1.304380e+00 3.336277e+00 1.844029e+00 3.999030e+00 2.623934e+00 3.027165e+00 3.443259e+00 3.434536e+00 2.593400e+00 2.898057e+00 2.845687e+00 2.412827e+00 9.153723e+00 4.741021e-01 5.765790e-01 4.549033e-01 5.119113e-01 6.914050e-01 6.997808e-01 7.006202e-01 5.631264e-01 5.836388e-01 5.186313e-01 4.764539e-01 4.146008e-01 7.101175e-01
<GCONST> 1.136942e+02
<MIXTURE> 2 9.565805e-02
<MEAN> 39
 -5.098865e+00 -1.306684e+00 4.594780e+00 3.509195e+00 6.486261e+00 6.296672e+00 3.793996e+00 1.419325e+00 2.716027e+00 9.038087e-01 2.562687e+00 9.958428e-01 -2.708094e+00 -1.276661e+00 -2.640643e+00 -7.704679e-01 -2.839940e+00 -3.902946e-01 5.940312e-02 1.257934e+00 2.067976e+00 1.746444e+00 1.737730e+00 1.931242e+00 1.577693e+00 6.319345e+00 1.293319e+00 7.591215e-01 5.030485e-01 2.099758e-01 -9.753504e-01 -9.464751e-01 -4.029657e-01 8.475035e-03 -1.354754e-01 4.567540e-02 -2.859234e-01 1.841944e-01 5.946299e-01
<VARIANCE> 39
 2.283307e+01 3.387241e+01 4.255030e+01 5.234178e+01 4.155431e+01 4.341727e+01 3.662321e+01 2.775056e+01 3.299381e+01 2.654031e+01 2.959448e+01 2.169554e+01 4.681752e+01 3.618658e+00 3.802006e+00 3.759819e+00 4.916329e+00 4.558667e+00 4.495944e+00 4.520273e+00 4.132483e+00 3.739586e+00 3.568169e+00 3.126647e+00 2.518714e+00 6.064175e+00 7.422271e-01 7.367671e-01 9.448684e-01 9.944173e-01 1.314665e+00 1.121745e+00 1.069905e+00 9.545245e-01 9.564058e-01 7.888104e-01 7.916405e-01 6.967864e-01 6.647683e-01
<GCONST> 1.339462e+02
<MIXTURE> 3 5.420255e-02
<MEAN> 39
 9.736893e-01 5.238608e+00 7.617357e+00 7.475090e+00 3.269009e+00 2.664185e+00 8.160958e-01 -3.785686e+00 -2.604887e+00 -2.997066e+00 -2.719864e+00 -5.947953e-01 -6.090691e+00 -1.071687e+00 -2.546633e+00 4.931012e-01 -2.037451e+00 -8.487016e-03 3.444087e-01 2.505016e-02 2.186243e+00 1.900714e+00 9.041742e-01 2.008851e+00 1.677051e+00 4.608835e+00 6.289234e-01 -2.435227e-01 -1.566760e-02 -2.999441e-01 -5.622526e-01 -3.822902e-01 -9.629214e-02 7.051665e-01 5.415198e-01 5.878284e-01 4.443455e-01 2.526263e-01 1.161043e+00
<VARIANCE> 39
 2.156575e+01 5.006063e+01 3.791024e+01 4.225676e+01 4.599131e+01 4.749637e+01 4.273624e+01 4.158889e+01 3.534792e+01 2.657722e+01 2.807344e+01 2.095958e+01 3.874542e+01 3.191692e+00 3.611820e+00 3.750769e+00 5.044981e+00 6.185860e+00 4.971760e+00 6.113292e+00 6.584685e+00 5.995345e+00 4.742901e+00 4.627311e+00 3.260322e+00 4.223906e+00 5.859493e-01 7.244957e-01 6.627441e-01 8.397357e-01 1.172995e+00 1.179645e+00 1.348168e+00 1.182000e+00 1.096931e+00 7.294894e-01 7.261947e-01 5.547631e-01 4.811681e-01
<GCONST> 1.355852e+02
<MIXTURE> 4 6.783877e-02
<MEAN> 39
 -4.949052e+00 1.022951e+01 5.461112e+00 1.214179e+01 8.563061e+00 5.193031e+00 3.205035e+00 -3.747323e+00 -7.384492e-01 -1.895950e+00 -4.375075e+00 -1.429355e+00 -1.965411e+01 -1.271341e+00 -4.940539e+00 -1.339668e+00 -4.206749e+00 -1.926419e+00 3.119960e-01 3.512963e-01 1.295762e+00 1.540188e+00 1.140717e+00 2.099101e+00 1.709632e+00 6.594729e+00 9.256794e-01 -6.268445e-01 -2.281153e-02 -7.238514e-01 -1.233012e+00 -1.285810e+00 -9.324898e-01 3.656891e-01 2.468273e-01 1.261522e-01 1.497370e-01 1.885905e-02 2.143083e+00
<VARIANCE> 39
 1.737548e+01 1.735999e+01 1.802508e+01 1.440657e+01 1.954792e+01 2.496207e+01 2.173278e+01 2.514320e+01 2.110808e+01 1.920493e+01 2.553663e+01 1.291021e+01 1.614796e+01 1.525969e+00 2.679818e+00 2.512380e+00 2.844071e+00 3.118275e+00 4.097152e+00 3.677467e+00 3.165156e+00 3.324276e+00 2.691051e+00 2.339559e+00 2.228353e+00 2.562430e+00 3.772132e-01 4.019872e-01 4.205534e-01 4.111769e-01 4.037605e-01 5.895471e-01 5.174257e-01 6.707716e-01 5.494975e-01 4.063666e-01 5.004516e-01 3.788389e-01 3.850333e-01
<GCONST> 1.129332e+02
<MIXTURE> 5 8.579515e-02
<MEAN> 39
 -1.050236e+01 6.742061e+00 1.258382e+00 9.858344e+00 8.656374e+00 7.798073e+00 5.996055e+00 2.152519e+00 4.745954e+00 4.112388e+00 3.838786e+00 2.944966e+00 -2.146513e+01 6.080250e-01 -1.976666e+00 4.212614e-01 -2.998993e+00 -5.887367e-01 -7.741967e-01 -1.468844e-01 6.893800e-01 4.153718e-01 2.290272e-01 7.211083e-01 8.233948e-01 7.617701e+00 1.043224e+00 5.475568e-02 3.744299e-01 -5.716924e-01 -7.479334e-01 -9.183334e-01 -6.763095e-01 -4.739036e-02 -1.223722e-01 -1.968978e-01 -2.964973e-01 -1.067504e-01 2.363627e+00
<VARIANCE> 39
 8.431240e+00 1.191097e+01 1.334299e+01 2.097921e+01 1.536618e+01 1.913872e+01 2.283719e+01 2.415274e+01 2.656657e+01 1.893662e+01 2.155126e+01 1.501524e+01 1.407084e+01 1.592620e+00 2.493582e+00 3.108763e+00 2.582311e+00 2.642045e+00 3.180967e+00 3.722543e+00 2.995692e+00 2.789418e+00 2.959078e+00 2.725065e+00 2.311751e+00 4.527983e+00 3.898953e-01 3.312339e-01 3.344642e-01 4.476217e-01 4.095502e-01 4.638402e-01 5.291999e-01 5.664454e-01 6.133332e-01 4.816751e-01 4.168177e-01 3.915526e-01 5.348870e-01
<GCONST> 1.115567e+02
<MIXTURE> 6 5.496750e-02
<MEAN> 39
 -4.730712e-01 3.794860e+00 7.068542e+00 5.202351e+00 3.964568e+00 2.048704e+00 9.782692e-01 -3.547210e+00 -1.574230e+00 -2.234678e+00 -2.096577e+00 7.397091e-02 -2.781332e+00 -5.099955e-01 -1.752199e+00 5.093452e-01 -1.912443e+00 -2.571127e-01 -3.241959e-02 -4.185341e-01 1.721666e+00 1.731153e+00 6.442250e-01 1.184334e+00 1.120520e+00 4.157231e+00 9.383101e-01 -2.403967e-01 1.057784e-01 -2.933231e-01 -7.810776e-01 -2.414831e-01 -1.892757e-01 6.726635e-01 3.840256e-01 5.773503e-01 4.786062e-01 2.546651e-01 1.004927e+00
<VARIANCE> 39
 2.662110e+01 4.583617e+01 4.018219e+01 4.728468e+01 4.822271e+01 4.179862e+01 4.553039e+01 3.813076e+01 4.254976e+01 2.783452e+01 2.849766e+01 2.282725e+01 4.276329e+01 2.598419e+00 4.065190e+00 3.289581e+00 4.335069e+00 4.023288e+00 4.634266e+00 4.852342e+00 6.918496e+00 6.648379e+00 3.793617e+00 3.777188e+00 3.135595e+00 4.267668e+00 7.008525e-01 7.447664e-01 9.314648e-01 1.113433e+00 1.354691e+00 1.114925e+00 1.401771e+00 1.158026e+00 1.250540e+00 9.479601e-01 9.248680e-01 7.340281e-01 5.018550e-01
<GCONST> 1.366933e+02
<MIXTURE> 7 4.945003e-02
<MEAN> 39
 -8.631903e+00 4.068990e+00 2.399516e+00 6.408529e+00 8.681421e+00 6.711175e+00 5.022676e+00 2.549288e+00 4.612027e+00 3.312732e+00 4.238009e+00 2.531322e+00 -1.280015e+01 8.126669e-01 -1.181536e+00 -2.443070e-01 -2.870442e+00 -1.103157e+00 -1.921931e+00 -3.545161e-01 -1.484429e-01 -4.056076e-01 -2.527820e-01 4.540130e-02 3.511420e-01 7.838605e+00 7.646957e-01 4.693173e-01 3.825852e-01 -9.594752e-02 -6.452222e-01 -7.720650e-01 -3.950118e-01 -7.677336e-02 -9.557395e-02 -1.345754e-01 -2.858117e-01 9.181499e-03 1.471997e+00
<VARIANCE> 39
 2.611727e+01 2.785888e+01 2.861691e+01 4.102119e+01 2.373882e+01 2.597936e+01 2.152686e+01 2.224154e+01 2.554792e+01 1.665568e+01 2.176723e+01 1.390087e+01 6.035563e+01 1.988572e+00 2.664052e+00 3.340008e+00 2.866853e+00 2.850863e+00 2.845141e+00 2.704540e+00 2.766100e+00 2.100582e+00 2.173537e+00 2.022145e+00 1.683588e+00 4.525160e+00 7.224967e-01 6.240190e-01 5.986614e-01 6.431180e-01 6.795875e-01 5.399660e-01 5.065912e-01 5.287424e-01 5.786253e-01 4.351823e-01 4.215700e-01 3.613398e-01 1.054558e+00
<GCONST> 1.188034e+02
<MIXTURE> 8 5.195575e-02
<MEAN> 39
 -1.250856e+00 1.437710e+01 8.495020e+00 1.474080e+01 8.644131e+00 3.884272e+00 7.536378e-01 -5.688495e+00 -2.561908e+00 -3.588912e+00 -4.115777e+00 -2.057556e+00 -1.916593e+01 -1.829390e+00 -4.101872e+00 -1.340510e+00 -3.465006e+00 1.073553e-01 1.597090e+00 1.444880e+00 1.725843e+00 1.527459e+00 1.607738e+00 1.910717e+00 1.435848e+00 5.289943e+00 5.797760e-01 -1.265812e+00 -1.280091e-01 -1.164304e+00 -1.321884e+00 -9.828540e-01 -2.067232e-01 8.857963e-01 6.713098e-01 5.211751e-01 5.205412e-01 5.792381e-01 2.809617e+00
<VARIANCE> 39
 8.694158e+00 8.719679e+00 1.227109e+01 1.306726e+01 1.714700e+01 1.956961e+01 2.455059e+01 1.969044e+01 1.769839e+01 1.973167e+01 1.775675e+01 1.453342e+01 6.501462e+00 1.351657e+00 2.229766e+00 2.408223e+00 3.014997e+00 3.062803e+00 4.046145e+00 3.200289e+00 3.248284e+00 3.059170e+00 2.645206e+00 2.394129e+00 2.196497e+00 3.754970e+00 3.500307e-01 5.705287e-01 4.581780e-01 5.242010e-01 4.913756e-01 5.149204e-01 6.690851e-01 5.203322e-01 6.134072e-01 4.418572e-01 4.360919e-01 4.137985e-01 3.572624e-01
<GCONST> 1.098646e+02
<MIXTURE> 9 3.922444e-02
<MEAN> 39
 1.311988e+00 1.320171e+01 8.826435e+00 1.350870e+01 6.591424e+00 1.018345e+00 1.169050e-01 -3.475116e+00 -5.724443e-01 -1.251473e+00 -4.740050e+00 -1.885726e+00 -1.608953e+01 -1.211415e+00 -3.750735e+00 -5.242525e-01 -3.464375e+00 -6.668869e-01 1.005936e+00 7.058654e-01 1.282923e+00 6.875221e-01 7.120492e-01 1.727004e+00 1.552332e+00 5.772764e+00 3.492528e-01 -9.343784e-01 -1.445702e-01 -8.238065e-01 -7.965610e-01 -3.900923e-01 -3.495106e-01 5.497945e-01 4.171889e-01 2.874740e-01 5.810614e-01 3.598078e-01 2.086486e+00
<VARIANCE> 39
 1.393169e+01 1.709494e+01 1.617711e+01 1.627396e+01 2.375796e+01 3.300082e+01 2.586590e+01 2.635586e+01 1.890109e+01 2.080124e+01 2.162393e+01 1.940852e+01 9.832948e+00 1.679931e+00 2.429930e+00 2.839490e+00 3.015126e+00 3.304473e+00 5.302087e+00 4.008614e+00 3.997562e+00 3.727788e+00 2.518661e+00 3.022935e+00 2.155183e+00 2.327035e+00 4.105752e-01 4.323491e-01 4.949077e-01 3.605688e-01 4.811228e-01 6.582716e-01 5.935244e-01 6.265521e-01 5.152015e-01 4.436772e-01 4.498212e-01 3.850617e-01 3.085284e-01
<GCONST> 1.143653e+02
<MIXTURE> 10 9.565805e-02
<MEAN> 39
 -7.010223e+00 -3.634684e+00 1.985556e+00 6.152905e-01 3.907755e+00 3.661000e+00 1.373312e+00 -6.878265e-01 4.184172e-01 -1.156883e+00 3.866549e-01 -8.672962e-01 -5.445027e+00 -2.037571e+00 -3.420593e+00 -1.546078e+00 -3.726852e+00 -1.244336e+00 -7.887425e-01 4.074964e-01 1.254836e+00 9.729238e-01 9.821460e-01 1.223949e+00 9.428748e-01 5.334323e+00 9.487088e-01 4.157809e-01 1.142311e-01 -1.889061e-01 -1.433986e+00 -1.370125e+00 -8.167106e-01 -3.823240e-01 -5.266594e-01 -3.095846e-01 -6.418202e-01 -1.497006e-01 2.684966e-01
<VARIANCE> 39
 2.283307e+01 3.387241e+01 4.255030e+01 5.234178e+01 4.155431e+01 4.341727e+01 3.662321e+01 2.775056e+01 3.299381e+01 2.654031e+01 2.959448e+01 2.169554e+01 4.681752e+01 3.618658e+00 3.802006e+00 3.759819e+00 4.916329e+00 4.558667e+00 4.495944e+00 4.520273e+00 4.132483e+00 3.739586e+00 3.568169e+00 3.126647e+00 2.518714e+00 6.064175e+00 7.422271e-01 7.367671e-01 9.448684e-01 9.944173e-01 1.314665e+00 1.121745e+00 1.069905e+00 9.545245e-01 9.564058e-01 7.888104e-01 7.916405e-01 6.967864e-01 6.647683e-01
<GCONST> 1.339462e+02
<MIXTURE> 11 8.579515e-02
<MEAN> 39
 -1.166382e+01 5.361569e+00 -2.027403e-01 8.026221e+00 7.088386e+00 6.048160e+00 4.084523e+00 1.867012e-01 2.684242e+00 2.371738e+00 1.981852e+00 1.394986e+00 -2.296557e+01 1.032288e-01 -2.608310e+00 -2.840059e-01 -3.641775e+00 -1.238911e+00 -1.487607e+00 -9.186401e-01 -2.942652e-03 -2.526902e-01 -4.590516e-01 6.079745e-02 2.152170e-01 6.766539e+00 7.934581e-01 -1.754560e-01 1.430983e-01 -8.393106e-01 -1.003918e+00 -1.190757e+00 -9.672940e-01 -3.484406e-01 -4.356346e-01 -4.745090e-01 -5.547429e-01 -3.570470e-01 2.071083e+00
<VARIANCE> 39
 8.431240e+00 1.191097e+01 1.334299e+01 2.097921e+01 1.536618e+01 1.913872e+01 2.283719e+01 2.415274e+01 2.656657e+01 1.893662e+01 2.155126e+01 1.501524e+01 1.407084e+01 1.592620e+00 2.493582e+00 3.108763e+00 2.582311e+00 2.642045e+00 3.180967e+00 3.722543e+00 2.995692e+00 2.789418e+00 2.959078e+00 2.725065e+00 2.311751e+00 4.527983e+00 3.898953e-01 3.312339e-01 3.344642e-01 4.476217e-01 4.095502e-01 4.638402e-01 5.291999e-01 5.664454e-01 6.133332e-01 4.816751e-01 4.168177e-01 3.915526e-01 5.348870e-01
<GCONST> 1.115567e+02
<MIXTURE> 12 5.496750e-02
<MEAN> 39
 -2.536897e+00 1.086764e+00 4.532966e+00 2.451797e+00 1.186864e+00 -5.373703e-01 -1.720779e+00 -6.017214e+00 -4.183437e+00 -4.345016e+00 -4.231905e+00 -1.837144e+00 -5.397078e+00 -1.154780e+00 -2.558692e+00 -2.161430e-01 -2.745277e+00 -1.059438e+00 -8.935134e-01 -1.299655e+00 6.695443e-01 6.997750e-01 -1.348634e-01 4.069346e-01 4.122154e-01 3.330897e+00 6.034424e-01 -5.855961e-01 -2.802713e-01 -7.154005e-01 -1.246642e+00 -6.638431e-01 -6.628613e-01 2.422170e-01 -6.328459e-02 1.878973e-01 9.392597e-02 -8.803670e-02 7.215599e-01
<VARIANCE> 39
 2.662110e+01 4.583617e+01 4.018219e+01 4.728468e+01 4.822271e+01 4.179862e+01 4.553039e+01 3.813076e+01 4.254976e+01 2.783452e+01 2.849766e+01 2.282725e+01 4.276329e+01 2.598419e+00 4.065190e+00 3.289581e+00 4.335069e+00 4.023288e+00 4.634266e+00 4.852342e+00 6.918496e+00 6.648379e+00 3.793617e+00 3.777188e+00 3.135595e+00 4.267668e+00 7.008525e-01 7.447664e-01 9.314648e-01 1.113433e+00 1.354691e+00 1.114925e+00 1.401771e+00 1.158026e+00 1.250540e+00 9.479601e-01 9.248680e-01 7.340281e-01 5.018550e-01
<GCONST> 1.366933e+02
<MIXTURE> 13 5.420255e-02
<MEAN> 39
 -8.838682e-01 2.408466e+00 5.154505e+00 4.874882e+00 5.563331e-01 -9.251916e-02 -1.798823e+00 -6.365264e+00 -4.983051e+00 -5.059190e+00 -4.839240e+00 -2.426061e+00 -8.580523e+00 -1.786299e+00 -3.306825e+00 -2.815748e-01 -2.935893e+00 -1.003343e+00 -5.474890e-01 -9.639528e-01 1.159817e+00 9.212981e-01 3.304616e-02 1.148403e+00 9.547968e-01 3.786749e+00 3.227341e-01 -5.839919e-01 -3.413040e-01 -6.664925e-01 -9.954722e-01 -8.167360e-01 -5.607347e-01 2.702872e-01 1.225819e-01 2.461878e-01 1.034773e-01 -4.530334e-02 8.835775e-01
<VARIANCE> 39
 2.156575e+01 5.006063e+01 3.791024e+01 4.225676e+01 4.599131e+01 4.749637e+01 4.273624e+01 4.158889e+01 3.534792e+01 2.657722e+01 2.807344e+01 2.095958e+01 3.874542e+01 3.191692e+00 3.611820e+00 3.750769e+00 5.044981e+00 6.185860e+00 4.971760e+00 6.113292e+00 6.584685e+00 5.995345e+00 4.742901e+00 4.627311e+00 3.260322e+00 4.223906e+00 5.859493e-01 7.244957e-01 6.627441e-01 8.397357e-01 1.172995e+00 1.179645e+00 1.348168e+00 1.182000e+00 1.096931e+00 7.294894e-01 7.261947e-01 5.547631e-01 4.811681e-01
<GCONST> 1.355852e+02
<MIXTURE> 14 5.195575e-02
<MEAN> 39
 -2.430290e+00 1.319594e+01 7.093816e+00 1.329486e+01 6.987773e+00 2.114770e+00 -1.228304e+00 -7.463451e+00 -4.244686e+00 -5.365726e+00 -5.801327e+00 -3.582465e+00 -2.018585e+01 -2.294433e+00 -4.699168e+00 -1.961248e+00 -4.159556e+00 -5.926793e-01 7.924885e-01 7.293060e-01 1.004923e+00 8.278394e-01 9.571742e-01 1.291799e+00 8.430244e-01 4.514833e+00 3.431225e-01 -1.567946e+00 -3.987645e-01 -1.453910e+00 -1.602276e+00 -1.269886e+00 -5.339137e-01 5.972601e-01 3.580285e-01 2.552858e-01 2.563922e-01 3.219295e-01 2.570531e+00
<VARIANCE> 39
 8.694158e+00 8.719679e+00 1.227109e+01 1.306726e+01 1.714700e+01 1.956961e+01 2.455059e+01 1.969044e+01 1.769839e+01 1.973167e+01 1.775675e+01 1.453342e+01 6.501462e+00 1.351657e+00 2.229766e+00 2.408223e+00 3.014997e+00 3.062803e+00 4.046145e+00 3.200289e+00 3.248284e+00 3.059170e+00 2.645206e+00 2.394129e+00 2.196497e+00 3.754970e+00 3.500307e-01 5.705287e-01 4.581780e-01 5.242010e-01 4.913756e-01 5.149204e-01 6.690851e-01 5.203322e-01 6.134072e-01 4.418572e-01 4.360919e-01 4.137985e-01 3.572624e-01
<GCONST> 1.098646e+02
<MIXTURE> 15 4.945003e-02
<MEAN> 39
 -1.067611e+01 1.957730e+00 2.597245e-01 3.846617e+00 6.732521e+00 4.672377e+00 3.166794e+00 6.628502e-01 2.590229e+00 1.680277e+00 2.371795e+00 1.039968e+00 -1.590771e+01 2.485999e-01 -1.834414e+00 -9.753345e-01 -3.547714e+00 -1.778537e+00 -2.596633e+00 -1.012336e+00 -8.137068e-01 -9.853430e-01 -8.424988e-01 -5.234073e-01 -1.678706e-01 6.987709e+00 4.246965e-01 1.533377e-01 7.309237e-02 -4.167261e-01 -9.749706e-01 -1.065995e+00 -6.797127e-01 -3.676320e-01 -3.998436e-01 -3.984488e-01 -5.455253e-01 -2.312647e-01 1.061231e+00
<VARIANCE> 39
 2.611727e+01 2.785888e+01 2.861691e+01 4.102119e+01 2.373882e+01 2.597936e+01 2.152686e+01 2.224154e+01 2.554792e+01 1.665568e+01 2.176723e+01 1.390087e+01 6.035563e+01 1.988572e+00 2.664052e+00 3.340008e+00 2.866853e+00 2.850863e+00 2.845141e+00 2.704540e+00 2.766100e+00 2.100582e+00 2.173537e+00 2.022145e+00 1.683588e+00 4.525160e+00 7.224967e-01 6.240190e-01 5.986614e-01 6.431180e-01 6.795875e-01 5.399660e-01 5.065912e-01 5.287424e-01 5.786253e-01 4.351823e-01 4.215700e-01 3.613398e-01 1.054558e+00
<GCONST> 1.188034e+02
<MIXTURE> 16 3.922444e-02
<MEAN> 39
 -1.810196e-01 1.154787e+01 7.217604e+00 1.189506e+01 4.641738e+00 -1.279509e+00 -1.917436e+00 -5.528634e+00 -2.311460e+00 -3.075809e+00 -6.600112e+00 -3.647930e+00 -1.734383e+01 -1.729863e+00 -4.374265e+00 -1.198284e+00 -4.158940e+00 -1.394015e+00 8.488560e-02 -9.499556e-02 4.831664e-01 -8.477721e-02 7.723770e-02 1.031540e+00 9.651102e-01 5.162580e+00 9.294821e-02 -1.197392e+00 -4.259689e-01 -1.063996e+00 -1.074013e+00 -7.146280e-01 -6.576728e-01 2.331743e-01 1.300787e-01 2.103761e-02 3.127865e-01 1.115944e-01 1.864304e+00
<VARIANCE> 39
 1.393169e+01 1.709494e+01 1.617711e+01 1.627396e+01 2.375796e+01 3.300082e+01 2.586590e+01 2.635586e+01 1.890109e+01 2.080124e+01 2.162393e+01 1.940852e+01 9.832948e+00 1.679931e+00 2.429930e+00 2.839490e+00 3.015126e+00 3.304473e+00 5.302087e+00 4.008614e+00 3.997562e+00 3.727788e+00 2.518661e+00 3.022935e+00 2.155183e+00 2.327035e+00 4.105752e-01 4.323491e-01 4.949077e-01 3.605688e-01 4.811228e-01 6.582716e-01 5.935244e-01 6.265521e-01 5.152015e-01 4.436772e-01 4.498212e-01 3.850617e-01 3.085284e-01
<GCONST> 1.143653e+02
<MIXTURE> 17 3.482176e-02
<MEAN> 39
 -4.946795e+00 1.065623e+01 5.637752e+00 1.308325e+01 7.156282e+00 3.981807e+00 -1.259442e+00 -4.990480e+00 -1.991529e+00 -5.271314e+00 -3.314483e+00 -4.533406e+00 -2.098945e+01 -2.430889e+00 -3.872202e+00 -1.988266e+00 -2.933661e+00 1.640323e-01 1.002990e+00 1.572499e+00 1.768488e+00 1.662960e+00 1.667486e+00 1.763049e+00 1.075229e+00 2.612828e+00 3.332784e-01 -1.175180e+00 -2.399077e-01 -1.586820e+00 -1.595806e+00 -1.224902e+00 -2.959857e-01 1.219721e-01 -2.363691e-02 1.887924e-01 1.511659e-01 4.141077e-01 2.502913e+00
<VARIANCE> 39
 1.093091e+01 1.099706e+01 1.231802e+01 1.180807e+01 1.323605e+01 2.046760e+01 2.471423e+01 2.097678e+01 2.009274e+01 2.048316e+01 1.963478e+01 1.577165e+01 7.693696e+00 1.304380e+00 3.336277e+00 1.844029e+00 3.999030e+00 2.623934e+00 3.027165e+00 3.443259e+00 3.434536e+00 2.593400e+00 2.898057e+00 2.845687e+00 2.412827e+00 9.153723e+00 4.741021e-01 5.765790e-01 4.549033e-01 5.119113e-01 6.914050e-01 6.997808e-01 7.006202e-01 5.631264e-01 5.836388e-01 5.186313e-01 4.764539e-01 4.146008e-01 7.101175e-01
<GCONST> 1.136942e+02
<STATE> 3
<NUMMIXES> 17
<MIXTURE> 1 4.578007e-02
<MEAN> 39
 -6.350737e+00 -2.063327e+00 1.974375e+00 -1.699158e+00 4.023536e+00 3.137897e+00 3.242244e+00 3.365947e+00 3.542564e+00 2.587810e+00 5.132331e+00 3.148736e+00 3.752872e+00 -1.131498e+00 -1.183050e+00 -5.542983e-01 -1.756273e+00 -3.164673e-01 -3.684774e-01 1.636622e+00 2.182321e+00 1.806060e+00 1.537406e+00 1.577735e+00 1.602519e+00 4.544375e+00 1.195773e+00 1.328508e+00 6.359491e-01 1.226362e+00 -2.483251e-01 -3.934955e-01 -1.294300e-01 -4.880968e-01 -3.282889e-01 -2.979295e-01 -6.912109e-01 -7.252689e-02 -9.510747e-01
<VARIANCE> 39
 2.423396e+01 3.190657e+01 3.253326e+01 4.303571e+01 3.826978e+01 3.215042e+01 3.762876e+01 3.251374e+01 3.311298e+01 2.809481e+01 2.880547e+01 2.243020e+01 2.183081e+01 5.582902e+00 3.940905e+00 3.763248e+00 5.711393e+00 4.683647e+00 3.958528e+00 3.933228e+00 3.673228e+00 3.296402e+00 2.757814e+00 3.091428e+00 2.679489e+00 5.887084e+00 5.569100e-01 6.242351e-01 7.633452e-01 1.088902e+00 1.116676e+00 9.289426e-01 9.702265e-01 9.226978e-01 9.190773e-01 8.654429e-01 8.022033e-01 6.977972e-01 6.425408e-01
<GCONST> 1.314631e+02
<MIXTURE> 2 8.858370e-02
<MEAN> 39
 -5.651579e+00 -3.310507e+00 4.604316e+00 -9.999493e-01 1.596745e+00 3.607768e+00 3.415086e+00 -9.071076e-02 3.828464e+00 1.688455e+00 1.996395e+00 4.878703e+00 6.810222e+00 2.123994e+00 -3.103823e+00 -5.166585e-01 -3.235224e+00 -2.956420e+00 -2.053717e+00 -1.886713e+00 2.405247e+00 1.921843e+00 1.422116e+00 1.487755e+00 6.466184e-01 7.750988e+00 1.572609e+00 1.070530e+00 1.081084e-02 1.114120e+00 1.875550e-03 -3.171155e-01 -7.076029e-01 3.927937e-01 -3.487079e-02 6.560607e-02 -3.219482e-01 -8.568559e-01 -1.081524e+00
<VARIANCE> 39
 1.261477e+01 2.658226e+01 2.217021e+01 2.737407e+01 3.222884e+01 4.965773e+01 3.396310e+01 3.356599e+01 3.438059e+01 2.832991e+01 2.708216e+01 1.799974e+01 1.524710e+01 2.092771e+00 2.426590e+00 2.589015e+00 2.436323e+00 2.611456e+00 3.370857e+00 4.750399e+00 3.674860e+00 3.587470e+00 2.761929e+00 2.862194e+00 2.640598e+00 2.439967e+00 3.156034e-01 4.679230e-01 6.909744e-01 6.833115e-01 1.077622e+00 1.169486e+00 9.321353e-01 9.732580e-01 9.171032e-01 8.514405e-01 8.264210e-01 5.816283e-01 5.635086e-01
<GCONST> 1.237393e+02
<MIXTURE> 3 5.048985e-02
<MEAN> 39
 -8.470888e+00 3.060823e+00 -7.125626e-01 9.437680e-02 4.302083e+00 1.341158e+00 4.916736e+00 -7.023078e-01 4.341267e+00 1.618353e+00 7.290302e+00 1.936286e+00 7.227373e+00 2.447243e+00 -2.700216e-01 1.172810e+00 -2.512029e+00 -3.015480e+00 -3.340646e+00 -5.373288e-01 5.688376e-01 -4.045955e-01 2.365375e-01 -4.059019e-01 1.232000e+00 6.909898e+00 1.435177e+00 1.990867e-01 1.059452e+00 6.449686e-01 -4.309801e-01 -4.134384e-02 -5.183238e-01 5.397134e-01 -2.664941e-01 8.760934e-02 -9.011639e-01 1.218930e-01 -1.391930e+00
<VARIANCE> 39
 1.498038e+01 2.377776e+01 3.248073e+01 2.699610e+01 2.788736e+01 3.040767e+01 3.497113e+01 3.030872e+01 2.952966e+01 2.866043e+01 2.371751e+01 2.069748e+01 1.683086e+01 2.839752e+00 3.552725e+00 3.418669e+00 3.830465e+00 3.226510e+00 3.013498e+00 3.840016e+00 4.523321e+00 3.333360e+00 3.662222e+00 3.428118e+00 2.543968e+00 5.866386e+00 4.051430e-01 5.837385e-01 9.507633e-01 8.258192e-01 8.698052e-01 8.699616e-01 9.360182e-01 9.222218e-01 7.983236e-01 8.985925e-01 7.564310e-01 6.244505e-01 5.810592e-01
<GCONST> 1.265135e+02
<MIXTURE> 4 6.513690e-02
<MEAN> 39
 4.936156e-01 -1.313204e+00 6.694574e+00 1.790250e+00 -1.301120e+00 -3.504038e-03 -1.282311e+00 -4.552191e-01 2.564918e+00 -1.401893e+00 5.823071e-01 2.917605e+00 4.603590e+00 9.700409e-01 -2.651308e+00 2.569262e-01 -2.672294e+00 -1.665242e+00 -6.769391e-01 -1.310410e+00 2.978442e+00 2.061759e+00 1.351983e+00 1.769854e+00 1.234957e+00 5.301370e+00 9.103998e-01 6.292467e-01 -1.606518e-01 5.004585e-01 3.114666e-02 -1.507550e-03 1.678538e-01 1.893336e-01 -1.260217e-01 4.950144e-01 -1.021196e-01 -3.496755e-01 -4.255386e-01
<VARIANCE> 39
 1.818620e+01 2.495141e+01 2.988471e+01 3.771891e+01 3.711635e+01 6.013769e+01 4.445720e+01 3.890895e+01 4.123394e+01 2.462999e+01 2.573671e+01 2.143170e+01 2.232530e+01 1.954220e+00 3.697870e+00 3.730753e+00 4.721336e+00 5.034564e+00 4.931530e+00 5.841103e+00 5.822376e+00 6.250467e+00 5.203794e+00 4.593886e+00 3.113472e+00 4.932348e+00 2.662352e-01 4.907672e-01 5.431592e-01 8.110265e-01 9.970927e-01 1.209676e+00 1.251363e+00 1.166162e+00 1.134569e+00 6.775483e-01 8.194568e-01 6.169001e-01 3.841123e-01
<GCONST> 1.314623e+02
<MIXTURE> 5 4.469962e-02
<MEAN> 39
 -9.207759e+00 1.286003e+00 2.492523e+00 -4.323095e+00 7.908768e+00 8.800588e-01 4.044630e+00 3.704810e+00 -9.051032e-01 3.295867e+00 4.770303e-02 4.409936e+00 5.821154e+00 3.249860e+00 -4.024297e-01 1.132496e+00 -1.036843e+00 -2.364083e+00 -2.381580e+00 -2.264004e+00 2.137843e-01 1.066432e+00 -1.651693e-01 -1.708160e-01 -9.052625e-02 7.264029e+00 1.317156e+00 2.746952e-01 1.931434e-01 1.226640e+00 -8.200954e-01 4.792673e-01 -5.986227e-01 -2.364439e-01 8.006120e-01 5.897439e-02 3.834423e-01 -4.297115e-01 -1.218587e+00
<VARIANCE> 39
 1.299132e+01 2.098424e+01 2.742716e+01 2.154566e+01 2.438892e+01 3.999667e+01 3.864180e+01 3.118921e+01 2.739239e+01 2.442911e+01 2.449442e+01 2.253304e+01 2.477090e+01 2.962045e+00 2.304819e+00 2.743796e+00 3.388916e+00 3.421621e+00 3.207433e+00 3.745258e+00 3.402027e+00 3.962998e+00 2.368965e+00 2.346142e+00 2.430697e+00 5.200152e+00 3.014124e-01 4.386440e-01 8.197844e-01 6.353483e-01 6.449564e-01 9.564517e-01 9.546589e-01 8.032243e-01 6.924841e-01 6.514434e-01 6.464601e-01 5.987268e-01 7.614797e-01
<GCONST> 1.229517e+02
<MIXTURE> 6 5.724175e-02
<MEAN> 39
 -2.312935e+00 1.565473e+00 8.109129e+00 4.371207e-01 1.552767e+00 3.623560e+00 -5.267036e-02 -2.760715e+00 -1.132058e-01 -1.640321e+00 -5.996045e-01 1.266322e+00 2.394225e+00 4.240325e-01 -1.460199e+00 1.074173e+00 -1.810662e+00 -1.636065e+00 -5.339290e-01 -4.370244e-01 9.791954e-01 5.534735e-01 8.275385e-01 1.281752e+00 1.198326e+00 4.631495e+00 1.093503e+00 4.223005e-01 1.793867e-01 7.458368e-01 -4.730202e-01 -5.027437e-01 1.844086e-02 4.739733e-01 -6.335761e-02 2.496326e-01 2.333083e-01 2.049729e-02 -2.300832e-01
<VARIANCE> 39
 2.374183e+01 3.185368e+01 3.711993e+01 3.813726e+01 4.063473e+01 6.845679e+01 4.355819e+01 3.871286e+01 3.603212e+01 2.558998e+01 2.591357e+01 2.100547e+01 2.695255e+01 3.183540e+00 4.330479e+00 3.545137e+00 4.629685e+00 4.338200e+00 4.996698e+00 4.778630e+00 5.772483e+00 5.323777e+00 4.400435e+00 3.862783e+00 2.692633e+00 4.964391e+00 4.021494e-01 6.413546e-01 7.391642e-01 9.404712e-01 1.099358e+00 1.687452e+00 1.093028e+00 1.064287e+00 9.973738e-01 7.398729e-01 7.229488e-01 5.821338e-01 4.439445e-01
<GCONST> 1.333247e+02
<MIXTURE> 7 5.924445e-02
<MEAN> 39
 -5.147289e+00 -5.901942e+00 1.629544e-01 1.788630e+00 2.379948e+00 3.403416e+00 4.171478e+00 1.079170e+00 2.656091e+00 1.129826e+00 2.481858e+00 2.606953e+00 2.142393e+00 -4.331484e-01 -1.478476e+00 -2.638320e-01 -2.117983e+00 -1.193276e+00 -1.225955e+00 3.952501e-01 9.559001e-01 8.984034e-01 7.013543e-01 8.487108e-01 9.859717e-01 6.113657e+00 9.724509e-01 1.747514e+00 8.959897e-01 9.249074e-01 2.056369e-01 -4.202511e-01 -4.403747e-01 -1.086092e-01 -3.006329e-02 -1.990400e-02 -2.736363e-01 -1.339706e-01 -7.445302e-01
<VARIANCE> 39
 2.757275e+01 3.090339e+01 4.517456e+01 5.074534e+01 3.858298e+01 3.852571e+01 3.328910e+01 3.212414e+01 3.117818e+01 2.146607e+01 2.626308e+01 1.393770e+01 2.140075e+01 3.563748e+00 3.942394e+00 3.377773e+00 3.996493e+00 3.352211e+00 3.086048e+00 3.345693e+00 3.126109e+00 3.320946e+00 2.597646e+00 2.222291e+00 1.880262e+00 5.130424e+00 9.444106e-01 6.628246e-01 9.036462e-01 9.693959e-01 1.102316e+00 1.006093e+00 1.070055e+00 8.603015e-01 8.706935e-01 6.239341e-01 6.314713e-01 4.361716e-01 5.620282e-01
<GCONST> 1.280069e+02
<MIXTURE> 8 4.732036e-02
<MEAN> 39
 -9.323827e+00 2.898572e+00 1.317143e+00 -6.936918e-01 4.489772e+00 3.042742e+00 3.568901e+00 1.666394e+00 5.511063e+00 3.221348e+00 7.396478e+00 2.009564e+00 8.438767e+00 3.112649e+00 -2.226482e-01 8.847480e-01 -2.935616e+00 -3.587276e+00 -3.879596e+00 -1.032294e+00 -2.107167e-02 -1.549469e+00 -5.035726e-01 -1.424147e+00 4.955027e-01 6.916268e+00 1.432136e+00 8.403189e-02 6.081459e-01 8.468043e-01 -2.439597e-01 -8.829056e-02 -1.594003e-01 3.539745e-01 -3.526267e-01 -5.730979e-02 -9.263508e-01 7.281607e-02 -1.748193e+00
<VARIANCE> 39
 1.526673e+01 2.947892e+01 3.913248e+01 3.073528e+01 3.429198e+01 3.590592e+01 4.243037e+01 2.937090e+01 2.596141e+01 2.960061e+01 1.888498e+01 2.068552e+01 1.535299e+01 2.397513e+00 3.678078e+00 3.681578e+00 3.889178e+00 2.895945e+00 2.915079e+00 2.565975e+00 4.809699e+00 2.553246e+00 3.249314e+00 2.976856e+00 2.267580e+00 6.409692e+00 4.732478e-01 7.045249e-01 1.277333e+00 8.373998e-01 1.070917e+00 1.116724e+00 1.057009e+00 9.201636e-01 8.275524e-01 8.746515e-01 6.926996e-01 6.264732e-01 5.731679e-01
<GCONST> 1.272394e+02
<MIXTURE> 9 8.299742e-02
<MEAN> 39
 -8.266451e+00 -5.464919e-01 2.515046e+00 -4.620299e+00 4.879351e+00 1.175718e+00 4.850935e-01 6.935083e-01 1.645397e-01 -3.538173e-01 -1.065140e-01 4.232442e+00 5.142771e+00 3.546304e+00 -1.445776e+00 5.087528e-01 -2.381526e+00 -2.846674e+00 -2.963081e+00 -3.424339e+00 6.522547e-02 3.732856e-01 -1.841378e-01 -7.987276e-01 -1.109921e+00 7.638478e+00 8.514450e-01 1.990076e-01 -3.363431e-01 8.628358e-01 -4.807180e-01 2.646981e-01 -3.617615e-01 -1.304916e-01 4.055871e-01 5.026820e-01 5.246619e-02 -7.407349e-01 -1.538295e+00
<VARIANCE> 39
 1.211575e+01 2.554550e+01 2.658394e+01 2.210204e+01 3.090717e+01 4.224894e+01 3.870213e+01 3.204547e+01 2.578746e+01 3.116918e+01 2.256178e+01 2.390019e+01 2.518933e+01 2.563452e+00 2.462957e+00 2.613322e+00 3.264279e+00 3.075629e+00 3.029223e+00 3.704426e+00 2.880690e+00 3.359732e+00 2.964732e+00 2.177433e+00 2.762043e+00 3.358185e+00 3.431218e-01 5.180665e-01 8.099570e-01 6.332572e-01 7.165038e-01 1.105197e+00 9.506428e-01 8.254594e-01 6.912405e-01 8.788475e-01 6.058096e-01 6.223418e-01 7.861326e-01
<GCONST> 1.235963e+02
<MIXTURE> 10 8.858370e-02
<MEAN> 39
 -7.072271e+00 -5.372827e+00 2.720906e+00 -3.092759e+00 -6.740733e-01 7.890381e-01 1.083972e+00 -2.408157e+00 1.483066e+00 -4.405793e-01 -8.522594e-02 3.181659e+00 5.248321e+00 1.545338e+00 -3.726923e+00 -1.160275e+00 -3.859574e+00 -3.602820e+00 -2.788113e+00 -2.758529e+00 1.638450e+00 1.164219e+00 7.573540e-01 8.110346e-01 -3.378361e-03 7.126172e+00 1.347895e+00 7.969100e-01 -3.216887e-01 7.834693e-01 -4.133587e-01 -7.496866e-01 -1.093791e+00 -1.821682e-03 -4.179328e-01 -3.034881e-01 -6.855790e-01 -1.161914e+00 -1.381792e+00
<VARIANCE> 39
 1.261477e+01 2.658226e+01 2.217021e+01 2.737407e+01 3.222884e+01 4.965773e+01 3.396310e+01 3.356599e+01 3.438059e+01 2.832991e+01 2.708216e+01 1.799974e+01 1.524710e+01 2.092771e+00 2.426590e+00 2.589015e+00 2.436323e+00 2.611456e+00 3.370857e+00 4.750399e+00 3.674860e+00 3.587470e+00 2.761929e+00 2.862194e+00 2.640598e+00 2.439967e+00 3.156034e-01 4.679230e-01 6.909744e-01 6.833115e-01 1.077622e+00 1.169486e+00 9.321353e-01 9.732580e-01 9.171032e-01 8.514405e-01 8.264210e-01 5.816283e-01 5.635086e-01
<GCONST> 1.237393e+02
<MIXTURE> 11 6.513690e-02
<MEAN> 39
 -1.212196e+00 -3.311260e+00 4.507897e+00 -6.663790e-01 -3.738048e+00 -3.105444e+00 -3.949361e+00 -2.950301e+00 -3.628135e-03 -3.387037e+00 -1.446947e+00 1.065829e+00 2.713604e+00 4.108672e-01 -3.420502e+00 -5.156801e-01 -3.541440e+00 -2.562756e+00 -1.565221e+00 -2.277144e+00 2.013258e+00 1.061721e+00 4.395101e-01 9.125199e-01 5.291560e-01 4.413014e+00 7.040079e-01 3.490276e-01 -4.554492e-01 1.402305e-01 -3.682715e-01 -4.414487e-01 -2.796035e-01 -2.426223e-01 -5.520863e-01 1.657612e-01 -4.642150e-01 -6.638474e-01 -6.734458e-01
<VARIANCE> 39
 1.818620e+01 2.495141e+01 2.988471e+01 3.771891e+01 3.711635e+01 6.013769e+01 4.445720e+01 3.890895e+01 4.123394e+01 2.462999e+01 2.573671e+01 2.143170e+01 2.232530e+01 1.954220e+00 3.697870e+00 3.730753e+00 4.721336e+00 5.034564e+00 4.931530e+00 5.841103e+00 5.822376e+00 6.250467e+00 5.203794e+00 4.593886e+00 3.113472e+00 4.932348e+00 2.662352e-01 4.907672e-01 5.431592e-01 8.110265e-01 9.970927e-01 1.209676e+00 1.251363e+00 1.166162e+00 1.134569e+00 6.775483e-01 8.194568e-01 6.169001e-01 3.841123e-01
<GCONST> 1.314623e+02
<MIXTURE> 12 5.924445e-02
<MEAN> 39
 -7.247679e+00 -8.125574e+00 -2.525527e+00 -1.060800e+00 -1.046599e-01 9.206524e-01 1.863610e+00 -1.187956e+00 4.225935e-01 -7.234334e-01 4.319576e-01 1.113623e+00 2.919552e-01 -1.188264e+00 -2.272694e+00 -9.989808e-01 -2.917633e+00 -1.925638e+00 -1.928641e+00 -3.363994e-01 2.486679e-01 1.694649e-01 5.666569e-02 2.524168e-01 4.374811e-01 5.207639e+00 5.837277e-01 1.421858e+00 5.157484e-01 5.310758e-01 -2.143280e-01 -8.214679e-01 -8.541486e-01 -4.796190e-01 -4.033071e-01 -3.358620e-01 -5.914969e-01 -3.981438e-01 -1.044404e+00
<VARIANCE> 39
 2.757275e+01 3.090339e+01 4.517456e+01 5.074534e+01 3.858298e+01 3.852571e+01 3.328910e+01 3.212414e+01 3.117818e+01 2.146607e+01 2.626308e+01 1.393770e+01 2.140075e+01 3.563748e+00 3.942394e+00 3.377773e+00 3.996493e+00 3.352211e+00 3.086048e+00 3.345693e+00 3.126109e+00 3.320946e+00 2.597646e+00 2.222291e+00 1.880262e+00 5.130424e+00 9.444106e-01 6.628246e-01 9.036462e-01 9.693959e-01 1.102316e+00 1.006093e+00 1.070055e+00 8.603015e-01 8.706935e-01 6.239341e-01 6.314713e-01 4.361716e-01 5.620282e-01
<GCONST> 1.280069e+02
<MIXTURE> 13 5.724175e-02
<MEAN> 39
 -4.261959e+00 -6.920899e-01 5.672083e+00 -2.033094e+00 -9.970484e-01 3.140156e-01 -2.692616e+00 -5.249502e+00 -2.514276e+00 -3.663783e+00 -2.635819e+00 -5.669467e-01 3.175911e-01 -2.896666e-01 -2.292591e+00 3.210320e-01 -2.671330e+00 -2.469199e+00 -1.428061e+00 -1.311428e+00 1.815566e-02 -3.694590e-01 -1.155007e-02 4.955934e-01 5.419564e-01 3.740259e+00 8.398425e-01 1.019620e-01 -1.645119e-01 3.579252e-01 -8.924214e-01 -1.022352e+00 -3.997511e-01 6.131613e-02 -4.628320e-01 -9.443091e-02 -1.067973e-01 -2.846935e-01 -4.965999e-01
<VARIANCE> 39
 2.374183e+01 3.185368e+01 3.711993e+01 3.813726e+01 4.063473e+01 6.845679e+01 4.355819e+01 3.871286e+01 3.603212e+01 2.558998e+01 2.591357e+01 2.100547e+01 2.695255e+01 3.183540e+00 4.330479e+00 3.545137e+00 4.629685e+00 4.338200e+00 4.996698e+00 4.778630e+00 5.772483e+00 5.323777e+00 4.400435e+00 3.862783e+00 2.692633e+00 4.964391e+00 4.021494e-01 6.413546e-01 7.391642e-01 9.404712e-01 1.099358e+00 1.687452e+00 1.093028e+00 1.064287e+00 9.973738e-01 7.398729e-01 7.229488e-01 5.821338e-01 4.439445e-01
<GCONST> 1.333247e+02
<MIXTURE> 14 5.048985e-02
<MEAN> 39
 -1.001907e+01 1.110325e+00 -2.992237e+00 -1.983934e+00 2.189743e+00 -8.645682e-01 2.551280e+00 -2.904442e+00 2.167619e+00 -5.230644e-01 5.342278e+00 1.165064e-01 5.586356e+00 1.773181e+00 -1.023969e+00 4.332240e-01 -3.294893e+00 -3.733980e+00 -4.035024e+00 -1.321167e+00 -2.818864e-01 -1.134895e+00 -5.289398e-01 -1.146509e+00 5.940075e-01 5.941072e+00 1.180573e+00 -1.065245e-01 6.694237e-01 2.814702e-01 -8.040335e-01 -4.144308e-01 -9.053160e-01 1.555838e-01 -6.238899e-01 -2.915671e-01 -1.249056e+00 -1.941957e-01 -1.696838e+00
<VARIANCE> 39
 1.498038e+01 2.377776e+01 3.248073e+01 2.699610e+01 2.788736e+01 3.040767e+01 3.497113e+01 3.030872e+01 2.952966e+01 2.866043e+01 2.371751e+01 2.069748e+01 1.683086e+01 2.839752e+00 3.552725e+00 3.418669e+00 3.830465e+00 3.226510e+00 3.013498e+00 3.840016e+00 4.523321e+00 3.333360e+00 3.662222e+00 3.428118e+00 2.543968e+00 5.866386e+00 4.051430e-01 5.837385e-01 9.507633e-01 8.258192e-01 8.698052e-01 8.699616e-01 9.360182e-01 9.222218e-01 7.983236e-01 8.985925e-01 7.564310e-01 6.244505e-01 5.810592e-01
<GCONST> 1.265135e+02
<MIXTURE> 15 4.732036e-02
<MEAN> 39
 -1.088673e+01 7.267921e-01 -1.185095e+00 -2.911268e+00 2.147398e+00 6.458800e-01 9.633570e-01 -5.014033e-01 3.472969e+00 1.045090e+00 5.658204e+00 1.903102e-01 6.871452e+00 2.493293e+00 -9.897808e-01 1.172504e-01 -3.724456e+00 -4.267975e+00 -4.562540e+00 -1.673040e+00 -8.983127e-01 -2.188625e+00 -1.224607e+00 -2.114289e+00 -1.068367e-01 5.903574e+00 1.156964e+00 -2.517120e-01 1.560693e-01 4.807661e-01 -6.579002e-01 -5.109912e-01 -5.706441e-01 -2.972612e-02 -7.165064e-01 -4.314010e-01 -1.259265e+00 -2.437842e-01 -2.051025e+00
<VARIANCE> 39
 1.526673e+01 2.947892e+01 3.913248e+01 3.073528e+01 3.429198e+01 3.590592e+01 4.243037e+01 2.937090e+01 2.596141e+01 2.960061e+01 1.888498e+01 2.068552e+01 1.535299e+01 2.397513e+00 3.678078e+00 3.681578e+00 3.889178e+00 2.895945e+00 2.915079e+00 2.565975e+00 4.809699e+00 2.553246e+00 3.249314e+00 2.976856e+00 2.267580e+00 6.409692e+00 4.732478e-01 7.045249e-01 1.277333e+00 8.373998e-01 1.070917e+00 1.116724e+00 1.057009e+00 9.201636e-01 8.275524e-01 8.746515e-01 6.926996e-01 6.264732e-01 5.731679e-01
<GCONST> 1.272394e+02
<MIXTURE> 16 4.578007e-02
<MEAN> 39
 -8.319857e+00 -4.322763e+00 -3.071421e-01 -4.323222e+00 1.549032e+00 8.698431e-01 7.885523e-01 1.085115e+00 1.240809e+00 4.676282e-01 2.985502e+00 1.254314e+00 1.883934e+00 -2.076624e+00 -1.977118e+00 -1.330262e+00 -2.712213e+00 -1.182137e+00 -1.164319e+00 8.433276e-01 1.415695e+00 1.079820e+00 8.731397e-01 8.744369e-01 9.477531e-01 3.573843e+00 8.972672e-01 1.012474e+00 2.864707e-01 8.089600e-01 -6.710167e-01 -7.790222e-01 -5.234303e-01 -8.723254e-01 -7.117630e-01 -6.700463e-01 -1.049474e+00 -4.066639e-01 -1.271709e+00
<VARIANCE> 39
 2.423396e+01 3.190657e+01 3.253326e+01 4.303571e+01 3.826978e+01 3.215042e+01 3.762876e+01 3.251374e+01 3.311298e+01 2.809481e+01 2.880547e+01 2.243020e+01 2.183081e+01 5.582902e+00 3.940905e+00 3.763248e+00 5.711393e+00 4.683647e+00 3.958528e+00 3.933228e+00 3.673228e+00 3.296402e+00 2.757814e+00 3.091428e+00 2.679489e+00 5.887084e+00 5.569100e-01 6.242351e-01 7.633452e-01 1.088902e+00 1.116676e+00 9.289426e-01 9.702265e-01 9.226978e-01 9.190773e-01 8.654429e-01 8.022033e-01 6.977972e-01 6.425408e-01
<GCONST> 1.314631e+02
<MIXTURE> 17 4.469962e-02
<MEAN> 39
 -1.064950e+01 -5.463392e-01 3.976851e-01 -6.179787e+00 5.933362e+00 -1.649658e+00 1.558128e+00 1.470918e+00 -2.998613e+00 1.318835e+00 -1.931970e+00 2.511178e+00 3.830338e+00 2.561436e+00 -1.009695e+00 4.699202e-01 -1.773203e+00 -3.103987e+00 -3.097952e+00 -3.038110e+00 -5.239991e-01 2.701408e-01 -7.808269e-01 -7.835008e-01 -7.141540e-01 6.351875e+00 1.097552e+00 9.774387e-03 -1.690244e-01 9.078045e-01 -1.141332e+00 8.807391e-02 -9.894493e-01 -5.949351e-01 4.677495e-01 -2.638738e-01 6.183131e-02 -7.392213e-01 -1.567639e+00
<VARIANCE> 39
 1.299132e+01 2.098424e+01 2.742716e+01 2.154566e+01 2.438892e+01 3.999667e+01 3.864180e+01 3.118921e+01 2.739239e+01 2.442911e+01 2.449442e+01 2.253304e+01 2.477090e+01 2.962045e+00 2.304819e+00 2.743796e+00 3.388916e+00 3.421621e+00 3.207433e+00 3.745258e+00 3.402027e+00 3.962998e+00 2.368965e+00 2.346142e+00 2.430697e+00 5.200152e+00 3.014124e-01 4.386440e-01 8.197844e-01 6.353483e-01 6.449564e-01 9.564517e-01 9.546589e-01 8.032243e-01 6.924841e-01 6.514434e-01 6.464601e-01 5.987268e-01 7.614797e-01
<GCONST> 1.229517e+02
<STATE> 4
<NUMMIXES> 17
<MIXTURE> 1 4.372856e-02
<MEAN> 39
 -7.958131e+00 7.992823e-01 9.751710e-01 4.947757e-01 3.105898e+00 6.629362e-01 4.065329e+00 2.554798e+00 2.992998e+00 1.311342e+00 2.482531e+00 3.717962e+00 2.887449e+00 -3.742178e-01 1.549378e+00 5.520351e-01 7.906038e-01 4.671607e-01 -3.853757e-01 7.283721e-01 1.163668e+00 9.710686e-01 6.874489e-01 1.745437e-01 6.984094e-01 1.247040e+00 9.987831e-01 1.088117e+00 6.325945e-01 1.319549e+00 5.147604e-01 3.579451e-01 -1.287407e-01 -2.320166e-01 -8.398670e-02 -7.063285e-02 -2.707096e-01 -2.211692e-01 -1.551485e+00
<VARIANCE> 39
 4.211662e+01 3.774753e+01 4.644964e+01 4.547601e+01 4.062215e+01 3.565841e+01 3.305088e+01 3.114127e+01 3.078149e+01 2.067388e+01 2.391697e+01 1.910813e+01 2.276692e+01 4.521252e+00 3.808447e+00 3.318448e+00 3.999374e+00 3.085009e+00 4.226600e+00 3.659403e+00 3.012506e+00 2.992951e+00 2.094577e+00 2.208163e+00 2.587754e+00 6.044993e+00 7.606391e-01 8.038341e-01 8.026716e-01 8.752446e-01 8.073538e-01 8.013360e-01 8.131829e-01 5.798879e-01 5.848976e-01 5.486050e-01 5.022182e-01 4.045210e-01 6.020408e-01
<GCONST> 1.271321e+02
<MIXTURE> 2 8.362045e-02
<MEAN> 39
 3.900681e+00 -1.101773e+00 3.478315e+00 -1.358739e-01 -2.657482e+00 -2.373074e+00 -6.722885e+00 -2.961547e-01 7.974569e+00 3.057221e+00 -3.227684e-01 -1.726485e-01 9.374237e+00 3.589774e+00 -7.477705e-01 -1.450204e+00 -1.033942e+00 -1.244745e+00 -3.751726e-01 -2.317621e+00 1.566302e+00 2.201099e+00 1.659139e+00 1.245223e+00 -1.427464e+00 3.276809e+00 1.745546e-01 7.446274e-01 -2.800816e-01 7.001922e-01 9.194372e-01 9.611634e-01 1.029636e+00 -1.357833e-02 -7.151877e-01 5.850698e-02 1.063000e-01 -1.692195e-01 -1.742166e+00
<VARIANCE> 39
 1.398478e+01 1.727732e+01 2.074722e+01 2.195368e+01 2.567970e+01 2.496473e+01 3.129796e+01 2.715073e+01 2.297306e+01 2.438736e+01 1.763864e+01 1.982789e+01 1.117389e+01 2.723512e+00 3.663807e+00 3.850029e+00 5.737955e+00 4.229334e+00 6.969872e+00 7.416548e+00 8.226675e+00 6.097072e+00 5.373778e+00 5.332420e+00 4.189606e+00 4.438012e+00 3.378600e-01 5.080842e-01 4.075745e-01 5.121469e-01 5.436373e-01 7.093015e-01 7.160918e-01 6.805604e-01 6.802379e-01 6.649064e-01 5.508913e-01 6.136301e-01 3.465627e-01
<GCONST> 1.241311e+02
<MIXTURE> 3 6.470135e-02
<MEAN> 39
 2.371229e+00 1.706272e+00 7.513821e+00 -9.009209e-01 -5.191593e+00 -8.436008e+00 -2.299048e+00 1.770406e+00 9.520003e-01 -2.086443e-01 1.003402e+00 4.302420e+00 9.004739e+00 3.429896e+00 -1.439497e+00 1.067840e+00 -4.475799e-01 -2.937626e+00 -1.597452e+00 -1.120809e+00 2.118151e+00 8.566858e-01 6.771894e-01 -1.216376e-01 5.974522e-01 2.527135e+00 6.958310e-02 2.592316e-01 -2.505938e-01 8.708063e-01 9.718269e-01 1.288884e+00 4.660295e-01 9.591697e-02 2.355986e-01 2.205509e-01 -1.728700e-01 -5.300724e-01 -1.530196e+00
<VARIANCE> 39
 1.159469e+01 2.054710e+01 2.818632e+01 2.405241e+01 3.159339e+01 1.997730e+01 2.421311e+01 2.265695e+01 2.499902e+01 2.264464e+01 1.831847e+01 1.354470e+01 1.485755e+01 2.667988e+00 3.185949e+00 4.231002e+00 4.682119e+00 5.361192e+00 5.073127e+00 7.003637e+00 4.884311e+00 5.104613e+00 4.328512e+00 6.074037e+00 3.797347e+00 3.672985e+00 3.393114e-01 5.977957e-01 4.045223e-01 4.596509e-01 7.829869e-01 6.373655e-01 4.747279e-01 6.269058e-01 5.779113e-01 5.703064e-01 4.802380e-01 3.443636e-01 4.204938e-01
<GCONST> 1.215117e+02
<MIXTURE> 4 6.343580e-02
<MEAN> 39
 -4.327196e+00 6.148036e+00 6.878865e+00 3.681499e+00 2.121484e+00 -3.869126e+00 1.392577e+00 -1.548140e+00 1.515937e-01 3.831934e-01 -1.034241e+00 2.558221e+00 4.805906e+00 3.926323e+00 3.127085e-01 1.492660e+00 9.724339e-01 -1.924220e+00 -1.404408e+00 -2.288521e+00 1.789969e-02 4.923443e-01 -1.209912e-02 5.076764e-01 8.299744e-02 1.853534e+00 1.028601e+00 -3.379629e-01 -7.993925e-02 4.691649e-01 3.073752e-03 8.306876e-01 -2.433813e-01 3.694026e-01 2.491783e-01 6.161686e-02 3.994594e-01 -1.034166e-01 -1.034032e+00
<VARIANCE> 39
 2.587591e+01 2.229924e+01 4.346424e+01 3.381564e+01 2.865305e+01 3.958182e+01 2.974664e+01 2.851440e+01 3.408281e+01 2.151735e+01 1.876919e+01 1.861529e+01 1.686338e+01 4.682196e+00 2.689235e+00 6.756273e+00 4.258551e+00 6.970293e+00 5.807906e+00 6.471111e+00 4.305266e+00 4.729786e+00 3.752747e+00 3.323282e+00 3.058104e+00 2.479806e+00 5.893613e-01 5.317604e-01 7.041773e-01 8.367991e-01 5.595216e-01 1.130795e+00 7.086907e-01 6.869388e-01 6.784063e-01 5.280526e-01 4.949034e-01 4.578844e-01 6.698226e-01
<GCONST> 1.276289e+02
<MIXTURE> 5 4.618432e-02
<MEAN> 39
 7.074133e+00 -6.997920e+00 4.147464e+00 -2.297158e+00 -6.234518e+00 -2.917091e+00 -1.015400e+01 8.984782e+00 5.068521e+00 3.988353e+00 3.795342e-01 -3.712389e-01 1.176946e+01 3.048130e+00 -1.851768e+00 -1.483249e+00 -6.811758e-01 -2.692652e-01 8.359551e-01 -1.171011e+00 2.748339e+00 1.029866e+00 1.673727e+00 -4.716942e-02 -1.638919e+00 1.435467e+00 -6.076995e-01 7.494198e-01 -4.963986e-01 6.493735e-01 1.491270e+00 1.279379e+00 1.676677e+00 -8.783684e-01 -1.836676e-01 -1.366907e-01 8.958805e-02 -3.636703e-02 -1.387258e+00
<VARIANCE> 39
