~o
<STREAMINFO> 1 39
<VECSIZE> 39<NULLD><MFCC_D_A_Z_0><DIAGC>
~h "b"
<BEGINHMM>
<NUMSTATES> 5
<STATE> 2
<MEAN> 39
 5.629109e-01 8.872119e+00 2.697827e+00 8.247313e+00 5.458300e+00 3.429056e+00 2.827479e-01 -4.583417e+00 -2.607279e+00 -1.672096e+00 -5.237915e-01 -1.287869e+00 -1.432067e+01 -2.595983e-01 -1.012319e+00 -3.180215e-01 -8.162875e-01 -3.246351e-01 -1.512023e-01 1.662159e-01 5.906308e-01 6.960067e-01 3.357088e-01 1.885957e-01 2.605174e-01 1.679019e+00 3.903928e-01 -7.871863e-01 -2.635448e-01 -8.684362e-01 -5.810983e-01 -3.020478e-01 -2.160525e-01 2.009633e-01 1.921193e-01 2.227304e-01 1.307271e-01 6.406172e-02 1.413459e+00
<VARIANCE> 39
 4.349548e+01 3.655049e+01 2.832979e+01 4.784089e+01 3.107286e+01 3.225674e+01 3.960428e+01 4.177589e+01 4.365297e+01 3.306656e+01 2.931767e+01 2.530049e+01 6.245264e+01 3.972352e+00 5.312671e+00 3.435739e+00 6.943754e+00 4.072735e+00 3.636848e+00 3.743802e+00 4.296800e+00 4.459354e+00 3.625575e+00 3.088281e+00 2.433774e+00 1.203069e+01 6.666421e-01 8.941318e-01 8.253622e-01 1.091299e+00 7.929270e-01 7.746018e-01 7.938529e-01 9.123048e-01 9.394106e-01 7.850257e-01 6.714882e-01 5.302340e-01 1.494868e+00
<GCONST> 1.352151e+02
<STATE> 3
<MEAN> 39
 7.799678e-01 4.885349e+00 1.195127e+00 4.421547e+00 3.562739e+00 2.355414e+00 3.842635e-01 -2.954451e+00 -6.025906e-01 -4.239185e-01 2.485216e-01 -5.516602e-01 -7.203393e+00 9.339526e-01 -2.376584e+00 -8.162215e-01 -2.654690e+00 -1.607433e+00 -7.577218e-01 -3.779133e-01 7.707226e-01 8.409472e-01 6.953616e-01 3.970365e-01 2.575057e-01 4.357218e+00 5.024250e-01 -2.608360e-01 -6.950291e-02 -4.633786e-01 -3.808123e-01 -9.822740e-02 -2.545246e-01 -2.154675e-02 -1.386357e-01 2.153841e-02 -1.660073e-03 -7.489963e-02 4.768740e-01
<VARIANCE> 39
 4.473794e+01 4.883042e+01 3.564089e+01 7.668362e+01 4.215926e+01 4.116463e+01 3.906219e+01 4.149633e+01 4.316474e+01 3.437790e+01 3.090950e+01 2.446902e+01 1.172718e+02 5.496230e+00 4.867426e+00 5.209046e+00 7.623479e+00 5.440841e+00 5.470400e+00 5.297521e+00 5.605772e+00 5.490588e+00 4.419716e+00 4.102652e+00 3.223067e+00 9.482690e+00 8.610382e-01 1.005403e+00 8.366881e-01 1.455174e+00 1.005229e+00 9.511831e-01 9.001749e-01 9.333314e-01 9.911665e-01 8.243074e-01 7.509577e-01 5.639591e-01 2.327006e+00
<GCONST> 1.422148e+02
<STATE> 4
<MEAN> 39
 4.128798e+00 -3.700595e-01 -6.921150e-01 -2.189884e+00 -6.188897e-01 6.093768e-01 -9.034794e-01 -1.734529e+00 6.511685e-01 1.051257e+00 1.020056e+00 -3.619647e-01 2.687274e+00 1.640946e+00 -2.147898e+00 -6.046972e-01 -2.687801e+00 -1.792947e+00 -5.656037e-01 -7.572330e-01 5.441206e-01 2.662346e-01 4.275520e-01 1.517472e-01 -2.579126e-02 3.725881e+00 -4.358182e-02 4.342342e-01 1.896680e-01 4.675918e-01 2.424186e-01 2.026117e-01 -1.844249e-02 -1.104465e-01 -2.648232e-01 -2.095753e-01 -1.474714e-01 -1.010553e-01 -8.850083e-01
<VARIANCE> 39
 4.537140e+01 4.588039e+01 5.493349e+01 9.033198e+01 5.397179e+01 6.270967e+01 4.862198e+01 4.730489e+01 4.387545e+01 3.812789e+01 3.616159e+01 2.887164e+01 7.754612e+01 4.988266e+00 4.649114e+00 6.706562e+00 7.337977e+00 6.733003e+00 6.843259e+00 6.789608e+00 6.316445e+00 6.229908e+00 4.903100e+00 4.896701e+00 3.828517e+00 7.785350e+00 9.579059e-01 7.710690e-01 6.616029e-01 1.324188e+00 9.914762e-01 9.700974e-01 9.241065e-01 8.975353e-01 8.790866e-01 7.670499e-01 7.328303e-01 5.618172e-01 1.453686e+00
<GCONST> 1.438821e+02
<TRANSP> 5
 0.000000e+00 1.000000e+00 0.000000e+00 0.000000e+00 0.000000e+00
 0.000000e+00 4.823897e-01 5.176103e-01 0.000000e+00 0.000000e+00
 0.000000e+00 0.000000e+00 4.366413e-01 5.633587e-01 0.000000e+00
 0.000000e+00 0.000000e+00 0.000000e+00 4.503432e-01 5.496568e-01
 0.000000e+00 0.000000e+00 0.000000e+00 0.000000e+00 0.000000e+00
<ENDHMM>
~h "d"
<BEGINHMM>
<NUMSTATES> 5
<STATE> 2
<MEAN> 39
 -2.953971e+00 7.659728e+00 5.003216e+00 8.802759e+00 4.101169e+00 1.451156e+00 4.887936e-01 -2.904751e+00 -3.971726e-01 -1.660716e+00 -2.104437e+00 -7.734932e-01 -1.376022e+01 -7.542616e-01 -1.062844e+00 -3.718137e-01 -1.093757e+00 3.763910e-01 4.734782e-01 2.190134e-01 4.421596e-01 4.522716e-01 3.711417e-01 4.810179e-01 2.913970e-01 1.510973e+00 2.390001e-01 -7.847421e-01 -1.429234e-01 -7.865767e-01 -6.436468e-01 -3.929407e-01 -2.139282e-01 2.783813e-01 1.058142e-01 1.355394e-01 2.028605e-01 1.862462e-01 1.520601e+00
<VARIANCE> 39
 4.309984e+01 5.142433e+01 3.350437e+01 5.303321e+01 4.198154e+01 4.352903e+01 3.991761e+01 4.052615e+01 3.612059e+01 3.314632e+01 3.773431e+01 2.554051e+01 7.947110e+01 3.518199e+00 6.743319e+00 3.146642e+00 6.517154e+00 5.327414e+00 5.423689e+00 4.516040e+00 4.592858e+00 4.008404e+00 3.426427e+00 3.471191e+00 2.821030e+00 1.572700e+01 6.659736e-01 1.384289e+00 6.064989e-01 1.190933e+00 9.699488e-01 9.207427e-01 9.178333e-01 9.061831e-01 8.007374e-01 7.016100e-01 7.581856e-01 6.005853e-01 2.211596e+00
<GCONST> 1.390633e+02
<STATE> 3
<MEAN> 39
 -4.324876e+00 2.487496e+00 3.712417e+00 3.676797e+00 3.109818e+00 1.420503e+00 7.813610e-01 -1.208703e+00 8.884962e-01 -5.488678e-01 -3.122626e-01 6.226394e-01 -5.141246e+00 2.149420e-01 -2.076882e+00 -4.544901e-01 -2.381900e+00 -1.260367e+00 -8.463960e-01 -5.261853e-01 8.514330e-01 5.723394e-01 4.936737e-01 5.634185e-01 4.753505e-01 4.493536e+00 6.607347e-01 -1.935772e-02 -7.377231e-04 -5.022662e-02 -5.530366e-01 -4.336874e-01 -3.625890e-01 6.509747e-02 -7.746701e-02 5.537822e-03 -1.295224e-01 -1.347742e-01 3.161138e-01
<VARIANCE> 39
 3.929995e+01 6.138339e+01 3.726287e+01 6.797321e+01 4.933725e+01 5.116469e+01 4.444576e+01 4.078556e+01 3.716854e+01 3.143101e+01 3.627163e+01 2.566755e+01 1.355112e+02 5.746413e+00 5.458639e+00 3.645808e+00 5.932994e+00 5.950291e+00 6.548772e+00 6.109640e+00 4.891666e+00 4.511752e+00 3.796046e+00 4.224218e+00 3.164700e+00 1.260951e+01 7.847523e-01 1.266673e+00 7.588253e-01 1.419402e+00 1.306707e+00 1.345056e+00 1.102398e+00 9.968445e-01 9.136204e-01 7.585019e-01 8.540048e-01 7.029094e-01 3.245672e+00
<GCONST> 1.440223e+02
<STATE> 4
<MEAN> 39
 -1.302240e+00 -1.340633e+00 2.804096e+00 -1.035904e+00 -1.454333e+00 -2.272001e+00 -1.936070e+00 9.198344e-01 1.985851e+00 3.663146e-01 -1.096212e-01 9.269910e-01 4.854616e+00 1.763284e+00 -1.335171e+00 -5.234045e-01 -1.344908e+00 -1.496888e+00 -1.040620e+00 -1.081186e+00 7.559159e-01 2.388778e-01 3.673237e-01 -1.008494e-01 -3.263778e-01 2.755283e+00 2.837082e-01 3.492939e-01 -1.051202e-01 5.041572e-01 3.007283e-01 3.459947e-01 1.134472e-01 -1.884123e-01 -2.147520e-01 -8.944562e-02 -1.239520e-01 -2.511172e-01 -1.075068e+00
<VARIANCE> 39
 5.066013e+01 4.250648e+01 4.069522e+01 4.302123e+01 5.366362e+01 5.435625e+01 6.025523e+01 4.609808e+01 3.971652e+01 3.226021e+01 3.254099e+01 2.714563e+01 6.610043e+01 5.588491e+00 4.716417e+00 5.022679e+00 5.934161e+00 7.125162e+00 7.876578e+00 7.387555e+00 5.811123e+00 5.263796e+00 4.424565e+00 5.245033e+00 4.237748e+00 1.010156e+01 1.016539e+00 8.061473e-01 7.617536e-01 9.285049e-01 1.396829e+00 1.544060e+00 1.386575e+00 9.846519e-01 8.696310e-01 7.607086e-01 8.434028e-01 6.856920e-01 1.385366e+00
<GCONST> 1.437733e+02
<TRANSP> 5
 0.000000e+00 1.000000e+00 0.000000e+00 0.000000e+00 0.000000e+00
 0.000000e+00 4.746566e-01 5.253435e-01 0.000000e+00 0.000000e+00
 0.000000e+00 0.000000e+00 4.448950e-01 5.551050e-01 0.000000e+00
 0.000000e+00 0.000000e+00 0.000000e+00 5.122392e-01 4.877608e-01
 0.000000e+00 0.000000e+00 0.000000e+00 0.000000e+00 0.000000e+00
<ENDHMM>
~h "f"
<BEGINHMM>
<NUMSTATES> 5
<STATE> 2
<MEAN> 39
 -8.383065e+00 -6.382650e-01 -2.664859e+00 2.584638e+00 2.737382e+00 1.584139e+00 2.699142e+00 4.043658e-01 1.769823e+00 8.486580e-01 -4.962811e-02 1.033010e+00 -1.328559e-01 -1.761598e+00 -1.729557e-01 -2.484798e-01 3.251370e-01 1.328994e-01 1.717457e-01 2.960296e-01 1.589024e-01 2.377342e-01 1.828169e-01 1.677149e-01 2.476839e-01 -3.310755e-01 4.539977e-01 -5.941442e-02 3.811280e-02 -1.689871e-01 -1.396925e-01 -1.109916e-01 -1.962153e-01 -5.121524e-02 -8.571163e-02 -2.331911e-02 -1.159072e-02 -5.978799e-02 1.319769e-01
<VARIANCE> 39
 7.562740e+01 2.206095e+01 2.464647e+01 3.015978e+01 2.329305e+01 2.833876e+01 2.742629e+01 2.453901e+01 2.503256e+01 2.245980e+01 2.272928e+01 1.861184e+01 2.825883e+01 8.073103e+00 2.582129e+00 2.678476e+00 3.540395e+00 2.786652e+00 2.900457e+00 3.209192e+00 2.735234e+00 2.699556e+00 2.418655e+00 2.359023e+00 2.039888e+00 2.398349e+00 1.128732e+00 4.767189e-01 4.586400e-01 5.795745e-01 5.153406e-01 4.780249e-01 5.698629e-01 5.048567e-01 4.938568e-01 4.520889e-01 4.305370e-01 3.788827e-01 3.504935e-01
<GCONST> 1.193511e+02
<STATE> 3
<MEAN> 39
 -1.048439e+01 -1.185912e+00 -3.227582e+00 2.659585e+00 2.616472e+00 1.672595e+00 2.763943e+00 4.831892e-01 2.015534e+00 1.168673e+00 2.997448e-01 1.354211e+00 -4.116336e-01 2.453168e-01 -1.201763e-01 -1.376672e-01 -1.548041e-01 -1.099736e-01 -6.635471e-02 -1.353805e-01 -4.109428e-02 2.262455e-02 1.914913e-02 7.731414e-02 2.428756e-02 1.098362e-01 7.217270e-01 1.120322e-02 4.043971e-02 -1.859012e-01 -1.059303e-01 -8.061222e-02 -1.694473e-01 -5.393869e-02 -7.956686e-02 -6.928605e-02 -3.537114e-02 -7.974482e-02 1.580656e-01
<VARIANCE> 39
 5.517837e+01 1.934090e+01 2.185592e+01 2.540391e+01 2.175374e+01 2.456370e+01 2.479264e+01 2.280843e+01 2.385559e+01 2.077951e+01 2.201777e+01 1.721087e+01 2.438201e+01 9.386674e+00 1.848581e+00 1.954987e+00 2.715003e+00 2.264051e+00 2.381253e+00 2.610849e+00 2.200207e+00 2.163437e+00 2.019545e+00 1.991084e+00 1.787712e+00 2.115662e+00 9.167490e-01 3.873113e-01 3.937242e-01 4.988629e-01 4.653305e-01 4.607424e-01 5.294580e-01 4.498100e-01 4.511638e-01 4.108114e-01 4.029682e-01 3.531486e-01 3.221721e-01
<GCONST> 1.139691e+02
<STATE> 4
<MEAN> 39
 -6.196477e+00 -1.299282e+00 -3.423360e+00 1.349659e+00 1.810784e+00 1.270804e+00 1.907619e+00 8.716496e-02 1.783356e+00 9.235744e-01 3.525147e-01 1.028443e+00 5.424541e-01 2.391277e+00 -6.182538e-02 -1.556913e-02 -7.069754e-01 -5.130897e-01 -2.726508e-01 -6.392586e-01 -1.617618e-01 -1.903820e-01 -2.098843e-01 -8.365051e-03 -1.885897e-01 5.743549e-01 3.822843e-01 -5.928024e-02 3.304503e-02 -1.570410e-01 -1.452457e-01 -5.391423e-02 -1.831093e-01 2.311781e-03 -6.272198e-02 -4.776066e-02 -1.617852e-03 -4.915810e-02 1.286483e-01
<VARIANCE> 39
 1.017455e+02 2.297885e+01 2.818133e+01 3.487033e+01 2.990608e+01 3.181377e+01 3.470272e+01 2.670020e+01 2.649222e+01 2.239134e+01 2.293995e+01 1.932196e+01 2.696016e+01 9.737953e+00 2.481548e+00 3.018492e+00 3.821175e+00 3.496810e+00 3.526912e+00 4.102619e+00 3.012249e+00 3.001516e+00 2.511314e+00 2.484398e+00 2.111854e+00 2.470698e+00 1.438738e+00 4.259561e-01 4.412523e-01 5.876566e-01 5.753101e-01 5.533181e-01 6.591961e-01 5.365888e-01 5.173166e-01 4.617764e-01 4.365468e-01 3.757443e-01 3.706379e-01
<GCONST> 1.227715e+02
<TRANSP> 5
 0.000000e+00 1.000000e+00 0.000000e+00 0.000000e+00 0.000000e+00
 0.000000e+00 6.757657e-01 3.242343e-01 0.000000e+00 0.000000e+00
 0.000000e+00 0.000000e+00 6.687668e-01 3.312331e-01 0.000000e+00
 0.000000e+00 0.000000e+00 0.000000e+00 7.422448e-01 2.577552e-01
 0.000000e+00 0.000000e+00 0.000000e+00 0.000000e+00 0.000000e+00
<ENDHMM>
~h "g"
<BEGINHMM>
<NUMSTATES> 5
<STATE> 2
<MEAN> 39
 -1.373453e+00 2.182874e+00 5.365373e-01 5.840741e+00 3.548003e+00 -2.102344e+00 -6.308509e-01 -2.658217e+00 -2.274050e+00 5.899380e-01 -5.151969e-01 -1.580834e-01 -5.674053e+00 2.519842e-01 -1.276665e+00 -1.184910e+00 -1.250483e+00 3.819370e-01 8.341099e-02 -6.488154e-01 1.684930e-01 8.459925e-01 6.701801e-01 1.144927e-01 3.144391e-01 2.033324e+00 4.746750e-01 3.902762e-02 2.092539e-01 -3.379268e-01 -5.269506e-01 -2.040246e-01 -1.442920e-01 4.170581e-02 -1.728624e-01 -2.621610e-02 1.435299e-01 -5.329451e-02 4.616165e-01
<VARIANCE> 39
 3.680503e+01 8.504318e+01 8.374484e+01 6.471743e+01 8.310819e+01 6.467033e+01 5.626216e+01 6.220217e+01 6.485210e+01 5.062753e+01 3.773045e+01 2.742323e+01 8.653085e+01 4.569752e+00 9.931108e+00 8.538873e+00 7.521893e+00 9.543432e+00 7.632970e+00 6.504844e+00 7.285520e+00 6.873099e+00 6.282547e+00 4.705685e+00 3.345802e+00 9.595419e+00 7.303729e-01 2.319830e+00 1.604497e+00 1.477855e+00 1.556409e+00 1.297062e+00 1.245456e+00 1.350524e+00 1.299678e+00 1.330154e+00 9.693870e-01 6.715849e-01 2.160825e+00
<GCONST> 1.529820e+02
<STATE> 3
<MEAN> 39
 3.728226e-02 5.649074e-02 -1.324954e+00 2.677548e+00 3.089640e+00 -2.408109e+00 -2.074266e+00 -2.388872e+00 -1.151654e+00 1.833972e+00 3.062091e-02 3.486387e-01 -8.049951e-01 1.234964e+00 -5.435786e-01 -3.258357e-01 -1.467783e+00 -6.951560e-01 -3.183390e-01 -9.556994e-01 1.187702e-01 3.074453e-01 2.826530e-01 3.357642e-01 8.641952e-02 2.116884e+00 3.148547e-01 3.008760e-01 3.308613e-01 6.982751e-02 -3.435948e-01 -8.899536e-02 -3.146513e-02 5.874065e-02 -2.210118e-01 -2.624528e-01 5.223144e-02 -1.159137e-01 -2.110452e-01
<VARIANCE> 39
 3.923068e+01 6.760825e+01 8.986090e+01 6.868227e+01 9.275090e+01 6.762280e+01 6.049068e+01 6.464796e+01 6.233155e+01 4.812801e+01 3.923819e+01 2.695381e+01 6.193107e+01 4.833368e+00 7.899887e+00 7.686250e+00 7.236441e+00 8.162242e+00 7.206627e+00 6.468216e+00 6.608175e+00 6.910443e+00 6.304203e+00 4.784575e+00 3.454777e+00 5.810227e+00 7.794226e-01 1.706004e+00 1.521848e+00 1.188834e+00 1.521457e+00 1.260933e+00 1.240909e+00 1.258765e+00 1.259724e+00 1.168341e+00 9.046159e-01 6.479905e-01 1.247726e+00
<GCONST> 1.502783e+02
<STATE> 4
<MEAN> 39
 2.855830e+00 2.747186e-01 -9.369956e-01 3.070538e-01 1.038778e+00 -3.104173e+00 -3.725425e+00 -2.387188e+00 -1.247350e+00 1.783062e+00 7.413248e-01 1.885590e-01 2.158914e+00 1.510680e+00 -2.485387e-01 8.192526e-03 -1.115367e+00 -9.153990e-01 -2.678178e-01 -8.756461e-01 3.583822e-01 8.403833e-02 -2.182158e-01 3.076585e-01 -9.731635e-02 1.419812e+00 -1.107115e-01 -4.409699e-02 9.552447e-03 2.251600e-01 7.643464e-02 9.845441e-02 1.626507e-01 1.813775e-01 -2.379922e-02 -1.990228e-01 -8.015373e-02 -5.656733e-02 -3.207276e-01
<VARIANCE> 39
 4.395965e+01 5.379980e+01 8.043101e+01 7.647310e+01 9.391982e+01 6.976077e+01 6.471700e+01 6.622194e+01 5.847321e+01 4.667328e+01 4.198776e+01 2.810725e+01 4.297637e+01 4.563897e+00 5.249311e+00 5.588413e+00 6.239251e+00 6.275115e+00 6.673423e+00 6.962590e+00 5.913142e+00 6.179217e+00 5.735047e+00 4.535707e+00 3.392413e+00 3.132696e+00 6.898547e-01 1.175042e+00 1.139501e+00 8.864277e-01 1.212476e+00 9.942797e-01 1.083311e+00 1.076764e+00 1.104200e+00 9.537109e-01 8.002470e-01 6.021718e-01 6.181251e-01
<GCONST> 1.446714e+02
<TRANSP> 5
 0.000000e+00 1.000000e+00 0.000000e+00 0.000000e+00 0.000000e+00
 0.000000e+00 4.725173e-01 5.274826e-01 0.000000e+00 0.000000e+00
 0.000000e+00 0.000000e+00 4.075650e-01 5.924349e-01 0.000000e+00
 0.000000e+00 0.000000e+00 0.000000e+00 4.152691e-01 5.847309e-01
 0.000000e+00 0.000000e+00 0.000000e+00 0.000000e+00 0.000000e+00
<ENDHMM>
~h "k"
<BEGINHMM>
<NUMSTATES> 5
<STATE> 2
<MEAN> 39
 -6.969305e+00 -2.403536e+00 -1.948490e+00 2.676433e+00 4.517823e+00 1.393158e+00 2.559032e+00 1.261842e+00 1.252877e+00 3.452907e+00 6.198811e-01 1.866879e+00 -4.033665e+00 5.884222e-01 -5.641104e-01 -2.861064e-01 -1.260883e+00 -5.361726e-01 -5.807299e-01 -1.216038e-01 -3.467616e-02 -1.511651e-01 6.043552e-02 -1.558549e-01 -5.559591e-02 3.022408e+00 2.830519e-01 4.327581e-01 2.839696e-01 8.113921e-02 -1.751850e-01 -1.827847e-01 -7.692240e-02 -6.357424e-02 -1.330013e-01 -2.702575e-01 -1.082680e-02 -1.275834e-01 -6.911957e-02
<VARIANCE> 39
 3.264704e+01 5.127651e+01 5.888050e+01 6.081427e+01 5.124143e+01 5.244247e+01 4.833319e+01 4.664058e+01 5.006649e+01 3.587792e+01 3.092750e+01 2.290794e+01 1.172105e+02 4.540359e+00 6.594427e+00 5.592287e+00 5.459211e+00 4.904542e+00 5.467851e+00 4.644445e+00 4.384488e+00 4.816524e+00 3.919109e+00 3.267903e+00 2.561383e+00 1.312151e+01 7.776319e-01 1.454925e+00 1.013161e+00 1.167549e+00 9.859296e-01 1.158436e+00 9.475501e-01 9.014689e-01 9.602752e-01 7.740549e-01 6.803595e-01 5.297541e-01 3.313232e+00
<GCONST> 1.426261e+02
<STATE> 3
<MEAN> 39
 -5.611053e+00 -2.488789e+00 -1.860956e+00 6.583763e-01 3.364877e+00 1.202933e-01 2.385440e+00 1.031531e+00 7.894100e-01 3.171208e+00 2.465227e-01 1.547315e+00 8.937905e-01 9.788328e-01 3.616656e-01 3.399293e-01 -7.986972e-01 -7.727300e-01 -6.186191e-01 -1.496288e-01 -1.758586e-01 -3.247437e-01 -5.030307e-01 -1.152658e-01 -2.751770e-01 1.982173e+00 2.212478e-01 3.171780e-01 2.099716e-01 2.061527e-01 -1.170237e-01 4.671245e-02 -7.611670e-02 -4.949908e-02 -7.700955e-02 -2.540456e-01 4.221662e-02 -9.789070e-02 -5.617268e-01
<VARIANCE> 39
 4.334642e+01 4.274402e+01 6.914853e+01 5.117332e+01 5.726503e+01 5.426148e+01 5.220224e+01 4.878276e+01 5.033307e+01 3.786376e+01 3.174047e+01 2.439645e+01 5.708391e+01 6.073514e+00 5.448881e+00 4.724732e+00 5.137447e+00 4.858821e+00 5.146826e+00 4.822201e+00 4.503979e+00 4.985379e+00 3.981622e+00 3.470240e+00 2.734278e+00 8.845122e+00 8.290744e-01 1.286987e+00 1.018297e+00 9.724883e-01 9.252081e-01 1.021977e+00 9.586123e-01 8.953317e-01 9.361443e-01 7.949059e-01 6.869840e-01 5.481694e-01 1.845611e+00
<GCONST> 1.410975e+02
<STATE> 4
<MEAN> 39
 -3.547161e+00 -1.252242e+00 -5.602896e-01 -2.706627e-02 1.873038e+00 -7.131065e-01 2.247673e+00 5.967445e-01 7.738934e-02 1.817665e+00 4.781484e-02 9.045799e-01 2.701992e+00 1.434171e+00 4.422670e-01 4.130616e-01 -5.374590e-01 -9.860416e-01 -4.230495e-01 -3.623053e-01 -1.932512e-01 -4.080306e-01 -8.300593e-01 -1.845739e-03 -4.030645e-01 1.069070e+00 1.116347e-01 -8.024394e-02 -7.881735e-02 6.617597e-02 -2.765547e-02 1.286195e-01 -1.212414e-01 4.356160e-02 2.470157e-02 -4.118910e-02 6.757788e-02 -2.133874e-02 -3.596302e-01
<VARIANCE> 39
 6.825731e+01 3.765131e+01 6.808849e+01 4.973819e+01 6.609821e+01 5.603793e+01 5.333393e+01 5.052826e+01 4.842453e+01 3.861272e+01 3.363771e+01 2.607398e+01 3.813113e+01 6.990104e+00 5.063061e+00 4.114330e+00 4.791017e+00 5.145753e+00 5.415827e+00 5.388927e+00 5.132148e+00 5.133836e+00 4.101018e+00 3.893663e+00 2.970779e+00 4.373648e+00 8.402677e-01 8.917035e-01 8.138287e-01 8.299398e-01 8.641590e-01 8.620749e-01 9.003689e-01 8.572173e-01 8.738075e-01 7.676412e-01 6.619027e-01 5.295835e-01 1.185074e+00
<GCONST> 1.393775e+02
<TRANSP> 5
 0.000000e+00 1.000000e+00 0.000000e+00 0.000000e+00 0.000000e+00
 0.000000e+00 3.998916e-01 6.001084e-01 0.000000e+00 0.000000e+00
 0.000000e+00 0.000000e+00 3.485964e-01 6.514037e-01 0.000000e+00
 0.000000e+00 0.000000e+00 0.000000e+00 3.809828e-01 6.190172e-01
 0.000000e+00 0.000000e+00 0.000000e+00 0.000000e+00 0.000000e+00
<ENDHMM>
~h "l"
<BEGINHMM>
<NUMSTATES> 5
<STATE> 2
<MEAN> 39
 7.913499e+00 8.444270e-01 -4.818761e+00 -1.223438e+01 7.371617e-02 5.744579e+00 -2.842926e+00 -5.354831e+00 6.725178e-01 1.684122e+00 1.517283e+00 -1.257372e+00 5.942025e+00 3.120273e-01 5.555640e-02 -5.284692e-02 -6.791390e-01 6.200194e-03 2.789839e-01 -2.518964e-01 -1.407131e-01 -3.641580e-03 6.388521e-02 6.502957e-02 -3.891283e-02 1.436736e-01 -2.195878e-01 -1.261037e-01 1.491889e-01 4.104702e-01 -4.871363e-02 -2.737483e-01 8.612497e-02 2.879497e-01 4.689941e-02 -1.057666e-01 -1.146835e-01 3.848672e-02 -4.522069e-02
<VARIANCE> 39
 1.798057e+01 4.280088e+01 4.041991e+01 6.935854e+01 5.093322e+01 6.452315e+01 6.587047e+01 5.599340e+01 5.544186e+01 5.090803e+01 4.439797e+01 3.851545e+01 2.714612e+01 1.729360e+00 3.227648e+00 2.839842e+00 5.748643e+00 3.539141e+00 5.630202e+00 4.492408e+00 5.139904e+00 4.867331e+00 4.185844e+00 3.797120e+00 3.463109e+00 1.801032e+00 2.964427e-01 4.203866e-01 3.908243e-01 7.076634e-01 6.401007e-01 7.415259e-01 7.343127e-01 8.665159e-01 9.281345e-01 8.211327e-01 6.892127e-01 6.334776e-01 2.283505e-01
<GCONST> 1.309434e+02
<STATE> 3
<MEAN> 39
 7.907950e+00 5.042756e-01 -4.616473e+00 -1.198110e+01 1.303890e-01 5.015028e+00 -3.241268e+00 -4.561954e+00 1.082591e+00 1.639285e+00 1.074853e+00 -1.361922e+00 6.072161e+00 -1.523064e-01 -3.354652e-01 3.595813e-01 5.168054e-01 -1.848920e-01 -5.514459e-01 -8.987683e-02 5.365546e-01 1.773461e-01 -1.700055e-01 -3.185135e-01 -5.450657e-02 1.286637e-01 -1.767657e-01 -5.271868e-02 1.913940e-01 3.676534e-01 -9.033716e-02 -2.053737e-01 1.281224e-01 1.747329e-01 -5.523403e-02 -1.317530e-01 -7.270893e-02 5.409553e-02 -7.571366e-02
<VARIANCE> 39
 1.659887e+01 3.935704e+01 4.572924e+01 6.950242e+01 5.267425e+01 6.935436e+01 6.741219e+01 5.638736e+01 5.521706e+01 5.096079e+01 4.417578e+01 3.940429e+01 2.598418e+01 1.253509e+00 3.263689e+00 3.129505e+00 4.946537e+00 3.591609e+00 4.993701e+00 3.943092e+00 5.035566e+00 5.189451e+00 4.218340e+00 3.625801e+00 3.496380e+00 1.719256e+00 2.281414e-01 4.079272e-01 3.786365e-01 6.897334e-01 6.324796e-01 7.785866e-01 7.322456e-01 8.616231e-01 9.359549e-01 7.852957e-01 6.779590e-01 6.252463e-01 2.192306e-01
<GCONST> 1.299531e+02
<STATE> 4
<MEAN> 39
 7.155896e+00 -4.589803e-01 -3.537459e+00 -9.554996e+00 -3.861106e-01 2.911122e+00 -2.972215e+00 -2.651308e+00 1.551671e+00 8.772536e-01 -6.952398e-02 -1.325661e+00 6.021468e+00 -4.402356e-01 -3.224903e-01 7.530023e-01 1.168808e+00 -3.463189e-01 -8.478661e-01 1.643386e-01 6.611696e-01 -1.215328e-01 -3.825661e-01 -3.129858e-01 1.087599e-01 -1.062357e-01 -1.210971e-01 7.440695e-02 1.382503e-01 1.651654e-01 -2.724972e-02 -1.053125e-02 9.879784e-02 -2.951400e-02 -1.609370e-01 -4.637102e-02 6.938359e-02 6.229940e-02 -1.444877e-01
<VARIANCE> 39
 1.937928e+01 4.299344e+01 5.641259e+01 7.232423e+01 5.612362e+01 7.573357e+01 6.691003e+01 5.840134e+01 5.566956e+01 4.867698e+01 4.239762e+01 4.007060e+01 3.370922e+01 1.402305e+00 2.812888e+00 3.254785e+00 4.253481e+00 3.986328e+00 4.140582e+00 3.698877e+00 4.697686e+00 5.009596e+00 3.918137e+00 3.357285e+00 3.173994e+00 1.750781e+00 2.367187e-01 3.774693e-01 3.724588e-01 7.024463e-01 6.011737e-01 7.494215e-01 6.606954e-01 8.104171e-01 8.491943e-01 6.856405e-01 6.140419e-01 5.744515e-01 2.249435e-01
<GCONST> 1.295114e+02
<TRANSP> 5
 0.000000e+00 1.000000e+00 0.000000e+00 0.000000e+00 0.000000e+00
 0.000000e+00 6.434601e-01 3.565399e-01 0.000000e+00 0.000000e+00
 0.000000e+00 0.000000e+00 5.761470e-01 4.238531e-01 0.000000e+00
 0.000000e+00 0.000000e+00 0.000000e+00 6.121367e-01 3.878634e-01
 0.000000e+00 0.000000e+00 0.000000e+00 0.000000e+00 0.000000e+00
<ENDHMM>
~h "m"
<BEGINHMM>
<NUMSTATES> 5
<STATE> 2
<MEAN> 39
 5.365220e+00 1.982701e+00 4.939590e-01 3.577428e+00 2.496721e-01 -1.283419e+00 -1.314575e+00 -5.932731e+00 -5.983001e+00 -5.476816e-01 3.833828e-01 -3.754851e+00 -1.471905e+00 3.917552e-01 7.473257e-01 5.439133e-01 9.652663e-01 2.528379e-02 -5.696273e-01 5.562776e-03 -1.463487e+00 -1.585278e+00 1.661454e-01 1.690500e-01 -5.558181e-01 -4.973831e-01 -1.674974e-01 -2.256574e-01 3.534001e-02 -2.738257e-01 -1.292718e-01 7.923964e-02 -3.179622e-02 3.422982e-01 3.022445e-01 -2.674873e-02 -6.102067e-02 1.649598e-01 3.179565e-01
<VARIANCE> 39
 2.860426e+01 3.663699e+01 3.394716e+01 4.855667e+01 4.422541e+01 4.995158e+01 5.497610e+01 6.108367e+01 6.775182e+01 4.534770e+01 5.038120e+01 4.199841e+01 4.425144e+01 3.331348e+00 3.047580e+00 3.467687e+00 4.363478e+00 4.291515e+00 3.959033e+00 4.552763e+00 5.995544e+00 6.782591e+00 4.099843e+00 4.364647e+00 3.541350e+00 4.251538e+00 3.706769e-01 4.939792e-01 5.921903e-01 7.409502e-01 6.391956e-01 6.808205e-01 7.677520e-01 1.027012e+00 1.250912e+00 7.100068e-01 7.267057e-01 6.110799e-01 4.732170e-01
<GCONST> 1.347511e+02
<STATE> 3
<MEAN> 39
 5.751482e+00 2.767805e+00 1.623752e+00 4.813066e+00 -2.738374e-02 -2.161119e+00 -1.406577e+00 -7.956226e+00 -8.282675e+00 -2.634167e-01 5.395709e-01 -4.377508e+00 -1.670895e+00 9.048724e-02 -2.284053e-03 3.009168e-01 -1.655478e-02 -2.574064e-01 -1.165567e-01 -7.840829e-02 -1.464421e-01 -2.105516e-01 -5.981466e-02 -6.291023e-02 1.745434e-03 2.653039e-01 -1.854061e-01 -3.371979e-01 -1.203611e-01 -5.080225e-01 -1.184957e-01 2.626344e-01 1.210589e-02 6.555948e-01 6.583465e-01 -8.523108e-02 -9.600446e-02 2.674264e-01 3.132626e-01
<VARIANCE> 39
 1.704092e+01 2.833031e+01 3.068347e+01 4.374594e+01 4.222928e+01 4.887530e+01 5.389486e+01 5.820967e+01 6.451364e+01 4.723348e+01 5.475513e+01 4.412408e+01 2.946333e+01 2.422640e+00 3.430793e+00 3.096263e+00 4.840124e+00 3.752656e+00 3.733590e+00 3.892379e+00 6.523970e+00 7.521301e+00 3.770116e+00 3.955271e+00 3.266776e+00 4.074437e+00 3.827187e-01 4.396670e-01 6.223058e-01 7.153646e-01 6.598699e-01 6.724830e-01 7.540025e-01 9.852701e-01 1.216670e+00 7.585910e-01 7.994824e-01 6.428978e-01 3.921613e-01
<GCONST> 1.325620e+02
<STATE> 4
<MEAN> 39
 5.546254e+00 1.811028e+00 1.719392e+00 3.240073e+00 -8.103738e-01 -1.465472e+00 -1.527905e+00 -6.363882e+00 -6.601315e+00 -7.233785e-01 -1.489679e-02 -3.663474e+00 -2.790547e-01 -2.687269e-01 -6.961913e-01 -1.182167e-01 -1.202163e+00 -4.499720e-01 5.200710e-01 2.364334e-02 1.364489e+00 1.264726e+00 -2.756463e-01 -2.314100e-01 5.600298e-01 8.574857e-01 -1.768195e-01 -1.667175e-01 -5.745438e-02 -2.969056e-01 -3.788305e-02 1.722428e-01 7.127726e-02 3.706511e-01 3.063800e-01 5.414165e-03 -5.599855e-03 1.413353e-01 1.276773e-01
<VARIANCE> 39
 1.847252e+01 3.316091e+01 3.798810e+01 5.362160e+01 4.715826e+01 5.064385e+01 5.167276e+01 6.589989e+01 7.054536e+01 4.456225e+01 4.958273e+01 4.012163e+01 3.734344e+01 2.398121e+00 3.515917e+00 4.125075e+00 5.567176e+00 4.623961e+00 4.090459e+00 4.186730e+00 6.324686e+00 7.200503e+00 4.131770e+00 4.189177e+00 3.351615e+00 3.832798e+00 3.341886e-01 5.189751e-01 6.185879e-01 8.470861e-01 6.886711e-01 6.974711e-01 7.083873e-01 1.111369e+00 1.347293e+00 7.239696e-01 7.444059e-01 5.858665e-01 4.273578e-01
<GCONST> 1.346794e+02
<TRANSP> 5
 0.000000e+00 1.000000e+00 0.000000e+00 0.000000e+00 0.000000e+00
 0.000000e+00 4.957376e-01 5.042624e-01 0.000000e+00 0.000000e+00
 0.000000e+00 0.000000e+00 5.109128e-01 4.890872e-01 0.000000e+00
 0.000000e+00 0.000000e+00 0.000000e+00 5.989341e-01 4.010659e-01
 0.000000e+00 0.000000e+00 0.000000e+00 0.000000e+00 0.000000e+00
<ENDHMM>
~h "n"
<BEGINHMM>
<NUMSTATES> 5
<STATE> 2
<MEAN> 39
 5.382115e+00 1.104902e-01 2.405314e+00 6.972565e-01 -3.860406e+00 -1.956101e+00 -3.362585e-01 -2.848949e+00 -4.013757e+00 -8.401683e-01 -3.313999e+00 -2.006983e+00 1.673967e+00 1.021841e-01 9.053684e-01 1.817760e-01 6.933419e-01 -1.059249e-02 -1.818714e-01 4.458963e-01 -1.476735e+00 -7.571350e-01 4.900507e-01 -4.518667e-01 -1.274079e-01 -9.224930e-01 -1.523539e-01 -2.429178e-02 -2.670037e-02 -9.490521e-02 5.666265e-02 1.019103e-01 -1.426780e-02 9.913864e-02 1.447752e-01 -2.601505e-02 1.067196e-01 6.749268e-02 5.230960e-02
<VARIANCE> 39
 1.414027e+01 3.702830e+01 3.527410e+01 4.699191e+01 4.279670e+01 4.200728e+01 5.188745e+01 9.393832e+01 6.093200e+01 5.154305e+01 4.198249e+01 3.777201e+01 3.808674e+01 1.471459e+00 3.309633e+00 3.066852e+00 3.818991e+00 3.716998e+00 3.972658e+00 4.714115e+00 9.114655e+00 5.744398e+00 4.454331e+00 3.569236e+00 3.017804e+00 3.349445e+00 2.541377e-01 5.763001e-01 4.688583e-01 6.759380e-01 6.153520e-01 6.540272e-01 8.690801e-01 1.865582e+00 1.038556e+00 8.413590e-01 6.557609e-01 5.467738e-01 5.052793e-01
<GCONST> 1.323820e+02
<STATE> 3
<MEAN> 39
 5.316508e+00 1.739401e+00 2.658101e+00 1.883572e+00 -3.766289e+00 -2.099760e+00 4.705436e-01 -5.488389e+00 -5.052588e+00 3.561164e-02 -3.991594e+00 -2.030581e+00 3.102205e-02 -2.234388e-01 5.284371e-01 3.250371e-02 2.730548e-01 1.887389e-01 7.535087e-02 1.504905e-01 -4.876822e-01 -1.488398e-01 1.226818e-01 -9.984719e-02 2.743715e-02 -5.289545e-01 -1.983618e-01 -1.983027e-01 -8.977322e-02 -2.195324e-01 1.236172e-01 1.430554e-01 -1.245813e-01 5.128039e-01 3.044313e-01 -1.755830e-01 1.976132e-01 8.256309e-02 1.948509e-01
<VARIANCE> 39
 1.342304e+01 3.558619e+01 3.086579e+01 4.436560e+01 4.023167e+01 3.983633e+01 5.192041e+01 9.280464e+01 6.118572e+01 5.322679e+01 4.289223e+01 3.942104e+01 3.398752e+01 1.544859e+00 4.115682e+00 2.959818e+00 4.015142e+00 3.546499e+00 3.692581e+00 4.836089e+00 1.121139e+01 6.168335e+00 4.667694e+00 3.651497e+00 3.011244e+00 3.854268e+00 2.998879e-01 6.025163e-01 5.095563e-01 6.735089e-01 6.532443e-01 6.726304e-01 8.998495e-01 1.871628e+00 1.112902e+00 8.922061e-01 7.036470e-01 5.923538e-01 4.950116e-01
<GCONST> 1.333055e+02
<STATE> 4
<MEAN> 39
 4.523712e+00 2.139591e+00 2.422435e+00 1.939599e+00 -2.963904e+00 -1.631855e+00 2.922410e-01 -4.712096e+00 -4.451382e+00 -4.620031e-01 -3.709691e+00 -1.733691e+00 -5.664363e-01 -6.351674e-01 6.062118e-02 -2.341653e-01 -1.778267e-01 4.970718e-01 3.587746e-01 -9.439490e-02 6.995485e-01 4.980934e-01 -2.319385e-01 3.580102e-01 1.549827e-01 -1.187749e-01 -2.011759e-01 -1.563578e-01 -9.441370e-02 -1.506589e-01 1.023835e-01 1.099296e-01 -1.257784e-02 3.078811e-01 2.040018e-01 -4.569812e-02 1.676451e-01 6.905293e-02 1.400714e-01
<VARIANCE> 39
 2.002545e+01 4.349524e+01 3.383160e+01 4.626217e+01 4.476507e+01 4.063641e+01 5.218814e+01 8.988689e+01 6.046970e+01 5.039566e+01 4.141049e+01 3.699719e+01 4.505663e+01 2.612369e+00 4.132614e+00 3.188781e+00 4.088152e+00 3.976454e+00 3.761175e+00 4.696629e+00 9.117405e+00 5.696462e+00 4.407516e+00 3.819167e+00 3.100549e+00 3.945537e+00 3.830518e-01 6.316501e-01 5.071888e-01 6.528087e-01 6.662377e-01 6.537552e-01 8.527409e-01 1.680878e+00 1.046729e+00 8.352281e-01 6.815108e-01 5.738410e-01 5.206866e-01
<GCONST> 1.346815e+02
<TRANSP> 5
 0.000000e+00 1.000000e+00 0.000000e+00 0.000000e+00 0.000000e+00
 0.000000e+00 5.227815e-01 4.772185e-01 0.000000e+00 0.000000e+00
 0.000000e+00 0.000000e+00 5.173246e-01 4.826753e-01 0.000000e+00
 0.000000e+00 0.000000e+00 0.000000e+00 5.816923e-01 4.183078e-01
 0.000000e+00 0.000000e+00 0.000000e+00 0.000000e+00 0.000000e+00
<ENDHMM>
~h "p"
<BEGINHMM>
<NUMSTATES> 5
<STATE> 2
<MEAN> 39
 -6.774315e+00 1.981598e+00 -8.803130e-01 5.465930e+00 5.051407e+00 4.108142e+00 4.162746e+00 7.604870e-01 3.215400e+00 2.293501e+00 1.965441e+00 1.646193e+00 -1.154527e+01 7.767678e-01 -1.175735e+00 -4.559049e-01 -1.024040e+00 -3.071609e-01 -4.863547e-01 -1.138643e-01 1.687282e-01 2.444920e-01 3.020647e-02 -7.327076e-02 5.885207e-03 3.292214e+00 6.277273e-01 -8.515848e-03 7.660752e-03 -2.602757e-01 -1.811944e-01 -2.142247e-01 -2.954562e-01 -1.838237e-01 -2.707182e-01 -2.021073e-01 -1.698492e-01 -1.409208e-01 5.876150e-01
<VARIANCE> 39
 2.053872e+01 2.672644e+01 2.253076e+01 3.468246e+01 2.411917e+01 2.832219e+01 2.689756e+01 2.753255e+01 2.867813e+01 2.253512e+01 2.247871e+01 1.745860e+01 1.283037e+02 3.985465e+00 2.598299e+00 2.266233e+00 3.380551e+00 2.788543e+00 3.306597e+00 3.320964e+00 3.257717e+00 3.377583e+00 2.675502e+00 2.425186e+00 2.005994e+00 1.273976e+01 6.887832e-01 5.761734e-01 4.804437e-01 6.897774e-01 5.758132e-01 6.868225e-01 6.623963e-01 6.640402e-01 7.116252e-01 5.507634e-01 5.066705e-01 4.135325e-01 3.010880e+00
<GCONST> 1.252079e+02
<STATE> 3
<MEAN> 39
 -4.330885e+00 -4.726965e-01 -1.745251e+00 2.993505e+00 4.279068e+00 2.787480e+00 3.666822e+00 7.110352e-01 3.292960e+00 2.009446e+00 1.452519e+00 1.355348e+00 -3.453850e+00 1.929538e+00 -1.008887e+00 -5.296414e-01 -1.405782e+00 -6.446767e-01 -7.081252e-01 -6.997482e-01 -1.697443e-01 -2.986104e-01 -3.420842e-01 -3.901456e-01 -2.553437e-01 3.403181e+00 4.332250e-01 1.729601e-01 -1.544369e-02 -9.429274e-02 -1.795819e-01 -3.124518e-02 -3.167859e-01 -1.133660e-01 -2.607632e-01 -1.583735e-01 -8.685894e-02 -9.879501e-02 -3.861539e-01
<VARIANCE> 39
 3.398974e+01 2.956377e+01 3.017321e+01 4.416164e+01 3.180672e+01 3.521190e+01 3.605437e+01 3.180270e+01 3.169694e+01 2.584963e+01 2.488093e+01 1.953763e+01 1.006287e+02 4.755163e+00 3.341573e+00 3.264848e+00 4.143377e+00 3.880704e+00 4.343536e+00 4.697396e+00 3.936343e+00 4.016120e+00 3.088960e+00 2.908489e+00 2.206274e+00 1.070101e+01 7.579061e-01 6.207789e-01 5.187028e-01 7.096262e-01 6.668645e-01 7.350308e-01 7.795141e-01 7.382253e-01 7.901072e-01 6.157924e-01 5.750293e-01 4.518663e-01 2.236160e+00
<GCONST> 1.309341e+02
<STATE> 4
<MEAN> 39
 9.536405e-02 -1.837677e+00 -2.877311e+00 1.692875e-01 2.806096e+00 1.654337e+00 2.023041e+00 1.001758e-01 2.178439e+00 1.038094e+00 4.892048e-01 6.833618e-01 1.508031e+00 2.526352e+00 -5.841553e-01 -5.569012e-01 -1.450207e+00 -1.011753e+00 -6.003373e-01 -1.311907e+00 -2.563522e-01 -6.842396e-01 -5.592582e-01 -4.050590e-01 -3.603469e-01 2.067192e+00 -3.338073e-02 1.385772e-01 6.216149e-02 1.061279e-01 -1.101668e-01 5.797753e-02 -1.728124e-01 4.030051e-02 -6.365772e-02 -2.196994e-02 6.093852e-02 -1.233858e-02 -5.791129e-01
<VARIANCE> 39
 5.816138e+01 3.353020e+01 4.404964e+01 5.916234e+01 4.754384e+01 4.619963e+01 5.574125e+01 4.067073e+01 3.851843e+01 3.101952e+01 2.822495e+01 2.256008e+01 4.533471e+01 5.114856e+00 3.864499e+00 4.405210e+00 4.951449e+00 5.021878e+00 5.317071e+00 6.050179e+00 4.954715e+00 4.993677e+00 3.761013e+00 3.731488e+00 2.637972e+00 6.539190e+00 9.628628e-01 6.842969e-01 5.372849e-01 7.439825e-01 7.600012e-01 7.617908e-01 9.350047e-01 7.992425e-01 8.582526e-01 6.826739e-01 6.114863e-01 4.772018e-01 1.386425e+00
<GCONST> 1.361331e+02
<TRANSP> 5
 0.000000e+00 1.000000e+00 0.000000e+00 0.000000e+00 0.000000e+00
 0.000000e+00 4.925099e-01 5.074901e-01 0.000000e+00 0.000000e+00
 0.000000e+00 0.000000e+00 4.295551e-01 5.704450e-01 0.000000e+00
 0.000000e+00 0.000000e+00 0.000000e+00 4.506067e-01 5.493933e-01
 0.000000e+00 0.000000e+00 0.000000e+00 0.000000e+00 0.000000e+00
<ENDHMM>
~h "q"
<BEGINHMM>
<NUMSTATES> 5
<STATE> 2
<MEAN> 39
 1.117043e+00 -7.623581e-01 -1.582138e+00 -2.275950e+00 -1.982900e+00 5.872764e-01 7.774234e-01 4.630906e-01 1.327902e+00 1.987429e+00 2.760375e-02 -4.343281e-01 -3.307693e+00 3.799583e-01 -1.539393e-01 7.547992e-02 -6.920413e-01 -4.109666e-01 3.226921e-01 4.196382e-01 7.902738e-03 -1.994647e-01 -1.930548e-02 -5.830588e-02 -1.006376e-01 4.066532e-01 1.192098e-01 -7.173909e-02 6.382922e-02 -6.663917e-02 1.080118e-02 -1.993362e-03 -6.455941e-02 -6.330912e-02 -1.197706e-01 -1.320977e-01 -6.753532e-02 -1.705293e-02 3.675147e-01
<VARIANCE> 39
 5.043055e+01 4.162571e+01 7.990121e+01 7.792091e+01 7.420229e+01 7.916344e+01 6.592509e+01 6.406820e+01 6.115234e+01 5.095074e+01 4.792932e+01 3.810904e+01 1.100330e+02 3.278359e+00 3.216678e+00 3.688640e+00 5.278295e+00 4.869594e+00 5.284217e+00 4.998829e+00 5.358941e+00 4.986151e+00 4.283124e+00 3.925841e+00 3.138267e+00 7.561539e+00 5.692629e-01 5.173203e-01 5.450996e-01 8.688025e-01 8.410268e-01 8.320703e-01 8.256684e-01 8.943202e-01 8.788955e-01 7.774005e-01 7.290742e-01 5.774713e-01 1.089403e+00
<GCONST> 1.410104e+02
<STATE> 3
<MEAN> 39
 1.876478e+00 -1.007637e+00 -1.009799e+00 -3.549565e+00 -2.851173e+00 8.296939e-01 1.358479e+00 4.289266e-01 6.751349e-01 1.753914e+00 -2.745726e-01 -6.117493e-01 -2.048717e+00 6.386582e-01 -3.254948e-01 1.736881e-01 -8.214056e-01 -3.911903e-01 2.331990e-01 2.190223e-01 -1.100779e-01 -4.230891e-01 -2.732904e-01 -1.793798e-01 -1.505598e-01 1.179765e+00 6.972966e-02 -5.124513e-02 9.670355e-03 2.337285e-02 8.450383e-02 -1.270405e-02 -1.185679e-01 -5.018624e-02 -4.522527e-02 -9.524433e-02 -1.124043e-02 2.444197e-03 2.662730e-01
<VARIANCE> 39
 4.389966e+01 4.325103e+01 8.548673e+01 7.596967e+01 7.361962e+01 7.890803e+01 6.371384e+01 6.376106e+01 5.986586e+01 5.177114e+01 4.637958e+01 3.708746e+01 9.587738e+01 3.352150e+00 3.231234e+00 3.603858e+00 5.952016e+00 5.006168e+00 5.055908e+00 4.722992e+00 5.205527e+00 4.701385e+00 4.288299e+00 3.896394e+00 3.083107e+00 8.925907e+00 5.150664e-01 5.244941e-01 5.388551e-01 9.247009e-01 8.086199e-01 7.792218e-01 7.705045e-01 8.711150e-01 8.538531e-01 7.807569e-01 7.042155e-01 5.548233e-01 1.149985e+00
<GCONST> 1.405226e+02
<STATE> 4
<MEAN> 39
 3.303910e+00 -1.765937e+00 5.566292e-02 -5.403668e+00 -4.058405e+00 6.588418e-01 1.321785e+00 9.088998e-02 -5.512864e-01 1.113245e+00 -7.649073e-01 -9.281359e-01 1.294599e+00 6.081693e-01 -3.438416e-01 7.847152e-02 -5.017886e-01 -1.192743e-01 1.935992e-01 -5.437389e-03 -1.161491e-01 -3.631019e-01 -3.463553e-01 -8.341713e-02 -1.092772e-01 1.267799e+00 -7.061491e-02 5.159616e-02 -4.857289e-02 2.179436e-01 1.598604e-01 3.101606e-03 -9.108453e-02 -4.732798e-03 7.199017e-02 -9.040590e-04 5.748562e-02 4.185993e-02 -1.028655e-01
<VARIANCE> 39
 3.453801e+01 4.307641e+01 9.216998e+01 7.136808e+01 7.121366e+01 8.007283e+01 6.228730e+01 6.487001e+01 5.734855e+01 5.134680e+01 4.492543e+01 3.515587e+01 7.111417e+01 2.703290e+00 3.012087e+00 3.108081e+00 5.289249e+00 4.325634e+00 4.317344e+00 4.046762e+00 4.527714e+00 4.132000e+00 3.834779e+00 3.480727e+00 2.776613e+00 7.552937e+00 4.062538e-01 4.788710e-01 4.763089e-01 7.906404e-01 6.860616e-01 6.903681e-01 6.874884e-01 7.842512e-01 7.394571e-01 7.033831e-01 6.212987e-01 5.049627e-01 9.761677e-01
<GCONST> 1.363130e+02
<TRANSP> 5
 0.000000e+00 1.000000e+00 0.000000e+00 0.000000e+00 0.000000e+00
 0.000000e+00 3.735696e-01 6.264305e-01 0.000000e+00 0.000000e+00
 0.000000e+00 0.000000e+00 3.759651e-01 6.240349e-01 0.000000e+00
 0.000000e+00 0.000000e+00 0.000000e+00 4.596815e-01 5.403185e-01
 0.000000e+00 0.000000e+00 0.000000e+00 0.000000e+00 0.000000e+00
<ENDHMM>
~h "r"
<BEGINHMM>
<NUMSTATES> 5
<STATE> 2
<MEAN> 39
 1.004468e+01 -5.164900e+00 -7.882289e+00 2.670726e+00 2.677159e+00 -5.551983e+00 -9.388273e+00 3.604672e+00 1.910480e+00 -1.499712e+00 8.895308e-01 1.295630e+00 4.298189e+00 1.134553e+00 -3.786418e-01 -3.618269e-01 2.153445e-01 -1.310259e-01 -8.939236e-01 -1.265652e+00 6.744785e-01 2.496283e-01 -3.561070e-01 -1.096541e-01 7.135259e-02 3.745382e-01 -4.033163e-01 -8.829284e-03 4.331815e-01 -7.066645e-02 -2.760746e-01 1.461519e-01 4.606241e-01 -5.610103e-04 -1.575704e-01 3.837911e-02 2.368766e-02 -4.630753e-02 -5.116237e-02
<VARIANCE> 39
 3.942835e+01 3.664323e+01 6.383685e+01 3.575549e+01 5.346377e+01 6.434351e+01 8.811524e+01 8.923686e+01 6.227325e+01 3.932278e+01 3.347898e+01 3.165408e+01 2.975196e+01 5.035786e+00 2.715819e+00 5.365025e+00 2.877482e+00 4.754216e+00 4.816900e+00 7.215576e+00 5.527622e+00 4.698072e+00 3.536736e+00 2.928616e+00 2.391412e+00 2.156142e+00 6.369109e-01 4.461505e-01 5.902143e-01 4.399489e-01 6.033542e-01 7.448686e-01 1.139386e+00 9.370488e-01 7.303562e-01 5.779164e-01 4.910282e-01 4.148658e-01 2.926396e-01
<GCONST> 1.326326e+02
<STATE> 3
<MEAN> 39
 1.111178e+01 -6.264009e+00 -7.439744e+00 2.991018e+00 1.554587e+00 -7.075993e+00 -1.039321e+01 5.215970e+00 2.086841e+00 -2.037397e+00 7.378280e-01 1.329877e+00 5.174632e+00 -3.254673e-02 -3.669594e-01 9.745727e-01 6.368947e-02 -9.203487e-01 -5.199668e-01 2.564505e-01 5.393623e-01 -3.141693e-01 -2.318715e-01 1.656881e-02 -8.576911e-02 3.120466e-01 -5.000800e-01 1.593184e-01 4.756106e-01 -1.350189e-01 -1.953217e-01 3.292910e-01 6.186735e-01 -2.580516e-01 -2.435516e-01 1.001226e-01 3.931068e-02 -8.586674e-02 -1.265491e-01
<VARIANCE> 39
 2.276694e+01 3.250280e+01 6.474767e+01 3.639618e+01 5.980554e+01 6.802259e+01 9.154693e+01 8.703359e+01 6.695994e+01 4.228083e+01 3.487047e+01 3.246010e+01 2.355286e+01 3.595479e+00 2.890609e+00 5.262568e+00 3.001468e+00 4.610455e+00 4.727444e+00 7.496892e+00 6.065308e+00 4.977851e+00 3.560754e+00 3.127618e+00 2.520679e+00 2.284406e+00 5.006617e-01 4.161196e-01 5.275725e-01 4.650273e-01 6.592870e-01 8.101230e-01 1.128185e+00 1.011198e+00 7.629924e-01 6.036526e-01 5.110545e-01 4.280612e-01 2.688677e-01
<GCONST> 1.321700e+02
<STATE> 4
<MEAN> 39
 9.905609e+00 -6.891546e+00 -3.999715e+00 2.753818e+00 -1.307422e+00 -7.584287e+00 -7.870397e+00 5.869112e+00 6.269965e-01 -2.264132e+00 1.012262e+00 9.195815e-01 5.825101e+00 -9.194070e-01 1.460127e-01 1.808440e+00 -3.326071e-01 -1.152253e+00 3.088953e-01 1.400975e+00 -3.110470e-01 -8.025984e-01 6.412231e-02 5.689314e-02 -3.267439e-01 1.086832e-02 -3.107500e-01 2.925059e-01 1.133065e-01 -1.603096e-01 1.217295e-01 4.031595e-01 2.502140e-01 -3.940592e-01 -5.604938e-02 1.367993e-01 -3.884829e-02 -6.666150e-02 -2.016229e-01
<VARIANCE> 39
 2.285123e+01 3.143931e+01 7.989775e+01 3.985905e+01 6.671082e+01 7.065889e+01 9.299506e+01 7.547927e+01 7.320435e+01 4.768505e+01 3.881055e+01 3.420897e+01 2.544715e+01 2.664647e+00 3.120861e+00 4.075152e+00 3.549099e+00 4.359794e+00 4.772982e+00 5.965841e+00 6.272925e+00 4.817339e+00 3.513681e+00 3.283718e+00 2.655855e+00 2.890114e+00 3.906052e-01 3.824766e-01 5.653343e-01 4.821526e-01 6.911200e-01 7.939473e-01 1.099613e+00 9.051333e-01 7.775952e-01 6.115497e-01 5.371819e-01 4.465133e-01 2.760969e-01
<GCONST> 1.324601e+02
<TRANSP> 5
 0.000000e+00 1.000000e+00 0.000000e+00 0.000000e+00 0.000000e+00
 0.000000e+00 5.556901e-01 4.443099e-01 0.000000e+00 0.000000e+00
 0.000000e+00 0.000000e+00 5.255649e-01 4.744352e-01 0.000000e+00
 0.000000e+00 0.000000e+00 0.000000e+00 5.599099e-01 4.400901e-01
 0.000000e+00 0.000000e+00 0.000000e+00 0.000000e+00 0.000000e+00
<ENDHMM>
~h "s"
<BEGINHMM>
<NUMSTATES> 5
<STATE> 2
<MEAN> 39
 -1.416685e+01 7.208728e+00 -1.605425e+00 9.345487e-01 6.666758e+00 -1.102951e+00 4.197277e+00 1.768901e+00 1.532712e+00 7.412120e-01 -2.613770e-01 1.914046e+00 3.516786e+00 -2.659833e+00 9.315351e-01 -5.770575e-01 8.527257e-02 1.086394e+00 5.228442e-01 8.052896e-01 4.166616e-01 2.342513e-01 1.863267e-01 3.861620e-01 3.909010e-01 9.457777e-02 4.956885e-01 -3.371862e-01 6.680626e-02 -5.366810e-02 -2.815365e-01 -1.771889e-02 -2.526983e-01 -5.873592e-02 -7.049146e-02 1.157324e-04 -1.636095e-02 -8.367915e-02 -4.230404e-02
<VARIANCE> 39
 8.207407e+01 3.103025e+01 3.594529e+01 4.508217e+01 4.510974e+01 4.214928e+01 4.128322e+01 3.298047e+01 3.040664e+01 2.705919e+01 3.052209e+01 2.107530e+01 1.987612e+01 7.711932e+00 3.528350e+00 3.079737e+00 3.289200e+00 3.902585e+00 3.605047e+00 4.062388e+00 3.205063e+00 2.895598e+00 2.749967e+00 2.758910e+00 2.247006e+00 1.749402e+00 1.081893e+00 4.829405e-01 5.010328e-01 5.118967e-01 5.922155e-01 6.168494e-01 6.577475e-01 5.702459e-01 4.850003e-01 5.045441e-01 4.792483e-01 3.970490e-01 2.924222e-01
<GCONST> 1.248398e+02
<STATE> 3
<MEAN> 39
 -1.803508e+01 7.963107e+00 -2.860537e+00 1.091903e+00 7.824786e+00 1.281540e-02 5.006127e+00 2.315668e+00 1.926787e+00 1.161846e+00 5.594479e-01 2.383673e+00 3.607120e+00 -4.561273e-01 -5.830960e-02 -1.085662e-01 -4.163545e-02 1.080232e-01 1.555178e-01 -2.106997e-02 7.635517e-02 9.366888e-02 9.912766e-02 1.275870e-01 4.361152e-02 -5.578512e-02 7.456799e-01 -2.957020e-01 1.942437e-01 -3.760805e-02 -2.985988e-01 -1.187764e-01 -2.670678e-01 -1.210721e-01 -4.909191e-02 -4.009067e-02 -9.320488e-02 -1.184948e-01 -8.984830e-02
<VARIANCE> 39
 3.425738e+01 2.659196e+01 3.092156e+01 5.022733e+01 3.940235e+01 3.969211e+01 3.623087e+01 2.953030e+01 2.864023e+01 2.316398e+01 2.872517e+01 1.829115e+01 1.593620e+01 7.099186e+00 2.237777e+00 2.088065e+00 2.153669e+00 2.800193e+00 2.664275e+00 2.921180e+00 2.308804e+00 2.083037e+00 2.042199e+00 2.035918e+00 1.719910e+00 1.259752e+00 6.389657e-01 3.618110e-01 3.855551e-01 4.285903e-01 4.732351e-01 5.111750e-01 5.560839e-01 4.691133e-01 4.274510e-01 4.183798e-01 4.003893e-01 3.404246e-01 2.588393e-01
<GCONST> 1.157259e+02
<STATE> 4
<MEAN> 39
 -1.556318e+01 6.386438e+00 -2.431527e+00 1.015358e+00 6.621023e+00 -1.009555e-02 3.808729e+00 1.909183e+00 2.159089e+00 1.205195e+00 5.457380e-01 1.882983e+00 2.654361e+00 1.768639e+00 -7.877033e-01 4.973708e-01 -1.435912e-01 -7.267489e-01 -1.977379e-01 -7.661719e-01 -3.016106e-01 -4.491699e-02 -6.080030e-02 -1.448110e-01 -2.980402e-01 -3.414715e-01 5.276228e-01 -1.893622e-01 1.393040e-01 -9.581175e-03 -2.227281e-01 -3.001856e-02 -1.886240e-01 -8.232062e-02 -6.663352e-02 -3.152401e-02 -3.195059e-02 -7.832418e-02 -1.155281e-01
<VARIANCE> 39
 6.140258e+01 3.234699e+01 3.275114e+01 5.083770e+01 4.328720e+01 4.343084e+01 4.272473e+01 3.105981e+01 3.020375e+01 2.425884e+01 3.058086e+01 2.014637e+01 2.808524e+01 7.446846e+00 2.542365e+00 2.739474e+00 2.977376e+00 3.693821e+00 3.624076e+00 4.162850e+00 2.891750e+00 2.613678e+00 2.348793e+00 2.395009e+00 2.024575e+00 2.647117e+00 8.691847e-01 3.883381e-01 4.285917e-01 4.908518e-01 5.530139e-01 6.026431e-01 7.108809e-01 5.293171e-01 4.754192e-01 4.525053e-01 4.600498e-01 3.677625e-01 5.023941e-01
<GCONST> 1.235400e+02
<TRANSP> 5
 0.000000e+00 1.000000e+00 0.000000e+00 0.000000e+00 0.000000e+00
 0.000000e+00 7.093757e-01 2.906243e-01 0.000000e+00 0.000000e+00
 0.000000e+00 0.000000e+00 6.795039e-01 3.204961e-01 0.000000e+00
 0.000000e+00 0.000000e+00 0.000000e+00 7.502542e-01 2.497459e-01
 0.000000e+00 0.000000e+00 0.000000e+00 0.000000e+00 0.000000e+00
<ENDHMM>
~h "t"
<BEGINHMM>
<NUMSTATES> 5
<STATE> 2
<MEAN> 39
 -9.778522e+00 1.696452e+00 6.771141e-01 3.007834e+00 4.366931e+00 3.055069e+00 3.957785e+00 1.002344e+00 2.413500e+00 1.677248e+00 2.026336e+00 2.222602e+00 -8.040814e+00 8.485169e-03 -9.784366e-01 -2.395961e-01 -1.204104e+00 -6.164089e-01 -6.764582e-01 1.381861e-01 3.426328e-01 1.111212e-01 1.914297e-03 8.747484e-02 2.611668e-01 3.082780e+00 4.245650e-01 1.229489e-01 1.532367e-01 -6.602237e-02 -2.913189e-01 -4.008425e-01 -2.230654e-01 -7.925919e-02 -2.076181e-01 -1.624872e-01 -2.138379e-01 -1.323393e-01 5.850397e-01
<VARIANCE> 39
 2.807725e+01 4.127392e+01 3.213628e+01 5.406942e+01 3.608413e+01 3.871508e+01 3.240229e+01 3.061938e+01 3.087562e+01 2.504885e+01 2.674260e+01 1.964375e+01 1.601949e+02 4.786061e+00 4.132113e+00 3.468476e+00 5.988230e+00 4.140320e+00 4.562016e+00 3.589228e+00 3.397209e+00 3.282717e+00 2.869057e+00 2.783169e+00 2.272327e+00 1.826325e+01 8.558381e-01 9.070796e-01 7.343847e-01 1.453214e+00 8.880203e-01 9.274697e-01 7.483250e-01 7.215641e-01 6.740564e-01 5.935372e-01 5.726545e-01 4.804086e-01 4.779589e+00
<GCONST> 1.351344e+02
<STATE> 3
<MEAN> 39
 -9.372416e+00 2.710690e-01 5.787517e-01 5.106463e-01 2.618629e+00 7.373812e-01 4.009175e+00 1.458670e+00 2.109423e+00 1.223516e+00 1.655863e+00 2.477457e+00 -3.007568e-01 1.075537e+00 -4.879457e-01 1.475173e-01 -6.408646e-01 -9.536207e-01 -1.175652e+00 -3.516177e-01 1.292889e-01 -2.444048e-01 -3.204491e-01 -3.985988e-01 -1.286559e-01 2.539690e+00 6.254587e-01 1.348412e-01 1.392129e-01 2.852212e-01 -1.205380e-01 -6.420784e-02 -3.203718e-01 -1.155789e-01 -1.528726e-01 -1.054367e-01 -1.689350e-01 -1.965031e-01 -5.748414e-01
<VARIANCE> 39
 3.625378e+01 3.700380e+01 3.374701e+01 4.487182e+01 3.952801e+01 4.231942e+01 3.718071e+01 3.212879e+01 3.100395e+01 2.739236e+01 2.913704e+01 2.130519e+01 1.093812e+02 6.418426e+00 3.666347e+00 3.689258e+00 5.731616e+00 4.404212e+00 4.553415e+00 4.463401e+00 3.555770e+00 3.417209e+00 3.069788e+00 3.008934e+00 2.524563e+00 1.503704e+01 9.356178e-01 7.942947e-01 7.458114e-01 1.156102e+00 8.707372e-01 9.599379e-01 8.674068e-01 7.442467e-01 6.760113e-01 6.296753e-01 6.147302e-01 5.098795e-01 3.039821e+00
<GCONST> 1.356763e+02
<STATE> 4
<MEAN> 39
 -6.121192e+00 -2.828730e-01 1.169391e+00 4.374827e-01 8.491426e-01 -1.426420e+00 3.021655e+00 1.425738e+00 1.419100e+00 3.353900e-01 3.901737e-01 1.752297e+00 2.342853e+00 2.376899e+00 -4.436213e-01 2.655272e-01 -7.022119e-02 -1.036546e+00 -9.289137e-01 -1.035077e+00 -9.230579e-02 -4.426904e-01 -4.393173e-01 -5.662717e-01 -4.771645e-01 8.461503e-01 3.510074e-01 -3.438174e-02 -1.266612e-02 7.708874e-02 -7.096975e-03 1.919587e-01 -2.621847e-01 -6.637355e-02 -6.373870e-02 5.655614e-03 4.256621e-02 -9.249727e-02 -5.089672e-01
<VARIANCE> 39
 5.886572e+01 3.298633e+01 3.670337e+01 3.782350e+01 4.503654e+01 4.224765e+01 4.615232e+01 3.453479e+01 3.331158e+01 3.053321e+01 3.089643e+01 2.325365e+01 6.030212e+01 6.839465e+00 3.578067e+00 4.375345e+00 4.764059e+00 5.103443e+00 5.187655e+00 5.710854e+00 4.188922e+00 4.068925e+00 3.536139e+00 3.454102e+00 2.778956e+00 8.265172e+00 1.117674e+00 6.441572e-01 6.676979e-01 9.159802e-01 8.294504e-01 8.377004e-01 9.542854e-01 7.399672e-01 6.745348e-01 6.490097e-01 6.333703e-01 5.168023e-01 1.726162e+00
<GCONST> 1.358070e+02
<TRANSP> 5
 0.000000e+00 1.000000e+00 0.000000e+00 0.000000e+00 0.000000e+00
 0.000000e+00 5.257893e-01 4.742108e-01 0.000000e+00 0.000000e+00
 0.000000e+00 0.000000e+00 4.590389e-01 5.409610e-01 0.000000e+00
 0.000000e+00 0.000000e+00 0.000000e+00 4.671880e-01 5.328121e-01
 0.000000e+00 0.000000e+00 0.000000e+00 0.000000e+00 0.000000e+00
<ENDHMM>
~h "v"
<BEGINHMM>
<NUMSTATES> 5
<STATE> 2
<MEAN> 39
 4.658033e+00 -7.077560e-01 -7.980961e-01 2.407336e-01 -7.090103e-01 -1.619365e+00 -3.334655e+00 -1.870038e+00 -1.990304e-01 2.409552e-01 1.412020e-01 -1.125851e+00 2.339273e+00 -5.335101e-01 5.759510e-01 -1.944822e-01 4.216862e-01 5.710211e-01 1.556614e-01 9.661400e-02 -3.104059e-01 -6.912265e-02 -8.362385e-02 3.554892e-02 3.795067e-02 -6.174828e-01 -6.958867e-02 -5.078048e-02 5.761528e-02 -7.466103e-02 -5.515232e-02 1.196948e-02 6.452323e-02 1.205584e-01 1.698290e-02 -1.653112e-02 -4.894890e-02 2.868713e-02 9.508826e-02
<VARIANCE> 39
 4.486615e+01 4.109665e+01 3.876023e+01 4.531073e+01 3.788742e+01 4.237673e+01 4.584508e+01 4.754028e+01 3.784557e+01 3.204628e+01 2.984608e+01 2.881050e+01 4.201496e+01 4.532931e+00 3.961131e+00 2.757694e+00 3.896962e+00 3.801281e+00 3.446312e+00 4.023051e+00 4.547608e+00 3.390063e+00 3.059134e+00 2.880483e+00 2.452820e+00 3.862634e+00 8.571939e-01 6.707546e-01 4.464121e-01 6.126331e-01 5.970857e-01 5.744781e-01 7.362319e-01 7.429690e-01 5.757186e-01 5.501069e-01 5.028169e-01 4.284165e-01 5.500778e-01
<GCONST> 1.289127e+02
<STATE> 3
<MEAN> 39
 3.539527e+00 2.561609e-01 -9.912219e-01 8.751471e-01 2.183150e-01 -1.301165e+00 -3.025368e+00 -2.230660e+00 -3.255749e-01 6.724160e-02 7.357015e-02 -1.003662e+00 1.355283e+00 -4.530299e-01 3.105680e-01 -1.118001e-01 1.942982e-01 3.535611e-01 8.648301e-02 1.884086e-01 1.823959e-03 9.223027e-03 -1.011166e-01 -6.206950e-02 9.424655e-02 -2.924320e-01 1.060956e-01 -1.766047e-01 3.936345e-02 -1.386905e-01 -1.402114e-01 -4.992412e-02 1.333489e-02 1.750126e-01 4.238237e-02 1.126084e-03 -2.424551e-02 2.960175e-02 1.881471e-01
<VARIANCE> 39
 4.950571e+01 3.850650e+01 3.738924e+01 4.303963e+01 3.558760e+01 3.935457e+01 4.366747e+01 4.372235e+01 3.430047e+01 3.074224e+01 2.769104e+01 2.744698e+01 3.898334e+01 5.219872e+00 4.117256e+00 2.679967e+00 3.939254e+00 3.686463e+00 3.507328e+00 4.122952e+00 4.316307e+00 3.183743e+00 2.862837e+00 2.661802e+00 2.305950e+00 4.021731e+00 9.671401e-01 6.702895e-01 4.782337e-01 6.247770e-01 6.128885e-01 5.992568e-01 7.735505e-01 7.540226e-01 5.913313e-01 5.582115e-01 5.026291e-01 4.092349e-01 5.722692e-01
<GCONST> 1.285189e+02
<STATE> 4
<MEAN> 39
 2.911023e+00 4.896944e-01 -1.113073e+00 9.585764e-01 5.620027e-01 -1.314867e+00 -2.583191e+00 -1.919484e+00 -1.691705e-01 -1.136929e-01 -1.382581e-01 -7.516159e-01 1.166205e+00 -5.604924e-02 -9.692211e-02 -9.970631e-02 -1.197379e-01 3.900981e-02 -7.775066e-02 1.367285e-01 3.145473e-01 1.186678e-01 -8.058228e-02 -5.058005e-02 1.424032e-01 1.074143e-01 1.647286e-01 -1.620298e-01 2.974956e-02 -1.216138e-01 -1.354496e-01 -4.227229e-02 -4.794892e-02 1.126475e-01 1.406427e-02 1.527976e-02 1.856446e-02 1.143119e-02 1.350974e-01
<VARIANCE> 39
 5.462412e+01 3.887674e+01 4.124266e+01 4.395614e+01 3.788397e+01 4.207921e+01 4.567129e+01 4.466809e+01 3.435405e+01 3.090359e+01 2.679887e+01 2.749152e+01 4.087604e+01 6.080647e+00 3.988322e+00 2.998354e+00 4.133450e+00 3.896120e+00 3.799975e+00 4.716231e+00 4.163633e+00 3.286727e+00 2.908795e+00 2.653998e+00 2.228262e+00 4.078854e+00 9.342526e-01 6.374796e-01 4.770679e-01 6.306748e-01 6.252816e-01 6.321313e-01 7.853789e-01 7.503765e-01 6.060658e-01 5.497244e-01 4.814229e-01 3.971238e-01 5.868034e-01
<GCONST> 1.294717e+02
<TRANSP> 5
 0.000000e+00 1.000000e+00 0.000000e+00 0.000000e+00 0.000000e+00
 0.000000e+00 4.219774e-01 5.780227e-01 0.000000e+00 0.000000e+00
 0.000000e+00 0.000000e+00 4.154717e-01 5.845283e-01 0.000000e+00
 0.000000e+00 0.000000e+00 0.000000e+00 4.857700e-01 5.142300e-01
 0.000000e+00 0.000000e+00 0.000000e+00 0.000000e+00 0.000000e+00
<ENDHMM>
~h "w"
<BEGINHMM>
<NUMSTATES> 5
<STATE> 2
<MEAN> 39
 8.322732e+00 5.062682e+00 -4.595365e+00 -6.869787e+00 -3.103170e+00 4.388055e+00 4.191168e-01 -2.714864e+00 -4.385939e+00 -1.020045e+00 1.111064e+00 3.460323e-02 -3.116420e+00 1.280643e+00 4.710860e-01 -3.199631e-01 -1.579053e+00 -9.764190e-01 5.969476e-01 3.065690e-01 -1.031613e-01 -3.528769e-01 -2.545551e-01 1.402109e-01 3.745284e-02 5.142518e-01 -2.057062e-01 -3.622435e-01 1.274987e-01 9.870706e-02 5.663731e-02 -1.219382e-01 -1.502706e-01 1.026379e-01 1.833406e-01 1.474711e-01 2.256213e-02 -3.717178e-02 3.208986e-01
<VARIANCE> 39
 4.145324e+01 4.237928e+01 2.934314e+01 6.625920e+01 6.101841e+01 4.348198e+01 5.099040e+01 3.802481e+01 4.981499e+01 3.991127e+01 3.315521e+01 2.718201e+01 4.060229e+01 3.775302e+00 4.073427e+00 2.872249e+00 4.582562e+00 5.068649e+00 4.196083e+00 4.980301e+00 4.170777e+00 4.871192e+00 4.129549e+00 3.402960e+00 2.743372e+00 3.385514e+00 4.372665e-01 5.624192e-01 4.979294e-01 7.737874e-01 9.227632e-01 7.570831e-01 8.485331e-01 7.609971e-01 8.163650e-01 7.787482e-01 6.397820e-01 5.275945e-01 3.719708e-01
<GCONST> 1.324525e+02
<STATE> 3
<MEAN> 39
 1.035048e+01 4.357232e+00 -5.302901e+00 -9.911870e+00 -4.488633e+00 5.664713e+00 5.525030e-01 -2.714442e+00 -4.496572e+00 -8.200322e-01 1.736851e+00 3.581733e-02 -7.467316e-01 7.434089e-01 -6.638404e-01 -2.478559e-01 -9.786046e-01 -2.995577e-01 3.532657e-01 -3.449953e-01 -5.924705e-02 9.684305e-02 3.589872e-01 2.815158e-01 -1.325453e-01 1.233647e+00 -3.545883e-01 -4.030909e-01 9.340835e-02 3.809753e-01 2.668628e-01 -2.121678e-01 -1.782831e-01 1.186946e-01 2.973038e-01 1.858477e-01 -5.283806e-02 -8.884528e-02 1.603937e-01
<VARIANCE> 39
 2.310048e+01 4.264495e+01 2.868920e+01 5.868093e+01 5.612504e+01 4.837247e+01 5.307762e+01 3.897775e+01 4.870352e+01 4.548116e+01 3.727406e+01 2.919000e+01 3.463319e+01 3.072664e+00 3.973794e+00 2.407242e+00 5.341799e+00 5.499989e+00 4.560287e+00 5.380449e+00 4.029006e+00 4.867854e+00 4.660950e+00 3.827331e+00 3.067102e+00 2.794111e+00 4.192882e-01 5.104924e-01 4.121627e-01 7.084908e-01 8.065709e-01 7.895620e-01 7.976797e-01 7.773601e-01 8.566273e-01 8.327513e-01 7.104611e-01 5.686090e-01 3.185197e-01
<GCONST> 1.316569e+02
<STATE> 4
<MEAN> 39
 1.076246e+01 1.595196e-02 -6.388025e+00 -1.058468e+01 -3.067387e+00 6.436893e+00 -1.329043e+00 -2.659365e+00 -2.673398e+00 1.351061e+00 2.483618e+00 -1.058303e+00 3.632018e+00 -1.681034e-01 -1.366235e+00 8.778235e-02 4.859458e-01 4.134898e-01 -5.705532e-01 -6.747394e-01 3.676600e-01 8.666716e-01 5.276861e-01 -1.767710e-01 -4.557391e-01 1.225240e+00 -2.849674e-01 3.021299e-02 2.063519e-01 3.645251e-01 1.113088e-02 -3.013617e-01 1.210231e-01 1.950702e-01 1.357722e-01 -1.651441e-01 -1.947758e-01 4.413459e-03 -1.533010e-01
<VARIANCE> 39
 1.365618e+01 4.980923e+01 3.644951e+01 5.825925e+01 5.919028e+01 7.037831e+01 7.742262e+01 4.758442e+01 5.717385e+01 5.968722e+01 4.860937e+01 3.643298e+01 3.123708e+01 1.487033e+00 2.575680e+00 2.619401e+00 4.955789e+00 4.591060e+00 5.879185e+00 5.305283e+00 4.596243e+00 4.567375e+00 4.755095e+00 4.203940e+00 3.281473e+00 1.696002e+00 2.993733e-01 4.824807e-01 3.682079e-01 6.219745e-01 7.950893e-01 8.154591e-01 9.561414e-01 8.170258e-01 9.211493e-01 9.691738e-01 7.983883e-01 6.463400e-01 2.400820e-01
<GCONST> 1.317987e+02
<TRANSP> 5
 0.000000e+00 1.000000e+00 0.000000e+00 0.000000e+00 0.000000e+00
 0.000000e+00 5.823312e-01 4.176688e-01 0.000000e+00 0.000000e+00
 0.000000e+00 0.000000e+00 5.694187e-01 4.305812e-01 0.000000e+00
 0.000000e+00 0.000000e+00 0.000000e+00 6.871718e-01 3.128283e-01
 0.000000e+00 0.000000e+00 0.000000e+00 0.000000e+00 0.000000e+00
<ENDHMM>
~h "y"
<BEGINHMM>
<NUMSTATES> 5
<STATE> 2
<MEAN> 39
 6.350387e-01 2.719991e+00 1.681679e+01 -1.739581e+00 -8.730387e+00 -1.709676e+00 -4.146426e+00 -3.656679e+00 -7.459615e+00 -1.513333e+00 4.531518e-01 -4.984773e-01 2.022043e+00 2.487290e-01 -2.760521e-01 4.021772e-01 1.169201e-01 -5.925134e-01 -3.296451e-01 2.419158e-03 1.594761e-01 -3.764276e-01 -1.229513e-01 3.196610e-01 8.919547e-02 2.794475e-01 8.813319e-02 -1.296132e-01 -4.179118e-01 5.688365e-02 1.793561e-01 -1.019556e-01 8.032685e-03 1.361580e-01 2.105973e-01 7.023134e-02 4.595149e-03 2.662809e-02 1.718041e-02
<VARIANCE> 39
 1.447025e+01 3.487720e+01 3.373449e+01 4.458622e+01 3.705714e+01 4.002132e+01 3.691781e+01 4.285283e+01 3.560925e+01 4.180617e+01 3.063688e+01 2.260161e+01 2.345139e+01 1.409532e+00 1.910164e+00 3.707757e+00 1.840100e+00 2.897915e+00 3.424281e+00 2.642908e+00 2.880758e+00 2.734960e+00 2.291856e+00 1.709517e+00 1.462167e+00 1.443444e+00 1.654134e-01 2.079172e-01 3.673137e-01 3.373735e-01 5.022523e-01 5.162464e-01 4.120579e-01 4.418967e-01 4.499639e-01 3.869609e-01 2.989517e-01 2.575107e-01 1.651694e-01
<GCONST> 1.126163e+02
<STATE> 3
<MEAN> 39
 3.363109e+00 -1.826901e+00 1.332854e+01 1.417127e+00 -1.042976e+01 -6.351110e+00 -3.233802e+00 5.539785e-01 -7.407463e+00 -2.465043e+00 2.761876e+00 6.926292e-01 4.282201e+00 7.939465e-01 -7.865536e-01 -1.349120e+00 6.097519e-01 2.786945e-01 -1.193307e+00 -3.655219e-01 1.179829e+00 4.655370e-01 -2.472960e-01 2.678340e-01 3.465819e-01 3.232363e-01 -1.110523e-02 7.768564e-02 -3.555833e-01 -1.317617e-02 3.741586e-01 1.145413e-01 -1.264203e-01 1.201253e-03 3.112572e-01 1.202496e-02 -1.654615e-01 -1.496033e-03 -1.242574e-01
<VARIANCE> 39
 1.651360e+01 2.681071e+01 4.992109e+01 4.335484e+01 3.219842e+01 5.190144e+01 4.437932e+01 5.206855e+01 4.319629e+01 5.237580e+01 3.206067e+01 2.534570e+01 1.761678e+01 9.725663e-01 1.359889e+00 2.907398e+00 1.682974e+00 3.045799e+00 3.064034e+00 3.329492e+00 3.264697e+00 3.093611e+00 2.344985e+00 1.989404e+00 1.610878e+00 9.807364e-01 1.542736e-01 2.133783e-01 3.717296e-01 3.074114e-01 4.601797e-01 5.630208e-01 4.803924e-01 5.435224e-01 4.733739e-01 4.394951e-01 3.471744e-01 2.729298e-01 1.207802e-01
<GCONST> 1.132071e+02
<STATE> 4
<MEAN> 39
 6.567484e+00 -4.396706e+00 5.433281e+00 4.079504e+00 -6.618802e+00 -1.049123e+01 -5.772978e+00 5.572601e+00 -2.988188e+00 -3.719249e+00 2.544120e+00 2.248088e+00 4.422404e+00 6.547908e-01 -2.138952e-01 -1.963002e+00 2.979519e-01 1.298279e+00 -3.147643e-01 -8.156755e-01 5.762328e-01 1.287359e+00 -1.575167e-02 -4.700986e-01 1.119227e-01 -1.407425e-01 -1.372112e-01 2.247173e-01 3.612671e-02 -1.239008e-01 1.450531e-01 3.837188e-01 8.462217e-02 -3.611041e-01 4.000032e-02 1.282023e-01 -1.344489e-01 -1.213341e-01 -1.565088e-01
<VARIANCE> 39
 1.631839e+01 2.307127e+01 7.606154e+01 3.726983e+01 4.796508e+01 5.265111e+01 6.394290e+01 5.624694e+01 6.175661e+01 4.788124e+01 3.152206e+01 2.875191e+01 1.932516e+01 7.799430e-01 1.367288e+00 2.571919e+00 1.731247e+00 2.559377e+00 3.049425e+00 3.251482e+00 3.554519e+00 3.089537e+00 2.746054e+00 2.056469e+00 1.773551e+00 7.298532e-01 1.302474e-01 1.917732e-01 3.451093e-01 2.854598e-01 4.451622e-01 5.299405e-01 5.520125e-01 5.371199e-01 5.180233e-01 4.379666e-01 3.580956e-01 2.798445e-01 1.065227e-01
<GCONST> 1.138289e+02
<TRANSP> 5
 0.000000e+00 1.000000e+00 0.000000e+00 0.000000e+00 0.000000e+00
 0.000000e+00 8.570354e-01 1.429645e-01 0.000000e+00 0.000000e+00
 0.000000e+00 0.000000e+00 6.698272e-01 3.301728e-01 0.000000e+00
 0.000000e+00 0.000000e+00 0.000000e+00 7.213136e-01 2.786864e-01
 0.000000e+00 0.000000e+00 0.000000e+00 0.000000e+00 0.000000e+00
<ENDHMM>
~h "z"
<BEGINHMM>
<NUMSTATES> 5
<STATE> 2
<MEAN> 39
 -8.234132e+00 8.462006e+00 1.945779e+00 2.830336e-01 4.674144e+00 -4.412858e+00 -5.950032e-01 -1.000061e+00 2.656718e-01 2.226378e-03 -1.619384e+00 1.161010e+00 2.662234e+00 -2.824355e+00 1.161817e+00 -5.562701e-01 1.237907e-01 1.465340e+00 5.981528e-01 9.357277e-01 4.959966e-01 3.818237e-01 9.192951e-02 2.508306e-01 2.483890e-01 -1.386580e-01 3.155974e-01 -4.518824e-01 -1.994774e-02 -1.862194e-02 -2.728817e-01 1.498755e-01 -2.408917e-02 1.103702e-01 -2.710359e-02 4.038006e-02 6.954458e-02 -5.534244e-02 1.725363e-02
<VARIANCE> 39
 9.758515e+01 4.287697e+01 3.872683e+01 4.454823e+01 6.238445e+01 5.341678e+01 5.406386e+01 4.201159e+01 3.230202e+01 3.196352e+01 2.832153e+01 2.296713e+01 1.964073e+01 7.830803e+00 5.417113e+00 3.058826e+00 3.938871e+00 4.830000e+00 4.763116e+00 4.661160e+00 4.204468e+00 3.256833e+00 2.964468e+00 2.785569e+00 2.526850e+00 1.370515e+00 1.479563e+00 7.420380e-01 4.989693e-01 5.682320e-01 8.110076e-01 8.634387e-01 8.206162e-01 7.624254e-01 5.350644e-01 5.477957e-01 4.843400e-01 4.447599e-01 2.050966e-01
<GCONST> 1.302467e+02
<STATE> 3
<MEAN> 39
 -1.312253e+01 9.038668e+00 2.227827e-01 7.738979e-01 6.582027e+00 -2.400836e+00 1.454051e+00 3.991983e-01 1.137349e+00 2.819088e-01 -7.265062e-01 1.446149e+00 2.375174e+00 -6.515766e-01 -3.711839e-01 -4.249191e-01 4.610567e-02 1.898377e-01 4.679999e-01 3.653968e-01 3.793709e-01 2.823346e-01 1.667310e-01 2.385588e-01 2.291912e-02 -8.825457e-02 8.885059e-01 -4.831701e-01 1.065230e-01 -6.523859e-02 -4.558534e-01 -1.167411e-01 -2.717822e-01 -1.100995e-01 -6.777373e-02 1.078816e-02 -4.488261e-02 -8.375463e-02 -1.566797e-02
<VARIANCE> 39
 6.869611e+01 3.823834e+01 3.705779e+01 4.843592e+01 5.042563e+01 5.048348e+01 5.091715e+01 4.029961e+01 3.051288e+01 2.908598e+01 2.813400e+01 2.035852e+01 1.763978e+01 1.202435e+01 4.333808e+00 2.599461e+00 3.069012e+00 4.926453e+00 4.677424e+00 4.795045e+00 3.601402e+00 2.830259e+00 2.589711e+00 2.391970e+00 2.138209e+00 1.486187e+00 1.213054e+00 6.682330e-01 4.815567e-01 5.770714e-01 7.005820e-01 8.718247e-01 8.277017e-01 7.347751e-01 5.435228e-01 5.228978e-01 4.734621e-01 4.279557e-01 2.674362e-01
<GCONST> 1.279036e+02
<STATE> 4
<MEAN> 39
 -1.116922e+01 6.197386e+00 -8.754807e-01 8.878723e-01 5.249606e+00 -1.627969e+00 1.332923e+00 7.801551e-01 1.726325e+00 5.598298e-01 -1.528298e-01 1.203834e+00 1.356215e+00 1.547809e+00 -1.129813e+00 -8.545149e-02 -6.229977e-02 -7.561700e-01 5.984730e-02 -3.458263e-01 -3.379637e-02 6.654130e-02 7.266759e-02 5.694720e-02 -1.572675e-01 -3.575080e-01 4.840366e-01 -1.370546e-01 1.156843e-01 -1.406980e-02 -2.025813e-01 -3.703334e-02 -1.411731e-01 -9.349004e-02 -9.094840e-02 -3.224361e-02 -4.233052e-02 -4.719068e-02 -1.157166e-01
<VARIANCE> 39
 8.388268e+01 4.369494e+01 3.555188e+01 4.919017e+01 4.979605e+01 5.176439e+01 5.101661e+01 3.875310e+01 3.244575e+01 2.960478e+01 3.040035e+01 2.138885e+01 3.454084e+01 8.844094e+00 3.435178e+00 2.863588e+00 3.300897e+00 4.407112e+00 4.661598e+00 4.653936e+00 3.716513e+00 3.020993e+00 2.765100e+00 2.629910e+00 2.215748e+00 2.718547e+00 1.337078e+00 6.079797e-01 4.635951e-01 5.666311e-01 7.143587e-01 8.502148e-01 8.421703e-01 6.954952e-01 5.520660e-01 5.177605e-01 4.951980e-01 4.130433e-01 4.283533e-01
<GCONST> 1.298354e+02
<TRANSP> 5
 0.000000e+00 1.000000e+00 0.000000e+00 0.000000e+00 0.000000e+00
 0.000000e+00 6.839325e-01 3.160675e-01 0.000000e+00 0.000000e+00
 0.000000e+00 0.000000e+00 6.263908e-01 3.736092e-01 0.000000e+00
 0.000000e+00 0.000000e+00 0.000000e+00 6.708666e-01 3.291334e-01
 0.000000e+00 0.000000e+00 0.000000e+00 0.000000e+00 0.000000e+00
<ENDHMM>
~h "aa"
<BEGINHMM>
<NUMSTATES> 5
<STATE> 2
<MEAN> 39
 7.852377e+00 -8.303123e+00 -8.851755e+00 -5.828242e+00 2.160045e+00 5.466519e+00 1.189663e-01 1.754970e-01 2.947422e+00 5.730807e-01 -5.097384e-01 -4.258802e+00 9.270733e+00 8.464431e-01 -9.914448e-01 -1.059824e+00 -4.598792e-01 5.680192e-01 6.907865e-01 3.747969e-02 -1.030587e-01 1.510771e-01 -1.662236e-01 -8.845504e-02 -5.349345e-01 7.366478e-01 -2.933222e-01 2.607872e-01 2.185957e-01 2.348574e-01 3.838361e-02 -1.230642e-01 5.682241e-02 -3.533030e-02 -1.053870e-01 -5.008581e-02 4.883630e-02 2.336200e-01 -2.965944e-01
<VARIANCE> 39
 2.549581e+01 2.923591e+01 3.280003e+01 4.776573e+01 4.549597e+01 6.439951e+01 6.016120e+01 5.982120e+01 4.414847e+01 4.180751e+01 4.385107e+01 3.655305e+01 3.655867e+01 3.081828e+00 2.479078e+00 2.974302e+00 4.083702e+00 3.280767e+00 4.623250e+00 4.364836e+00 4.123324e+00 3.369541e+00 2.895441e+00 3.101075e+00 2.955575e+00 2.352307e+00 4.660254e-01 3.622528e-01 3.586968e-01 5.291402e-01 5.632673e-01 6.788536e-01 7.700794e-01 7.069903e-01 5.683910e-01 5.179909e-01 5.490939e-01 4.839745e-01 4.344155e-01
<GCONST> 1.274149e+02
<STATE> 3
<MEAN> 39
 9.103498e+00 -9.848648e+00 -1.066924e+01 -6.276992e+00 3.576043e+00 6.498274e+00 2.572193e-01 -2.092106e-01 2.929928e+00 -5.460405e-02 -5.692223e-01 -4.580576e+00 1.047406e+01 2.247014e-01 -2.113205e-01 -3.500957e-01 1.556391e-01 3.359936e-01 -9.125480e-02 -9.090496e-02 1.579918e-01 7.001884e-02 -2.165191e-01 -8.465371e-02 4.549244e-02 7.900331e-02 -2.110244e-01 2.914182e-01 2.579845e-01 1.931709e-01 -1.057396e-01 -2.628888e-01 -6.852362e-02 8.738156e-02 -1.705218e-02 -1.010906e-03 -7.370712e-04 1.724983e-01 -2.502172e-01
<VARIANCE> 39
 1.459624e+01 2.426534e+01 2.791243e+01 4.207904e+01 4.199269e+01 5.828582e+01 5.930948e+01 6.064600e+01 4.563354e+01 4.038532e+01 4.337025e+01 3.676121e+01 2.044592e+01 1.384992e+00 1.782289e+00 2.139599e+00 2.695617e+00 2.275514e+00 3.555072e+00 3.125308e+00 3.046922e+00 2.372253e+00 2.201526e+00 2.218185e+00 2.083575e+00 1.397516e+00 2.736672e-01 2.490823e-01 2.549274e-01 3.507664e-01 3.675272e-01 4.481027e-01 5.229698e-01 4.953782e-01 4.253676e-01 3.959291e-01 4.000154e-01 3.753357e-01 2.089352e-01
<GCONST> 1.155382e+02
<STATE> 4
<MEAN> 39
 9.314168e+00 -9.286072e+00 -1.100516e+01 -5.215999e+00 4.277685e+00 4.999888e+00 -6.112884e-01 6.838927e-01 3.203827e+00 -7.701941e-01 -1.115097e+00 -3.848697e+00 9.735244e+00 -2.805714e-01 6.425767e-01 3.853895e-01 6.261181e-01 -8.469874e-02 -8.768216e-01 -3.443575e-01 4.384402e-01 3.250564e-02 -6.935705e-02 -9.622531e-02 3.208462e-01 -6.601632e-01 -2.337962e-01 2.656037e-01 2.582420e-01 1.615267e-01 -8.038232e-02 -1.388137e-01 -5.133954e-02 -2.925632e-02 -6.550293e-02 4.915660e-02 4.432635e-02 9.459265e-02 -2.828096e-01
<VARIANCE> 39
 1.649413e+01 2.922885e+01 3.536342e+01 4.554662e+01 4.282577e+01 6.450016e+01 6.626666e+01 6.540856e+01 4.867210e+01 4.153426e+01 4.179416e+01 3.594985e+01 2.088459e+01 2.062932e+00 2.349856e+00 2.413484e+00 2.521215e+00 2.402075e+00 3.205063e+00 3.287297e+00 3.011228e+00 2.565128e+00 2.301918e+00 2.331428e+00 2.093859e+00 1.928211e+00 2.959065e-01 2.989088e-01 2.747172e-01 3.824174e-01 3.780763e-01 4.882184e-01 4.828190e-01 5.150751e-01 4.445713e-01 4.139847e-01 3.999086e-01 3.508093e-01 2.991335e-01
<GCONST> 1.186158e+02
<TRANSP> 5
 0.000000e+00 1.000000e+00 0.000000e+00 0.000000e+00 0.000000e+00
 0.000000e+00 6.277840e-01 3.722160e-01 0.000000e+00 0.000000e+00
 0.000000e+00 0.000000e+00 6.436139e-01 3.563861e-01 0.000000e+00
 0.000000e+00 0.000000e+00 0.000000e+00 7.644956e-01 2.355044e-01
 0.000000e+00 0.000000e+00 0.000000e+00 0.000000e+00 0.000000e+00
<ENDHMM>
~h "ae"
<BEGINHMM>
<NUMSTATES> 5
<STATE> 2
<MEAN> 39
 4.610373e+00 -8.561716e+00 -6.136568e-01 -3.490251e+00 -4.924153e+00 -1.196395e+00 3.741279e+00 5.327763e+00 1.607596e+00 -2.651224e+00 -3.327339e+00 -2.146815e+00 1.103876e+01 3.728920e-02 -5.035841e-01 -1.062457e-01 -2.038243e-01 8.325198e-02 2.707055e-01 4.308875e-01 2.025720e-01 -2.081772e-02 -3.361215e-01 -2.712843e-01 -5.101151e-02 4.174565e-01 -7.282689e-02 2.271450e-01 -4.091084e-02 1.380839e-01 1.554320e-01 -1.703826e-02 -1.168899e-01 -1.557176e-01 -1.224046e-02 7.457117e-02 7.279274e-02 5.705616e-02 -2.454252e-01
<VARIANCE> 39
 1.317809e+01 2.339304e+01 3.268090e+01 2.579037e+01 3.795239e+01 3.731553e+01 4.109515e+01 3.985408e+01 4.889582e+01 3.164136e+01 2.888714e+01 2.830071e+01 1.881570e+01 7.674522e-01 1.432170e+00 1.299934e+00 1.420195e+00 1.731373e+00 1.753511e+00 2.104211e+00 2.090198e+00 1.705688e+00 1.622506e+00 1.525619e+00 1.380705e+00 1.039073e+00 1.646630e-01 2.059640e-01 1.841114e-01 2.341453e-01 2.971015e-01 2.986300e-01 3.408926e-01 3.390679e-01 3.019036e-01 2.840204e-01 2.732942e-01 2.411951e-01 1.635963e-01
<GCONST> 1.027936e+02
<STATE> 3
<MEAN> 39
 4.694090e+00 -9.294704e+00 -1.461798e+00 -3.449247e+00 -3.740673e+00 -7.730284e-01 4.357033e+00 5.204119e+00 1.673258e+00 -3.435343e+00 -4.023762e+00 -2.036451e+00 1.138836e+01 2.880669e-02 1.652512e-01 -1.795912e-01 9.948460e-02 2.431360e-01 -9.408324e-02 -9.969173e-02 -1.017475e-01 2.619639e-02 1.391881e-02 -7.205244e-02 -1.042894e-03 -1.825495e-01 -4.440228e-02 2.825310e-01 5.618542e-02 1.011084e-01 1.556090e-02 -1.046816e-01 -1.363543e-01 -1.107816e-01 -4.067378e-02 1.262808e-01 9.498174e-02 2.324715e-02 -2.460923e-01
<VARIANCE> 39
 1.115214e+01 2.296241e+01 3.065827e+01 2.465986e+01 3.938305e+01 3.587296e+01 3.841848e+01 3.932292e+01 4.848725e+01 3.123922e+01 2.980896e+01 3.028838e+01 2.035707e+01 4.570915e-01 1.288361e+00 1.246281e+00 1.131431e+00 1.582413e+00 1.598377e+00 1.725177e+00 1.753981e+00 1.608455e+00 1.581978e+00 1.432512e+00 1.246000e+00 7.536780e-01 1.151977e-01 2.036730e-01 1.756573e-01 2.072268e-01 2.519093e-01 2.571309e-01 2.945711e-01 3.092131e-01 2.894378e-01 2.625628e-01 2.562222e-01 2.268149e-01 1.267568e-01
<GCONST> 9.896003e+01
<STATE> 4
<MEAN> 39
 4.597906e+00 -7.607488e+00 -2.091466e+00 -2.782131e+00 -2.741900e+00 -1.603399e+00 3.550741e+00 4.414702e+00 1.841251e+00 -2.889669e+00 -4.151285e+00 -1.979079e+00 9.714790e+00 -2.466695e-01 1.251839e+00 1.584037e-01 4.696512e-01 2.142044e-01 -4.160990e-01 -4.799274e-01 -4.472656e-01 -1.484915e-01 4.694198e-01 3.085092e-01 7.952801e-02 -1.140247e+00 -2.671848e-01 4.244101e-01 1.776652e-01 2.324551e-01 9.798185e-02 2.782323e-02 -6.439484e-02 -1.981461e-01 -1.463883e-01 9.442495e-02 1.812407e-01 7.292008e-02 -4.645330e-01
<VARIANCE> 39
 1.409697e+01 3.170539e+01 3.347425e+01 2.775303e+01 4.414222e+01 3.916583e+01 4.256133e+01 4.249839e+01 4.710808e+01 3.804692e+01 3.494137e+01 3.336974e+01 3.532051e+01 1.550844e+00 2.745686e+00 2.098559e+00 2.053853e+00 2.690336e+00 2.613762e+00 2.729743e+00 3.029547e+00 3.045456e+00 2.557749e+00 2.540331e+00 2.069609e+00 2.009964e+00 3.577882e-01 3.662874e-01 2.730312e-01 3.681071e-01 4.158136e-01 4.312365e-01 4.766686e-01 5.103610e-01 4.946716e-01 4.667818e-01 4.428563e-01 3.655777e-01 3.458029e-01
<GCONST> 1.172596e+02
<TRANSP> 5
 0.000000e+00 1.000000e+00 0.000000e+00 0.000000e+00 0.000000e+00
 0.000000e+00 7.956203e-01 2.043798e-01 0.000000e+00 0.000000e+00
 0.000000e+00 0.000000e+00 7.154983e-01 2.845018e-01 0.000000e+00
 0.000000e+00 0.000000e+00 0.000000e+00 6.841626e-01 3.158374e-01
 0.000000e+00 0.000000e+00 0.000000e+00 0.000000e+00 0.000000e+00
<ENDHMM>
~h "ah"
<BEGINHMM>
<NUMSTATES> 5
<STATE> 2
<MEAN> 39
 6.420506e+00 -5.500635e+00 -4.368341e+00 -5.336204e+00 -9.974188e-04 1.644972e+00 -3.549302e+00 6.557434e-01 4.024845e+00 1.609272e+00 -2.146601e+00 -3.593118e+00 8.463725e+00 9.430112e-01 -8.746563e-01 -3.509631e-01 -8.139594e-01 3.042277e-02 2.690506e-01 -5.800188e-01 9.816685e-02 5.875083e-01 7.620762e-02 -4.730934e-01 -6.057023e-01 8.560196e-01 -3.722270e-01 3.481856e-01 1.708005e-01 3.072375e-01 8.684985e-02 -9.197365e-02 2.203081e-01 -8.582894e-02 -2.637852e-01 -7.613873e-02 1.339264e-01 2.082703e-01 -4.055111e-01
<VARIANCE> 39
 3.015022e+01 3.527827e+01 2.915324e+01 4.200444e+01 4.250743e+01 5.585291e+01 5.063172e+01 4.789869e+01 4.345284e+01 4.998475e+01 4.642062e+01 3.943112e+01 4.306618e+01 4.544177e+00 3.908098e+00 2.577842e+00 4.841954e+00 3.759341e+00 4.948893e+00 4.654366e+00 4.579870e+00 4.303020e+00 3.791994e+00 4.096015e+00 3.513601e+00 3.891520e+00 6.038090e-01 5.404448e-01 3.788464e-01 6.585491e-01 6.025128e-01 7.452315e-01 7.789897e-01 7.417945e-01 6.948832e-01 6.612720e-01 6.660750e-01 5.945473e-01 5.919830e-01
<GCONST> 1.323977e+02
<STATE> 3
<MEAN> 39
 7.364715e+00 -6.485924e+00 -4.753452e+00 -6.258595e+00 2.990186e-01 1.911533e+00 -4.080865e+00 7.190356e-01 4.521011e+00 1.561495e+00 -2.671467e+00 -4.210914e+00 9.411249e+00 1.169504e-01 1.435165e-01 8.013716e-02 7.261620e-02 1.128992e-01 -1.054860e-01 -8.433053e-02 -1.312298e-01 -5.924821e-02 -9.460532e-02 -6.810103e-02 -1.890431e-02 -1.551618e-01 -3.859872e-01 5.157235e-01 2.203319e-01 4.247371e-01 2.764382e-02 -1.420184e-01 2.345753e-01 -1.466272e-01 -3.420336e-01 -7.329801e-02 1.749969e-01 2.597409e-01 -5.242227e-01
<VARIANCE> 39
 1.796743e+01 2.953134e+01 2.702216e+01 3.707965e+01 3.941505e+01 5.641234e+01 4.784268e+01 4.734629e+01 4.401759e+01 5.333979e+01 4.755583e+01 4.154299e+01 3.226174e+01 2.705527e+00 3.914251e+00 2.287519e+00 4.235367e+00 3.044727e+00 4.238280e+00 3.791522e+00 4.212456e+00 3.701062e+00 3.377432e+00 3.540927e+00 3.179230e+00 3.563828e+00 4.733023e-01 4.922902e-01 3.423742e-01 6.061407e-01 5.394932e-01 6.955141e-01 7.245118e-01 7.479260e-01 6.757136e-01 6.424140e-01 6.558343e-01 5.844396e-01 4.763165e-01
<GCONST> 1.281366e+02
<STATE> 4
<MEAN> 39
 6.939725e+00 -4.899011e+00 -4.324518e+00 -5.130910e+00 7.053550e-01 1.209519e+00 -3.748686e+00 1.880076e-01 3.747198e+00 1.161071e+00 -2.481826e+00 -3.586339e+00 7.848014e+00 -6.116441e-01 1.212911e+00 5.520599e-01 9.393250e-01 7.992291e-02 -4.138925e-01 3.096628e-01 -4.424324e-01 -7.404020e-01 -1.624253e-01 2.591390e-01 4.587544e-01 -1.221591e+00 -3.502325e-01 3.318846e-01 1.830603e-01 2.989018e-01 2.060964e-02 -2.592208e-02 1.810427e-01 -1.191049e-01 -2.486681e-01 -2.867628e-02 7.974800e-02 1.386759e-01 -3.981997e-01
<VARIANCE> 39
 2.243156e+01 3.868901e+01 2.960350e+01 4.348156e+01 3.923223e+01 5.688481e+01 4.913620e+01 5.016584e+01 4.629981e+01 5.458562e+01 4.690501e+01 4.072774e+01 3.949280e+01 3.357688e+00 3.760666e+00 2.457534e+00 4.191122e+00 3.178412e+00 4.080144e+00 4.061921e+00 4.467576e+00 4.144328e+00 3.633275e+00 3.697714e+00 3.190692e+00 3.611324e+00 4.744357e-01 6.213455e-01 3.714972e-01 7.019811e-01 5.316540e-01 7.077201e-01 6.962474e-01 8.336925e-01 7.057431e-01 6.572189e-01 6.522458e-01 5.603359e-01 6.314355e-01
<GCONST> 1.306613e+02
<TRANSP> 5
 0.000000e+00 1.000000e+00 0.000000e+00 0.000000e+00 0.000000e+00
 0.000000e+00 4.882056e-01 5.117943e-01 0.000000e+00 0.000000e+00
 0.000000e+00 0.000000e+00 4.875831e-01 5.124169e-01 0.000000e+00
 0.000000e+00 0.000000e+00 0.000000e+00 5.734122e-01 4.265878e-01
 0.000000e+00 0.000000e+00 0.000000e+00 0.000000e+00 0.000000e+00
<ENDHMM>
~h "ao"
<BEGINHMM>
<NUMSTATES> 5
<STATE> 2
<MEAN> 39
 1.024655e+01 -1.489794e+00 -9.294167e+00 -1.293950e+01 -2.082688e+00 9.038341e+00 2.670728e+00 -2.436249e+00 3.342097e-01 2.051751e-01 1.755948e+00 -9.314947e-01 5.258218e+00 3.030360e-01 -3.730949e-01 -3.732112e-01 -7.957854e-01 9.264039e-02 7.556612e-01 3.688719e-01 -6.894647e-02 3.831076e-04 -9.424358e-02 2.227363e-01 1.803098e-02 5.389605e-01 -2.038379e-01 3.012939e-02 8.550058e-02 3.333213e-01 1.497775e-01 -2.033456e-01 -6.432364e-02 3.488576e-02 9.762982e-03 8.419843e-03 -3.358668e-02 1.956772e-02 -1.367393e-01
<VARIANCE> 39
 1.408636e+01 3.969802e+01 3.706940e+01 6.649939e+01 7.417888e+01 6.147471e+01 7.624668e+01 4.523262e+01 4.982218e+01 4.648681e+01 3.863921e+01 3.541211e+01 2.461402e+01 1.291495e+00 1.626001e+00 1.693052e+00 3.395524e+00 3.088688e+00 3.171660e+00 3.258179e+00 2.596555e+00 2.832672e+00 2.584965e+00 2.335246e+00 2.151611e+00 1.010140e+00 2.582373e-01 2.283754e-01 2.468594e-01 4.157211e-01 4.688983e-01 4.461596e-01 5.086216e-01 4.328336e-01 4.765418e-01 4.312962e-01 4.097990e-01 3.674772e-01 1.541613e-01
<GCONST> 1.175502e+02
<STATE> 3
<MEAN> 39
 1.053237e+01 -2.504938e+00 -1.007989e+01 -1.314039e+01 -1.159207e+00 9.583740e+00 2.873743e+00 -2.201865e+00 1.900282e-01 -5.707900e-02 2.301289e+00 -9.056084e-01 6.252905e+00 1.481840e-02 -2.735637e-01 -1.806219e-01 2.205339e-01 3.584999e-01 -1.134164e-01 -1.654205e-01 5.196114e-02 1.229636e-01 5.715473e-02 4.235734e-02 -6.260037e-02 1.977531e-01 -8.399435e-02 4.084404e-02 9.519558e-02 2.689601e-01 3.454581e-02 -2.396723e-01 -1.482228e-01 3.622292e-02 5.855221e-02 4.035304e-02 -7.359387e-02 -1.036594e-02 -9.900620e-02
<VARIANCE> 39
 1.193572e+01 3.588634e+01 3.328096e+01 6.437408e+01 7.272442e+01 6.181032e+01 7.500781e+01 4.912117e+01 4.961831e+01 5.053148e+01 4.152232e+01 4.000760e+01 1.898437e+01 5.230833e-01 1.334341e+00 1.393590e+00 2.970503e+00 2.426997e+00 2.900562e+00 3.075001e+00 2.194308e+00 2.396877e+00 2.236789e+00 2.138342e+00 2.025681e+00 6.413238e-01 1.165835e-01 1.690301e-01 2.058117e-01 3.153511e-01 3.674296e-01 3.845657e-01 4.160742e-01 3.714537e-01 4.045019e-01 3.794886e-01 3.726542e-01 3.534162e-01 9.033953e-02
<GCONST> 1.110468e+02
<STATE> 4
<MEAN> 39
 1.035606e+01 -2.974824e+00 -1.025734e+01 -1.071051e+01 2.238261e-01 7.386539e+00 9.409745e-01 -1.555684e+00 9.681565e-01 1.418772e-01 1.946678e+00 -1.061402e+00 6.193807e+00 -1.912573e-01 -4.306134e-02 2.522897e-01 9.370450e-01 3.027057e-01 -8.489877e-01 -6.562614e-01 1.533211e-01 3.010371e-01 2.116181e-01 -2.260144e-01 -6.219736e-02 -1.518737e-01 -1.309311e-01 8.553105e-02 1.982276e-01 2.017296e-01 -5.689485e-02 -1.727007e-01 -4.944063e-02 2.587336e-02 6.044190e-03 -7.170328e-03 -6.714509e-02 3.459785e-02 -1.173349e-01
<VARIANCE> 39
 1.340886e+01 3.618992e+01 3.752670e+01 8.114790e+01 6.650276e+01 7.065565e+01 8.407005e+01 5.486548e+01 5.259581e+01 5.178954e+01 4.485953e+01 4.170641e+01 1.873214e+01 7.857247e-01 1.493712e+00 1.932580e+00 2.995694e+00 2.611034e+00 3.103423e+00 3.467579e+00 2.579572e+00 2.716342e+00 2.602799e+00 2.485311e+00 2.260860e+00 7.646133e-01 1.632007e-01 1.880671e-01 2.475779e-01 3.435931e-01 3.726888e-01 4.407099e-01 4.951162e-01 4.286464e-01 4.466951e-01 4.407354e-01 4.183668e-01 3.922782e-01 1.143687e-01
<GCONST> 1.158570e+02
<TRANSP> 5
 0.000000e+00 1.000000e+00 0.000000e+00 0.000000e+00 0.000000e+00
 0.000000e+00 7.750336e-01 2.249663e-01 0.000000e+00 0.000000e+00
 0.000000e+00 0.000000e+00 7.414266e-01 2.585734e-01 0.000000e+00
 0.000000e+00 0.000000e+00 0.000000e+00 8.373095e-01 1.626905e-01
 0.000000e+00 0.000000e+00 0.000000e+00 0.000000e+00 0.000000e+00
<ENDHMM>
~h "aw"
<BEGINHMM>
<NUMSTATES> 5
<STATE> 2
<MEAN> 39
 6.082328e+00 -1.029411e+01 -4.902862e+00 -3.590251e+00 6.527582e-01 2.308768e+00 1.817546e+00 1.803708e+00 2.342192e+00 -2.404130e+00 -3.938059e+00 -2.776214e+00 1.115043e+01 3.869327e-01 -6.248338e-01 -5.572698e-01 -2.724574e-01 5.535623e-01 6.259539e-01 -1.287919e-01 -2.964200e-01 2.666644e-01 -1.358356e-01 -2.285328e-01 -2.819416e-01 5.106961e-01 -1.012609e-01 2.825088e-01 4.036419e-02 2.143252e-02 4.181127e-02 3.841156e-02 -5.703982e-02 -1.430695e-01 -4.162489e-02 9.795644e-02 1.565662e-01 7.001070e-02 -2.725864e-01
<VARIANCE> 39
 1.645326e+01 2.392734e+01 3.476715e+01 3.713067e+01 4.466785e+01 4.578189e+01 5.137064e+01 5.297063e+01 4.124331e+01 4.027054e+01 2.884129e+01 3.373993e+01 1.909610e+01 1.205752e+00 2.052150e+00 1.410274e+00 1.923653e+00 2.169390e+00 2.151874e+00 2.609791e+00 2.633703e+00 2.131111e+00 1.977526e+00 2.104229e+00 1.894800e+00 1.554569e+00 2.316044e-01 2.821648e-01 2.017712e-01 2.917176e-01 3.517559e-01 3.358215e-01 4.084829e-01 4.377134e-01 3.948332e-01 3.328554e-01 3.405293e-01 3.160628e-01 1.947899e-01
<GCONST> 1.109158e+02
<STATE> 3
<MEAN> 39
 7.405624e+00 -1.025421e+01 -6.900284e+00 -5.182004e+00 2.522640e+00 4.970127e+00 6.878347e-01 -2.574989e-01 3.018140e+00 -1.863863e+00 -3.318067e+00 -3.491669e+00 1.103060e+01 3.112410e-01 3.059095e-01 -4.092883e-01 -5.014570e-01 2.555050e-01 5.617570e-01 -2.697474e-01 -4.628702e-01 6.659290e-02 2.393502e-01 3.134429e-01 -9.349243e-02 -2.296273e-01 -3.399980e-02 2.191728e-01 8.465771e-02 1.252302e-02 -1.340417e-01 -1.003908e-01 -9.309770e-03 1.337551e-02 -7.853514e-02 6.803096e-02 9.979475e-02 7.306965e-02 -1.805145e-01
<VARIANCE> 39
 1.247965e+01 2.278652e+01 2.868775e+01 4.091651e+01 4.133367e+01 5.006662e+01 5.496429e+01 4.944766e+01 3.964132e+01 4.111190e+01 3.450259e+01 3.468073e+01 1.711392e+01 5.156630e-01 1.314788e+00 1.060808e+00 1.685713e+00 1.989275e+00 1.942568e+00 2.089959e+00 2.117357e+00 1.952594e+00 1.742879e+00 1.783705e+00 1.706864e+00 7.335458e-01 1.017580e-01 1.792237e-01 1.645481e-01 2.622452e-01 2.756474e-01 3.011329e-01 3.283097e-01 3.297297e-01 3.129300e-01 2.753195e-01 2.885485e-01 2.789951e-01 9.997194e-02
<GCONST> 1.031879e+02
<STATE> 4
<MEAN> 39
 8.810500e+00 -6.922537e+00 -8.015871e+00 -7.644746e+00 2.060719e+00 6.540767e+00 -3.722727e-01 -1.702360e+00 2.256550e+00 -5.428773e-01 -7.520351e-01 -3.171737e+00 8.303038e+00 8.249862e-02 8.834385e-01 1.233489e-01 1.474653e-02 -3.392847e-01 -2.656659e-01 -2.490801e-01 -1.655726e-01 -2.595955e-01 3.504230e-01 3.592391e-01 1.713271e-01 -7.936916e-01 -1.520610e-01 1.334852e-01 2.095928e-01 2.945623e-01 -8.134872e-02 -2.419192e-01 7.539546e-03 1.446594e-02 -7.081868e-02 -5.556067e-03 -5.641576e-02 6.008134e-02 -1.823230e-01
<VARIANCE> 39
 1.251140e+01 3.236173e+01 2.658289e+01 5.065859e+01 4.902615e+01 5.291403e+01 6.084389e+01 4.582051e+01 4.476506e+01 4.617330e+01 4.534945e+01 3.681590e+01 2.650431e+01 7.356889e-01 1.657552e+00 1.637840e+00 3.007868e+00 2.630934e+00 3.035725e+00 2.745561e+00 2.758131e+00 2.607226e+00 2.346310e+00 2.438358e+00 2.235443e+00 1.039176e+00 1.604339e-01 2.358996e-01 2.322052e-01 4.271835e-01 4.136519e-01 3.907041e-01 4.399363e-01 4.330374e-01 4.319943e-01 3.995346e-01 4.263494e-01 3.684934e-01 1.720644e-01
<GCONST> 1.140194e+02
<TRANSP> 5
 0.000000e+00 1.000000e+00 0.000000e+00 0.000000e+00 0.000000e+00
 0.000000e+00 7.978723e-01 2.021277e-01 0.000000e+00 0.000000e+00
 0.000000e+00 0.000000e+00 7.629569e-01 2.370431e-01 0.000000e+00
 0.000000e+00 0.000000e+00 0.000000e+00 8.318095e-01 1.681906e-01
 0.000000e+00 0.000000e+00 0.000000e+00 0.000000e+00 0.000000e+00
<ENDHMM>
~h "ax"
<BEGINHMM>
<NUMSTATES> 5
<STATE> 2
<MEAN> 39
 4.577008e+00 6.908630e-02 -2.476931e+00 -2.888326e+00 5.157464e-01 -2.998431e-02 -3.820823e+00 -2.620425e+00 2.031433e+00 2.362904e+00 -7.405881e-01 -1.912034e+00 3.060503e+00 1.308759e+00 -1.977034e-01 -3.806235e-02 -6.720647e-01 -1.986106e-01 -1.548501e-02 -8.351478e-01 -4.075114e-01 9.414776e-02 2.878305e-01 -1.650092e-01 -3.858099e-01 5.060412e-01 -3.520024e-01 2.221434e-01 9.508862e-02 2.099819e-01 8.075197e-02 1.204864e-01 3.258200e-01 9.437351e-03 -2.586895e-01 -1.551389e-01 9.593055e-02 1.447551e-01 -4.129590e-01
<VARIANCE> 39
 5.068336e+01 3.377247e+01 3.245673e+01 5.780198e+01 3.794333e+01 5.176357e+01 5.773082e+01 4.977455e+01 4.405436e+01 4.393612e+01 4.214921e+01 3.137417e+01 3.984711e+01 7.509829e+00 3.897463e+00 3.125208e+00 6.282160e+00 4.378894e+00 5.470596e+00 6.564438e+00 5.360797e+00 5.088226e+00 4.281578e+00 4.570182e+00 3.527907e+00 4.849169e+00 1.070898e+00 7.070563e-01 5.226251e-01 1.033017e+00 7.031879e-01 9.116578e-01 1.188954e+00 9.275814e-01 9.345341e-01 8.315343e-01 8.350102e-01 6.424034e-01 9.946919e-01
<GCONST> 1.390553e+02
<STATE> 3
<MEAN> 39
 6.215600e+00 -1.221607e-01 -2.561756e+00 -3.947370e+00 2.597322e-01 2.139523e-01 -4.635661e+00 -3.190013e+00 1.719412e+00 2.593832e+00 -7.834972e-01 -2.246238e+00 3.607142e+00 3.748548e-01 2.970172e-01 1.201465e-01 -1.134873e-01 -4.590403e-03 1.253478e-01 -2.947734e-02 -2.986703e-01 -3.816951e-01 -8.520413e-02 3.784810e-02 -1.429491e-02 -2.250465e-01 -6.139570e-01 3.168791e-01 1.229963e-01 3.941037e-01 1.350113e-01 8.412484e-02 4.823455e-01 6.121430e-02 -2.614285e-01 -2.187641e-01 8.733935e-02 1.987262e-01 -4.957529e-01
<VARIANCE> 39
 3.283633e+01 3.316396e+01 3.167348e+01 5.503454e+01 3.677991e+01 5.336370e+01 5.652798e+01 4.904313e+01 4.516997e+01 4.552628e+01 4.372101e+01 3.224673e+01 3.424988e+01 6.718663e+00 4.190338e+00 2.870170e+00 6.842206e+00 4.145499e+00 5.121050e+00 6.336487e+00 5.115458e+00 5.084375e+00 4.374290e+00 4.459852e+00 3.475241e+00 4.551117e+00 1.008533e+00 7.538774e-01 5.249964e-01 1.041986e+00 7.233933e-01 9.473789e-01 1.202375e+00 9.676990e-01 9.773598e-01 8.756316e-01 8.642550e-01 6.624049e-01 9.129146e-01
<GCONST> 1.383557e+02
<STATE> 4
<MEAN> 39
 5.929375e+00 8.926008e-01 -2.398886e+00 -3.629513e+00 5.150801e-01 6.644168e-01 -3.695322e+00 -3.552641e+00 7.194990e-01 1.973765e+00 -5.491457e-01 -1.863936e+00 2.624781e+00 -6.485345e-01 7.598720e-01 3.397402e-01 5.717996e-01 1.917020e-01 1.659420e-01 6.823699e-01 -1.430444e-01 -6.723831e-01 -4.120920e-01 1.195082e-01 2.753127e-01 -9.100413e-01 -4.916814e-01 1.683623e-01 8.836173e-02 2.931689e-01 9.681245e-02 4.288003e-02 3.004735e-01 8.339023e-02 -9.847909e-02 -1.151340e-01 1.748214e-02 1.099948e-01 -3.221898e-01
<VARIANCE> 39
 3.769216e+01 3.791870e+01 3.287297e+01 6.170031e+01 4.056218e+01 5.424958e+01 5.617647e+01 4.920648e+01 4.812135e+01 4.519403e+01 4.279428e+01 3.310450e+01 3.674437e+01 6.212480e+00 4.105766e+00 2.804763e+00 6.408522e+00 3.917781e+00 4.645642e+00 5.649978e+00 5.074361e+00 5.185474e+00 4.281266e+00 4.165218e+00 3.308509e+00 4.663528e+00 8.651504e-01 7.871362e-01 4.876491e-01 9.979876e-01 6.919922e-01 8.604368e-01 1.062318e+00 9.210609e-01 9.298992e-01 8.345008e-01 7.800562e-01 6.169251e-01 8.850784e-01
<GCONST> 1.376194e+02
<TRANSP> 5
 0.000000e+00 1.000000e+00 0.000000e+00 0.000000e+00 0.000000e+00
 0.000000e+00 3.411449e-01 6.588551e-01 0.000000e+00 0.000000e+00
 0.000000e+00 0.000000e+00 3.402894e-01 6.597106e-01 0.000000e+00
 0.000000e+00 0.000000e+00 0.000000e+00 3.892272e-01 6.107728e-01
 0.000000e+00 0.000000e+00 0.000000e+00 0.000000e+00 0.000000e+00
<ENDHMM>
~h "ay"
<BEGINHMM>
<NUMSTATES> 5
<STATE> 2
<MEAN> 39
 7.068316e+00 -8.772534e+00 -7.466561e+00 -5.604832e+00 2.881890e+00 4.992033e+00 8.936940e-01 -5.872921e-01 3.971850e+00 -2.075014e-01 -2.911561e+00 -4.376388e+00 9.604816e+00 2.005379e-01 -1.070221e+00 1.297071e-01 2.165964e-01 -4.065482e-02 -2.819200e-01 1.366239e-01 5.186481e-01 3.433458e-01 -5.001150e-01 -5.770062e-01 -1.470518e-01 7.434837e-01 -2.425857e-01 3.375395e-01 3.059960e-01 2.049394e-01 -1.788317e-01 -2.854570e-01 3.276700e-02 6.730849e-02 -2.212569e-01 -2.226537e-02 1.698364e-01 2.653599e-01 -2.682644e-01
<VARIANCE> 39
 2.107719e+01 3.145120e+01 2.896966e+01 4.019889e+01 4.531692e+01 5.468371e+01 4.817880e+01 4.991942e+01 4.181884e+01 4.229378e+01 3.815744e+01 3.792585e+01 2.959630e+01 1.949692e+00 2.223511e+00 2.736074e+00 3.354235e+00 3.333478e+00 4.409324e+00 2.873363e+00 3.730286e+00 3.002424e+00 2.402415e+00 2.640924e+00 2.882949e+00 1.782934e+00 3.510683e-01 3.146099e-01 3.110590e-01 5.114781e-01 5.265912e-01 5.166335e-01 4.818240e-01 5.747623e-01 5.274667e-01 4.669828e-01 5.211546e-01 4.958653e-01 2.617799e-01
<GCONST> 1.215831e+02
<STATE> 3
<MEAN> 39
 7.014532e+00 -1.036796e+01 -6.283420e+00 -4.521382e+00 2.132027e+00 3.258573e+00 1.252990e+00 1.027291e+00 4.182446e+00 -1.509085e+00 -3.899909e+00 -3.943430e+00 1.071824e+01 -1.687394e-01 -1.944071e-01 7.947505e-01 4.842115e-01 -7.111542e-01 -9.722200e-01 2.103541e-01 7.569340e-01 -1.392457e-01 -4.229639e-01 -1.165157e-01 3.631266e-01 1.490857e-01 -1.009103e-01 3.542264e-01 2.108072e-01 4.348101e-02 -2.146170e-01 -1.562215e-01 6.961976e-03 -3.588672e-02 -2.128089e-01 8.272152e-02 2.287152e-01 1.422729e-01 -2.390212e-01
<VARIANCE> 39
 1.467882e+01 2.733650e+01 3.021913e+01 3.270797e+01 4.737480e+01 5.485229e+01 4.671839e+01 5.038871e+01 4.234435e+01 3.919575e+01 3.278565e+01 3.826806e+01 2.060515e+01 8.004514e-01 1.665522e+00 2.048383e+00 2.077286e+00 3.045259e+00 3.137786e+00 2.473510e+00 3.169405e+00 2.464780e+00 2.092564e+00 2.264196e+00 2.277138e+00 1.006612e+00 1.510355e-01 2.311535e-01 2.306206e-01 3.206419e-01 3.955016e-01 3.913573e-01 3.854578e-01 5.163922e-01 4.522496e-01 3.865034e-01 4.139211e-01 4.068439e-01 1.564059e-01
<GCONST> 1.122882e+02
<STATE> 4
<MEAN> 39
 6.246644e+00 -9.787567e+00 -3.430383e+00 -3.126818e+00 -8.297606e-01 -7.749133e-02 2.184314e+00 3.294989e+00 3.256139e+00 -2.653279e+00 -3.745809e+00 -2.399701e+00 1.036697e+01 -2.635897e-01 6.542591e-01 9.839764e-01 3.224599e-01 -9.703978e-01 -9.563435e-01 8.261582e-02 3.687882e-01 -4.419172e-01 3.187525e-02 3.746646e-01 3.963640e-01 -4.182779e-01 -5.380212e-02 2.648619e-01 2.240849e-02 3.210391e-02 6.972066e-02 8.003800e-02 -8.559064e-02 -2.320171e-01 -1.093313e-01 1.242588e-01 1.247749e-01 -2.889516e-03 -2.358647e-01
<VARIANCE> 39
 1.401534e+01 2.884252e+01 3.918219e+01 2.968921e+01 5.517442e+01 5.239891e+01 4.579885e+01 4.848407e+01 4.593655e+01 3.588245e+01 3.152674e+01 3.422978e+01 2.339398e+01 6.158760e-01 1.573067e+00 1.836378e+00 1.834868e+00 2.827023e+00 2.428256e+00 2.510525e+00 3.099826e+00 2.500471e+00 2.242083e+00 2.132623e+00 2.046892e+00 9.166325e-01 1.237744e-01 2.075572e-01 2.150452e-01 2.766559e-01 4.375706e-01 3.488722e-01 3.881585e-01 4.917471e-01 3.967801e-01 3.476278e-01 3.426818e-01 3.109328e-01 1.707417e-01
<GCONST> 1.102219e+02
<TRANSP> 5
 0.000000e+00 1.000000e+00 0.000000e+00 0.000000e+00 0.000000e+00
 0.000000e+00 5.982043e-01 4.017958e-01 0.000000e+00 0.000000e+00
 0.000000e+00 0.000000e+00 6.097944e-01 3.902055e-01 0.000000e+00
 0.000000e+00 0.000000e+00 0.000000e+00 8.006145e-01 1.993856e-01
 0.000000e+00 0.000000e+00 0.000000e+00 0.000000e+00 0.000000e+00
<ENDHMM>
~h "ch"
<BEGINHMM>
<NUMSTATES> 5
<STATE> 2
<MEAN> 39
 -1.740465e+01 3.531195e-01 6.655339e+00 -1.208954e+00 1.754163e+00 5.837400e+00 2.903148e+00 7.380001e-01 3.106368e+00 2.808712e-01 2.249265e+00 2.006741e+00 2.778120e+00 -9.953755e-01 2.240277e-02 6.055433e-01 -7.816935e-02 -7.055904e-01 -2.950879e-01 5.001037e-01 1.576362e-01 8.153594e-02 1.736174e-02 6.842212e-02 5.406297e-02 2.003120e+00 8.703559e-01 5.124573e-02 -1.446958e-01 3.935490e-01 -9.341899e-02 -4.055713e-01 -1.245209e-01 -2.741341e-02 -1.937749e-01 -6.811314e-02 -1.705942e-01 -9.797460e-02 -5.634046e-01
<VARIANCE> 39
 3.642319e+01 3.399356e+01 3.597901e+01 3.076389e+01 4.422108e+01 3.079253e+01 3.286419e+01 2.848114e+01 2.291039e+01 2.172324e+01 2.216469e+01 1.518013e+01 4.439323e+01 7.316190e+00 3.130402e+00 3.207724e+00 3.549147e+00 2.880089e+00 3.462677e+00 2.742744e+00 2.307612e+00 2.168216e+00 2.022596e+00 1.795411e+00 1.471092e+00 5.815089e+00 8.643235e-01 6.968599e-01 6.565669e-01 6.797169e-01 5.818501e-01 5.726551e-01 6.304221e-01 4.819300e-01 4.261947e-01 4.224137e-01 3.580351e-01 3.031168e-01 1.030471e+00
<GCONST> 1.220965e+02
<STATE> 3
<MEAN> 39
 -1.648862e+01 1.688863e-01 6.939819e+00 -2.658020e-01 -4.025679e-02 3.791332e+00 3.804518e+00 1.019040e+00 2.725809e+00 2.829379e-01 1.938396e+00 1.873822e+00 5.099393e+00 1.579834e+00 -3.109797e-01 -1.308228e-01 4.281269e-01 -7.319086e-01 -1.106884e+00 -1.742492e-01 8.694763e-02 -3.030029e-01 -1.815461e-01 -2.538446e-01 -1.170845e-01 3.979744e-01 8.956504e-01 -1.146347e-01 -2.353879e-01 5.434568e-02 3.685089e-02 -2.073400e-01 -3.653485e-01 -1.768006e-02 -1.203395e-01 -8.438801e-02 -9.340309e-02 -6.511870e-02 -4.792505e-01
<VARIANCE> 39
 4.926817e+01 2.740231e+01 3.067669e+01 2.919259e+01 4.633838e+01 3.793815e+01 3.385632e+01 2.779978e+01 2.392855e+01 2.290813e+01 2.362795e+01 1.710716e+01 2.794400e+01 8.274823e+00 2.234722e+00 2.872893e+00 2.664001e+00 3.094740e+00 3.572099e+00 3.875581e+00 2.475389e+00 2.288356e+00 2.156140e+00 1.972787e+00 1.498115e+00 3.896085e+00 8.659918e-01 4.271618e-01 5.183585e-01 5.864389e-01 5.675271e-01 6.441010e-01 7.061991e-01 5.023248e-01 4.606831e-01 4.435751e-01 3.968659e-01 3.259704e-01 7.087673e-01
<GCONST> 1.210913e+02
<STATE> 4
<MEAN> 39
 -9.807479e+00 -9.496799e-01 5.707768e+00 7.446581e-01 -1.554936e+00 4.518377e-01 2.397407e+00 1.151094e+00 1.730441e+00 -4.691972e-01 1.024901e+00 1.426380e+00 4.573684e+00 3.233474e+00 -5.642770e-01 -5.428740e-01 1.536678e-01 -5.989752e-01 -1.248448e+00 -1.156567e+00 6.777527e-02 -4.797920e-01 -3.734043e-01 -3.549858e-01 -2.549393e-01 -2.598797e-01 1.988750e-01 -6.381563e-02 -1.228081e-01 -1.989021e-01 8.089767e-02 1.245455e-01 -2.438450e-01 9.776166e-03 -1.465346e-02 2.330053e-02 3.661468e-02 -3.999857e-02 -6.558759e-02
<VARIANCE> 39
 1.075020e+02 2.969170e+01 3.461678e+01 3.206797e+01 4.885838e+01 4.659550e+01 4.471376e+01 3.038083e+01 2.884414e+01 2.627343e+01 2.516063e+01 1.862225e+01 3.377686e+01 7.019476e+00 2.584769e+00 3.276847e+00 3.135900e+00 4.086993e+00 4.514621e+00 5.886038e+00 3.692735e+00 3.334414e+00 2.935211e+00 2.742158e+00 2.091490e+00 3.531612e+00 1.270861e+00 4.083691e-01 4.746902e-01 5.420399e-01 6.260725e-01 7.587234e-01 8.727832e-01 5.987860e-01 5.587192e-01 5.406992e-01 4.635535e-01 3.579006e-01 6.847444e-01
<GCONST> 1.277351e+02
<TRANSP> 5
 0.000000e+00 1.000000e+00 0.000000e+00 0.000000e+00 0.000000e+00
 0.000000e+00 6.336625e-01 3.663375e-01 0.000000e+00 0.000000e+00
 0.000000e+00 0.000000e+00 6.055971e-01 3.944029e-01 0.000000e+00
 0.000000e+00 0.000000e+00 0.000000e+00 6.653211e-01 3.346790e-01
 0.000000e+00 0.000000e+00 0.000000e+00 0.000000e+00 0.000000e+00
<ENDHMM>
~h "dh"
<BEGINHMM>
<NUMSTATES> 5
<STATE> 2
<MEAN> 39
 -6.145930e+00 4.428500e+00 -1.000460e+00 5.550566e+00 4.232320e+00 1.840236e+00 2.166666e+00 -5.939204e-01 1.720291e+00 1.206028e+00 2.042785e-01 7.210144e-01 -1.120277e+01 1.430900e-01 -6.819278e-02 -6.881736e-02 -1.866838e-01 -2.143310e-01 -1.670633e-01 -1.052899e-01 5.544225e-02 1.569656e-01 -6.280690e-02 -1.192700e-01 -4.856513e-03 6.735964e-01 3.269794e-01 -2.003374e-01 4.234197e-02 -2.403353e-01 -2.926553e-01 -3.024611e-01 -1.558289e-01 4.338649e-02 -8.655639e-03 -2.970917e-02 -2.313073e-02 -8.747635e-03 6.452548e-01
<VARIANCE> 39
 5.231260e+01 3.454581e+01 2.737510e+01 3.622740e+01 3.271082e+01 4.139238e+01 3.918074e+01 3.931314e+01 3.367200e+01 2.615521e+01 3.103553e+01 2.437877e+01 9.543413e+01 3.038445e+00 2.445358e+00 2.572452e+00 2.939262e+00 2.829542e+00 3.186661e+00 2.832284e+00 2.852752e+00 2.695488e+00 2.283880e+00 2.138494e+00 1.962050e+00 8.379013e+00 5.546734e-01 5.053538e-01 5.331034e-01 6.136897e-01 5.738963e-01 6.254416e-01 5.830474e-01 5.812654e-01 5.817950e-01 4.728790e-01 4.555856e-01 4.095081e-01 1.150546e+00
<GCONST> 1.249639e+02
<STATE> 3
<MEAN> 39
 -4.122736e+00 4.588231e+00 -9.648015e-01 4.620261e+00 2.649624e+00 2.946593e-01 1.288808e+00 -1.398570e+00 1.964524e+00 7.444849e-01 -4.991174e-01 2.397984e-01 -6.350805e+00 1.232926e+00 -6.677627e-01 -6.414595e-02 -9.213988e-01 -1.132005e+00 -1.191827e+00 -6.266529e-01 1.471259e-01 2.776453e-01 -1.682505e-01 -2.641058e-01 -8.228484e-02 2.953394e+00 4.370430e-01 -3.088651e-01 1.275408e-01 -3.116082e-01 -3.556391e-01 -2.782893e-01 -2.412509e-01 8.801118e-02 -2.273650e-04 4.072174e-02 -1.364863e-02 -4.415857e-02 5.192516e-01
<VARIANCE> 39
 5.335998e+01 3.146707e+01 2.879512e+01 3.651136e+01 3.439775e+01 4.102362e+01 4.308015e+01 3.756932e+01 3.210479e+01 2.680377e+01 3.147188e+01 2.545527e+01 8.973013e+01 4.622564e+00 2.839170e+00 2.750517e+00 3.390831e+00 3.688316e+00 3.973290e+00 4.024590e+00 3.425390e+00 3.278854e+00 2.734812e+00 2.707115e+00 2.601477e+00 9.198980e+00 7.078264e-01 6.247436e-01 6.328068e-01 7.064025e-01 6.615413e-01 7.356396e-01 7.469983e-01 6.336576e-01 6.331176e-01 5.375293e-01 5.542578e-01 4.974629e-01 1.501254e+00
<GCONST> 1.300740e+02
<STATE> 4
<MEAN> 39
 1.061420e-02 2.545886e+00 -8.054680e-01 2.055177e+00 -9.088755e-01 -3.314950e+00 -5.804486e-01 -9.832262e-01 2.679721e+00 4.065520e-01 -1.260739e+00 -2.906680e-01 1.434681e+00 1.823262e+00 -1.294387e+00 3.319161e-01 -1.356051e+00 -1.655715e+00 -1.387838e+00 -9.417961e-01 4.335748e-01 2.392643e-01 -3.357577e-02 -2.718737e-01 -2.023755e-01 3.122261e+00 -6.726399e-02 -1.151807e-01 1.944666e-01 6.432222e-04 7.811359e-02 2.418495e-01 4.401491e-02 8.767947e-02 -1.326715e-01 3.997330e-02 4.523159e-02 5.949298e-03 -4.707326e-01
<VARIANCE> 39
 4.356152e+01 3.236193e+01 2.810271e+01 3.411103e+01 3.916674e+01 4.047814e+01 4.734822e+01 3.678523e+01 3.160381e+01 2.962036e+01 2.845962e+01 2.704506e+01 5.783242e+01 4.535478e+00 3.476300e+00 3.394743e+00 3.896224e+00 4.371330e+00 4.778913e+00 5.366309e+00 4.098558e+00 4.166930e+00 3.281581e+00 3.641099e+00 3.230426e+00 6.816608e+00 8.610014e-01 6.026255e-01 5.550258e-01 7.028514e-01 7.741857e-01 8.049441e-01 8.851920e-01 6.419092e-01 6.234987e-01 5.586990e-01 5.651004e-01 5.089720e-01 1.266952e+00
<GCONST> 1.319406e+02
<TRANSP> 5
 0.000000e+00 1.000000e+00 0.000000e+00 0.000000e+00 0.000000e+00
 0.000000e+00 6.012983e-01 3.987017e-01 0.000000e+00 0.000000e+00
 0.000000e+00 0.000000e+00 4.199091e-01 5.800909e-01 0.000000e+00
 0.000000e+00 0.000000e+00 0.000000e+00 4.853405e-01 5.146595e-01
 0.000000e+00 0.000000e+00 0.000000e+00 0.000000e+00 0.000000e+00
<ENDHMM>
~h "dx"
<BEGINHMM>
<NUMSTATES> 5
<STATE> 2
<MEAN> 39
 6.655726e+00 -4.706044e+00 1.276256e+00 -5.214288e-01 -6.333710e+00 -2.124363e+00 -4.292408e+00 -4.155678e-01 1.974020e+00 4.647157e-01 -3.815759e-01 -1.546281e+00 6.197786e+00 4.182643e-02 1.055163e-01 5.838202e-01 6.528193e-01 -4.587631e-01 -3.488509e-01 -5.639275e-01 -4.694647e-02 5.843633e-02 -2.516604e-02 -3.083711e-02 2.942027e-01 -5.016196e-01 -2.764206e-02 7.424472e-02 -5.024090e-02 -1.157898e-01 1.785744e-01 2.451025e-02 6.305789e-02 4.874502e-02 -1.315210e-01 -1.972073e-02 3.731826e-02 5.260634e-02 -3.560092e-02
<VARIANCE> 39
 2.033434e+01 2.879557e+01 1.111411e+02 5.997180e+01 6.094243e+01 5.196990e+01 6.306713e+01 5.608151e+01 6.943462e+01 5.049487e+01 4.027454e+01 3.350811e+01 2.781113e+01 1.150793e+00 1.900614e+00 3.138316e+00 5.462062e+00 4.953035e+00 4.087211e+00 5.003386e+00 4.875481e+00 4.391521e+00 3.706870e+00 3.827534e+00 2.845794e+00 2.890053e+00 2.217119e-01 3.635986e-01 4.689076e-01 8.748961e-01 9.044384e-01 6.443266e-01 8.667832e-01 9.218017e-01 7.857933e-01 6.921231e-01 7.134893e-01 5.301315e-01 6.199061e-01
<GCONST> 1.316138e+02
<STATE> 3
<MEAN> 39
 6.603168e+00 -4.342115e+00 2.474233e+00 2.619591e-01 -6.842524e+00 -2.735502e+00 -5.094004e+00 -3.798304e-01 1.572963e+00 4.091305e-01 -3.518949e-01 -9.327997e-01 5.270942e+00 -4.145087e-02 2.254904e-01 3.676015e-01 3.025330e-01 -4.302555e-03 -3.237486e-01 -2.944933e-01 1.061353e-01 -1.818235e-01 -8.089044e-02 1.404914e-02 3.144088e-01 -4.258465e-01 -4.733697e-02 8.627233e-02 -1.458377e-01 -1.772964e-01 2.199381e-01 3.293106e-02 1.503646e-01 5.481483e-02 -1.165833e-01 -1.688020e-02 2.815499e-02 -1.124691e-02 3.844409e-02
<VARIANCE> 39
 2.104158e+01 2.900330e+01 1.106605e+02 6.033327e+01 5.984319e+01 4.755052e+01 5.832439e+01 5.436852e+01 7.051164e+01 4.990620e+01 3.747646e+01 3.033799e+01 2.666706e+01 1.267951e+00 2.038608e+00 3.290039e+00 5.330669e+00 5.016122e+00 4.080207e+00 5.207806e+00 5.078545e+00 4.492444e+00 3.858341e+00 3.855803e+00 2.841600e+00 3.194059e+00 2.387669e-01 3.924102e-01 4.813888e-01 9.108025e-01 9.319177e-01 6.575792e-01 8.866861e-01 9.349377e-01 7.982719e-01 6.941454e-01 7.043563e-01 5.011913e-01 6.710193e-01
<GCONST> 1.320141e+02
<STATE> 4
<MEAN> 39
 6.376357e+00 -3.739792e+00 3.047325e+00 7.294995e-02 -6.478553e+00 -3.219789e+00 -5.083582e+00 -1.251717e-01 9.179009e-01 2.845923e-01 -3.132645e-01 -4.120948e-01 4.677641e+00 -1.235344e-01 3.836479e-01 4.187573e-02 4.183848e-02 3.564791e-01 -2.570463e-01 6.985860e-03 1.379356e-01 -3.264295e-01 -1.189362e-01 5.146047e-02 2.308521e-01 -3.374497e-01 -5.133827e-02 1.052733e-01 -1.561030e-01 -8.902021e-02 1.569179e-01 6.636280e-02 1.338864e-01 -3.014588e-02 -6.168505e-02 7.893363e-03 1.933305e-02 -5.790643e-02 -1.091142e-02
<VARIANCE> 39
 2.335654e+01 3.175715e+01 1.131202e+02 6.338144e+01 6.196471e+01 4.795703e+01 5.783880e+01 5.721704e+01 7.114728e+01 4.870854e+01 3.709830e+01 2.889993e+01 2.792229e+01 1.442295e+00 2.162888e+00 3.199651e+00 4.463658e+00 4.756034e+00 3.833835e+00 5.137733e+00 4.871918e+00 4.266284e+00 3.578319e+00 3.484102e+00 2.602010e+00 3.014507e+00 2.754501e-01 4.370646e-01 4.792900e-01 8.911933e-01 9.297618e-01 6.568483e-01 8.445501e-01 8.917291e-01 7.525673e-01 6.761121e-01 6.682549e-01 4.655461e-01 7.425311e-01
<GCONST> 1.317910e+02
<TRANSP> 5
 0.000000e+00 1.000000e+00 0.000000e+00 0.000000e+00 0.000000e+00
 0.000000e+00 4.428134e-01 5.571866e-01 0.000000e+00 0.000000e+00
 0.000000e+00 0.000000e+00 4.149422e-01 5.850578e-01 0.000000e+00
 0.000000e+00 0.000000e+00 0.000000e+00 4.501778e-01 5.498222e-01
 0.000000e+00 0.000000e+00 0.000000e+00 0.000000e+00 0.000000e+00
<ENDHMM>
~h "eh"
<BEGINHMM>
<NUMSTATES> 5
<STATE> 2
<MEAN> 39
 4.696058e+00 -5.828717e+00 2.466066e+00 -2.894013e+00 -6.535817e+00 -4.717069e+00 -5.171631e-01 4.586929e+00 1.309117e+00 -3.616059e-01 -1.283127e+00 -5.521146e-01 9.294424e+00 9.176241e-01 -1.209065e+00 -1.001278e-01 -4.930178e-01 -6.813295e-01 -3.833378e-01 -2.285298e-01 1.064282e+00 2.333844e-01 -2.766004e-01 -2.254594e-01 -1.263126e-01 1.044675e+00 -2.973013e-01 2.800432e-01 -1.417069e-01 1.671028e-01 3.636090e-01 2.155065e-01 7.048117e-02 -1.989946e-01 -5.034992e-02 3.417535e-02 7.956064e-02 4.539924e-02 -3.655762e-01
<VARIANCE> 39
 2.625525e+01 3.248221e+01 3.763935e+01 3.458536e+01 4.007197e+01 4.269554e+01 6.040530e+01 5.087950e+01 4.921727e+01 3.599775e+01 3.355587e+01 2.842957e+01 2.754432e+01 3.348157e+00 2.966171e+00 2.461473e+00 2.987481e+00 3.629426e+00 3.599925e+00 4.807247e+00 4.293515e+00 3.819050e+00 2.953084e+00 2.807471e+00 2.311361e+00 2.610973e+00 4.785915e-01 4.456329e-01 3.364824e-01 4.507508e-01 5.449927e-01 5.738965e-01 7.399987e-01 7.026652e-01 6.199956e-01 4.875091e-01 4.796832e-01 3.846043e-01 4.155396e-01
<GCONST> 1.248571e+02
<STATE> 3
<MEAN> 39
