~o
<STREAMINFO> 1 39
<VECSIZE> 39<NULLD><MFCC_D_A_Z_0><DIAGC>
~h "b"
<BEGINHMM>
<NUMSTATES> 5
<STATE> 2
<MEAN> 39
 -7.592323e-01 1.020371e+01 3.510744e+00 1.011001e+01 6.913760e+00 4.462656e+00 1.143684e+00 -4.586294e+00 -3.077091e+00 -2.179138e+00 -7.860009e-01 -1.210643e+00 -1.741584e+01 -5.192623e-01 -1.573518e+00 -5.441548e-01 -1.081486e+00 -4.794252e-01 -4.274031e-01 2.513897e-01 8.454022e-01 1.067900e+00 5.385959e-01 3.896177e-01 4.819304e-01 2.392685e+00 5.731308e-01 -8.884774e-01 -3.708981e-01 -1.075129e+00 -7.649862e-01 -4.662795e-01 -3.368393e-01 1.611856e-01 2.472862e-01 2.961420e-01 2.171462e-01 9.920622e-02 1.785085e+00
<VARIANCE> 39
 4.214979e+01 2.359614e+01 2.253157e+01 2.563061e+01 2.329168e+01 2.537236e+01 3.385518e+01 3.951950e+01 4.128660e+01 3.104336e+01 2.708624e+01 2.204198e+01 2.253251e+01 2.879568e+00 3.135726e+00 2.359452e+00 3.479592e+00 2.451084e+00 2.783271e+00 3.052946e+00 3.825844e+00 3.974304e+00 3.017261e+00 2.594698e+00 2.117095e+00 6.565056e+00 5.768281e-01 6.391347e-01 8.493744e-01 8.624977e-01 6.961676e-01 7.095935e-01 6.754744e-01 8.118373e-01 7.964844e-01 7.353590e-01 6.123477e-01 4.585131e-01 8.802249e-01
<GCONST> 1.253873e+02
<STATE> 3
<MEAN> 39
 -2.647621e+00 3.283670e+00 1.033216e+00 5.536520e+00 4.724389e+00 1.684968e+00 1.858263e+00 -1.471675e+00 1.039754e+00 -1.444857e-01 4.625096e-01 4.142825e-01 -6.739449e+00 1.687974e+00 -3.043464e+00 -1.142093e+00 -3.501610e+00 -2.379868e+00 -1.490552e+00 -9.204092e-01 8.451458e-01 1.033731e+00 8.983498e-01 7.302505e-01 4.514870e-01 6.273347e+00 1.056189e+00 -1.359562e-01 -4.326387e-02 -6.951084e-01 -6.108085e-01 -1.482676e-02 -5.423259e-01 -2.016032e-01 -4.233377e-01 3.230604e-03 -2.015550e-02 -2.160600e-01 4.564894e-01
<VARIANCE> 39
 3.171234e+01 2.322148e+01 2.341633e+01 3.150395e+01 2.624027e+01 3.454543e+01 3.160660e+01 3.515501e+01 3.634069e+01 2.777601e+01 2.804867e+01 2.048815e+01 6.506658e+01 4.770786e+00 3.550076e+00 6.296253e+00 5.525413e+00 4.432172e+00 5.160299e+00 5.555147e+00 5.749255e+00 5.944626e+00 4.800951e+00 4.064174e+00 3.225715e+00 3.708949e+00 6.119473e-01 7.079865e-01 8.035620e-01 8.537232e-01 7.497876e-01 1.019647e+00 9.459050e-01 9.814833e-01 9.834849e-01 7.916743e-01 8.207422e-01 5.824470e-01 1.042103e+00
<GCONST> 1.338563e+02
<STATE> 4
<MEAN> 39
 5.023027e+00 -1.085392e+00 -1.908979e+00 -3.030384e+00 -1.456665e+00 -4.601713e-01 -1.489841e+00 -1.695024e+00 1.245758e+00 1.579716e+00 1.882147e+00 6.646938e-02 5.195224e+00 2.629264e+00 -2.528138e+00 -9.577696e-01 -3.677938e+00 -2.380037e+00 -4.555254e-01 -1.139031e+00 5.563988e-01 1.875560e-01 6.500232e-01 2.621157e-01 -1.816188e-01 4.452816e+00 -1.497824e-01 6.235039e-01 3.479150e-01 6.458076e-01 4.316765e-01 4.556785e-01 1.034121e-01 -1.338128e-01 -3.966895e-01 -3.132506e-01 -2.981613e-01 -2.015577e-01 -1.430280e+00
<VARIANCE> 39
 3.620618e+01 2.962220e+01 4.723402e+01 6.293726e+01 3.668448e+01 5.607435e+01 4.286240e+01 4.161770e+01 3.792099e+01 3.374738e+01 3.147629e+01 2.679218e+01 2.420589e+01 4.451823e+00 5.266402e+00 8.151675e+00 7.322083e+00 6.902922e+00 8.519692e+00 8.338242e+00 7.731363e+00 7.568992e+00 5.828359e+00 5.918715e+00 4.445344e+00 5.820687e+00 7.183845e-01 5.061424e-01 4.812945e-01 8.843318e-01 6.714862e-01 7.283517e-01 7.757038e-01 8.325672e-01 7.870467e-01 6.905043e-01 6.419013e-01 5.165800e-01 4.519021e-01
<GCONST> 1.376223e+02
<TRANSP> 5
 0.000000e+00 1.000000e+00 0.000000e+00 0.000000e+00 0.000000e+00
 0.000000e+00 5.098409e-01 4.901591e-01 0.000000e+00 0.000000e+00
 0.000000e+00 0.000000e+00 2.490866e-01 7.509134e-01 0.000000e+00
 0.000000e+00 0.000000e+00 0.000000e+00 3.963538e-01 6.036462e-01
 0.000000e+00 0.000000e+00 0.000000e+00 0.000000e+00 0.000000e+00
<ENDHMM>
~h "d"
<BEGINHMM>
<NUMSTATES> 5
<STATE> 2
<MEAN> 39
 -3.083622e+00 9.351940e+00 5.553695e+00 1.048458e+01 5.746500e+00 2.603098e+00 5.420801e-01 -4.001705e+00 -1.354650e+00 -2.128197e+00 -2.847268e+00 -1.632185e+00 -1.651518e+01 -1.249010e+00 -2.527496e+00 -6.422059e-01 -2.224027e+00 -4.275291e-03 4.683438e-01 4.359760e-01 9.797919e-01 8.148234e-01 5.916047e-01 1.040334e+00 7.596062e-01 3.392415e+00 3.376729e-01 -8.419533e-01 -1.368523e-01 -9.843351e-01 -9.385145e-01 -6.889343e-01 -3.052728e-01 3.701651e-01 1.999845e-01 1.890042e-01 2.456158e-01 2.794035e-01 1.977425e+00
<VARIANCE> 39
 3.560579e+01 3.465264e+01 2.847898e+01 3.409028e+01 3.246437e+01 3.551762e+01 3.543004e+01 3.583090e+01 3.371513e+01 2.974646e+01 3.369062e+01 2.179024e+01 4.437910e+01 3.024374e+00 4.779228e+00 3.285715e+00 4.944645e+00 4.010863e+00 4.688564e+00 4.490110e+00 4.510467e+00 4.263234e+00 3.627891e+00 3.476274e+00 2.693421e+00 8.501554e+00 5.851815e-01 8.698671e-01 5.781217e-01 7.467156e-01 8.469364e-01 7.963721e-01 8.299309e-01 8.019726e-01 7.419510e-01 6.393429e-01 6.294928e-01 4.972539e-01 1.117674e+00
<GCONST> 1.315766e+02
<STATE> 3
<MEAN> 39
 -6.852736e+00 -1.291582e+00 2.398582e+00 1.150206e+00 3.916308e+00 3.582124e+00 2.500628e+00 -5.654245e-01 1.540048e+00 2.684956e-01 1.417028e+00 1.526854e+00 -2.240324e+00 9.736716e-03 -2.298269e+00 -2.527015e-01 -3.121686e+00 -1.859645e+00 -1.571819e+00 -5.947661e-01 9.875283e-01 6.671280e-01 5.189052e-01 8.056447e-01 8.586088e-01 6.249735e+00 1.135722e+00 5.054286e-01 2.630269e-01 2.858634e-01 -7.912270e-01 -8.200665e-01 -6.757863e-01 -3.626044e-02 -2.331702e-01 -1.119006e-01 -3.973764e-01 -2.692456e-01 -7.030104e-02
<VARIANCE> 39
 2.880618e+01 4.005474e+01 4.064632e+01 5.000839e+01 4.179781e+01 4.474700e+01 3.939396e+01 3.610642e+01 3.676748e+01 2.938679e+01 3.245748e+01 2.086096e+01 8.658058e+01 4.244238e+00 4.438718e+00 3.694246e+00 4.182497e+00 4.209725e+00 4.806798e+00 5.104974e+00 4.870297e+00 4.608682e+00 3.743290e+00 3.556740e+00 2.580096e+00 6.813801e+00 5.820640e-01 8.189602e-01 9.120193e-01 1.030853e+00 1.069029e+00 1.087771e+00 1.050434e+00 1.021911e+00 1.005809e+00 8.096307e-01 8.476207e-01 6.395159e-01 1.436237e+00
<GCONST> 1.369445e+02
<STATE> 4
<MEAN> 39
 -2.325277e+00 -3.669852e-01 3.597823e+00 -1.545179e+00 -2.274999e+00 -3.958228e+00 -1.856962e+00 5.307833e-01 1.873421e+00 2.311564e-01 2.374793e-01 1.720741e+00 6.704269e+00 2.709280e+00 -1.090808e+00 -1.865613e-01 -1.156217e+00 -2.109904e+00 -1.848913e+00 -1.793126e+00 9.557435e-01 2.976457e-01 3.015668e-01 -4.406600e-01 -4.379799e-01 2.775127e+00 4.527454e-01 2.986657e-01 -2.493104e-01 7.170411e-01 4.627712e-01 6.242706e-01 7.955617e-02 -1.607011e-01 -1.847477e-01 -3.363498e-02 -2.096886e-01 -4.148941e-01 -1.596866e+00
<VARIANCE> 39
 4.648015e+01 3.624894e+01 3.560015e+01 3.597208e+01 4.584990e+01 4.382081e+01 5.020578e+01 3.937636e+01 3.680807e+01 2.775910e+01 2.765035e+01 2.287608e+01 2.341671e+01 4.835528e+00 4.620897e+00 5.610899e+00 5.688676e+00 6.657508e+00 6.578549e+00 7.408833e+00 6.203673e+00 5.977348e+00 4.718461e+00 5.683794e+00 4.162659e+00 7.613734e+00 8.578763e-01 8.273448e-01 7.184233e-01 7.894362e-01 1.104721e+00 1.167182e+00 1.173460e+00 9.098645e-01 8.594570e-01 7.257112e-01 7.676204e-01 6.030318e-01 6.001916e-01
<GCONST> 1.383562e+02
<TRANSP> 5
 0.000000e+00 1.000000e+00 0.000000e+00 0.000000e+00 0.000000e+00
 0.000000e+00 3.624452e-01 6.375547e-01 0.000000e+00 0.000000e+00
 0.000000e+00 0.000000e+00 3.039240e-01 6.960760e-01 0.000000e+00
 0.000000e+00 0.000000e+00 0.000000e+00 4.790534e-01 5.209465e-01
 0.000000e+00 0.000000e+00 0.000000e+00 0.000000e+00 0.000000e+00
<ENDHMM>
~h "f"
<BEGINHMM>
<NUMSTATES> 5
<STATE> 2
<MEAN> 39
 -5.605224e+00 1.667199e+00 -9.080642e-01 3.730597e+00 3.823212e+00 2.165534e+00 3.402836e+00 -2.167848e-02 1.304541e+00 -1.333570e-02 -4.666662e-01 5.781409e-01 -1.187755e+00 -3.989126e+00 -1.750100e-01 -2.561359e-01 9.798151e-01 6.065580e-01 4.422575e-01 7.639437e-01 5.972331e-01 7.048454e-01 3.469778e-01 4.355204e-01 6.616104e-01 -9.544863e-01 2.851326e-01 -4.521289e-01 -1.624156e-01 -4.545393e-01 -4.195013e-01 -2.203340e-01 -3.534082e-01 -1.156407e-02 -6.344832e-02 8.572160e-02 5.091495e-02 -3.546277e-02 3.328536e-01
<VARIANCE> 39
 6.023059e+01 2.193558e+01 2.690158e+01 3.088319e+01 2.375854e+01 3.096612e+01 2.926506e+01 2.606583e+01 2.613292e+01 2.441020e+01 2.247569e+01 1.945976e+01 3.256543e+01 5.038082e+00 4.073957e+00 4.612061e+00 5.468166e+00 4.077767e+00 4.724252e+00 4.557099e+00 4.036198e+00 4.035612e+00 3.583398e+00 3.601546e+00 2.711777e+00 3.455301e+00 1.134843e+00 6.086954e-01 5.890300e-01 7.118933e-01 6.335487e-01 5.983629e-01 6.766999e-01 6.542742e-01 6.165577e-01 5.801023e-01 5.216103e-01 4.533685e-01 4.678015e-01
<GCONST> 1.269023e+02
<STATE> 3
<MEAN> 39
 -1.327594e+01 -1.483681e+00 -3.538169e+00 3.127738e+00 2.591916e+00 1.438357e+00 2.830526e+00 7.106795e-01 2.140473e+00 1.328745e+00 5.010658e-01 1.794326e+00 -1.194914e+00 1.414448e-01 -1.733417e-01 -1.554300e-01 -1.316567e-01 -7.270094e-02 -6.378784e-02 -7.961646e-02 -5.685901e-02 2.910247e-02 7.677858e-02 3.248735e-02 -1.434883e-02 1.418112e-01 8.711685e-01 1.502811e-01 1.413495e-01 -1.139420e-01 -2.752304e-02 -6.403394e-02 -1.258631e-01 -9.364257e-02 -1.005986e-01 -8.470742e-02 -6.826077e-02 -1.140432e-01 1.160198e-01
<VARIANCE> 39
 1.258394e+01 1.580552e+01 1.693218e+01 1.773637e+01 1.751490e+01 2.023509e+01 2.030157e+01 2.082351e+01 2.240093e+01 1.897106e+01 2.142483e+01 1.482546e+01 2.142192e+01 2.528974e+00 9.998801e-01 1.165422e+00 1.255210e+00 1.346286e+00 1.438765e+00 1.526428e+00 1.572663e+00 1.559644e+00 1.521332e+00 1.456152e+00 1.298010e+00 1.419864e+00 4.996955e-01 2.471690e-01 2.988813e-01 3.546807e-01 3.553286e-01 3.939574e-01 4.296060e-01 3.996662e-01 3.942386e-01 3.631386e-01 3.645825e-01 3.111957e-01 2.954085e-01
<GCONST> 1.007621e+02
<STATE> 4
<MEAN> 39
 -4.566075e+00 -2.276838e-02 -2.381713e+00 1.698303e+00 2.300952e+00 1.283725e+00 2.453307e+00 -2.476995e-01 1.621113e+00 8.055305e-01 1.642326e-01 7.646552e-01 -8.062775e-02 5.113926e+00 5.482201e-02 2.543547e-02 -1.680100e+00 -1.257923e+00 -5.578222e-01 -1.377262e+00 -5.153668e-01 -6.364353e-01 -4.843981e-01 -1.418781e-01 -5.486497e-01 1.207201e+00 3.552983e-01 -3.186186e-01 -1.281365e-01 -3.816469e-01 -3.607734e-01 -6.938663e-02 -3.952699e-01 7.038804e-02 -7.641724e-02 -3.486130e-02 8.428236e-02 -2.123159e-02 2.810870e-01
<VARIANCE> 39
 7.032751e+01 2.341508e+01 2.903028e+01 3.363276e+01 2.874858e+01 2.772162e+01 2.975464e+01 2.689152e+01 2.726238e+01 2.195639e+01 2.161272e+01 1.839101e+01 2.287785e+01 4.964786e+00 3.912587e+00 5.355677e+00 5.620664e+00 4.942567e+00 5.922998e+00 5.937138e+00 4.583850e+00 4.597382e+00 3.584108e+00 3.792230e+00 2.920721e+00 3.651296e+00 1.308109e+00 5.205029e-01 5.265205e-01 6.900670e-01 6.856247e-01 7.075154e-01 7.752265e-01 6.931550e-01 6.754127e-01 5.970979e-01 5.121456e-01 4.361187e-01 4.831745e-01
<GCONST> 1.285208e+02
<TRANSP> 5
 0.000000e+00 1.000000e+00 0.000000e+00 0.000000e+00 0.000000e+00
 0.000000e+00 6.028000e-01 3.972000e-01 0.000000e+00 0.000000e+00
 0.000000e+00 0.000000e+00 8.283513e-01 1.716487e-01 0.000000e+00
 0.000000e+00 0.000000e+00 0.000000e+00 5.873308e-01 4.126692e-01
 0.000000e+00 0.000000e+00 0.000000e+00 0.000000e+00 0.000000e+00
<ENDHMM>
~h "g"
<BEGINHMM>
<NUMSTATES> 5
<STATE> 2
<MEAN> 39
 -4.029196e+00 3.021158e-01 -1.555582e+00 8.151516e+00 7.989634e+00 1.193123e+00 6.547691e-01 -1.161016e+00 4.790426e-01 5.210049e-01 -9.278181e-01 2.821594e-01 -9.717628e+00 -9.538566e-02 -3.594598e+00 -2.573098e+00 -2.238991e+00 7.437708e-01 -1.023916e-03 -5.454389e-01 7.748743e-01 1.444452e+00 1.581043e+00 1.381867e-01 7.487400e-01 4.157380e+00 8.101368e-01 4.028558e-01 5.575220e-01 -6.035368e-01 -1.110973e+00 -6.453430e-01 -3.137709e-01 -2.261641e-01 -5.390995e-01 3.611203e-03 2.156741e-01 -9.468403e-02 9.623913e-01
<VARIANCE> 39
 3.368423e+01 6.434081e+01 6.151273e+01 4.622871e+01 5.278019e+01 5.560776e+01 4.663554e+01 5.264262e+01 5.008977e+01 3.482710e+01 3.440266e+01 2.094790e+01 6.771128e+01 3.363142e+00 6.395934e+00 6.578213e+00 5.868419e+00 7.035525e+00 7.656732e+00 6.866570e+00 7.389936e+00 6.250622e+00 4.970991e+00 4.129820e+00 3.274979e+00 6.168981e+00 6.401866e-01 1.373212e+00 9.812998e-01 1.160710e+00 1.107712e+00 1.097267e+00 1.078225e+00 1.234981e+00 9.297867e-01 9.310708e-01 1.013182e+00 5.564198e-01 1.266204e+00
<GCONST> 1.438583e+02
<STATE> 3
<MEAN> 39
 -2.659906e+00 -4.952256e+00 -6.029246e+00 1.710880e+00 6.598599e+00 -1.275970e+00 -1.149061e+00 -1.113465e+00 1.358988e+00 3.993876e+00 -6.693758e-01 1.462150e+00 5.204775e-01 1.379390e+00 -1.533420e-01 2.703933e-01 -1.558280e+00 -1.112642e+00 -1.009169e+00 -1.209961e+00 -2.675955e-01 -3.583799e-02 4.695618e-01 3.804221e-01 1.308848e-01 3.012966e+00 7.894627e-01 1.311683e+00 1.115376e+00 3.964492e-01 -8.030582e-01 -3.043735e-01 -2.994815e-01 -2.205562e-01 -6.433460e-01 -6.806543e-01 1.667006e-01 -2.660285e-01 -7.775832e-01
<VARIANCE> 39
 2.634700e+01 4.952155e+01 7.224747e+01 5.131408e+01 6.574719e+01 6.625655e+01 6.074989e+01 6.038487e+01 6.242806e+01 4.386726e+01 3.561323e+01 2.685421e+01 2.460484e+01 3.827772e+00 7.079570e+00 5.966253e+00 7.268578e+00 5.768816e+00 5.937768e+00 5.096192e+00 5.268981e+00 4.992013e+00 4.642841e+00 3.879494e+00 2.763891e+00 6.847070e+00 5.368658e-01 1.195379e+00 1.146081e+00 1.186220e+00 1.140532e+00 1.291800e+00 1.335761e+00 1.329654e+00 1.267875e+00 1.160866e+00 9.296171e-01 7.201388e-01 7.026268e-01
<GCONST> 1.434276e+02
<STATE> 4
<MEAN> 39
 2.707970e+00 1.854818e+00 1.688849e+00 1.127612e+00 2.612758e-01 -4.287737e+00 -4.112349e+00 -3.381981e+00 -2.213071e+00 1.722460e+00 8.212179e-01 3.651315e-01 2.224928e+00 2.547597e+00 5.960332e-01 9.442412e-01 -1.258051e+00 -1.993264e+00 -9.573503e-01 -1.500952e+00 1.431887e-01 -5.806881e-01 -5.535615e-01 6.795733e-01 -2.281866e-01 1.388075e+00 -7.456919e-02 -2.914099e-01 -3.610106e-01 1.689693e-01 2.038275e-01 3.000188e-01 2.213377e-01 3.778163e-01 1.415210e-01 -2.058825e-01 -8.130726e-02 -7.628880e-02 -5.269885e-01
<VARIANCE> 39
 2.852290e+01 3.733078e+01 7.052335e+01 6.450542e+01 8.694403e+01 6.233263e+01 5.222721e+01 6.100712e+01 5.144452e+01 4.152174e+01 3.670935e+01 2.481275e+01 2.897184e+01 3.551796e+00 4.533480e+00 4.700032e+00 7.015622e+00 5.900197e+00 6.815567e+00 7.165771e+00 6.034204e+00 6.933963e+00 6.754902e+00 5.325449e+00 3.604846e+00 1.918196e+00 4.359229e-01 8.805876e-01 8.183975e-01 7.041242e-01 1.015961e+00 9.081603e-01 9.481494e-01 9.507307e-01 9.447988e-01 8.594362e-01 6.952615e-01 5.503845e-01 6.135585e-01
<GCONST> 1.394204e+02
<TRANSP> 5
 0.000000e+00 1.000000e+00 0.000000e+00 0.000000e+00 0.000000e+00
 0.000000e+00 2.456004e-01 7.543996e-01 0.000000e+00 0.000000e+00
 0.000000e+00 0.000000e+00 4.549385e-01 5.450615e-01 0.000000e+00
 0.000000e+00 0.000000e+00 0.000000e+00 3.721767e-01 6.278233e-01
 0.000000e+00 0.000000e+00 0.000000e+00 0.000000e+00 0.000000e+00
<ENDHMM>
~h "k"
<BEGINHMM>
<NUMSTATES> 5
<STATE> 2
<MEAN> 39
 -5.760992e+00 -7.161096e+00 -4.506690e+00 2.068303e+00 5.129152e+00 1.317651e+00 1.354066e+00 1.549605e+00 5.220094e-01 3.648408e+00 7.409938e-02 1.882853e+00 -2.515816e+00 6.781107e-01 -1.926566e+00 -1.185050e+00 -2.667331e+00 -8.819659e-01 -1.342802e+00 -5.532584e-01 1.123246e-01 -2.327072e-01 6.927664e-01 -3.989117e-01 1.007578e-01 6.177212e+00 -4.815386e-02 1.287688e+00 7.636423e-01 2.820627e-01 -1.423677e-01 -1.887674e-01 8.988695e-02 -1.339654e-01 -3.787008e-02 -2.875531e-01 6.761755e-02 -1.037652e-01 -4.368732e-01
<VARIANCE> 39
 3.324219e+01 3.959869e+01 6.775090e+01 5.465909e+01 5.295216e+01 5.199873e+01 5.406862e+01 4.852287e+01 5.179795e+01 3.423883e+01 2.974062e+01 2.307062e+01 5.514132e+01 3.590795e+00 3.636642e+00 4.699648e+00 4.269134e+00 4.681900e+00 4.653725e+00 4.648388e+00 4.383200e+00 4.539066e+00 3.510619e+00 3.216905e+00 2.529464e+00 6.003262e+00 8.045914e-01 8.422376e-01 8.775785e-01 8.913296e-01 9.630883e-01 9.217576e-01 9.021413e-01 8.430936e-01 9.273072e-01 6.953375e-01 6.295305e-01 5.246286e-01 1.589847e+00
<GCONST> 1.371021e+02
<STATE> 3
<MEAN> 39
 -6.428297e+00 -4.432366e+00 -4.660790e+00 -1.394660e+00 3.872500e+00 6.492087e-02 1.330663e+00 1.171483e+00 1.360090e+00 5.280560e+00 1.428754e-01 1.965814e+00 3.540688e+00 -9.668766e-02 1.379952e+00 1.003113e+00 -6.728204e-01 -4.769522e-01 -5.384426e-01 3.408083e-01 -2.555556e-01 1.409755e-01 -2.892052e-01 2.059540e-02 -1.330409e-03 1.933169e+00 1.566537e-01 9.283337e-01 6.947150e-01 7.673125e-01 4.065814e-02 2.869520e-01 1.789724e-01 -1.427877e-01 -1.304255e-01 -5.574125e-01 9.835918e-02 -1.417949e-01 -1.635599e+00
<VARIANCE> 39
 3.147486e+01 3.116121e+01 6.291029e+01 4.961234e+01 5.397185e+01 5.398557e+01 5.100615e+01 5.106996e+01 5.773375e+01 3.941623e+01 3.382499e+01 2.586610e+01 2.469623e+01 4.297572e+00 3.344868e+00 2.740834e+00 4.054740e+00 3.649182e+00 3.913831e+00 3.592959e+00 3.286412e+00 3.471300e+00 2.862977e+00 2.655086e+00 2.246981e+00 7.040644e+00 7.304381e-01 7.768031e-01 7.800103e-01 8.981311e-01 9.605646e-01 9.548340e-01 9.631555e-01 9.438448e-01 1.033921e+00 7.945379e-01 7.318921e-01 6.150649e-01 9.073151e-01
<GCONST> 1.342038e+02
<STATE> 4
<MEAN> 39
 -5.299217e+00 3.018069e-01 1.384386e+00 3.411444e-02 2.399460e+00 5.076715e-01 4.047806e+00 -5.969778e-01 3.536864e-01 1.609388e+00 -1.340587e-01 1.192690e+00 2.233275e+00 2.057281e+00 5.761729e-01 7.661684e-01 -1.607634e-01 -1.180437e+00 -5.241987e-01 -2.998823e-01 -1.564593e-01 -7.938972e-01 -1.186599e+00 -5.290964e-02 -5.367650e-01 4.444148e-01 4.854298e-01 -4.238764e-01 -3.165347e-01 -1.516420e-01 -2.492270e-01 -3.880455e-02 -3.923807e-01 1.407540e-01 -7.280995e-02 -2.198742e-04 8.075095e-02 -7.100505e-02 1.316508e-02
<VARIANCE> 39
 4.774281e+01 2.999090e+01 5.892381e+01 4.290579e+01 5.649364e+01 5.002177e+01 4.541950e+01 4.721259e+01 4.389396e+01 3.259946e+01 3.050131e+01 2.375525e+01 2.419921e+01 6.045910e+00 4.277534e+00 3.686136e+00 4.701872e+00 5.159346e+00 5.348996e+00 5.423974e+00 5.297200e+00 5.244621e+00 3.895733e+00 4.171008e+00 2.984718e+00 2.662115e+00 5.851345e-01 5.700525e-01 5.090836e-01 6.716233e-01 7.440209e-01 8.313156e-01 7.830075e-01 8.141019e-01 7.893665e-01 6.650878e-01 6.407604e-01 4.934687e-01 9.279436e-01
<GCONST> 1.337608e+02
<TRANSP> 5
 0.000000e+00 1.000000e+00 0.000000e+00 0.000000e+00 0.000000e+00
 0.000000e+00 2.853670e-01 7.146330e-01 0.000000e+00 0.000000e+00
 0.000000e+00 0.000000e+00 4.403061e-01 5.596938e-01 0.000000e+00
 0.000000e+00 0.000000e+00 0.000000e+00 6.198663e-01 3.801337e-01
 0.000000e+00 0.000000e+00 0.000000e+00 0.000000e+00 0.000000e+00
<ENDHMM>
~h "l"
<BEGINHMM>
<NUMSTATES> 5
<STATE> 2
<MEAN> 39
 8.653233e+00 2.955307e+00 -5.100194e+00 -1.372299e+01 -4.808506e-01 6.668990e+00 -1.928080e+00 -6.625166e+00 -8.041238e-01 1.031693e+00 2.431183e+00 -4.983616e-01 4.960283e+00 5.172424e-01 4.109477e-01 -2.576618e-01 -1.161865e+00 7.921802e-02 6.636963e-01 -1.799984e-01 -4.668418e-01 -4.132626e-01 5.358393e-02 4.205619e-01 2.078299e-01 -3.793566e-02 -2.837863e-01 -3.717611e-01 9.154161e-02 5.499426e-01 5.592557e-02 -3.493148e-01 -6.129890e-02 3.917537e-01 2.797052e-01 5.018644e-02 -1.896566e-01 -1.010944e-01 9.218471e-02
<VARIANCE> 39
 1.326271e+01 4.214846e+01 3.570440e+01 5.618680e+01 5.078143e+01 5.229698e+01 6.651779e+01 5.325990e+01 5.586528e+01 4.989237e+01 4.118748e+01 3.673015e+01 2.368617e+01 1.539017e+00 3.079452e+00 2.005082e+00 4.465885e+00 3.168649e+00 4.293038e+00 4.449404e+00 4.243391e+00 3.978210e+00 4.062567e+00 3.352736e+00 3.086508e+00 1.939184e+00 3.089488e-01 4.309621e-01 3.458972e-01 6.298851e-01 6.458915e-01 6.868542e-01 7.262740e-01 8.234946e-01 8.603588e-01 8.012440e-01 6.481748e-01 6.220999e-01 2.109330e-01
<GCONST> 1.274587e+02
<STATE> 3
<MEAN> 39
 8.456184e+00 1.172904e+00 -5.721462e+00 -1.340032e+01 1.681765e+00 6.526416e+00 -4.632254e+00 -6.848359e+00 6.481303e-01 3.801237e+00 2.920290e+00 -2.213507e+00 6.122004e+00 -3.674271e-01 -1.306673e+00 2.066229e-01 1.342167e+00 2.391481e-01 -1.209771e+00 -9.570287e-01 1.019296e+00 1.538074e+00 5.957584e-01 -1.029424e+00 -9.950845e-01 6.976145e-01 -3.105861e-01 -1.246211e-01 4.022880e-01 6.810818e-01 -2.917825e-01 -5.403004e-01 2.905169e-01 5.851094e-01 8.534797e-02 -4.707140e-01 -4.255932e-01 1.807385e-01 -1.094087e-01
<VARIANCE> 39
 1.087480e+01 2.742379e+01 3.594175e+01 4.718113e+01 4.363601e+01 5.024160e+01 6.763253e+01 4.896124e+01 5.048321e+01 4.941871e+01 3.993512e+01 3.610661e+01 1.882567e+01 7.481880e-01 3.317006e+00 2.154087e+00 4.046154e+00 3.096607e+00 4.824272e+00 4.355778e+00 4.623084e+00 4.970697e+00 4.107783e+00 3.508160e+00 3.455285e+00 1.833764e+00 2.494396e-01 3.651650e-01 3.761003e-01 5.734268e-01 7.079494e-01 6.449399e-01 7.385697e-01 8.140352e-01 8.051435e-01 8.029880e-01 6.147437e-01 6.378171e-01 2.285163e-01
<GCONST> 1.254669e+02
<STATE> 4
<MEAN> 39
 6.814767e+00 -1.816026e+00 -2.644363e+00 -7.229352e+00 1.577794e-02 -4.837732e-01 -6.389784e+00 -1.020806e+00 4.329279e+00 1.839387e+00 -1.967958e+00 -2.418832e+00 7.085014e+00 -7.960467e-01 -6.074510e-01 1.801649e+00 1.882358e+00 -1.358015e+00 -1.838714e+00 6.079093e-01 1.771027e+00 -4.174963e-01 -1.295612e+00 -6.548653e-01 7.292076e-01 6.169668e-02 -1.565674e-01 3.244174e-01 3.384062e-01 -4.457637e-02 -2.206012e-01 3.491312e-01 5.071214e-01 -3.105167e-01 -7.640690e-01 -1.917014e-01 4.296601e-01 2.690341e-01 -3.209626e-01
<VARIANCE> 39
 1.226559e+01 3.031632e+01 4.664292e+01 5.668814e+01 4.371526e+01 7.086898e+01 6.031662e+01 5.273547e+01 5.165544e+01 5.043359e+01 4.003941e+01 3.747598e+01 2.407852e+01 1.103619e+00 2.978711e+00 4.242775e+00 3.819686e+00 5.010415e+00 5.244325e+00 4.542423e+00 5.743270e+00 6.174718e+00 4.458429e+00 3.952052e+00 3.586323e+00 1.785147e+00 2.469292e-01 3.186372e-01 3.742649e-01 8.207864e-01 7.017225e-01 9.425387e-01 8.110653e-01 8.852078e-01 9.740618e-01 8.777738e-01 6.584234e-01 6.995734e-01 1.883276e-01
<GCONST> 1.299223e+02
<TRANSP> 5
 0.000000e+00 1.000000e+00 0.000000e+00 0.000000e+00 0.000000e+00
 0.000000e+00 7.039411e-01 2.960589e-01 0.000000e+00 0.000000e+00
 0.000000e+00 0.000000e+00 4.592730e-01 5.407270e-01 0.000000e+00
 0.000000e+00 0.000000e+00 0.000000e+00 4.585821e-01 5.414180e-01
 0.000000e+00 0.000000e+00 0.000000e+00 0.000000e+00 0.000000e+00
<ENDHMM>
~h "m"
<BEGINHMM>
<NUMSTATES> 5
<STATE> 2
<MEAN> 39
 6.145574e+00 2.877545e+00 -8.937165e-02 3.869845e+00 7.637262e-01 -1.363951e+00 -1.208436e+00 -6.190272e+00 -6.037100e+00 -7.559231e-01 4.731049e-01 -3.539271e+00 -2.437857e+00 2.971475e-01 1.473602e+00 9.781991e-01 1.770724e+00 2.350727e-01 -1.125939e+00 1.082843e-01 -2.329626e+00 -2.520650e+00 3.617591e-01 2.588105e-01 -8.227214e-01 -9.495667e-01 -2.508572e-01 -3.727491e-01 1.379267e-01 -2.773733e-01 -2.056262e-01 8.157987e-02 -6.607948e-02 4.152956e-01 3.295237e-01 -2.723835e-02 -7.531106e-02 1.544455e-01 4.458433e-01
<VARIANCE> 39
 2.008460e+01 3.372260e+01 3.000501e+01 4.127004e+01 3.853519e+01 4.445018e+01 5.464361e+01 4.747120e+01 5.490411e+01 4.269851e+01 4.455883e+01 3.746338e+01 3.449501e+01 4.473179e+00 2.745244e+00 4.169836e+00 4.221265e+00 5.313712e+00 4.548213e+00 6.195095e+00 5.348693e+00 5.872400e+00 5.057319e+00 5.302663e+00 3.979633e+00 5.024707e+00 3.197925e-01 4.332566e-01 5.720912e-01 6.217504e-01 6.223979e-01 6.091155e-01 7.518700e-01 7.728961e-01 9.420604e-01 6.463493e-01 6.618309e-01 5.402771e-01 3.307315e-01
<GCONST> 1.323071e+02
<STATE> 3
<MEAN> 39
 6.110763e+00 3.717119e+00 2.410558e+00 6.452110e+00 1.047639e-01 -3.417958e+00 -1.642986e+00 -9.457590e+00 -9.784474e+00 5.587873e-01 5.667943e-01 -5.008952e+00 -2.594989e+00 9.809340e-03 -5.329447e-02 2.193128e-01 3.231130e-02 -1.542170e-01 -6.160698e-02 -1.089800e-01 -1.269028e-01 -4.243907e-02 -7.746165e-02 -7.320371e-02 7.072452e-03 2.735429e-01 -1.144519e-01 -4.553212e-01 -2.654600e-01 -6.892231e-01 -1.305903e-01 3.856644e-01 -2.146986e-02 8.022149e-01 8.589042e-01 -1.778037e-01 -1.031129e-01 3.244815e-01 3.941591e-01
<VARIANCE> 39
 9.290799e+00 1.876793e+01 2.357887e+01 3.194561e+01 3.756728e+01 4.997957e+01 5.794921e+01 4.820370e+01 5.099537e+01 4.856094e+01 5.769353e+01 4.605812e+01 1.540852e+01 1.206516e+00 1.949452e+00 1.553263e+00 2.213624e+00 2.186909e+00 2.187307e+00 2.563421e+00 2.912661e+00 3.531977e+00 2.451503e+00 2.527833e+00 2.104344e+00 2.331358e+00 3.519087e-01 2.837603e-01 5.121262e-01 5.026838e-01 5.859292e-01 5.606032e-01 7.030712e-01 7.245508e-01 8.551962e-01 6.929649e-01 7.290753e-01 5.957000e-01 2.303023e-01
<GCONST> 1.194379e+02
<STATE> 4
<MEAN> 39
 6.095014e+00 1.606476e+00 9.058154e-01 3.435350e+00 -5.910048e-01 -1.917715e+00 -2.134368e+00 -6.455838e+00 -5.468427e+00 -1.150847e+00 -2.221401e-01 -3.434958e+00 2.131988e-01 -1.386968e-01 -1.561053e+00 -3.415191e-01 -2.250363e+00 -1.006779e+00 9.580748e-01 -1.262123e-01 2.414096e+00 2.307721e+00 -6.425284e-01 -4.428768e-01 9.262764e-01 1.779279e+00 -2.666506e-01 -1.643328e-01 9.942471e-02 -3.790040e-01 -1.013770e-01 2.464347e-01 1.797019e-01 4.700922e-01 1.504753e-01 5.112987e-02 5.290338e-03 1.411415e-01 8.715251e-02
<VARIANCE> 39
 1.224987e+01 2.756492e+01 2.923123e+01 4.080679e+01 3.580284e+01 4.629736e+01 4.744161e+01 5.051271e+01 6.251953e+01 4.100070e+01 4.540148e+01 3.545941e+01 2.868323e+01 2.185894e+00 3.574320e+00 5.579304e+00 5.180805e+00 5.409090e+00 4.724590e+00 5.363196e+00 5.501248e+00 6.723506e+00 4.971820e+00 5.135756e+00 3.958873e+00 3.542424e+00 3.438086e-01 4.172373e-01 5.929344e-01 6.481075e-01 6.598884e-01 6.754154e-01 7.183986e-01 8.599643e-01 1.218256e+00 6.891006e-01 6.990611e-01 5.425408e-01 3.330692e-01
<GCONST> 1.317674e+02
<TRANSP> 5
 0.000000e+00 1.000000e+00 0.000000e+00 0.000000e+00 0.000000e+00
 0.000000e+00 3.940890e-01 6.059110e-01 0.000000e+00 0.000000e+00
 0.000000e+00 0.000000e+00 6.674733e-01 3.325267e-01 0.000000e+00
 0.000000e+00 0.000000e+00 0.000000e+00 4.498376e-01 5.501624e-01
 0.000000e+00 0.000000e+00 0.000000e+00 0.000000e+00 0.000000e+00
<ENDHMM>
~h "n"
<BEGINHMM>
<NUMSTATES> 5
<STATE> 2
<MEAN> 39
 5.697375e+00 2.179640e-01 2.205683e+00 1.017310e+00 -3.124818e+00 -2.456916e+00 -1.084149e+00 -1.537799e+00 -3.705437e+00 -1.604445e+00 -2.706264e+00 -2.146531e+00 1.178561e+00 1.786753e-01 1.867087e+00 2.314983e-01 1.658035e+00 -6.231945e-04 -6.339749e-01 1.215146e+00 -3.050372e+00 -1.466666e+00 1.269835e+00 -7.913775e-01 -2.520466e-01 -2.012684e+00 -1.657126e-01 3.388467e-02 3.579456e-02 -9.043428e-02 -5.925767e-02 1.327955e-01 1.168175e-01 -1.293189e-01 4.889856e-02 6.907018e-02 1.697860e-02 8.415086e-02 6.291418e-02
<VARIANCE> 39
 1.063946e+01 2.735829e+01 3.353665e+01 3.917907e+01 3.930293e+01 3.976122e+01 4.482552e+01 6.832420e+01 5.507076e+01 4.510927e+01 3.861301e+01 3.680811e+01 2.578593e+01 1.375423e+00 2.506914e+00 4.190696e+00 3.675205e+00 4.700674e+00 5.002526e+00 5.071580e+00 6.650497e+00 6.049218e+00 4.606019e+00 4.118556e+00 3.646949e+00 2.305999e+00 1.950143e-01 3.605992e-01 4.223119e-01 4.884930e-01 5.613996e-01 5.390183e-01 6.484515e-01 1.073630e+00 7.362835e-01 6.196135e-01 5.301685e-01 4.674972e-01 3.085721e-01
<GCONST> 1.266140e+02
<STATE> 3
<MEAN> 39
 5.896748e+00 4.577550e+00 3.006366e+00 4.545887e+00 -4.301491e+00 -3.282379e+00 3.243905e+00 -1.022022e+01 -7.520952e+00 2.588619e+00 -4.872286e+00 -2.219929e+00 -2.861526e+00 -1.492047e-01 8.530511e-01 1.152117e-01 5.009993e-01 7.686484e-02 -7.112140e-03 3.155589e-01 -1.033405e+00 -3.923829e-01 2.250980e-01 -2.557217e-01 1.064028e-02 -7.637088e-01 -2.913386e-01 -5.264316e-01 -5.037488e-02 -5.306902e-01 2.058614e-01 2.732668e-01 -5.501295e-01 1.178381e+00 6.337963e-01 -5.517668e-01 3.322311e-01 1.085495e-01 5.249869e-01
<VARIANCE> 39
 9.607754e+00 1.907860e+01 2.323472e+01 3.332582e+01 3.579611e+01 3.999056e+01 4.647479e+01 5.586115e+01 5.224125e+01 4.831382e+01 4.465624e+01 4.361156e+01 1.547317e+01 8.516726e-01 2.677022e+00 2.067624e+00 2.503426e+00 2.545078e+00 2.712935e+00 3.549928e+00 5.857636e+00 4.022707e+00 3.291254e+00 2.624793e+00 2.248314e+00 2.283318e+00 2.935545e-01 4.600612e-01 5.805848e-01 6.269662e-01 7.153164e-01 7.679464e-01 7.892222e-01 1.094204e+00 1.039091e+00 7.911972e-01 7.132447e-01 6.480145e-01 3.576222e-01
<GCONST> 1.236804e+02
<STATE> 4
<MEAN> 39
 4.600623e+00 3.678720e+00 2.986197e+00 3.468178e+00 -2.771861e+00 -2.320942e+00 7.203382e-02 -6.489094e+00 -5.039524e+00 -4.427755e-01 -4.150993e+00 -1.979525e+00 -2.150823e+00 -1.023236e+00 -7.594587e-01 -2.523350e-01 -9.244987e-01 7.904195e-01 6.997499e-01 -9.166450e-01 2.042839e+00 1.245420e+00 -8.650183e-01 6.028290e-01 1.981228e-01 7.443578e-01 -3.201624e-01 -3.681360e-01 -2.136060e-01 -3.626387e-01 1.278047e-01 2.813597e-01 3.364978e-02 6.099667e-01 3.369420e-01 -2.546038e-02 2.646468e-01 1.067750e-01 3.308918e-01
<VARIANCE> 39
 1.425838e+01 3.809000e+01 2.787942e+01 3.812034e+01 3.881276e+01 3.675466e+01 4.948897e+01 6.574377e+01 5.465214e+01 4.799826e+01 3.917368e+01 3.715543e+01 3.525992e+01 3.007483e+00 5.134356e+00 4.101277e+00 4.877470e+00 4.739480e+00 4.639565e+00 5.486092e+00 8.559854e+00 6.521952e+00 5.005369e+00 4.390439e+00 3.798674e+00 4.933763e+00 5.076197e-01 6.803572e-01 5.581149e-01 6.713944e-01 7.585033e-01 7.211118e-01 8.613893e-01 1.387872e+00 1.075860e+00 8.391076e-01 7.180505e-01 6.093007e-01 5.315987e-01
<GCONST> 1.355500e+02
<TRANSP> 5
 0.000000e+00 1.000000e+00 0.000000e+00 0.000000e+00 0.000000e+00
 0.000000e+00 4.310932e-01 5.689068e-01 0.000000e+00 0.000000e+00
 0.000000e+00 0.000000e+00 5.770718e-01 4.229282e-01 0.000000e+00
 0.000000e+00 0.000000e+00 0.000000e+00 4.293173e-01 5.706828e-01
 0.000000e+00 0.000000e+00 0.000000e+00 0.000000e+00 0.000000e+00
<ENDHMM>
~h "p"
<BEGINHMM>
<NUMSTATES> 5
<STATE> 2
<MEAN> 39
 -8.324850e+00 3.312956e+00 -3.597330e-01 6.743466e+00 5.348141e+00 4.701945e+00 4.422216e+00 1.056350e+00 3.319414e+00 2.614961e+00 2.339027e+00 1.997735e+00 -1.655259e+01 8.711181e-01 -1.527687e+00 -3.920790e-01 -1.131947e+00 -3.741611e-01 -8.556784e-01 -2.162368e-01 2.539565e-01 5.245800e-01 1.136916e-01 1.385461e-02 4.789493e-02 5.064335e+00 8.125450e-01 -1.580277e-01 -2.463041e-02 -3.437039e-01 -1.461668e-01 -2.810957e-01 -2.973143e-01 -2.524404e-01 -3.278695e-01 -2.547240e-01 -2.404909e-01 -1.990649e-01 1.218218e+00
<VARIANCE> 39
 1.126143e+01 1.471786e+01 1.590669e+01 2.085950e+01 1.834942e+01 2.212602e+01 2.103771e+01 2.231626e+01 2.287542e+01 1.906243e+01 1.908663e+01 1.539496e+01 6.269596e+01 1.881936e+00 1.990499e+00 1.808617e+00 2.447613e+00 2.079145e+00 2.522867e+00 2.449943e+00 2.753847e+00 2.800853e+00 2.358773e+00 1.979631e+00 1.805742e+00 8.001465e+00 5.164938e-01 3.772300e-01 4.327336e-01 5.253486e-01 4.891284e-01 5.660303e-01 5.854862e-01 5.873646e-01 6.072361e-01 4.750129e-01 4.311188e-01 3.785787e-01 1.443598e+00
<GCONST> 1.141083e+02
<STATE> 3
<MEAN> 39
 -4.990037e+00 -2.528829e+00 -1.866117e+00 2.954187e+00 4.531796e+00 2.214693e+00 3.944046e+00 1.568987e+00 4.601480e+00 2.565245e+00 2.208098e+00 1.763469e+00 1.587655e+00 1.729619e+00 -1.287853e+00 -7.436343e-01 -1.391850e+00 -4.095685e-01 -6.310268e-01 -4.558019e-01 -2.660115e-01 -3.592597e-01 -3.765242e-01 -5.373565e-01 -3.369977e-01 3.328521e+00 4.736016e-01 4.837731e-01 -1.326388e-02 -1.739911e-02 -1.661409e-01 5.464872e-02 -3.294373e-01 -2.573794e-01 -4.912994e-01 -2.761880e-01 -2.377607e-01 -1.733226e-01 -1.238368e+00
<VARIANCE> 39
 1.435928e+01 2.212234e+01 2.721884e+01 3.038059e+01 2.724522e+01 3.029718e+01 3.156163e+01 3.092240e+01 2.866908e+01 2.432663e+01 2.419067e+01 1.812163e+01 2.823971e+01 3.845931e+00 2.690519e+00 2.958692e+00 3.699470e+00 3.396740e+00 4.182913e+00 4.054038e+00 3.390036e+00 3.260778e+00 2.754574e+00 2.483832e+00 2.014935e+00 1.121979e+01 5.587331e-01 5.065565e-01 5.043424e-01 6.422999e-01 6.593997e-01 6.843284e-01 7.540411e-01 7.601626e-01 7.609464e-01 5.978127e-01 5.581154e-01 4.555668e-01 1.016001e+00
<GCONST> 1.240709e+02
<STATE> 4
<MEAN> 39
 4.771008e-01 -1.756503e+00 -3.553169e+00 -7.238571e-01 3.053312e+00 2.195821e+00 3.067208e+00 -6.422524e-01 9.142791e-01 1.002806e-01 -6.547198e-01 -7.789104e-02 1.164101e+00 3.206483e+00 1.201393e-01 -5.724525e-01 -1.576788e+00 -1.293545e+00 -5.823576e-01 -1.629696e+00 -4.962720e-01 -1.105500e+00 -7.816228e-01 -5.369857e-01 -5.328491e-01 1.479042e+00 6.844489e-02 1.731616e-02 7.292692e-02 3.795604e-02 -2.188534e-01 7.564718e-03 -2.934738e-01 1.617861e-01 9.742620e-02 1.056950e-01 2.505001e-01 7.843303e-02 -1.630640e-01
<VARIANCE> 39
 4.339690e+01 3.448630e+01 4.770100e+01 5.502897e+01 4.777325e+01 4.879099e+01 5.254874e+01 4.396461e+01 3.796491e+01 3.413139e+01 2.785125e+01 2.314717e+01 2.536514e+01 4.427930e+00 3.929900e+00 4.932858e+00 5.595579e+00 5.382023e+00 5.949826e+00 6.391592e+00 5.592789e+00 5.442451e+00 4.062068e+00 4.350818e+00 2.939075e+00 4.440998e+00 7.107297e-01 6.777945e-01 4.982491e-01 6.755774e-01 7.422583e-01 7.469409e-01 8.260311e-01 7.908523e-01 7.815405e-01 7.249366e-01 5.720901e-01 4.735985e-01 1.190770e+00
<GCONST> 1.350475e+02
<TRANSP> 5
 0.000000e+00 1.000000e+00 0.000000e+00 0.000000e+00 0.000000e+00
 0.000000e+00 4.725484e-01 5.274516e-01 0.000000e+00 0.000000e+00
 0.000000e+00 0.000000e+00 5.749797e-01 4.250203e-01 0.000000e+00
 0.000000e+00 0.000000e+00 0.000000e+00 5.249782e-01 4.750217e-01
 0.000000e+00 0.000000e+00 0.000000e+00 0.000000e+00 0.000000e+00
<ENDHMM>
~h "q"
<BEGINHMM>
<NUMSTATES> 5
<STATE> 2
<MEAN> 39
 -2.501108e+00 1.045611e+00 -1.915140e+00 9.969357e-01 -4.916165e-01 1.603133e-01 9.327474e-01 1.467935e+00 4.386106e+00 3.695756e+00 1.301885e+00 2.070934e-01 -9.737250e+00 -3.350115e-01 2.542458e-01 3.217345e-02 4.404006e-03 3.109015e-01 9.197570e-01 8.264674e-01 1.101138e-01 2.983038e-02 6.622986e-02 1.493042e-01 -2.033852e-02 -8.104810e-01 4.172606e-01 -2.446721e-01 6.124049e-02 -3.664649e-01 -6.896251e-02 6.706551e-02 -1.347057e-02 -1.920079e-01 -4.767043e-01 -3.218267e-01 -2.049396e-01 -7.834677e-02 9.536796e-01
<VARIANCE> 39
 5.200607e+01 3.739825e+01 6.180866e+01 6.787737e+01 7.479949e+01 8.119680e+01 6.774767e+01 7.060925e+01 7.033484e+01 5.985398e+01 5.767974e+01 4.891111e+01 9.887172e+01 5.580012e+00 4.540804e+00 5.203142e+00 7.463736e+00 7.379543e+00 7.362412e+00 6.733130e+00 7.443393e+00 7.479286e+00 6.051601e+00 5.647712e+00 4.642252e+00 1.095225e+01 1.094539e+00 8.127801e-01 8.389152e-01 1.440138e+00 1.470896e+00 1.400517e+00 1.311224e+00 1.364000e+00 1.338496e+00 1.178312e+00 1.135022e+00 9.422647e-01 1.889700e+00
<GCONST> 1.524695e+02
<STATE> 3
<MEAN> 39
 1.216226e-01 -1.291357e-01 -1.555114e+00 -1.467880e+00 -1.115077e+00 1.719213e+00 2.482333e+00 1.852658e-01 6.543094e-01 1.394719e+00 -1.216863e-01 -3.429645e-01 -5.195518e+00 1.830584e+00 -8.920050e-01 8.078484e-02 -2.052955e+00 -9.892616e-01 1.296917e-01 1.090611e-01 -4.302365e-01 -1.137098e+00 -7.351242e-01 -6.121383e-01 -4.338927e-01 3.160145e+00 2.694708e-01 -1.827334e-01 4.405248e-02 -2.225300e-01 -9.448466e-02 -7.668105e-02 -2.342860e-01 2.844414e-02 -1.517776e-02 -5.308852e-02 -8.770361e-03 -3.011865e-02 6.018226e-01
<VARIANCE> 39
 4.114637e+01 4.312763e+01 8.376344e+01 6.297338e+01 7.270055e+01 7.265698e+01 6.065923e+01 5.367633e+01 4.845883e+01 4.257534e+01 3.906885e+01 3.224651e+01 7.202477e+01 4.753513e+00 4.417696e+00 5.063633e+00 7.258922e+00 6.963976e+00 6.693085e+00 6.383872e+00 6.493820e+00 5.399092e+00 4.805846e+00 4.764170e+00 3.694389e+00 1.108156e+01 5.152889e-01 5.476416e-01 5.266895e-01 7.633194e-01 8.328586e-01 7.771093e-01 8.282371e-01 8.227591e-01 7.889459e-01 6.953536e-01 6.613235e-01 5.436106e-01 7.834070e-01
<GCONST> 1.413193e+02
<STATE> 4
<MEAN> 39
 3.549280e+00 -2.192307e+00 -5.886220e-01 -6.037111e+00 -3.869294e+00 9.522623e-01 2.169873e+00 -8.390591e-02 -1.289283e+00 3.962511e-01 -1.246025e+00 -1.342431e+00 1.852314e+00 1.322626e+00 -8.381185e-01 1.690205e-01 -1.373947e+00 -5.223227e-01 2.661764e-01 -1.070524e-01 -3.935717e-02 -6.115219e-01 -5.122362e-01 -2.024733e-01 -2.908308e-01 2.707566e+00 -2.893929e-01 1.352769e-01 9.879455e-03 4.272588e-01 2.326787e-01 4.920520e-02 -1.340163e-01 1.087346e-01 2.455275e-01 8.173828e-02 1.826455e-01 1.257466e-01 -4.302557e-01
<VARIANCE> 39
 2.386608e+01 4.441082e+01 9.667506e+01 6.111811e+01 7.039155e+01 7.312774e+01 5.982734e+01 5.937734e+01 4.844292e+01 4.565396e+01 3.937476e+01 3.252086e+01 3.995643e+01 2.935251e+00 3.037789e+00 2.811744e+00 4.575375e+00 4.306324e+00 4.357321e+00 3.938428e+00 4.160120e+00 3.853403e+00 3.314437e+00 3.321370e+00 2.592375e+00 6.473087e+00 4.131010e-01 5.210056e-01 5.153907e-01 7.391254e-01 6.752942e-01 6.430570e-01 7.034910e-01 7.415212e-01 6.455950e-01 6.266691e-01 5.717647e-01 4.724472e-01 9.180237e-01
<GCONST> 1.333464e+02
<TRANSP> 5
 0.000000e+00 1.000000e+00 0.000000e+00 0.000000e+00 0.000000e+00
 0.000000e+00 5.898122e-01 4.101878e-01 0.000000e+00 0.000000e+00
 0.000000e+00 0.000000e+00 2.272674e-01 7.727326e-01 0.000000e+00
 0.000000e+00 0.000000e+00 0.000000e+00 3.836479e-01 6.163520e-01
 0.000000e+00 0.000000e+00 0.000000e+00 0.000000e+00 0.000000e+00
<ENDHMM>
~h "r"
<BEGINHMM>
<NUMSTATES> 5
<STATE> 2
<MEAN> 39
 1.191750e+01 -1.673045e+00 -9.538939e+00 2.108130e+00 4.627962e+00 -3.870444e+00 -1.053245e+01 -1.208242e+00 9.149168e-01 -1.200712e+00 1.068175e+00 2.343540e+00 1.884032e+00 1.336223e+00 -4.228569e-01 -1.029904e+00 3.001034e-02 2.268033e-01 -5.991637e-01 -1.511015e+00 4.610069e-01 6.246962e-01 -1.053585e-01 -8.808166e-02 1.582320e-01 4.816128e-01 -5.209807e-01 -3.255677e-01 5.497441e-01 5.441873e-02 -4.662648e-01 -6.805047e-02 4.544087e-01 3.948512e-01 -1.220828e-02 4.210661e-03 3.983406e-03 -8.076636e-02 1.484166e-01
<VARIANCE> 39
 1.658813e+01 3.222151e+01 5.313394e+01 3.295464e+01 4.078022e+01 5.288015e+01 6.067638e+01 7.892319e+01 5.382087e+01 3.517939e+01 3.244535e+01 3.407970e+01 2.435336e+01 3.869981e+00 2.670947e+00 3.700675e+00 2.785940e+00 3.996216e+00 5.027330e+00 5.919950e+00 5.293311e+00 4.411585e+00 3.644592e+00 2.841781e+00 2.433577e+00 1.989547e+00 4.652825e-01 3.608826e-01 4.492980e-01 4.239459e-01 4.768309e-01 6.930130e-01 9.162474e-01 8.084572e-01 6.520352e-01 5.608612e-01 4.797720e-01 4.333759e-01 2.361927e-01
<GCONST> 1.269672e+02
<STATE> 3
<MEAN> 39
 1.269449e+01 -7.006793e+00 -9.605869e+00 3.655131e+00 2.817920e+00 -8.177754e+00 -1.339824e+01 5.985919e+00 4.519309e+00 -1.897500e+00 2.628065e-03 1.794697e+00 5.738422e+00 -2.827664e-01 -9.734902e-01 1.440091e+00 4.313520e-01 -1.538061e+00 -1.088682e+00 5.378274e-01 1.524954e+00 -2.438475e-01 -6.654548e-01 -8.102315e-03 -3.230984e-03 6.107876e-01 -6.649031e-01 2.324312e-01 7.581534e-01 -2.090638e-01 -3.900424e-01 4.695339e-01 1.062909e+00 -3.385043e-01 -6.045736e-01 3.282847e-02 1.850604e-01 -1.030141e-01 -1.939206e-01
<VARIANCE> 39
 9.543364e+00 1.743244e+01 4.970183e+01 3.361314e+01 5.157974e+01 5.940837e+01 8.097832e+01 7.072366e+01 6.052714e+01 4.008437e+01 3.284133e+01 3.121703e+01 1.281618e+01 1.299515e+00 2.399022e+00 3.023187e+00 2.507574e+00 3.449586e+00 3.730713e+00 4.842291e+00 5.254213e+00 4.075144e+00 3.376402e+00 3.054549e+00 2.401580e+00 1.957223e+00 4.063418e-01 2.254554e-01 3.427638e-01 3.990786e-01 5.336977e-01 6.328587e-01 8.418339e-01 6.829256e-01 6.468133e-01 5.619922e-01 4.488433e-01 4.009529e-01 1.806206e-01
<GCONST> 1.219535e+02
<STATE> 4
<MEAN> 39
 1.036070e+01 -8.542542e+00 -3.192563e+00 3.745925e+00 -3.070405e+00 -9.839343e+00 -7.304084e+00 8.572792e+00 -7.043099e-02 -3.314711e+00 1.538237e+00 1.335142e+00 6.851760e+00 -1.164639e+00 9.681871e-02 2.532392e+00 -6.312938e-01 -1.798015e+00 5.481530e-01 2.078663e+00 -4.550360e-01 -1.471039e+00 1.663089e-01 3.662350e-01 -5.013051e-01 1.056696e-01 -3.595723e-01 5.100478e-01 1.106276e-01 -3.220968e-01 3.065609e-01 6.899039e-01 2.085309e-01 -8.013891e-01 -2.911984e-02 3.292138e-01 -1.167073e-01 -1.685182e-01 -3.185745e-01
<VARIANCE> 39
 1.069314e+01 1.930113e+01 6.463834e+01 3.508180e+01 5.372055e+01 7.157869e+01 8.465367e+01 6.263622e+01 7.234081e+01 4.925120e+01 3.713580e+01 3.365635e+01 1.507724e+01 1.057785e+00 2.270552e+00 2.916256e+00 3.234800e+00 3.865339e+00 3.699962e+00 4.612258e+00 5.083510e+00 4.250505e+00 3.465106e+00 3.313094e+00 2.723178e+00 2.324336e+00 3.266241e-01 2.457680e-01 3.566058e-01 4.277393e-01 5.224044e-01 7.011586e-01 9.224429e-01 7.164023e-01 7.054951e-01 5.743950e-01 5.033853e-01 4.312479e-01 1.977561e-01
<GCONST> 1.243820e+02
<TRANSP> 5
 0.000000e+00 1.000000e+00 0.000000e+00 0.000000e+00 0.000000e+00
 0.000000e+00 5.919939e-01 4.080062e-01 0.000000e+00 0.000000e+00
 0.000000e+00 0.000000e+00 4.643129e-01 5.356871e-01 0.000000e+00
 0.000000e+00 0.000000e+00 0.000000e+00 4.620945e-01 5.379055e-01
 0.000000e+00 0.000000e+00 0.000000e+00 0.000000e+00 0.000000e+00
<ENDHMM>
~h "s"
<BEGINHMM>
<NUMSTATES> 5
<STATE> 2
<MEAN> 39
 -1.050461e+01 7.055806e+00 9.423517e-02 1.292658e+00 5.150790e+00 -1.709557e+00 3.404233e+00 4.923822e-01 1.140422e+00 -1.337367e-01 -7.943764e-01 1.257457e+00 3.516149e+00 -4.713373e+00 1.498724e+00 -9.997145e-01 3.520960e-01 1.961383e+00 1.016996e+00 1.551056e+00 8.700728e-01 5.000672e-01 2.956101e-01 8.595968e-01 7.106918e-01 3.302360e-02 4.310669e-01 -5.266806e-01 -1.144437e-01 -1.562485e-01 -3.480091e-01 7.301611e-02 -3.168417e-01 5.910072e-02 -6.660441e-02 9.166843e-02 3.600639e-02 -6.585443e-02 3.139546e-02
<VARIANCE> 39
 8.016837e+01 3.080735e+01 4.054562e+01 4.241618e+01 4.787194e+01 4.557747e+01 4.235923e+01 3.803899e+01 3.360140e+01 3.265651e+01 3.192116e+01 2.264403e+01 1.839248e+01 4.150737e+00 4.100453e+00 4.599792e+00 5.366934e+00 4.489119e+00 5.101033e+00 5.006682e+00 4.493558e+00 4.325958e+00 4.105854e+00 4.004835e+00 2.973902e+00 2.203690e+00 1.351726e+00 5.864218e-01 6.327739e-01 6.856245e-01 7.584577e-01 7.930793e-01 8.142660e-01 7.698680e-01 6.178606e-01 6.810297e-01 6.152289e-01 4.977629e-01 3.325638e-01
<GCONST> 1.317445e+02
<STATE> 3
<MEAN> 39
 -1.926500e+01 8.320226e+00 -3.892606e+00 1.831364e+00 7.805453e+00 6.350123e-01 5.436882e+00 2.512445e+00 2.092541e+00 1.360020e+00 1.225508e+00 2.633973e+00 3.537129e+00 -1.662322e-01 -8.068753e-02 -9.100114e-02 -1.121589e-01 3.855972e-02 2.140114e-02 -3.918547e-02 6.267313e-02 5.583692e-02 6.999839e-02 1.860174e-02 8.398399e-03 2.231609e-02 6.440896e-01 -2.183644e-01 2.633774e-01 -3.736248e-02 -2.074350e-01 -1.602226e-01 -2.106242e-01 -1.271576e-01 -3.891635e-02 -6.731617e-02 -1.115269e-01 -1.068384e-01 -1.354263e-01
<VARIANCE> 39
 1.278058e+01 2.260790e+01 2.679764e+01 5.410865e+01 3.686013e+01 3.933104e+01 3.155895e+01 2.695541e+01 2.785766e+01 2.077685e+01 2.795192e+01 1.653316e+01 1.324950e+01 1.256825e+00 1.213466e+00 1.235426e+00 1.312994e+00 1.452870e+00 1.645146e+00 1.566577e+00 1.589643e+00 1.533135e+00 1.491535e+00 1.342293e+00 1.228727e+00 6.163588e-01 4.025067e-01 2.380531e-01 2.739098e-01 3.146859e-01 3.417974e-01 3.837953e-01 3.861809e-01 3.694385e-01 3.529099e-01 3.385331e-01 3.156730e-01 2.759368e-01 1.615869e-01
<GCONST> 1.020989e+02
<STATE> 4
<MEAN> 39
 -1.555302e+01 5.708201e+00 -1.136009e+00 1.429067e-01 6.707351e+00 -7.631710e-01 3.573563e+00 2.201943e+00 2.280301e+00 9.935593e-01 2.268864e-01 1.804951e+00 3.201152e+00 3.431839e+00 -1.316246e+00 1.197385e+00 -1.825837e-01 -1.263305e+00 -4.455490e-01 -1.565104e+00 -7.071135e-01 -1.307444e-01 -1.651182e-01 -4.018662e-01 -6.152073e-01 -7.807719e-01 7.821270e-01 -2.470578e-01 5.212033e-02 1.040353e-01 -3.544085e-01 1.040403e-01 -2.886203e-01 -1.653385e-01 -1.167221e-01 2.849983e-02 -6.020202e-04 -1.032062e-01 -3.228363e-01
<VARIANCE> 39
 4.279077e+01 2.703484e+01 3.364752e+01 4.488646e+01 4.249234e+01 4.279139e+01 4.138268e+01 3.497567e+01 3.281065e+01 2.584297e+01 3.196257e+01 2.046934e+01 1.700701e+01 6.135575e+00 2.787077e+00 3.535230e+00 4.411240e+00 4.672689e+00 5.322285e+00 4.726922e+00 3.849891e+00 3.603037e+00 2.901035e+00 3.185113e+00 2.404275e+00 3.995857e+00 6.991423e-01 4.576021e-01 5.552974e-01 6.868668e-01 6.688167e-01 7.727700e-01 9.062428e-01 6.829525e-01 6.059445e-01 5.485818e-01 5.866091e-01 4.327203e-01 8.865311e-01
<GCONST> 1.285264e+02
<TRANSP> 5
 0.000000e+00 1.000000e+00 0.000000e+00 0.000000e+00 0.000000e+00
 0.000000e+00 6.452628e-01 3.547373e-01 0.000000e+00 0.000000e+00
 0.000000e+00 0.000000e+00 8.363013e-01 1.636987e-01 0.000000e+00
 0.000000e+00 0.000000e+00 0.000000e+00 6.084127e-01 3.915873e-01
 0.000000e+00 0.000000e+00 0.000000e+00 0.000000e+00 0.000000e+00
<ENDHMM>
~h "t"
<BEGINHMM>
<NUMSTATES> 5
<STATE> 2
<MEAN> 39
 -9.494716e+00 7.645491e-01 4.884883e-01 4.204127e+00 5.535682e+00 5.025810e+00 4.185927e+00 1.067856e+00 3.066439e+00 2.229001e+00 2.556656e+00 2.143975e+00 -1.245067e+01 -4.700124e-01 -1.635372e+00 -4.762938e-01 -2.465366e+00 -8.748085e-01 -9.612994e-01 1.096748e-01 4.467302e-01 1.799692e-01 4.927695e-02 3.982905e-01 5.379652e-01 5.635537e+00 2.403686e-01 4.809407e-01 2.590243e-01 -1.945768e-01 -4.083255e-01 -7.228672e-01 -2.208358e-01 -1.297017e-01 -3.112410e-01 -2.549720e-01 -3.002293e-01 -1.129650e-01 1.220500e+00
<VARIANCE> 39
 2.125290e+01 4.394730e+01 3.151328e+01 4.551626e+01 3.077242e+01 2.925715e+01 2.710426e+01 2.651744e+01 2.716941e+01 2.114177e+01 2.186832e+01 1.582641e+01 1.071032e+02 2.958972e+00 3.338026e+00 3.323036e+00 4.211278e+00 3.194654e+00 3.120329e+00 3.129882e+00 3.258059e+00 3.031792e+00 2.669909e+00 2.399760e+00 2.080915e+00 9.196668e+00 7.656291e-01 7.215633e-01 6.767264e-01 9.293453e-01 7.685974e-01 6.685419e-01 6.318448e-01 6.545957e-01 6.187127e-01 5.101256e-01 4.755066e-01 3.980784e-01 2.331632e+00
<GCONST> 1.269309e+02
<STATE> 3
<MEAN> 39
 -1.201111e+01 9.399019e-04 -5.114751e-01 -2.571089e+00 2.575204e+00 6.907580e-01 4.592571e+00 1.744744e+00 2.239686e+00 1.725802e+00 2.962047e+00 3.391381e+00 5.392815e+00 2.748982e-01 1.349418e-01 4.650929e-01 -6.494969e-01 -1.083568e+00 -1.663880e+00 3.467722e-02 2.599133e-01 -2.700817e-01 -3.964232e-01 -4.468978e-01 6.626486e-02 3.266706e+00 9.915052e-01 2.849866e-01 3.733527e-01 9.106167e-01 -7.113945e-02 -4.026901e-02 -3.636580e-01 -2.064850e-01 -2.204113e-01 -1.913796e-01 -4.075791e-01 -3.510948e-01 -1.697657e+00
<VARIANCE> 39
 2.197249e+01 3.841029e+01 3.422855e+01 3.346818e+01 3.330307e+01 3.412196e+01 3.448280e+01 3.057960e+01 2.920194e+01 2.620391e+01 2.725339e+01 2.047143e+01 2.108869e+01 4.276381e+00 2.809932e+00 2.957969e+00 4.505304e+00 3.459859e+00 3.523905e+00 3.421693e+00 3.145834e+00 2.898671e+00 2.549378e+00 2.348432e+00 2.082197e+00 1.198352e+01 6.594822e-01 8.297584e-01 7.475429e-01 8.031073e-01 8.171301e-01 8.009044e-01 8.327278e-01 7.288376e-01 6.821320e-01 6.262965e-01 5.751405e-01 4.975422e-01 1.030861e+00
<GCONST> 1.273845e+02
<STATE> 4
<MEAN> 39
 -6.393458e+00 -2.962821e-01 1.919075e+00 1.370852e+00 9.119434e-01 -2.210302e+00 3.619069e+00 1.542658e+00 1.210232e+00 -3.210194e-01 -7.180658e-01 1.490705e+00 3.400826e+00 3.589085e+00 -5.148722e-01 3.479345e-01 3.513897e-01 -1.122772e+00 -1.035488e+00 -1.656030e+00 -3.004731e-01 -5.773707e-01 -5.720543e-01 -8.707550e-01 -7.874556e-01 2.301450e-02 4.907777e-01 -1.786656e-01 -1.744357e-01 -1.343413e-01 -6.806741e-02 2.815334e-01 -4.220530e-01 -7.703740e-02 -3.458467e-02 8.583165e-02 1.929567e-01 -8.076750e-02 -3.278844e-01
<VARIANCE> 39
 4.653782e+01 2.997353e+01 3.354856e+01 3.175043e+01 3.979132e+01 3.838976e+01 4.302889e+01 3.614492e+01 3.272565e+01 2.972074e+01 2.880365e+01 2.203953e+01 2.402574e+01 4.965462e+00 3.483344e+00 5.078152e+00 4.467508e+00 5.761331e+00 5.479128e+00 5.990584e+00 4.497724e+00 4.657645e+00 3.927257e+00 3.893055e+00 2.889493e+00 3.877984e+00 8.705582e-01 5.435668e-01 5.602684e-01 7.312414e-01 7.666971e-01 8.015479e-01 9.221998e-01 7.932820e-01 6.910741e-01 6.668310e-01 6.129985e-01 5.191879e-01 1.318246e+00
<GCONST> 1.323988e+02
<TRANSP> 5
 0.000000e+00 1.000000e+00 0.000000e+00 0.000000e+00 0.000000e+00
 0.000000e+00 4.022627e-01 5.977373e-01 0.000000e+00 0.000000e+00
 0.000000e+00 0.000000e+00 5.262251e-01 4.737749e-01 0.000000e+00
 0.000000e+00 0.000000e+00 0.000000e+00 5.624462e-01 4.375537e-01
 0.000000e+00 0.000000e+00 0.000000e+00 0.000000e+00 0.000000e+00
<ENDHMM>
~h "v"
<BEGINHMM>
<NUMSTATES> 5
<STATE> 2
<MEAN> 39
 6.807309e+00 5.898709e-01 -2.277165e+00 1.174053e+00 6.502692e-01 -2.115142e+00 -5.157417e+00 -3.927236e+00 -5.012289e-01 7.233776e-01 1.190726e+00 -1.052688e+00 6.189836e-01 -1.832952e+00 2.309920e+00 -5.255292e-02 1.481858e+00 1.595832e+00 8.123537e-01 7.578778e-01 -1.285847e+00 -6.828455e-01 -5.801699e-01 -1.140653e-01 2.337108e-01 -2.254606e+00 -5.786834e-01 -1.740387e-01 3.394744e-01 -8.822945e-02 -1.740150e-01 1.332518e-01 3.711911e-01 4.356990e-01 7.524683e-02 -1.103527e-01 -2.629515e-01 1.375300e-02 2.383397e-01
<VARIANCE> 39
 2.467702e+01 2.257750e+01 3.494965e+01 3.146102e+01 2.417662e+01 3.537440e+01 3.636449e+01 3.471331e+01 3.092387e+01 2.942100e+01 2.667611e+01 2.847780e+01 2.252536e+01 3.000855e+00 2.801907e+00 3.718852e+00 4.085891e+00 3.603027e+00 4.284748e+00 5.252998e+00 5.558887e+00 4.235791e+00 3.859442e+00 3.649201e+00 2.839104e+00 2.314742e+00 4.052040e-01 4.149350e-01 3.882466e-01 4.456177e-01 4.893216e-01 4.848019e-01 6.135285e-01 5.944868e-01 5.516582e-01 5.183635e-01 4.871360e-01 4.585523e-01 3.077692e-01
<GCONST> 1.224742e+02
<STATE> 3
<MEAN> 39
 1.115347e+00 5.154460e+00 -3.187323e-01 4.143681e+00 3.137882e+00 1.896000e-01 -2.392955e+00 -5.312000e+00 -2.443457e+00 -1.245412e+00 -4.197599e-01 -8.220934e-01 -3.692600e+00 -2.162330e+00 7.326642e-01 4.715607e-01 8.937886e-01 7.334634e-01 5.674939e-01 1.027560e+00 2.714701e-01 -2.308409e-02 -4.396438e-01 -4.221773e-01 1.265351e-01 -8.155369e-01 4.508948e-01 -8.728120e-01 -8.534903e-02 -5.711014e-01 -5.336210e-01 -2.914832e-01 -1.659067e-01 5.533957e-01 3.602784e-01 2.670538e-01 9.499891e-02 2.121429e-02 8.658478e-01
<VARIANCE> 39
 3.188787e+01 1.870372e+01 3.139464e+01 2.980229e+01 2.171106e+01 2.788856e+01 3.243862e+01 2.601505e+01 2.432611e+01 2.456874e+01 2.238933e+01 2.324228e+01 2.720982e+01 3.901193e+00 2.278244e+00 2.261617e+00 2.929133e+00 2.338137e+00 3.146012e+00 3.246596e+00 2.921774e+00 2.584918e+00 2.628317e+00 2.461778e+00 1.852369e+00 2.205992e+00 5.856247e-01 4.469049e-01 6.019074e-01 5.801964e-01 5.646384e-01 6.221511e-01 7.882891e-01 7.322503e-01 6.308921e-01 5.919839e-01 5.311838e-01 4.304675e-01 4.709905e-01
<GCONST> 1.193484e+02
<STATE> 4
<MEAN> 39
 -2.395473e+00 2.884904e+00 -6.661853e-01 3.740312e+00 2.764608e+00 2.593856e-01 -9.320709e-03 -2.294932e+00 -1.905029e-01 -5.969065e-01 -3.544404e-01 -6.419456e-02 -1.877971e+00 9.686944e-01 -1.154792e+00 -4.532175e-01 -1.146514e+00 -8.070285e-01 -6.215041e-01 -2.591915e-01 7.304616e-01 5.073919e-01 3.737101e-01 2.470167e-01 1.239269e-01 1.425307e+00 8.802844e-01 -3.639241e-01 -6.668051e-02 -4.542567e-01 -3.643898e-01 -2.112329e-01 -3.820994e-01 8.956538e-02 -2.267926e-02 9.555902e-02 7.951590e-02 -5.837884e-02 3.650860e-01
<VARIANCE> 39
 5.657312e+01 2.596467e+01 3.041906e+01 3.392347e+01 2.668682e+01 3.144942e+01 3.724707e+01 3.079062e+01 2.790902e+01 2.421480e+01 2.197636e+01 2.072112e+01 3.269046e+01 7.805930e+00 3.292573e+00 3.299257e+00 4.142540e+00 3.529681e+00 3.973200e+00 4.803791e+00 3.770898e+00 3.367963e+00 2.770038e+00 2.617694e+00 2.214733e+00 4.129880e+00 9.990021e-01 6.427312e-01 6.078244e-01 7.534774e-01 6.517475e-01 7.872893e-01 8.479088e-01 7.597690e-01 6.882881e-01 6.056085e-01 5.486782e-01 4.278415e-01 6.612238e-01
<GCONST> 1.275491e+02
<TRANSP> 5
 0.000000e+00 1.000000e+00 0.000000e+00 0.000000e+00 0.000000e+00
 0.000000e+00 3.788663e-01 6.211337e-01 0.000000e+00 0.000000e+00
 0.000000e+00 0.000000e+00 4.568276e-01 5.431724e-01 0.000000e+00
 0.000000e+00 0.000000e+00 0.000000e+00 5.872906e-01 4.127093e-01
 0.000000e+00 0.000000e+00 0.000000e+00 0.000000e+00 0.000000e+00
<ENDHMM>
~h "w"
<BEGINHMM>
<NUMSTATES> 5
<STATE> 2
<MEAN> 39
 9.084421e+00 7.302771e+00 -3.337737e+00 -4.537982e+00 -2.366310e+00 2.427072e+00 -8.962187e-01 -4.422536e+00 -6.025561e+00 -1.709362e+00 2.596451e-01 -5.887496e-01 -4.575003e+00 1.526389e+00 1.348445e+00 -3.462926e-01 -1.932379e+00 -1.552183e+00 4.855090e-01 7.259271e-01 3.278417e-02 -3.838109e-01 -6.179965e-01 -1.627972e-01 4.503660e-02 4.922651e-02 -2.974629e-01 -5.392172e-01 2.037120e-01 -5.738290e-02 -1.967718e-01 -1.268323e-01 -8.944763e-02 3.344006e-01 2.939194e-01 1.837475e-01 4.388285e-02 -2.374908e-03 4.686848e-01
<VARIANCE> 39
 1.996571e+01 3.119341e+01 2.278556e+01 3.903095e+01 4.447942e+01 3.520274e+01 4.822137e+01 3.527562e+01 4.593952e+01 3.408547e+01 3.140947e+01 2.462421e+01 2.396209e+01 4.023237e+00 2.705929e+00 3.621427e+00 4.870503e+00 4.678042e+00 4.998312e+00 5.789251e+00 4.712015e+00 5.316807e+00 3.921127e+00 3.535787e+00 2.817730e+00 3.996143e+00 3.713203e-01 5.317624e-01 5.859267e-01 6.586015e-01 9.596927e-01 8.575578e-01 1.006723e+00 8.044479e-01 8.663248e-01 8.080387e-01 6.424728e-01 5.088115e-01 2.546420e-01
<GCONST> 1.294949e+02
<STATE> 3
<MEAN> 39
 1.195748e+01 7.309864e+00 -4.040620e+00 -1.250971e+01 -8.754411e+00 5.152912e+00 1.731985e+00 -1.522203e+00 -4.918894e+00 -2.703397e+00 8.254077e-01 1.299757e-01 -1.400847e+00 5.188504e-01 -1.222073e+00 -4.954633e-01 -1.528145e+00 -3.550274e-01 1.018137e+00 -1.561615e-01 -4.061678e-02 3.154162e-02 5.324777e-01 7.780969e-01 3.235450e-01 1.596805e+00 -4.742380e-01 -6.462061e-01 -1.091581e-01 5.529789e-01 7.384766e-01 2.062048e-02 -2.454388e-01 -1.128476e-01 2.528010e-01 3.886594e-01 1.471035e-01 -4.946631e-02 1.642567e-01
<VARIANCE> 39
 7.393676e+00 2.134209e+01 2.356699e+01 3.551422e+01 3.981707e+01 3.503582e+01 3.750601e+01 3.711712e+01 4.326793e+01 3.347846e+01 2.866555e+01 2.649244e+01 1.302090e+01 1.290909e+00 2.139140e+00 1.827560e+00 3.219219e+00 4.214924e+00 3.425793e+00 4.034987e+00 3.346537e+00 3.656397e+00 3.790228e+00 3.274281e+00 2.421999e+00 1.872963e+00 3.735979e-01 2.559863e-01 2.938167e-01 4.926099e-01 4.914029e-01 6.132987e-01 6.310213e-01 6.271315e-01 7.690176e-01 5.950536e-01 5.245847e-01 4.939045e-01 1.787513e-01
<GCONST> 1.175523e+02
<STATE> 4
<MEAN> 39
 1.126280e+01 -7.859732e-01 -6.090097e+00 -1.089172e+01 -2.841928e+00 6.946288e+00 -3.378275e+00 -3.944291e+00 -3.931496e+00 3.109771e+00 4.496017e+00 -2.065403e-01 4.651735e+00 -5.238763e-01 -2.109082e+00 1.312728e-01 1.061857e+00 1.015116e+00 -9.720235e-01 -1.406923e+00 5.305736e-01 1.664743e+00 1.208247e+00 -2.866609e-01 -9.357302e-01 1.602372e+00 -3.609725e-01 2.082683e-01 3.796293e-01 5.537732e-01 -1.238996e-01 -6.107274e-01 3.044429e-01 4.775492e-01 3.141603e-01 -4.647089e-01 -5.790607e-01 -1.136819e-01 -3.260831e-01
<VARIANCE> 39
 8.936343e+00 2.553500e+01 3.192265e+01 5.656641e+01 4.993497e+01 6.136992e+01 7.699758e+01 4.711850e+01 5.379772e+01 6.644482e+01 5.217089e+01 3.769651e+01 1.587842e+01 5.959763e-01 1.528005e+00 2.582738e+00 3.666701e+00 3.748600e+00 6.109669e+00 5.193213e+00 4.980048e+00 3.966206e+00 4.543830e+00 4.412488e+00 3.123385e+00 9.396406e-01 2.615936e-01 2.880897e-01 3.632206e-01 5.692645e-01 7.958969e-01 7.463365e-01 9.655977e-01 7.960418e-01 9.388900e-01 1.017500e+00 7.697582e-01 7.312278e-01 1.623283e-01
<GCONST> 1.259680e+02
<TRANSP> 5
 0.000000e+00 1.000000e+00 0.000000e+00 0.000000e+00 0.000000e+00
 0.000000e+00 6.450418e-01 3.549582e-01 0.000000e+00 0.000000e+00
 0.000000e+00 0.000000e+00 6.539401e-01 3.460599e-01 0.000000e+00
 0.000000e+00 0.000000e+00 0.000000e+00 5.533434e-01 4.466566e-01
 0.000000e+00 0.000000e+00 0.000000e+00 0.000000e+00 0.000000e+00
<ENDHMM>
~h "y"
<BEGINHMM>
<NUMSTATES> 5
<STATE> 2
<MEAN> 39
 -3.589298e-01 4.755517e+00 1.810518e+01 -2.929282e+00 -7.727799e+00 -2.104349e-01 -5.007270e+00 -5.046515e+00 -7.300606e+00 -1.645176e+00 -8.802990e-01 -6.421189e-01 9.776844e-01 1.802786e-01 -2.365437e-01 6.434897e-01 -7.127443e-02 -7.994346e-01 -7.698360e-02 2.845166e-02 -1.328182e-01 -4.281518e-01 4.717019e-02 2.650833e-01 -3.160662e-03 3.808285e-01 1.458945e-01 -2.502036e-01 -5.249532e-01 1.441793e-01 1.200369e-01 -2.436717e-01 7.330758e-02 2.213897e-01 1.934876e-01 1.218395e-01 8.067590e-02 2.623650e-02 7.448969e-02
<VARIANCE> 39
 1.058578e+01 2.727522e+01 2.327636e+01 4.694886e+01 3.510054e+01 3.278414e+01 3.239215e+01 3.867503e+01 3.228644e+01 4.100078e+01 3.061600e+01 2.425583e+01 1.757077e+01 1.660508e+00 2.203179e+00 2.857194e+00 1.955999e+00 3.181389e+00 3.424489e+00 2.747529e+00 2.570183e+00 2.677385e+00 2.465487e+00 1.760599e+00 1.514768e+00 1.655560e+00 1.822678e-01 1.947539e-01 3.904241e-01 3.933904e-01 5.747489e-01 5.023001e-01 4.384491e-01 4.799871e-01 4.837000e-01 3.998865e-01 3.056532e-01 2.753456e-01 1.632295e-01
<GCONST> 1.119750e+02
<STATE> 3
<MEAN> 39
 3.070966e+00 -2.041953e+00 1.509248e+01 1.020480e+00 -1.272677e+01 -6.013742e+00 -1.487131e+00 -1.044278e+00 -9.088760e+00 -1.020245e+00 3.713846e+00 -2.449004e-01 4.800082e+00 9.862374e-01 -1.185723e+00 -1.590858e+00 9.548144e-01 6.486870e-02 -1.926299e+00 -7.685638e-02 1.823953e+00 1.467011e-01 -3.914077e-01 7.965907e-01 4.805388e-01 4.600146e-01 -1.608128e-02 1.074455e-01 -4.716609e-01 -1.073744e-02 6.029208e-01 8.446804e-02 -3.225858e-01 1.913974e-01 4.898926e-01 -1.703831e-01 -2.526563e-01 1.362999e-01 -1.735183e-01
<VARIANCE> 39
 8.277843e+00 1.441324e+01 2.721483e+01 3.983522e+01 2.076077e+01 3.518869e+01 3.463746e+01 3.540935e+01 3.538609e+01 5.680834e+01 2.719389e+01 2.294693e+01 1.139633e+01 9.177176e-01 1.032409e+00 1.626708e+00 1.458132e+00 1.807315e+00 2.377309e+00 3.350161e+00 2.704398e+00 2.426781e+00 2.115964e+00 1.687021e+00 1.551421e+00 6.200582e-01 1.417359e-01 1.411120e-01 3.031187e-01 2.552253e-01 3.762638e-01 4.053720e-01 4.170925e-01 3.667915e-01 4.468616e-01 4.310350e-01 3.100760e-01 2.477312e-01 7.442351e-02
<GCONST> 1.031799e+02
<STATE> 4
<MEAN> 39
 6.542311e+00 -5.092433e+00 6.777937e+00 4.441785e+00 -8.008608e+00 -1.196775e+01 -5.113003e+00 6.500674e+00 -4.506923e+00 -4.262187e+00 3.796768e+00 3.036605e+00 5.087189e+00 9.070778e-01 -5.128832e-01 -2.411304e+00 3.463909e-01 1.618494e+00 -5.893799e-01 -1.416431e+00 1.190241e+00 1.780221e+00 -2.163706e-01 -6.239890e-01 3.659600e-01 -2.264356e-03 -1.583149e-01 2.924952e-01 1.629061e-02 -2.434647e-01 2.396290e-01 6.243007e-01 -1.263399e-02 -5.810712e-01 1.738911e-01 2.548843e-01 -2.653549e-01 -2.560148e-01 -2.045467e-01
<VARIANCE> 39
 9.789267e+00 1.670600e+01 4.193869e+01 3.378611e+01 3.255320e+01 4.223219e+01 5.777270e+01 3.964384e+01 4.501041e+01 4.640909e+01 2.799141e+01 2.587137e+01 1.452971e+01 5.609084e-01 9.212652e-01 2.044027e+00 1.509946e+00 1.928407e+00 2.353716e+00 2.997374e+00 2.800665e+00 2.743583e+00 2.629109e+00 1.715887e+00 1.728415e+00 4.477338e-01 1.188019e-01 1.495669e-01 2.856120e-01 2.863219e-01 3.892307e-01 5.200331e-01 4.955765e-01 4.625981e-01 4.668583e-01 4.560530e-01 3.552312e-01 2.661563e-01 8.272140e-02
<GCONST> 1.062629e+02
<TRANSP> 5
 0.000000e+00 1.000000e+00 0.000000e+00 0.000000e+00 0.000000e+00
 0.000000e+00 8.332075e-01 1.667926e-01 0.000000e+00 0.000000e+00
 0.000000e+00 0.000000e+00 6.819749e-01 3.180251e-01 0.000000e+00
 0.000000e+00 0.000000e+00 0.000000e+00 5.694023e-01 4.305976e-01
 0.000000e+00 0.000000e+00 0.000000e+00 0.000000e+00 0.000000e+00
<ENDHMM>
~h "z"
<BEGINHMM>
<NUMSTATES> 5
<STATE> 2
<MEAN> 39
 -4.628556e+00 9.471249e+00 2.736622e+00 9.927631e-01 2.870157e+00 -6.382654e+00 -2.848372e+00 -3.384578e+00 -3.485198e-01 -1.014721e+00 -2.223920e+00 6.777015e-01 2.970764e+00 -4.483594e+00 2.293642e+00 -7.040791e-01 4.660314e-01 2.510073e+00 1.022048e+00 1.517322e+00 6.655940e-01 4.939083e-01 -3.751192e-02 4.434189e-01 3.219517e-01 -3.854666e-01 -1.192826e-01 -6.893341e-01 -1.167914e-01 -7.251663e-02 -1.580531e-01 5.072819e-01 2.735168e-01 4.812378e-01 4.944163e-02 1.674011e-01 2.028114e-01 7.387009e-03 4.356126e-02
<VARIANCE> 39
 4.852279e+01 3.611326e+01 3.764512e+01 4.435691e+01 5.163593e+01 4.771046e+01 4.239845e+01 3.565899e+01 3.299556e+01 3.689379e+01 2.789384e+01 2.385567e+01 1.879685e+01 3.079854e+00 4.413518e+00 3.812001e+00 5.665841e+00 3.897198e+00 5.831693e+00 4.701908e+00 5.119849e+00 4.134557e+00 3.782243e+00 3.607312e+00 3.318799e+00 1.540102e+00 9.196063e-01 7.241821e-01 5.059683e-01 6.072044e-01 7.588474e-01 7.429705e-01 7.078821e-01 6.673563e-01 5.720977e-01 6.493819e-01 5.071304e-01 4.957435e-01 1.704670e-01
<GCONST> 1.288366e+02
<STATE> 3
<MEAN> 39
 -1.770436e+01 1.029161e+01 -1.077231e+00 1.700697e+00 8.822510e+00 -4.473474e-01 4.143868e+00 1.862736e+00 1.424321e+00 4.694330e-01 1.203633e-01 1.997463e+00 1.963735e+00 -9.901342e-01 -6.819124e-01 -5.699885e-01 -1.926748e-01 1.801533e-01 5.153923e-01 6.204297e-01 6.727931e-01 4.033232e-01 3.388950e-01 3.084619e-01 1.597289e-01 1.914187e-01 1.359168e+00 -4.692370e-01 2.758943e-01 -1.320184e-01 -6.780083e-01 -4.684637e-01 -5.857713e-01 -3.714871e-01 -1.226343e-01 -3.840157e-02 -1.651607e-01 -1.360933e-01 2.020362e-02
<VARIANCE> 39
 1.896790e+01 2.617518e+01 3.833084e+01 5.407129e+01 3.732923e+01 4.325140e+01 4.075671e+01 3.417832e+01 2.860593e+01 2.389401e+01 2.797792e+01 1.808476e+01 1.263676e+01 4.699324e+00 1.696371e+00 2.012915e+00 1.875572e+00 2.464442e+00 3.407345e+00 2.951150e+00 2.538175e+00 2.279463e+00 2.044492e+00 1.798046e+00 1.577829e+00 8.537625e-01 6.150600e-01 5.040716e-01 4.459994e-01 5.775419e-01 5.413962e-01 6.824197e-01 6.006174e-01 5.634385e-01 5.134321e-01 4.661528e-01 4.287411e-01 3.917498e-01 2.435595e-01
<GCONST> 1.161743e+02
<STATE> 4
<MEAN> 39
 -1.272637e+01 5.972366e+00 -2.138036e-01 3.531576e-01 5.413260e+00 -1.913437e+00 1.453101e+00 1.099550e+00 2.132033e+00 7.934272e-01 -9.435154e-03 1.335621e+00 2.714313e+00 3.139618e+00 -1.602068e+00 4.031777e-01 -1.907798e-01 -1.414765e+00 -5.789942e-01 -1.206369e+00 -6.033989e-01 -8.251450e-02 6.309120e-02 -2.457162e-01 -3.583041e-01 -4.568898e-01 6.380111e-01 -1.283755e-01 4.743090e-02 1.102432e-01 -1.849790e-01 9.708600e-02 -1.332177e-01 -1.090417e-01 -1.470123e-01 -2.500516e-02 -4.524168e-02 -7.644611e-02 -3.893028e-01
<VARIANCE> 39
 5.129052e+01 3.352733e+01 3.770609e+01 4.667915e+01 4.287765e+01 5.465306e+01 4.909540e+01 4.091930e+01 3.349352e+01 2.896959e+01 3.034979e+01 2.012592e+01 2.105833e+01 5.875314e+00 3.436769e+00 3.298233e+00 4.165302e+00 4.394118e+00 5.130948e+00 4.668925e+00 3.828892e+00 3.447966e+00 2.973886e+00 2.850823e+00 2.377447e+00 3.608467e+00 8.814120e-01 5.385473e-01 5.317118e-01 6.270992e-01 6.557396e-01 8.535674e-01 8.065546e-01 7.434498e-01 6.198645e-01 5.492496e-01 5.254030e-01 4.233420e-01 5.434767e-01
<GCONST> 1.293282e+02
<TRANSP> 5
 0.000000e+00 1.000000e+00 0.000000e+00 0.000000e+00 0.000000e+00
 0.000000e+00 6.558473e-01 3.441527e-01 0.000000e+00 0.000000e+00
 0.000000e+00 0.000000e+00 7.257147e-01 2.742853e-01 0.000000e+00
 0.000000e+00 0.000000e+00 0.000000e+00 6.250493e-01 3.749507e-01
 0.000000e+00 0.000000e+00 0.000000e+00 0.000000e+00 0.000000e+00
<ENDHMM>
~h "aa"
<BEGINHMM>
<NUMSTATES> 5
<STATE> 2
<MEAN> 39
 8.706788e+00 -7.877438e+00 -7.597914e+00 -6.614044e+00 -3.367124e-01 3.807149e+00 -1.131993e+00 1.539233e+00 2.483635e+00 8.326054e-01 -7.241198e-01 -3.948915e+00 1.025585e+01 1.046199e+00 -1.604270e+00 -1.639205e+00 -1.035904e+00 8.344549e-01 1.511270e+00 3.242637e-01 -3.199018e-02 2.568356e-01 -6.870836e-02 7.635292e-02 -7.341654e-01 1.112347e+00 -6.041917e-01 3.591602e-01 2.789601e-01 4.448179e-01 3.236066e-01 -4.291349e-03 2.578291e-01 -2.625246e-01 -1.516030e-01 -8.764455e-02 8.070321e-02 3.089553e-01 -5.121132e-01
<VARIANCE> 39
 1.240693e+01 2.491487e+01 3.112933e+01 4.642694e+01 4.433673e+01 6.734344e+01 6.232724e+01 6.360627e+01 4.748044e+01 4.489839e+01 4.731204e+01 3.344275e+01 1.559320e+01 2.436262e+00 2.059412e+00 2.908335e+00 3.607151e+00 4.316442e+00 3.879611e+00 4.739549e+00 4.778183e+00 4.132499e+00 3.453359e+00 3.577117e+00 3.301980e+00 1.330576e+00 4.149856e-01 3.390435e-01 3.614330e-01 5.351185e-01 6.225868e-01 7.878047e-01 9.179298e-01 8.981927e-01 7.141451e-01 6.475246e-01 6.982769e-01 5.292467e-01 2.665914e-01
<GCONST> 1.264681e+02
<STATE> 3
<MEAN> 39
 9.514636e+00 -9.515481e+00 -1.101904e+01 -7.860424e+00 3.646730e+00 8.102572e+00 9.658024e-01 -1.112539e+00 2.422933e+00 -2.702726e-01 2.249779e-01 -4.068340e+00 1.053497e+01 4.025872e-02 -1.874572e-01 -2.890420e-01 3.378144e-01 3.972319e-01 -2.390401e-01 -1.429170e-01 1.104780e-01 1.604360e-01 -1.660781e-01 -8.537904e-02 -4.990545e-02 3.002122e-02 -3.239357e-02 1.964513e-01 1.584796e-01 1.310243e-01 -1.739946e-01 -3.330397e-01 -1.535641e-01 1.619360e-01 1.978769e-02 9.293683e-03 -6.699292e-02 6.632010e-02 -1.485184e-01
<VARIANCE> 39
 1.001051e+01 2.313286e+01 2.467657e+01 4.955015e+01 4.460157e+01 5.830354e+01 6.265291e+01 6.052000e+01 4.568035e+01 4.015827e+01 4.087193e+01 3.491134e+01 1.312153e+01 2.618832e-01 7.319377e-01 8.574516e-01 1.463575e+00 1.407119e+00 2.000802e+00 1.920428e+00 1.946071e+00 1.543596e+00 1.451091e+00 1.395979e+00 1.371061e+00 2.498597e-01 5.212135e-02 1.106518e-01 1.344756e-01 1.924493e-01 2.204175e-01 2.429231e-01 3.109227e-01 2.805866e-01 2.660795e-01 2.564895e-01 2.379482e-01 2.356228e-01 5.160698e-02
<GCONST> 9.597823e+01
<STATE> 4
<MEAN> 39
 9.579027e+00 -9.395938e+00 -1.134376e+01 -4.884166e+00 3.777334e+00 2.997657e+00 -1.248039e+00 2.306945e+00 3.476234e+00 -8.101052e-01 -1.655286e+00 -4.064954e+00 9.873764e+00 -1.156625e-01 1.057253e+00 7.324595e-01 9.383926e-01 -5.439485e-01 -1.726513e+00 -7.467073e-01 7.880832e-01 1.008023e-01 6.793472e-02 -4.588358e-01 4.672541e-01 -1.055538e+00 -2.976629e-01 4.987079e-01 4.792302e-01 3.114798e-01 -6.748672e-02 -8.813168e-02 -1.088732e-02 -2.330759e-01 -1.856495e-01 5.483636e-02 9.488963e-02 2.035582e-01 -5.422111e-01
<VARIANCE> 39
 1.262876e+01 2.516519e+01 3.470629e+01 4.198623e+01 4.103165e+01 6.280229e+01 7.035511e+01 6.890013e+01 5.217404e+01 4.262180e+01 4.329684e+01 3.727865e+01 1.450649e+01 7.232437e-01 1.757648e+00 2.232687e+00 2.627194e+00 3.197040e+00 2.868650e+00 4.215942e+00 3.547584e+00 3.262110e+00 3.068443e+00 2.830521e+00 2.540399e+00 1.095363e+00 2.805369e-01 3.146665e-01 2.806286e-01 4.325669e-01 4.362300e-01 5.280821e-01 5.721709e-01 6.072928e-01 5.345976e-01 5.134692e-01 4.859239e-01 4.493408e-01 2.853849e-01
<GCONST> 1.189996e+02
<TRANSP> 5
 0.000000e+00 1.000000e+00 0.000000e+00 0.000000e+00 0.000000e+00
 0.000000e+00 5.860408e-01 4.139592e-01 0.000000e+00 0.000000e+00
 0.000000e+00 0.000000e+00 8.519061e-01 1.480939e-01 0.000000e+00
 0.000000e+00 0.000000e+00 0.000000e+00 6.017353e-01 3.982647e-01
 0.000000e+00 0.000000e+00 0.000000e+00 0.000000e+00 0.000000e+00
<ENDHMM>
~h "ae"
<BEGINHMM>
<NUMSTATES> 5
<STATE> 2
<MEAN> 39
 4.941043e+00 -8.604693e+00 7.296242e-01 -4.223070e+00 -6.668995e+00 -2.127356e+00 2.522659e+00 6.195245e+00 1.427843e+00 -1.509394e+00 -2.569157e+00 -2.519591e+00 1.152407e+01 -1.409537e-01 -8.654994e-01 -7.205167e-02 -4.368834e-01 1.010990e-01 5.935835e-01 8.601808e-01 4.441445e-01 6.652840e-02 -4.949800e-01 -3.604629e-01 -1.392582e-01 6.958344e-01 -1.402319e-01 3.817402e-01 -1.003113e-01 2.880459e-01 3.365771e-01 4.614040e-02 -7.906305e-02 -3.459239e-01 -4.327215e-02 2.426603e-02 5.225854e-02 1.251886e-01 -3.993838e-01
<VARIANCE> 39
 1.307032e+01 2.265533e+01 3.706256e+01 2.860643e+01 3.835730e+01 3.966097e+01 4.538764e+01 4.158654e+01 5.220110e+01 3.305014e+01 2.939662e+01 2.573197e+01 1.423668e+01 5.962563e-01 1.298308e+00 1.658515e+00 1.608068e+00 1.974661e+00 2.095582e+00 2.538395e+00 2.571273e+00 2.125582e+00 1.893896e+00 1.832626e+00 1.715313e+00 6.007351e-01 2.065692e-01 2.390031e-01 2.368254e-01 2.828745e-01 3.543074e-01 3.800016e-01 4.771143e-01 4.306738e-01 3.927587e-01 3.614909e-01 3.462950e-01 2.992007e-01 1.589085e-01
<GCONST> 1.066338e+02
<STATE> 3
<MEAN> 39
 4.545681e+00 -9.226818e+00 -1.438046e+00 -3.366335e+00 -3.698136e+00 -3.486510e-01 4.548937e+00 4.916078e+00 1.489376e+00 -3.757430e+00 -3.774330e+00 -1.791520e+00 1.143925e+01 2.119695e-02 6.417797e-02 -2.032133e-01 8.395515e-02 2.447850e-01 -2.224066e-02 -5.842099e-02 -8.535884e-02 2.149789e-02 -5.657586e-02 -7.890042e-02 3.463144e-02 -1.113471e-01 2.961862e-02 1.815877e-01 2.546116e-02 4.071649e-02 -3.108735e-02 -1.335819e-01 -1.670830e-01 -4.970873e-02 -1.276309e-02 1.284783e-01 5.618034e-02 -1.637726e-02 -1.554321e-01
<VARIANCE> 39
 9.820585e+00 2.037427e+01 3.032385e+01 2.412246e+01 3.909444e+01 3.540310e+01 3.659006e+01 3.711343e+01 4.846627e+01 2.906145e+01 2.854266e+01 2.958980e+01 1.617654e+01 2.214252e-01 5.331530e-01 8.540728e-01 7.483727e-01 1.142227e+00 1.132185e+00 1.270419e+00 1.184060e+00 1.147441e+00 1.117613e+00 1.053823e+00 9.051554e-01 1.893715e-01 3.862923e-02 1.069616e-01 1.188457e-01 1.315779e-01 1.715446e-01 1.789977e-01 2.022029e-01 2.096566e-01 2.048091e-01 1.875768e-01 1.863017e-01 1.634150e-01 4.771091e-02
<GCONST> 8.532406e+01
<STATE> 4
<MEAN> 39
 5.213047e+00 -7.689003e+00 -2.556353e+00 -3.249996e+00 -3.037174e+00 -2.309752e+00 2.572275e+00 4.732712e+00 2.204977e+00 -2.401616e+00 -4.263735e+00 -2.498595e+00 1.008939e+01 -1.920315e-01 1.858520e+00 3.604271e-01 6.453721e-01 1.805471e-01 -7.174768e-01 -7.346206e-01 -6.687047e-01 -3.568115e-01 7.462873e-01 4.465000e-01 1.104927e-01 -1.672213e+00 -4.566039e-01 6.753513e-01 3.018737e-01 4.479522e-01 2.341015e-01 1.320513e-01 2.806100e-02 -3.586223e-01 -2.579415e-01 5.666690e-02 2.267294e-01 1.348441e-01 -7.537717e-01
<VARIANCE> 39
 1.205687e+01 2.397052e+01 3.375686e+01 2.562993e+01 4.231805e+01 4.175523e+01 4.848589e+01 4.302780e+01 4.600434e+01 4.034230e+01 3.649124e+01 3.466647e+01 2.493376e+01 1.384939e+00 2.531722e+00 2.680767e+00 2.349963e+00 3.449892e+00 3.179831e+00 3.603856e+00 3.793813e+00 3.980425e+00 3.079197e+00 3.075025e+00 2.647274e+00 1.613413e+00 4.443280e-01 3.372179e-01 3.181036e-01 4.184364e-01 5.210112e-01 5.482530e-01 6.625715e-01 6.396407e-01 6.397072e-01 6.082305e-01 5.586530e-01 4.643031e-01 3.347344e-01
<GCONST> 1.208847e+02
<TRANSP> 5
 0.000000e+00 1.000000e+00 0.000000e+00 0.000000e+00 0.000000e+00
 0.000000e+00 6.532152e-01 3.467848e-01 0.000000e+00 0.000000e+00
 0.000000e+00 0.000000e+00 8.523194e-01 1.476807e-01 0.000000e+00
 0.000000e+00 0.000000e+00 0.000000e+00 6.402785e-01 3.597215e-01
 0.000000e+00 0.000000e+00 0.000000e+00 0.000000e+00 0.000000e+00
<ENDHMM>
~h "ah"
<BEGINHMM>
<NUMSTATES> 5
<STATE> 2
<MEAN> 39
 7.864839e+00 -5.869972e+00 -4.054111e+00 -6.126267e+00 -1.731440e+00 8.963230e-01 -4.701035e+00 7.539330e-01 3.462221e+00 1.657138e+00 -1.597504e+00 -3.537185e+00 9.810832e+00 1.385845e+00 -1.975067e+00 -7.379636e-01 -1.499710e+00 -1.738721e-01 7.456770e-01 -9.150037e-01 7.685636e-01 1.216537e+00 1.458971e-01 -6.171340e-01 -9.978560e-01 1.674895e+00 -7.476263e-01 4.384797e-01 1.654997e-01 4.948691e-01 3.672066e-01 2.155294e-02 4.738919e-01 -1.435259e-01 -2.507898e-01 -1.016363e-01 8.515009e-02 2.612979e-01 -6.189952e-01
<VARIANCE> 39
 1.259759e+01 2.370715e+01 3.500321e+01 3.445759e+01 4.233485e+01 6.428571e+01 4.986045e+01 5.259862e+01 4.084953e+01 4.995913e+01 5.148806e+01 3.521097e+01 1.602627e+01 3.990426e+00 2.555335e+00 2.986301e+00 4.390326e+00 4.748310e+00 5.592840e+00 5.217833e+00 5.190144e+00 4.787224e+00 4.324814e+00 4.636275e+00 3.599430e+00 1.947360e+00 5.762139e-01 4.176590e-01 4.514278e-01 6.157461e-01 6.803455e-01 9.059522e-01 8.620269e-01 8.579127e-01 7.293102e-01 7.135450e-01 8.063444e-01 6.069168e-01 3.781091e-01
<GCONST> 1.303051e+02
<STATE> 3
<MEAN> 39
 7.927022e+00 -8.124821e+00 -5.327258e+00 -7.028047e+00 5.416516e-01 2.744900e+00 -4.166834e+00 2.023786e+00 5.014155e+00 8.054348e-01 -2.975339e+00 -4.323501e+00 1.087066e+01 5.194003e-03 1.542182e-01 2.838173e-03 4.928080e-02 1.651046e-01 -1.496981e-01 -4.315123e-02 -5.944471e-02 2.956052e-02 -3.644343e-02 -1.041319e-01 -8.421478e-03 -1.849683e-01 -1.536397e-01 5.469404e-01 2.427134e-01 3.647858e-01 -7.362290e-02 -2.707404e-01 8.222360e-02 -2.604388e-01 -3.575910e-01 1.390469e-02 1.566500e-01 2.217829e-01 -5.196963e-01
<VARIANCE> 39
 1.030291e+01 1.755969e+01 2.482564e+01 3.034081e+01 3.963831e+01 5.536887e+01 4.827082e+01 4.557896e+01 4.068237e+01 5.104159e+01 4.181486e+01 3.841572e+01 1.416570e+01 4.320027e-01 1.073889e+00 1.391206e+00 1.631462e+00 1.897053e+00 2.789539e+00 2.172951e+00 2.447206e+00 2.022026e+00 2.025015e+00 2.144700e+00 1.922182e+00 6.123185e-01 1.666478e-01 2.615580e-01 2.194843e-01 3.473652e-01 3.769982e-01 4.225244e-01 5.061262e-01 5.132434e-01 4.753486e-01 4.292518e-01 4.115371e-01 4.080153e-01 2.123191e-01
<GCONST> 1.084699e+02
<STATE> 4
<MEAN> 39
 8.180182e+00 -5.039831e+00 -4.139529e+00 -5.792238e+00 -5.120785e-01 -3.833072e-02 -4.900302e+00 3.925995e-01 3.428537e+00 1.564274e+00 -2.022400e+00 -3.325928e+00 8.273685e+00 -7.424821e-01 2.319193e+00 1.102142e+00 1.772682e+00 8.182617e-02 -8.368737e-01 4.491705e-01 -1.225293e+00 -1.419665e+00 -1.704940e-01 3.414434e-01 7.498292e-01 -2.347500e+00 -6.094894e-01 5.335428e-01 2.887326e-01 5.793450e-01 2.028438e-01 1.832118e-01 3.977260e-01 -3.067186e-01 -3.638129e-01 -1.550936e-01 8.398627e-03 1.323539e-01 -6.690549e-01
<VARIANCE> 39
 1.192155e+01 2.361961e+01 2.995012e+01 3.552928e+01 3.717704e+01 6.367675e+01 5.160313e+01 5.419962e+01 4.461396e+01 5.884156e+01 5.106964e+01 3.923991e+01 1.909230e+01 2.067543e+00 2.362258e+00 2.644322e+00 3.515214e+00 4.039579e+00 4.448298e+00 5.026937e+00 5.158808e+00 4.968119e+00 4.553926e+00 4.274947e+00 3.617671e+00 2.178406e+00 4.608345e-01 4.687630e-01 4.025233e-01 6.134146e-01 5.875250e-01 8.254614e-01 7.684023e-01 9.616775e-01 7.378743e-01 8.127293e-01 7.703281e-01 5.965446e-01 5.354589e-01
<GCONST> 1.291435e+02
<TRANSP> 5
 0.000000e+00 1.000000e+00 0.000000e+00 0.000000e+00 0.000000e+00
 0.000000e+00 4.312101e-01 5.687900e-01 0.000000e+00 0.000000e+00
 0.000000e+00 0.000000e+00 7.546021e-01 2.453980e-01 0.000000e+00
 0.000000e+00 0.000000e+00 0.000000e+00 4.705175e-01 5.294825e-01
 0.000000e+00 0.000000e+00 0.000000e+00 0.000000e+00 0.000000e+00
<ENDHMM>
~h "ao"
<BEGINHMM>
<NUMSTATES> 5
<STATE> 2
<MEAN> 39
 1.061076e+01 -9.785807e-01 -7.759441e+00 -1.249342e+01 -4.673428e+00 7.381997e+00 2.261662e+00 -1.337719e+00 -8.400823e-01 4.026804e-01 2.009507e+00 -1.358486e+00 5.236765e+00 5.648760e-01 -5.648000e-01 -6.172981e-01 -1.419963e+00 3.871026e-03 1.339945e+00 6.733766e-01 -7.611117e-02 -1.609919e-01 -1.932010e-01 3.400082e-01 1.634186e-01 7.581726e-01 -4.304880e-01 6.769307e-02 7.624802e-02 5.528565e-01 4.180125e-01 -2.196081e-01 -4.250408e-02 3.321835e-03 5.172393e-02 -6.719058e-02 -4.246096e-02 1.533650e-01 -2.525845e-01
<VARIANCE> 39
 1.192993e+01 4.324327e+01 3.282164e+01 5.201271e+01 7.313733e+01 5.474964e+01 7.250757e+01 4.949731e+01 5.105161e+01 5.214701e+01 4.524490e+01 3.602419e+01 2.339244e+01 1.527055e+00 2.089534e+00 2.196936e+00 3.519525e+00 3.903762e+00 3.700649e+00 3.752125e+00 3.605439e+00 3.475593e+00 3.282445e+00 3.120626e+00 2.724734e+00 1.173851e+00 4.107802e-01 3.451457e-01 3.376989e-01 5.101545e-01 6.010765e-01 5.793353e-01 7.326857e-01 6.010599e-01 7.015779e-01 5.826305e-01 5.939457e-01 4.665728e-01 2.035039e-01
<GCONST> 1.241408e+02
<STATE> 3
<MEAN> 39
 1.023666e+01 -2.439747e+00 -9.611289e+00 -1.559313e+01 -1.284209e+00 1.181214e+01 4.519664e+00 -2.672774e+00 2.371318e-01 -8.390707e-01 1.933367e+00 -4.459538e-01 6.747510e+00 -1.811434e-02 -2.296274e-01 -1.817475e-01 1.570029e-01 4.563624e-01 6.462296e-03 -1.897126e-01 -1.156726e-01 5.806742e-02 9.576006e-02 1.476385e-01 -2.640896e-02 1.694031e-01 -2.662117e-02 1.631433e-02 4.408851e-02 2.614641e-01 2.789260e-02 -2.666633e-01 -2.116988e-01 2.471980e-02 4.616053e-02 1.092361e-01 -1.735756e-02 -8.930964e-02 -6.657769e-02
<VARIANCE> 39
 9.289324e+00 3.189202e+01 2.461442e+01 5.074324e+01 6.920964e+01 4.858972e+01 6.734317e+01 4.365533e+01 4.018997e+01 4.453377e+01 3.768606e+01 3.490608e+01 1.587597e+01 1.920439e-01 9.904898e-01 8.003235e-01 1.504221e+00 1.548658e+00 1.455276e+00 1.614407e+00 1.396429e+00 1.355926e+00 1.524632e+00 1.422055e+00 1.383527e+00 3.267536e-01 3.373157e-02 9.619447e-02 1.085957e-01 1.765955e-01 2.105404e-01 2.291399e-01 2.514306e-01 2.389710e-01 2.477846e-01 2.410522e-01 2.323003e-01 2.115056e-01 3.795198e-02
<GCONST> 9.384688e+01
<STATE> 4
<MEAN> 39
 1.049587e+01 -5.456895e+00 -1.125362e+01 -8.575592e+00 1.872380e+00 6.304143e+00 -4.777200e-01 -1.132602e+00 5.602369e-01 1.529167e+00 2.950592e+00 -2.502202e+00 7.616227e+00 -1.942962e-01 -1.304028e-01 1.894750e-01 1.856848e+00 4.819429e-01 -1.737951e+00 -1.292497e+00 4.645818e-01 8.085745e-01 3.686984e-01 -6.328112e-01 -3.052342e-01 -2.640403e-01 -1.735776e-01 3.121244e-01 3.855073e-01 2.814681e-01 -2.058861e-01 -2.720717e-01 -4.235184e-03 7.249742e-02 6.746924e-02 -1.437271e-01 -2.633400e-01 1.884919e-01 -3.260657e-01
<VARIANCE> 39
 1.302051e+01 2.832993e+01 2.772968e+01 5.280664e+01 4.626125e+01 5.787970e+01 7.513242e+01 5.718963e+01 5.397786e+01 5.610798e+01 5.333944e+01 5.494440e+01 1.445505e+01 4.417442e-01 1.880341e+00 1.990146e+00 2.509177e+00 3.557872e+00 2.886124e+00 3.976219e+00 3.332908e+00 3.477191e+00 3.353937e+00 3.031777e+00 2.984728e+00 7.740252e-01 1.911731e-01 2.216654e-01 2.445645e-01 3.896109e-01 4.373594e-01 5.139204e-01 6.396788e-01 5.771213e-01 5.865091e-01 5.682566e-01 5.766786e-01 5.963842e-01 1.277452e-01
<GCONST> 1.183186e+02
<TRANSP> 5
 0.000000e+00 1.000000e+00 0.000000e+00 0.000000e+00 0.000000e+00
 0.000000e+00 6.433672e-01 3.566329e-01 0.000000e+00 0.000000e+00
 0.000000e+00 0.000000e+00 8.509853e-01 1.490148e-01 0.000000e+00
 0.000000e+00 0.000000e+00 0.000000e+00 6.629501e-01 3.370499e-01
 0.000000e+00 0.000000e+00 0.000000e+00 0.000000e+00 0.000000e+00
<ENDHMM>
~h "aw"
<BEGINHMM>
<NUMSTATES> 5
<STATE> 2
<MEAN> 39
 5.581408e+00 -1.032657e+01 -2.471203e+00 -3.018669e+00 -2.178207e+00 1.625593e-01 1.936416e+00 4.177339e+00 9.743270e-01 -3.084959e+00 -3.984580e+00 -2.025884e+00 1.182159e+01 2.964250e-01 -1.107537e+00 -8.132727e-01 -1.723827e-01 8.533974e-01 7.828091e-01 -1.485245e-01 -1.538329e-03 4.588578e-01 -4.110574e-01 -4.502456e-01 -2.672443e-01 6.822823e-01 -2.084233e-01 4.217461e-01 9.415977e-03 1.393085e-01 2.629070e-01 1.323022e-01 -6.586925e-02 -3.696539e-01 -3.460792e-02 1.383840e-01 1.788279e-01 4.784574e-02 -4.494981e-01
<VARIANCE> 39
 1.202790e+01 2.194915e+01 3.709858e+01 3.147890e+01 4.810736e+01 4.055303e+01 4.916993e+01 5.005136e+01 4.578722e+01 3.959160e+01 2.753563e+01 2.972293e+01 1.354265e+01 9.376990e-01 1.814123e+00 1.790078e+00 2.084891e+00 2.640964e+00 2.566003e+00 3.548005e+00 3.076037e+00 2.515403e+00 2.236830e+00 2.065388e+00 2.001394e+00 1.077387e+00 2.968973e-01 2.664860e-01 2.596067e-01 3.518310e-01 4.248945e-01 4.204239e-01 5.631983e-01 5.641153e-01 5.189623e-01 4.162175e-01 3.812952e-01 3.708070e-01 1.818466e-01
<GCONST> 1.128970e+02
<STATE> 3
<MEAN> 39
 7.307816e+00 -1.084170e+01 -7.155121e+00 -4.577706e+00 3.439944e+00 4.776204e+00 1.850756e-01 -2.985972e-01 3.927097e+00 -2.305615e+00 -3.848756e+00 -3.803468e+00 1.146734e+01 2.720915e-01 3.641843e-01 -4.463001e-01 -5.591557e-01 3.644463e-01 7.238188e-01 -2.469890e-01 -6.303791e-01 5.821538e-02 3.430392e-01 4.212172e-01 -1.530918e-01 -3.070113e-01 2.452448e-02 1.995226e-01 6.659771e-02 -7.766757e-02 -2.073893e-01 -6.544209e-02 2.190669e-02 3.444862e-02 -1.212669e-01 7.796835e-02 1.295823e-01 8.650303e-02 -1.328597e-01
<VARIANCE> 39
 9.053011e+00 1.686702e+01 2.381954e+01 3.515307e+01 3.595232e+01 4.687304e+01 5.769213e+01 4.744311e+01 3.641417e+01 3.852350e+01 3.089091e+01 3.340498e+01 1.337536e+01 2.189457e-01 5.825728e-01 6.679899e-01 1.120032e+00 1.252387e+00 1.330297e+00 1.477172e+00 1.544499e+00 1.469412e+00 1.337754e+00 1.373844e+00 1.208732e+00 1.949587e-01 3.576723e-02 8.902138e-02 1.076092e-01 1.494166e-01 1.816865e-01 2.109160e-01 2.482137e-01 2.347210e-01 2.293599e-01 1.972791e-01 2.132477e-01 2.005578e-01 3.422116e-02
<GCONST> 8.848607e+01
<STATE> 4
<MEAN> 39
 9.754757e+00 -5.259970e+00 -9.009108e+00 -1.034504e+01 1.290255e+00 8.298322e+00 1.954411e-01 -2.670675e+00 1.233610e+00 4.368838e-01 1.067137e+00 -2.866669e+00 7.518764e+00 8.048055e-02 1.193355e+00 3.762419e-01 1.175110e-01 -8.814004e-01 -6.896102e-01 -1.311533e-01 2.809739e-02 -5.345061e-01 4.078551e-01 3.380724e-01 3.585837e-01 -1.064300e+00 -2.457920e-01 1.220114e-01 3.271557e-01 5.912055e-01 -2.563896e-02 -4.539431e-01 -3.680212e-02 7.073665e-03 -7.443368e-03 -3.786307e-02 -2.097982e-01 2.484823e-02 -2.393982e-01
<VARIANCE> 39
 1.039128e+01 2.736111e+01 2.355838e+01 4.676619e+01 5.310300e+01 4.824418e+01 6.477600e+01 4.232260e+01 4.348936e+01 4.529789e+01 4.461665e+01 3.693203e+01 2.266818e+01 6.056138e-01 1.677031e+00 1.661981e+00 3.443760e+00 2.777329e+00 3.207012e+00 3.202627e+00 2.876225e+00 2.850753e+00 2.698437e+00 2.808836e+00 2.641144e+00 8.722406e-01 1.580862e-01 2.747929e-01 2.745032e-01 4.028525e-01 5.289121e-01 4.054681e-01 5.492274e-01 5.160598e-01 5.060775e-01 5.181683e-01 4.850965e-01 4.538428e-01 2.053105e-01
<GCONST> 1.157116e+02
<TRANSP> 5
 0.000000e+00 1.000000e+00 0.000000e+00 0.000000e+00 0.000000e+00
 0.000000e+00 7.268390e-01 2.731610e-01 0.000000e+00 0.000000e+00
 0.000000e+00 0.000000e+00 8.530747e-01 1.469253e-01 0.000000e+00
 0.000000e+00 0.000000e+00 0.000000e+00 7.684435e-01 2.315565e-01
 0.000000e+00 0.000000e+00 0.000000e+00 0.000000e+00 0.000000e+00
<ENDHMM>
~h "ax"
<BEGINHMM>
<NUMSTATES> 5
<STATE> 2
<MEAN> 39
 6.803464e+00 -1.511160e+00 -2.440708e+00 -4.131135e+00 -5.930793e-01 -1.076786e+00 -5.677783e+00 -1.926340e+00 2.901796e+00 2.399264e+00 -1.631493e+00 -2.417524e+00 5.463581e+00 1.942482e+00 -8.993292e-01 -1.371370e-01 -1.211704e+00 -5.407700e-01 8.870453e-02 -1.547490e+00 -8.492344e-02 4.000295e-01 5.396805e-01 -2.180466e-01 -6.567990e-01 9.959633e-01 -6.673337e-01 5.152292e-01 1.314017e-01 4.678037e-01 2.473613e-01 2.573501e-01 6.194344e-01 -1.406537e-01 -4.610048e-01 -1.748598e-01 2.304648e-01 2.268190e-01 -8.389251e-01
<VARIANCE> 39
 1.789111e+01 2.732892e+01 3.204300e+01 4.218690e+01 3.498153e+01 5.170992e+01 4.456698e+01 4.800518e+01 3.994449e+01 4.647656e+01 4.250081e+01 2.868709e+01 1.871186e+01 5.883883e+00 3.111813e+00 3.452798e+00 5.497936e+00 4.654529e+00 5.752462e+00 5.459541e+00 6.078051e+00 4.957684e+00 4.068236e+00 4.806271e+00 3.392093e+00 2.858747e+00 6.233672e-01 4.572913e-01 4.809222e-01 7.578957e-01 6.266763e-01 8.371739e-01 8.478261e-01 8.705648e-01 8.315347e-01 8.101833e-01 7.908272e-01 5.789977e-01 6.247635e-01
<GCONST> 1.324358e+02
<STATE> 3
<MEAN> 39
 8.207444e+00 -3.175380e+00 -2.396264e+00 -5.671275e+00 -9.709497e-01 -7.880583e-03 -7.220105e+00 -1.535599e+00 2.965735e+00 3.549141e+00 -1.427538e+00 -3.228140e+00 6.362732e+00 3.731097e-01 4.557323e-01 9.440970e-02 2.992689e-02 1.033340e-01 2.893544e-01 7.512676e-02 -5.115196e-01 -5.511071e-01 2.787034e-02 2.865707e-01 4.368710e-02 -6.435545e-01 -9.516627e-01 9.119224e-01 2.017696e-01 8.255085e-01 3.825870e-01 5.277118e-02 9.186931e-01 -2.633911e-01 -5.498635e-01 -4.069358e-01 1.531440e-01 3.448231e-01 -1.033434e+00
<VARIANCE> 39
 1.088860e+01 2.268590e+01 3.253337e+01 3.810291e+01 3.298400e+01 5.753723e+01 4.881491e+01 5.238961e+01 4.039059e+01 4.786884e+01 4.753214e+01 3.147202e+01 1.453398e+01 2.689964e+00 2.500591e+00 2.622345e+00 4.670958e+00 3.584357e+00 4.337546e+00 3.823882e+00 4.367924e+00 3.933553e+00 3.526532e+00 3.749415e+00 2.938046e+00 1.911043e+00 7.201436e-01 4.803290e-01 5.498961e-01 8.291348e-01 7.670196e-01 1.077637e+00 1.093491e+00 1.133642e+00 9.566714e-01 9.119012e-01 9.482490e-01 6.800576e-01 5.803657e-01
<GCONST> 1.299643e+02
<STATE> 4
<MEAN> 39
 7.793799e+00 -3.758378e-01 -2.452730e+00 -4.344384e+00 -2.114660e-01 2.903840e-01 -5.308724e+00 -3.604090e+00 1.071787e+00 2.632580e+00 -2.981412e-01 -2.130363e+00 3.726997e+00 -1.167199e+00 1.978852e+00 5.626087e-01 1.432735e+00 7.020168e-01 2.208994e-01 1.422283e+00 -7.664694e-01 -1.307816e+00 -7.980624e-01 2.716986e-01 5.257748e-01 -2.140967e+00 -8.414808e-01 4.100265e-01 1.785339e-01 5.356390e-01 2.280121e-01 6.261670e-02 5.497451e-01 9.152871e-02 -1.849643e-01 -2.555090e-01 -5.289156e-02 1.474395e-01 -5.699121e-01
<VARIANCE> 39
 1.463761e+01 2.516618e+01 3.290664e+01 4.377878e+01 3.565032e+01 5.774279e+01 4.828624e+01 4.978146e+01 4.383883e+01 4.743891e+01 4.567646e+01 3.231465e+01 1.793326e+01 3.891498e+00 2.512248e+00 2.978296e+00 6.130547e+00 4.080830e+00 4.890649e+00 4.891396e+00 5.273098e+00 5.220262e+00 4.471704e+00 4.334938e+00 3.522048e+00 3.515759e+00 6.447758e-01 5.394339e-01 4.869693e-01 7.183501e-01 6.752629e-01 9.277338e-01 8.654058e-01 9.710796e-01 8.147060e-01 8.005968e-01 8.174986e-01 6.030045e-01 5.683490e-01
<GCONST> 1.322114e+02
<TRANSP> 5
 0.000000e+00 1.000000e+00 0.000000e+00 0.000000e+00 0.000000e+00
 0.000000e+00 1.943232e-01 8.056768e-01 0.000000e+00 0.000000e+00
 0.000000e+00 0.000000e+00 2.961884e-01 7.038115e-01 0.000000e+00
 0.000000e+00 0.000000e+00 0.000000e+00 1.966022e-01 8.033978e-01
 0.000000e+00 0.000000e+00 0.000000e+00 0.000000e+00 0.000000e+00
<ENDHMM>
~h "ay"
<BEGINHMM>
<NUMSTATES> 5
<STATE> 2
<MEAN> 39
 8.333158e+00 -8.051762e+00 -8.349693e+00 -7.778699e+00 2.140960e+00 6.105729e+00 2.476100e-01 -1.390637e+00 3.416901e+00 8.339509e-01 -1.860854e+00 -4.778212e+00 1.013813e+01 3.581176e-01 -1.852286e+00 -3.667439e-01 -1.555534e-01 4.380315e-01 4.582283e-01 1.835416e-02 3.809511e-01 8.273655e-01 -4.109274e-01 -7.921494e-01 -6.220996e-01 1.205315e+00 -5.402569e-01 4.663918e-01 4.662156e-01 5.845280e-01 5.694037e-03 -4.355749e-01 9.247299e-02 6.250712e-02 -2.178681e-01 -1.531202e-01 5.202186e-02 3.833765e-01 -5.080164e-01
<VARIANCE> 39
 1.182594e+01 2.461471e+01 2.548479e+01 4.010737e+01 4.413724e+01 5.805738e+01 5.223579e+01 5.110399e+01 4.102464e+01 4.609514e+01 4.542110e+01 3.379543e+01 1.383380e+01 2.089380e+00 1.948202e+00 2.781185e+00 3.962206e+00 3.438120e+00 4.585911e+00 3.548177e+00 4.068106e+00 3.336693e+00 2.998548e+00 2.976666e+00 3.054659e+00 1.348343e+00 4.629322e-01 3.170255e-01 3.507020e-01 5.600212e-01 6.314348e-01 6.662613e-01 6.740805e-01 7.146454e-01 6.280091e-01 5.837363e-01 6.720922e-01 5.265375e-01 2.197597e-01
<GCONST> 1.228673e+02
<STATE> 3
<MEAN> 39
 7.680164e+00 -1.079282e+01 -7.964168e+00 -5.060055e+00 3.678699e+00 5.121410e+00 3.435930e-01 -4.024093e-01 4.976838e+00 -1.527849e+00 -3.829949e+00 -4.646466e+00 1.113678e+01 -2.286910e-01 -2.973789e-01 6.334509e-01 6.779295e-01 -4.692833e-01 -9.573441e-01 1.165217e-01 8.899617e-01 1.009599e-01 -5.505396e-01 -3.840030e-01 3.281087e-01 1.054529e-01 -3.256480e-02 2.553602e-01 2.082267e-01 -7.090832e-03 -3.145966e-01 -2.309301e-01 6.171869e-02 1.326541e-01 -2.066274e-01 2.009418e-03 1.965155e-01 1.814373e-01 -1.288602e-01
<VARIANCE> 39
 1.036850e+01 2.171278e+01 2.082428e+01 3.319796e+01 3.994566e+01 4.793981e+01 5.241035e+01 4.587416e+01 3.971128e+01 3.974041e+01 3.431741e+01 3.592916e+01 1.307907e+01 2.360769e-01 6.104188e-01 1.065077e+00 1.241866e+00 1.698413e+00 2.221900e+00 1.709470e+00 2.315666e+00 1.520581e+00 1.391962e+00 1.403399e+00 1.446416e+00 1.857091e-01 4.231571e-02 1.331640e-01 1.295182e-01 1.712740e-01 2.247707e-01 2.276901e-01 2.714900e-01 2.808000e-01 3.050500e-01 2.419153e-01 2.961012e-01 2.688183e-01 5.177408e-02
<GCONST> 9.421614e+01
<STATE> 4
<MEAN> 39
 5.661190e+00 -9.143324e+00 -3.767211e-01 -2.988708e+00 -4.345288e+00 -2.915326e+00 2.500579e+00 6.152593e+00 1.675105e+00 -2.930703e+00 -3.090969e+00 -1.002420e+00 1.041848e+01 -2.854915e-01 1.083603e+00 1.447868e+00 1.234694e-01 -1.488299e+00 -1.143331e+00 1.379283e-01 9.981795e-02 -8.932590e-01 3.976779e-01 8.445724e-01 4.532406e-01 -6.230142e-01 -3.824511e-03 3.569051e-01 -7.069768e-02 5.795134e-02 2.590021e-01 2.245265e-01 -1.993056e-01 -5.510935e-01 -1.014898e-01 2.359791e-01 9.658773e-02 -1.229747e-01 -3.489870e-01
<VARIANCE> 39
 1.108241e+01 2.416755e+01 3.436979e+01 2.688935e+01 4.576574e+01 3.984022e+01 4.655907e+01 3.867384e+01 4.835008e+01 3.694302e+01 3.138074e+01 2.831231e+01 1.719143e+01 4.400449e-01 1.102611e+00 1.995763e+00 1.978736e+00 2.957342e+00 2.515101e+00 3.425580e+00 3.341534e+00 2.898425e+00 2.743122e+00 2.303000e+00 2.611757e+00 4.679233e-01 9.422205e-02 2.215387e-01 2.251825e-01 3.124916e-01 4.154809e-01 3.423317e-01 4.752911e-01 4.840643e-01 5.006472e-01 4.503920e-01 4.235630e-01 3.557986e-01 1.478736e-01
<GCONST> 1.091889e+02
<TRANSP> 5
 0.000000e+00 1.000000e+00 0.000000e+00 0.000000e+00 0.000000e+00
 0.000000e+00 5.664044e-01 4.335956e-01 0.000000e+00 0.000000e+00
 0.000000e+00 0.000000e+00 8.198414e-01 1.801586e-01 0.000000e+00
 0.000000e+00 0.000000e+00 0.000000e+00 7.744960e-01 2.255040e-01
 0.000000e+00 0.000000e+00 0.000000e+00 0.000000e+00 0.000000e+00
<ENDHMM>
~h "ch"
<BEGINHMM>
<NUMSTATES> 5
<STATE> 2
<MEAN> 39
 -1.680589e+01 -3.833617e-03 4.991501e+00 -2.681921e+00 3.635130e+00 6.642517e+00 1.635524e+00 1.038078e+00 3.488270e+00 4.720637e-01 2.701150e+00 2.030813e+00 1.716125e+00 -2.169448e+00 3.708100e-01 1.020607e+00 -7.340484e-01 -7.765171e-01 1.399873e-01 6.364759e-01 1.629970e-01 3.415393e-01 7.323377e-02 2.707976e-01 2.081636e-01 3.404210e+00 6.867694e-01 3.426714e-01 1.246594e-01 7.312297e-01 -2.389169e-01 -4.886462e-01 1.002625e-01 -1.046696e-01 -2.975274e-01 -8.677252e-02 -2.379860e-01 -1.273616e-01 -6.302606e-01
<VARIANCE> 39
 3.243097e+01 4.358814e+01 3.742408e+01 2.857142e+01 3.977748e+01 2.615309e+01 2.852203e+01 2.963495e+01 2.161965e+01 1.985105e+01 2.075864e+01 1.346325e+01 2.803424e+01 3.385295e+00 3.570904e+00 2.890292e+00 3.780005e+00 2.578139e+00 2.433464e+00 2.293785e+00 2.275366e+00 1.986786e+00 1.860026e+00 1.643012e+00 1.449961e+00 4.895146e+00 7.893994e-01 8.788183e-01 7.075319e-01 6.279721e-01 5.383949e-01 5.445600e-01 4.989118e-01 5.036910e-01 4.303296e-01 4.129730e-01 3.402608e-01 2.974292e-01 9.057848e-01
<GCONST> 1.188543e+02
<STATE> 3
<MEAN> 39
 -1.872205e+01 4.514363e-01 7.719719e+00 -9.269484e-01 -4.427699e-01 4.565636e+00 4.909931e+00 6.445646e-01 2.962070e+00 6.742737e-01 2.087420e+00 2.108660e+00 6.872508e+00 1.380509e+00 -4.486924e-01 -1.468023e-01 6.537054e-01 -8.751664e-01 -1.183764e+00 1.783505e-01 -2.929106e-02 -3.926515e-01 -1.134963e-01 -2.906165e-01 -1.523210e-01 5.647141e-02 1.058837e+00 -1.306097e-01 -2.499307e-01 1.191518e-01 9.456687e-02 -2.921026e-01 -4.312222e-01 -1.261255e-02 -1.518317e-01 -1.651046e-01 -1.243527e-01 -8.827335e-02 -6.717851e-01
<VARIANCE> 39
 1.494170e+01 2.287700e+01 2.380944e+01 2.229003e+01 4.132101e+01 2.575528e+01 2.777575e+01 2.685838e+01 2.099035e+01 2.246438e+01 2.317501e+01 1.749974e+01 1.130380e+01 2.926527e+00 1.276078e+00 1.931372e+00 1.899024e+00 2.302610e+00 2.285970e+00 1.981809e+00 2.092113e+00 1.669310e+00 1.699361e+00 1.600509e+00 1.284029e+00 1.700912e+00 5.414515e-01 3.018246e-01 4.590624e-01 3.499185e-01 4.756465e-01 4.792924e-01 4.910671e-01 4.238405e-01 3.886952e-01 3.852665e-01 3.535695e-01 2.991859e-01 3.602170e-01
<GCONST> 1.080969e+02
<STATE> 4
<MEAN> 39
 -6.919580e+00 -1.541669e+00 5.774263e+00 2.316244e+00 -3.010180e+00 -1.792124e+00 2.507552e+00 6.291389e-01 7.169039e-01 -1.245630e+00 4.290483e-02 7.327775e-01 4.420805e+00 5.080808e+00 -7.015567e-01 -6.842523e-01 9.208278e-02 -6.477242e-01 -1.924697e+00 -2.188747e+00 1.775849e-01 -8.386008e-01 -8.253893e-01 -5.514842e-01 -4.227151e-01 -4.042864e-01 8.357122e-02 -1.746738e-01 -2.217551e-01 -5.049009e-01 1.318526e-01 3.753612e-01 -4.338270e-01 1.289242e-01 1.174748e-01 1.472693e-01 1.810502e-01 1.734449e-02 1.827097e-01
<VARIANCE> 39
 7.747836e+01 2.413429e+01 3.194017e+01 3.146166e+01 4.226571e+01 4.178939e+01 4.064692e+01 3.170775e+01 3.273231e+01 2.640174e+01 2.563431e+01 1.919458e+01 1.640353e+01 4.134202e+00 2.975678e+00 4.233309e+00 4.008893e+00 5.806370e+00 5.826464e+00 6.732029e+00 4.964336e+00 4.731725e+00 3.659038e+00 3.779003e+00 2.675078e+00 2.989388e+00 1.134599e+00 4.090198e-01 4.906234e-01 5.284045e-01 7.497418e-01 7.858744e-01 9.741566e-01 7.549496e-01 7.022650e-01 6.433163e-01 5.468844e-01 4.209378e-01 6.292642e-01
<GCONST> 1.294707e+02
<TRANSP> 5
 0.000000e+00 1.000000e+00 0.000000e+00 0.000000e+00 0.000000e+00
 0.000000e+00 6.903297e-01 3.096703e-01 0.000000e+00 0.000000e+00
 0.000000e+00 0.000000e+00 7.240127e-01 2.759873e-01 0.000000e+00
 0.000000e+00 0.000000e+00 0.000000e+00 5.713370e-01 4.286631e-01
 0.000000e+00 0.000000e+00 0.000000e+00 0.000000e+00 0.000000e+00
<ENDHMM>
~h "dh"
<BEGINHMM>
<NUMSTATES> 5
<STATE> 2
<MEAN> 39
 -5.696795e+00 6.620288e+00 -4.170605e-02 6.526327e+00 4.775043e+00 2.204650e+00 1.437562e+00 -2.309226e+00 1.021334e+00 9.350965e-01 -1.439382e-01 -3.556449e-02 -1.246052e+01 -1.029877e-01 4.969705e-02 -3.110424e-02 -6.659556e-02 -8.181866e-02 -1.449060e-01 2.018312e-02 8.049642e-02 1.229174e-01 -2.172391e-01 -8.912242e-02 6.977067e-03 9.525368e-01 4.377002e-01 -4.278516e-01 -7.850013e-02 -4.203206e-01 -4.854055e-01 -4.394450e-01 -1.527447e-01 1.651070e-01 1.451744e-01 -5.035944e-03 2.990606e-05 5.921178e-02 1.126366e+00
<VARIANCE> 39
 5.625398e+01 2.343497e+01 2.862107e+01 3.245891e+01 2.906900e+01 3.947080e+01 4.231176e+01 4.251508e+01 3.475952e+01 2.699573e+01 3.208630e+01 2.697109e+01 7.156696e+01 3.290551e+00 2.746781e+00 3.096172e+00 3.511854e+00 2.800479e+00 3.141490e+00 3.038568e+00 3.240052e+00 2.922933e+00 2.288883e+00 2.275608e+00 2.146161e+00 8.915123e+00 6.805750e-01 5.627224e-01 6.324307e-01 7.327834e-01 6.111369e-01 6.616301e-01 6.798497e-01 7.114585e-01 6.292794e-01 5.174434e-01 4.936292e-01 4.777953e-01 1.119340e+00
<GCONST> 1.270226e+02
<STATE> 3
<MEAN> 39
 -5.535363e+00 4.937876e+00 -1.538320e+00 4.822979e+00 3.351600e+00 6.762151e-01 2.275112e+00 -1.620154e+00 2.008422e+00 1.989722e-01 -2.430035e-02 5.469856e-01 -5.708767e+00 1.963188e+00 -9.870206e-01 -2.762507e-01 -1.484190e+00 -1.788090e+00 -1.855826e+00 -1.007508e+00 2.538791e-01 5.483057e-01 -1.808618e-01 -2.670379e-01 -4.692055e-02 4.433671e+00 7.793984e-01 -4.321429e-01 3.097290e-01 -4.472625e-01 -5.972949e-01 -4.015759e-01 -4.943824e-01 1.165350e-01 -1.565875e-03 1.742324e-01 -1.012690e-01 -1.094601e-01 4.975891e-01
<VARIANCE> 39
 3.959251e+01 3.053147e+01 2.875206e+01 3.161032e+01 2.690176e+01 3.589002e+01 4.211199e+01 3.671721e+01 2.971539e+01 2.637243e+01 3.136523e+01 2.427573e+01 5.880681e+01 4.602646e+00 2.673856e+00 3.307814e+00 3.026453e+00 3.320605e+00 3.673613e+00 4.287060e+00 4.251821e+00 3.984733e+00 3.261589e+00 3.119821e+00 3.187716e+00 5.614110e+00 5.772104e-01 7.459975e-01 7.510540e-01 7.489071e-01 6.093818e-01 7.704525e-01 8.664444e-01 7.638257e-01 7.469622e-01 6.223166e-01 6.881163e-01 5.809826e-01 1.036261e+00
<GCONST> 1.297475e+02
<STATE> 4
<MEAN> 39
 1.594949e+00 2.084885e+00 -1.209455e+00 9.561453e-01 -2.331772e+00 -4.853100e+00 -1.649662e+00 -9.753233e-01 3.410497e+00 5.005478e-01 -1.190315e+00 -4.493622e-01 4.014425e+00 2.414523e+00 -1.783890e+00 5.961004e-01 -1.714754e+00 -2.095336e+00 -1.657663e+00 -1.331147e+00 7.073742e-01 3.317892e-01 1.360166e-01 -4.568513e-01 -3.323394e-01 3.435240e+00 -3.143387e-01 -8.432075e-02 2.699309e-01 1.620640e-01 3.023852e-01 5.126137e-01 2.024614e-01 1.081610e-01 -2.567449e-01 3.665401e-02 5.080759e-02 3.233518e-02 -9.073840e-01
<VARIANCE> 39
 2.702827e+01 2.572436e+01 2.482191e+01 2.635295e+01 3.181264e+01 3.214590e+01 4.152215e+01 3.288918e+01 2.741173e+01 2.942098e+01 2.518411e+01 2.722785e+01 2.485437e+01 3.539805e+00 3.420890e+00 4.022389e+00 4.098847e+00 4.187267e+00 5.156709e+00 6.165467e+00 4.994714e+00 5.051924e+00 3.895002e+00 4.256074e+00 3.650575e+00 4.409142e+00 6.667832e-01 4.758620e-01 5.021204e-01 5.662756e-01 6.125209e-01 5.901263e-01 7.455896e-01 5.960506e-01 5.801026e-01 5.559072e-01 5.498053e-01 5.081983e-01 6.117246e-01
<GCONST> 1.271608e+02
<TRANSP> 5
 0.000000e+00 1.000000e+00 0.000000e+00 0.000000e+00 0.000000e+00
 0.000000e+00 5.404558e-01 4.595442e-01 0.000000e+00 0.000000e+00
 0.000000e+00 0.000000e+00 3.679898e-01 6.320102e-01 0.000000e+00
 0.000000e+00 0.000000e+00 0.000000e+00 4.765784e-01 5.234215e-01
 0.000000e+00 0.000000e+00 0.000000e+00 0.000000e+00 0.000000e+00
<ENDHMM>
~h "dx"
<BEGINHMM>
<NUMSTATES> 5
<STATE> 2
<MEAN> 39
 7.153464e+00 -4.784277e+00 -1.373220e-01 1.114094e+00 -6.712035e+00 -1.832462e+00 -3.520927e+00 -1.269930e+00 3.285704e+00 3.916465e-01 -6.005818e-01 -2.216584e+00 5.200124e+00 -3.858405e-01 9.085262e-01 8.631945e-01 2.284288e+00 3.340032e-01 -6.740596e-01 -3.537895e-01 -8.915288e-01 1.665115e-01 -3.249997e-01 -4.286464e-01 5.855316e-01 -2.116399e+00 -5.653622e-02 -4.625563e-02 2.539455e-02 -4.501076e-01 2.378027e-01 3.606457e-02 -1.131308e-02 2.272546e-01 -2.961478e-01 4.719722e-02 1.140259e-01 1.590863e-01 2.622304e-01
<VARIANCE> 39
 1.788598e+01 3.156347e+01 9.835825e+01 4.861050e+01 4.894488e+01 4.925338e+01 5.701438e+01 5.586587e+01 6.618917e+01 5.247688e+01 3.834209e+01 3.444486e+01 2.661707e+01 1.788056e+00 2.489471e+00 4.266345e+00 5.526035e+00 7.610120e+00 6.173328e+00 7.237467e+00 5.803985e+00 5.521391e+00 4.790693e+00 4.967025e+00 3.681937e+00 2.419944e+00 1.999496e-01 3.238739e-01 4.079635e-01 6.948643e-01 8.294243e-01 6.442908e-01 8.572411e-01 8.514387e-01 7.551026e-01 7.416197e-01 7.089112e-01 5.323392e-01 5.202356e-01
<GCONST> 1.331193e+02
<STATE> 3
<MEAN> 39
 5.385987e+00 -1.525151e+00 2.510187e+00 5.669265e+00 -3.842710e+00 -3.056567e+00 -3.543143e+00 -3.334979e+00 1.731164e+00 -6.896118e-01 -1.924969e+00 -1.057942e+00 -1.834099e-01 -5.498913e-01 4.529449e-01 6.643575e-01 4.408674e-01 5.525679e-01 -4.463350e-01 -2.872715e-01 2.630040e-02 -2.148886e-01 -1.824614e-01 -7.723983e-02 6.376647e-01 -5.971281e-01 2.244182e-01 -4.906967e-01 -1.894964e-01 -1.090017e+00 -3.400177e-01 5.705870e-02 -1.941032e-01 6.719424e-01 -1.332711e-01 1.738134e-01 3.320507e-01 -8.945373e-03 1.089542e+00
<VARIANCE> 39
 2.247273e+01 3.779548e+01 7.379605e+01 4.507103e+01 5.646656e+01 3.707211e+01 4.485707e+01 4.702552e+01 5.593335e+01 4.577599e+01 3.229364e+01 2.562750e+01 3.602083e+01 1.852872e+00 2.239799e+00 3.700804e+00 4.795396e+00 4.861678e+00 4.854678e+00 5.809227e+00 4.715468e+00 4.506127e+00 3.699710e+00 3.847491e+00 3.026077e+00 2.669652e+00 3.379419e-01 5.303429e-01 6.824199e-01 8.999065e-01 1.391918e+00 1.004666e+00 1.328851e+00 1.189407e+00 1.087930e+00 1.017070e+00 1.035924e+00 6.414346e-01 6.498293e-01
<GCONST> 1.348516e+02
<STATE> 4
<MEAN> 39
 4.050089e+00 -2.509436e+00 3.699329e+00 2.621836e+00 -4.369394e+00 -3.629721e+00 -4.362133e+00 -1.023265e+00 1.277990e+00 -9.487344e-01 -7.837368e-01 3.465120e-01 2.739511e+00 3.205617e-01 -6.625468e-01 1.269294e-01 -1.205530e+00 -6.038772e-01 -4.155182e-01 -7.342469e-01 1.097923e+00 -2.424036e-01 2.428263e-01 4.961160e-01 3.797705e-01 1.381556e+00 4.236367e-01 -2.844539e-01 -2.774449e-01 -5.120682e-01 -3.823999e-01 7.692555e-02 -8.864356e-02 2.657381e-01 -7.867783e-02 1.652891e-01 1.560391e-01 -1.825592e-01 5.278540e-01
<VARIANCE> 39
 3.287556e+01 3.741183e+01 7.456287e+01 4.498848e+01 5.807564e+01 3.977442e+01 4.464173e+01 4.781807e+01 5.210977e+01 4.038892e+01 3.019224e+01 2.401486e+01 3.043192e+01 1.874503e+00 2.195552e+00 3.382979e+00 3.990804e+00 4.574048e+00 3.855816e+00 5.205190e+00 4.819657e+00 4.494246e+00 3.713706e+00 3.680700e+00 2.590408e+00 2.732173e+00 5.044311e-01 5.582271e-01 7.832797e-01 9.424987e-01 1.501469e+00 1.016998e+00 1.139440e+00 9.932866e-01 9.351382e-01 8.223360e-01 8.525208e-01 6.067233e-01 6.529048e-01
<GCONST> 1.337875e+02
<TRANSP> 5
 0.000000e+00 1.000000e+00 0.000000e+00 0.000000e+00 0.000000e+00
 0.000000e+00 2.295688e-01 7.704311e-01 0.000000e+00 0.000000e+00
 0.000000e+00 0.000000e+00 1.880805e-01 8.119195e-01 0.000000e+00
 0.000000e+00 0.000000e+00 0.000000e+00 2.934726e-01 7.065274e-01
 0.000000e+00 0.000000e+00 0.000000e+00 0.000000e+00 0.000000e+00
<ENDHMM>
~h "eh"
<BEGINHMM>
<NUMSTATES> 5
<STATE> 2
<MEAN> 39
 5.714476e+00 -5.712936e+00 2.816883e+00 -3.166623e+00 -7.299145e+00 -5.547565e+00 -2.127920e+00 3.981179e+00 1.132797e+00 -2.210470e-01 -1.140988e+00 -8.058757e-01 9.930898e+00 1.339572e+00 -2.186002e+00 -1.966095e-01 -9.931378e-01 -1.169817e+00 -5.045567e-01 -5.796930e-01 1.738832e+00 5.546433e-01 -2.636172e-01 -1.093652e-01 -1.793926e-01 1.786278e+00 -6.886866e-01 3.816763e-01 -2.349371e-01 2.449255e-01 6.273550e-01 4.741701e-01 4.054905e-01 -1.864021e-01 -9.955660e-03 4.214180e-02 8.590857e-02 9.551010e-02 -5.609040e-01
<VARIANCE> 39
 1.326552e+01 2.436765e+01 4.005783e+01 3.304069e+01 3.658479e+01 3.904681e+01 5.507165e+01 4.415059e+01 5.111100e+01 3.779837e+01 3.555614e+01 3.033110e+01 1.384939e+01 3.692034e+00 2.431893e+00 2.989451e+00 3.269692e+00 3.837713e+00 4.442502e+00 6.459199e+00 4.636514e+00 4.413568e+00 3.661501e+00 3.393681e+00 2.740369e+00 1.750757e+00 5.163177e-01 4.219375e-01 4.020575e-01 5.269566e-01 5.830838e-01 6.284767e-01 7.801200e-01 7.534786e-01 7.884201e-01 5.895368e-01 6.038139e-01 4.660512e-01 3.565176e-01
<GCONST> 1.254885e+02
<STATE> 3
<MEAN> 39
