~o
<STREAMINFO> 1 39
<VECSIZE> 39<NULLD><MFCC_D_A_Z_0><DIAGC>
~h "b"
<BEGINHMM>
<NUMSTATES> 5
<STATE> 2
<MEAN> 39
 1.912311e+00 5.727558e-01 -2.761906e-02 -1.303017e-01 1.145139e-01 6.852819e-01 -4.523206e-01 -9.430687e-01 -3.707460e-01 9.690755e-02 1.852202e-01 -4.723881e-01 -5.643995e-01 2.178583e-02 -4.872650e-02 -2.165346e-02 -5.409816e-02 -3.338474e-02 -2.921249e-02 -7.957939e-03 3.171667e-02 2.005761e-02 1.222331e-02 -6.687125e-03 3.067960e-03 1.081135e-01 1.123495e-03 -1.144559e-02 -3.525096e-03 -7.981415e-03 -7.242475e-03 -6.225199e-03 -1.573092e-03 4.238924e-03 2.737685e-03 -4.183469e-04 -9.245877e-04 5.231188e-04 2.422902e-02
<VARIANCE> 39
 8.033429e+01 6.453278e+01 6.905286e+01 9.046108e+01 6.853512e+01 6.548141e+01 6.732049e+01 6.082460e+01 5.567462e+01 4.035172e+01 3.831903e+01 3.297618e+01 1.311418e+02 4.189267e+00 4.438132e+00 3.535198e+00 5.634207e+00 4.620140e+00 4.199710e+00 4.498515e+00 4.562927e+00 4.189365e+00 3.360521e+00 3.103988e+00 2.567805e+00 8.187980e+00 6.222675e-01 7.128443e-01 5.516752e-01 8.816028e-01 7.571164e-01 7.152674e-01 7.675118e-01 7.932636e-01 7.431430e-01 6.233533e-01 5.685391e-01 4.671482e-01 1.247179e+00
<GCONST> 1.396391e+02
<STATE> 3
<MEAN> 39
 1.973487e+00 4.136215e-01 -9.767714e-02 -2.934443e-01 8.942823e-03 6.012425e-01 -4.786460e-01 -8.567640e-01 -3.146336e-01 1.222687e-01 1.672689e-01 -4.640424e-01 -2.196973e-01 1.927976e-02 -7.162972e-02 -2.673564e-02 -6.807660e-02 -4.712498e-02 -4.091906e-02 -9.273912e-03 4.027892e-02 2.433323e-02 1.037736e-02 -7.524575e-03 5.544921e-03 1.533553e-01 -1.894966e-03 -9.230396e-03 -2.108975e-03 -4.742033e-03 -4.608626e-03 -4.002130e-03 -7.763841e-05 2.939386e-03 1.845815e-03 -6.862872e-04 -7.398227e-04 1.024129e-03 1.707601e-02
<VARIANCE> 39
 8.010230e+01 6.403605e+01 7.014529e+01 8.965049e+01 6.897803e+01 6.630312e+01 6.803001e+01 6.127775e+01 5.576615e+01 4.068863e+01 3.854219e+01 3.318051e+01 1.260927e+02 4.289758e+00 4.417147e+00 3.572598e+00 5.660554e+00 4.666160e+00 4.262187e+00 4.546866e+00 4.580170e+00 4.191331e+00 3.381026e+00 3.130514e+00 2.588674e+00 8.396735e+00 6.298623e-01 7.082574e-01 5.547255e-01 8.816219e-01 7.621074e-01 7.230979e-01 7.721413e-01 7.953569e-01 7.410221e-01 6.260316e-01 5.724967e-01 4.696002e-01 1.264655e+00
<GCONST> 1.398411e+02
<STATE> 4
<MEAN> 39
 2.010853e+00 1.608143e-01 -1.892869e-01 -5.005228e-01 -1.412738e-01 4.900622e-01 -4.971967e-01 -7.385924e-01 -2.318144e-01 1.305614e-01 1.341404e-01 -4.517900e-01 2.824975e-01 -6.533814e-03 -7.772767e-02 -2.401267e-02 -5.913486e-02 -4.511439e-02 -4.221966e-02 1.947443e-04 4.856449e-02 2.669205e-02 5.802542e-03 -9.181563e-03 1.035435e-02 1.492870e-01 -9.917670e-03 -1.275912e-03 1.323329e-03 4.957516e-03 2.246489e-03 2.003404e-04 3.572576e-03 2.229742e-03 9.474113e-04 -1.099592e-03 -8.933542e-04 1.677789e-03 -4.136844e-03
<VARIANCE> 39
 8.054794e+01 6.339360e+01 7.140207e+01 8.821146e+01 6.979767e+01 6.736283e+01 6.896465e+01 6.179990e+01 5.568715e+01 4.130101e+01 3.889396e+01 3.345268e+01 1.201346e+02 4.340014e+00 4.337112e+00 3.585669e+00 5.584266e+00 4.687836e+00 4.308522e+00 4.575687e+00 4.573784e+00 4.158939e+00 3.395881e+00 3.150317e+00 2.600899e+00 8.337365e+00 6.283689e-01 6.930941e-01 5.526279e-01 8.656811e-01 7.607588e-01 7.274301e-01 7.724817e-01 7.926637e-01 7.314208e-01 6.272544e-01 5.743573e-01 4.704648e-01 1.245109e+00
<GCONST> 1.398083e+02
<TRANSP> 5
 0.000000e+00 1.000000e+00 0.000000e+00 0.000000e+00 0.000000e+00
 0.000000e+00 5.756019e-01 4.243980e-01 0.000000e+00 0.000000e+00
 0.000000e+00 0.000000e+00 5.756031e-01 4.243969e-01 0.000000e+00
 0.000000e+00 0.000000e+00 0.000000e+00 6.750404e-01 3.249597e-01
 0.000000e+00 0.000000e+00 0.000000e+00 0.000000e+00 0.000000e+00
<ENDHMM>
~h "d"
<BEGINHMM>
<NUMSTATES> 5
<STATE> 2
<MEAN> 39
 -4.799886e-01 3.077912e-01 1.000171e+00 1.316825e+00 3.405280e-01 -1.516948e-01 -2.557397e-01 2.712967e-01 5.607038e-01 -2.822440e-01 -1.760068e-01 1.815196e-01 -1.659501e+00 4.787097e-02 -9.759361e-02 -9.213511e-02 -9.454767e-02 2.908580e-02 -2.587058e-02 -5.167068e-02 3.357401e-02 2.205507e-02 1.826640e-02 -4.934795e-03 -2.283278e-02 2.168237e-01 1.519615e-02 -1.273790e-02 -5.044751e-03 -1.976966e-02 -1.125509e-02 -6.108692e-03 -1.296460e-02 1.113858e-03 -3.675818e-03 -1.307967e-03 -1.883202e-03 -3.338917e-03 4.130113e-02
<VARIANCE> 39
 8.337092e+01 6.391053e+01 6.778268e+01 7.177503e+01 7.093228e+01 6.403510e+01 6.608979e+01 5.674216e+01 5.072371e+01 3.998609e+01 3.846748e+01 3.052855e+01 1.557291e+02 3.903751e+00 4.338323e+00 3.184099e+00 4.652224e+00 4.523149e+00 4.604292e+00 4.729559e+00 4.373749e+00 3.731942e+00 3.221024e+00 3.063442e+00 2.523306e+00 8.427234e+00 5.871565e-01 7.254683e-01 4.846208e-01 7.765825e-01 7.953001e-01 8.108138e-01 8.353024e-01 7.757047e-01 6.762947e-01 5.966195e-01 5.638290e-01 4.771161e-01 1.358138e+00
<GCONST> 1.387660e+02
<STATE> 3
<MEAN> 39
 -2.812892e-01 9.514846e-03 7.566796e-01 1.000057e+00 3.520103e-01 -2.365682e-01 -4.371948e-01 3.515396e-01 5.975684e-01 -2.453503e-01 -2.005803e-01 1.096006e-01 -9.440433e-01 8.831668e-02 -1.192713e-01 -1.046068e-01 -1.288270e-01 3.076445e-03 -3.087458e-02 -7.953340e-02 3.107183e-02 1.067225e-02 1.358379e-02 -1.103443e-02 -3.274213e-02 2.903110e-01 1.521981e-02 -6.794402e-03 -4.351769e-03 -1.162821e-02 -9.872837e-03 -5.497509e-04 -1.039180e-02 -2.099821e-03 -5.088278e-03 -1.527419e-03 -2.062324e-03 -4.566845e-03 2.490778e-02
<VARIANCE> 39
 8.418049e+01 6.319537e+01 6.917428e+01 7.083599e+01 7.092277e+01 6.459661e+01 6.692430e+01 5.748880e+01 5.108164e+01 4.036344e+01 3.858747e+01 3.104391e+01 1.464705e+02 4.119060e+00 4.373813e+00 3.258818e+00 4.744170e+00 4.634775e+00 4.829480e+00 4.890253e+00 4.440979e+00 3.785786e+00 3.285768e+00 3.118157e+00 2.586879e+00 8.930208e+00 6.088423e-01 7.260658e-01 4.964935e-01 7.814085e-01 8.107437e-01 8.505781e-01 8.593557e-01 7.894202e-01 6.851305e-01 6.091909e-01 5.716140e-01 4.874849e-01 1.397882e+00
<GCONST> 1.394194e+02
<STATE> 4
<MEAN> 39
 9.779792e-02 -4.034076e-01 4.011303e-01 5.644710e-01 2.920546e-01 -3.073890e-01 -7.266102e-01 4.194160e-01 5.790970e-01 -2.208580e-01 -2.466896e-01 -3.377425e-02 4.883976e-02 1.078237e-01 -1.119468e-01 -1.172075e-01 -1.204034e-01 -7.727883e-03 -8.173633e-03 -8.314160e-02 1.678815e-02 -6.318851e-03 8.184155e-03 -1.464732e-02 -4.238676e-02 2.664590e-01 2.494557e-03 4.923094e-03 -2.591144e-03 5.217972e-03 -1.644220e-03 7.877659e-03 4.829180e-04 -5.161293e-03 -5.126160e-03 -6.239106e-04 -3.774370e-04 -2.588569e-03 -1.366420e-02
<VARIANCE> 39
 8.482706e+01 6.200038e+01 7.107364e+01 7.001335e+01 7.062082e+01 6.617565e+01 6.799409e+01 5.866283e+01 5.169202e+01 4.105336e+01 3.907340e+01 3.189204e+01 1.337311e+02 4.279443e+00 4.333424e+00 3.305207e+00 4.711077e+00 4.671090e+00 5.041960e+00 5.008427e+00 4.507350e+00 3.831200e+00 3.359445e+00 3.176127e+00 2.650775e+00 8.772552e+00 6.161787e-01 7.154961e-01 5.015713e-01 7.653128e-01 8.114379e-01 8.856589e-01 8.735488e-01 8.000281e-01 6.904053e-01 6.225175e-01 5.787728e-01 4.961436e-01 1.346800e+00
<GCONST> 1.397211e+02
<TRANSP> 5
 0.000000e+00 1.000000e+00 0.000000e+00 0.000000e+00 0.000000e+00
 0.000000e+00 5.848395e-01 4.151605e-01 0.000000e+00 0.000000e+00
 0.000000e+00 0.000000e+00 5.848414e-01 4.151585e-01 0.000000e+00
 0.000000e+00 0.000000e+00 0.000000e+00 6.854624e-01 3.145376e-01
 0.000000e+00 0.000000e+00 0.000000e+00 0.000000e+00 0.000000e+00
<ENDHMM>
~h "f"
<BEGINHMM>
<NUMSTATES> 5
<STATE> 2
<MEAN> 39
 -7.035450e-01 -9.010637e-01 -1.190952e+00 -3.714049e-01 2.121413e-01 3.564124e-01 2.342324e-01 -3.139836e-02 4.929940e-01 1.643622e-01 6.478918e-02 6.013495e-02 1.374137e+00 -8.815362e-04 9.666909e-03 -1.505388e-02 8.117654e-03 1.520275e-02 3.682675e-03 -4.711596e-03 -5.229636e-04 -3.564491e-03 -6.408844e-03 1.128180e-02 8.674654e-03 -1.617453e-02 3.704450e-03 1.648074e-03 2.580574e-03 1.650038e-03 -1.154030e-03 -3.271356e-03 -4.108621e-03 1.526761e-03 -6.507091e-04 -1.685714e-03 -9.172806e-04 -2.533729e-04 -4.273007e-03
<VARIANCE> 39
 1.149876e+02 4.727595e+01 6.424614e+01 6.554704e+01 6.210682e+01 6.006667e+01 6.117864e+01 5.007490e+01 4.902977e+01 3.678265e+01 3.500329e+01 2.923996e+01 7.532362e+01 6.657212e+00 3.098737e+00 3.194126e+00 4.054123e+00 3.923559e+00 3.841891e+00 4.242702e+00 3.848707e+00 3.608095e+00 2.960308e+00 2.785842e+00 2.332004e+00 4.041591e+00 9.185787e-01 5.162035e-01 4.900622e-01 6.530335e-01 6.400889e-01 6.456934e-01 7.266159e-01 6.814374e-01 6.311312e-01 5.449108e-01 5.034882e-01 4.253260e-01 6.348775e-01
<GCONST> 1.338206e+02
<STATE> 3
<MEAN> 39
 -6.823820e-01 -8.741949e-01 -1.216045e+00 -3.495907e-01 2.384223e-01 3.475112e-01 2.028683e-01 -2.792860e-02 4.842409e-01 1.417506e-01 8.956704e-02 7.810145e-02 1.329675e+00 1.191279e-02 1.539763e-02 -6.554758e-03 1.133096e-02 1.013882e-02 -5.279701e-03 -1.573333e-02 2.862492e-03 -4.781511e-03 -9.389084e-03 9.211135e-03 8.063234e-03 -2.529884e-02 5.107850e-03 2.705824e-03 4.163387e-03 8.022395e-04 -2.775436e-03 -3.995317e-03 -4.546488e-03 1.088946e-03 -6.887764e-04 -1.210598e-03 -1.116149e-03 -3.882839e-04 -2.945861e-03
<VARIANCE> 39
 1.154629e+02 4.724197e+01 6.432411e+01 6.545256e+01 6.196966e+01 6.010312e+01 6.138829e+01 5.039566e+01 4.908944e+01 3.673249e+01 3.521992e+01 2.925422e+01 7.453712e+01 6.627241e+00 3.101470e+00 3.198922e+00 4.052381e+00 3.921506e+00 3.843083e+00 4.252618e+00 3.849726e+00 3.610256e+00 2.956123e+00 2.790645e+00 2.327040e+00 4.104763e+00 9.138222e-01 5.161774e-01 4.907584e-01 6.521016e-01 6.406118e-01 6.454458e-01 7.289805e-01 6.814317e-01 6.316468e-01 5.440433e-01 5.038540e-01 4.245985e-01 6.457445e-01
<GCONST> 1.338558e+02
<STATE> 4
<MEAN> 39
 -5.608140e-01 -8.239793e-01 -1.203023e+00 -3.330658e-01 2.288224e-01 3.011788e-01 1.113154e-01 -1.133072e-02 4.649853e-01 9.604695e-02 1.115032e-01 8.872037e-02 1.288016e+00 3.058616e-02 2.551530e-02 9.311208e-03 1.315690e-02 1.650863e-03 -1.563415e-02 -2.584146e-02 4.370504e-03 -7.568429e-03 -1.094657e-02 6.429970e-03 6.843314e-03 -3.636678e-02 5.412416e-03 3.463835e-03 5.747698e-03 -2.018405e-04 -3.158488e-03 -3.588719e-03 -3.260821e-03 1.020842e-04 -1.239057e-03 -4.764198e-04 -1.252180e-03 -4.610195e-04 -2.754865e-03
<VARIANCE> 39
 1.154004e+02 4.749977e+01 6.481535e+01 6.555701e+01 6.220007e+01 6.049183e+01 6.183294e+01 5.108100e+01 4.933237e+01 3.682178e+01 3.563357e+01 2.936696e+01 7.544817e+01 6.500014e+00 3.095306e+00 3.190544e+00 4.043411e+00 3.914434e+00 3.846587e+00 4.247386e+00 3.861540e+00 3.606431e+00 2.954158e+00 2.796531e+00 2.320357e+00 4.186881e+00 8.938827e-01 5.128702e-01 4.887666e-01 6.494140e-01 6.399905e-01 6.442589e-01 7.273348e-01 6.826820e-01 6.305568e-01 5.430883e-01 5.044896e-01 4.232183e-01 6.597763e-01
<GCONST> 1.339039e+02
<TRANSP> 5
 0.000000e+00 1.000000e+00 0.000000e+00 0.000000e+00 0.000000e+00
 0.000000e+00 5.862469e-01 4.137531e-01 0.000000e+00 0.000000e+00
 0.000000e+00 0.000000e+00 5.862451e-01 4.137550e-01 0.000000e+00
 0.000000e+00 0.000000e+00 0.000000e+00 6.871352e-01 3.128649e-01
 0.000000e+00 0.000000e+00 0.000000e+00 0.000000e+00 0.000000e+00
<ENDHMM>
~h "g"
<BEGINHMM>
<NUMSTATES> 5
<STATE> 2
<MEAN> 39
 6.656960e-01 3.968220e-01 7.215486e-01 6.706153e-01 -4.984024e-01 -1.667353e+00 -3.909829e-01 -4.372065e-01 -1.547614e+00 -2.900381e-02 1.703484e-01 -3.295732e-01 9.862475e-01 -3.882813e-02 2.134094e-02 -4.910266e-02 -7.435807e-02 1.611111e-02 5.271180e-02 3.318257e-02 8.600677e-04 2.701266e-02 7.166023e-03 2.484013e-03 -6.874227e-03 4.379676e-02 3.687028e-03 -2.322476e-03 -1.609799e-03 -2.558927e-03 -2.894083e-03 3.590482e-03 -8.677643e-05 2.244753e-03 1.729074e-03 -1.635816e-03 -1.997071e-03 -1.102131e-03 -4.108616e-04
<VARIANCE> 39
 8.655199e+01 6.268045e+01 7.754142e+01 7.448709e+01 7.853484e+01 7.001470e+01 7.293875e+01 6.596559e+01 6.347795e+01 4.738821e+01 4.070319e+01 3.147495e+01 8.648520e+01 4.398426e+00 4.770428e+00 4.973442e+00 4.938687e+00 5.900673e+00 4.908259e+00 5.099761e+00 5.129100e+00 4.835568e+00 4.060733e+00 3.501309e+00 2.732762e+00 5.864852e+00 6.020655e-01 8.242025e-01 7.819231e-01 7.833128e-01 9.662945e-01 8.284913e-01 8.531775e-01 8.927361e-01 8.354568e-01 7.402997e-01 6.396851e-01 5.034287e-01 9.396377e-01
<GCONST> 1.421713e+02
<STATE> 3
<MEAN> 39
 5.860080e-01 4.436984e-01 6.009059e-01 4.812107e-01 -4.691192e-01 -1.532256e+00 -3.140600e-01 -4.293075e-01 -1.480328e+00 -1.737695e-02 1.700956e-01 -3.484840e-01 1.095026e+00 -2.909454e-02 1.727618e-02 -5.146383e-02 -7.824855e-02 8.556277e-03 6.021363e-02 3.225123e-02 4.786324e-03 2.936920e-02 2.702232e-03 -1.118334e-03 -9.000159e-03 3.890891e-02 3.844494e-03 -8.330209e-04 -4.896672e-04 -9.393779e-04 -2.815484e-03 2.918710e-03 -4.633088e-04 8.243897e-04 1.664169e-04 -2.082055e-03 -1.267831e-03 -4.364907e-04 -3.848191e-03
<VARIANCE> 39
 8.888391e+01 6.245529e+01 7.765225e+01 7.487374e+01 7.798084e+01 7.027892e+01 7.259955e+01 6.517406e+01 6.292347e+01 4.686401e+01 4.067405e+01 3.156738e+01 8.466535e+01 4.483949e+00 4.676829e+00 4.968628e+00 4.895012e+00 5.869490e+00 4.892485e+00 5.071948e+00 5.073864e+00 4.774073e+00 3.988397e+00 3.471766e+00 2.726657e+00 5.759621e+00 6.069272e-01 7.989681e-01 7.798169e-01 7.737435e-01 9.619847e-01 8.238406e-01 8.465014e-01 8.849419e-01 8.257231e-01 7.266936e-01 6.324651e-01 5.010262e-01 9.094310e-01
<GCONST> 1.419032e+02
<STATE> 4
<MEAN> 39
 5.183143e-01 5.096352e-01 4.545973e-01 2.489378e-01 -4.624751e-01 -1.332758e+00 -2.148113e-01 -4.454575e-01 -1.408772e+00 -2.198956e-02 1.516403e-01 -3.865936e-01 1.196138e+00 -2.137781e-02 1.922282e-02 -5.030960e-02 -7.585934e-02 2.937170e-03 7.040176e-02 3.375494e-02 5.679009e-03 2.944233e-02 -2.925397e-03 -3.563574e-03 -9.359646e-03 1.708696e-02 2.018492e-03 1.215341e-03 6.090352e-04 1.628420e-03 -1.375909e-03 3.618713e-03 8.922964e-04 -3.173859e-04 -2.567803e-04 -2.076069e-03 -8.101787e-04 4.657544e-04 -9.396489e-03
<VARIANCE> 39
 9.137383e+01 6.200317e+01 7.754015e+01 7.527228e+01 7.712905e+01 7.046731e+01 7.180321e+01 6.400951e+01 6.231898e+01 4.612804e+01 4.068519e+01 3.172312e+01 8.309059e+01 4.535028e+00 4.517079e+00 4.920870e+00 4.815217e+00 5.788033e+00 4.843322e+00 4.998106e+00 4.984582e+00 4.681880e+00 3.885465e+00 3.420507e+00 2.705940e+00 5.568173e+00 6.061292e-01 7.610781e-01 7.694274e-01 7.575307e-01 9.489846e-01 8.133042e-01 8.330581e-01 8.720506e-01 8.104279e-01 7.074828e-01 6.202855e-01 4.949914e-01 8.649556e-01
<GCONST> 1.413743e+02
<TRANSP> 5
 0.000000e+00 1.000000e+00 0.000000e+00 0.000000e+00 0.000000e+00
 0.000000e+00 5.838485e-01 4.161515e-01 0.000000e+00 0.000000e+00
 0.000000e+00 0.000000e+00 5.838468e-01 4.161532e-01 0.000000e+00
 0.000000e+00 0.000000e+00 0.000000e+00 6.839589e-01 3.160411e-01
 0.000000e+00 0.000000e+00 0.000000e+00 0.000000e+00 0.000000e+00
<ENDHMM>
~h "k"
<BEGINHMM>
<NUMSTATES> 5
<STATE> 2
<MEAN> 39
 -8.656701e-01 -8.007271e-01 -2.108283e-01 3.945336e-01 4.886001e-01 -8.707840e-01 2.433946e-01 9.207420e-01 -1.655483e-01 4.168353e-01 2.265381e-01 1.552320e-01 7.662166e-01 8.402334e-02 -1.382713e-02 1.418687e-02 -3.986350e-02 -5.257871e-02 -1.068886e-02 -2.614410e-02 -2.948431e-02 -2.515117e-02 -1.796217e-02 -1.215755e-02 -1.277571e-02 5.649101e-02 8.595328e-03 2.447506e-04 1.250732e-03 -3.192229e-03 -5.153999e-03 5.808126e-04 -3.736976e-03 -3.411493e-03 -1.079795e-03 -2.122191e-03 -2.167248e-03 -2.054458e-03 3.747291e-03
<VARIANCE> 39
 1.018835e+02 5.550395e+01 6.726754e+01 6.937175e+01 7.484804e+01 6.800574e+01 6.861209e+01 6.083052e+01 5.674823e+01 4.189370e+01 3.867900e+01 3.133464e+01 1.069403e+02 5.151648e+00 4.110634e+00 3.700347e+00 4.509020e+00 4.776382e+00 4.735862e+00 4.618289e+00 4.504973e+00 4.316039e+00 3.461643e+00 3.157789e+00 2.490237e+00 8.127841e+00 7.214409e-01 7.440080e-01 6.012662e-01 7.544209e-01 7.942593e-01 8.313715e-01 7.978072e-01 8.002157e-01 7.708846e-01 6.382317e-01 5.791344e-01 4.578787e-01 1.448399e+00
<GCONST> 1.401237e+02
<STATE> 3
<MEAN> 39
 -6.364041e-01 -8.323237e-01 -1.715306e-01 2.854292e-01 3.433079e-01 -8.979269e-01 1.681697e-01 8.387623e-01 -2.303834e-01 3.644302e-01 1.906125e-01 1.161526e-01 9.242642e-01 9.898238e-02 -1.073732e-02 1.704614e-02 -4.387643e-02 -6.102898e-02 -7.166418e-03 -3.324261e-02 -3.693297e-02 -2.588726e-02 -2.323969e-02 -1.651939e-02 -1.722876e-02 5.926894e-02 4.702937e-03 1.946899e-03 1.052161e-03 -8.826672e-04 -2.708574e-03 1.817712e-03 -2.378641e-03 -3.035767e-03 1.527495e-04 -1.851174e-03 -1.708189e-03 -1.451058e-03 -1.194862e-04
<VARIANCE> 39
 1.008358e+02 5.497021e+01 6.724044e+01 6.910403e+01 7.464064e+01 6.811521e+01 6.878337e+01 6.118981e+01 5.665319e+01 4.224457e+01 3.884143e+01 3.159590e+01 1.028068e+02 5.079542e+00 4.019072e+00 3.652499e+00 4.469637e+00 4.709088e+00 4.667915e+00 4.581414e+00 4.495471e+00 4.279766e+00 3.447691e+00 3.144743e+00 2.489184e+00 7.793399e+00 7.096825e-01 7.228858e-01 5.901014e-01 7.457514e-01 7.801982e-01 8.146800e-01 7.890313e-01 7.970791e-01 7.632197e-01 6.343646e-01 5.753382e-01 4.569657e-01 1.376075e+00
<GCONST> 1.397256e+02
<STATE> 4
<MEAN> 39
 -3.095566e-01 -8.499416e-01 -1.082025e-01 1.477924e-01 1.390929e-01 -9.212824e-01 5.117495e-02 7.137306e-01 -3.097567e-01 2.828756e-01 1.348834e-01 5.373372e-02 1.122050e+00 1.012100e-01 1.040374e-03 2.052834e-02 -4.023533e-02 -6.375204e-02 1.703555e-03 -3.532898e-02 -4.409398e-02 -2.342259e-02 -2.774508e-02 -1.777144e-02 -1.947062e-02 4.183687e-02 -6.541352e-04 4.441391e-03 1.242009e-03 2.044159e-03 -2.675478e-04 3.242315e-03 -1.287129e-04 -2.523064e-03 1.073746e-03 -9.539407e-04 -2.584724e-04 -3.472160e-04 -7.281829e-03
<VARIANCE> 39
 9.932421e+01 5.457040e+01 6.754994e+01 6.893539e+01 7.435757e+01 6.827624e+01 6.894101e+01 6.160242e+01 5.649148e+01 4.268024e+01 3.915911e+01 3.198911e+01 9.876685e+01 4.954080e+00 3.885017e+00 3.572273e+00 4.404409e+00 4.616929e+00 4.575128e+00 4.523349e+00 4.469566e+00 4.224863e+00 3.420268e+00 3.127982e+00 2.487355e+00 7.300090e+00 6.898795e-01 6.919273e-01 5.720888e-01 7.312819e-01 7.618383e-01 7.925981e-01 7.757384e-01 7.903494e-01 7.515064e-01 6.272064e-01 5.704892e-01 4.554000e-01 1.272668e+00
<GCONST> 1.391379e+02
<TRANSP> 5
 0.000000e+00 1.000000e+00 0.000000e+00 0.000000e+00 0.000000e+00
 0.000000e+00 5.781128e-01 4.218871e-01 0.000000e+00 0.000000e+00
 0.000000e+00 0.000000e+00 5.781169e-01 4.218831e-01 0.000000e+00
 0.000000e+00 0.000000e+00 0.000000e+00 6.776260e-01 3.223740e-01
 0.000000e+00 0.000000e+00 0.000000e+00 0.000000e+00 0.000000e+00
<ENDHMM>
~h "l"
<BEGINHMM>
<NUMSTATES> 5
<STATE> 2
<MEAN> 39
 2.235307e+00 -1.216076e-02 -7.088808e-01 -2.913056e+00 -3.889939e-01 7.947727e-01 -9.515321e-01 -1.067403e+00 1.480821e-01 2.377369e-01 2.465978e-01 -2.753330e-01 2.165840e+00 -3.542990e-02 -7.325265e-03 3.607361e-02 8.081590e-02 -1.124084e-02 -7.031854e-02 2.696521e-03 4.937226e-02 -5.696812e-03 -1.729926e-02 -9.564277e-03 1.529483e-02 -2.769334e-02 -5.116839e-03 -2.564769e-03 -6.014275e-03 1.256227e-02 4.384928e-03 -3.337217e-03 5.268461e-03 6.337622e-03 2.820559e-03 -1.592790e-03 -1.198039e-03 1.634810e-03 -1.142903e-02
<VARIANCE> 39
 7.652057e+01 5.043825e+01 7.637295e+01 9.102030e+01 6.699689e+01 7.271562e+01 6.742074e+01 6.054529e+01 5.531321e+01 4.255476e+01 3.950134e+01 3.378678e+01 8.038065e+01 3.648848e+00 3.205706e+00 3.491763e+00 4.812292e+00 4.204937e+00 4.461048e+00 4.177706e+00 4.554790e+00 4.211537e+00 3.403211e+00 3.134069e+00 2.663845e+00 4.392773e+00 5.111626e-01 5.080036e-01 5.067703e-01 7.125122e-01 6.881560e-01 7.263893e-01 7.152542e-01 7.865621e-01 7.495732e-01 6.255696e-01 5.736368e-01 4.865797e-01 6.693946e-01
<GCONST> 1.362875e+02
<STATE> 3
<MEAN> 39
 2.118725e+00 -3.196473e-02 -6.163208e-01 -2.668463e+00 -4.109176e-01 6.101331e-01 -9.307308e-01 -9.326131e-01 1.370646e-01 1.950735e-01 2.230881e-01 -2.345103e-01 2.058007e+00 -4.860302e-02 -1.403856e-02 2.050761e-02 1.100610e-01 7.836278e-05 -7.764100e-02 1.577126e-02 6.443930e-02 2.701896e-03 -2.010761e-02 -1.204687e-02 1.911158e-02 -5.431509e-02 -4.764752e-03 -2.089132e-03 -7.270367e-03 1.061770e-02 5.568363e-03 -1.928533e-03 4.858722e-03 5.037409e-03 3.977790e-03 -1.046291e-03 -1.492147e-03 1.255853e-03 -1.113647e-02
<VARIANCE> 39
 7.690939e+01 5.045319e+01 7.605832e+01 8.983051e+01 6.761398e+01 7.246114e+01 6.725437e+01 6.078911e+01 5.541084e+01 4.235333e+01 3.941982e+01 3.382155e+01 8.138940e+01 3.658886e+00 3.203502e+00 3.474143e+00 4.747241e+00 4.189238e+00 4.414263e+00 4.150133e+00 4.531584e+00 4.193308e+00 3.367264e+00 3.115796e+00 2.652023e+00 4.397003e+00 5.116729e-01 5.078748e-01 5.042069e-01 7.085035e-01 6.835859e-01 7.201718e-01 7.088251e-01 7.809783e-01 7.440451e-01 6.186944e-01 5.690205e-01 4.834209e-01 6.717511e-01
<GCONST> 1.361534e+02
<STATE> 4
<MEAN> 39
 1.934399e+00 -6.235679e-02 -5.249923e-01 -2.293193e+00 -4.169719e-01 3.712331e-01 -8.688598e-01 -7.435720e-01 1.395366e-01 1.319194e-01 1.793366e-01 -1.818074e-01 1.860340e+00 -6.410837e-02 -1.901542e-02 3.672787e-03 1.368113e-01 1.456735e-02 -8.134311e-02 2.985318e-02 7.707199e-02 1.331221e-02 -2.048600e-02 -1.463754e-02 2.219796e-02 -8.222671e-02 -3.635886e-03 -1.043929e-03 -7.678612e-03 7.227255e-03 6.407852e-03 1.527717e-04 4.200919e-03 3.271960e-03 4.444210e-03 -4.029605e-04 -1.877866e-03 5.913065e-04 -9.257351e-03
<VARIANCE> 39
 7.791451e+01 5.059709e+01 7.523857e+01 8.822591e+01 6.829428e+01 7.205750e+01 6.707582e+01 6.088181e+01 5.542897e+01 4.218806e+01 3.927880e+01 3.377054e+01 8.421341e+01 3.645432e+00 3.186940e+00 3.431318e+00 4.625695e+00 4.153587e+00 4.333772e+00 4.096354e+00 4.469399e+00 4.143318e+00 3.313900e+00 3.076134e+00 2.620190e+00 4.399539e+00 5.089056e-01 5.048658e-01 4.976873e-01 6.976951e-01 6.747939e-01 7.080855e-01 6.973468e-01 7.689150e-01 7.317963e-01 6.081502e-01 5.597103e-01 4.767663e-01 6.735753e-01
<GCONST> 1.358528e+02
<TRANSP> 5
 0.000000e+00 1.000000e+00 0.000000e+00 0.000000e+00 0.000000e+00
 0.000000e+00 5.863902e-01 4.136098e-01 0.000000e+00 0.000000e+00
 0.000000e+00 0.000000e+00 5.863902e-01 4.136098e-01 0.000000e+00
 0.000000e+00 0.000000e+00 0.000000e+00 6.876346e-01 3.123654e-01
 0.000000e+00 0.000000e+00 0.000000e+00 0.000000e+00 0.000000e+00
<ENDHMM>
~h "m"
<BEGINHMM>
<NUMSTATES> 5
<STATE> 2
<MEAN> 39
 8.709084e-01 4.722923e-01 4.705107e-01 2.153056e-01 -1.011478e-01 6.847548e-02 -3.811699e-01 -1.263137e+00 -1.538308e+00 -4.028420e-01 -1.322913e-01 -8.979693e-01 8.449306e-01 5.213527e-02 1.049186e-02 7.410820e-02 -1.838965e-03 -4.228239e-02 -1.903925e-02 -2.335224e-02 -4.445881e-02 -6.023729e-02 -3.375407e-04 5.713202e-03 -1.718214e-02 -8.843887e-03 -2.087414e-03 -6.407506e-03 -1.543182e-03 -5.279460e-03 -4.605334e-03 1.137070e-03 1.950112e-03 7.984594e-03 8.452990e-03 -9.944082e-04 -7.232366e-04 4.150303e-03 2.612844e-03
<VARIANCE> 39
 8.905412e+01 5.266589e+01 6.521604e+01 6.856931e+01 7.418881e+01 5.912509e+01 5.995369e+01 6.318071e+01 6.449948e+01 4.200557e+01 4.136940e+01 3.463761e+01 8.585773e+01 4.408480e+00 3.498626e+00 3.346516e+00 4.518319e+00 4.462593e+00 4.005835e+00 4.195483e+00 5.039139e+00 4.960798e+00 3.386618e+00 3.251787e+00 2.710168e+00 4.910192e+00 6.030265e-01 5.755886e-01 5.339341e-01 7.397031e-01 7.222638e-01 6.952642e-01 7.460599e-01 8.791284e-01 8.685716e-01 6.255006e-01 5.898864e-01 4.890354e-01 7.850376e-01
<GCONST> 1.375690e+02
<STATE> 3
<MEAN> 39
 9.835927e-01 4.748752e-01 6.365215e-01 1.807974e-01 -2.164713e-01 3.006483e-02 -4.284759e-01 -1.334808e+00 -1.647864e+00 -4.019934e-01 -1.197186e-01 -9.211516e-01 8.440910e-01 3.800327e-02 -5.650938e-03 6.521375e-02 -1.774840e-02 -4.962426e-02 -1.266108e-02 -1.665920e-02 -1.987055e-02 -3.443174e-02 -1.499318e-03 6.065755e-03 -4.086353e-03 -2.010834e-03 -7.017225e-03 -7.498014e-03 -5.649347e-03 -7.917426e-03 -3.207641e-03 3.182210e-03 2.988435e-03 1.139752e-02 1.184119e-02 -2.829751e-04 9.577849e-04 5.804055e-03 2.936330e-03
<VARIANCE> 39
 8.666463e+01 5.248587e+01 6.663210e+01 6.950578e+01 7.482314e+01 5.942783e+01 5.985991e+01 6.342985e+01 6.483135e+01 4.197138e+01 4.138899e+01 3.453358e+01 8.458841e+01 4.362365e+00 3.497463e+00 3.371606e+00 4.576563e+00 4.510199e+00 4.024119e+00 4.195814e+00 5.057617e+00 4.985920e+00 3.384347e+00 3.255405e+00 2.697783e+00 5.013337e+00 5.953978e-01 5.780776e-01 5.369353e-01 7.489389e-01 7.308689e-01 6.981895e-01 7.447127e-01 8.843083e-01 8.745381e-01 6.261114e-01 5.914370e-01 4.869911e-01 8.000485e-01
<GCONST> 1.376812e+02
<STATE> 4
<MEAN> 39
 1.038159e+00 4.293487e-01 8.072926e-01 7.570099e-02 -3.797368e-01 2.468568e-03 -4.686851e-01 -1.327992e+00 -1.684654e+00 -3.905358e-01 -9.099533e-02 -8.965105e-01 8.816119e-01 3.219422e-03 -2.161888e-02 4.390086e-02 -3.381629e-02 -4.672934e-02 -6.834185e-04 -4.313620e-03 1.512885e-02 4.389432e-03 1.392943e-03 9.658685e-03 1.518443e-02 -4.098333e-03 -1.233343e-02 -4.909784e-03 -8.004450e-03 -5.434975e-03 7.735890e-04 3.744009e-03 4.377883e-03 1.201109e-02 1.335507e-02 1.453578e-03 1.741731e-03 6.540916e-03 -1.431661e-03
<VARIANCE> 39
 8.455812e+01 5.222052e+01 6.849641e+01 7.009164e+01 7.563253e+01 5.998066e+01 5.975464e+01 6.337462e+01 6.484849e+01 4.193448e+01 4.127142e+01 3.423590e+01 8.492349e+01 4.266303e+00 3.470915e+00 3.372935e+00 4.600467e+00 4.544995e+00 4.030168e+00 4.172735e+00 5.012667e+00 4.934700e+00 3.357608e+00 3.232913e+00 2.656288e+00 5.104882e+00 5.825128e-01 5.757415e-01 5.353516e-01 7.530119e-01 7.380191e-01 6.983101e-01 7.385923e-01 8.785884e-01 8.675371e-01 6.214613e-01 5.886473e-01 4.803706e-01 8.181154e-01
<GCONST> 1.376048e+02
<TRANSP> 5
 0.000000e+00 1.000000e+00 0.000000e+00 0.000000e+00 0.000000e+00
 0.000000e+00 5.791999e-01 4.208001e-01 0.000000e+00 0.000000e+00
 0.000000e+00 0.000000e+00 5.791982e-01 4.208018e-01 0.000000e+00
 0.000000e+00 0.000000e+00 0.000000e+00 6.792793e-01 3.207206e-01
 0.000000e+00 0.000000e+00 0.000000e+00 0.000000e+00 0.000000e+00
<ENDHMM>
~h "n"
<BEGINHMM>
<NUMSTATES> 5
<STATE> 2
<MEAN> 39
 1.385842e+00 -2.827498e-02 6.832989e-01 -4.467987e-01 -1.105804e+00 -7.487082e-02 -2.963353e-01 -7.531524e-01 -1.050325e+00 -4.437221e-01 -8.026019e-01 -5.804303e-01 1.426776e+00 -1.552049e-02 1.516763e-02 -3.519207e-03 1.817394e-02 2.394748e-02 -1.028051e-02 5.854186e-03 -1.525486e-02 -1.213650e-03 -2.138710e-03 -8.030261e-03 5.180625e-03 -1.359175e-02 -8.915958e-03 -5.777060e-04 -1.738846e-04 3.721032e-03 4.204130e-03 -1.339036e-03 1.950715e-03 5.365908e-03 5.083151e-03 1.106431e-03 3.963378e-03 4.137104e-03 -7.486717e-03
<VARIANCE> 39
 7.919296e+01 5.221890e+01 6.229725e+01 6.501831e+01 6.784592e+01 6.092657e+01 6.203410e+01 6.523193e+01 5.753764e+01 4.339178e+01 4.152202e+01 3.276838e+01 7.929395e+01 4.121862e+00 3.536134e+00 3.213046e+00 4.056348e+00 4.214211e+00 4.125503e+00 4.369825e+00 5.515377e+00 4.438315e+00 3.503061e+00 3.223606e+00 2.620353e+00 4.563975e+00 5.778182e-01 5.863192e-01 4.990996e-01 6.661789e-01 6.937239e-01 7.027512e-01 7.657788e-01 9.901792e-01 7.876454e-01 6.477461e-01 5.826268e-01 4.809095e-01 7.266270e-01
<GCONST> 1.365926e+02
<STATE> 3
<MEAN> 39
 1.321461e+00 5.197130e-03 6.714916e-01 -3.952202e-01 -1.036779e+00 -1.064804e-01 -2.752261e-01 -7.662445e-01 -1.034125e+00 -4.433399e-01 -8.081291e-01 -5.538577e-01 1.379170e+00 -3.532911e-02 1.076137e-02 -6.041351e-03 2.291424e-02 3.246110e-02 -1.208235e-02 8.559270e-03 1.468797e-03 1.334126e-02 1.105656e-03 2.967558e-03 1.452617e-02 -2.639138e-02 -7.183778e-03 -2.492973e-03 -1.802887e-03 1.010140e-03 2.819116e-03 -5.140824e-04 4.933719e-04 6.990809e-03 6.195584e-03 1.661560e-03 5.060690e-03 3.814376e-03 -4.866721e-03
<VARIANCE> 39
 7.993821e+01 5.259842e+01 6.255782e+01 6.502002e+01 6.793842e+01 6.071894e+01 6.242114e+01 6.533235e+01 5.757383e+01 4.340800e+01 4.145291e+01 3.280423e+01 7.919036e+01 4.125930e+00 3.545436e+00 3.230448e+00 4.039741e+00 4.213926e+00 4.112295e+00 4.369905e+00 5.512438e+00 4.434296e+00 3.494987e+00 3.218753e+00 2.616597e+00 4.543304e+00 5.779584e-01 5.870424e-01 5.010173e-01 6.641074e-01 6.927781e-01 7.003821e-01 7.647994e-01 9.889842e-01 7.875451e-01 6.456908e-01 5.820022e-01 4.804060e-01 7.237551e-01
<GCONST> 1.365943e+02
<STATE> 4
<MEAN> 39
 1.221192e+00 9.685113e-03 6.366593e-01 -3.407038e-01 -9.476556e-01 -1.489652e-01 -2.674378e-01 -7.251469e-01 -9.697431e-01 -4.381599e-01 -7.695642e-01 -4.986181e-01 1.331294e+00 -5.248515e-02 3.305451e-03 -1.445969e-02 2.205213e-02 3.974488e-02 -1.007463e-02 9.466594e-03 2.243022e-02 3.019697e-02 5.940140e-03 1.797908e-02 2.336199e-02 -3.689465e-02 -4.598321e-03 -2.636275e-03 -3.341369e-03 -7.534805e-04 1.777041e-03 6.651397e-04 1.632711e-05 6.272370e-03 5.251718e-03 1.819593e-03 5.170300e-03 2.719779e-03 -3.744816e-03
<VARIANCE> 39
 8.134088e+01 5.312296e+01 6.311439e+01 6.521997e+01 6.823931e+01 6.064674e+01 6.307622e+01 6.503461e+01 5.747218e+01 4.339340e+01 4.130677e+01 3.283312e+01 8.077085e+01 4.112967e+00 3.532841e+00 3.244693e+00 4.006249e+00 4.205439e+00 4.083917e+00 4.352661e+00 5.423757e+00 4.388566e+00 3.464806e+00 3.193629e+00 2.600405e+00 4.517355e+00 5.749890e-01 5.818091e-01 5.008189e-01 6.576719e-01 6.894230e-01 6.956562e-01 7.592013e-01 9.708008e-01 7.789634e-01 6.391092e-01 5.774822e-01 4.771911e-01 7.194509e-01
<GCONST> 1.364756e+02
<TRANSP> 5
 0.000000e+00 1.000000e+00 0.000000e+00 0.000000e+00 0.000000e+00
 0.000000e+00 5.800961e-01 4.199040e-01 0.000000e+00 0.000000e+00
 0.000000e+00 0.000000e+00 5.800846e-01 4.199153e-01 0.000000e+00
 0.000000e+00 0.000000e+00 0.000000e+00 6.799157e-01 3.200844e-01
 0.000000e+00 0.000000e+00 0.000000e+00 0.000000e+00 0.000000e+00
<ENDHMM>
~h "p"
<BEGINHMM>
<NUMSTATES> 5
<STATE> 2
<MEAN> 39
 2.987453e-02 -2.883421e-01 -8.548064e-01 2.888910e-01 8.784800e-01 4.937795e-01 2.494567e-01 7.122044e-02 5.287684e-01 2.609717e-01 1.916150e-01 4.659121e-02 -2.610890e-01 5.531463e-02 -5.083414e-02 -2.205755e-02 -4.717981e-02 -4.208780e-02 -4.812441e-02 -2.576950e-02 1.482158e-02 2.943294e-03 -2.289190e-02 -9.758897e-03 3.513148e-03 1.045194e-01 5.163625e-03 -8.409618e-04 3.628148e-03 -3.398067e-03 -6.881075e-03 -4.900957e-03 -5.494697e-03 3.340295e-04 -3.447914e-03 -2.951968e-03 -8.693439e-04 -2.741163e-04 1.268340e-02
<VARIANCE> 39
 9.536085e+01 5.490728e+01 6.396360e+01 7.396179e+01 6.838403e+01 6.293575e+01 6.480702e+01 5.341930e+01 5.135441e+01 3.834996e+01 3.671700e+01 3.051863e+01 1.289632e+02 5.714291e+00 3.794729e+00 3.420598e+00 4.749136e+00 4.446047e+00 4.304769e+00 4.723553e+00 4.313501e+00 4.139493e+00 3.290167e+00 3.081203e+00 2.476400e+00 9.206461e+00 8.313362e-01 6.303025e-01 5.351326e-01 7.595858e-01 7.243038e-01 7.350485e-01 8.004397e-01 7.738014e-01 7.425728e-01 6.135994e-01 5.673737e-01 4.573854e-01 1.464891e+00
<GCONST> 1.389707e+02
<STATE> 3
<MEAN> 39
 1.767274e-01 -4.048701e-01 -8.939711e-01 1.610284e-01 7.563211e-01 3.637978e-01 1.713775e-01 1.011870e-01 5.223175e-01 1.964722e-01 1.646851e-01 5.121125e-02 3.852027e-02 6.468669e-02 -4.854194e-02 -1.214950e-02 -5.342172e-02 -5.551544e-02 -5.601074e-02 -3.733334e-02 1.497545e-02 -6.954224e-03 -2.988425e-02 -1.087579e-02 1.570356e-03 1.260289e-01 2.863387e-03 2.150803e-03 4.596511e-03 -1.977860e-03 -5.253785e-03 -2.478102e-03 -4.480013e-03 -3.176121e-04 -4.745474e-03 -2.796016e-03 -2.253717e-04 -8.114016e-04 7.026600e-03
<VARIANCE> 39
 9.560653e+01 5.483566e+01 6.475233e+01 7.401627e+01 6.897071e+01 6.347001e+01 6.570789e+01 5.416550e+01 5.170032e+01 3.860535e+01 3.701944e+01 3.065499e+01 1.241039e+02 5.696453e+00 3.754165e+00 3.415176e+00 4.726714e+00 4.456354e+00 4.307675e+00 4.740981e+00 4.323654e+00 4.142072e+00 3.297018e+00 3.082311e+00 2.474120e+00 8.910488e+00 8.224223e-01 6.200172e-01 5.308917e-01 7.531595e-01 7.236872e-01 7.338589e-01 8.003007e-01 7.731150e-01 7.409990e-01 6.141433e-01 5.665168e-01 4.564378e-01 1.412677e+00
<GCONST> 1.388872e+02
<STATE> 4
<MEAN> 39
 3.672476e-01 -5.167784e-01 -8.945989e-01 -1.113477e-02 5.606063e-01 1.866904e-01 4.725797e-02 1.293303e-01 4.699587e-01 9.857982e-02 1.209109e-01 4.464697e-02 4.483849e-01 6.103300e-02 -3.387916e-02 2.668349e-03 -5.196442e-02 -6.397608e-02 -5.726793e-02 -4.433509e-02 1.170329e-02 -2.013218e-02 -3.511721e-02 -9.881577e-03 -6.252987e-04 1.208384e-01 -2.285334e-03 5.683132e-03 5.522232e-03 1.596155e-03 -2.535684e-03 3.300495e-04 -1.826950e-03 -1.321080e-03 -4.784729e-03 -1.654617e-03 3.805187e-04 -7.802988e-04 -4.090865e-03
<VARIANCE> 39
 9.623692e+01 5.501369e+01 6.587975e+01 7.411868e+01 6.985860e+01 6.421597e+01 6.684478e+01 5.522141e+01 5.218208e+01 3.901242e+01 3.748670e+01 3.090574e+01 1.182851e+02 5.640907e+00 3.696149e+00 3.396441e+00 4.673039e+00 4.458836e+00 4.298429e+00 4.746416e+00 4.325862e+00 4.127841e+00 3.303586e+00 3.078318e+00 2.469836e+00 8.347442e+00 8.049533e-01 6.062859e-01 5.239828e-01 7.412782e-01 7.208604e-01 7.295859e-01 7.967793e-01 7.692448e-01 7.353880e-01 6.141632e-01 5.641106e-01 4.547655e-01 1.318365e+00
<GCONST> 1.386804e+02
<TRANSP> 5
 0.000000e+00 1.000000e+00 0.000000e+00 0.000000e+00 0.000000e+00
 0.000000e+00 5.700963e-01 4.299037e-01 0.000000e+00 0.000000e+00
 0.000000e+00 0.000000e+00 5.700965e-01 4.299035e-01 0.000000e+00
 0.000000e+00 0.000000e+00 0.000000e+00 6.682470e-01 3.317530e-01
 0.000000e+00 0.000000e+00 0.000000e+00 0.000000e+00 0.000000e+00
<ENDHMM>
~h "q"
<BEGINHMM>
<NUMSTATES> 5
<STATE> 2
<MEAN> 39
 1.559363e+00 -5.442019e-01 -4.119053e-01 -1.546591e+00 -9.474629e-01 7.460527e-01 -1.280422e-01 -2.596680e-01 1.223425e-02 3.084660e-01 -8.985034e-02 -2.686600e-01 -6.123015e-02 4.078508e-02 -6.283139e-03 1.001577e-01 -3.349246e-02 -6.076398e-02 -6.048341e-02 -2.083315e-02 -1.750429e-02 -5.361505e-02 -2.014730e-02 -1.844513e-02 -2.425514e-02 1.251627e-01 7.348045e-03 -7.147828e-03 3.386910e-03 -5.289495e-03 -8.546217e-03 -9.334140e-03 -5.417692e-03 -2.679422e-04 -5.563897e-03 -5.334219e-03 -4.161214e-04 -9.378926e-04 2.622721e-02
<VARIANCE> 39
 7.271396e+01 5.003903e+01 8.169859e+01 8.573952e+01 7.276595e+01 7.645565e+01 7.011369e+01 6.236911e+01 5.742617e+01 4.423083e+01 4.154317e+01 3.292126e+01 1.138269e+02 3.327375e+00 3.123198e+00 3.341326e+00 4.266698e+00 4.239324e+00 4.247901e+00 4.178474e+00 4.477163e+00 3.921330e+00 3.425530e+00 3.061418e+00 2.496869e+00 5.181862e+00 4.889624e-01 5.142858e-01 4.916824e-01 6.817651e-01 7.034486e-01 7.047587e-01 7.120046e-01 7.925536e-01 6.934775e-01 6.272749e-01 5.580797e-01 4.573284e-01 7.973765e-01
<GCONST> 1.364566e+02
<STATE> 3
<MEAN> 39
 1.691342e+00 -5.790815e-01 -1.568505e-01 -1.652015e+00 -1.128844e+00 5.690824e-01 -2.022555e-01 -3.101114e-01 -1.360635e-01 2.388529e-01 -1.348737e-01 -3.273177e-01 3.463120e-01 5.335103e-02 -1.554419e-02 1.072485e-01 -3.657088e-02 -7.427789e-02 -8.031484e-02 -3.512102e-02 -1.818893e-02 -6.471458e-02 -3.018716e-02 -1.656254e-02 -2.212792e-02 1.769471e-01 5.421353e-03 -3.977154e-03 1.119016e-03 -1.092220e-03 -4.626343e-03 -7.337654e-03 -5.334053e-03 6.711027e-05 -3.695499e-03 -3.631852e-03 1.075611e-03 1.032141e-03 2.096897e-02
<VARIANCE> 39
 7.130072e+01 5.070330e+01 8.328755e+01 8.409709e+01 7.339596e+01 7.584098e+01 6.986401e+01 6.274228e+01 5.783309e+01 4.459863e+01 4.158165e+01 3.296435e+01 1.062868e+02 3.424383e+00 3.198881e+00 3.433125e+00 4.385708e+00 4.362483e+00 4.293518e+00 4.223163e+00 4.526459e+00 3.970817e+00 3.457956e+00 3.087294e+00 2.527119e+00 5.484231e+00 4.988872e-01 5.256187e-01 5.017979e-01 6.969795e-01 7.186489e-01 7.124551e-01 7.193333e-01 8.000855e-01 7.008422e-01 6.317673e-01 5.614246e-01 4.617459e-01 8.274550e-01
<GCONST> 1.368759e+02
<STATE> 4
<MEAN> 39
 1.883787e+00 -6.237546e-01 1.216489e-01 -1.762161e+00 -1.337556e+00 3.181249e-01 -3.439413e-01 -3.787385e-01 -3.217966e-01 1.318251e-01 -1.722764e-01 -3.815898e-01 9.759816e-01 4.264280e-02 -5.817441e-03 1.036819e-01 -1.025102e-02 -6.115942e-02 -8.858435e-02 -4.412636e-02 -1.706941e-02 -6.555220e-02 -3.162117e-02 -9.287531e-03 -1.032833e-02 1.780997e-01 -3.437618e-03 2.396103e-03 -3.467078e-03 8.731523e-03 5.290024e-03 -2.399035e-03 -2.175123e-03 1.298474e-03 4.440625e-04 -4.233951e-04 2.395844e-03 3.734910e-03 -7.067677e-06
<VARIANCE> 39
 7.026119e+01 5.166753e+01 8.515556e+01 8.196852e+01 7.391698e+01 7.498703e+01 6.956831e+01 6.311018e+01 5.828332e+01 4.501590e+01 4.154748e+01 3.302126e+01 9.656554e+01 3.475640e+00 3.246037e+00 3.496958e+00 4.409766e+00 4.426368e+00 4.306954e+00 4.244476e+00 4.541245e+00 3.995176e+00 3.460137e+00 3.092999e+00 2.537896e+00 5.580645e+00 5.019370e-01 5.312402e-01 5.065772e-01 6.999383e-01 7.234520e-01 7.155120e-01 7.224188e-01 8.009915e-01 7.034023e-01 6.312584e-01 5.615575e-01 4.632735e-01 8.362465e-01
<GCONST> 1.369694e+02
<TRANSP> 5
 0.000000e+00 1.000000e+00 0.000000e+00 0.000000e+00 0.000000e+00
 0.000000e+00 5.923504e-01 4.076495e-01 0.000000e+00 0.000000e+00
 0.000000e+00 0.000000e+00 5.923479e-01 4.076522e-01 0.000000e+00
 0.000000e+00 0.000000e+00 0.000000e+00 6.942633e-01 3.057368e-01
 0.000000e+00 0.000000e+00 0.000000e+00 0.000000e+00 0.000000e+00
<ENDHMM>
~h "r"
<BEGINHMM>
<NUMSTATES> 5
<STATE> 2
<MEAN> 39
 2.367261e+00 -1.560750e+00 -1.313569e+00 2.730360e-01 -2.885999e-01 -1.370300e+00 -1.539178e+00 8.498101e-01 -1.994549e-01 -3.580157e-01 3.769336e-01 4.821642e-02 2.058091e+00 -6.564982e-03 3.247874e-02 1.007623e-02 -4.055909e-02 -1.501032e-02 8.653224e-03 1.310368e-02 -2.588350e-02 -1.973813e-02 -6.606386e-04 -1.500125e-02 -1.416468e-02 2.900192e-02 -9.261263e-03 9.010825e-03 8.654405e-03 -2.351650e-03 -3.137196e-04 5.874035e-03 4.516477e-03 -5.120305e-03 -1.217234e-03 1.084122e-03 -1.018551e-03 -1.624127e-04 -8.143958e-03
<VARIANCE> 39
 1.046565e+02 5.982573e+01 8.341862e+01 6.626968e+01 7.105320e+01 7.167722e+01 8.010896e+01 6.723927e+01 6.069947e+01 4.325116e+01 3.946494e+01 3.227102e+01 7.805383e+01 4.895543e+00 3.789137e+00 4.246441e+00 4.118314e+00 4.623433e+00 4.684063e+00 5.326392e+00 4.810286e+00 4.282758e+00 3.402584e+00 3.101119e+00 2.498048e+00 4.944580e+00 6.457549e-01 6.134768e-01 6.017246e-01 6.566662e-01 7.446686e-01 7.785835e-01 8.730704e-01 8.237743e-01 7.342749e-01 6.127194e-01 5.558987e-01 4.516674e-01 7.860431e-01
<GCONST> 1.388189e+02
<STATE> 3
<MEAN> 39
 2.309096e+00 -1.452445e+00 -1.256380e+00 1.723397e-01 -3.260804e-01 -1.327244e+00 -1.485610e+00 7.742694e-01 -2.461699e-01 -3.547435e-01 3.379993e-01 1.519025e-02 2.095436e+00 -3.062835e-02 5.169570e-02 2.986416e-02 -4.610376e-02 -1.526481e-02 2.446035e-02 2.608239e-02 -3.646931e-02 -2.073737e-02 2.902544e-03 -1.638208e-02 -1.449038e-02 8.989152e-03 -9.895930e-03 7.390652e-03 7.399056e-03 -2.078538e-03 4.761222e-04 6.394963e-03 5.321060e-03 -3.812991e-03 -5.877981e-05 1.509313e-03 -2.761169e-04 1.082965e-04 -8.445611e-03
<VARIANCE> 39
 1.052889e+02 6.005421e+01 8.286827e+01 6.691956e+01 7.112852e+01 7.163282e+01 7.977045e+01 6.685089e+01 6.053402e+01 4.316587e+01 3.959859e+01 3.231194e+01 7.612261e+01 4.887688e+00 3.783801e+00 4.211582e+00 4.141104e+00 4.621387e+00 4.689594e+00 5.303868e+00 4.810508e+00 4.281621e+00 3.408602e+00 3.106921e+00 2.506555e+00 4.878988e+00 6.435328e-01 6.120394e-01 5.990111e-01 6.600634e-01 7.457919e-01 7.787464e-01 8.702623e-01 8.262429e-01 7.353585e-01 6.148182e-01 5.573772e-01 4.533613e-01 7.764162e-01
<GCONST> 1.387767e+02
<STATE> 4
<MEAN> 39
 2.148755e+00 -1.259468e+00 -1.119716e+00 2.493577e-02 -3.742969e-01 -1.227820e+00 -1.369576e+00 6.480396e-01 -3.055677e-01 -3.360824e-01 2.851271e-01 -3.132463e-02 2.096393e+00 -6.028653e-02 6.796294e-02 4.710240e-02 -4.987095e-02 -1.238161e-02 4.352279e-02 4.325236e-02 -4.509503e-02 -1.812698e-02 8.471665e-03 -1.542827e-02 -1.404914e-02 -1.586731e-02 -9.119708e-03 4.875801e-03 4.734275e-03 -1.207263e-03 1.578076e-03 5.953194e-03 5.416270e-03 -2.592642e-03 1.007042e-03 1.926974e-03 3.677574e-04 2.343370e-04 -8.284892e-03
<VARIANCE> 39
 1.062374e+02 6.020053e+01 8.180319e+01 6.814609e+01 7.119528e+01 7.167085e+01 7.904943e+01 6.617626e+01 6.013830e+01 4.305604e+01 3.976072e+01 3.235933e+01 7.536723e+01 4.813029e+00 3.768134e+00 4.140756e+00 4.163791e+00 4.608526e+00 4.667077e+00 5.211327e+00 4.782434e+00 4.256031e+00 3.404570e+00 3.110118e+00 2.513608e+00 4.810809e+00 6.337632e-01 6.079049e-01 5.916692e-01 6.622717e-01 7.453012e-01 7.744909e-01 8.576428e-01 8.241464e-01 7.330786e-01 6.154583e-01 5.584362e-01 4.548974e-01 7.669945e-01
<GCONST> 1.386192e+02
<TRANSP> 5
 0.000000e+00 1.000000e+00 0.000000e+00 0.000000e+00 0.000000e+00
 0.000000e+00 5.836321e-01 4.163679e-01 0.000000e+00 0.000000e+00
 0.000000e+00 0.000000e+00 5.836332e-01 4.163668e-01 0.000000e+00
 0.000000e+00 0.000000e+00 0.000000e+00 6.839116e-01 3.160884e-01
 0.000000e+00 0.000000e+00 0.000000e+00 0.000000e+00 0.000000e+00
<ENDHMM>
~h "s"
<BEGINHMM>
<NUMSTATES> 5
<STATE> 2
<MEAN> 39
 -3.483584e+00 1.202225e+00 -5.815084e-01 -9.191737e-02 1.500325e+00 -3.487682e-01 5.901343e-01 5.197231e-01 4.232351e-01 1.640929e-01 -1.113300e-01 2.959318e-01 1.436651e+00 3.000380e-03 1.354420e-02 -7.080783e-03 2.227850e-02 2.076795e-02 4.143984e-02 1.997387e-02 -1.289227e-02 3.995499e-03 9.771474e-03 1.555136e-02 7.022495e-04 -1.000065e-01 1.004439e-02 -4.014229e-04 7.995906e-04 5.339517e-03 -5.081100e-03 3.653256e-03 -1.031418e-03 -3.613329e-03 -2.983202e-03 1.421689e-03 1.372440e-03 -1.359351e-03 -1.132959e-02
<VARIANCE> 39
 1.332658e+02 5.863261e+01 5.824344e+01 6.389272e+01 7.236457e+01 5.987407e+01 6.515929e+01 4.991676e+01 4.940586e+01 3.712518e+01 3.723896e+01 2.987783e+01 8.687727e+01 6.720022e+00 3.637757e+00 3.204902e+00 3.842573e+00 4.374191e+00 4.068756e+00 4.559736e+00 3.883419e+00 3.507965e+00 3.026432e+00 2.880304e+00 2.344583e+00 4.930574e+00 8.551792e-01 5.681396e-01 5.017655e-01 6.220046e-01 6.916979e-01 6.954354e-01 7.738562e-01 6.961070e-01 6.195804e-01 5.615507e-01 5.197541e-01 4.280650e-01 8.092380e-01
<GCONST> 1.356384e+02
<STATE> 3
<MEAN> 39
 -3.429089e+00 1.220942e+00 -5.920420e-01 -3.922835e-02 1.529730e+00 -2.466411e-01 6.222075e-01 4.736085e-01 4.172164e-01 1.893230e-01 -7.186602e-02 2.897578e-01 1.173621e+00 3.041021e-02 9.629431e-03 -1.271002e-03 3.284691e-02 3.374769e-03 4.781360e-02 1.543769e-02 -2.053400e-02 -4.875234e-03 1.119403e-02 1.718445e-02 -3.042690e-03 -1.207370e-01 7.555480e-03 -1.071442e-03 4.109107e-03 2.984605e-03 -7.143297e-03 3.960440e-04 -2.277770e-03 -2.739544e-03 -3.623214e-03 3.538177e-04 8.277130e-04 -9.833124e-04 -3.702498e-03
<VARIANCE> 39
 1.320872e+02 5.801072e+01 5.848939e+01 6.402441e+01 7.231024e+01 5.974754e+01 6.494906e+01 4.957647e+01 4.942961e+01 3.706129e+01 3.703002e+01 2.985477e+01 8.951780e+01 6.711877e+00 3.637684e+00 3.193248e+00 3.868118e+00 4.377691e+00 4.063880e+00 4.540863e+00 3.867592e+00 3.515237e+00 3.028678e+00 2.879759e+00 2.345251e+00 5.030143e+00 8.568959e-01 5.699130e-01 5.014033e-01 6.252480e-01 6.932054e-01 6.948026e-01 7.722665e-01 6.939918e-01 6.212707e-01 5.625747e-01 5.201004e-01 4.280613e-01 8.262960e-01
<GCONST> 1.356823e+02
<STATE> 4
<MEAN> 39
 -3.245757e+00 1.220582e+00 -5.592647e-01 4.186440e-02 1.470481e+00 -1.314962e-01 6.154921e-01 3.919024e-01 3.612425e-01 2.167304e-01 -2.152515e-02 2.674026e-01 8.606181e-01 6.279106e-02 -8.745528e-04 1.514077e-02 3.637464e-02 -2.271364e-02 4.688704e-02 4.797527e-03 -2.732265e-02 -1.586428e-02 9.904992e-03 1.733012e-02 -7.165353e-03 -1.276671e-01 7.613184e-03 -3.444954e-03 6.868598e-03 3.941561e-05 -8.274254e-03 -2.658391e-03 -4.294127e-03 -1.960013e-03 -3.305182e-03 -5.436688e-04 3.236203e-04 -8.203050e-04 1.661697e-03
<VARIANCE> 39
 1.307064e+02 5.732712e+01 5.923980e+01 6.470277e+01 7.249620e+01 5.993627e+01 6.490296e+01 4.950591e+01 4.976606e+01 3.712091e+01 3.685174e+01 2.992298e+01 9.329929e+01 6.562646e+00 3.602994e+00 3.172386e+00 3.878757e+00 4.366402e+00 4.041010e+00 4.498776e+00 3.854267e+00 3.526200e+00 3.031179e+00 2.875247e+00 2.345149e+00 5.090570e+00 8.408601e-01 5.673179e-01 4.990162e-01 6.268507e-01 6.942067e-01 6.921418e-01 7.671731e-01 6.924840e-01 6.238193e-01 5.635310e-01 5.199593e-01 4.279282e-01 8.394152e-01
<GCONST> 1.356756e+02
<TRANSP> 5
 0.000000e+00 1.000000e+00 0.000000e+00 0.000000e+00 0.000000e+00
 0.000000e+00 5.846090e-01 4.153910e-01 0.000000e+00 0.000000e+00
 0.000000e+00 0.000000e+00 5.846143e-01 4.153857e-01 0.000000e+00
 0.000000e+00 0.000000e+00 0.000000e+00 6.852316e-01 3.147683e-01
 0.000000e+00 0.000000e+00 0.000000e+00 0.000000e+00 0.000000e+00
<ENDHMM>
~h "t"
<BEGINHMM>
<NUMSTATES> 5
<STATE> 2
<MEAN> 39
 -1.818977e+00 2.590629e-01 9.078384e-01 5.712517e-01 2.626673e-01 -3.530632e-01 5.878035e-01 2.584801e-01 1.967487e-01 1.029261e-01 1.909849e-01 3.719645e-01 -4.374470e-01 8.770525e-02 -4.070955e-02 -1.924921e-02 -1.272926e-02 -1.578812e-02 -1.026789e-02 -1.418880e-02 -4.537082e-03 -9.638629e-03 -1.184016e-02 -5.955057e-03 -6.155536e-03 4.641348e-03 9.859309e-03 3.185921e-04 -4.864632e-03 -1.567788e-03 -2.727441e-03 3.396995e-03 -3.169490e-03 -2.276719e-03 -3.159743e-03 -7.518341e-04 -1.054066e-03 -2.782824e-03 1.353730e-03
<VARIANCE> 39
 1.004345e+02 5.364996e+01 6.091685e+01 6.185547e+01 6.939828e+01 5.982843e+01 6.371962e+01 5.274687e+01 5.224525e+01 3.847013e+01 3.707109e+01 2.993878e+01 1.150504e+02 5.370371e+00 3.739388e+00 3.378067e+00 4.476328e+00 4.548775e+00 4.375208e+00 4.546348e+00 4.185639e+00 3.878968e+00 3.193057e+00 2.987779e+00 2.439747e+00 8.606503e+00 7.636967e-01 6.557770e-01 5.563385e-01 7.876896e-01 7.642677e-01 7.623281e-01 7.873611e-01 7.553642e-01 6.943395e-01 5.960162e-01 5.498027e-01 4.524437e-01 1.536924e+00
<GCONST> 1.382061e+02
<STATE> 3
<MEAN> 39
 -1.569169e+00 1.510321e-01 8.490372e-01 5.238663e-01 2.085435e-01 -3.832673e-01 5.356175e-01 2.443247e-01 1.636506e-01 6.987047e-02 1.700101e-01 3.483761e-01 -3.883988e-01 1.071033e-01 -3.623324e-02 -2.865959e-02 -1.376671e-02 -2.127938e-02 -1.831442e-03 -2.067652e-02 -9.254913e-03 -1.727305e-02 -1.361851e-02 -8.763605e-03 -1.314698e-02 3.550233e-03 4.361290e-03 3.092450e-03 -2.640293e-03 -6.206780e-04 -1.657629e-03 3.521525e-03 -1.680850e-03 -2.223441e-03 -2.768305e-03 2.506929e-04 -3.339757e-04 -2.690187e-03 4.693970e-04
<VARIANCE> 39
 9.894669e+01 5.339173e+01 6.116747e+01 6.193621e+01 6.920600e+01 6.012696e+01 6.393799e+01 5.330277e+01 5.253789e+01 3.878570e+01 3.723432e+01 3.010732e+01 1.132463e+02 5.299975e+00 3.712715e+00 3.364618e+00 4.437410e+00 4.519741e+00 4.365069e+00 4.542289e+00 4.192860e+00 3.888149e+00 3.200212e+00 2.983803e+00 2.439007e+00 8.401023e+00 7.548974e-01 6.487352e-01 5.520626e-01 7.752714e-01 7.580574e-01 7.568951e-01 7.851092e-01 7.543687e-01 6.945705e-01 5.959621e-01 5.486411e-01 4.519810e-01 1.481453e+00
<GCONST> 1.380485e+02
<STATE> 4
<MEAN> 39
 -1.224290e+00 4.426071e-02 7.617111e-01 4.759650e-01 1.266244e-01 -4.051086e-01 4.478922e-01 2.089745e-01 9.989794e-02 3.201899e-02 1.393846e-01 2.972481e-01 -3.264790e-01 1.137198e-01 -2.468539e-02 -3.302227e-02 -9.306438e-03 -2.230458e-02 8.317797e-03 -2.460283e-02 -1.356007e-02 -2.255297e-02 -1.221461e-02 -9.494361e-03 -1.991729e-02 -7.757737e-03 -1.270395e-03 4.775035e-03 1.030698e-04 1.056227e-03 2.784772e-04 3.433777e-03 -3.127133e-04 -1.374921e-03 -1.235168e-03 1.414616e-03 7.800471e-04 -1.774685e-03 -2.974288e-03
<VARIANCE> 39
 9.712774e+01 5.334741e+01 6.178183e+01 6.242947e+01 6.914693e+01 6.067532e+01 6.436182e+01 5.407166e+01 5.298527e+01 3.929827e+01 3.744138e+01 3.035962e+01 1.128067e+02 5.167393e+00 3.657714e+00 3.334363e+00 4.357554e+00 4.468322e+00 4.319958e+00 4.509973e+00 4.192266e+00 3.892759e+00 3.203597e+00 2.973713e+00 2.431577e+00 7.970929e+00 7.348174e-01 6.346078e-01 5.432442e-01 7.537400e-01 7.464345e-01 7.436922e-01 7.771362e-01 7.508386e-01 6.926619e-01 5.945441e-01 5.457564e-01 4.498772e-01 1.387129e+00
<GCONST> 1.377324e+02
<TRANSP> 5
 0.000000e+00 1.000000e+00 0.000000e+00 0.000000e+00 0.000000e+00
 0.000000e+00 5.771647e-01 4.228353e-01 0.000000e+00 0.000000e+00
 0.000000e+00 0.000000e+00 5.771675e-01 4.228325e-01 0.000000e+00
 0.000000e+00 0.000000e+00 0.000000e+00 6.766314e-01 3.233686e-01
 0.000000e+00 0.000000e+00 0.000000e+00 0.000000e+00 0.000000e+00
<ENDHMM>
~h "v"
<BEGINHMM>
<NUMSTATES> 5
<STATE> 2
<MEAN> 39
 1.884667e+00 -5.145331e-01 -1.725169e-01 -7.915533e-01 -7.675614e-01 -6.553510e-01 -1.146492e+00 -4.070235e-01 -1.513039e-01 3.890432e-02 6.203234e-03 -4.187814e-01 2.121013e+00 -1.000358e-02 -3.601445e-04 -1.969590e-02 2.102476e-02 4.367428e-02 -4.280795e-03 -8.388822e-03 1.096725e-02 3.263929e-03 -1.485185e-02 -1.431367e-03 -5.159900e-04 -2.139117e-02 -6.664357e-03 2.172356e-03 3.149913e-03 2.939994e-03 2.092341e-03 2.556623e-03 5.246734e-03 -1.357445e-04 -2.401279e-04 -6.346491e-04 1.893714e-04 2.127767e-03 -8.732338e-03
<VARIANCE> 39
 8.407390e+01 5.273192e+01 6.559618e+01 6.732288e+01 6.406665e+01 6.097109e+01 6.681425e+01 5.810718e+01 5.200852e+01 4.001593e+01 3.738109e+01 3.219993e+01 7.636430e+01 4.632230e+00 3.566623e+00 3.119755e+00 4.107034e+00 4.116407e+00 3.976119e+00 4.433177e+00 4.441918e+00 3.827021e+00 3.202214e+00 2.931456e+00 2.455565e+00 4.764297e+00 6.913360e-01 5.888414e-01 4.792518e-01 6.635407e-01 6.666402e-01 6.781157e-01 7.581850e-01 7.868773e-01 6.851645e-01 5.922326e-01 5.378776e-01 4.451550e-01 7.684085e-01
<GCONST> 1.352929e+02
<STATE> 3
<MEAN> 39
 1.829171e+00 -5.077866e-01 -2.071852e-01 -7.284896e-01 -6.558360e-01 -6.638865e-01 -1.139696e+00 -3.748795e-01 -1.454682e-01 6.044066e-03 2.737411e-03 -4.087981e-01 2.038316e+00 -2.502334e-02 3.254300e-03 -1.184379e-02 2.460324e-02 4.504392e-02 2.450858e-03 6.688333e-03 1.122156e-02 1.740805e-03 -1.531596e-02 -1.372601e-03 3.504186e-03 -3.781431e-02 -7.083528e-03 1.810063e-03 3.793655e-03 1.247103e-03 -2.689821e-04 2.614010e-03 7.106228e-03 3.903977e-06 -7.732064e-04 -1.558723e-05 3.636855e-05 1.644913e-03 -6.605927e-03
<VARIANCE> 39
 8.438107e+01 5.250665e+01 6.613085e+01 6.730254e+01 6.443063e+01 6.124407e+01 6.690533e+01 5.787383e+01 5.206639e+01 4.025603e+01 3.733968e+01 3.224329e+01 7.667188e+01 4.631765e+00 3.563391e+00 3.151302e+00 4.115046e+00 4.147095e+00 4.007522e+00 4.456135e+00 4.424707e+00 3.850004e+00 3.216390e+00 2.940342e+00 2.451803e+00 4.821469e+00 6.897035e-01 5.892553e-01 4.835227e-01 6.655398e-01 6.720888e-01 6.834584e-01 7.628801e-01 7.843927e-01 6.894320e-01 5.951772e-01 5.392191e-01 4.459122e-01 7.795318e-01
<GCONST> 1.354292e+02
<STATE> 4
<MEAN> 39
 1.694249e+00 -4.756583e-01 -2.133373e-01 -6.293349e-01 -5.293439e-01 -6.670009e-01 -1.068291e+00 -3.225633e-01 -1.491830e-01 -3.185154e-02 -1.315810e-02 -3.839963e-01 1.897566e+00 -4.380650e-02 7.469144e-03 -2.536007e-03 2.483703e-02 4.027540e-02 1.041779e-02 2.848153e-02 1.319223e-02 -7.006307e-04 -1.279818e-02 -1.848600e-03 7.245333e-03 -5.268982e-02 -6.802094e-03 1.899095e-03 3.581583e-03 -4.148346e-04 -2.245157e-03 2.772193e-03 7.352791e-03 2.738258e-04 -6.515046e-04 8.941998e-04 4.654340e-05 1.051635e-03 -4.634756e-03
<VARIANCE> 39
 8.525450e+01 5.236346e+01 6.678196e+01 6.747812e+01 6.509190e+01 6.175119e+01 6.693384e+01 5.755169e+01 5.228329e+01 4.062078e+01 3.729712e+01 3.231012e+01 7.845934e+01 4.603720e+00 3.534374e+00 3.177042e+00 4.110080e+00 4.174425e+00 4.039304e+00 4.447528e+00 4.387434e+00 3.856974e+00 3.227237e+00 2.938533e+00 2.443660e+00 4.870342e+00 6.805799e-01 5.843415e-01 4.866572e-01 6.644934e-01 6.753425e-01 6.874760e-01 7.610882e-01 7.777090e-01 6.900631e-01 5.968127e-01 5.384047e-01 4.457439e-01 7.871430e-01
<GCONST> 1.355021e+02
<TRANSP> 5
 0.000000e+00 1.000000e+00 0.000000e+00 0.000000e+00 0.000000e+00
 0.000000e+00 5.806141e-01 4.193859e-01 0.000000e+00 0.000000e+00
 0.000000e+00 0.000000e+00 5.806131e-01 4.193869e-01 0.000000e+00
 0.000000e+00 0.000000e+00 0.000000e+00 6.807545e-01 3.192455e-01
 0.000000e+00 0.000000e+00 0.000000e+00 0.000000e+00 0.000000e+00
<ENDHMM>
~h "w"
<BEGINHMM>
<NUMSTATES> 5
<STATE> 2
<MEAN> 39
 3.017008e+00 4.746550e-04 -3.338989e+00 -2.793338e+00 -2.355870e-01 2.177443e+00 1.278448e-02 -6.479329e-01 1.545538e-01 5.242820e-01 6.180079e-01 -3.128721e-01 4.026911e-01 1.065569e-01 -1.063899e-02 -3.386575e-02 -3.728642e-02 -1.905528e-02 -3.520044e-02 -5.390066e-02 -1.820717e-02 2.493902e-03 5.300157e-04 -1.192259e-02 -2.019424e-02 1.183145e-01 -7.515161e-04 -3.924927e-03 8.663059e-03 7.263265e-04 -2.882978e-03 -6.993755e-03 -6.293470e-03 -2.591871e-03 -2.727869e-03 -1.997220e-03 -1.441752e-03 -5.447639e-04 1.484361e-02
<VARIANCE> 39
 1.050907e+02 5.349593e+01 7.581842e+01 9.081477e+01 6.923167e+01 7.263190e+01 7.246947e+01 5.415969e+01 6.111537e+01 4.327850e+01 3.895925e+01 3.177201e+01 8.553194e+01 4.844651e+00 3.442812e+00 3.430174e+00 4.855359e+00 4.480909e+00 4.512293e+00 4.777916e+00 4.179479e+00 4.146093e+00 3.528239e+00 3.202963e+00 2.653257e+00 3.911960e+00 6.194762e-01 5.468721e-01 5.208279e-01 7.087811e-01 7.239905e-01 7.404713e-01 7.939537e-01 7.618294e-01 7.282469e-01 6.590509e-01 5.865898e-01 4.904180e-01 5.884781e-01
<GCONST> 1.374964e+02
<STATE> 3
<MEAN> 39
 3.255651e+00 -6.548538e-02 -3.393382e+00 -2.867987e+00 -2.757997e-01 2.069028e+00 -1.434455e-01 -6.910230e-01 1.670275e-01 5.243397e-01 5.846790e-01 -3.580771e-01 7.439173e-01 8.793592e-02 -2.638971e-02 -9.903641e-03 -2.719781e-02 -1.893047e-02 -4.882807e-02 -6.400154e-02 -1.978376e-02 2.090272e-03 -1.087110e-03 -1.305810e-02 -1.777121e-02 1.437680e-01 -9.215007e-03 -7.435622e-03 1.055579e-02 4.581238e-03 -2.831769e-05 -5.043785e-03 -3.035170e-03 1.577865e-05 1.450625e-04 -4.213964e-04 -3.364313e-04 1.130595e-03 9.202430e-03
<VARIANCE> 39
 1.041136e+02 5.376131e+01 7.727843e+01 9.071819e+01 6.923238e+01 7.364970e+01 7.354240e+01 5.491468e+01 6.157328e+01 4.369672e+01 3.927534e+01 3.190254e+01 7.848978e+01 4.939791e+00 3.497545e+00 3.446831e+00 4.930326e+00 4.506760e+00 4.625027e+00 4.916955e+00 4.254807e+00 4.205021e+00 3.591428e+00 3.249229e+00 2.680741e+00 4.108145e+00 6.309239e-01 5.579630e-01 5.223427e-01 7.189649e-01 7.285112e-01 7.576597e-01 8.107434e-01 7.758904e-01 7.388472e-01 6.714116e-01 5.949812e-01 4.951130e-01 6.080603e-01
<GCONST> 1.379470e+02
<STATE> 4
<MEAN> 39
 3.423162e+00 -2.274345e-01 -3.362869e+00 -2.900317e+00 -3.156563e-01 1.898844e+00 -3.259686e-01 -7.182039e-01 2.055994e-01 5.050965e-01 5.260038e-01 -4.017698e-01 1.226646e+00 2.940010e-02 -4.465928e-02 1.727415e-02 1.319870e-03 -4.406758e-03 -5.426393e-02 -5.067325e-02 -1.030180e-02 1.547720e-02 -7.052571e-04 -1.417893e-02 -8.423373e-03 1.301318e-01 -1.909680e-02 -4.943601e-03 9.767218e-03 8.524874e-03 3.521542e-03 -1.455027e-03 5.780070e-03 3.080073e-03 3.535259e-03 -1.414313e-04 -5.815906e-04 2.570761e-03 -5.348066e-03
<VARIANCE> 39
 1.035308e+02 5.355254e+01 8.003689e+01 9.146922e+01 6.967954e+01 7.520575e+01 7.447017e+01 5.596246e+01 6.221715e+01 4.424024e+01 3.975195e+01 3.211637e+01 7.123884e+01 4.893456e+00 3.519553e+00 3.472680e+00 4.949657e+00 4.504824e+00 4.717761e+00 5.003351e+00 4.313546e+00 4.235595e+00 3.632536e+00 3.269694e+00 2.689758e+00 4.214419e+00 6.254138e-01 5.607412e-01 5.219557e-01 7.207481e-01 7.295789e-01 7.705057e-01 8.186121e-01 7.868080e-01 7.460277e-01 6.775674e-01 5.985607e-01 4.959722e-01 6.216729e-01
<GCONST> 1.381852e+02
<TRANSP> 5
 0.000000e+00 1.000000e+00 0.000000e+00 0.000000e+00 0.000000e+00
 0.000000e+00 5.886308e-01 4.113692e-01 0.000000e+00 0.000000e+00
 0.000000e+00 0.000000e+00 5.886351e-01 4.113650e-01 0.000000e+00
 0.000000e+00 0.000000e+00 0.000000e+00 6.899247e-01 3.100753e-01
 0.000000e+00 0.000000e+00 0.000000e+00 0.000000e+00 0.000000e+00
<ENDHMM>
~h "y"
<BEGINHMM>
<NUMSTATES> 5
<STATE> 2
<MEAN> 39
 1.226724e+00 -4.053546e-01 5.138045e+00 6.604601e-01 -3.302868e+00 -2.615657e+00 -1.707626e+00 3.622081e-01 -1.821766e+00 -8.672818e-01 3.502518e-01 4.449885e-01 9.964765e-01 9.278724e-02 -5.827300e-02 -1.754680e-01 1.611472e-01 1.041851e-01 -1.374287e-01 -9.021723e-02 1.385485e-01 9.034060e-02 -4.728841e-02 -1.642369e-02 4.002088e-02 -2.590396e-02 1.354827e-03 3.772105e-03 -2.996822e-02 -3.649356e-04 2.358867e-02 1.408394e-02 3.270430e-03 -7.183988e-04 1.504298e-02 -3.151686e-05 -9.301976e-03 -3.831288e-03 -8.318038e-03
<VARIANCE> 39
 6.470250e+01 4.861360e+01 1.060963e+02 6.360514e+01 7.404176e+01 7.116052e+01 6.770692e+01 6.151122e+01 6.190209e+01 4.429253e+01 3.626248e+01 2.925067e+01 8.380961e+01 2.883230e+00 3.124118e+00 4.107405e+00 3.374405e+00 4.145323e+00 4.324873e+00 4.080970e+00 3.967897e+00 3.747429e+00 2.989723e+00 2.574375e+00 2.082988e+00 4.162121e+00 3.848906e-01 4.841869e-01 4.809564e-01 5.591220e-01 6.486390e-01 7.039460e-01 6.646438e-01 6.551871e-01 6.054990e-01 5.249169e-01 4.520821e-01 3.740875e-01 6.511831e-01
<GCONST> 1.328222e+02
<STATE> 3
<MEAN> 39
 1.478248e+00 -5.577701e-01 4.612000e+00 1.063898e+00 -3.007349e+00 -2.943610e+00 -1.919632e+00 7.175517e-01 -1.557999e+00 -9.811254e-01 3.054374e-01 5.369697e-01 9.320077e-01 9.519588e-02 -5.157218e-02 -2.547308e-01 1.605672e-01 1.636901e-01 -1.016596e-01 -7.759718e-02 1.380218e-01 1.313957e-01 -4.539061e-02 -3.858713e-02 3.058445e-02 -4.488095e-02 -3.713287e-03 4.502729e-03 -2.464100e-02 -1.418229e-03 2.167414e-02 1.856141e-02 7.858554e-03 -4.810202e-03 1.275646e-02 1.334633e-03 -8.950498e-03 -4.802460e-03 -9.589348e-03
<VARIANCE> 39
 6.610635e+01 4.835247e+01 1.076697e+02 6.387788e+01 7.619090e+01 7.261938e+01 6.888015e+01 6.293283e+01 6.352225e+01 4.495304e+01 3.690661e+01 2.960681e+01 8.114626e+01 2.963235e+00 3.167789e+00 4.101222e+00 3.375352e+00 4.215422e+00 4.356789e+00 4.198003e+00 4.019395e+00 3.794008e+00 3.035311e+00 2.628444e+00 2.098997e+00 4.238986e+00 3.929196e-01 4.954658e-01 4.840774e-01 5.569669e-01 6.542147e-01 7.029642e-01 6.800976e-01 6.616556e-01 6.094544e-01 5.282657e-01 4.586002e-01 3.758535e-01 6.585556e-01
<GCONST> 1.332932e+02
<STATE> 4
<MEAN> 39
 1.756918e+00 -7.053633e-01 3.809494e+00 1.491915e+00 -2.523147e+00 -3.198045e+00 -2.117362e+00 1.089713e+00 -1.155554e+00 -1.074792e+00 2.034185e-01 5.999956e-01 8.185366e-01 8.029114e-02 -4.598881e-02 -3.336836e-01 1.555097e-01 2.233153e-01 -4.985898e-02 -4.451295e-02 1.297578e-01 1.712218e-01 -3.532380e-02 -5.876045e-02 1.859934e-02 -7.368133e-02 -1.231882e-02 4.497926e-03 -1.661349e-02 -3.959138e-03 1.824395e-02 2.374313e-02 1.521170e-02 -9.190836e-03 7.947553e-03 3.903659e-03 -7.323988e-03 -5.060280e-03 -1.328179e-02
<VARIANCE> 39
 6.772823e+01 4.846970e+01 1.099175e+02 6.505082e+01 7.894411e+01 7.373090e+01 7.076894e+01 6.433691e+01 6.538641e+01 4.579310e+01 3.786091e+01 2.998724e+01 7.993091e+01 3.032677e+00 3.216374e+00 4.025924e+00 3.380254e+00 4.241662e+00 4.365935e+00 4.328638e+00 4.052721e+00 3.804307e+00 3.087496e+00 2.681834e+00 2.119154e+00 4.303854e+00 3.981711e-01 5.064188e-01 4.843163e-01 5.529655e-01 6.554630e-01 6.980336e-01 6.976775e-01 6.656530e-01 6.105133e-01 5.321655e-01 4.650492e-01 3.793890e-01 6.610983e-01
<GCONST> 1.337534e+02
<TRANSP> 5
 0.000000e+00 1.000000e+00 0.000000e+00 0.000000e+00 0.000000e+00
 0.000000e+00 5.895855e-01 4.104145e-01 0.000000e+00 0.000000e+00
 0.000000e+00 0.000000e+00 5.895873e-01 4.104127e-01 0.000000e+00
 0.000000e+00 0.000000e+00 0.000000e+00 6.905718e-01 3.094283e-01
 0.000000e+00 0.000000e+00 0.000000e+00 0.000000e+00 0.000000e+00
<ENDHMM>
~h "z"
<BEGINHMM>
<NUMSTATES> 5
<STATE> 2
<MEAN> 39
 -1.687048e+00 1.393168e+00 3.835064e-01 -5.062051e-01 6.381163e-01 -1.003508e+00 -5.019409e-01 -2.362218e-01 6.481873e-02 3.601878e-02 -2.445484e-01 1.038560e-01 1.454883e+00 1.490042e-02 -1.281478e-02 -5.451173e-02 3.775772e-02 4.425683e-02 5.600123e-02 2.590113e-02 6.763737e-03 2.034577e-02 9.698538e-04 4.990761e-03 3.596435e-03 -1.462701e-01 7.723684e-03 -8.206393e-04 -3.511634e-03 8.352266e-03 -2.398900e-03 9.244930e-03 5.802751e-03 2.110231e-04 -1.712892e-03 1.104818e-04 1.723066e-03 4.089733e-05 -1.393022e-02
<VARIANCE> 39
 1.142729e+02 6.006961e+01 6.233935e+01 6.467635e+01 7.461133e+01 6.384063e+01 6.355774e+01 5.384745e+01 5.197029e+01 3.996287e+01 3.710789e+01 2.970104e+01 7.626118e+01 6.472538e+00 3.870757e+00 3.028749e+00 3.802857e+00 4.448302e+00 4.194511e+00 4.416270e+00 4.107891e+00 3.565529e+00 3.097918e+00 2.848320e+00 2.353936e+00 4.093901e+00 8.772643e-01 6.007709e-01 4.644458e-01 6.038252e-01 6.940373e-01 7.142139e-01 7.500778e-01 7.319156e-01 6.224844e-01 5.669631e-01 5.150942e-01 4.312167e-01 6.563677e-01
<GCONST> 1.354212e+02
<STATE> 3
<MEAN> 39
 -1.621916e+00 1.340401e+00 2.415386e-01 -4.062127e-01 7.363461e-01 -8.450433e-01 -4.274749e-01 -2.134218e-01 1.129586e-01 3.555880e-02 -2.265780e-01 1.117739e-01 1.071403e+00 3.380518e-02 -1.496963e-02 -5.919963e-02 5.508907e-02 3.465561e-02 7.521842e-02 3.781686e-02 6.779368e-03 1.565625e-02 1.332184e-03 8.185049e-03 3.195924e-03 -1.716789e-01 1.508682e-03 3.720335e-04 -1.752345e-05 4.846463e-03 -3.827059e-03 5.665534e-03 5.169206e-03 9.117986e-04 -1.383360e-03 8.829387e-04 1.475035e-03 4.298152e-04 -3.979602e-03
<VARIANCE> 39
 1.114527e+02 5.941723e+01 6.174252e+01 6.486042e+01 7.379697e+01 6.375991e+01 6.299432e+01 5.366276e+01 5.157774e+01 3.987638e+01 3.691359e+01 2.954063e+01 8.242049e+01 6.419007e+00 3.862437e+00 3.020868e+00 3.839478e+00 4.428189e+00 4.189978e+00 4.398053e+00 4.112899e+00 3.585287e+00 3.098376e+00 2.852784e+00 2.352218e+00 4.207558e+00 8.753591e-01 6.028957e-01 4.651132e-01 6.095619e-01 6.929316e-01 7.147789e-01 7.493327e-01 7.342288e-01 6.269230e-01 5.677189e-01 5.173118e-01 4.314731e-01 6.792853e-01
<GCONST> 1.354944e+02
<STATE> 4
<MEAN> 39
 -1.478981e+00 1.256199e+00 6.834760e-02 -2.689740e-01 7.949907e-01 -6.239747e-01 -3.071795e-01 -1.840707e-01 1.485186e-01 3.190812e-02 -1.943088e-01 1.197267e-01 6.168402e-01 4.231015e-02 -1.806645e-02 -5.411761e-02 6.066168e-02 2.006944e-02 8.496676e-02 4.580164e-02 8.368839e-03 1.195326e-02 3.344801e-03 1.096686e-02 3.506624e-03 -1.722944e-01 -1.992849e-03 -4.949176e-04 3.645364e-03 -6.768861e-04 -4.548036e-03 6.339040e-04 2.089686e-03 1.496773e-03 -4.559084e-04 1.243497e-03 1.244955e-03 8.741553e-04 5.441803e-03
<VARIANCE> 39
 1.087414e+02 5.865860e+01 6.120636e+01 6.554729e+01 7.253767e+01 6.373674e+01 6.258200e+01 5.338288e+01 5.102843e+01 3.974911e+01 3.679925e+01 2.941473e+01 9.075141e+01 6.234878e+00 3.797651e+00 2.995651e+00 3.856476e+00 4.358356e+00 4.148870e+00 4.339720e+00 4.097191e+00 3.593149e+00 3.088149e+00 2.847336e+00 2.338333e+00 4.311284e+00 8.548315e-01 5.960215e-01 4.628082e-01 6.121864e-01 6.852407e-01 7.092636e-01 7.423041e-01 7.326949e-01 6.295555e-01 5.664974e-01 5.175028e-01 4.293405e-01 7.013822e-01
<GCONST> 1.353900e+02
<TRANSP> 5
 0.000000e+00 1.000000e+00 0.000000e+00 0.000000e+00 0.000000e+00
 0.000000e+00 5.831211e-01 4.168789e-01 0.000000e+00 0.000000e+00
 0.000000e+00 0.000000e+00 5.831167e-01 4.168833e-01 0.000000e+00
 0.000000e+00 0.000000e+00 0.000000e+00 6.837746e-01 3.162254e-01
 0.000000e+00 0.000000e+00 0.000000e+00 0.000000e+00 0.000000e+00
<ENDHMM>
~h "aa"
<BEGINHMM>
<NUMSTATES> 5
<STATE> 2
<MEAN> 39
 2.340237e+00 -2.297162e+00 -3.842381e+00 -1.246994e+00 1.738584e+00 1.443550e+00 -2.562508e-01 3.395642e-01 1.322475e+00 -1.614156e-02 -1.970901e-01 -9.916791e-01 2.387453e+00 8.127203e-03 -3.605586e-02 -5.601773e-02 -4.278930e-02 2.298790e-02 -1.701371e-02 -1.945595e-02 2.367681e-02 3.005497e-02 -1.820507e-03 -1.084493e-02 4.510421e-03 8.940144e-02 -1.132397e-02 1.076284e-02 1.545685e-02 7.637176e-03 -4.983054e-03 -5.020125e-03 2.056829e-04 -1.278019e-03 -5.335134e-03 3.696326e-04 1.077383e-03 4.801155e-03 -1.445172e-02
<VARIANCE> 39
 1.043366e+02 6.485973e+01 8.080963e+01 8.106959e+01 6.244193e+01 7.582629e+01 6.910745e+01 6.255573e+01 5.419882e+01 3.987645e+01 3.980104e+01 3.427619e+01 9.780090e+01 5.096133e+00 4.225043e+00 3.705204e+00 4.688297e+00 4.056502e+00 4.798614e+00 4.651783e+00 4.343019e+00 3.904250e+00 3.166839e+00 3.097708e+00 2.607516e+00 6.776405e+00 6.814712e-01 6.669026e-01 5.220380e-01 7.132516e-01 6.899234e-01 7.991860e-01 7.907515e-01 7.593529e-01 6.790897e-01 5.782744e-01 5.564114e-01 4.673402e-01 1.049628e+00
<GCONST> 1.388995e+02
<STATE> 3
<MEAN> 39
 2.297179e+00 -2.326099e+00 -3.911003e+00 -1.304596e+00 1.782371e+00 1.384771e+00 -2.975588e-01 3.917134e-01 1.374819e+00 -1.632996e-02 -2.172427e-01 -9.584811e-01 2.516581e+00 -2.216678e-02 -4.074337e-03 -1.482999e-02 -2.003104e-02 1.068662e-02 -2.980657e-02 -1.811545e-02 1.783643e-02 1.541468e-02 7.932491e-04 -7.547606e-03 1.582079e-02 4.675014e-02 -1.265500e-02 1.367051e-02 1.734492e-02 9.952557e-03 -4.634786e-03 -5.522600e-03 6.660663e-04 -2.943164e-03 -6.393055e-03 1.114756e-03 1.276282e-03 4.438029e-03 -1.829085e-02
<VARIANCE> 39
 1.066502e+02 6.475838e+01 8.085500e+01 8.035929e+01 6.289321e+01 7.612587e+01 6.966893e+01 6.277257e+01 5.410760e+01 3.973792e+01 3.963623e+01 3.429882e+01 9.449355e+01 5.118756e+00 4.194093e+00 3.678898e+00 4.639888e+00 4.029977e+00 4.800302e+00 4.660883e+00 4.323727e+00 3.883198e+00 3.151472e+00 3.073563e+00 2.588729e+00 6.621209e+00 6.815649e-01 6.645116e-01 5.178717e-01 7.069653e-01 6.840367e-01 7.995968e-01 7.890542e-01 7.562083e-01 6.748850e-01 5.758542e-01 5.524834e-01 4.633826e-01 1.034341e+00
<GCONST> 1.387383e+02
<STATE> 4
<MEAN> 39
 2.120053e+00 -2.225051e+00 -3.818322e+00 -1.285488e+00 1.785385e+00 1.249671e+00 -3.577331e-01 4.314771e-01 1.377040e+00 -1.050688e-02 -2.280887e-01 -8.757877e-01 2.531117e+00 -6.050025e-02 4.033645e-02 3.701998e-02 1.016248e-02 -4.559697e-03 -4.660559e-02 -1.494188e-02 6.742006e-03 -4.027494e-03 5.656698e-03 -3.550634e-03 2.738490e-02 -7.917545e-03 -1.138452e-02 1.388104e-02 1.659594e-02 9.420400e-03 -4.792028e-03 -5.763569e-03 7.400452e-04 -3.950972e-03 -6.633963e-03 1.246303e-03 1.098104e-03 3.516244e-03 -1.678669e-02
<VARIANCE> 39
 1.103235e+02 6.480915e+01 8.132290e+01 7.988734e+01 6.398393e+01 7.638109e+01 7.031582e+01 6.268889e+01 5.406863e+01 3.959871e+01 3.944466e+01 3.422750e+01 9.233959e+01 5.105731e+00 4.126801e+00 3.621343e+00 4.559359e+00 4.010896e+00 4.781438e+00 4.646641e+00 4.290254e+00 3.844726e+00 3.129585e+00 3.039620e+00 2.551888e+00 6.407606e+00 6.773017e-01 6.587762e-01 5.118765e-01 6.966150e-01 6.780257e-01 7.966838e-01 7.824910e-01 7.505594e-01 6.679744e-01 5.719891e-01 5.470994e-01 4.566767e-01 1.013376e+00
<GCONST> 1.384888e+02
<TRANSP> 5
 0.000000e+00 1.000000e+00 0.000000e+00 0.000000e+00 0.000000e+00
 0.000000e+00 5.851063e-01 4.148938e-01 0.000000e+00 0.000000e+00
 0.000000e+00 0.000000e+00 5.851114e-01 4.148886e-01 0.000000e+00
 0.000000e+00 0.000000e+00 0.000000e+00 6.858373e-01 3.141628e-01
 0.000000e+00 0.000000e+00 0.000000e+00 0.000000e+00 0.000000e+00
<ENDHMM>
~h "ae"
<BEGINHMM>
<NUMSTATES> 5
<STATE> 2
<MEAN> 39
 5.058815e-01 -1.835472e+00 8.135054e-02 -7.455740e-01 -1.155782e+00 -1.681986e-01 1.450909e+00 9.110518e-01 2.827587e-01 -6.967405e-01 -1.242509e+00 -7.304270e-01 2.985595e+00 -2.263105e-02 2.492287e-02 -1.509146e-02 3.574587e-03 2.359955e-02 -2.502987e-02 5.773984e-02 1.455694e-02 -4.983535e-03 -1.395843e-02 -2.537602e-02 -3.801000e-03 -1.328322e-03 -1.793607e-02 1.492121e-02 -4.113232e-03 6.471296e-03 1.560544e-02 2.636591e-03 -1.876407e-03 -4.174431e-03 4.414050e-03 6.076677e-03 8.001189e-03 5.820684e-03 -2.244352e-02
<VARIANCE> 39
 7.280520e+01 6.032977e+01 5.774120e+01 5.575689e+01 6.238188e+01 5.285105e+01 5.770673e+01 5.996134e+01 5.156944e+01 4.062790e+01 3.943309e+01 3.161016e+01 1.051903e+02 3.651972e+00 3.662176e+00 2.844849e+00 3.749444e+00 3.820622e+00 3.728699e+00 3.841797e+00 4.254083e+00 3.718622e+00 3.176359e+00 2.891920e+00 2.360252e+00 5.407991e+00 5.254477e-01 5.627551e-01 4.491812e-01 6.207166e-01 6.288685e-01 6.466658e-01 6.595779e-01 7.261450e-01 6.585346e-01 5.789423e-01 5.235013e-01 4.255914e-01 8.064143e-01
<GCONST> 1.334987e+02
<STATE> 3
<MEAN> 39
 3.851081e-01 -1.721438e+00 2.103531e-02 -7.041251e-01 -1.036263e+00 -2.108005e-01 1.583012e+00 9.303994e-01 2.928124e-01 -7.063770e-01 -1.276663e+00 -7.184072e-01 2.891688e+00 -6.495435e-02 6.379910e-02 -2.213664e-02 2.195025e-02 6.070477e-02 -1.686518e-02 4.675145e-02 -1.944361e-03 2.887362e-03 2.015980e-03 -4.533681e-03 1.019909e-02 -6.234442e-02 -1.684479e-02 1.525409e-02 -2.051815e-03 8.102900e-03 1.451921e-02 4.035634e-03 -4.504115e-03 -6.873931e-03 2.638440e-03 6.370467e-03 9.321823e-03 6.396261e-03 -2.579056e-02
<VARIANCE> 39
 7.303358e+01 6.177689e+01 5.655757e+01 5.624079e+01 6.334376e+01 5.258373e+01 5.687034e+01 5.959027e+01 5.159415e+01 4.082910e+01 3.942604e+01 3.155313e+01 1.072359e+02 3.733994e+00 3.776949e+00 2.869701e+00 3.787994e+00 3.841168e+00 3.742663e+00 3.837803e+00 4.260220e+00 3.734412e+00 3.186620e+00 2.910030e+00 2.371575e+00 5.470383e+00 5.387992e-01 5.784634e-01 4.549009e-01 6.282828e-01 6.346403e-01 6.502656e-01 6.617146e-01 7.281592e-01 6.630866e-01 5.808645e-01 5.271941e-01 4.281897e-01 8.218576e-01
<GCONST> 1.337775e+02
<STATE> 4
<MEAN> 39
 1.055784e-01 -1.446323e+00 -4.702188e-02 -5.785497e-01 -7.811876e-01 -2.424847e-01 1.677816e+00 8.809409e-01 3.086610e-01 -6.705540e-01 -1.237512e+00 -6.478872e-01 2.574849e+00 -1.040884e-01 1.061038e-01 -1.982169e-02 4.779964e-02 9.388676e-02 -4.712123e-03 2.309076e-02 -2.760668e-02 4.653834e-03 1.937840e-02 2.231600e-02 2.666954e-02 -1.388279e-01 -1.237784e-02 1.291816e-02 1.895509e-03 8.738646e-03 1.001082e-02 4.950419e-03 -6.630532e-03 -8.056425e-03 -2.930326e-04 5.362663e-03 9.855292e-03 6.184519e-03 -2.546830e-02
<VARIANCE> 39
 7.554884e+01 6.346461e+01 5.527869e+01 5.723950e+01 6.489624e+01 5.276987e+01 5.619497e+01 5.889335e+01 5.153014e+01 4.098616e+01 3.940044e+01 3.149774e+01 1.114065e+02 3.879862e+00 3.891291e+00 2.908977e+00 3.844048e+00 3.892162e+00 3.789046e+00 3.837505e+00 4.250252e+00 3.749610e+00 3.194556e+00 2.938957e+00 2.393743e+00 5.576597e+00 5.592418e-01 5.968454e-01 4.633050e-01 6.390367e-01 6.462651e-01 6.602881e-01 6.661933e-01 7.297008e-01 6.679541e-01 5.832604e-01 5.331232e-01 4.334802e-01 8.487975e-01
<GCONST> 1.342531e+02
<TRANSP> 5
 0.000000e+00 1.000000e+00 0.000000e+00 0.000000e+00 0.000000e+00
 0.000000e+00 5.889453e-01 4.110548e-01 0.000000e+00 0.000000e+00
 0.000000e+00 0.000000e+00 5.889452e-01 4.110548e-01 0.000000e+00
 0.000000e+00 0.000000e+00 0.000000e+00 6.900277e-01 3.099722e-01
 0.000000e+00 0.000000e+00 0.000000e+00 0.000000e+00 0.000000e+00
<ENDHMM>
~h "ah"
<BEGINHMM>
<NUMSTATES> 5
<STATE> 2
<MEAN> 39
 1.077697e+00 -5.032077e-01 -1.281098e+00 -1.221193e+00 4.306397e-01 7.220155e-01 -8.317813e-01 -3.249503e-01 7.008914e-01 3.314336e-01 -5.238686e-01 -6.735954e-01 1.671423e+00 2.445178e-02 -1.098639e-02 2.281236e-02 -4.420443e-02 -2.725185e-02 -2.644483e-02 -3.299145e-02 -1.679073e-02 -9.410483e-03 -3.353873e-03 -1.823676e-02 -1.302616e-02 1.077249e-01 -1.278353e-02 5.310581e-03 7.715311e-03 1.407128e-02 2.382814e-03 -1.403601e-03 6.509303e-03 1.569083e-03 -2.268239e-03 -2.528582e-03 1.391469e-03 5.878821e-03 -2.103581e-02
<VARIANCE> 39
 9.704252e+01 5.595503e+01 5.651501e+01 7.273682e+01 6.181989e+01 5.968296e+01 6.142890e+01 5.564786e+01 5.573281e+01 4.330529e+01 4.157711e+01 3.579844e+01 9.760841e+01 5.023703e+00 3.987460e+00 3.085066e+00 4.747446e+00 3.960246e+00 4.131106e+00 4.459325e+00 4.500827e+00 4.270118e+00 3.425320e+00 3.289647e+00 2.800649e+00 6.396428e+00 6.900218e-01 6.456856e-01 4.875357e-01 7.549859e-01 6.530594e-01 7.050825e-01 7.659427e-01 8.045049e-01 7.470595e-01 6.235198e-01 5.894555e-01 5.024407e-01 9.675724e-01
<GCONST> 1.377771e+02
<STATE> 3
<MEAN> 39
 1.078162e+00 -4.993516e-01 -1.203714e+00 -1.258164e+00 3.858675e-01 6.605951e-01 -8.740296e-01 -3.598589e-01 6.686538e-01 3.125447e-01 -5.589377e-01 -6.810996e-01 1.820644e+00 -9.387595e-03 6.205300e-03 4.231851e-02 -5.477796e-03 -1.915015e-02 -2.851181e-02 -1.268002e-02 -1.389445e-02 -1.728040e-02 -1.032241e-02 -1.258086e-02 2.408903e-03 4.593628e-02 -1.399425e-02 7.351256e-03 7.537866e-03 1.639543e-02 3.747232e-03 -6.987305e-04 8.776230e-03 1.413058e-03 -3.011939e-03 -3.575136e-03 2.414816e-03 6.473593e-03 -2.561689e-02
<VARIANCE> 39
 9.700109e+01 5.587560e+01 5.696322e+01 7.238874e+01 6.175793e+01 5.970501e+01 6.126206e+01 5.569062e+01 5.589660e+01 4.351824e+01 4.160788e+01 3.591662e+01 9.404177e+01 5.041902e+00 4.004521e+00 3.096381e+00 4.744476e+00 3.957911e+00 4.132186e+00 4.462518e+00 4.516491e+00 4.289382e+00 3.432480e+00 3.297188e+00 2.810571e+00 6.275034e+00 6.930888e-01 6.483871e-01 4.881037e-01 7.584105e-01 6.535260e-01 7.058622e-01 7.685733e-01 8.083454e-01 7.493394e-01 6.250886e-01 5.911259e-01 5.038517e-01 9.616310e-01
<GCONST> 1.377878e+02
<STATE> 4
<MEAN> 39
 9.645824e-01 -4.380988e-01 -1.055739e+00 -1.178072e+00 3.555977e-01 5.706041e-01 -8.594304e-01 -3.863639e-01 5.988936e-01 2.524441e-01 -5.764832e-01 -6.316518e-01 1.826871e+00 -4.455304e-02 2.607873e-02 5.980572e-02 3.579988e-02 -9.712274e-03 -2.942010e-02 1.329395e-02 -9.335340e-03 -2.854652e-02 -1.899389e-02 -2.700599e-03 1.968130e-02 -2.369698e-02 -1.064642e-02 5.750478e-03 5.155900e-03 1.281790e-02 3.040575e-03 -2.063993e-04 8.016207e-03 1.700674e-03 -3.129025e-03 -3.370178e-03 3.019498e-03 5.512816e-03 -2.077703e-02
<VARIANCE> 39
 9.722205e+01 5.578597e+01 5.769379e+01 7.217921e+01 6.207386e+01 5.976632e+01 6.128109e+01 5.566846e+01 5.577746e+01 4.341496e+01 4.144459e+01 3.577497e+01 9.293570e+01 5.020190e+00 3.972099e+00 3.091818e+00 4.677752e+00 3.937835e+00 4.117082e+00 4.432164e+00 4.492470e+00 4.265080e+00 3.414216e+00 3.274579e+00 2.785918e+00 6.065479e+00 6.904086e-01 6.437733e-01 4.866147e-01 7.529319e-01 6.500839e-01 7.034269e-01 7.658505e-01 8.041350e-01 7.441141e-01 6.220118e-01 5.878082e-01 4.994780e-01 9.469535e-01
<GCONST> 1.375900e+02
<TRANSP> 5
 0.000000e+00 1.000000e+00 0.000000e+00 0.000000e+00 0.000000e+00
 0.000000e+00 5.794112e-01 4.205887e-01 0.000000e+00 0.000000e+00
 0.000000e+00 0.000000e+00 5.794131e-01 4.205869e-01 0.000000e+00
 0.000000e+00 0.000000e+00 0.000000e+00 6.796415e-01 3.203585e-01
 0.000000e+00 0.000000e+00 0.000000e+00 0.000000e+00 0.000000e+00
<ENDHMM>
~h "ao"
<BEGINHMM>
<NUMSTATES> 5
<STATE> 2
<MEAN> 39
 3.953041e+00 -7.508613e-01 -3.506519e+00 -3.889494e+00 -8.087121e-02 2.566895e+00 -1.689132e-01 -9.030932e-01 4.117482e-01 3.327180e-01 6.341527e-01 -3.201312e-01 1.949831e+00 -2.369017e-03 -4.402308e-03 9.270687e-02 6.538500e-02 -1.961304e-02 -9.517744e-02 -5.699313e-02 2.260318e-02 -3.795247e-02 -2.297334e-02 -7.022468e-03 5.254847e-03 1.824245e-02 -6.766533e-03 2.150116e-03 4.340984e-03 8.391091e-03 1.294715e-04 -4.061410e-03 4.503764e-03 2.548956e-03 -6.031407e-04 5.949754e-04 -2.756958e-04 1.357900e-03 -9.008392e-03
<VARIANCE> 39
 9.141399e+01 4.674290e+01 1.073728e+02 1.029242e+02 7.009763e+01 8.087843e+01 7.699434e+01 5.695587e+01 6.114221e+01 4.494738e+01 3.939093e+01 3.298671e+01 6.216568e+01 4.039797e+00 2.674008e+00 3.603563e+00 4.705151e+00 4.013469e+00 4.351519e+00 4.509657e+00 3.863513e+00 3.903498e+00 3.234756e+00 2.905214e+00 2.441850e+00 3.421277e+00 5.237802e-01 4.169058e-01 4.708405e-01 6.322623e-01 6.329122e-01 6.710384e-01 7.073153e-01 6.735823e-01 6.657430e-01 5.773088e-01 5.183471e-01 4.383397e-01 5.231380e-01
<GCONST> 1.348310e+02
<STATE> 3
<MEAN> 39
 3.912604e+00 -7.436981e-01 -3.248385e+00 -3.691620e+00 -1.261619e-01 2.317799e+00 -2.976767e-01 -8.452268e-01 3.154597e-01 2.839648e-01 6.144432e-01 -3.007770e-01 1.947537e+00 -2.186066e-02 1.245435e-03 1.029451e-01 8.607099e-02 -1.916108e-02 -1.042858e-01 -4.390332e-02 2.853847e-02 -3.741963e-02 -2.089299e-02 -7.196171e-03 9.894707e-03 -6.069018e-03 -6.821800e-03 1.632979e-03 1.615575e-03 6.933620e-03 9.509181e-04 -2.670333e-03 5.930820e-03 2.832361e-03 1.947887e-03 9.945962e-04 5.435583e-05 2.168202e-03 -9.687473e-03
<VARIANCE> 39
 9.051598e+01 4.682607e+01 1.117199e+02 1.017982e+02 7.087067e+01 8.130445e+01 7.691449e+01 5.735228e+01 6.180267e+01 4.501243e+01 3.951590e+01 3.290993e+01 6.119122e+01 3.998288e+00 2.662982e+00 3.602000e+00 4.633924e+00 3.994723e+00 4.327944e+00 4.506378e+00 3.859150e+00 3.897409e+00 3.219220e+00 2.896506e+00 2.425610e+00 3.390055e+00 5.173381e-01 4.153737e-01 4.677148e-01 6.269099e-01 6.302382e-01 6.671072e-01 7.064524e-01 6.700621e-01 6.622793e-01 5.738386e-01 5.163103e-01 4.356981e-01 5.211464e-01
<GCONST> 1.347307e+02
<STATE> 4
<MEAN> 39
 3.783241e+00 -7.115058e-01 -2.916137e+00 -3.405603e+00 -1.655850e-01 2.015340e+00 -3.905981e-01 -7.690166e-01 2.290741e-01 2.298122e-01 5.866658e-01 -2.747794e-01 1.857036e+00 -4.819921e-02 7.458579e-03 1.101486e-01 1.077368e-01 -1.618353e-02 -1.117164e-01 -2.705131e-02 3.487089e-02 -2.928541e-02 -1.624165e-02 -7.644469e-03 1.745169e-02 -3.588197e-02 -6.656979e-03 6.393642e-04 -1.316324e-03 5.799085e-03 2.110255e-03 -2.017021e-03 5.367936e-03 3.469609e-03 4.761865e-03 1.233042e-03 -5.004452e-05 2.726486e-03 -8.698980e-03
<VARIANCE> 39
 8.989414e+01 4.704486e+01 1.151188e+02 1.011123e+02 7.169376e+01 8.198484e+01 7.665224e+01 5.782998e+01 6.214427e+01 4.484721e+01 3.954022e+01 3.278863e+01 6.216234e+01 3.906784e+00 2.648774e+00 3.564431e+00 4.513049e+00 3.948532e+00 4.273896e+00 4.468600e+00 3.837744e+00 3.864786e+00 3.182668e+00 2.871230e+00 2.399295e+00 3.369573e+00 5.051885e-01 4.131376e-01 4.611383e-01 6.166021e-01 6.229720e-01 6.582896e-01 7.007002e-01 6.624158e-01 6.542059e-01 5.668713e-01 5.112228e-01 4.314403e-01 5.215970e-01
<GCONST> 1.344940e+02
<TRANSP> 5
 0.000000e+00 1.000000e+00 0.000000e+00 0.000000e+00 0.000000e+00
 0.000000e+00 5.947024e-01 4.052977e-01 0.000000e+00 0.000000e+00
 0.000000e+00 0.000000e+00 5.947007e-01 4.052993e-01 0.000000e+00
 0.000000e+00 0.000000e+00 0.000000e+00 6.969091e-01 3.030910e-01
 0.000000e+00 0.000000e+00 0.000000e+00 0.000000e+00 0.000000e+00
<ENDHMM>
~h "aw"
<BEGINHMM>
<NUMSTATES> 5
<STATE> 2
<MEAN> 39
 2.769043e+00 -3.048654e+00 -2.731854e+00 -1.785053e+00 6.863601e-01 1.882668e+00 3.827533e-01 -3.402655e-01 6.080912e-01 -4.266544e-01 -1.030011e+00 -1.109217e+00 3.138359e+00 5.353367e-02 1.753132e-02 -1.762992e-02 -5.962175e-02 -1.649159e-02 5.974730e-03 -3.138428e-02 -2.346664e-02 -9.139834e-03 -3.915764e-03 -1.295833e-02 -2.423222e-02 7.570378e-02 -5.522629e-03 1.586504e-02 1.049285e-02 5.746086e-03 -3.194525e-03 -5.663149e-03 -4.814092e-03 -5.617219e-04 8.250960e-04 3.129844e-03 6.377145e-03 2.086474e-03 -1.926867e-02
<VARIANCE> 39
 7.850101e+01 6.558481e+01 6.131866e+01 6.921263e+01 5.957842e+01 6.311210e+01 6.367384e+01 5.812998e+01 4.970325e+01 4.310579e+01 4.050615e+01 3.484404e+01 9.551081e+01 3.768452e+00 3.773753e+00 2.851627e+00 4.018950e+00 3.703011e+00 3.708208e+00 3.809654e+00 4.189040e+00 3.644327e+00 3.002737e+00 3.059587e+00 2.447561e+00 5.056523e+00 5.208492e-01 5.716340e-01 4.236478e-01 6.391280e-01 6.102879e-01 6.082774e-01 6.382080e-01 7.202811e-01 6.379552e-01 5.328626e-01 5.435417e-01 4.320612e-01 7.314340e-01
<GCONST> 1.338902e+02
<STATE> 3
<MEAN> 39
 2.865632e+00 -2.920143e+00 -2.729146e+00 -1.899794e+00 6.321065e-01 1.879203e+00 2.787653e-01 -3.930624e-01 5.903726e-01 -4.229117e-01 -1.033992e+00 -1.149630e+00 3.207506e+00 3.343280e-02 5.591562e-02 9.014239e-03 -4.242032e-02 -2.359978e-02 -7.589515e-03 -4.020537e-02 -2.211893e-02 -8.693428e-03 3.239137e-03 4.023250e-03 -1.503490e-02 1.952505e-02 -7.108452e-03 1.380167e-02 9.918251e-03 7.433491e-03 -2.459204e-03 -6.128797e-03 -3.637013e-03 7.573093e-04 7.543666e-05 2.908509e-03 6.754902e-03 4.073851e-03 -2.153015e-02
<VARIANCE> 39
 7.816095e+01 6.615498e+01 6.202769e+01 6.933541e+01 6.052214e+01 6.311267e+01 6.371052e+01 5.788514e+01 5.012857e+01 4.306580e+01 4.082818e+01 3.475821e+01 9.166312e+01 3.780418e+00 3.768860e+00 2.880687e+00 4.065333e+00 3.740727e+00 3.749555e+00 3.832017e+00 4.198866e+00 3.678030e+00 3.027353e+00 3.084108e+00 2.462995e+00 4.986897e+00 5.191066e-01 5.733136e-01 4.279412e-01 6.487412e-01 6.150746e-01 6.135901e-01 6.408586e-01 7.251312e-01 6.442339e-01 5.370387e-01 5.486571e-01 4.350931e-01 7.271380e-01
<GCONST> 1.340425e+02
<STATE> 4
<MEAN> 39
 2.917643e+00 -2.631223e+00 -2.619657e+00 -1.990843e+00 5.164625e-01 1.781499e+00 1.233506e-01 -4.478971e-01 5.355096e-01 -4.007674e-01 -9.752765e-01 -1.146569e+00 3.138248e+00 -7.261282e-04 9.545426e-02 3.911558e-02 -1.487427e-02 -3.027191e-02 -2.674645e-02 -4.515366e-02 -1.501775e-02 -1.351912e-02 9.173370e-03 2.258203e-02 3.801138e-03 -5.034702e-02 -9.003548e-03 9.953069e-03 8.273082e-03 8.765106e-03 -1.618088e-03 -6.723166e-03 -1.050213e-03 1.497603e-03 -1.577538e-03 1.931230e-03 5.040865e-03 6.185464e-03 -1.893996e-02
<VARIANCE> 39
 7.895806e+01 6.662704e+01 6.336301e+01 7.072625e+01 6.198546e+01 6.341561e+01 6.378642e+01 5.767641e+01 5.088042e+01 4.302861e+01 4.117548e+01 3.477275e+01 8.989487e+01 3.769765e+00 3.722972e+00 2.911293e+00 4.117362e+00 3.786361e+00 3.792763e+00 3.851176e+00 4.183613e+00 3.702081e+00 3.054418e+00 3.101880e+00 2.477069e+00 4.893220e+00 5.143333e-01 5.677352e-01 4.319788e-01 6.575428e-01 6.200680e-01 6.199909e-01 6.427299e-01 7.253580e-01 6.490874e-01 5.413989e-01 5.530801e-01 4.395061e-01 7.263817e-01
<GCONST> 1.342299e+02
<TRANSP> 5
 0.000000e+00 1.000000e+00 0.000000e+00 0.000000e+00 0.000000e+00
 0.000000e+00 5.953443e-01 4.046557e-01 0.000000e+00 0.000000e+00
 0.000000e+00 0.000000e+00 5.953448e-01 4.046552e-01 0.000000e+00
 0.000000e+00 0.000000e+00 0.000000e+00 6.984515e-01 3.015486e-01
 0.000000e+00 0.000000e+00 0.000000e+00 0.000000e+00 0.000000e+00
<ENDHMM>
~h "ax"
<BEGINHMM>
<NUMSTATES> 5
<STATE> 2
<MEAN> 39
 1.300301e+00 4.975898e-01 -1.265393e+00 -1.454949e+00 4.951997e-01 7.980019e-01 -6.085019e-01 -1.144074e+00 3.724357e-01 4.935797e-01 -1.981694e-01 -5.031388e-01 1.035208e+00 6.779738e-02 -1.317743e-02 -8.512148e-03 -4.664615e-02 -1.159276e-02 -9.603189e-03 -2.218053e-02 -2.288192e-02 -2.042829e-02 -8.693268e-03 -1.257703e-02 -8.702518e-03 1.082556e-01 -7.137962e-03 -2.537192e-03 5.763273e-03 7.323132e-03 -5.994253e-04 7.617227e-04 4.439198e-03 6.146499e-03 -3.553995e-03 -1.821495e-03 3.636279e-03 1.987843e-03 -1.060067e-02
<VARIANCE> 39
 9.608389e+01 5.178816e+01 5.552455e+01 7.832977e+01 6.071807e+01 6.188419e+01 6.445078e+01 5.639383e+01 5.257352e+01 4.087499e+01 3.889307e+01 3.274357e+01 8.622337e+01 5.465120e+00 3.687384e+00 3.036170e+00 4.806925e+00 3.964485e+00 4.179243e+00 4.743121e+00 4.445172e+00 4.200093e+00 3.448696e+00 3.234132e+00 2.653931e+00 5.997402e+00 7.824960e-01 6.280876e-01 4.969041e-01 7.854178e-01 6.653521e-01 7.231413e-01 8.350257e-01 7.965956e-01 7.587227e-01 6.477556e-01 5.961238e-01 4.878702e-01 9.889311e-01
<GCONST> 1.376835e+02
<STATE> 3
<MEAN> 39
 1.418061e+00 4.608193e-01 -1.269848e+00 -1.533146e+00 4.760122e-01 7.899427e-01 -6.320828e-01 -1.174164e+00 3.179259e-01 4.645929e-01 -2.113336e-01 -5.137159e-01 1.226322e+00 4.329048e-02 -1.860262e-02 4.511238e-03 -2.635413e-02 -9.888300e-03 -5.938561e-03 -8.207824e-03 -6.749687e-03 -2.694184e-02 -1.296712e-02 -2.654182e-03 -3.183914e-03 7.389573e-02 -1.136875e-02 -1.979296e-03 5.612708e-03 9.079480e-03 5.548580e-04 1.550044e-03 6.213417e-03 7.184797e-03 -1.898304e-03 -2.113930e-03 4.064239e-03 2.428784e-03 -1.497171e-02
<VARIANCE> 39
 9.578926e+01 5.225042e+01 5.609661e+01 7.854532e+01 6.131525e+01 6.203837e+01 6.455590e+01 5.667726e+01 5.289182e+01 4.102014e+01 3.889093e+01 3.290578e+01 8.279231e+01 5.408884e+00 3.695155e+00 3.038822e+00 4.821806e+00 3.975147e+00 4.174929e+00 4.725545e+00 4.449664e+00 4.216715e+00 3.447896e+00 3.228811e+00 2.654726e+00 5.928731e+00 7.745472e-01 6.283588e-01 4.942134e-01 7.865804e-01 6.673670e-01 7.217765e-01 8.317686e-01 7.967070e-01 7.605487e-01 6.471698e-01 5.950392e-01 4.879814e-01 9.866054e-01
<GCONST> 1.376618e+02
<STATE> 4
<MEAN> 39
 1.483896e+00 3.742883e-01 -1.230328e+00 -1.575860e+00 4.291111e-01 7.781920e-01 -6.246823e-01 -1.136401e+00 2.424331e-01 4.020751e-01 -1.917475e-01 -5.073041e-01 1.402129e+00 1.192442e-02 -2.778070e-02 1.509752e-02 -4.395596e-03 -7.952417e-03 -3.949816e-03 6.416581e-03 1.460428e-02 -2.530536e-02 -1.802297e-02 7.342913e-03 3.535418e-03 3.587496e-02 -1.039455e-02 -3.231854e-03 3.638272e-03 7.545063e-03 3.658665e-05 3.680816e-04 4.570751e-03 7.695614e-03 1.356594e-03 -1.829258e-03 2.967625e-03 2.321657e-03 -1.158803e-02
<VARIANCE> 39
 9.587562e+01 5.297726e+01 5.724282e+01 7.902454e+01 6.250264e+01 6.248314e+01 6.454880e+01 5.710830e+01 5.313178e+01 4.115887e+01 3.878941e+01 3.299160e+01 8.197593e+01 5.248583e+00 3.664409e+00 3.031893e+00 4.771512e+00 3.965588e+00 4.141053e+00 4.640966e+00 4.419515e+00 4.185918e+00 3.415072e+00 3.189582e+00 2.629899e+00 5.771202e+00 7.499440e-01 6.189134e-01 4.873317e-01 7.747959e-01 6.638876e-01 7.135907e-01 8.152564e-01 7.896157e-01 7.531852e-01 6.395108e-01 5.874906e-01 4.830832e-01 9.670059e-01
<GCONST> 1.373958e+02
<TRANSP> 5
 0.000000e+00 1.000000e+00 0.000000e+00 0.000000e+00 0.000000e+00
 0.000000e+00 5.755227e-01 4.244774e-01 0.000000e+00 0.000000e+00
 0.000000e+00 0.000000e+00 5.755196e-01 4.244804e-01 0.000000e+00
 0.000000e+00 0.000000e+00 0.000000e+00 6.748800e-01 3.251200e-01
 0.000000e+00 0.000000e+00 0.000000e+00 0.000000e+00 0.000000e+00
<ENDHMM>
~h "ay"
<BEGINHMM>
<NUMSTATES> 5
<STATE> 2
<MEAN> 39
 9.365689e-01 -1.536618e+00 -1.687107e+00 -6.251801e-01 6.123081e-01 6.696601e-01 1.333120e+00 1.483430e-01 9.889361e-01 -3.122460e-01 -7.527031e-01 -7.872835e-01 1.623275e+00 -3.726004e-02 -2.830347e-02 2.621327e-02 3.623468e-03 -2.059556e-02 -4.833652e-02 1.346443e-02 4.695412e-02 3.656133e-03 -2.914045e-02 -2.254361e-02 1.151759e-02 4.777347e-02 -3.744060e-03 3.512684e-03 5.218504e-03 3.863654e-03 -3.383336e-03 -2.385772e-03 -3.208594e-03 5.066731e-04 -1.949923e-03 1.246102e-03 6.308060e-04 2.752690e-03 -8.944397e-03
<VARIANCE> 39
 8.162041e+01 6.855396e+01 6.228723e+01 6.929970e+01 6.424321e+01 6.209543e+01 5.558304e+01 5.739216e+01 5.295907e+01 3.965569e+01 3.915475e+01 3.418011e+01 1.110456e+02 4.116969e+00 3.854130e+00 3.492354e+00 4.360186e+00 4.445198e+00 4.248636e+00 3.741276e+00 4.330067e+00 3.947453e+00 3.061025e+00 3.015535e+00 2.588500e+00 5.861732e+00 5.861616e-01 5.671328e-01 5.401950e-01 6.874851e-01 7.303374e-01 6.968833e-01 6.444498e-01 7.468463e-01 6.887054e-01 5.568171e-01 5.426359e-01 4.607805e-01 8.470915e-01
<GCONST> 1.361119e+02
<STATE> 3
<MEAN> 39
 8.120835e-01 -1.566707e+00 -1.590039e+00 -5.812372e-01 5.520373e-01 5.423209e-01 1.358417e+00 2.644884e-01 9.870669e-01 -3.715851e-01 -7.989326e-01 -7.448047e-01 1.669178e+00 -4.791851e-02 -1.350434e-02 3.898674e-02 1.575230e-02 -2.771062e-02 -5.378614e-02 6.490579e-03 4.453616e-02 -2.188301e-03 -2.361308e-02 -2.031414e-02 1.824928e-02 1.820713e-02 -2.892012e-03 5.517601e-03 4.950409e-03 4.716548e-03 -3.378005e-03 -1.631842e-03 -3.158548e-03 -1.359713e-03 -2.273494e-03 2.792832e-03 7.115157e-04 2.368031e-03 -1.177383e-02
<VARIANCE> 39
 8.204704e+01 6.851122e+01 6.193979e+01 6.811900e+01 6.450993e+01 6.163947e+01 5.559053e+01 5.726591e+01 5.290356e+01 3.950900e+01 3.904376e+01 3.408589e+01 1.103192e+02 4.103362e+00 3.816754e+00 3.432216e+00 4.253482e+00 4.430714e+00 4.202527e+00 3.722723e+00 4.293968e+00 3.909979e+00 3.037458e+00 2.983449e+00 2.556882e+00 5.800913e+00 5.851902e-01 5.635146e-01 5.313963e-01 6.767648e-01 7.260355e-01 6.904852e-01 6.411988e-01 7.415164e-01 6.819364e-01 5.531386e-01 5.378223e-01 4.555646e-01 8.493643e-01
<GCONST> 1.358365e+02
<STATE> 4
<MEAN> 39
 6.354744e-01 -1.520681e+00 -1.403156e+00 -4.897409e-01 4.465617e-01 3.707759e-01 1.342654e+00 3.750600e-01 9.367970e-01 -4.131546e-01 -8.420647e-01 -6.725975e-01 1.632971e+00 -5.741693e-02 1.236270e-02 4.999465e-02 2.932033e-02 -3.171768e-02 -5.629968e-02 -1.162402e-03 3.457839e-02 -1.055422e-02 -1.203626e-02 -1.571676e-02 2.617937e-02 -2.380194e-02 -6.290877e-04 6.527601e-03 2.882284e-03 3.171102e-03 -1.863074e-03 -1.191136e-04 -3.088897e-03 -3.328856e-03 -2.335423e-03 3.560330e-03 1.019403e-03 1.918415e-03 -1.151780e-02
<VARIANCE> 39
 8.220262e+01 6.819407e+01 6.143723e+01 6.669153e+01 6.498753e+01 6.089134e+01 5.565665e+01 5.699015e+01 5.278467e+01 3.939540e+01 3.891125e+01 3.388886e+01 1.109798e+02 4.044530e+00 3.732161e+00 3.325244e+00 4.098218e+00 4.379212e+00 4.113570e+00 3.694481e+00 4.223390e+00 3.836986e+00 3.009182e+00 2.932156e+00 2.503127e+00 5.657985e+00 5.772575e-01 5.549097e-01 5.153896e-01 6.583851e-01 7.147448e-01 6.765811e-01 6.362643e-01 7.301834e-01 6.691785e-01 5.488665e-01 5.300814e-01 4.466755e-01 8.427994e-01
<GCONST> 1.353180e+02
<TRANSP> 5
 0.000000e+00 1.000000e+00 0.000000e+00 0.000000e+00 0.000000e+00
 0.000000e+00 5.895214e-01 4.104785e-01 0.000000e+00 0.000000e+00
 0.000000e+00 0.000000e+00 5.895243e-01 4.104757e-01 0.000000e+00
 0.000000e+00 0.000000e+00 0.000000e+00 6.911620e-01 3.088379e-01
 0.000000e+00 0.000000e+00 0.000000e+00 0.000000e+00 0.000000e+00
<ENDHMM>
~h "ch"
<BEGINHMM>
<NUMSTATES> 5
<STATE> 2
<MEAN> 39
 -3.104790e+00 -5.233939e-01 2.400376e+00 -8.084004e-02 -4.242271e-01 2.725756e-01 5.930240e-02 4.560135e-01 3.110290e-01 -3.043989e-01 3.385232e-01 3.998698e-01 1.230141e+00 6.185627e-02 -4.021095e-03 -1.076796e-01 2.638812e-02 5.623677e-02 -5.388573e-03 9.167253e-04 1.855761e-02 4.113221e-02 7.912912e-03 -1.499147e-02 -3.000125e-03 -3.277101e-02 1.767193e-02 -3.182123e-03 -8.710224e-03 -5.583946e-03 -4.008770e-03 -2.005484e-03 -5.800847e-03 -2.924693e-03 -4.679461e-03 -1.072587e-03 -9.278596e-04 -1.829171e-03 8.226645e-03
<VARIANCE> 39
 1.352854e+02 5.316071e+01 6.970900e+01 6.022272e+01 6.562515e+01 6.157133e+01 6.457736e+01 5.120942e+01 5.078135e+01 3.822754e+01 3.586816e+01 2.895196e+01 9.683871e+01 6.948337e+00 3.637304e+00 3.351523e+00 4.112707e+00 4.157079e+00 4.448770e+00 4.777461e+00 3.871184e+00 3.577955e+00 3.092110e+00 2.810772e+00 2.253702e+00 6.652172e+00 8.652105e-01 6.317368e-01 5.246965e-01 7.250599e-01 6.722677e-01 7.359405e-01 8.063927e-01 6.919294e-01 6.215160e-01 5.729509e-01 5.083677e-01 4.126355e-01 1.153159e+00
<GCONST> 1.369212e+02
<STATE> 3
<MEAN> 39
 -2.868852e+00 -5.511746e-01 2.111995e+00 -4.042804e-02 -3.133411e-01 2.322978e-01 3.706236e-02 4.993516e-01 3.850999e-01 -2.966896e-01 2.907951e-01 3.837351e-01 1.196163e+00 9.849241e-02 -8.118468e-03 -1.224790e-01 1.360583e-02 4.690052e-02 -9.919141e-03 -1.105387e-02 1.145811e-02 2.622010e-02 7.308840e-03 -1.685338e-02 -7.053358e-03 -1.566465e-02 1.338147e-02 -2.426680e-03 -3.205385e-03 -7.249313e-03 -5.078670e-03 -1.957236e-03 -6.074938e-03 -3.370340e-03 -6.586864e-03 2.235403e-04 3.154204e-05 -2.531566e-03 9.749891e-03
<VARIANCE> 39
 1.345117e+02 5.361438e+01 6.934056e+01 6.028119e+01 6.595928e+01 6.144226e+01 6.502460e+01 5.154372e+01 5.052755e+01 3.839335e+01 3.581844e+01 2.911350e+01 9.688031e+01 6.875755e+00 3.623116e+00 3.316872e+00 4.086890e+00 4.148446e+00 4.414862e+00 4.759643e+00 3.879390e+00 3.559002e+00 3.085412e+00 2.787292e+00 2.255694e+00 6.602246e+00 8.622231e-01 6.239999e-01 5.184317e-01 7.152089e-01 6.685843e-01 7.315603e-01 8.024902e-01 6.912987e-01 6.173199e-01 5.715004e-01 5.030789e-01 4.118161e-01 1.127925e+00
<GCONST> 1.367724e+02
<STATE> 4
<MEAN> 39
 -2.432753e+00 -5.738372e-01 1.739232e+00 -4.957562e-02 -2.223590e-01 1.760828e-01 -3.661654e-02 5.149035e-01 4.105142e-01 -2.877093e-01 2.181823e-01 3.240683e-01 1.219891e+00 1.312506e-01 -7.411422e-03 -1.288145e-01 2.673226e-03 3.847857e-02 -1.416392e-02 -2.131589e-02 3.575698e-03 7.378941e-03 1.073669e-02 -1.930589e-02 -1.517685e-02 -8.283980e-03 9.522493e-03 -8.909056e-04 4.018461e-04 -4.808308e-03 -3.723356e-03 -1.403527e-03 -4.778191e-03 -2.430698e-03 -5.493883e-03 1.874817e-03 1.962371e-04 -3.886835e-03 3.929998e-03
<VARIANCE> 39
 1.324864e+02 5.458537e+01 6.933009e+01 6.083230e+01 6.667922e+01 6.151163e+01 6.600005e+01 5.240068e+01 5.044531e+01 3.873325e+01 3.592162e+01 2.955580e+01 9.787688e+01 6.678545e+00 3.572232e+00 3.266081e+00 4.021447e+00 4.126006e+00 4.359988e+00 4.705777e+00 3.895265e+00 3.534742e+00 3.073021e+00 2.764656e+00 2.259029e+00 6.410682e+00 8.426332e-01 6.075340e-01 5.077775e-01 6.970465e-01 6.624954e-01 7.225909e-01 7.910414e-01 6.899157e-01 6.134892e-01 5.688937e-01 4.977070e-01 4.110270e-01 1.074686e+00
<GCONST> 1.365100e+02
<TRANSP> 5
 0.000000e+00 1.000000e+00 0.000000e+00 0.000000e+00 0.000000e+00
 0.000000e+00 5.846639e-01 4.153361e-01 0.000000e+00 0.000000e+00
 0.000000e+00 0.000000e+00 5.846615e-01 4.153384e-01 0.000000e+00
 0.000000e+00 0.000000e+00 0.000000e+00 6.855947e-01 3.144053e-01
 0.000000e+00 0.000000e+00 0.000000e+00 0.000000e+00 0.000000e+00
<ENDHMM>
~h "dh"
<BEGINHMM>
<NUMSTATES> 5
<STATE> 2
<MEAN> 39
 -1.851860e+00 1.316710e+00 -3.800867e-01 1.842788e+00 1.161772e+00 5.694399e-01 1.182330e+00 1.634503e-01 1.287309e+00 5.160686e-01 -3.003970e-01 2.592748e-01 -4.270746e+00 1.136814e-01 -2.564079e-02 3.025394e-02 -9.803962e-02 -9.052818e-02 -1.117334e-01 -9.327270e-02 -5.796598e-02 -2.867762e-02 -2.130187e-02 -6.232977e-02 -4.241838e-02 3.772787e-01 2.409091e-02 -1.747940e-02 -4.057500e-03 -2.284607e-02 -2.722311e-02 -2.377728e-02 -1.695667e-02 -1.806594e-03 -3.364981e-03 -9.902054e-03 -4.237080e-03 1.286768e-03 6.703226e-02
<VARIANCE> 39
 7.565160e+01 4.643141e+01 4.381290e+01 6.347936e+01 5.639322e+01 5.492765e+01 5.604052e+01 4.668382e+01 4.554207e+01 3.569166e+01 3.725215e+01 2.940923e+01 1.626301e+02 3.697416e+00 2.995145e+00 2.621398e+00 3.530402e+00 3.593596e+00 3.608344e+00 3.728758e+00 3.508297e+00 3.347882e+00 2.788931e+00 2.658260e+00 2.231078e+00 6.385367e+00 5.579184e-01 5.068759e-01 4.530316e-01 6.035890e-01 6.095954e-01 6.294781e-01 6.651866e-01 6.337496e-01 6.128013e-01 5.240967e-01 4.928527e-01 4.155247e-01 9.682254e-01
<GCONST> 1.316602e+02
<STATE> 3
<MEAN> 39
 -1.470211e+00 1.173027e+00 -3.171160e-01 1.507753e+00 8.220688e-01 2.173991e-01 8.943142e-01 3.132643e-02 1.208471e+00 4.256732e-01 -4.594310e-01 1.662235e-01 -3.080678e+00 1.635697e-01 -5.854916e-02 3.164171e-02 -1.389412e-01 -1.437078e-01 -1.481177e-01 -1.244620e-01 -5.698042e-02 -3.606066e-02 -3.864986e-02 -6.318338e-02 -3.800358e-02 4.964090e-01 1.874864e-02 -1.212410e-02 2.546431e-03 -1.462112e-02 -1.976882e-02 -1.329116e-02 -1.241161e-02 1.132006e-04 -4.057780e-03 -6.008395e-03 1.082854e-03 2.282321e-03 4.208873e-02
<VARIANCE> 39
 7.631999e+01 4.764551e+01 4.576179e+01 6.290800e+01 5.828679e+01 5.546872e+01 5.721460e+01 4.755379e+01 4.610980e+01 3.648106e+01 3.756380e+01 2.958362e+01 1.502906e+02 3.967606e+00 3.138186e+00 2.743665e+00 3.726429e+00 3.832997e+00 3.839815e+00 3.984772e+00 3.612902e+00 3.474501e+00 2.868144e+00 2.747673e+00 2.288362e+00 7.199806e+00 5.960892e-01 5.337284e-01 4.722933e-01 6.339654e-01 6.439849e-01 6.656076e-01 7.070657e-01 6.517302e-01 6.348243e-01 5.389614e-01 5.079094e-01 4.261712e-01 1.065714e+00
<GCONST> 1.330866e+02
<STATE> 4
<MEAN> 39
 -9.325581e-01 9.107215e-01 -1.842643e-01 1.028417e+00 3.246693e-01 -2.361573e-01 4.972378e-01 -1.050061e-01 1.056686e+00 2.898684e-01 -6.003295e-01 8.155127e-02 -1.457143e+00 1.644844e-01 -7.215968e-02 4.356780e-02 -1.393136e-01 -1.448787e-01 -1.275508e-01 -1.216800e-01 -4.646708e-02 -5.062892e-02 -4.304275e-02 -4.329329e-02 -2.678045e-02 4.651071e-01 -3.598683e-03 -2.240057e-03 4.512328e-03 2.626628e-03 3.023358e-03 8.225035e-03 2.015562e-03 2.688390e-03 -5.899169e-03 -2.883394e-04 7.416877e-03 3.885749e-03 -1.864024e-02
<VARIANCE> 39
 7.753426e+01 4.930974e+01 4.923807e+01 6.260085e+01 6.135887e+01 5.662686e+01 5.892607e+01 4.908245e+01 4.728816e+01 3.773323e+01 3.790839e+01 3.011129e+01 1.330748e+02 4.219656e+00 3.302346e+00 2.869430e+00 3.918342e+00 4.059660e+00 4.057819e+00 4.242125e+00 3.742700e+00 3.627520e+00 2.970940e+00 2.844834e+00 2.356552e+00 7.647745e+00 6.259216e-01 5.608000e-01 4.852929e-01 6.616624e-01 6.739264e-01 6.990837e-01 7.463823e-01 6.725556e-01 6.584799e-01 5.554660e-01 5.226460e-01 4.380102e-01 1.117230e+00
<GCONST> 1.344416e+02
<TRANSP> 5
 0.000000e+00 1.000000e+00 0.000000e+00 0.000000e+00 0.000000e+00
 0.000000e+00 5.856227e-01 4.143772e-01 0.000000e+00 0.000000e+00
 0.000000e+00 0.000000e+00 5.856238e-01 4.143762e-01 0.000000e+00
 0.000000e+00 0.000000e+00 0.000000e+00 6.864742e-01 3.135258e-01
 0.000000e+00 0.000000e+00 0.000000e+00 0.000000e+00 0.000000e+00
<ENDHMM>
~h "dx"
<BEGINHMM>
<NUMSTATES> 5
<STATE> 2
<MEAN> 39
 3.030395e+00 -1.266864e+00 -2.148436e-01 -1.417781e+00 -1.884423e+00 -1.735841e-01 -1.093063e+00 -4.444513e-01 1.024783e-01 2.357532e-01 1.819992e-01 -3.836843e-01 2.416680e+00 -4.678289e-02 2.777609e-02 6.493770e-02 -1.058661e-02 1.272015e-02 2.577032e-02 3.701181e-02 -9.256932e-03 -2.573225e-02 -1.006476e-02 -1.401413e-02 1.620747e-02 -4.885786e-02 -1.612207e-02 9.243756e-03 -1.725139e-03 5.535875e-03 1.386803e-02 3.210837e-03 7.919026e-03 -1.210518e-04 -1.559192e-03 5.989948e-04 7.091680e-05 2.133211e-03 -1.358757e-02
<VARIANCE> 39
 7.748553e+01 5.061414e+01 1.081692e+02 8.092686e+01 7.770093e+01 7.424922e+01 7.672667e+01 6.046109e+01 6.564975e+01 4.459231e+01 3.947222e+01 3.210067e+01 7.197374e+01 3.449967e+00 3.099740e+00 3.423951e+00 4.443507e+00 4.731105e+00 4.234670e+00 4.820157e+00 4.426222e+00 4.207957e+00 3.375999e+00 3.129068e+00 2.487426e+00 4.877867e+00 4.878581e-01 5.341267e-01 5.028675e-01 7.222303e-01 7.859691e-01 6.919696e-01 7.795525e-01 7.983032e-01 7.400998e-01 6.203508e-01 5.803124e-01 4.573931e-01 8.563856e-01
<GCONST> 1.372732e+02
<STATE> 3
<MEAN> 39
 2.879019e+00 -1.174339e+00 -7.885738e-02 -1.438749e+00 -1.808921e+00 -9.634329e-02 -9.819958e-01 -4.629455e-01 3.947701e-02 2.165623e-01 1.525124e-01 -3.371150e-01 2.263647e+00 -7.887022e-02 4.614271e-02 6.065782e-02 4.629964e-05 4.177331e-02 3.066579e-02 5.172922e-02 -8.909836e-03 -3.031241e-02 -8.399936e-03 -1.321600e-02 2.050176e-02 -7.400785e-02 -1.237765e-02 6.627779e-03 -1.890532e-03 5.084036e-03 1.148263e-02 3.613142e-04 4.374081e-03 9.432753e-04 -1.888216e-03 9.925917e-04 7.768137e-04 1.646759e-03 -9.906804e-03
<VARIANCE> 39
 7.749623e+01 5.048811e+01 1.066576e+02 8.229057e+01 7.707282e+01 7.554518e+01 7.693435e+01 6.043527e+01 6.514204e+01 4.451374e+01 3.960812e+01 3.204697e+01 7.325745e+01 3.440543e+00 3.121765e+00 3.456664e+00 4.423409e+00 4.689242e+00 4.247714e+00 4.784196e+00 4.418223e+00 4.201089e+00 3.383426e+00 3.112360e+00 2.469327e+00 4.946756e+00 4.854438e-01 5.391400e-01 5.037112e-01 7.193851e-01 7.798365e-01 6.942987e-01 7.739857e-01 7.956682e-01 7.372757e-01 6.208587e-01 5.761545e-01 4.539476e-01 8.721410e-01
<GCONST> 1.372786e+02
<STATE> 4
<MEAN> 39
 2.647995e+00 -1.032063e+00 4.012469e-03 -1.460390e+00 -1.611491e+00 2.185463e-02 -8.181294e-01 -4.693726e-01 -3.070117e-02 2.066802e-01 1.288338e-01 -2.736264e-01 2.032289e+00 -1.000317e-01 5.676318e-02 5.413199e-02 8.500986e-03 6.425700e-02 2.866227e-02 5.669729e-02 -4.455455e-03 -3.420333e-02 -6.442464e-03 -1.002348e-02 2.381355e-02 -8.860214e-02 -6.919544e-03 2.833745e-03 -1.375279e-03 4.579142e-03 6.698593e-03 -2.994721e-03 -1.505410e-04 2.308832e-03 -1.346222e-03 6.945779e-04 1.231348e-03 9.971493e-04 -5.107102e-03
<VARIANCE> 39
 7.866843e+01 5.041637e+01 1.045759e+02 8.405986e+01 7.636741e+01 7.724047e+01 7.712547e+01 6.054639e+01 6.428101e+01 4.439737e+01 3.970073e+01 3.197907e+01 7.557734e+01 3.446761e+00 3.134637e+00 3.480240e+00 4.379498e+00 4.611084e+00 4.253709e+00 4.713841e+00 4.387701e+00 4.168871e+00 3.379576e+00 3.076816e+00 2.441965e+00 5.007545e+00 4.835437e-01 5.403834e-01 5.019953e-01 7.097433e-01 7.658771e-01 6.944733e-01 7.619396e-01 7.862714e-01 7.284353e-01 6.182601e-01 5.675123e-01 4.483509e-01 8.814065e-01
<GCONST> 1.371757e+02
<TRANSP> 5
 0.000000e+00 1.000000e+00 0.000000e+00 0.000000e+00 0.000000e+00
 0.000000e+00 5.806375e-01 4.193625e-01 0.000000e+00 0.000000e+00
 0.000000e+00 0.000000e+00 5.806367e-01 4.193632e-01 0.000000e+00
 0.000000e+00 0.000000e+00 0.000000e+00 6.804031e-01 3.195969e-01
 0.000000e+00 0.000000e+00 0.000000e+00 0.000000e+00 0.000000e+00
<ENDHMM>
~h "eh"
<BEGINHMM>
<NUMSTATES> 5
<STATE> 2
<MEAN> 39
 1.095787e+00 -1.079797e+00 7.579618e-01 -6.660109e-01 -1.687917e+00 -1.276688e+00 -3.595102e-01 9.970222e-01 1.081423e-01 -1.449393e-01 -1.398575e-01 -1.117642e-01 2.604489e+00 7.420540e-02 -4.383547e-02 -3.055785e-02 -3.528287e-02 -2.870370e-02 -2.842890e-02 -3.123550e-02 1.199184e-02 -2.533508e-03 -8.408908e-03 -8.381425e-03 -1.010158e-02 9.307710e-02 -1.272629e-02 6.407505e-03 -2.849357e-03 7.223223e-03 1.084693e-02 7.731131e-03 3.523684e-03 -4.006745e-03 1.737728e-03 8.003555e-04 1.068228e-03 2.254603e-03 -1.958146e-02
<VARIANCE> 39
 8.895681e+01 5.444896e+01 6.336273e+01 6.531162e+01 6.774674e+01 6.460727e+01 6.749167e+01 6.569795e+01 5.544595e+01 4.032043e+01 3.785285e+01 3.058289e+01 8.790462e+01 4.539125e+00 3.737887e+00 3.174480e+00 4.129704e+00 4.294662e+00 4.073627e+00 4.475262e+00 4.848142e+00 4.130230e+00 3.256963e+00 2.990556e+00 2.435988e+00 5.675905e+00 6.286537e-01 6.025897e-01 4.849345e-01 6.747032e-01 6.950424e-01 6.886958e-01 7.591849e-01 8.326619e-01 7.202761e-01 5.971065e-01 5.410729e-01 4.437388e-01 8.751878e-01
