~o
<STREAMINFO> 1 39
<VECSIZE> 39<NULLD><MFCC_D_A_Z_0><DIAGC>
~h "b"
<BEGINHMM>
<NUMSTATES> 5
<STATE> 2
<NUMMIXES> 17
<MIXTURE> 1 4.445177e-02
<MEAN> 39
 -8.044092e+00 5.592291e+00 1.400748e+00 1.048932e+01 7.494524e+00 6.671439e+00 5.384469e+00 2.837078e+00 4.417071e+00 2.406650e+00 3.711525e+00 1.857881e+00 -2.142988e+01 -1.091207e+00 -5.675036e-01 -1.475255e-01 1.221009e-01 1.512975e-01 4.850851e-01 7.835735e-01 1.148324e+00 1.221726e+00 1.114696e+00 1.066606e+00 8.094609e-01 -5.332124e-01 7.852753e-01 5.101845e-02 1.454699e-01 -5.481623e-01 -4.202699e-01 -6.391481e-01 -6.514927e-01 -6.093010e-01 -4.947300e-01 -4.507461e-01 -4.101557e-01 -3.020967e-01 1.499876e+00
<VARIANCE> 39
 5.983028e+00 8.773825e+00 9.222237e+00 1.505227e+01 1.467350e+01 1.705812e+01 2.011714e+01 1.896999e+01 2.327660e+01 1.751830e+01 2.234342e+01 1.225163e+01 6.747587e+00 1.049818e+00 1.281637e+00 1.667701e+00 1.707354e+00 1.438548e+00 1.645877e+00 1.625479e+00 2.063457e+00 1.920470e+00 1.841835e+00 1.525926e+00 1.728788e+00 6.111141e-01 3.044927e-01 2.726908e-01 2.351543e-01 4.745651e-01 3.854120e-01 5.522083e-01 4.492416e-01 4.673061e-01 5.008220e-01 4.208494e-01 3.282584e-01 2.771042e-01 9.239588e-01
<GCONST> 9.890331e+01
<MIXTURE> 2 7.802269e-02
<MEAN> 39
 -3.209811e+00 1.090221e+01 6.898584e+00 1.365763e+01 7.585221e+00 4.929228e+00 -5.667509e-01 -3.670112e+00 -2.399114e+00 -4.517815e+00 -1.887318e+00 -3.478684e+00 -1.948676e+01 -2.258421e+00 -2.995080e+00 -1.550602e+00 -1.200665e+00 8.145048e-02 5.975322e-01 1.923131e+00 2.850380e+00 2.774939e+00 1.957142e+00 1.697118e+00 1.323919e+00 2.130012e+00 1.214404e+00 -9.050329e-01 -9.418996e-01 -1.576809e+00 -9.152775e-01 -8.297400e-01 -3.401186e-01 -3.556247e-02 1.428416e-01 6.302056e-01 2.907132e-01 2.945669e-01 2.224935e+00
<VARIANCE> 39
 1.180825e+01 1.035311e+01 1.284987e+01 1.473713e+01 1.621863e+01 1.792336e+01 2.649745e+01 2.390835e+01 2.123304e+01 1.875234e+01 1.776134e+01 1.575803e+01 9.271652e+00 1.258110e+00 1.693072e+00 1.457581e+00 2.345177e+00 1.573494e+00 2.483880e+00 3.027640e+00 3.003486e+00 2.836119e+00 2.672659e+00 2.503576e+00 2.239166e+00 7.584971e+00 4.285152e-01 3.478628e-01 6.559814e-01 6.703576e-01 5.176039e-01 6.736604e-01 5.129498e-01 6.205375e-01 6.274034e-01 5.588306e-01 5.043009e-01 4.311576e-01 5.541809e-01
<GCONST> 1.109428e+02
<MIXTURE> 3 8.314312e-02
<MEAN> 39
 3.599056e+00 1.225506e+01 2.738195e+00 9.881509e+00 6.725896e+00 2.717058e+00 -9.198933e-02 -8.211022e+00 -7.000308e+00 -3.255575e+00 -5.963027e-01 -1.667193e+00 -1.486544e+01 -6.983926e-02 -1.125883e-01 7.012043e-02 -1.406116e-02 5.365862e-01 5.148247e-01 1.595251e-01 -1.368461e-02 1.921123e-01 2.256123e-02 3.369506e-01 3.636753e-01 3.482520e-01 -2.273238e-01 -5.792696e-01 -1.739897e-01 -3.920757e-01 -3.327556e-01 -2.456603e-01 1.109158e-02 4.024183e-01 5.946336e-01 3.131695e-01 -1.245642e-03 5.211248e-02 5.805507e-01
<VARIANCE> 39
 1.551556e+01 1.559355e+01 1.908414e+01 2.842821e+01 3.054497e+01 3.254090e+01 2.544914e+01 2.228514e+01 3.632593e+01 2.730788e+01 2.363083e+01 1.967696e+01 1.669683e+01 2.261289e+00 1.120607e+00 1.406460e+00 2.156472e+00 1.698654e+00 1.611486e+00 2.107239e+00 3.236958e+00 3.264113e+00 1.937114e+00 2.278269e+00 1.732328e+00 1.601624e+00 3.534430e-01 3.609691e-01 3.221966e-01 5.415846e-01 5.183991e-01 4.296791e-01 3.930742e-01 6.437740e-01 6.210235e-01 4.577730e-01 4.136332e-01 3.299026e-01 5.302535e-01
<GCONST> 1.106512e+02
<MIXTURE> 4 5.396487e-02
<MEAN> 39
 -8.596345e+00 5.560565e+00 1.945329e+00 1.114676e+01 7.406257e+00 7.581860e+00 4.228646e+00 2.719044e+00 4.070475e+00 2.582960e+00 2.995453e+00 7.234530e-01 -2.150947e+01 2.537096e-01 -2.127165e+00 -9.136367e-01 -2.245263e+00 -1.225987e+00 -1.122754e+00 4.964214e-01 1.074595e+00 1.159614e+00 1.008245e+00 1.122684e+00 1.130738e+00 4.777549e+00 1.773026e+00 -2.467043e-01 -1.556434e-01 -1.272001e+00 -8.500414e-01 -1.009744e+00 -9.785008e-01 -8.512507e-01 -7.605074e-01 -4.231860e-01 -4.124317e-01 -2.725793e-01 2.450068e+00
<VARIANCE> 39
 7.072045e+00 9.040545e+00 1.155494e+01 1.710372e+01 1.235726e+01 2.127943e+01 1.948745e+01 1.750953e+01 1.713414e+01 1.375659e+01 1.877336e+01 1.525405e+01 9.073918e+00 1.919616e+00 1.901863e+00 2.141570e+00 2.010358e+00 2.358835e+00 2.484201e+00 3.714011e+00 2.821430e+00 3.416102e+00 3.491610e+00 2.693518e+00 2.262706e+00 3.821279e+00 3.317678e-01 3.840708e-01 7.442756e-01 6.574455e-01 4.833601e-01 8.429469e-01 5.443947e-01 5.789818e-01 5.653319e-01 4.454187e-01 6.201381e-01 3.927276e-01 3.828741e-01
<GCONST> 1.097714e+02
<MIXTURE> 5 5.520656e-02
<MEAN> 39
 1.828849e+00 1.390829e+01 6.501866e+00 9.803609e+00 8.134956e+00 3.994515e+00 1.606037e+00 -7.120718e+00 -8.671103e+00 -4.895230e+00 -2.398738e+00 8.206655e-01 -1.612335e+01 -7.613752e-01 -2.822159e+00 -1.604459e+00 -2.167133e+00 -8.435133e-01 -5.863340e-01 -3.006946e-01 9.504750e-01 2.582600e+00 1.655247e+00 4.125070e-01 2.620344e-01 3.892813e+00 8.928028e-01 -1.414743e+00 -1.266948e+00 -1.580599e+00 -1.065660e+00 -5.347703e-02 -3.464633e-01 8.561703e-02 8.897023e-01 7.938834e-01 7.400816e-01 -1.726030e-01 2.021100e+00
<VARIANCE> 39
 1.159989e+01 1.262297e+01 1.408731e+01 1.585433e+01 1.684732e+01 2.103084e+01 2.029910e+01 2.080119e+01 1.660453e+01 1.664969e+01 2.036591e+01 1.358689e+01 9.539941e+00 2.068532e+00 1.635937e+00 1.505444e+00 3.228618e+00 2.717691e+00 1.852852e+00 2.292361e+00 2.748237e+00 2.856608e+00 2.481401e+00 2.664065e+00 1.798974e+00 2.687253e+00 3.272710e-01 4.160096e-01 4.757617e-01 6.309051e-01 5.529219e-01 7.124691e-01 7.347021e-01 7.000688e-01 5.895261e-01 6.310106e-01 5.937607e-01 5.289964e-01 2.844494e-01
<GCONST> 1.100620e+02
<MIXTURE> 6 7.441803e-02
<MEAN> 39
 4.545363e+00 1.191434e+01 4.322105e+00 1.181731e+01 7.298249e+00 4.448442e-01 -5.511200e+00 -9.667693e+00 -3.073767e+00 -9.878128e-01 -1.502664e+00 -5.870776e+00 -1.474425e+01 -1.103860e+00 -3.080888e+00 -3.669933e-01 -2.426602e+00 -1.792475e+00 -1.120691e+00 1.432074e+00 2.427658e+00 1.335618e+00 3.048507e-01 4.179523e-01 1.570585e+00 4.709851e+00 2.290402e-01 -1.513186e+00 -6.663161e-02 -1.249617e+00 -1.269033e+00 -5.509288e-01 1.116650e-01 9.586135e-01 1.260127e-01 1.596883e-01 1.121603e-01 4.678671e-01 1.996827e+00
<VARIANCE> 39
 1.032384e+01 8.862871e+00 1.517812e+01 1.587024e+01 2.254197e+01 3.126822e+01 2.730230e+01 2.299733e+01 2.149363e+01 2.524830e+01 2.339604e+01 1.813492e+01 1.111841e+01 1.970851e+00 2.104885e+00 2.438288e+00 3.339659e+00 3.021652e+00 3.980139e+00 4.320497e+00 3.271428e+00 4.566075e+00 3.359156e+00 3.152157e+00 2.262949e+00 2.862659e+00 3.335452e-01 3.531303e-01 6.233857e-01 4.791104e-01 7.116323e-01 7.457398e-01 7.393342e-01 7.414395e-01 7.902870e-01 8.352267e-01 6.869802e-01 4.325363e-01 2.565193e-01
<GCONST> 1.162646e+02
<MIXTURE> 7 5.512635e-02
<MEAN> 39
 -7.531084e+00 4.252986e+00 -9.433701e-01 7.564646e+00 6.517975e+00 5.412307e+00 3.824228e+00 -8.653020e-01 1.487417e+00 2.783755e+00 1.428681e+00 1.395031e+00 -1.938068e+01 2.170985e+00 -7.650661e-01 2.135062e-01 -1.525153e+00 -1.393265e+00 -1.895179e+00 -9.571394e-01 9.271034e-02 3.547189e-01 -4.457566e-01 -2.617165e-01 -1.144162e-01 5.648158e+00 1.184764e+00 -5.054247e-01 1.992245e-01 -9.609860e-01 -8.155628e-01 -4.433791e-01 -6.402159e-01 -7.246607e-03 -1.495797e-01 -1.609319e-01 1.727548e-02 -1.134785e-01 1.948483e+00
<VARIANCE> 39
 1.144139e+01 1.340991e+01 1.449778e+01 1.698255e+01 2.272005e+01 2.191000e+01 1.882456e+01 2.645354e+01 2.647638e+01 2.627926e+01 1.916143e+01 1.754947e+01 1.510960e+01 2.087441e+00 1.966629e+00 2.307323e+00 3.009282e+00 2.131606e+00 2.588801e+00 2.534430e+00 3.250176e+00 3.239753e+00 2.784361e+00 1.866699e+00 1.983398e+00 4.069058e+00 1.938924e-01 4.154668e-01 8.144432e-01 7.375033e-01 7.318184e-01 7.545884e-01 7.084876e-01 6.543975e-01 7.767895e-01 7.503721e-01 5.366720e-01 4.397961e-01 5.106388e-01
<GCONST> 1.147477e+02
<MIXTURE> 8 4.267169e-02
<MEAN> 39
 5.682185e+00 1.278533e+01 2.205812e+00 5.585345e+00 3.552022e+00 5.093443e+00 4.051913e+00 -5.704557e+00 -7.373054e+00 -7.553751e+00 -4.550299e+00 -4.594196e-01 -1.363680e+01 -8.304902e-01 -2.763348e+00 -1.233516e+00 -2.124459e+00 -4.632245e-01 -7.684755e-01 -9.239384e-01 3.281807e-01 1.943571e+00 1.615262e+00 1.370733e+00 8.407929e-01 3.933036e+00 5.816499e-01 -1.148829e+00 -7.624065e-01 -1.332339e+00 -5.403118e-01 -8.699646e-02 -8.493730e-01 5.530439e-02 4.829330e-01 7.728483e-01 8.618043e-01 2.259920e-01 1.681855e+00
<VARIANCE> 39
 1.272752e+01 1.299331e+01 1.821212e+01 2.070377e+01 2.678554e+01 2.097057e+01 2.117185e+01 2.377421e+01 2.143592e+01 1.799110e+01 2.437026e+01 2.244163e+01 1.133250e+01 1.923354e+00 1.650427e+00 1.635339e+00 5.014815e+00 3.315357e+00 2.592186e+00 2.051656e+00 3.399623e+00 2.662853e+00 2.417161e+00 2.568307e+00 2.310776e+00 2.034269e+00 2.911730e-01 3.738653e-01 5.035153e-01 1.104092e+00 6.489748e-01 8.498353e-01 8.545966e-01 7.324353e-01 6.536911e-01 7.495034e-01 5.861757e-01 5.696915e-01 2.990893e-01
<GCONST> 1.147770e+02
<MIXTURE> 9 5.591346e-02
<MEAN> 39
 -8.846426e+00 4.110303e+00 5.586954e-01 8.221007e+00 6.266165e+00 5.573390e+00 3.271594e+00 1.052784e+00 3.029480e+00 2.648454e+00 3.068952e+00 9.410700e-01 -2.171458e+01 2.948273e-01 -8.973522e-02 2.111741e-01 -1.471837e-02 -2.441059e-02 -7.186060e-02 -5.917931e-02 -1.378260e-01 6.947464e-02 1.742304e-03 6.495275e-02 1.078604e-02 9.695339e-01 6.305167e-01 -1.484791e-01 9.416381e-02 -4.954778e-01 -2.530332e-01 -3.404432e-01 -1.360841e-01 -5.583968e-02 -1.219473e-01 -1.983270e-01 -2.070658e-01 7.192282e-04 1.701984e+00
<VARIANCE> 39
 6.398592e+00 5.968338e+00 1.257460e+01 1.583227e+01 1.052942e+01 1.578675e+01 1.775261e+01 1.966384e+01 2.390563e+01 1.626513e+01 1.807676e+01 1.370756e+01 8.210552e+00 4.498975e-01 5.207046e-01 5.526699e-01 9.030484e-01 7.892759e-01 9.419721e-01 1.174983e+00 1.221328e+00 1.119155e+00 1.229629e+00 1.049884e+00 9.923037e-01 2.745382e+00 2.349084e-01 1.540012e-01 2.438234e-01 4.435622e-01 2.604876e-01 3.225790e-01 3.056125e-01 3.221014e-01 4.281396e-01 3.557752e-01 3.247570e-01 2.725587e-01 7.771720e-01
<GCONST> 8.955495e+01
<MIXTURE> 10 8.118626e-02
<MEAN> 39
 -2.544662e+00 1.201793e+01 6.957801e+00 1.373535e+01 1.011278e+01 6.069967e+00 1.557882e+00 -4.515747e+00 -2.560781e+00 -3.514493e+00 -2.509051e+00 -2.093358e+00 -1.937080e+01 -1.067769e+00 -3.331715e+00 -1.836931e+00 -2.667135e+00 -1.575985e+00 -1.065760e+00 8.785916e-01 1.905144e+00 1.898402e+00 9.981707e-01 6.618146e-01 8.593537e-01 4.572311e+00 1.199348e+00 -1.063218e+00 -6.506376e-01 -1.520403e+00 -1.338003e+00 -8.759288e-01 -5.665200e-01 6.601526e-02 3.257949e-02 5.099913e-01 3.799425e-01 8.561922e-02 2.273845e+00
<VARIANCE> 39
 9.735169e+00 1.026141e+01 1.308345e+01 1.343456e+01 1.563693e+01 1.967545e+01 2.881861e+01 2.382344e+01 1.948727e+01 1.847958e+01 1.462542e+01 1.260381e+01 8.141464e+00 1.691432e+00 1.588199e+00 1.721294e+00 2.376744e+00 2.205180e+00 2.497631e+00 2.405316e+00 2.761049e+00 2.466760e+00 2.367162e+00 2.144409e+00 2.078801e+00 4.207909e+00 2.861747e-01 4.621268e-01 7.101647e-01 5.559083e-01 4.403525e-01 7.314621e-01 7.660522e-01 6.377222e-01 6.410965e-01 5.713201e-01 4.127914e-01 3.705804e-01 2.880662e-01
<GCONST> 1.086758e+02
<MIXTURE> 11 5.599755e-02
<MEAN> 39
 5.703130e+00 8.293587e+00 6.344562e-01 5.083721e+00 2.419984e+00 2.323382e+00 -1.884352e+00 -7.809568e+00 -7.032678e+00 -4.081250e+00 -7.785001e-01 -2.680046e+00 -9.410175e+00 3.748977e-01 -7.746543e-01 -4.337305e-01 -1.728482e+00 -5.075018e-01 -1.043831e-01 -1.120806e-01 3.526329e-01 9.898474e-01 1.878557e-01 3.038450e-01 3.659821e-01 2.237462e+00 2.582147e-02 -8.507876e-01 -3.164891e-01 -8.104054e-01 -3.400824e-01 -1.478197e-01 -1.334783e-01 4.465002e-01 6.990739e-01 5.438926e-01 2.723584e-01 2.506437e-01 1.011321e+00
<VARIANCE> 39
 2.124213e+01 2.587373e+01 2.139113e+01 5.014394e+01 3.208867e+01 3.848718e+01 4.227066e+01 3.991721e+01 5.127441e+01 3.871350e+01 3.184606e+01 3.690932e+01 3.364452e+01 4.237271e+00 2.217643e+00 3.394898e+00 5.703110e+00 2.625714e+00 3.151413e+00 3.746450e+00 7.395632e+00 7.660814e+00 4.515463e+00 4.432543e+00 3.058778e+00 2.395179e+00 7.149065e-01 4.488364e-01 5.774974e-01 9.390225e-01 6.780185e-01 7.876403e-01 8.076373e-01 1.056275e+00 1.123744e+00 7.987792e-01 6.743538e-01 5.563836e-01 5.721829e-01
<GCONST> 1.311738e+02
<MIXTURE> 12 5.896249e-02
<MEAN> 39
 4.336542e+00 9.712820e+00 2.360610e+00 9.692572e+00 7.721906e+00 2.385851e+00 -2.248828e+00 -8.788772e+00 -4.550023e+00 -1.647105e+00 3.118904e-01 -2.831755e+00 -1.174533e+01 -9.157829e-01 -3.522589e+00 9.523388e-01 -1.397145e+00 -2.452922e+00 -2.503443e+00 -6.107771e-01 2.224851e+00 1.713564e+00 2.291008e-01 -8.759756e-02 8.802123e-01 4.726471e+00 2.704531e-01 -1.219722e+00 6.437533e-01 -9.736499e-01 -1.561831e+00 -6.435508e-01 -3.276283e-01 8.942641e-01 -1.420404e-01 2.525982e-02 1.216134e-01 1.544349e-01 1.611232e+00
<VARIANCE> 39
 1.587584e+01 1.610734e+01 1.549059e+01 2.164429e+01 2.200215e+01 2.391217e+01 2.253896e+01 1.728232e+01 2.384920e+01 1.873226e+01 1.987402e+01 1.667888e+01 2.289287e+01 1.858632e+00 1.623680e+00 3.277204e+00 4.318746e+00 3.408015e+00 2.713334e+00 3.901050e+00 2.396908e+00 5.950935e+00 2.984410e+00 2.533525e+00 2.039197e+00 2.183987e+00 3.186241e-01 4.170336e-01 7.264467e-01 5.360228e-01 7.081293e-01 6.683220e-01 6.776637e-01 6.761583e-01 1.078082e+00 7.173514e-01 5.640416e-01 4.473844e-01 2.555767e-01
<GCONST> 1.163293e+02
<MIXTURE> 13 6.133539e-02
<MEAN> 39
 -9.408083e+00 6.013871e+00 1.750302e+00 1.053053e+01 6.745128e+00 6.199543e+00 5.221150e+00 1.909558e+00 3.157175e+00 2.372654e+00 3.066902e+00 1.837675e+00 -2.218810e+01 1.637914e+00 -1.620740e+00 -1.092766e+00 -2.554065e+00 -1.242725e+00 -1.518582e+00 -7.949825e-01 -5.425296e-01 2.256776e-01 5.156771e-02 -1.295335e-01 -6.070545e-02 5.969950e+00 1.547088e+00 -5.513217e-01 -4.715368e-01 -1.342998e+00 -6.202484e-01 -3.548127e-01 -6.440136e-01 -4.831457e-01 -2.147026e-01 -1.880934e-02 -2.239495e-01 -3.716339e-01 2.265809e+00
<VARIANCE> 39
 6.448833e+00 9.330541e+00 1.145211e+01 1.510169e+01 1.280323e+01 1.598132e+01 2.172168e+01 1.623517e+01 1.805076e+01 1.301292e+01 1.976661e+01 1.395274e+01 7.836296e+00 1.775071e+00 1.380413e+00 1.644713e+00 2.173868e+00 1.808452e+00 2.025213e+00 2.596689e+00 2.214319e+00 2.777824e+00 2.375651e+00 1.964384e+00 1.563534e+00 3.750860e+00 1.532619e-01 3.193258e-01 4.542492e-01 4.950988e-01 4.474953e-01 7.786822e-01 5.943775e-01 4.145238e-01 4.534646e-01 4.798590e-01 5.757316e-01 4.056413e-01 3.405134e-01
<GCONST> 1.037790e+02
<MIXTURE> 14 6.359723e-02
<MEAN> 39
 3.075700e+00 1.294996e+01 5.316626e+00 9.979149e+00 6.788947e+00 3.842663e+00 4.487355e-02 -9.034506e+00 -8.317072e+00 -4.687429e+00 -7.249877e-01 -5.381094e-01 -1.493175e+01 4.031512e-01 -3.184052e+00 -2.192655e+00 -3.711153e+00 -1.660516e+00 -3.749852e-01 -9.175439e-02 1.199203e+00 2.289422e+00 1.802122e+00 8.642905e-01 1.243106e-01 5.020156e+00 6.746914e-01 -1.488223e+00 -1.112195e+00 -1.624466e+00 -7.905767e-01 1.384322e-02 -1.777830e-01 4.518254e-01 8.956827e-01 9.128495e-01 2.930212e-01 -3.301228e-01 1.839271e+00
<VARIANCE> 39
 1.406793e+01 1.055721e+01 1.772784e+01 1.760735e+01 2.077194e+01 2.269373e+01 3.542110e+01 2.043257e+01 2.246612e+01 2.060907e+01 2.069720e+01 2.064712e+01 1.145271e+01 2.825463e+00 2.162890e+00 2.182234e+00 4.600368e+00 2.933106e+00 2.925984e+00 3.631194e+00 3.686200e+00 3.325371e+00 3.045587e+00 3.191571e+00 2.175463e+00 3.137413e+00 3.878944e-01 4.147266e-01 5.468211e-01 8.089439e-01 6.354159e-01 8.630723e-01 9.733788e-01 8.720416e-01 7.503577e-01 7.107388e-01 7.558832e-01 6.053062e-01 2.993409e-01
<GCONST> 1.180278e+02
<MIXTURE> 15 5.057158e-02
<MEAN> 39
 5.770450e+00 1.394991e+01 2.745863e+00 4.977380e+00 3.305213e+00 5.660179e+00 4.875358e+00 -3.504997e+00 -6.496784e+00 -7.904602e+00 -6.157576e+00 -1.087402e+00 -1.495382e+01 -1.147348e+00 -2.873848e+00 -1.112942e+00 -1.245236e+00 -2.731333e-01 -9.969299e-01 -8.654505e-01 -1.196278e-01 1.404506e+00 1.402282e+00 1.142144e+00 6.866541e-01 3.792598e+00 5.155199e-01 -1.111724e+00 -8.496650e-01 -1.142660e+00 -5.458435e-01 -1.603975e-01 -7.663068e-01 -2.844843e-01 3.606043e-01 6.981663e-01 1.012746e+00 4.415734e-01 1.668495e+00
<VARIANCE> 39
 1.144864e+01 9.583121e+00 1.678079e+01 1.882762e+01 2.399600e+01 2.096174e+01 1.802486e+01 2.686384e+01 2.379151e+01 1.406034e+01 2.447155e+01 1.869445e+01 8.275560e+00 2.032290e+00 1.673457e+00 1.507463e+00 3.148706e+00 2.402216e+00 2.057102e+00 2.022017e+00 2.288187e+00 2.094611e+00 2.261031e+00 1.943702e+00 1.636629e+00 2.201376e+00 3.126058e-01 2.941500e-01 4.317734e-01 8.613149e-01 4.614525e-01 6.794176e-01 7.044911e-01 6.295282e-01 5.634719e-01 5.046113e-01 4.373126e-01 4.320731e-01 2.844627e-01
<GCONST> 1.084684e+02
<MIXTURE> 16 4.238780e-02
<MEAN> 39
 -7.754252e+00 5.489795e+00 1.457340e+00 9.516339e+00 7.291002e+00 6.482135e+00 4.095311e+00 1.743477e+00 4.148348e+00 1.376001e+00 2.691776e+00 1.720776e+00 -1.989528e+01 2.461695e+00 -1.319403e+00 6.550590e-01 -1.942268e+00 -2.402491e+00 -3.262361e+00 -1.339253e+00 -2.860137e-01 -7.065234e-01 -1.082461e+00 -9.597592e-01 -5.589721e-01 6.543189e+00 1.072815e+00 -6.139858e-01 3.670698e-01 -9.348993e-01 -1.139315e+00 -8.296250e-01 -6.450030e-01 -2.750423e-01 -6.983604e-01 -2.981574e-02 -2.281918e-01 -1.960432e-01 1.889218e+00
<VARIANCE> 39
 9.307637e+00 1.717007e+01 1.368736e+01 1.524611e+01 2.104770e+01 1.668680e+01 2.092398e+01 2.687209e+01 2.340234e+01 2.140169e+01 2.511216e+01 1.871081e+01 1.916446e+01 2.409620e+00 2.206650e+00 3.475220e+00 3.909749e+00 2.839825e+00 3.516475e+00 2.616439e+00 2.590677e+00 3.468383e+00 3.024582e+00 2.206842e+00 2.091787e+00 4.302228e+00 1.933885e-01 4.780716e-01 8.937020e-01 6.841263e-01 7.138326e-01 5.881920e-01 7.197912e-01 8.509854e-01 8.068743e-01 6.488250e-01 6.381893e-01 4.592694e-01 4.646165e-01
<GCONST> 1.165695e+02
<MIXTURE> 17 4.303825e-02
<MEAN> 39
 -9.022261e+00 4.358759e+00 3.688942e-01 9.547940e+00 6.376518e+00 6.738233e+00 3.997278e+00 2.107211e+00 3.680311e+00 2.288727e+00 3.357156e+00 1.836243e+00 -2.255426e+01 4.476007e-01 -7.810533e-01 -1.408198e-01 -8.232642e-01 -7.906852e-01 -1.044246e+00 -4.976922e-01 -3.971906e-01 -3.340525e-01 -6.570239e-01 -4.455881e-01 -1.392216e-01 2.466496e+00 8.171085e-01 -2.529436e-01 1.594162e-01 -7.402015e-01 -4.581111e-01 -7.271451e-01 -4.296090e-01 -1.998259e-01 -1.888958e-01 -2.131610e-01 -2.380541e-01 -1.736434e-01 2.338184e+00
<VARIANCE> 39
 6.156787e+00 8.576195e+00 1.094460e+01 1.576224e+01 1.130950e+01 1.311452e+01 1.879507e+01 1.978403e+01 2.093083e+01 1.507141e+01 1.522853e+01 1.399241e+01 6.188329e+00 4.429590e-01 1.130226e+00 6.607457e-01 1.012349e+00 9.337366e-01 1.092778e+00 1.005300e+00 1.291283e+00 1.149315e+00 1.314700e+00 1.222257e+00 1.067019e+00 4.529613e+00 1.832706e-01 2.634305e-01 3.750439e-01 3.648335e-01 3.415555e-01 3.226141e-01 2.803476e-01 4.082879e-01 4.299729e-01 4.048424e-01 3.169153e-01 3.029472e-01 6.356021e-01
<GCONST> 9.208887e+01
<STATE> 3
<NUMMIXES> 17
<MIXTURE> 1 3.807270e-02
<MEAN> 39
 -6.176926e+00 2.363404e+00 2.665827e+00 7.252396e+00 6.191225e+00 3.799537e+00 2.775491e+00 7.907001e-01 1.882920e+00 -3.826481e-01 2.258070e+00 2.613520e-01 -8.757085e+00 -4.844153e-01 -3.284463e+00 -2.492143e+00 -3.263136e+00 -6.570131e-01 -9.279364e-01 8.163069e-01 2.049118e+00 2.424946e+00 2.020164e+00 1.764912e+00 1.411294e+00 5.847763e+00 1.568826e+00 3.723871e-01 -4.673592e-01 -8.314410e-01 -5.286185e-01 -4.210281e-01 -8.431240e-01 -8.448392e-01 -5.920154e-01 -1.249075e-01 -3.482727e-01 -2.690145e-01 5.212658e-01
<VARIANCE> 39
 1.463910e+01 2.340153e+01 1.696209e+01 2.244830e+01 2.462984e+01 2.473483e+01 3.463965e+01 3.105039e+01 2.917553e+01 2.131084e+01 2.800247e+01 1.802555e+01 4.758492e+01 6.461843e+00 2.981151e+00 2.531803e+00 3.925348e+00 4.246684e+00 3.712955e+00 6.266217e+00 5.668830e+00 3.432612e+00 3.526850e+00 3.163341e+00 2.369196e+00 3.127906e+00 8.289781e-01 5.445197e-01 6.383519e-01 1.145823e+00 7.085947e-01 8.401846e-01 9.029091e-01 1.019462e+00 8.641934e-01 7.838598e-01 8.843473e-01 6.738542e-01 7.796138e-01
<GCONST> 1.277331e+02
<MIXTURE> 2 6.662467e-02
<MEAN> 39
 1.069161e-01 3.337078e+00 -3.243468e+00 -7.669894e-01 2.738055e+00 -8.825163e-01 2.562778e+00 -3.217420e+00 3.566052e-01 1.565902e+00 -7.504021e-01 3.281149e+00 9.157257e-01 3.205384e+00 -3.168866e+00 -2.067731e+00 -5.902074e+00 -3.892384e+00 1.598350e+00 -1.297543e+00 -3.772791e-01 1.556720e+00 1.291712e+00 2.362386e+00 -2.171353e-01 6.451717e+00 7.134888e-01 5.966397e-02 2.426641e-01 -2.950162e-01 -4.604778e-01 1.122763e+00 -1.596589e-01 -2.484792e-01 -2.223161e-01 -2.464269e-01 3.491704e-01 -6.529870e-01 -6.284263e-01
<VARIANCE> 39
 1.611334e+01 1.478637e+01 1.871272e+01 2.478197e+01 2.338284e+01 2.246593e+01 2.854623e+01 2.380001e+01 2.400901e+01 2.865085e+01 1.637900e+01 1.222659e+01 2.447283e+01 3.222362e+00 3.500213e+00 3.260364e+00 3.970714e+00 3.079098e+00 4.511750e+00 4.666037e+00 5.540921e+00 5.123319e+00 4.021302e+00 3.328653e+00 4.031389e+00 3.408395e+00 4.133649e-01 5.322301e-01 4.060172e-01 7.804442e-01 6.325502e-01 6.030832e-01 7.096723e-01 6.456562e-01 5.902244e-01 6.540136e-01 4.780378e-01 4.272403e-01 5.467893e-01
<GCONST> 1.212702e+02
<MIXTURE> 3 5.416369e-02
<MEAN> 39
 -4.304847e+00 1.840424e+00 2.129225e+00 5.423782e+00 4.334454e+00 -1.277178e+00 2.982440e+00 9.413503e-01 1.745574e+00 -1.132845e+00 -2.270620e+00 1.161015e+00 -3.713128e+00 1.371202e+00 -3.698458e+00 1.283567e+00 -1.840680e+00 -3.745188e+00 -3.228191e+00 -1.194387e+00 1.977642e+00 2.646412e-01 -5.289128e-01 6.719460e-01 1.156112e+00 6.684262e+00 9.553059e-01 -7.544355e-02 8.114696e-01 -7.013591e-02 -9.889119e-01 -2.185056e-01 -8.315125e-01 -1.970192e-01 -7.207768e-01 -5.639628e-02 4.160046e-01 -1.876406e-01 1.307439e-01
<VARIANCE> 39
 1.651020e+01 1.856890e+01 1.538965e+01 2.506866e+01 2.633700e+01 2.651014e+01 2.438357e+01 2.318130e+01 2.794688e+01 2.236846e+01 1.980977e+01 1.608058e+01 3.328246e+01 3.319903e+00 2.970308e+00 2.485051e+00 4.716491e+00 3.952894e+00 2.554191e+00 4.886281e+00 3.757644e+00 3.217259e+00 3.632285e+00 3.521963e+00 2.390441e+00 3.023128e+00 3.016060e-01 4.494114e-01 4.008187e-01 6.199010e-01 6.552403e-01 6.202624e-01 7.332084e-01 6.375454e-01 7.883167e-01 7.496793e-01 4.994445e-01 4.168731e-01 5.329464e-01
<GCONST> 1.198418e+02
<MIXTURE> 4 6.295732e-02
<MEAN> 39
 -4.345340e+00 -1.235384e+00 -2.300364e+00 2.855208e+00 4.595136e+00 2.030769e+00 2.328858e+00 -1.411587e+00 3.129159e+00 1.451492e+00 2.213168e+00 8.994421e-01 8.601638e-01 2.143790e+00 -2.161820e+00 -2.843338e+00 -4.268875e+00 -1.251180e+00 -3.002781e-01 -9.572726e-01 2.730298e-02 1.145472e+00 1.493981e+00 1.441217e+00 1.129957e+00 5.323831e+00 1.705827e+00 1.121659e+00 -3.962690e-02 -6.615195e-01 -3.343540e-01 2.022964e-01 -7.345313e-01 -4.989430e-01 -9.169574e-01 -5.354747e-01 -3.130879e-01 8.331685e-04 -8.241135e-01
<VARIANCE> 39
 1.335553e+01 1.869192e+01 1.474901e+01 2.306226e+01 1.983446e+01 1.761244e+01 2.678340e+01 3.079114e+01 2.325510e+01 1.783021e+01 1.900776e+01 1.707882e+01 2.152968e+01 3.381079e+00 2.619286e+00 4.016134e+00 6.589830e+00 2.995972e+00 2.873785e+00 4.568894e+00 3.650334e+00 2.815985e+00 2.947129e+00 2.304755e+00 2.057731e+00 2.438939e+00 3.103049e-01 5.291310e-01 6.925582e-01 1.002952e+00 8.163072e-01 7.006037e-01 1.189166e+00 1.173798e+00 9.047434e-01 6.562548e-01 5.393050e-01 5.783209e-01 4.909193e-01
<GCONST> 1.206711e+02
<MIXTURE> 5 4.181953e-02
<MEAN> 39
 7.299644e+00 3.050758e+00 -4.886597e+00 -6.892989e+00 -1.290616e+00 4.027980e+00 3.111255e-01 -6.030628e+00 -2.274526e+00 2.189200e+00 5.743207e+00 1.869682e+00 2.472927e+00 1.829698e+00 -4.424827e+00 -3.113858e+00 -6.047833e+00 -2.164034e+00 7.430184e-01 -1.752510e-01 1.035208e+00 2.434662e+00 2.634120e+00 2.166017e+00 -5.472713e-01 6.122933e+00 2.265730e-02 3.999642e-02 2.473102e-01 5.547622e-01 4.928449e-01 2.985470e-01 2.528015e-01 -3.945866e-04 -2.377795e-01 -2.085051e-01 -6.735732e-01 -7.068392e-01 -5.788153e-01
<VARIANCE> 39
 1.091469e+01 1.252458e+01 1.267820e+01 1.837970e+01 1.870559e+01 1.708881e+01 1.778259e+01 1.779387e+01 1.791175e+01 2.161439e+01 2.364001e+01 1.538271e+01 1.588333e+01 1.629645e+00 3.053927e+00 3.183680e+00 4.435394e+00 4.621208e+00 4.907400e+00 6.037390e+00 6.171209e+00 5.442760e+00 3.921689e+00 5.137120e+00 4.603135e+00 2.007418e+00 1.898383e-01 2.692502e-01 2.430515e-01 4.064515e-01 3.936192e-01 3.509718e-01 4.584143e-01 5.684631e-01 5.999898e-01 4.523913e-01 5.997688e-01 4.090148e-01 3.387815e-01
<GCONST> 1.136990e+02
<MIXTURE> 6 6.795312e-02
<MEAN> 39
 -4.956042e+00 2.163962e+00 -9.685984e-02 3.914492e+00 3.112653e+00 1.350512e+00 2.754350e+00 1.880606e-01 3.947705e+00 1.755728e+00 1.924704e+00 2.127316e+00 -6.060092e+00 4.571154e+00 -1.757133e+00 -1.383314e+00 -4.314371e+00 -1.701511e+00 -1.062459e+00 -1.593209e+00 -9.498929e-01 -4.199025e-01 4.759173e-01 -3.790638e-01 -7.760893e-01 7.837894e+00 8.918784e-01 -3.748139e-01 -3.469222e-01 -7.378738e-01 -1.390871e-01 3.745447e-01 -3.394209e-01 -1.170038e-01 -3.144281e-01 1.463351e-01 -1.779020e-01 -3.931091e-01 1.561440e-01
<VARIANCE> 39
 1.335073e+01 1.482643e+01 1.955260e+01 2.293975e+01 2.222246e+01 2.492193e+01 3.630268e+01 2.198896e+01 2.694001e+01 2.440946e+01 2.196329e+01 1.937890e+01 4.015257e+01 1.438259e+00 2.559222e+00 2.908294e+00 5.415422e+00 2.690333e+00 4.581415e+00 3.315573e+00 2.506482e+00 3.296233e+00 3.184766e+00 3.336607e+00 2.671526e+00 3.032825e+00 3.540293e-01 4.651348e-01 5.234057e-01 7.466464e-01 7.011494e-01 8.218631e-01 1.069353e+00 6.090259e-01 5.871810e-01 7.426959e-01 6.917234e-01 6.599755e-01 7.722188e-01
<GCONST> 1.210468e+02
<MIXTURE> 7 5.877399e-02
<MEAN> 39
 -1.074340e+00 8.621230e-01 4.383184e+00 6.700894e+00 -1.093131e+00 -4.689907e+00 8.618087e-01 1.916469e+00 1.028350e+00 -3.603929e+00 1.841580e+00 1.474611e+00 -3.070317e-02 1.031312e+00 -3.159740e+00 2.963899e+00 -3.015696e+00 -4.470444e+00 -2.588621e+00 -2.174994e-01 1.014837e+00 -1.949910e+00 5.098298e-01 7.532970e-01 1.132523e+00 6.085361e+00 4.389226e-01 3.825583e-01 7.146533e-01 -5.527609e-01 -3.749636e-01 3.618314e-01 -5.430269e-01 -8.510678e-01 -8.038597e-01 4.869122e-01 -2.959345e-01 -4.034240e-01 -5.067985e-01
<VARIANCE> 39
 2.251060e+01 1.346886e+01 2.658353e+01 1.764896e+01 2.735738e+01 3.234671e+01 4.416106e+01 3.234880e+01 3.068157e+01 1.950076e+01 2.887257e+01 2.606398e+01 2.770080e+01 4.108605e+00 2.939467e+00 3.193667e+00 6.148422e+00 3.709307e+00 4.471018e+00 5.986495e+00 5.411905e+00 4.025247e+00 7.356731e+00 3.035055e+00 2.793490e+00 3.664821e+00 3.855843e-01 4.217337e-01 4.689220e-01 5.443470e-01 5.624406e-01 9.918286e-01 1.051172e+00 9.721693e-01 6.466786e-01 5.862116e-01 8.699532e-01 5.947923e-01 6.727448e-01
<GCONST> 1.267421e+02
<MIXTURE> 8 6.911454e-02
<MEAN> 39
 8.647799e-01 6.067956e+00 2.283286e+00 5.320507e+00 6.018095e+00 2.567918e+00 1.143566e+00 -4.613567e+00 -3.748645e+00 -2.661750e+00 -2.911242e+00 -3.930421e-01 -7.029334e+00 9.776960e-01 -3.578817e+00 -2.744427e+00 -4.363592e+00 -2.027642e+00 -3.541388e-01 -1.046020e+00 5.056866e-01 2.372015e+00 2.158792e+00 1.973714e+00 8.192013e-01 5.681228e+00 1.033695e+00 -2.639512e-01 -5.956373e-01 -1.038314e+00 -6.861530e-01 3.003764e-01 -2.544312e-01 -4.922330e-02 1.415154e-01 1.802696e-01 4.613304e-01 -1.004964e-01 5.705332e-01
<VARIANCE> 39
 1.665590e+01 1.493322e+01 1.981987e+01 2.237116e+01 2.512519e+01 2.585319e+01 2.166749e+01 2.127313e+01 2.102662e+01 2.169310e+01 2.013962e+01 1.605424e+01 1.651777e+01 1.488624e+00 2.045532e+00 2.349360e+00 4.698865e+00 3.697230e+00 2.970251e+00 4.560137e+00 5.250379e+00 3.658465e+00 2.813888e+00 2.713320e+00 3.061958e+00 2.223328e+00 2.993374e-01 5.463081e-01 5.059669e-01 1.031827e+00 7.424981e-01 9.540945e-01 8.597724e-01 7.034101e-01 7.909328e-01 7.764519e-01 5.907044e-01 5.386672e-01 2.805194e-01
<GCONST> 1.187261e+02
<MIXTURE> 9 8.720511e-02
<MEAN> 39
 3.637755e+00 1.387520e+00 -2.132557e+00 1.071791e+00 7.113292e-01 -2.652146e+00 -3.015561e+00 -2.877341e+00 3.929434e+00 2.369485e+00 2.236322e+00 -3.054543e+00 2.911631e+00 1.614205e+00 -5.230289e+00 -1.864752e+00 -4.705813e+00 -2.519268e+00 -1.705335e+00 -5.880933e-01 3.285663e+00 2.600582e+00 2.299971e+00 -8.482080e-01 7.161458e-02 6.944033e+00 2.705637e-01 -1.375957e-01 2.416909e-01 1.096195e-01 1.106409e-01 2.299094e-01 9.110838e-02 1.568599e-01 -5.751951e-01 -2.032456e-01 -5.816602e-01 1.534314e-02 -4.878102e-01
<VARIANCE> 39
 1.524326e+01 1.351458e+01 1.975986e+01 2.052120e+01 1.624384e+01 2.528063e+01 2.329964e+01 2.720699e+01 1.815484e+01 2.156073e+01 1.838985e+01 1.293119e+01 1.780383e+01 3.451668e+00 2.422139e+00 5.110363e+00 5.017230e+00 5.356219e+00 7.596741e+00 8.906168e+00 5.868487e+00 5.945498e+00 6.400605e+00 3.884854e+00 3.927917e+00 2.934942e+00 3.946980e-01 3.392538e-01 3.937626e-01 4.218380e-01 4.874221e-01 5.194870e-01 6.372172e-01 6.130512e-01 5.173723e-01 5.106131e-01 5.746587e-01 4.052909e-01 3.999723e-01
<GCONST> 1.204475e+02
<MIXTURE> 10 5.763879e-02
<MEAN> 39
 2.495506e-02 3.801378e+00 -1.539911e+00 -1.136841e-01 3.000964e+00 -2.103433e+00 1.599847e+00 -3.384904e+00 -2.433205e-01 2.006135e+00 -7.171070e-01 2.602624e+00 3.310707e-01 2.940767e+00 -3.979130e+00 -2.089643e+00 -4.856830e+00 -4.067114e+00 1.566220e-01 -1.750989e+00 3.340998e-01 2.179027e+00 1.302928e+00 1.901012e+00 -4.117022e-01 7.053287e+00 6.687526e-01 -2.678666e-01 1.811427e-02 -2.135880e-02 -4.249909e-01 8.931605e-01 -2.369289e-01 -1.852174e-02 9.019817e-02 -2.725533e-01 2.440707e-01 -6.405069e-01 -3.830095e-01
<VARIANCE> 39
 1.516481e+01 1.441348e+01 1.818214e+01 2.575053e+01 2.343189e+01 2.472962e+01 3.506632e+01 2.959270e+01 2.481559e+01 3.286599e+01 1.694613e+01 1.223030e+01 2.446479e+01 3.701656e+00 3.409642e+00 3.830699e+00 5.326061e+00 2.986343e+00 6.313328e+00 7.580333e+00 7.358165e+00 5.626506e+00 5.058162e+00 4.226375e+00 4.396599e+00 3.339064e+00 4.119229e-01 5.583285e-01 4.530137e-01 8.041154e-01 5.783511e-01 5.868481e-01 9.695340e-01 8.125328e-01 6.322621e-01 8.044679e-01 4.570930e-01 3.947720e-01 5.187092e-01
<GCONST> 1.248973e+02
<MIXTURE> 11 5.802616e-02
<MEAN> 39
 1.325236e+00 5.260928e+00 2.123683e+00 5.839346e+00 5.352731e+00 1.420461e+00 4.775923e-01 -5.304385e+00 -3.727284e+00 -2.994707e+00 -3.305962e+00 -2.481684e+00 -6.604725e+00 1.430809e-01 -2.900587e+00 -1.254040e+00 -3.208596e+00 -1.816769e+00 -8.665594e-01 -8.995686e-01 9.946281e-01 1.694318e+00 1.304287e+00 1.070444e+00 8.573712e-01 4.819584e+00 7.717682e-01 -1.191230e-01 -2.872434e-01 -9.641278e-01 -7.228453e-01 1.890081e-01 -4.244448e-01 2.108444e-01 -6.697928e-04 1.258993e-01 4.142482e-01 2.793434e-01 4.417734e-01
<VARIANCE> 39
 2.284644e+01 1.771432e+01 3.206476e+01 2.370584e+01 2.319491e+01 2.745964e+01 3.436715e+01 2.836069e+01 1.859552e+01 2.349784e+01 2.262113e+01 2.580352e+01 1.777231e+01 4.366993e+00 2.888125e+00 3.919446e+00 5.163782e+00 3.575473e+00 3.611726e+00 5.954537e+00 5.104630e+00 4.974127e+00 4.190728e+00 2.746244e+00 2.836441e+00 2.812562e+00 5.145348e-01 6.052384e-01 4.731581e-01 1.223875e+00 7.764168e-01 1.099068e+00 8.824214e-01 9.716982e-01 6.248581e-01 7.956783e-01 5.711029e-01 5.323500e-01 3.018992e-01
<GCONST> 1.255060e+02
<MIXTURE> 12 6.633054e-02
<MEAN> 39
 -4.926207e+00 -3.014400e+00 -2.204918e+00 2.399850e+00 4.646490e+00 1.770406e+00 1.749161e+00 4.948346e-01 3.555322e+00 2.568896e+00 2.955028e+00 1.076638e+00 1.418272e+00 2.712421e+00 -1.509164e+00 -2.016384e+00 -3.254649e+00 -1.562561e+00 -1.285118e+00 -1.120384e+00 -3.355191e-01 3.019185e-01 7.813964e-01 3.706445e-01 3.190952e-01 5.114128e+00 1.606060e+00 1.212198e+00 1.450249e-01 -1.835877e-01 -3.907238e-01 -1.191100e-02 -7.092810e-01 -6.306987e-01 -9.434330e-01 -6.298776e-01 -4.511680e-01 -2.209391e-01 -1.026547e+00
<VARIANCE> 39
 1.171372e+01 1.518345e+01 1.575196e+01 2.402022e+01 2.894887e+01 2.345440e+01 2.829492e+01 2.568830e+01 2.525841e+01 1.936427e+01 2.499183e+01 1.610801e+01 2.820973e+01 3.086007e+00 3.024981e+00 3.109920e+00 5.243263e+00 3.061817e+00 3.610093e+00 4.369311e+00 4.277876e+00 3.955007e+00 3.649631e+00 2.756965e+00 2.412279e+00 3.629991e+00 2.990239e-01 4.427383e-01 6.321168e-01 8.971337e-01 8.611975e-01 1.135721e+00 1.154483e+00 9.711522e-01 1.029174e+00 5.956189e-01 8.085880e-01 6.081248e-01 6.547552e-01
<GCONST> 1.235234e+02
<MIXTURE> 13 5.220541e-02
<MEAN> 39
 -4.853635e+00 -9.581407e-01 7.460559e-02 4.578194e+00 2.260648e+00 2.365284e+00 2.022091e+00 1.616190e+00 5.659348e+00 1.239627e+00 4.710642e+00 1.985197e+00 -2.121203e+00 4.383053e+00 -2.019487e+00 -1.681574e+00 -3.440694e+00 -1.608530e+00 -2.742296e+00 -1.808276e+00 -8.069287e-01 -8.628350e-01 -5.634034e-01 -1.866616e+00 -1.043532e+00 7.287037e+00 1.005450e+00 -6.099713e-02 -3.812443e-01 -4.319438e-01 7.190791e-02 -1.868585e-01 -4.091406e-01 -4.274512e-02 -5.088112e-01 1.271170e-02 -6.876711e-01 -3.595815e-01 -3.977791e-01
<VARIANCE> 39
 1.403778e+01 1.665524e+01 1.745246e+01 2.143507e+01 2.366515e+01 2.794005e+01 2.831413e+01 2.183401e+01 3.481080e+01 2.449127e+01 2.064438e+01 2.163210e+01 3.551965e+01 1.686728e+00 1.815443e+00 3.225276e+00 4.653344e+00 2.927229e+00 3.946020e+00 3.524427e+00 2.491305e+00 2.737630e+00 2.741598e+00 3.889247e+00 2.625053e+00 3.629626e+00 4.591759e-01 4.357238e-01 5.398394e-01 6.052124e-01 7.058270e-01 8.549541e-01 9.846255e-01 6.963794e-01 9.428201e-01 6.776366e-01 7.150987e-01 7.404034e-01 6.951996e-01
<GCONST> 1.214145e+02
<MIXTURE> 14 6.332257e-02
<MEAN> 39
 -3.106317e+00 1.907853e+00 1.281853e+00 6.475067e+00 5.064799e+00 -2.996754e+00 7.506213e-01 -1.844952e+00 3.185787e+00 -1.155162e-01 -3.060638e+00 -7.486219e-02 -1.693506e+00 1.308297e+00 -4.250038e+00 1.705820e+00 -2.005304e+00 -4.222944e+00 -3.579852e+00 -2.172843e+00 2.398844e+00 2.411273e-01 -5.766755e-01 6.125890e-01 8.119151e-01 6.760427e+00 8.230149e-01 -4.373244e-02 8.734396e-01 -2.954101e-01 -1.044603e+00 1.581793e-01 -5.690327e-01 1.954293e-01 -1.062055e+00 -2.140711e-01 5.860783e-01 -3.756104e-02 -1.048500e-01
<VARIANCE> 39
 2.204251e+01 1.657328e+01 1.921572e+01 1.871504e+01 2.026805e+01 2.438075e+01 3.280197e+01 2.599218e+01 3.077327e+01 2.837110e+01 1.819827e+01 1.567145e+01 2.357707e+01 3.956679e+00 2.224196e+00 3.106499e+00 3.525317e+00 3.924622e+00 2.724035e+00 5.188039e+00 4.071958e+00 4.531305e+00 3.197574e+00 2.540498e+00 1.849222e+00 2.462222e+00 3.824170e-01 5.215036e-01 4.704511e-01 4.991618e-01 5.693099e-01 5.728958e-01 9.363054e-01 7.310975e-01 1.060304e+00 7.957218e-01 4.727385e-01 4.101412e-01 4.393093e-01
<GCONST> 1.199158e+02
<MIXTURE> 15 5.295510e-02
<MEAN> 39
 -3.238790e+00 -3.610019e-01 4.864512e+00 8.005534e+00 1.116119e+00 -5.946919e+00 6.932973e-01 3.117993e+00 2.493882e+00 -2.798272e+00 1.708308e+00 1.611290e+00 -3.129193e-01 2.024680e+00 -2.204445e+00 3.714177e+00 -2.712122e+00 -5.026491e+00 -2.802449e+00 -1.378448e+00 -3.632338e-01 -2.923077e+00 -2.053760e-01 1.000682e-01 -1.723835e-01 6.369931e+00 4.166968e-01 5.635138e-01 6.952621e-01 -7.948351e-01 -6.467310e-01 8.224975e-01 -4.244356e-01 -8.721227e-01 -9.832959e-01 4.901478e-01 -1.592835e-01 -3.662239e-01 -7.208944e-01
<VARIANCE> 39
 1.918995e+01 1.562207e+01 3.090535e+01 3.229171e+01 3.265546e+01 3.476787e+01 3.005709e+01 3.677442e+01 4.371836e+01 2.159953e+01 3.696786e+01 2.086506e+01 3.355807e+01 4.126937e+00 2.742602e+00 2.912249e+00 4.981996e+00 2.756645e+00 4.828900e+00 4.094703e+00 6.739584e+00 4.353164e+00 5.406481e+00 3.473451e+00 2.747678e+00 3.894115e+00 3.951059e-01 5.279318e-01 5.652826e-01 7.827265e-01 6.210800e-01 1.019634e+00 7.203336e-01 1.060190e+00 1.103348e+00 6.169946e-01 1.181282e+00 5.242252e-01 7.786606e-01
<GCONST> 1.288986e+02
<MIXTURE> 16 6.619731e-02
<MEAN> 39
 -5.074700e+00 1.397212e+00 3.079820e+00 5.821789e+00 5.301654e+00 3.058937e+00 2.310226e+00 -1.042662e-01 1.056803e+00 -1.211572e+00 9.456427e-02 1.254953e-01 -5.026122e+00 1.181228e+00 -4.142290e+00 -3.229846e+00 -3.341744e+00 -1.762487e+00 -1.673608e+00 -3.885392e-01 1.829999e+00 2.293099e+00 1.983219e+00 1.103864e+00 4.428615e-01 6.568114e+00 1.850804e+00 1.058661e-01 -6.909643e-01 -5.684827e-01 -5.140477e-01 -5.281222e-01 -9.108569e-01 -4.342301e-01 -4.402010e-01 5.143044e-02 -2.957018e-02 -2.221499e-01 3.172643e-01
<VARIANCE> 39
 1.096536e+01 1.891477e+01 2.168391e+01 1.772089e+01 2.378583e+01 2.218750e+01 2.769484e+01 2.579886e+01 3.225932e+01 2.834119e+01 2.432132e+01 1.882691e+01 2.920946e+01 2.592528e+00 1.364365e+00 2.991597e+00 3.159430e+00 2.353235e+00 2.460041e+00 5.657917e+00 5.542689e+00 3.300926e+00 3.066240e+00 3.223633e+00 2.665431e+00 2.126419e+00 2.870340e-01 5.765755e-01 7.504697e-01 6.681494e-01 6.729553e-01 8.373328e-01 1.084858e+00 1.010357e+00 1.009944e+00 1.029186e+00 8.545024e-01 8.585637e-01 3.942411e-01
<GCONST> 1.218808e+02
<MIXTURE> 17 3.663438e-02
<MEAN> 39
 8.396102e+00 4.772055e+00 -3.297260e+00 -5.546504e+00 -5.878543e-01 5.744949e+00 -1.621113e+00 -7.119832e+00 -3.865866e+00 -8.580470e-01 2.968810e+00 1.573946e+00 -1.796925e+00 1.349069e+00 -2.381102e+00 -1.668253e+00 -3.863850e+00 -1.151058e+00 -1.309977e-01 -1.274314e+00 3.551812e-01 1.808679e+00 1.400474e+00 1.619501e+00 4.897945e-01 4.107294e+00 1.203524e-02 -2.149147e-01 -4.629332e-03 1.764337e-01 1.040010e-01 -2.344595e-01 -1.090599e-01 2.465526e-01 1.210523e-01 7.292622e-02 -2.408551e-01 -3.075372e-01 1.029595e-01
<VARIANCE> 39
 1.224147e+01 1.380467e+01 1.986078e+01 4.136120e+01 2.652747e+01 2.816470e+01 3.094349e+01 2.228102e+01 2.294036e+01 3.072312e+01 2.679711e+01 1.893617e+01 1.766700e+01 2.303733e+00 3.957386e+00 4.625708e+00 7.900239e+00 4.454157e+00 4.356110e+00 5.569172e+00 5.065588e+00 5.253314e+00 3.937968e+00 4.342810e+00 2.934790e+00 3.748247e+00 3.714360e-01 2.637866e-01 3.216612e-01 5.554919e-01 4.483831e-01 4.184008e-01 5.641096e-01 5.489697e-01 6.707787e-01 4.596479e-01 4.276447e-01 3.602409e-01 2.867687e-01
<GCONST> 1.201521e+02
<STATE> 4
<NUMMIXES> 17
<MIXTURE> 1 8.884924e-02
<MEAN> 39
 1.013935e+01 -1.146522e+00 -5.121307e+00 -1.255019e+01 -6.288284e+00 9.938762e+00 6.891460e-01 -8.154214e+00 4.921842e-01 3.328446e+00 6.268607e+00 1.207176e+00 7.157707e+00 2.724314e+00 -2.713886e+00 -1.650979e+00 -4.761776e+00 -2.585790e+00 2.913776e+00 -3.995758e-01 -7.847016e-01 1.285412e+00 9.109237e-01 1.594557e+00 -1.098525e+00 3.777982e+00 -7.523504e-01 6.017868e-01 5.534188e-01 1.441012e+00 1.164492e+00 -1.918220e-01 2.490927e-01 3.616374e-01 -2.521810e-01 -4.819047e-01 -7.568429e-01 -4.545043e-01 -1.633750e+00
<VARIANCE> 39
 1.049195e+01 1.258870e+01 1.672182e+01 3.522674e+01 2.396758e+01 3.479361e+01 4.271492e+01 3.336957e+01 3.135246e+01 2.760545e+01 2.340928e+01 1.613713e+01 1.161136e+01 2.372332e+00 4.049820e+00 3.199181e+00 5.302813e+00 4.236988e+00 5.488649e+00 6.881330e+00 5.373739e+00 6.139477e+00 5.195846e+00 4.386945e+00 2.728886e+00 4.823459e+00 4.138418e-01 3.029940e-01 2.720273e-01 4.157641e-01 3.387547e-01 5.739948e-01 4.853077e-01 6.386212e-01 5.769064e-01 4.252492e-01 3.838005e-01 3.294578e-01 1.764442e-01
<GCONST> 1.191735e+02
<MIXTURE> 2 3.590690e-02
<MEAN> 39
 -3.367985e+00 6.965847e-01 9.954209e-01 7.039854e-01 1.883278e+00 -1.248616e+00 -3.209479e-01 -3.015787e-02 3.994211e+00 9.655064e-01 1.017072e-01 1.164449e+00 2.949526e+00 -4.160792e-01 -1.465958e+00 -7.907233e-01 -2.361306e+00 -1.141265e+00 -1.269572e+00 -4.143312e-01 1.346357e+00 1.133156e+00 4.872308e-01 6.861346e-01 9.650709e-01 3.792276e+00 6.019462e-01 9.327867e-01 1.538289e-01 6.589957e-01 1.719538e-01 2.550063e-01 -2.773962e-01 -5.965590e-01 -8.947108e-01 -3.419187e-01 -7.705259e-02 -3.649830e-01 -1.339400e+00
<VARIANCE> 39
 3.943328e+01 2.506104e+01 3.051815e+01 3.216474e+01 2.689304e+01 3.706063e+01 5.939630e+01 4.337297e+01 2.675514e+01 2.921910e+01 3.170402e+01 2.273105e+01 2.656776e+01 1.053396e+01 5.562399e+00 5.462699e+00 5.756392e+00 7.430315e+00 4.881874e+00 7.331524e+00 5.545968e+00 4.310970e+00 5.236524e+00 3.187635e+00 3.472457e+00 4.926404e+00 4.494795e-01 4.397981e-01 8.207439e-01 7.587131e-01 7.855951e-01 7.616476e-01 1.038657e+00 1.117240e+00 6.994600e-01 8.918214e-01 7.639985e-01 5.651217e-01 4.725371e-01
<GCONST> 1.341520e+02
<MIXTURE> 3 4.878677e-02
<MEAN> 39
 1.145536e+01 9.758183e-01 -1.200635e+01 -1.200459e+00 4.255513e+00 9.091610e-02 -8.036067e+00 -6.231004e+00 2.179055e+00 -1.130494e+00 4.248035e+00 5.337980e+00 3.417588e+00 3.590976e+00 -2.120840e+00 -4.178057e+00 -9.758720e-01 -6.585966e-01 -1.063598e+00 -4.157976e+00 4.551720e-01 2.972954e+00 -4.623320e-02 1.507626e+00 7.430074e-01 2.938299e+00 -3.660760e-01 4.166718e-01 8.583382e-01 7.837955e-01 4.486380e-02 1.346117e-01 3.298493e-01 5.880454e-01 -2.110191e-01 -4.762648e-01 -6.641674e-01 -5.900342e-01 -1.115438e+00
<VARIANCE> 39
 1.355490e+01 1.202146e+01 2.209734e+01 2.536690e+01 2.091914e+01 1.827659e+01 4.401835e+01 3.291178e+01 3.437041e+01 3.497826e+01 3.510152e+01 2.045058e+01 1.343537e+01 2.587809e+00 3.171782e+00 3.461137e+00 4.000233e+00 4.091805e+00 3.689209e+00 8.979494e+00 7.084202e+00 5.654632e+00 5.553099e+00 4.734523e+00 3.878577e+00 2.878112e+00 3.486091e-01 2.182058e-01 2.993236e-01 2.960144e-01 4.270015e-01 2.688935e-01 6.037461e-01 4.603353e-01 6.215267e-01 5.668975e-01 4.693628e-01 3.714048e-01 2.507596e-01
<GCONST> 1.189872e+02
<MIXTURE> 4 6.499988e-02
<MEAN> 39
 6.099838e+00 -4.394487e+00 5.446935e+00 3.102178e+00 -6.072939e+00 -8.067283e+00 -7.276481e+00 2.470578e+00 1.614777e+00 -1.275908e+00 8.824465e-01 2.122608e+00 7.448817e+00 2.283557e+00 -3.582966e+00 1.579957e+00 -1.929119e+00 -4.408374e+00 -2.228020e+00 -2.566116e+00 2.205892e+00 -2.107536e-01 -2.621771e-02 9.667603e-01 6.340539e-01 4.700632e+00 -3.998043e-01 9.438443e-01 1.997756e-02 3.576548e-01 7.534773e-01 9.314429e-01 6.442306e-01 -3.475716e-01 -5.191296e-01 3.589769e-02 -1.927819e-02 -3.782810e-01 -1.689143e+00
<VARIANCE> 39
 1.023289e+01 1.959188e+01 1.464257e+01 1.491885e+01 2.089267e+01 1.265187e+01 2.202087e+01 1.810340e+01 1.746368e+01 1.627699e+01 1.354330e+01 1.202078e+01 1.345923e+01 2.634933e+00 3.264328e+00 3.270998e+00 3.941372e+00 3.532607e+00 5.160679e+00 5.958062e+00 4.658501e+00 5.571148e+00 4.558589e+00 3.667971e+00 2.570344e+00 4.102236e+00 3.272433e-01 3.335320e-01 2.223381e-01 2.823321e-01 4.077036e-01 2.967384e-01 5.622618e-01 3.713669e-01 4.006611e-01 3.339480e-01 3.036919e-01 2.976827e-01 2.770911e-01
<GCONST> 1.107367e+02
<MIXTURE> 5 6.100596e-02
<MEAN> 39
 8.854669e+00 5.027379e+00 -4.090695e+00 -1.187623e+01 -5.305577e+00 5.781138e+00 3.066882e+00 -4.736257e+00 -2.243103e+00 -1.134285e+00 1.634926e+00 4.521843e+00 2.627276e+00 2.986278e+00 -3.380674e-01 -1.089081e+00 -6.234469e+00 -3.509087e+00 2.196785e+00 -1.779096e-01 -6.446294e-01 2.552271e-01 4.710747e-01 1.342262e+00 1.048458e+00 2.716683e+00 -2.306993e-01 5.645326e-01 5.658088e-01 8.645865e-01 4.951016e-01 2.828309e-01 9.131145e-02 5.089840e-02 -2.305391e-01 -3.369233e-01 -3.863125e-01 -5.414736e-01 -1.353061e+00
<VARIANCE> 39
 1.104826e+01 9.064350e+00 1.444207e+01 2.830315e+01 3.202709e+01 2.301991e+01 2.695985e+01 3.007899e+01 2.221945e+01 2.488443e+01 2.198572e+01 1.488904e+01 1.072085e+01 2.260656e+00 3.333518e+00 3.097991e+00 5.653804e+00 6.899221e+00 5.249473e+00 4.908508e+00 5.538115e+00 4.170834e+00 4.927935e+00 3.977184e+00 2.650285e+00 3.761822e+00 3.375199e-01 2.716753e-01 2.363913e-01 5.310242e-01 4.149150e-01 4.144519e-01 3.012240e-01 5.041101e-01 4.388309e-01 3.737768e-01 3.228785e-01 2.661429e-01 2.045761e-01
<GCONST> 1.145960e+02
<MIXTURE> 6 8.525203e-02
<MEAN> 39
 8.542487e+00 -7.554137e+00 -3.968573e+00 -7.543320e+00 -6.343906e-01 -3.515080e+00 -3.474650e+00 1.756853e+00 5.327744e+00 7.319466e+00 -2.475864e+00 -5.342411e+00 1.054925e+01 1.291669e+00 -3.526149e+00 -1.009093e+00 -2.843317e+00 -7.830942e-01 -5.095969e-01 4.496085e-01 2.370666e+00 1.098943e+00 8.480344e-01 -2.080883e+00 -5.514292e-01 3.619649e+00 -6.138604e-01 1.161909e+00 5.592071e-01 1.478241e+00 6.401373e-01 7.542168e-01 4.204505e-01 -5.490067e-01 -8.618872e-01 -1.157394e+00 -9.471264e-02 2.979443e-01 -1.871221e+00
<VARIANCE> 39
 7.033151e+00 1.489559e+01 2.157621e+01 2.820266e+01 1.651184e+01 4.020204e+01 3.578720e+01 3.817941e+01 3.115922e+01 3.190575e+01 3.532409e+01 1.850136e+01 9.815850e+00 2.063087e+00 2.988632e+00 3.238872e+00 4.074831e+00 4.432885e+00 4.882707e+00 5.747357e+00 5.499282e+00 4.782011e+00 5.536577e+00 3.420119e+00 3.348732e+00 3.564449e+00 2.908838e-01 2.609465e-01 3.659377e-01 4.571417e-01 3.142395e-01 5.437251e-01 5.799221e-01 6.307404e-01 5.592148e-01 5.583035e-01 6.937928e-01 4.334081e-01 2.114296e-01
<GCONST> 1.189802e+02
<MIXTURE> 7 8.312336e-02
<MEAN> 39
 3.327707e-01 1.520961e+00 -2.802763e+00 1.168939e+00 3.827423e+00 1.051557e+00 2.905362e-02 -3.559142e+00 9.534827e-01 2.458301e+00 2.593952e+00 9.840829e-01 2.229739e+00 4.661813e+00 -4.829797e-01 -2.471298e+00 -3.243583e+00 -1.276261e+00 -4.394743e-01 -2.880502e+00 -1.160096e+00 -2.052505e-01 1.233190e-01 6.046607e-01 5.268739e-01 3.653719e+00 4.923775e-01 5.063394e-01 8.913831e-02 1.515137e-01 3.806332e-02 3.445815e-01 -3.702118e-01 1.645284e-01 -1.694580e-01 -4.378547e-01 -2.701096e-01 -3.337345e-02 -1.437973e+00
<VARIANCE> 39
 1.464623e+01 1.607067e+01 1.636291e+01 2.546533e+01 1.935641e+01 2.255423e+01 2.330046e+01 2.695845e+01 2.524240e+01 2.345046e+01 1.749421e+01 1.634582e+01 1.898890e+01 2.655355e+00 4.911863e+00 6.879062e+00 7.922382e+00 5.100353e+00 5.687678e+00 8.162308e+00 5.406013e+00 5.045242e+00 5.340577e+00 3.209974e+00 4.401277e+00 5.562200e+00 3.765805e-01 4.171455e-01 4.340535e-01 5.493595e-01 5.960975e-01 6.156531e-01 7.733788e-01 8.977684e-01 8.130842e-01 6.120337e-01 4.363103e-01 3.860615e-01 4.147956e-01
<GCONST> 1.240437e+02
<MIXTURE> 8 4.345677e-02
<MEAN> 39
 2.323618e+00 -1.552478e+00 1.261042e+01 3.356806e+00 -8.010959e+00 -7.133600e+00 -6.404779e-01 -8.970913e-02 -7.216518e+00 -2.894418e+00 3.136422e+00 1.130084e+00 5.062479e+00 1.183839e+00 -1.544349e+00 3.615292e+00 -3.126794e+00 -4.353796e+00 -8.337107e-01 -3.578937e-01 -7.322866e-01 -2.945247e+00 5.438866e-01 5.761792e-01 1.867006e-01 3.741430e+00 -1.776445e-01 9.761006e-01 -4.250949e-01 1.204250e-01 8.903213e-01 1.039627e+00 -1.663841e-01 -6.324109e-01 3.179157e-01 3.692158e-01 -3.075635e-01 -4.552887e-01 -1.605959e+00
<VARIANCE> 39
 1.229163e+01 1.477464e+01 3.362221e+01 3.569030e+01 2.595121e+01 3.240235e+01 2.570368e+01 3.173939e+01 2.528465e+01 2.486782e+01 2.269113e+01 2.119095e+01 1.765992e+01 3.615157e+00 3.389030e+00 4.262299e+00 4.756340e+00 3.336325e+00 7.146443e+00 4.885861e+00 5.949526e+00 5.736375e+00 4.741983e+00 3.723051e+00 3.062598e+00 5.192526e+00 3.778400e-01 4.750583e-01 3.574849e-01 5.256032e-01 5.565716e-01 6.535528e-01 5.516996e-01 7.803108e-01 4.542950e-01 4.109035e-01 3.993533e-01 5.384985e-01 3.321278e-01
<GCONST> 1.227777e+02
<MIXTURE> 9 6.434000e-02
<MEAN> 39
 1.066664e+01 -6.926718e+00 -6.383192e+00 -1.301329e+01 -5.112462e+00 1.150952e+01 -1.178268e+00 -3.106434e+00 9.114728e-01 6.042983e+00 6.181460e+00 -5.651721e+00 1.027911e+01 9.885144e-01 -2.610191e+00 -7.593566e-01 -1.828228e+00 -3.697591e-01 2.075623e+00 -3.478864e-01 9.690346e-01 7.228301e-01 4.747978e-01 -5.773211e-01 -2.107631e+00 2.004190e+00 -9.150170e-01 1.115510e+00 6.099235e-01 1.747005e+00 1.183851e+00 -8.003141e-01 4.231260e-01 -7.154080e-02 -1.959358e-01 -7.726775e-01 -9.838269e-01 3.701523e-01 -1.661060e+00
<VARIANCE> 39
 9.969911e+00 1.495404e+01 1.615479e+01 3.053088e+01 2.335658e+01 2.910198e+01 3.628798e+01 3.019847e+01 3.675358e+01 3.090311e+01 3.645423e+01 2.278428e+01 1.269136e+01 1.819780e+00 1.879308e+00 1.450607e+00 3.460696e+00 2.901278e+00 3.672485e+00 3.080427e+00 2.501726e+00 2.629945e+00 3.559528e+00 3.528338e+00 2.161833e+00 1.491705e+00 2.683140e-01 2.634445e-01 3.167351e-01 5.223399e-01 2.956386e-01 5.666293e-01 4.549694e-01 5.482692e-01 6.635067e-01 5.582704e-01 5.875697e-01 4.130215e-01 2.324030e-01
<GCONST> 1.131290e+02
<MIXTURE> 10 5.778283e-02
<MEAN> 39
 8.468378e+00 6.293140e+00 -3.681823e+00 -1.093113e+01 -1.886690e+00 5.464221e+00 4.564723e-01 -4.431277e+00 -3.367086e+00 -2.434530e+00 2.738918e+00 2.720883e+00 4.234400e-01 2.977219e+00 4.838965e-01 -9.841548e-01 -5.015779e+00 -1.919755e+00 1.061575e+00 -5.973074e-01 -2.314798e-01 -9.083617e-01 2.235501e-02 7.762753e-01 3.846482e-01 1.763263e+00 -3.804864e-01 1.425059e-01 2.845194e-01 8.838375e-01 2.954767e-01 4.820558e-02 4.791459e-02 5.806738e-02 -7.888466e-02 7.893579e-02 -3.112735e-01 -3.213772e-01 -9.971243e-01
<VARIANCE> 39
 1.287043e+01 1.228038e+01 2.208667e+01 4.315205e+01 3.104153e+01 2.500007e+01 3.133780e+01 2.806446e+01 2.909591e+01 2.898640e+01 2.930733e+01 2.046378e+01 1.366949e+01 3.977479e+00 3.317147e+00 3.911664e+00 6.443858e+00 6.018915e+00 4.089104e+00 5.751519e+00 6.569764e+00 5.033511e+00 4.506098e+00 4.022007e+00 3.536699e+00 3.802677e+00 3.290672e-01 3.440764e-01 3.658566e-01 6.748936e-01 3.577163e-01 3.818716e-01 4.278338e-01 5.072056e-01 6.367177e-01 4.125586e-01 4.333451e-01 3.045072e-01 4.004669e-01
<GCONST> 1.211638e+02
<MIXTURE> 11 6.998637e-02
<MEAN> 39
 9.600537e-01 1.336327e+00 -1.639519e-01 3.367022e+00 1.953850e+00 -6.138614e-01 -1.400675e+00 -8.668413e-01 3.674164e+00 4.830645e-01 9.195164e-01 -1.049813e+00 1.300471e+00 4.791303e+00 -1.298727e+00 -1.459148e+00 -3.264681e+00 -1.730011e+00 -2.259479e+00 -2.686147e+00 -1.461495e-01 -1.347873e+00 2.547405e-02 -9.423866e-01 -6.163831e-01 4.385653e+00 6.752753e-02 9.426257e-02 -7.036746e-02 1.055711e-02 9.483488e-02 2.442797e-01 1.690393e-02 2.487814e-01 -4.233823e-01 6.257810e-02 -3.048862e-02 9.257191e-02 -1.266683e+00
<VARIANCE> 39
 1.987579e+01 1.726138e+01 2.066587e+01 2.514044e+01 2.273892e+01 2.602496e+01 3.203233e+01 3.438486e+01 2.737609e+01 2.050921e+01 2.544624e+01 1.540902e+01 2.170784e+01 2.375666e+00 4.285120e+00 7.247129e+00 8.787336e+00 5.151017e+00 8.449141e+00 6.474638e+00 5.904437e+00 5.011615e+00 6.202888e+00 6.017014e+00 4.127731e+00 7.016283e+00 4.764925e-01 3.905137e-01 3.778429e-01 4.872478e-01 4.930576e-01 7.061290e-01 7.962113e-01 1.045884e+00 7.789212e-01 5.176998e-01 5.521070e-01 3.828980e-01 5.496574e-01
<GCONST> 1.273512e+02
<MIXTURE> 12 5.663469e-02
<MEAN> 39
 9.317210e+00 -4.127430e+00 -7.532981e+00 -7.251513e+00 1.370139e+00 5.490978e-01 -2.239147e+00 -1.720393e+00 3.224368e+00 4.058836e+00 -3.246162e+00 -4.608939e+00 7.811359e+00 3.182386e+00 -3.560088e+00 -2.463316e+00 -4.330424e+00 -1.983348e-01 -1.203931e-01 -4.029232e-01 2.821583e-01 -3.114830e-01 8.456075e-01 -2.470447e+00 -1.098430e+00 4.964375e+00 -1.001839e+00 4.499239e-01 7.335463e-01 1.323204e+00 5.312214e-01 5.032175e-01 2.807996e-01 7.505876e-02 -2.689260e-01 -4.445032e-01 1.954176e-01 4.263232e-01 -1.866594e+00
<VARIANCE> 39
 1.154673e+01 1.695934e+01 1.899297e+01 3.166703e+01 1.740946e+01 3.797295e+01 2.651453e+01 2.001612e+01 2.371548e+01 3.494238e+01 2.971593e+01 1.278207e+01 9.459821e+00 2.195037e+00 3.463013e+00 3.830055e+00 6.386624e+00 5.570855e+00 5.800735e+00 6.814199e+00 6.082812e+00 6.347092e+00 5.875051e+00 4.852183e+00 4.047971e+00 6.368467e+00 3.680462e-01 3.175895e-01 3.394317e-01 4.386800e-01 3.350546e-01 5.071248e-01 5.037882e-01 5.601214e-01 5.744590e-01 5.570767e-01 6.323100e-01 3.527045e-01 2.746930e-01
<GCONST> 1.208810e+02
<MIXTURE> 13 6.015804e-02
<MEAN> 39
 3.725579e+00 -2.793223e+00 -1.486487e-01 -2.681387e-01 -3.171109e+00 -5.119943e+00 -2.859677e+00 2.038201e+00 4.846746e+00 1.519033e+00 6.977584e-01 1.629056e-01 8.161024e+00 2.075133e+00 -3.943134e+00 -9.935369e-01 -3.805466e+00 -3.312723e+00 -2.081800e+00 -1.981767e-01 2.464439e+00 1.399507e+00 8.441953e-01 -2.264340e-01 4.793918e-01 5.912047e+00 1.587999e-01 8.660014e-01 3.906412e-01 6.493906e-01 5.453044e-01 6.281700e-01 8.543515e-02 -6.033468e-01 -8.484266e-01 -4.030454e-01 -3.283544e-01 -4.604671e-01 -1.660574e+00
<VARIANCE> 39
 1.687371e+01 1.467973e+01 1.898130e+01 1.892495e+01 2.601235e+01 2.826884e+01 2.940811e+01 3.345716e+01 2.318208e+01 1.773101e+01 1.727721e+01 1.346661e+01 1.519103e+01 2.691869e+00 3.366175e+00 5.022695e+00 5.646772e+00 4.453681e+00 6.696193e+00 9.539649e+00 7.235786e+00 5.967294e+00 5.445629e+00 4.156723e+00 4.329075e+00 3.182725e+00 3.216133e-01 3.420146e-01 3.634158e-01 5.195153e-01 5.413592e-01 6.067006e-01 6.879045e-01 7.465342e-01 5.423385e-01 4.982556e-01 5.059167e-01 3.377903e-01 2.459574e-01
<GCONST> 1.213300e+02
<MIXTURE> 14 5.223541e-02
<MEAN> 39
 3.704314e+00 -2.663407e+00 9.463039e+00 6.310852e+00 -5.381125e+00 -9.078865e+00 -5.506728e+00 1.845266e+00 -2.523257e+00 -5.495436e+00 1.342513e+00 2.561088e+00 4.764663e+00 1.595877e+00 -2.415905e+00 3.498615e+00 -1.485033e+00 -5.263209e+00 -1.501894e+00 -1.763402e+00 1.245661e+00 -2.494795e+00 -1.421308e+00 1.942041e+00 2.320800e-01 4.043765e+00 -2.781731e-01 1.032888e+00 -2.253797e-02 -6.447794e-02 4.450433e-01 1.279445e+00 5.458899e-01 -6.307041e-01 -5.627239e-01 4.557682e-01 1.044828e-01 -5.011297e-01 -1.509347e+00
<VARIANCE> 39
 1.342838e+01 1.427619e+01 1.931174e+01 2.037132e+01 2.471206e+01 1.617952e+01 2.560926e+01 1.849128e+01 2.190393e+01 2.078910e+01 1.637006e+01 1.364188e+01 1.464984e+01 2.937169e+00 2.979580e+00 4.122165e+00 4.391293e+00 4.637949e+00 4.506084e+00 5.158365e+00 6.108115e+00 5.424665e+00 4.791554e+00 3.609090e+00 2.955503e+00 3.707578e+00 3.760792e-01 3.299183e-01 3.210580e-01 3.817966e-01 5.003123e-01 3.897700e-01 5.840200e-01 4.301385e-01 5.577958e-01 3.932814e-01 4.250810e-01 3.449390e-01 2.819199e-01
<GCONST> 1.158589e+02
<MIXTURE> 15 3.776936e-02
<MEAN> 39
 1.109853e+01 -1.498608e+00 -8.026239e+00 -2.083532e+00 2.063776e+00 -1.719303e+00 -8.716311e+00 -3.673512e+00 -2.025485e-01 3.333207e+00 5.862793e+00 -9.024495e-01 4.278524e+00 3.214814e+00 -2.355767e+00 -2.643481e+00 -1.425131e+00 -1.007476e+00 -1.902715e+00 -2.516017e+00 1.524479e+00 8.941045e-01 1.045493e+00 6.929377e-01 -6.630641e-01 2.809829e+00 -6.285676e-01 5.491862e-01 8.091784e-01 8.378161e-01 9.380098e-02 2.226518e-01 7.027410e-01 2.474207e-01 -3.172746e-01 -6.638262e-01 -7.378695e-01 -1.355495e-01 -1.283299e+00
<VARIANCE> 39
 1.206173e+01 1.247685e+01 3.412241e+01 2.969593e+01 1.981712e+01 2.276597e+01 4.511162e+01 3.411676e+01 2.966867e+01 3.239610e+01 2.698376e+01 2.727996e+01 1.190199e+01 4.178540e+00 3.677188e+00 5.833295e+00 4.253450e+00 4.959536e+00 4.842082e+00 8.900532e+00 5.904979e+00 8.490024e+00 4.937981e+00 4.837027e+00 3.873611e+00 3.785397e+00 3.900656e-01 2.188550e-01 3.915534e-01 3.546291e-01 3.640540e-01 3.742101e-01 5.860213e-01 6.813923e-01 6.537539e-01 5.432803e-01 4.525940e-01 4.110119e-01 2.594842e-01
<GCONST> 1.226779e+02
<MIXTURE> 16 4.712537e-02
<MEAN> 39
 1.030291e+01 -4.873621e+00 -7.350374e+00 -1.225818e+01 -2.520748e+00 7.821214e+00 1.992460e+00 -5.002820e+00 7.793406e-01 5.542766e+00 6.849173e+00 -7.602112e+00 9.355288e+00 1.901515e+00 -2.798466e+00 -1.809533e+00 -2.809448e+00 -5.641815e-01 1.462259e+00 3.747601e-01 -1.265057e-02 9.034234e-01 3.364128e-01 4.141173e-01 -3.211940e+00 3.252535e+00 -1.063037e+00 7.585911e-01 6.992019e-01 1.735388e+00 9.749743e-01 -2.627459e-01 5.240852e-02 1.942273e-01 -1.000974e-01 -6.746588e-01 -9.838280e-01 4.692394e-01 -1.835882e+00
<VARIANCE> 39
 7.218866e+00 1.419087e+01 2.091376e+01 2.152999e+01 2.133665e+01 1.812078e+01 5.560891e+01 3.285934e+01 3.662289e+01 2.091314e+01 2.494320e+01 1.943462e+01 1.002878e+01 2.467553e+00 2.632844e+00 2.957532e+00 4.381425e+00 3.652528e+00 2.958434e+00 6.365071e+00 4.876026e+00 4.201458e+00 3.919812e+00 3.821384e+00 2.369647e+00 3.060042e+00 2.852241e-01 3.005075e-01 3.696482e-01 3.144811e-01 3.595126e-01 4.026193e-01 5.944564e-01 6.728149e-01 6.043051e-01 3.987315e-01 5.262256e-01 4.846220e-01 2.417463e-01
<GCONST> 1.157187e+02
<MIXTURE> 17 4.258004e-02
<MEAN> 39
 2.787287e+00 -7.505358e-01 1.368092e+01 -5.081240e-02 -1.030882e+01 -7.245371e+00 -1.290326e+00 -2.006363e+00 -8.857732e+00 1.661854e+00 2.901527e+00 -1.916745e+00 4.920904e+00 1.211254e+00 -1.141883e+00 3.533429e+00 -4.614915e+00 -4.072613e+00 -8.733984e-01 -1.175842e+00 -1.999630e+00 -3.161609e+00 2.820709e+00 -1.168432e+00 1.197749e-02 3.698814e+00 -2.980898e-01 9.534681e-01 -4.881051e-01 2.464842e-01 1.046184e+00 9.760871e-01 -3.237069e-01 -5.735450e-01 6.667370e-01 -1.386675e-02 -6.861288e-01 -8.019695e-02 -1.634062e+00
<VARIANCE> 39
 1.100270e+01 1.906272e+01 1.916404e+01 3.085841e+01 1.729321e+01 3.026072e+01 2.094747e+01 2.899779e+01 3.076233e+01 2.320715e+01 2.029388e+01 1.789560e+01 1.631120e+01 3.322276e+00 3.874158e+00 3.280462e+00 3.777204e+00 3.454577e+00 6.206637e+00 6.241916e+00 8.681029e+00 4.477417e+00 4.227667e+00 3.985659e+00 3.979794e+00 5.008237e+00 3.642796e-01 3.961305e-01 3.502851e-01 6.371833e-01 3.225799e-01 7.183170e-01 5.230237e-01 5.367247e-01 6.346611e-01 5.830367e-01 4.325045e-01 3.934635e-01 4.230705e-01
<GCONST> 1.209843e+02
<TRANSP> 5
 0.000000e+00 1.000000e+00 0.000000e+00 0.000000e+00 0.000000e+00
 0.000000e+00 4.600202e-01 5.399798e-01 0.000000e+00 0.000000e+00
 0.000000e+00 0.000000e+00 2.890188e-01 7.109812e-01 0.000000e+00
 0.000000e+00 0.000000e+00 0.000000e+00 3.254651e-01 6.745349e-01
 0.000000e+00 0.000000e+00 0.000000e+00 0.000000e+00 0.000000e+00
<ENDHMM>
~h "d"
<BEGINHMM>
<NUMSTATES> 5
<STATE> 2
<NUMMIXES> 17
<MIXTURE> 1 2.618012e-02
<MEAN> 39
 -5.190730e+00 1.055505e+01 5.700822e+00 1.428097e+01 7.177242e+00 5.528121e+00 -1.372463e+00 -3.282093e+00 -1.812325e-01 -4.368622e+00 -1.007796e+00 -4.052789e+00 -2.079291e+01 -2.403442e+00 -3.038770e+00 -1.887404e+00 -1.783227e+00 1.037694e+00 1.632922e+00 2.521023e+00 2.867950e+00 2.650218e+00 2.664179e+00 2.508331e+00 1.696529e+00 2.141501e+00 3.899679e-01 -8.053427e-01 -6.024832e-02 -1.520059e+00 -1.281279e+00 -9.603525e-01 -1.902113e-03 9.834445e-02 3.872707e-02 3.348428e-01 2.587896e-01 5.121182e-01 2.600653e+00
<VARIANCE> 39
 8.315857e+00 7.647199e+00 1.056126e+01 1.171612e+01 1.037598e+01 1.897094e+01 2.113396e+01 1.843705e+01 1.840022e+01 2.133391e+01 1.644316e+01 1.538097e+01 6.356231e+00 1.393209e+00 2.131506e+00 1.354420e+00 3.593386e+00 1.957612e+00 2.260265e+00 2.680920e+00 2.864161e+00 1.923236e+00 2.182527e+00 2.494869e+00 2.103281e+00 9.714961e+00 3.959922e-01 4.792029e-01 4.647824e-01 4.387426e-01 6.525154e-01 6.354586e-01 7.791242e-01 4.207005e-01 5.230873e-01 5.545077e-01 5.025073e-01 3.985908e-01 9.781412e-01
<GCONST> 1.086976e+02
<MIXTURE> 2 8.242219e-02
<MEAN> 39
 -5.956777e+00 -2.863042e+00 3.622786e+00 1.847766e+00 4.105868e+00 4.808142e+00 1.796572e+00 3.955548e-01 2.428849e+00 -2.172829e-01 2.401873e+00 6.005064e-01 -3.523534e+00 -2.001754e+00 -3.170305e+00 -1.333481e+00 -3.317592e+00 -5.615573e-01 -1.074507e-01 1.172634e+00 2.322474e+00 1.871371e+00 1.613169e+00 1.963445e+00 1.466352e+00 5.655109e+00 1.081072e+00 6.544186e-01 1.458208e-01 -8.084124e-03 -1.008747e+00 -1.088716e+00 -4.170711e-01 -2.064835e-01 -4.190865e-01 -1.374075e-01 -6.461920e-01 -3.107259e-02 2.979376e-01
<VARIANCE> 39
 2.257283e+01 3.745597e+01 4.046857e+01 4.909029e+01 4.275721e+01 4.475770e+01 3.889001e+01 2.757691e+01 3.188662e+01 2.450764e+01 2.617820e+01 2.052551e+01 4.130197e+01 4.290076e+00 3.770274e+00 4.098379e+00 5.379667e+00 5.265951e+00 4.795876e+00 4.998483e+00 4.302411e+00 3.613151e+00 4.052710e+00 3.349029e+00 2.834342e+00 5.617813e+00 7.117870e-01 8.119826e-01 8.617958e-01 9.921371e-01 1.352074e+00 1.110846e+00 1.084925e+00 9.479237e-01 8.540518e-01 7.658328e-01 7.218202e-01 6.490570e-01 5.708699e-01
<GCONST> 1.340354e+02
<MIXTURE> 3 5.021714e-02
<MEAN> 39
 4.825488e-01 4.390998e+00 6.134319e+00 7.094076e+00 2.576596e+00 2.176850e+00 -6.175975e-01 -4.399464e+00 -4.443830e+00 -4.675770e+00 -3.888968e+00 -2.755044e+00 -9.216356e+00 -2.076846e+00 -3.185181e+00 -2.539906e-01 -2.733956e+00 -1.050379e-01 1.894556e-01 5.589731e-02 1.847130e+00 1.326324e+00 9.220675e-01 2.122461e+00 1.498855e+00 4.496230e+00 2.985589e-01 -3.219493e-01 -1.620031e-01 -5.405406e-01 -7.720807e-01 -7.456067e-01 -2.457772e-01 2.971862e-01 4.190775e-01 4.334331e-01 2.650459e-01 2.775747e-01 1.179567e+00
<VARIANCE> 39
 2.209570e+01 4.108867e+01 4.237275e+01 3.941243e+01 4.857878e+01 4.386815e+01 3.985756e+01 3.945534e+01 3.101023e+01 2.512629e+01 2.798233e+01 1.743581e+01 2.558593e+01 3.936884e+00 3.322474e+00 4.374435e+00 5.442690e+00 7.682213e+00 5.064483e+00 6.888463e+00 6.437975e+00 5.838132e+00 5.367029e+00 4.693907e+00 3.227968e+00 3.562546e+00 5.083080e-01 6.977575e-01 7.581267e-01 8.006502e-01 1.118796e+00 1.095343e+00 1.307338e+00 1.199115e+00 9.851028e-01 7.004037e-01 6.764446e-01 5.056029e-01 4.341793e-01
<GCONST> 1.344906e+02
<MIXTURE> 4 7.205278e-02
<MEAN> 39
 -5.512478e+00 1.004658e+01 5.702590e+00 1.206504e+01 9.264297e+00 6.339553e+00 3.514100e+00 -3.327291e+00 -1.044297e+00 -2.297021e+00 -3.649987e+00 -1.721930e+00 -1.995364e+01 -1.416358e+00 -5.068727e+00 -1.560176e+00 -4.439304e+00 -1.799129e+00 1.611229e-01 5.393772e-01 1.437122e+00 1.686171e+00 1.411397e+00 2.091704e+00 1.679586e+00 6.937845e+00 1.003123e+00 -4.818882e-01 4.990448e-02 -7.473804e-01 -1.393277e+00 -1.474660e+00 -9.482778e-01 2.613978e-01 1.781546e-01 1.340578e-01 5.829822e-02 5.802197e-02 2.139103e+00
<VARIANCE> 39
 1.121427e+01 1.555622e+01 1.603494e+01 1.375477e+01 1.605657e+01 1.822301e+01 1.773497e+01 2.202848e+01 1.900808e+01 2.039128e+01 2.103440e+01 1.307754e+01 1.455977e+01 1.471653e+00 2.421807e+00 2.453506e+00 2.766338e+00 2.858297e+00 3.922531e+00 3.776246e+00 3.040191e+00 3.190302e+00 2.856169e+00 2.381845e+00 2.225465e+00 2.064466e+00 3.118164e-01 3.536046e-01 3.849287e-01 4.621321e-01 4.535284e-01 4.689693e-01 4.929396e-01 6.114224e-01 5.792868e-01 3.981518e-01 4.679327e-01 4.075104e-01 3.707894e-01
<GCONST> 1.099880e+02
<MIXTURE> 5 7.705227e-02
<MEAN> 39
 -1.050593e+01 5.762292e+00 4.685445e-01 1.022072e+01 7.689957e+00 7.635131e+00 4.277563e+00 1.975866e+00 5.215098e+00 3.376856e+00 3.754633e+00 1.652447e+00 -2.279748e+01 -2.212408e-01 -2.573483e+00 -2.517685e-01 -3.262731e+00 -7.727609e-01 -6.346588e-01 2.164015e-01 7.605164e-01 6.493411e-01 5.800063e-01 1.095471e+00 9.115976e-01 6.549593e+00 9.454097e-01 4.515579e-02 4.132315e-01 -8.388622e-01 -9.737402e-01 -1.267186e+00 -7.788386e-01 -4.087550e-01 -6.310328e-01 -5.371799e-01 -5.655371e-01 -2.018997e-01 2.511721e+00
<VARIANCE> 39
 5.669419e+00 9.854472e+00 1.205713e+01 1.865275e+01 1.306317e+01 1.892402e+01 2.242157e+01 2.281474e+01 2.246047e+01 2.037123e+01 2.212707e+01 1.350003e+01 7.706387e+00 1.663760e+00 2.893096e+00 3.621837e+00 2.624400e+00 2.466241e+00 3.290725e+00 3.879880e+00 2.966133e+00 3.049028e+00 3.360975e+00 2.885671e+00 2.390851e+00 4.966851e+00 3.955310e-01 3.683922e-01 3.420026e-01 4.375920e-01 4.438785e-01 5.099755e-01 5.473510e-01 6.707182e-01 5.635447e-01 5.164508e-01 4.743714e-01 3.665487e-01 4.405116e-01
<GCONST> 1.108356e+02
<MIXTURE> 6 5.226701e-02
<MEAN> 39
 -1.553630e+00 -2.358075e-01 4.203055e+00 2.842629e+00 1.903453e+00 -1.278159e+00 2.034350e-01 -3.322667e+00 -1.452287e+00 -2.554381e+00 -2.995527e+00 1.106367e+00 -7.580400e-01 -7.553977e-01 -2.168811e+00 2.982581e-01 -2.100673e+00 -7.916386e-01 -7.681334e-01 -1.153007e+00 1.969343e+00 1.797507e+00 7.650703e-02 1.040444e+00 1.163644e+00 3.599299e+00 9.907817e-01 -1.414682e-01 -4.744188e-02 -4.336272e-01 -9.806954e-01 -1.259569e-01 -5.520925e-01 2.080610e-01 -3.077657e-02 3.628434e-01 2.527763e-01 -2.216430e-01 5.371442e-01
<VARIANCE> 39
 2.406421e+01 3.614305e+01 3.662513e+01 4.507302e+01 5.234865e+01 3.695699e+01 4.121037e+01 3.848733e+01 4.289868e+01 2.885973e+01 2.371847e+01 2.053090e+01 2.543419e+01 2.177362e+00 3.600495e+00 3.105901e+00 4.072216e+00 3.925039e+00 4.637939e+00 6.016588e+00 6.710730e+00 6.941849e+00 4.326441e+00 3.532155e+00 3.642979e+00 3.067917e+00 4.233603e-01 6.285037e-01 6.932326e-01 1.128010e+00 1.355940e+00 9.052247e-01 1.312717e+00 1.245773e+00 1.295841e+00 9.430079e-01 8.349026e-01 6.649345e-01 4.180660e-01
<GCONST> 1.334780e+02
<MIXTURE> 7 4.956749e-02
<MEAN> 39
 -1.030476e+01 1.705664e+00 2.060024e+00 2.182089e+00 7.862480e+00 4.800667e+00 4.330990e+00 1.398667e+00 1.576870e+00 2.594283e+00 1.616194e+00 1.991925e+00 -1.101537e+01 6.089494e-01 -1.298754e+00 -9.261077e-02 -2.624950e+00 -1.060671e+00 -2.146889e+00 -8.636611e-01 6.614120e-02 -2.135444e-01 -2.749020e-01 -2.129748e-01 2.675737e-01 7.186071e+00 7.527345e-01 3.280493e-01 1.341565e-01 5.645926e-02 -8.109917e-01 -7.468345e-01 -6.730024e-01 -2.001702e-01 3.616891e-02 -1.653209e-01 -2.710379e-01 -1.813741e-01 8.763763e-01
<VARIANCE> 39
 3.334606e+01 2.973920e+01 4.052720e+01 3.583588e+01 3.045728e+01 3.375992e+01 3.119385e+01 3.557932e+01 2.763970e+01 1.603746e+01 2.176663e+01 1.924767e+01 3.998265e+01 2.476939e+00 2.291061e+00 3.413534e+00 2.938552e+00 2.620550e+00 2.908318e+00 3.197127e+00 2.798137e+00 2.678589e+00 2.481150e+00 1.924540e+00 1.867190e+00 5.459493e+00 6.945081e-01 5.801014e-01 6.773784e-01 5.411249e-01 6.384867e-01 6.214457e-01 6.639090e-01 7.268434e-01 5.546101e-01 4.124087e-01 3.828282e-01 4.596034e-01 6.922385e-01
<GCONST> 1.216135e+02
<MIXTURE> 8 5.149907e-02
<MEAN> 39
 -1.450765e+00 1.444189e+01 8.179358e+00 1.443802e+01 6.544983e+00 1.950963e+00 -1.387463e+00 -7.955478e+00 -3.150834e+00 -4.893493e+00 -5.124501e+00 -2.825989e+00 -1.987820e+01 -2.148481e+00 -4.521344e+00 -1.190998e+00 -3.565578e+00 1.241955e-01 1.932132e+00 9.461480e-01 1.413432e+00 1.368259e+00 1.438933e+00 1.935037e+00 1.263368e+00 4.732759e+00 5.652217e-01 -1.789165e+00 -3.671803e-01 -1.406304e+00 -1.568524e+00 -1.010247e+00 -2.423145e-01 1.040100e+00 5.935406e-01 4.112419e-01 4.578736e-01 4.777151e-01 2.911258e+00
<VARIANCE> 39
 6.626220e+00 7.037419e+00 1.068824e+01 1.247387e+01 1.700138e+01 1.727496e+01 2.687732e+01 1.860272e+01 1.482047e+01 2.020236e+01 1.855344e+01 1.314619e+01 5.414869e+00 1.130750e+00 1.985170e+00 1.824950e+00 2.709868e+00 4.125217e+00 3.839904e+00 3.948023e+00 3.725169e+00 3.424987e+00 2.829420e+00 2.483621e+00 2.026614e+00 4.048041e+00 2.821440e-01 4.790230e-01 4.062819e-01 5.136086e-01 4.675041e-01 5.136058e-01 8.159387e-01 4.975883e-01 5.034530e-01 4.855170e-01 4.996279e-01 3.953222e-01 2.930596e-01
<GCONST> 1.081860e+02
<MIXTURE> 9 5.563721e-02
<MEAN> 39
 1.802588e+00 1.213089e+01 8.354894e+00 1.384768e+01 4.345552e+00 -2.115068e+00 -3.278284e+00 -6.894042e+00 -1.073682e+00 -2.689071e+00 -7.990825e+00 -3.355797e+00 -1.609764e+01 -1.447333e+00 -4.024249e+00 -9.687728e-01 -3.603973e+00 -1.050174e+00 9.413055e-01 5.943729e-01 1.494934e+00 6.573566e-01 4.092679e-01 2.117829e+00 1.584097e+00 5.097739e+00 2.907423e-01 -1.256365e+00 -4.967956e-01 -1.117497e+00 -9.043748e-01 -3.410103e-01 -3.102559e-01 7.462699e-01 4.114611e-01 2.800164e-01 6.697666e-01 2.582530e-01 2.046988e+00
<VARIANCE> 39
 8.558832e+00 1.483254e+01 1.488644e+01 1.922714e+01 2.363379e+01 2.669276e+01 2.503375e+01 2.883517e+01 2.461917e+01 2.920298e+01 2.800174e+01 2.356137e+01 8.024550e+00 1.223140e+00 2.375777e+00 2.322073e+00 3.714302e+00 4.154653e+00 4.625847e+00 4.145833e+00 4.236286e+00 3.975003e+00 3.208092e+00 3.642021e+00 2.614940e+00 2.554267e+00 2.969044e-01 3.606474e-01 4.036945e-01 3.921660e-01 4.563245e-01 6.122181e-01 7.830095e-01 6.326457e-01 5.286503e-01 4.948237e-01 5.082152e-01 4.703333e-01 2.955824e-01
<GCONST> 1.150932e+02
<MIXTURE> 10 1.068815e-01
<MEAN> 39
 -5.687859e+00 -3.328516e+00 3.927731e+00 1.592148e+00 5.367658e+00 5.808193e+00 3.777253e+00 -4.804025e-01 3.472321e-01 -6.377741e-01 -7.408970e-02 6.258108e-02 -3.574676e+00 -9.661858e-01 -3.458480e+00 -8.943633e-01 -3.988062e+00 -1.759237e+00 -8.007445e-01 9.287591e-02 1.074685e+00 9.425869e-01 1.112484e+00 1.433398e+00 1.241311e+00 6.982752e+00 1.236443e+00 5.686557e-01 3.080814e-01 1.943455e-01 -1.246969e+00 -1.323646e+00 -9.649901e-01 8.759303e-02 -6.833912e-02 -3.759303e-02 -2.604782e-01 -7.244734e-02 4.068163e-01
<VARIANCE> 39
 1.966278e+01 2.953713e+01 3.899730e+01 4.899209e+01 4.198774e+01 4.255771e+01 3.690846e+01 3.021584e+01 3.430331e+01 2.565145e+01 3.082263e+01 2.152748e+01 3.122386e+01 2.550306e+00 2.930973e+00 2.953800e+00 2.967814e+00 3.247622e+00 3.833402e+00 3.861503e+00 3.315862e+00 3.292197e+00 2.798304e+00 2.441573e+00 1.975302e+00 3.352295e+00 5.085177e-01 6.778010e-01 9.865596e-01 8.775693e-01 1.202287e+00 9.644937e-01 1.020618e+00 9.341814e-01 1.055386e+00 7.493972e-01 7.705494e-01 7.151306e-01 3.902116e-01
<GCONST> 1.281974e+02
<MIXTURE> 11 1.003807e-01
<MEAN> 39
 -1.142261e+01 6.742709e+00 7.811499e-01 8.935704e+00 8.046950e+00 6.678164e+00 4.951392e+00 8.072011e-01 3.165584e+00 3.169353e+00 2.776715e+00 2.463571e+00 -2.293760e+01 6.988971e-01 -2.078527e+00 1.344801e-01 -3.571787e+00 -9.859822e-01 -1.573501e+00 -9.525551e-01 -1.328962e-01 -4.838229e-01 -6.437767e-01 -1.797045e-01 1.373939e-01 7.816138e+00 8.648305e-01 -1.606648e-01 1.389754e-01 -7.137671e-01 -8.280094e-01 -9.478689e-01 -7.385841e-01 -7.352749e-02 -1.019268e-01 -2.213908e-01 -3.525684e-01 -2.159949e-01 2.100678e+00
<VARIANCE> 39
 7.657290e+00 1.054552e+01 1.099920e+01 1.807090e+01 1.576755e+01 1.821760e+01 2.033829e+01 2.208486e+01 2.601794e+01 1.838808e+01 1.932066e+01 1.475598e+01 8.079134e+00 1.213651e+00 1.908461e+00 2.797943e+00 2.246906e+00 2.771925e+00 3.059556e+00 3.154953e+00 3.027969e+00 2.126751e+00 2.174361e+00 2.223940e+00 2.034276e+00 2.700094e+00 3.706879e-01 3.026989e-01 2.773283e-01 3.942989e-01 3.644479e-01 3.923250e-01 4.819975e-01 4.409033e-01 5.173830e-01 4.092298e-01 3.753951e-01 3.882052e-01 3.411623e-01
<GCONST> 1.056999e+02
<MIXTURE> 12 4.749085e-02
<MEAN> 39
 -3.268708e+00 1.373377e+00 5.555381e+00 1.149789e+00 2.915718e+00 2.389577e-01 -1.004514e+00 -3.708918e+00 -1.128344e+00 -3.095664e+00 -1.509408e+00 -1.042383e+00 -6.271695e-01 -8.746313e-01 -1.526520e+00 1.858539e-01 -2.144549e+00 -4.996752e-01 -5.438643e-01 -6.682255e-01 1.193937e+00 1.102584e+00 3.755752e-01 4.545344e-01 3.782394e-01 3.216885e+00 1.163319e+00 -3.825406e-01 -7.377812e-02 -4.979274e-01 -1.260352e+00 -3.824227e-01 -3.371560e-01 2.557669e-01 -1.800674e-01 4.066164e-01 1.285157e-02 2.355986e-01 6.626234e-01
<VARIANCE> 39
 2.522049e+01 3.292595e+01 3.622966e+01 4.366065e+01 4.762709e+01 3.705635e+01 4.508360e+01 3.891455e+01 4.033027e+01 2.936907e+01 2.881214e+01 2.310452e+01 2.414438e+01 2.520926e+00 3.859151e+00 3.304532e+00 4.051579e+00 3.270097e+00 4.472054e+00 5.017352e+00 7.799993e+00 7.159761e+00 3.538434e+00 3.323595e+00 2.991234e+00 3.066124e+00 5.932003e-01 6.680759e-01 1.112653e+00 1.342973e+00 1.558491e+00 1.041229e+00 1.488541e+00 1.220807e+00 1.211072e+00 1.110633e+00 1.084738e+00 8.598444e-01 4.357316e-01
<GCONST> 1.352952e+02
<MIXTURE> 13 5.387532e-02
<MEAN> 39
 7.587426e-01 5.292574e+00 6.617194e+00 6.945672e+00 1.846957e+00 3.020658e+00 -1.436779e-01 -6.427138e+00 -5.042111e+00 -3.682220e+00 -3.951223e+00 -2.004483e+00 -9.517732e+00 -1.466965e+00 -3.141858e+00 -1.079130e-01 -2.513887e+00 -2.511261e-01 1.874333e-01 -7.511435e-01 1.308946e+00 1.442579e+00 4.269472e-01 1.154078e+00 1.128581e+00 4.123960e+00 2.689601e-01 -5.395990e-01 -1.015387e-01 -4.864303e-01 -7.141051e-01 -8.572812e-01 -3.569077e-01 6.752127e-01 4.457604e-01 3.397132e-01 3.807029e-01 1.451969e-01 1.252330e+00
<VARIANCE> 39
 1.961008e+01 3.954461e+01 4.250159e+01 3.479324e+01 4.257203e+01 4.108440e+01 3.692157e+01 4.030542e+01 3.487089e+01 2.229974e+01 2.719570e+01 1.866396e+01 2.361119e+01 2.873800e+00 3.365904e+00 4.263992e+00 5.101514e+00 5.312380e+00 5.144879e+00 5.486966e+00 6.242738e+00 5.941032e+00 3.947004e+00 4.389474e+00 2.728491e+00 3.836837e+00 4.468489e-01 7.016486e-01 7.031066e-01 7.175803e-01 9.021161e-01 1.001402e+00 1.056163e+00 1.050727e+00 1.001372e+00 6.263466e-01 7.206738e-01 5.373197e-01 4.270417e-01
<GCONST> 1.315152e+02
<MIXTURE> 14 4.460144e-02
<MEAN> 39
 -1.903542e+00 1.429321e+01 7.937531e+00 1.381166e+01 8.277927e+00 2.893045e+00 6.112098e-01 -6.546292e+00 -3.936458e+00 -3.908643e+00 -5.099041e+00 -2.120148e+00 -1.968390e+01 -1.910138e+00 -4.578211e+00 -1.677723e+00 -3.861421e+00 -3.825187e-01 1.308598e+00 9.421477e-01 1.128980e+00 1.023678e+00 1.212294e+00 1.402552e+00 8.631670e-01 4.787429e+00 4.232416e-01 -1.551439e+00 -3.064201e-01 -1.274425e+00 -1.410842e+00 -1.108202e+00 -5.012734e-01 7.830856e-01 6.771718e-01 3.417470e-01 3.699801e-01 3.985704e-01 2.705168e+00
<VARIANCE> 39
 6.479071e+00 6.669727e+00 1.148206e+01 1.231413e+01 1.597900e+01 1.842778e+01 2.111880e+01 1.589156e+01 1.702350e+01 1.744827e+01 1.533299e+01 1.274237e+01 5.432436e+00 1.373944e+00 1.864682e+00 2.630869e+00 2.806034e+00 2.660474e+00 3.652390e+00 2.776058e+00 3.278286e+00 2.548610e+00 2.247561e+00 2.088280e+00 1.970616e+00 3.479445e+00 2.945631e-01 4.656391e-01 4.314645e-01 5.147520e-01 3.611422e-01 3.845698e-01 5.804791e-01 3.858033e-01 4.536253e-01 4.184840e-01 3.678315e-01 4.039199e-01 2.797671e-01
<GCONST> 1.045825e+02
<MIXTURE> 15 4.081030e-02
<MEAN> 39
 -8.334443e+00 8.299688e-01 3.650197e-01 3.457888e+00 6.854483e+00 4.702046e+00 4.055177e+00 1.454897e+00 3.905071e+00 1.859808e+00 3.805060e+00 1.689960e+00 -1.016996e+01 5.889452e-01 -1.349092e+00 -7.901268e-01 -3.319632e+00 -1.850490e+00 -2.571842e+00 -7.056473e-01 -6.581622e-01 -9.299136e-01 -7.363999e-01 -2.485262e-01 4.575375e-02 7.649994e+00 4.805818e-01 5.405833e-01 3.915433e-01 -4.455937e-02 -7.502294e-01 -8.396888e-01 -4.913719e-01 -1.963571e-01 -2.966710e-01 -2.366434e-01 -4.906727e-01 -1.060146e-01 7.849684e-01
<VARIANCE> 39
 2.592140e+01 3.327694e+01 3.675754e+01 3.987682e+01 2.687627e+01 2.556888e+01 2.270192e+01 1.842270e+01 2.527836e+01 1.565365e+01 2.319869e+01 1.263022e+01 5.123190e+01 2.266659e+00 3.030899e+00 3.321460e+00 3.056951e+00 2.954138e+00 2.776258e+00 2.799371e+00 2.712972e+00 1.873678e+00 2.060029e+00 2.076801e+00 1.373066e+00 3.731649e+00 7.837800e-01 7.128761e-01 7.074394e-01 5.555941e-01 8.572153e-01 5.838737e-01 5.127552e-01 4.889155e-01 6.585003e-01 4.698454e-01 5.079564e-01 3.283069e-01 7.323623e-01
<GCONST> 1.191179e+02
<MIXTURE> 16 5.573352e-02
<MEAN> 39
 1.225077e+00 1.352287e+01 8.545715e+00 1.214952e+01 4.770366e+00 -1.412116e+00 -1.678721e+00 -3.590199e+00 -1.460036e+00 -2.620338e+00 -4.769236e+00 -2.828950e+00 -1.675998e+01 -1.535531e+00 -3.403204e+00 -6.489190e-01 -2.934122e+00 -2.210308e-01 7.603436e-01 5.490958e-01 5.018086e-01 -5.348005e-02 2.925055e-01 8.931814e-01 9.083170e-01 4.139802e+00 -1.516101e-01 -1.256543e+00 -2.040758e-01 -1.005580e+00 -8.099937e-01 -2.628008e-01 -1.564317e-01 2.110679e-01 7.053822e-02 1.111679e-01 4.656971e-01 3.775920e-01 2.021725e+00
<VARIANCE> 39
 9.452250e+00 1.218508e+01 1.545850e+01 1.525129e+01 2.372525e+01 2.677043e+01 2.378244e+01 2.671500e+01 1.939112e+01 2.390905e+01 1.915093e+01 2.112974e+01 7.745994e+00 1.771645e+00 2.979335e+00 2.677877e+00 3.858471e+00 3.255853e+00 5.121669e+00 3.658996e+00 3.988258e+00 3.108747e+00 2.303551e+00 2.406307e+00 2.097350e+00 3.955705e+00 4.212660e-01 4.226024e-01 5.039527e-01 3.602082e-01 6.306993e-01 5.905135e-01 5.490626e-01 5.391309e-01 5.285474e-01 5.591518e-01 4.314312e-01 3.747816e-01 3.532477e-01
<GCONST> 1.137210e+02
<MIXTURE> 17 3.332191e-02
<MEAN> 39
 -5.032348e+00 1.112954e+01 5.912771e+00 1.346236e+01 8.679193e+00 6.275528e+00 2.403218e+00 -2.370775e+00 -1.952583e-01 -3.503860e+00 -2.620027e+00 -3.570658e+00 -2.099839e+01 -2.010540e+00 -3.112154e+00 -1.968507e+00 -2.499007e+00 2.699880e-01 8.330349e-01 1.520701e+00 1.260883e+00 1.348313e+00 1.402226e+00 1.317367e+00 9.033048e-01 2.822181e+00 4.488855e-01 -1.038038e+00 -2.430877e-02 -1.446620e+00 -1.440365e+00 -1.293127e+00 -3.272447e-01 1.441032e-02 -9.614481e-02 2.687503e-01 3.648393e-01 6.295549e-01 2.820195e+00
<VARIANCE> 39
 9.314323e+00 1.122173e+01 1.375983e+01 1.081161e+01 1.185472e+01 1.406322e+01 2.364573e+01 1.506502e+01 1.939154e+01 1.804368e+01 1.457599e+01 1.769870e+01 8.598999e+00 1.310670e+00 2.548547e+00 1.913187e+00 3.451012e+00 2.224124e+00 3.479494e+00 2.352884e+00 2.482711e+00 2.012398e+00 2.092368e+00 2.437119e+00 2.287838e+00 8.522919e+00 5.073632e-01 6.278296e-01 5.493864e-01 5.612454e-01 6.868863e-01 5.753103e-01 5.978670e-01 4.715922e-01 6.489612e-01 4.501109e-01 4.315217e-01 4.389363e-01 4.652092e-01
<GCONST> 1.099118e+02
<STATE> 3
<NUMMIXES> 17
<MIXTURE> 1 4.026690e-02
<MEAN> 39
 -7.804191e+00 -2.464587e+00 4.934286e-01 -2.845917e+00 3.457506e+00 1.686872e+00 2.516246e+00 2.396620e+00 2.867354e+00 1.958159e+00 4.661717e+00 2.441837e+00 2.700773e+00 -2.451814e+00 -1.468341e+00 -1.319856e+00 -1.900230e+00 -1.310905e-01 -3.001110e-01 1.864566e+00 2.313177e+00 1.936026e+00 1.535127e+00 1.696361e+00 1.560732e+00 3.415019e+00 9.428477e-01 1.110586e+00 4.417476e-01 1.016195e+00 -4.345851e-01 -4.078679e-01 -2.810412e-01 -6.601788e-01 -5.702932e-01 -5.914842e-01 -9.151219e-01 -2.261978e-01 -1.144569e+00
<VARIANCE> 39
 2.108023e+01 3.205109e+01 3.515438e+01 4.245508e+01 2.896452e+01 3.112199e+01 3.708706e+01 3.003382e+01 3.010551e+01 2.435226e+01 2.615816e+01 2.433988e+01 2.216284e+01 5.758787e+00 4.124255e+00 3.695892e+00 6.386784e+00 4.292334e+00 4.333387e+00 3.552145e+00 3.443414e+00 2.812264e+00 3.085822e+00 3.213890e+00 3.154542e+00 4.579704e+00 4.255669e-01 5.504315e-01 7.574593e-01 1.232191e+00 7.226287e-01 9.079719e-01 7.811237e-01 8.044112e-01 8.238611e-01 8.097472e-01 6.667083e-01 7.729268e-01 6.843867e-01
<GCONST> 1.293743e+02
<MIXTURE> 2 8.208118e-02
<MEAN> 39
 -6.111559e+00 -5.690285e+00 2.963673e+00 -6.691817e-01 -3.494060e-01 2.832067e+00 3.260707e+00 -2.042576e+00 2.966253e+00 1.434310e+00 -2.120400e-01 4.351567e+00 5.275786e+00 1.765124e+00 -3.674327e+00 -1.187085e+00 -3.625352e+00 -3.171749e+00 -2.012418e+00 -2.512749e+00 2.078339e+00 2.155945e+00 1.220817e+00 1.588311e+00 2.853575e-01 7.492485e+00 1.504461e+00 1.039750e+00 -2.265300e-01 7.989160e-01 -6.294769e-02 -5.972692e-01 -1.082240e+00 3.349567e-01 -1.179133e-01 -1.610766e-01 -3.018053e-01 -1.131271e+00 -1.072026e+00
<VARIANCE> 39
 1.230851e+01 2.621125e+01 1.993424e+01 2.789730e+01 2.912231e+01 4.058440e+01 3.429655e+01 3.749692e+01 2.919311e+01 2.755729e+01 2.279558e+01 1.948771e+01 1.511564e+01 1.757963e+00 2.328216e+00 2.192132e+00 2.330120e+00 2.215281e+00 3.508348e+00 4.474974e+00 3.378138e+00 2.821828e+00 2.298314e+00 2.351801e+00 2.736543e+00 2.204206e+00 2.918641e-01 5.172891e-01 5.138452e-01 6.782784e-01 9.026060e-01 1.000355e+00 9.561560e-01 1.093054e+00 8.483293e-01 8.146303e-01 6.908514e-01 5.957624e-01 5.494651e-01
<GCONST> 1.209806e+02
<MIXTURE> 3 4.703107e-02
<MEAN> 39
 -8.893294e+00 2.823645e+00 -2.479451e+00 -6.299515e-01 3.460541e+00 -6.984597e-01 4.773707e+00 -3.378662e+00 2.903053e+00 1.380691e-01 5.202841e+00 1.094134e+00 5.953174e+00 1.417146e+00 -1.113658e+00 6.526617e-01 -2.910347e+00 -3.386540e+00 -3.215383e+00 -6.725122e-01 6.835449e-01 -7.067886e-02 4.974700e-01 1.854492e-01 1.417182e+00 6.219817e+00 1.505928e+00 1.115777e-01 1.198643e+00 3.848185e-01 -8.780027e-01 -3.061114e-01 -1.028407e+00 4.143170e-01 -5.732819e-01 -2.234803e-01 -9.931260e-01 -8.838212e-02 -1.344003e+00
<VARIANCE> 39
 1.634076e+01 2.005463e+01 2.445474e+01 2.765953e+01 2.645307e+01 3.013432e+01 2.505544e+01 2.677097e+01 3.270580e+01 3.184271e+01 2.712981e+01 2.026836e+01 1.283951e+01 2.586472e+00 3.691401e+00 3.732420e+00 3.374988e+00 3.090147e+00 3.147363e+00 4.137256e+00 4.184419e+00 3.687872e+00 4.028620e+00 3.302204e+00 2.348065e+00 5.407405e+00 4.142933e-01 5.219917e-01 6.081597e-01 8.883824e-01 7.947982e-01 8.283773e-01 7.743400e-01 8.385469e-01 8.780823e-01 9.870241e-01 7.666747e-01 6.678720e-01 4.661216e-01
<GCONST> 1.247641e+02
<MIXTURE> 4 7.261100e-02
<MEAN> 39
 7.506011e-01 -1.938863e+00 5.171199e+00 -4.926672e-01 -3.361246e+00 -4.083599e+00 -3.553401e+00 -6.727670e-01 1.654785e+00 -1.980589e+00 5.694914e-01 2.371529e+00 5.684882e+00 9.355655e-01 -3.052682e+00 -2.386470e-01 -3.178786e+00 -2.334976e+00 -1.266147e+00 -1.678614e+00 2.984841e+00 1.650406e+00 1.183287e+00 1.213375e+00 9.215839e-01 4.657326e+00 7.142676e-01 5.580976e-01 -2.414356e-01 4.900903e-01 -7.091432e-02 7.314771e-02 1.252249e-01 -2.089520e-01 -3.867148e-01 2.889473e-01 -5.304410e-01 -5.566904e-01 -8.701569e-01
<VARIANCE> 39
 1.294082e+01 1.952128e+01 2.434237e+01 3.463903e+01 3.379278e+01 4.067922e+01 3.196640e+01 3.741049e+01 3.704742e+01 2.588067e+01 2.435346e+01 2.155038e+01 1.540831e+01 1.577818e+00 2.938476e+00 3.457386e+00 4.702638e+00 5.272792e+00 4.969917e+00 7.251303e+00 5.247847e+00 5.487531e+00 5.065724e+00 4.553197e+00 2.941242e+00 3.897331e+00 2.214677e-01 4.367982e-01 4.189615e-01 7.448457e-01 1.017112e+00 8.500738e-01 9.205868e-01 1.064279e+00 9.963626e-01 7.168794e-01 8.015358e-01 6.183649e-01 3.647678e-01
<GCONST> 1.269169e+02
<MIXTURE> 5 4.695453e-02
<MEAN> 39
 -1.057601e+01 6.746369e-01 1.419818e+00 -5.416825e+00 7.765342e+00 -8.300676e-01 3.690438e+00 3.352056e+00 -2.414055e+00 2.930058e+00 -9.685519e-01 3.044388e+00 4.602622e+00 2.483974e+00 -6.487716e-01 8.529459e-01 -1.286847e+00 -2.573291e+00 -2.843846e+00 -2.279140e+00 2.304892e-02 7.096570e-01 -4.008715e-01 -3.032130e-01 -9.521460e-03 6.473404e+00 1.407747e+00 1.675178e-01 1.629536e-01 1.124561e+00 -1.154354e+00 2.038864e-01 -9.805632e-01 -5.603563e-01 5.903825e-01 -2.647936e-01 1.869395e-01 -5.306758e-01 -1.269258e+00
<VARIANCE> 39
 1.324151e+01 2.091480e+01 2.414415e+01 2.158065e+01 2.282071e+01 3.170794e+01 3.649723e+01 3.040716e+01 2.734958e+01 2.249471e+01 2.273954e+01 2.222362e+01 2.335624e+01 3.090963e+00 2.654226e+00 2.860266e+00 3.569713e+00 3.735574e+00 2.978245e+00 3.603553e+00 4.046710e+00 4.282043e+00 2.393557e+00 2.636709e+00 2.103801e+00 6.045688e+00 2.894560e-01 4.345112e-01 7.221431e-01 6.407337e-01 5.542453e-01 8.370152e-01 9.257019e-01 7.876728e-01 7.285764e-01 5.168220e-01 6.471623e-01 5.887544e-01 7.254594e-01
<GCONST> 1.221176e+02
<MIXTURE> 6 5.201925e-02
<MEAN> 39
 -5.437510e+00 9.903346e-01 8.228257e+00 -8.165263e-01 1.970572e+00 4.199931e+00 -9.454188e-01 -3.521062e+00 -1.367074e+00 -2.573132e+00 -2.194419e+00 6.844523e-01 -3.158839e-01 -5.944753e-01 -1.738804e+00 8.799504e-01 -1.674986e+00 -1.799622e+00 -9.341297e-01 -3.790295e-01 9.726615e-02 -2.367092e-01 3.461615e-01 1.029703e+00 9.787251e-01 4.088977e+00 1.128087e+00 2.310054e-01 1.452364e-02 7.234886e-01 -9.127179e-01 -1.155462e+00 -1.944842e-01 2.758625e-01 -3.513119e-01 -8.541345e-02 2.192113e-01 -1.268228e-01 -2.233890e-01
<VARIANCE> 39
 1.971536e+01 2.894688e+01 3.324457e+01 3.809081e+01 3.854818e+01 6.891938e+01 4.128668e+01 4.312326e+01 3.421788e+01 2.590840e+01 2.333701e+01 1.898717e+01 2.595432e+01 3.263934e+00 3.340669e+00 2.892741e+00 3.714941e+00 5.161320e+00 4.716208e+00 3.592346e+00 4.227765e+00 4.048200e+00 3.475376e+00 3.079309e+00 2.440371e+00 3.813821e+00 4.026000e-01 6.505067e-01 7.238194e-01 8.904932e-01 1.064091e+00 1.888792e+00 9.845930e-01 1.169122e+00 1.148359e+00 7.479731e-01 6.359329e-01 5.302441e-01 4.168443e-01
<GCONST> 1.302962e+02
<MIXTURE> 7 6.020166e-02
<MEAN> 39
 -4.471758e+00 -8.220639e+00 -2.863876e+00 3.627636e+00 -1.032048e+00 8.300125e-01 3.769338e+00 -1.009561e+00 6.713560e-01 -1.441557e-01 1.780279e-01 2.402083e+00 1.490769e+00 -1.298872e+00 -1.839361e+00 -7.277274e-01 -1.806376e+00 -1.235528e+00 -1.057214e+00 1.728559e-01 1.060172e+00 1.136906e+00 7.146955e-01 9.349992e-01 9.519702e-01 4.442815e+00 6.358283e-01 1.882127e+00 7.726987e-01 4.704036e-01 4.779056e-01 -3.767609e-01 -8.601149e-01 -3.201255e-01 -8.588044e-02 -1.672037e-01 -3.052994e-01 -3.404098e-01 -1.064530e+00
<VARIANCE> 39
 3.444059e+01 2.636423e+01 4.322978e+01 4.664606e+01 3.641257e+01 3.269159e+01 3.121484e+01 2.827814e+01 2.571323e+01 1.759825e+01 2.334437e+01 1.321689e+01 1.848716e+01 4.362011e+00 5.123387e+00 3.686681e+00 3.688020e+00 3.242280e+00 3.364543e+00 3.535163e+00 3.322628e+00 3.286681e+00 2.376776e+00 2.326707e+00 1.943090e+00 3.837361e+00 9.057917e-01 6.599819e-01 8.309712e-01 1.036435e+00 8.580773e-01 8.672249e-01 1.039622e+00 8.919377e-01 7.277612e-01 5.464618e-01 5.776348e-01 3.810047e-01 5.791317e-01
<GCONST> 1.261882e+02
<MIXTURE> 8 5.105948e-02
<MEAN> 39
 -8.610466e+00 1.427504e+00 1.191618e+00 -2.041965e+00 1.895532e+00 1.015995e+00 2.887689e-01 6.823647e-01 3.693834e+00 1.122239e+00 7.753263e+00 1.432595e+00 8.948174e+00 3.502895e+00 -1.487688e+00 2.158555e-01 -3.720817e+00 -3.791390e+00 -4.522202e+00 -1.166810e+00 8.021779e-01 -1.269269e+00 -4.384588e-01 -2.163311e+00 8.206064e-01 6.821404e+00 1.083302e+00 -1.477232e-01 -3.932622e-02 7.766057e-01 -1.078441e-02 3.642003e-03 1.387828e-02 3.788075e-01 -1.713315e-01 -1.678458e-01 -1.444975e+00 -1.695327e-01 -2.069660e+00
<VARIANCE> 39
 1.307946e+01 2.871764e+01 2.982774e+01 2.445180e+01 3.042894e+01 3.245164e+01 4.378965e+01 2.721634e+01 2.204518e+01 2.905038e+01 1.860227e+01 1.851592e+01 1.119800e+01 1.289431e+00 3.225036e+00 3.164770e+00 3.511027e+00 2.882426e+00 2.660518e+00 3.213820e+00 3.685227e+00 2.662006e+00 3.180797e+00 3.302330e+00 2.132835e+00 4.531217e+00 3.949428e-01 6.454527e-01 8.089231e-01 6.744635e-01 8.878729e-01 9.773482e-01 9.567372e-01 8.393217e-01 6.449103e-01 9.211945e-01 5.478286e-01 5.306149e-01 4.325441e-01
<GCONST> 1.219092e+02
<MIXTURE> 9 1.002042e-01
<MEAN> 39
 -7.825033e+00 -1.010230e+00 3.134201e+00 -4.145110e+00 3.723861e+00 1.975602e+00 1.606212e-02 7.734717e-01 1.431162e+00 -1.092214e+00 6.415559e-01 4.925425e+00 6.036830e+00 4.008569e+00 -1.685276e+00 3.252536e-01 -2.342552e+00 -3.007486e+00 -2.744181e+00 -3.836333e+00 4.161693e-01 7.377045e-01 6.189639e-02 -7.858863e-01 -1.326608e+00 7.724947e+00 8.140840e-01 2.184657e-01 -5.852720e-01 7.677652e-01 -2.585247e-01 3.006886e-01 -2.829749e-01 -1.332583e-01 2.519990e-01 6.869661e-01 -9.843521e-02 -9.357254e-01 -1.687132e+00
<VARIANCE> 39
 1.021465e+01 2.376132e+01 2.496126e+01 2.502369e+01 3.085969e+01 4.426015e+01 4.151259e+01 3.473280e+01 2.841397e+01 2.937461e+01 2.805917e+01 2.336420e+01 2.150857e+01 1.315538e+00 2.404000e+00 2.653158e+00 3.060971e+00 2.790760e+00 3.444080e+00 3.108110e+00 3.575881e+00 3.229236e+00 3.005711e+00 2.427501e+00 2.632767e+00 2.914277e+00 3.101800e-01 5.204706e-01 6.277425e-01 6.645868e-01 6.807947e-01 1.122432e+00 9.385086e-01 9.237431e-01 8.511687e-01 8.173196e-01 8.135091e-01 6.100002e-01 6.753901e-01
<GCONST> 1.229291e+02
<MIXTURE> 10 7.432776e-02
<MEAN> 39
 -6.312424e+00 -5.697272e+00 5.168694e+00 -1.219022e+00 -6.207056e-01 5.339575e+00 1.319249e+00 -1.097267e+00 4.463117e+00 -5.697443e-01 2.601603e+00 3.711241e+00 5.294641e+00 1.822044e+00 -3.739851e+00 -8.058075e-01 -3.981397e+00 -3.283142e+00 -2.606780e+00 -2.082483e+00 2.226958e+00 1.165117e+00 1.145288e+00 8.472102e-01 3.383111e-01 7.849286e+00 1.470426e+00 9.911050e-01 -3.929363e-01 8.231057e-01 -5.390719e-02 -1.010846e+00 -7.252278e-01 2.550126e-01 -5.494513e-01 5.522076e-02 -8.076494e-01 -9.483740e-01 -1.098717e+00
<VARIANCE> 39
 1.170801e+01 2.699979e+01 2.389706e+01 2.884672e+01 3.419260e+01 5.778511e+01 4.027170e+01 3.475175e+01 3.626152e+01 2.883447e+01 3.967148e+01 1.556697e+01 2.087380e+01 2.070800e+00 2.475466e+00 2.812567e+00 2.518528e+00 2.840393e+00 3.514518e+00 4.482228e+00 3.966037e+00 3.754456e+00 3.330136e+00 3.267718e+00 2.172268e+00 2.289586e+00 2.761757e-01 4.748750e-01 7.124172e-01 7.352146e-01 1.084242e+00 1.359497e+00 1.112024e+00 9.669599e-01 1.057514e+00 7.917662e-01 1.170089e+00 4.622140e-01 6.511896e-01
<GCONST> 1.258647e+02
<MIXTURE> 11 6.959422e-02
<MEAN> 39
 6.531366e-01 -2.426142e+00 6.142109e+00 -7.279491e-01 -3.321461e+00 -3.048235e+00 -3.905089e+00 -1.497950e+00 1.223022e+00 -2.226271e+00 -6.699184e-01 1.442337e+00 5.499776e+00 8.535290e-01 -3.080975e+00 -2.747875e-01 -3.006315e+00 -2.089785e+00 -1.344665e+00 -2.082309e+00 2.789303e+00 1.753422e+00 8.649892e-01 1.186594e+00 5.643712e-01 4.651137e+00 7.197788e-01 5.777055e-01 -3.971885e-01 4.750096e-01 -7.066213e-02 -4.876018e-02 1.107113e-01 -1.712242e-01 -3.932999e-01 3.427702e-01 -2.522322e-01 -4.901449e-01 -7.669436e-01
<VARIANCE> 39
 1.249356e+01 2.127489e+01 2.717559e+01 3.520002e+01 3.393490e+01 4.268623e+01 3.873701e+01 3.427157e+01 4.281829e+01 2.646255e+01 2.668828e+01 2.052545e+01 1.507717e+01 1.839644e+00 2.908761e+00 4.375643e+00 4.588773e+00 5.086665e+00 5.157802e+00 5.954777e+00 5.092397e+00 6.968452e+00 5.651335e+00 5.498776e+00 3.877618e+00 3.838069e+00 2.210843e-01 4.219195e-01 5.029738e-01 7.920533e-01 8.083979e-01 9.719052e-01 1.137108e+00 1.026912e+00 1.166677e+00 6.692975e-01 9.218678e-01 6.260171e-01 3.685911e-01
<GCONST> 1.289048e+02
<MIXTURE> 12 5.001580e-02
<MEAN> 39
 -6.935502e+00 -6.606452e+00 -2.091576e+00 -1.313640e+00 1.290902e+00 1.177447e+00 2.469310e+00 -1.022633e+00 7.444253e-01 -1.385213e-01 1.014892e+00 1.871783e+00 1.202768e+00 -6.381990e-01 -1.162160e+00 -2.893247e-01 -2.483137e+00 -1.509566e+00 -2.055441e+00 -3.063234e-01 -1.011694e-01 -1.173881e-01 -3.044995e-01 7.650819e-02 4.193243e-01 5.956857e+00 4.997146e-01 1.523349e+00 8.125452e-01 9.834666e-01 1.396358e-01 -3.497657e-01 -4.050224e-01 -7.337245e-02 -4.058607e-02 -7.693296e-02 -2.644166e-01 -1.825808e-01 -1.031632e+00
<VARIANCE> 39
 2.326812e+01 2.814512e+01 3.640608e+01 4.902096e+01 3.374209e+01 3.008835e+01 2.760399e+01 3.089091e+01 2.553172e+01 1.947728e+01 1.963514e+01 1.204752e+01 2.175169e+01 2.925214e+00 3.318820e+00 3.760621e+00 3.437471e+00 2.976493e+00 3.195415e+00 3.655344e+00 2.533791e+00 2.834620e+00 2.491757e+00 1.949324e+00 1.759350e+00 3.733356e+00 8.410801e-01 5.100812e-01 6.981407e-01 8.923115e-01 8.003397e-01 7.771882e-01 8.528204e-01 7.242643e-01 5.913029e-01 5.227346e-01 3.971652e-01 3.310185e-01 5.248306e-01
<GCONST> 1.217664e+02
<MIXTURE> 13 5.124736e-02
<MEAN> 39
 -4.071669e+00 2.780304e+00 6.945504e+00 -1.215816e+00 1.706509e+00 1.714963e+00 -1.819948e+00 -4.842693e+00 -2.772068e+00 -2.676205e+00 -1.695710e+00 -1.021190e+00 9.709446e-01 -7.014087e-02 -1.186226e+00 8.779024e-01 -2.072276e+00 -2.065784e+00 -5.350667e-01 -4.599617e-01 -4.523386e-01 -5.075279e-01 3.073384e-01 7.730356e-01 9.432544e-01 3.509716e+00 1.011091e+00 5.403367e-02 1.996826e-01 5.188056e-01 -9.763759e-01 -7.009169e-01 -9.416127e-02 2.744887e-01 -1.710612e-01 -3.237095e-02 7.030670e-02 1.039813e-01 -3.306266e-01
<VARIANCE> 39
 2.734579e+01 2.662144e+01 3.628598e+01 3.997772e+01 4.464409e+01 5.659499e+01 4.589423e+01 3.764403e+01 2.936961e+01 2.588137e+01 2.329555e+01 2.051458e+01 2.387548e+01 3.822906e+00 4.278045e+00 3.528831e+00 4.671596e+00 5.346909e+00 4.844135e+00 4.456624e+00 4.152866e+00 3.872620e+00 3.755200e+00 3.884409e+00 2.274329e+00 4.060907e+00 4.638138e-01 5.634622e-01 7.219940e-01 1.030535e+00 1.201383e+00 1.445491e+00 1.103799e+00 9.474712e-01 9.152030e-01 7.602655e-01 6.100742e-01 5.187735e-01 4.110928e-01
<GCONST> 1.313958e+02
<MIXTURE> 14 5.769878e-02
<MEAN> 39
 -1.021629e+01 2.438536e+00 -4.277222e+00 2.546507e-01 3.691550e+00 9.525487e-01 5.538483e+00 -2.047206e+00 4.980040e+00 1.204580e+00 5.606603e+00 9.556291e-01 5.713079e+00 1.747486e+00 3.251304e-01 1.002138e+00 -2.882682e+00 -3.538625e+00 -3.719270e+00 -1.113384e+00 -1.224540e+00 -1.555987e+00 -5.893748e-01 -7.758388e-01 2.041787e-01 6.355508e+00 1.330428e+00 5.688467e-02 1.345530e+00 2.294633e-01 -7.593708e-01 -4.179045e-01 -9.819631e-01 2.190625e-01 -7.389758e-01 -7.172437e-02 -7.694712e-01 3.295391e-02 -1.520014e+00
<VARIANCE> 39
 1.489821e+01 2.235972e+01 2.352400e+01 2.491234e+01 2.614663e+01 2.514614e+01 2.793594e+01 2.519436e+01 2.942866e+01 2.636590e+01 1.842971e+01 1.910947e+01 1.693428e+01 2.357831e+00 2.798596e+00 3.887222e+00 3.173629e+00 3.039390e+00 2.836313e+00 2.985594e+00 3.788237e+00 3.004040e+00 3.205847e+00 2.372483e+00 2.345012e+00 6.848037e+00 3.675007e-01 5.682445e-01 5.705500e-01 7.194231e-01 6.574883e-01 7.192559e-01 7.886768e-01 8.720688e-01 7.774400e-01 6.920148e-01 5.959389e-01 5.914937e-01 6.116449e-01
<GCONST> 1.214019e+02
<MIXTURE> 15 3.134855e-02
<MEAN> 39
 -1.006038e+01 2.465813e+00 1.416052e+00 -2.326365e+00 3.280615e+00 1.706557e+00 1.806032e+00 1.075587e+00 4.391909e+00 3.071002e+00 6.839272e+00 6.365777e-01 8.199032e+00 3.249173e+00 -9.679301e-01 2.399041e-01 -3.565427e+00 -4.411092e+00 -4.358133e+00 -1.410708e+00 -3.445944e-01 -2.243990e+00 -1.349664e+00 -2.134134e+00 1.259920e-01 6.268780e+00 1.266973e+00 -2.725582e-01 5.242477e-02 7.643590e-01 -3.569316e-01 -2.278753e-01 -1.900918e-01 2.388139e-01 -4.951632e-01 -4.385792e-01 -1.176291e+00 -2.961298e-02 -2.026124e+00
<VARIANCE> 39
 1.562095e+01 3.116712e+01 3.974075e+01 3.483882e+01 3.528560e+01 4.222623e+01 3.471297e+01 2.659106e+01 2.345664e+01 3.172372e+01 1.908499e+01 2.016284e+01 1.278262e+01 1.512393e+00 3.720137e+00 3.621526e+00 4.013138e+00 2.535868e+00 2.877038e+00 2.222253e+00 4.746439e+00 2.244377e+00 3.253995e+00 2.788007e+00 2.019552e+00 6.462498e+00 5.070472e-01 7.323285e-01 1.178350e+00 8.765123e-01 9.710296e-01 1.383362e+00 7.869200e-01 7.936517e-01 6.904544e-01 8.602772e-01 6.328204e-01 6.421754e-01 4.695157e-01
<GCONST> 1.253638e+02
<MIXTURE> 16 5.741148e-02
<MEAN> 39
 -8.106078e+00 -2.798839e+00 1.950630e+00 -5.346170e+00 4.237383e+00 2.265219e+00 1.282905e+00 3.601593e+00 3.008522e+00 1.956363e+00 4.922937e+00 1.547638e+00 4.424097e+00 -4.380048e-01 -1.163320e+00 -2.185217e-01 -2.236699e+00 -1.249718e+00 -1.470135e+00 6.403556e-01 9.879916e-01 6.567146e-01 6.759684e-01 2.896860e-01 7.282351e-01 4.501893e+00 1.379054e+00 1.069664e+00 4.215192e-01 1.241675e+00 -8.808361e-01 -7.476427e-01 -3.168590e-01 -9.780410e-01 -7.562070e-01 -5.330780e-01 -9.858481e-01 -2.175161e-01 -1.307658e+00
<VARIANCE> 39
 2.046519e+01 2.041405e+01 2.285301e+01 2.748190e+01 3.406851e+01 3.313236e+01 3.586004e+01 2.828028e+01 3.586469e+01 3.515071e+01 2.658578e+01 2.358554e+01 1.728122e+01 3.791986e+00 2.407063e+00 3.510283e+00 4.398580e+00 4.639346e+00 3.259617e+00 3.479086e+00 3.241676e+00 2.968427e+00 2.572430e+00 2.955281e+00 2.449078e+00 6.447800e+00 5.942584e-01 4.928164e-01 7.175629e-01 8.450041e-01 1.245478e+00 1.094744e+00 9.612629e-01 8.722770e-01 9.808462e-01 1.077340e+00 7.703251e-01 7.749633e-01 5.590444e-01
<GCONST> 1.278620e+02
<MIXTURE> 17 5.591731e-02
<MEAN> 39
 -1.046066e+01 4.073023e-01 1.498299e-01 -5.452557e+00 6.944239e+00 -1.487508e+00 3.534117e+00 1.519608e+00 -2.579175e+00 2.832619e+00 -6.846650e-01 2.809748e+00 5.029120e+00 2.031658e+00 -4.962142e-01 9.000413e-01 -1.837920e+00 -2.628805e+00 -3.303721e+00 -1.961676e+00 -5.285908e-01 -2.477770e-01 -6.572154e-01 -5.233368e-01 1.460946e-01 6.765671e+00 1.363204e+00 2.820155e-01 5.468991e-01 1.238051e+00 -1.112903e+00 1.413233e-01 -9.291600e-01 -2.300502e-01 5.303020e-01 -3.980659e-01 1.562928e-01 -3.692273e-01 -1.373534e+00
<VARIANCE> 39
 1.718001e+01 2.290351e+01 2.802274e+01 1.894360e+01 2.277496e+01 3.273057e+01 3.003899e+01 2.642332e+01 2.266152e+01 2.327871e+01 1.583940e+01 1.841142e+01 2.016033e+01 2.991316e+00 2.782594e+00 3.048019e+00 3.870118e+00 3.161799e+00 2.377550e+00 2.849292e+00 2.537538e+00 3.623074e+00 2.504114e+00 2.336773e+00 1.997257e+00 4.952110e+00 3.554165e-01 5.301889e-01 7.489797e-01 6.391757e-01 6.164675e-01 8.220149e-01 8.068807e-01 7.118847e-01 6.785970e-01 5.694225e-01 4.383624e-01 4.716088e-01 6.680674e-01
<GCONST> 1.195225e+02
<STATE> 4
<NUMMIXES> 17
<MIXTURE> 1 3.558782e-02
<MEAN> 39
 -9.396418e+00 2.324249e-01 -5.588481e-01 -2.250777e+00 2.851551e+00 -4.782818e-01 2.378519e+00 1.467957e+00 1.873940e+00 5.962405e-01 1.979927e+00 3.588988e+00 1.355811e+00 -1.293559e+00 1.290799e+00 -1.051228e-01 5.587428e-01 3.533534e-01 -4.690128e-01 7.262307e-01 1.220533e+00 8.099440e-01 7.167874e-01 1.674992e-01 6.810836e-01 2.291722e-01 6.790168e-01 9.495080e-01 4.893143e-01 1.345214e+00 2.466447e-01 2.684340e-01 -1.088370e-01 -3.089523e-01 -1.934509e-01 -2.302059e-01 -4.635465e-01 -4.218644e-01 -1.827482e+00
<VARIANCE> 39
 3.775763e+01 4.228364e+01 4.610429e+01 3.617282e+01 4.574010e+01 3.249020e+01 2.997353e+01 3.030497e+01 3.096173e+01 2.293378e+01 2.290912e+01 2.098096e+01 2.413756e+01 4.665740e+00 4.378317e+00 3.874575e+00 4.313363e+00 3.191161e+00 3.859403e+00 3.045487e+00 2.803473e+00 2.697134e+00 2.003347e+00 2.763298e+00 3.067574e+00 6.830081e+00 6.671557e-01 7.994999e-01 7.687284e-01 7.644367e-01 9.527602e-01 7.243460e-01 6.789942e-01 5.504885e-01 6.129907e-01 5.509105e-01 5.056425e-01 4.403902e-01 7.125828e-01
<GCONST> 1.273044e+02
<MIXTURE> 2 7.595136e-02
<MEAN> 39
 3.491422e+00 -2.121021e+00 2.265517e+00 -7.970757e-01 -3.585488e+00 -3.206774e+00 -7.944309e+00 -1.654209e+00 6.848818e+00 2.839091e+00 -1.069759e+00 -1.452955e+00 8.353347e+00 3.309619e+00 -7.261742e-01 -1.996814e+00 -1.477219e+00 -1.222217e+00 -9.959764e-01 -2.798878e+00 7.090446e-01 1.661020e+00 1.290701e+00 8.538413e-01 -1.532065e+00 2.458395e+00 6.216509e-02 6.589836e-01 -3.980665e-01 5.030115e-01 8.028849e-01 7.604418e-01 8.893215e-01 -1.598578e-01 -9.032885e-01 -2.191558e-01 -2.184350e-02 -2.073529e-01 -1.833448e+00
<VARIANCE> 39
 1.357176e+01 1.592324e+01 2.030949e+01 2.535694e+01 2.508765e+01 2.401223e+01 3.139952e+01 2.835251e+01 2.027476e+01 2.054061e+01 1.620791e+01 1.753440e+01 1.069004e+01 2.536331e+00 3.464680e+00 3.517857e+00 5.486517e+00 4.217697e+00 7.018934e+00 7.563684e+00 8.514249e+00 6.246234e+00 5.344930e+00 5.172343e+00 4.124720e+00 3.282276e+00 3.192579e-01 5.162537e-01 4.186677e-01 5.438604e-01 5.750583e-01 5.956717e-01 7.060518e-01 7.072628e-01 7.111157e-01 6.121702e-01 4.580835e-01 5.452014e-01 3.487191e-01
<GCONST> 1.226629e+02
<MIXTURE> 3 6.111000e-02
<MEAN> 39
 2.140657e+00 -1.557198e-01 7.689688e+00 -4.349393e-01 -5.968149e+00 -8.644674e+00 -4.968619e+00 1.546061e+00 -3.451931e-02 -2.308226e+00 3.288273e-01 3.344017e+00 7.554612e+00 2.653200e+00 -1.367875e+00 7.738255e-01 -3.789399e-01 -3.510284e+00 -2.147007e+00 -2.036881e+00 1.772996e+00 5.842494e-01 1.940476e-01 2.616995e-01 2.145892e-01 2.246964e+00 1.181312e-01 4.092806e-01 -3.186317e-01 7.486417e-01 5.348673e-01 8.249072e-01 4.220366e-01 -2.935462e-01 -1.201966e-01 1.332832e-01 -4.141939e-01 -6.592838e-01 -1.624830e+00
<VARIANCE> 39
 1.216933e+01 1.906691e+01 2.246167e+01 2.061399e+01 2.905498e+01 1.920506e+01 2.319411e+01 2.028681e+01 2.396336e+01 1.692599e+01 1.639818e+01 1.230397e+01 1.509525e+01 2.551003e+00 2.572407e+00 3.484232e+00 3.784330e+00 4.774664e+00 4.879592e+00 6.088405e+00 4.661252e+00 4.796928e+00 3.868328e+00 4.554479e+00 3.340495e+00 3.093162e+00 2.286159e-01 4.791095e-01 3.312741e-01 3.962401e-01 5.469001e-01 5.502576e-01 4.683495e-01 5.560002e-01 6.155391e-01 4.608983e-01 4.264030e-01 3.303555e-01 3.311612e-01
<GCONST> 1.163802e+02
<MIXTURE> 4 6.124388e-02
<MEAN> 39
 -5.395013e+00 5.920107e+00 3.353421e+00 6.045183e-01 2.443459e+00 -6.497456e+00 5.403917e-01 -1.432778e+00 -5.382337e-01 1.047408e+00 -2.729109e+00 2.805290e+00 5.212203e+00 4.034142e+00 -1.493824e-01 9.433126e-01 6.473047e-01 -3.123556e+00 -1.603381e+00 -3.330903e+00 -2.484075e-01 8.748446e-01 -4.055845e-01 5.163268e-02 -8.424553e-01 1.968138e+00 7.321699e-01 -5.378763e-01 -9.921075e-02 4.398077e-01 -1.606272e-01 1.042166e+00 -3.488955e-01 7.456810e-02 2.368306e-01 -7.962132e-02 3.853455e-01 -4.691752e-01 -1.581776e+00
<VARIANCE> 39
 2.231346e+01 1.901215e+01 3.017422e+01 2.851778e+01 2.296938e+01 2.543279e+01 2.878869e+01 2.227420e+01 2.501918e+01 1.931890e+01 1.920415e+01 1.850467e+01 1.560706e+01 2.440362e+00 2.961077e+00 6.551797e+00 3.998775e+00 5.795188e+00 4.941838e+00 4.823590e+00 4.143775e+00 4.851371e+00 4.050522e+00 3.078959e+00 3.594651e+00 2.814698e+00 5.743187e-01 4.345998e-01 6.481955e-01 6.625245e-01 4.969074e-01 6.381687e-01 6.377741e-01 6.454939e-01 5.166200e-01 4.846387e-01 4.192029e-01 4.299922e-01 5.741289e-01
<GCONST> 1.222083e+02
<MIXTURE> 5 4.768843e-02
<MEAN> 39
 7.053817e+00 -8.159316e+00 3.977761e+00 -2.555148e+00 -8.393163e+00 -1.820125e+00 -1.481691e+01 7.776780e+00 3.957434e+00 2.582298e+00 9.359676e-01 -2.138179e+00 1.094308e+01 2.279319e+00 -1.718856e+00 -1.618206e+00 -1.324882e+00 -8.784962e-01 4.006260e-01 -2.198807e+00 2.613611e+00 5.619628e-01 1.365237e+00 3.407945e-01 -1.776240e+00 1.493707e+00 -5.014640e-01 8.839995e-01 -5.530671e-01 6.253633e-01 1.266379e+00 5.902765e-01 1.844353e+00 -1.100722e+00 -4.948682e-01 -2.887906e-01 -3.374754e-01 -7.510946e-02 -1.547032e+00
<VARIANCE> 39
