~o
<STREAMINFO> 1 39
<VECSIZE> 39<NULLD><MFCC_D_A_Z_0><DIAGC>
~h "b"
<BEGINHMM>
<NUMSTATES> 5
<STATE> 2
<MEAN> 39
 -3.598332e-01 1.044596e+01 3.568484e+00 1.004667e+01 6.836666e+00 4.277665e+00 9.807115e-01 -4.797988e+00 -3.206362e+00 -2.321007e+00 -9.663343e-01 -1.290850e+00 -1.718525e+01 -5.308668e-01 -1.363305e+00 -4.397318e-01 -8.879534e-01 -3.450354e-01 -3.180612e-01 2.598972e-01 7.688562e-01 9.579857e-01 4.729256e-01 3.164088e-01 4.116791e-01 2.050230e+00 5.118181e-01 -9.163821e-01 -3.796294e-01 -1.041711e+00 -7.349468e-01 -4.416308e-01 -3.156323e-01 1.855859e-01 2.669876e-01 3.069814e-01 2.240820e-01 1.072314e-01 1.733706e+00
<VARIANCE> 39
 4.123003e+01 2.329646e+01 2.207367e+01 2.545964e+01 2.312912e+01 2.540710e+01 3.407438e+01 3.834702e+01 4.091802e+01 3.037521e+01 2.679271e+01 2.217647e+01 2.240057e+01 2.897737e+00 3.211833e+00 2.371234e+00 3.656747e+00 2.494447e+00 2.776409e+00 2.991959e+00 3.679246e+00 3.836252e+00 2.945168e+00 2.543700e+00 2.094398e+00 7.099879e+00 5.751741e-01 6.405992e-01 8.235689e-01 8.567660e-01 6.878164e-01 6.876944e-01 6.882907e-01 7.988140e-01 7.860053e-01 7.198198e-01 6.052312e-01 4.597418e-01 9.104775e-01
<GCONST> 1.251947e+02
<STATE> 3
<MEAN> 39
 -2.298923e+00 3.716114e+00 1.055990e+00 5.581805e+00 4.779257e+00 1.948756e+00 1.697842e+00 -1.778872e+00 7.420717e-01 -2.560052e-01 4.003033e-01 2.527519e-01 -7.102096e+00 1.534985e+00 -3.068467e+00 -1.188498e+00 -3.503401e+00 -2.320298e+00 -1.439273e+00 -8.140662e-01 9.157564e-01 1.139490e+00 9.612290e-01 7.519441e-01 4.961282e-01 6.140449e+00 1.021561e+00 -1.766307e-01 -5.254775e-02 -7.104079e-01 -6.166548e-01 -5.338924e-02 -5.140853e-01 -1.702895e-01 -3.824479e-01 9.067827e-03 -1.569515e-02 -1.928109e-01 5.159497e-01
<VARIANCE> 39
 3.329279e+01 2.485775e+01 2.453139e+01 3.465343e+01 2.719304e+01 3.420535e+01 3.171745e+01 3.489875e+01 3.671291e+01 2.874019e+01 2.776096e+01 2.074630e+01 6.841243e+01 4.785075e+00 3.692390e+00 6.047583e+00 5.599408e+00 4.337483e+00 5.143690e+00 5.431132e+00 5.753333e+00 5.863845e+00 4.792206e+00 4.011289e+00 3.202552e+00 4.206522e+00 6.470431e-01 7.115002e-01 8.249931e-01 8.905305e-01 7.807873e-01 1.014736e+00 9.430025e-01 9.727628e-01 9.781840e-01 7.944233e-01 7.998782e-01 5.765395e-01 1.141787e+00
<GCONST> 1.344985e+02
<STATE> 4
<MEAN> 39
 4.889808e+00 -1.306120e+00 -1.749834e+00 -3.106373e+00 -1.518366e+00 -4.260160e-01 -1.301539e+00 -1.461401e+00 1.281608e+00 1.568416e+00 1.776188e+00 2.547546e-02 5.125966e+00 2.530090e+00 -2.520691e+00 -8.587318e-01 -3.546164e+00 -2.327652e+00 -4.641037e-01 -1.099201e+00 5.503374e-01 1.442304e-01 5.949818e-01 2.233146e-01 -1.791435e-01 4.381258e+00 -1.546793e-01 6.262161e-01 3.393819e-01 6.628424e-01 4.338878e-01 4.359273e-01 7.753441e-02 -1.541405e-01 -3.939246e-01 -3.106829e-01 -2.855337e-01 -1.928222e-01 -1.390229e+00
<VARIANCE> 39
 3.807593e+01 3.083371e+01 4.914326e+01 6.704657e+01 3.961375e+01 5.917045e+01 4.385332e+01 4.309893e+01 3.899193e+01 3.474084e+01 3.330543e+01 2.721614e+01 2.748658e+01 4.459540e+00 4.926447e+00 8.130036e+00 7.128700e+00 6.974957e+00 8.342730e+00 8.195686e+00 7.500679e+00 7.377225e+00 5.708775e+00 5.864564e+00 4.392879e+00 6.054347e+00 7.957646e-01 5.336548e-01 5.141554e-01 9.660781e-01 7.331350e-01 8.076274e-01 8.267326e-01 8.630911e-01 8.290071e-01 7.170254e-01 6.814230e-01 5.335399e-01 5.140036e-01
<GCONST> 1.389904e+02
<TRANSP> 5
 0.000000e+00 1.000000e+00 0.000000e+00 0.000000e+00 0.000000e+00
 0.000000e+00 5.640731e-01 4.359269e-01 0.000000e+00 0.000000e+00
 0.000000e+00 0.000000e+00 2.272874e-01 7.727126e-01 0.000000e+00
 0.000000e+00 0.000000e+00 0.000000e+00 4.455111e-01 5.544889e-01
 0.000000e+00 0.000000e+00 0.000000e+00 0.000000e+00 0.000000e+00
<ENDHMM>
~h "d"
<BEGINHMM>
<NUMSTATES> 5
<STATE> 2
<MEAN> 39
 -2.691773e+00 9.769372e+00 5.795021e+00 1.074428e+01 5.431136e+00 2.113226e+00 3.395003e-01 -4.199829e+00 -1.350662e+00 -2.218647e+00 -3.095515e+00 -1.706020e+00 -1.643880e+01 -1.206710e+00 -2.033551e+00 -5.514756e-01 -1.801335e+00 2.586516e-01 6.366728e-01 4.256350e-01 7.887295e-01 6.728078e-01 5.352859e-01 8.808323e-01 6.071884e-01 2.584746e+00 2.578959e-01 -9.605590e-01 -1.765349e-01 -1.004242e+00 -8.754937e-01 -5.847329e-01 -2.486115e-01 4.024836e-01 2.143347e-01 1.924254e-01 2.944166e-01 3.106912e-01 1.935468e+00
<VARIANCE> 39
 3.546093e+01 3.499909e+01 2.818515e+01 3.450995e+01 3.295337e+01 3.626231e+01 3.530111e+01 3.613441e+01 3.349274e+01 3.049824e+01 3.499904e+01 2.259269e+01 4.111062e+01 2.992396e+00 5.359031e+00 3.186934e+00 5.226170e+00 3.986267e+00 4.704415e+00 4.274503e+00 4.428102e+00 4.064130e+00 3.450840e+00 3.366142e+00 2.626576e+00 9.982844e+00 5.799935e-01 1.008758e+00 5.773948e-01 8.224390e-01 8.597814e-01 8.048662e-01 8.321317e-01 8.051482e-01 7.405949e-01 6.508247e-01 6.492948e-01 5.153313e-01 1.307414e+00
<GCONST> 1.322110e+02
<STATE> 3
<MEAN> 39
 -6.687188e+00 -3.847721e-01 2.735955e+00 1.938061e+00 4.187682e+00 3.501500e+00 2.393970e+00 -8.676530e-01 1.289791e+00 2.642186e-02 1.007340e+00 1.316786e+00 -3.386723e+00 -1.984618e-02 -2.422674e+00 -3.239276e-01 -3.129001e+00 -1.785241e+00 -1.445671e+00 -5.730610e-01 1.032255e+00 7.346859e-01 5.656641e-01 8.569369e-01 8.849286e-01 6.125710e+00 1.105556e+00 3.821059e-01 2.121944e-01 1.697743e-01 -8.241147e-01 -8.123242e-01 -6.569002e-01 9.434051e-03 -1.880288e-01 -7.413047e-02 -3.409660e-01 -2.416372e-01 9.800798e-02
<VARIANCE> 39
 2.936818e+01 4.495977e+01 3.967847e+01 5.322047e+01 4.279552e+01 4.550684e+01 3.893331e+01 3.626361e+01 3.649028e+01 2.930252e+01 3.254661e+01 2.104406e+01 9.579316e+01 4.509892e+00 4.583912e+00 3.738844e+00 4.390015e+00 4.285393e+00 4.979685e+00 5.325648e+00 4.887077e+00 4.645356e+00 3.776433e+00 3.699085e+00 2.669712e+00 7.190441e+00 5.978240e-01 8.702748e-01 8.746569e-01 1.068415e+00 1.078805e+00 1.133539e+00 1.046296e+00 1.024166e+00 9.933859e-01 7.899018e-01 8.370544e-01 6.323447e-01 1.641170e+00
<GCONST> 1.378513e+02
<STATE> 4
<MEAN> 39
 -1.938502e+00 -1.075388e+00 3.288521e+00 -1.805087e+00 -2.357337e+00 -3.574289e+00 -2.036044e+00 9.418131e-01 2.132653e+00 4.574771e-01 2.449373e-01 1.592525e+00 6.705314e+00 2.538121e+00 -1.217348e+00 -3.341429e-01 -1.250010e+00 -1.970848e+00 -1.640795e+00 -1.634712e+00 9.832126e-01 3.140522e-01 3.506511e-01 -3.829104e-01 -4.586938e-01 2.810111e+00 3.914920e-01 3.635198e-01 -2.222677e-01 7.113982e-01 4.769836e-01 5.847780e-01 1.178449e-01 -2.168056e-01 -2.216581e-01 -6.833555e-02 -1.984496e-01 -3.924921e-01 -1.524096e+00
<VARIANCE> 39
 4.785847e+01 3.622231e+01 3.687969e+01 3.581303e+01 4.689593e+01 4.626310e+01 5.458367e+01 4.153101e+01 3.724804e+01 2.903243e+01 2.968600e+01 2.426851e+01 2.699328e+01 4.878507e+00 4.557607e+00 5.526439e+00 5.628775e+00 6.910463e+00 7.114005e+00 7.420082e+00 6.095771e+00 5.891815e+00 4.714831e+00 5.630487e+00 4.245416e+00 8.290884e+00 9.486548e-01 7.984500e-01 7.689039e-01 7.970236e-01 1.174926e+00 1.271246e+00 1.292212e+00 9.538817e-01 8.841024e-01 7.545568e-01 8.244308e-01 6.268893e-01 6.454537e-01
<GCONST> 1.397907e+02
<TRANSP> 5
 0.000000e+00 1.000000e+00 0.000000e+00 0.000000e+00 0.000000e+00
 0.000000e+00 4.513142e-01 5.486857e-01 0.000000e+00 0.000000e+00
 0.000000e+00 0.000000e+00 2.917852e-01 7.082149e-01 0.000000e+00
 0.000000e+00 0.000000e+00 0.000000e+00 5.315830e-01 4.684171e-01
 0.000000e+00 0.000000e+00 0.000000e+00 0.000000e+00 0.000000e+00
<ENDHMM>
~h "f"
<BEGINHMM>
<NUMSTATES> 5
<STATE> 2
<MEAN> 39
 -6.970425e+00 1.079072e+00 -1.327256e+00 3.618225e+00 3.640698e+00 2.141265e+00 3.413079e+00 3.469981e-01 1.559083e+00 2.631308e-01 -2.826486e-01 7.938929e-01 -1.013008e+00 -3.494965e+00 -2.290911e-01 -2.878208e-01 8.457517e-01 4.335260e-01 3.760990e-01 6.248994e-01 5.173498e-01 6.090009e-01 3.598495e-01 4.003130e-01 5.861719e-01 -8.811538e-01 3.947105e-01 -3.232519e-01 -9.602880e-02 -3.873969e-01 -3.461125e-01 -2.104062e-01 -3.317419e-01 -5.203000e-02 -9.786554e-02 4.249939e-02 2.223350e-02 -5.548568e-02 2.725296e-01
<VARIANCE> 39
 5.891563e+01 2.182715e+01 2.523224e+01 2.843675e+01 2.217422e+01 2.836451e+01 2.687887e+01 2.457100e+01 2.456221e+01 2.303227e+01 2.249961e+01 1.866638e+01 3.030070e+01 5.991199e+00 3.571471e+00 3.979335e+00 4.805065e+00 3.516984e+00 3.971135e+00 3.930655e+00 3.572686e+00 3.560403e+00 3.214535e+00 3.200819e+00 2.481755e+00 3.091379e+00 1.067080e+00 6.268337e-01 5.738798e-01 6.903459e-01 6.175538e-01 5.494132e-01 6.398418e-01 6.147752e-01 5.891538e-01 5.419226e-01 5.020321e-01 4.303616e-01 4.561061e-01
<GCONST> 1.242692e+02
<STATE> 3
<MEAN> 39
 -1.314268e+01 -1.438761e+00 -3.507126e+00 3.230327e+00 2.656537e+00 1.534513e+00 2.892538e+00 6.751930e-01 2.166739e+00 1.365826e+00 5.174250e-01 1.768518e+00 -1.158327e+00 2.313737e-01 -1.603370e-01 -1.484005e-01 -1.505985e-01 -8.084960e-02 -8.505981e-02 -1.014444e-01 -7.047443e-02 1.402567e-02 5.419035e-02 3.032997e-02 -1.932199e-02 1.699313e-01 8.916838e-01 1.199907e-01 1.120943e-01 -1.525073e-01 -5.479488e-02 -7.512170e-02 -1.455898e-01 -9.029721e-02 -1.008893e-01 -8.902275e-02 -6.513058e-02 -1.139143e-01 1.506788e-01
<VARIANCE> 39
 1.410312e+01 1.604402e+01 1.704370e+01 1.775375e+01 1.749450e+01 1.989513e+01 1.993183e+01 2.053229e+01 2.220143e+01 1.889164e+01 2.106848e+01 1.480645e+01 2.124302e+01 3.443121e+00 1.075794e+00 1.198263e+00 1.345383e+00 1.397069e+00 1.520954e+00 1.595212e+00 1.603419e+00 1.584084e+00 1.542185e+00 1.481272e+00 1.346807e+00 1.447839e+00 5.070131e-01 2.654188e-01 3.136994e-01 3.803958e-01 3.752447e-01 4.023832e-01 4.417810e-01 3.969929e-01 4.001187e-01 3.665342e-01 3.682981e-01 3.160675e-01 2.990935e-01
<GCONST> 1.019093e+02
<STATE> 4
<MEAN> 39
 -4.711755e+00 -3.065161e-01 -2.654851e+00 1.418260e+00 2.075091e+00 1.254872e+00 2.451284e+00 -1.156384e-01 1.665220e+00 8.490538e-01 2.271004e-01 8.208005e-01 1.457250e-01 4.785713e+00 8.153119e-03 2.217355e-02 -1.610553e+00 -1.204312e+00 -5.144495e-01 -1.265308e+00 -4.610749e-01 -5.655881e-01 -4.690659e-01 -1.286809e-01 -5.239294e-01 1.197526e+00 3.567239e-01 -2.662111e-01 -8.389829e-02 -3.204071e-01 -3.127130e-01 -5.958749e-02 -3.695225e-01 5.340423e-02 -7.862764e-02 -3.875914e-02 6.351078e-02 -2.650915e-02 2.378014e-01
<VARIANCE> 39
 7.566099e+01 2.353997e+01 2.766592e+01 3.449000e+01 3.027174e+01 2.863424e+01 2.982780e+01 2.652258e+01 2.712230e+01 2.169500e+01 2.176865e+01 1.850565e+01 2.360499e+01 6.278705e+00 3.796119e+00 4.964377e+00 5.391621e+00 4.787955e+00 5.536286e+00 5.618591e+00 4.331596e+00 4.358251e+00 3.362859e+00 3.578043e+00 2.793932e+00 3.426533e+00 1.369648e+00 5.357354e-01 5.360003e-01 7.074815e-01 7.107514e-01 7.094155e-01 7.756317e-01 6.779705e-01 6.609496e-01 5.762610e-01 5.079274e-01 4.287207e-01 4.928626e-01
<GCONST> 1.283413e+02
<TRANSP> 5
 0.000000e+00 1.000000e+00 0.000000e+00 0.000000e+00 0.000000e+00
 0.000000e+00 6.036018e-01 3.963982e-01 0.000000e+00 0.000000e+00
 0.000000e+00 0.000000e+00 8.156766e-01 1.843234e-01 0.000000e+00
 0.000000e+00 0.000000e+00 0.000000e+00 5.796837e-01 4.203164e-01
 0.000000e+00 0.000000e+00 0.000000e+00 0.000000e+00 0.000000e+00
<ENDHMM>
~h "g"
<BEGINHMM>
<NUMSTATES> 5
<STATE> 2
<MEAN> 39
 -4.099092e+00 6.823823e-01 -1.166207e+00 7.961259e+00 7.442487e+00 6.553112e-01 6.227544e-01 -1.568375e+00 1.882454e-01 4.449323e-01 -1.042904e+00 2.493192e-01 -9.296081e+00 -7.083964e-02 -3.320097e+00 -2.402194e+00 -2.176011e+00 6.754385e-01 4.715117e-02 -5.326061e-01 6.557000e-01 1.369099e+00 1.534314e+00 1.387772e-01 6.757337e-01 3.934463e+00 8.296927e-01 3.669111e-01 5.250353e-01 -5.795217e-01 -1.064289e+00 -6.027228e-01 -3.290480e-01 -1.880582e-01 -5.187157e-01 8.591978e-04 2.330517e-01 -9.411873e-02 8.979484e-01
<VARIANCE> 39
 3.289565e+01 7.876314e+01 6.697993e+01 4.952163e+01 5.620922e+01 5.786761e+01 4.732537e+01 5.485275e+01 5.311134e+01 3.804781e+01 3.432796e+01 2.260470e+01 7.573062e+01 3.352036e+00 7.220926e+00 7.114371e+00 5.798346e+00 7.243970e+00 7.627573e+00 6.575645e+00 7.187056e+00 6.089458e+00 4.980425e+00 3.978231e+00 3.160724e+00 6.823224e+00 6.443925e-01 1.810632e+00 1.159250e+00 1.248121e+00 1.171541e+00 1.165224e+00 1.124993e+00 1.321397e+00 1.006178e+00 1.041779e+00 1.013301e+00 5.940827e-01 1.621855e+00
<GCONST> 1.460776e+02
<STATE> 3
<MEAN> 39
 -2.402168e+00 -3.862073e+00 -5.400946e+00 1.784830e+00 6.287798e+00 -1.205713e+00 -1.216215e+00 -1.563202e+00 9.370880e-01 3.765974e+00 -5.381066e-01 1.354143e+00 2.405187e-01 1.535425e+00 -1.652342e-01 2.136759e-01 -1.737593e+00 -1.206151e+00 -9.212604e-01 -1.276168e+00 -2.448791e-01 -6.516391e-02 4.846982e-01 4.087975e-01 1.047779e-01 2.949388e+00 7.428607e-01 1.138679e+00 9.947245e-01 3.464525e-01 -7.503000e-01 -2.885606e-01 -2.628449e-01 -1.489524e-01 -5.722689e-01 -6.305954e-01 1.552895e-01 -2.539029e-01 -7.048643e-01
<VARIANCE> 39
 2.636835e+01 5.696464e+01 7.863883e+01 5.244610e+01 7.017198e+01 6.632456e+01 5.888453e+01 6.149538e+01 6.194805e+01 4.398438e+01 3.559700e+01 2.648911e+01 2.846698e+01 3.886705e+00 7.228854e+00 6.382934e+00 7.392385e+00 6.173919e+00 6.222212e+00 5.318614e+00 5.529010e+00 5.391783e+00 5.076686e+00 4.182986e+00 2.914890e+00 6.450562e+00 5.663447e-01 1.392195e+00 1.314132e+00 1.190785e+00 1.207374e+00 1.311467e+00 1.315513e+00 1.325161e+00 1.283962e+00 1.172592e+00 9.166874e-01 7.108265e-01 8.097535e-01
<GCONST> 1.449537e+02
<STATE> 4
<MEAN> 39
 2.926587e+00 1.042305e+00 6.081028e-01 3.588087e-01 5.374805e-01 -3.823060e+00 -4.233214e+00 -2.938831e+00 -1.860137e+00 2.165346e+00 8.890402e-01 4.088995e-01 2.436228e+00 2.417881e+00 3.917049e-01 7.237372e-01 -1.219658e+00 -1.750732e+00 -8.215258e-01 -1.381644e+00 2.083699e-01 -3.893833e-01 -5.003366e-01 6.017801e-01 -2.267723e-01 1.437373e+00 -1.082091e-01 -1.916275e-01 -2.493132e-01 2.718499e-01 2.042587e-01 2.501675e-01 2.343524e-01 3.238846e-01 1.029871e-01 -2.628503e-01 -9.799736e-02 -8.462816e-02 -5.291924e-01
<VARIANCE> 39
 2.913023e+01 4.229034e+01 7.644699e+01 6.646103e+01 9.129497e+01 6.266446e+01 5.373431e+01 6.465332e+01 5.250185e+01 4.243107e+01 3.909026e+01 2.542756e+01 3.012521e+01 3.504091e+00 4.828649e+00 4.854734e+00 6.752507e+00 5.854881e+00 6.779257e+00 7.091501e+00 5.916857e+00 6.770386e+00 6.365971e+00 5.148560e+00 3.584524e+00 2.003797e+00 5.055007e-01 1.027095e+00 9.668723e-01 7.453007e-01 1.098791e+00 9.574304e-01 9.977539e-01 1.023872e+00 1.020289e+00 9.010306e-01 7.496290e-01 5.665931e-01 5.780641e-01
<GCONST> 1.408581e+02
<TRANSP> 5
 0.000000e+00 1.000000e+00 0.000000e+00 0.000000e+00 0.000000e+00
 0.000000e+00 3.431402e-01 6.568598e-01 0.000000e+00 0.000000e+00
 0.000000e+00 0.000000e+00 4.124430e-01 5.875570e-01 0.000000e+00
 0.000000e+00 0.000000e+00 0.000000e+00 3.872417e-01 6.127583e-01
 0.000000e+00 0.000000e+00 0.000000e+00 0.000000e+00 0.000000e+00
<ENDHMM>
~h "k"
<BEGINHMM>
<NUMSTATES> 5
<STATE> 2
<MEAN> 39
 -6.620013e+00 -5.774570e+00 -3.777503e+00 2.203652e+00 5.088268e+00 1.806953e+00 1.915916e+00 1.336218e+00 1.109359e+00 3.934389e+00 3.768730e-01 2.082879e+00 -3.503133e+00 6.288691e-01 -1.622376e+00 -9.726786e-01 -2.471008e+00 -8.060286e-01 -1.192969e+00 -4.429552e-01 6.244952e-02 -2.330510e-01 5.747693e-01 -3.654671e-01 8.600070e-02 5.650138e+00 6.366998e-02 1.124056e+00 6.688632e-01 2.809620e-01 -1.415694e-01 -2.148024e-01 3.602616e-02 -1.225983e-01 -1.151256e-01 -3.277439e-01 3.289837e-02 -1.381005e-01 -3.823040e-01
<VARIANCE> 39
 3.121774e+01 4.694168e+01 6.273652e+01 5.750817e+01 5.006455e+01 4.997657e+01 5.064769e+01 4.688230e+01 5.177906e+01 3.377232e+01 3.006171e+01 2.264939e+01 8.339652e+01 3.433152e+00 4.685597e+00 4.947125e+00 4.483084e+00 4.508104e+00 4.635763e+00 4.563863e+00 4.124614e+00 4.382808e+00 3.399307e+00 3.063405e+00 2.426835e+00 8.382368e+00 7.436981e-01 1.035681e+00 8.835075e-01 9.895846e-01 9.326482e-01 9.441379e-01 8.932171e-01 8.356647e-01 9.290936e-01 7.091689e-01 6.307134e-01 5.220075e-01 2.232543e+00
<GCONST> 1.383143e+02
<STATE> 3
<MEAN> 39
 -6.270642e+00 -4.148100e+00 -4.341815e+00 -1.062213e+00 4.089340e+00 4.274282e-01 1.724469e+00 1.021112e+00 1.282314e+00 4.970238e+00 1.379230e-01 1.955271e+00 2.876375e+00 2.682249e-01 1.143139e+00 8.980476e-01 -6.958454e-01 -5.941001e-01 -6.454062e-01 1.867594e-01 -2.723295e-01 -1.096079e-01 -3.876111e-01 -6.956208e-02 -1.109972e-01 1.960385e+00 2.055962e-01 7.990379e-01 6.220163e-01 6.425771e-01 -5.561698e-02 1.829332e-01 8.894070e-02 -1.321735e-01 -1.391220e-01 -5.148804e-01 8.463334e-02 -1.502767e-01 -1.380277e+00
<VARIANCE> 39
 3.154317e+01 3.643818e+01 6.758641e+01 4.824504e+01 5.287242e+01 5.343102e+01 5.231021e+01 4.978738e+01 5.579485e+01 3.852560e+01 3.295652e+01 2.545088e+01 2.740927e+01 4.460412e+00 3.719583e+00 3.232377e+00 4.394562e+00 3.821244e+00 4.138154e+00 3.892604e+00 3.527798e+00 3.902089e+00 3.078294e+00 2.845702e+00 2.357487e+00 7.922591e+00 8.357311e-01 9.796714e-01 8.799078e-01 9.526806e-01 9.686939e-01 9.841099e-01 1.004109e+00 9.208265e-01 1.030183e+00 7.836419e-01 7.263740e-01 6.042725e-01 1.208704e+00
<GCONST> 1.362924e+02
<STATE> 4
<MEAN> 39
 -4.843506e+00 -4.864379e-02 1.080112e+00 -2.768453e-01 2.036344e+00 1.408528e-01 3.664252e+00 -4.479389e-01 5.745377e-02 1.669728e+00 -1.780163e-01 1.058342e+00 2.659957e+00 1.991400e+00 5.244319e-01 7.221453e-01 -2.081796e-01 -1.200753e+00 -5.660163e-01 -3.252711e-01 -1.068564e-01 -6.937737e-01 -1.157580e+00 -1.110377e-02 -5.277891e-01 6.060383e-01 3.820226e-01 -3.536324e-01 -2.664172e-01 -8.292225e-02 -1.654396e-01 3.603331e-02 -3.184077e-01 1.393538e-01 -8.103690e-03 -1.159346e-03 9.745149e-02 -4.516684e-02 -9.653324e-02
<VARIANCE> 39
 4.960905e+01 3.064376e+01 6.201040e+01 4.374159e+01 5.785063e+01 5.066861e+01 4.793518e+01 4.883908e+01 4.467770e+01 3.398046e+01 3.112304e+01 2.394696e+01 2.321380e+01 6.411197e+00 4.492683e+00 3.708410e+00 4.698673e+00 5.131176e+00 5.380579e+00 5.477257e+00 5.300477e+00 5.291584e+00 3.949989e+00 4.197746e+00 3.010921e+00 2.793047e+00 6.539837e-01 6.596454e-01 5.886062e-01 7.319176e-01 7.881573e-01 8.431956e-01 8.443892e-01 8.345610e-01 8.027265e-01 6.856998e-01 6.454676e-01 4.998669e-01 1.057708e+00
<GCONST> 1.351299e+02
<TRANSP> 5
 0.000000e+00 1.000000e+00 0.000000e+00 0.000000e+00 0.000000e+00
 0.000000e+00 3.428543e-01 6.571457e-01 0.000000e+00 0.000000e+00
 0.000000e+00 0.000000e+00 4.231439e-01 5.768561e-01 0.000000e+00
 0.000000e+00 0.000000e+00 0.000000e+00 5.960659e-01 4.039340e-01
 0.000000e+00 0.000000e+00 0.000000e+00 0.000000e+00 0.000000e+00
<ENDHMM>
~h "l"
<BEGINHMM>
<NUMSTATES> 5
<STATE> 2
<MEAN> 39
 8.521130e+00 2.305810e+00 -5.119833e+00 -1.327969e+01 -4.213034e-02 6.472339e+00 -2.621088e+00 -6.882663e+00 -3.622845e-01 1.647644e+00 2.455431e+00 -9.545686e-01 5.465216e+00 5.096154e-01 2.929331e-01 -3.001955e-01 -1.210821e+00 1.535683e-01 7.365869e-01 -2.825462e-01 -4.894236e-01 -2.545053e-01 1.585507e-01 4.091047e-01 8.267450e-02 5.741988e-02 -2.968595e-01 -3.163988e-01 1.387107e-01 5.612196e-01 -2.069297e-03 -3.963286e-01 5.748007e-03 4.557693e-01 2.384890e-01 -3.471176e-02 -2.194987e-01 -4.349142e-02 4.728791e-02
<VARIANCE> 39
 1.302033e+01 4.275294e+01 3.470475e+01 5.518435e+01 4.803536e+01 5.312887e+01 6.608094e+01 5.313713e+01 5.601099e+01 5.043124e+01 4.291440e+01 3.712580e+01 2.355335e+01 1.543737e+00 3.416776e+00 2.137079e+00 4.807811e+00 3.292147e+00 4.826623e+00 4.839804e+00 4.649071e+00 4.568290e+00 4.328789e+00 3.593349e+00 3.486382e+00 1.993322e+00 3.202856e-01 4.502116e-01 3.646305e-01 6.624348e-01 6.664141e-01 7.089414e-01 7.604696e-01 8.500159e-01 9.193372e-01 8.562818e-01 6.991312e-01 6.602515e-01 2.195191e-01
<GCONST> 1.290461e+02
<STATE> 3
<MEAN> 39
 8.547091e+00 1.283858e+00 -5.553288e+00 -1.377002e+01 1.064167e+00 6.483200e+00 -4.256410e+00 -6.031574e+00 8.275490e-01 2.907803e+00 2.283565e+00 -1.746336e+00 6.063768e+00 -3.128303e-01 -9.219119e-01 2.914477e-01 1.115141e+00 1.826981e-02 -1.117651e+00 -5.878312e-01 1.006877e+00 1.059177e+00 2.012684e-01 -8.549779e-01 -5.723499e-01 4.574813e-01 -2.633876e-01 -1.230690e-01 3.421187e-01 5.941148e-01 -2.407225e-01 -4.203896e-01 2.603209e-01 4.209323e-01 -2.218721e-03 -3.509130e-01 -2.672844e-01 1.373132e-01 -8.196890e-02
<VARIANCE> 39
 1.109475e+01 3.083201e+01 3.690457e+01 5.411933e+01 4.869867e+01 5.542507e+01 7.129592e+01 5.071981e+01 5.415387e+01 5.340446e+01 4.131080e+01 3.773887e+01 1.923290e+01 7.555320e-01 3.486976e+00 2.311743e+00 4.158895e+00 3.147884e+00 4.934365e+00 4.125739e+00 4.781897e+00 5.130287e+00 4.130250e+00 3.504573e+00 3.529629e+00 1.747607e+00 2.144801e-01 3.823263e-01 3.783420e-01 5.715290e-01 7.078992e-01 6.634813e-01 7.877690e-01 8.194832e-01 8.959993e-01 8.755909e-01 6.479235e-01 6.574839e-01 2.211738e-01
<GCONST> 1.267372e+02
<STATE> 4
<MEAN> 39
 7.057199e+00 -1.109710e+00 -3.061571e+00 -8.262678e+00 -2.987379e-01 6.529298e-01 -5.093256e+00 -1.242988e+00 3.511171e+00 1.355425e+00 -1.516552e+00 -2.050730e+00 6.495220e+00 -7.321463e-01 -4.824010e-01 1.518174e+00 1.759424e+00 -1.050280e+00 -1.571121e+00 5.210509e-01 1.403413e+00 -3.767193e-01 -1.023635e+00 -5.746130e-01 5.371584e-01 -5.032510e-02 -1.545646e-01 2.539239e-01 2.705558e-01 2.571258e-02 -1.233626e-01 2.604354e-01 3.614134e-01 -2.650198e-01 -5.922595e-01 -1.263886e-01 3.378724e-01 2.019006e-01 -2.788046e-01
<VARIANCE> 39
 1.363484e+01 3.636947e+01 4.671413e+01 6.308326e+01 4.797911e+01 7.442645e+01 6.672005e+01 5.404536e+01 5.452379e+01 4.965770e+01 4.046112e+01 3.864767e+01 2.963875e+01 1.187683e+00 2.906890e+00 4.061614e+00 3.778009e+00 4.977606e+00 4.703380e+00 4.146336e+00 5.557338e+00 5.698037e+00 4.420033e+00 3.687118e+00 3.531124e+00 1.728841e+00 2.392453e-01 3.470488e-01 3.644482e-01 7.973847e-01 6.704645e-01 9.039349e-01 7.788693e-01 8.567336e-01 9.737360e-01 7.773817e-01 6.528866e-01 6.485879e-01 2.041449e-01
<GCONST> 1.301350e+02
<TRANSP> 5
 0.000000e+00 1.000000e+00 0.000000e+00 0.000000e+00 0.000000e+00
 0.000000e+00 6.837467e-01 3.162533e-01 0.000000e+00 0.000000e+00
 0.000000e+00 0.000000e+00 5.099440e-01 4.900560e-01 0.000000e+00
 0.000000e+00 0.000000e+00 0.000000e+00 4.942700e-01 5.057300e-01
 0.000000e+00 0.000000e+00 0.000000e+00 0.000000e+00 0.000000e+00
<ENDHMM>
~h "m"
<BEGINHMM>
<NUMSTATES> 5
<STATE> 2
<MEAN> 39
 6.003856e+00 2.718928e+00 3.174667e-02 3.952136e+00 7.123245e-01 -1.361839e+00 -1.332910e+00 -6.137956e+00 -5.975542e+00 -6.890081e-01 4.784145e-01 -3.669334e+00 -2.372509e+00 3.120686e-01 1.406701e+00 8.791189e-01 1.665881e+00 2.253968e-01 -1.032503e+00 1.247485e-01 -2.234695e+00 -2.384463e+00 3.732228e-01 2.783909e-01 -8.290275e-01 -9.313836e-01 -2.240746e-01 -3.422227e-01 1.298530e-01 -2.841785e-01 -2.114082e-01 6.763228e-02 -5.234047e-02 3.945651e-01 3.047454e-01 -3.199418e-02 -8.018605e-02 1.613488e-01 4.311037e-01
<VARIANCE> 39
 2.085978e+01 3.362358e+01 2.996893e+01 4.118062e+01 3.871840e+01 4.566026e+01 5.553989e+01 4.805774e+01 5.596657e+01 4.307507e+01 4.572752e+01 3.824981e+01 3.599350e+01 4.121907e+00 2.667403e+00 3.927171e+00 4.028349e+00 4.930900e+00 4.299267e+00 5.825864e+00 5.315989e+00 5.900413e+00 4.776388e+00 5.028343e+00 3.790447e+00 4.690930e+00 3.169737e-01 4.345174e-01 5.730675e-01 6.192921e-01 6.059237e-01 6.210617e-01 7.493057e-01 7.850376e-01 9.898612e-01 6.532307e-01 6.586374e-01 5.489210e-01 3.522540e-01
<GCONST> 1.320078e+02
<STATE> 3
<MEAN> 39
 6.123579e+00 3.840851e+00 2.329095e+00 6.577394e+00 1.394598e-01 -3.515594e+00 -1.605690e+00 -9.637516e+00 -9.964901e+00 5.778580e-01 7.024872e-01 -5.141360e+00 -2.678805e+00 3.120524e-02 -4.949633e-02 2.731408e-01 5.607443e-02 -1.978905e-01 -1.107310e-01 -1.330588e-01 -1.737730e-01 -9.964213e-02 -7.671684e-02 -7.481369e-02 -3.101232e-03 3.005351e-01 -1.584816e-01 -4.787222e-01 -2.441342e-01 -7.020243e-01 -1.274277e-01 4.078875e-01 -1.480332e-02 8.417212e-01 8.880202e-01 -1.817912e-01 -1.168053e-01 3.479768e-01 3.996753e-01
<VARIANCE> 39
 9.484790e+00 1.933059e+01 2.335423e+01 3.181623e+01 3.708410e+01 4.818891e+01 5.811544e+01 4.793259e+01 5.079479e+01 4.919860e+01 5.903201e+01 4.640822e+01 1.582893e+01 1.502038e+00 2.289775e+00 1.779992e+00 2.589462e+00 2.541318e+00 2.530032e+00 2.905418e+00 3.496992e+00 4.141868e+00 2.738826e+00 2.873002e+00 2.351532e+00 2.770132e+00 3.878709e-01 2.988724e-01 5.407349e-01 5.224664e-01 6.101257e-01 5.783768e-01 7.308348e-01 7.457938e-01 8.865434e-01 7.261527e-01 7.714705e-01 6.126229e-01 2.517579e-01
<GCONST> 1.220852e+02
<STATE> 4
<MEAN> 39
 5.964570e+00 1.670018e+00 1.281785e+00 3.385186e+00 -7.027717e-01 -1.845178e+00 -2.022620e+00 -6.457107e+00 -5.672069e+00 -1.072949e+00 -3.684218e-01 -3.472160e+00 5.102519e-02 -2.096290e-01 -1.400486e+00 -3.348172e-01 -2.069377e+00 -8.365158e-01 9.197799e-01 -5.895844e-02 2.245603e+00 2.119211e+00 -5.921249e-01 -3.983388e-01 8.884478e-01 1.593594e+00 -2.342753e-01 -1.664489e-01 3.240433e-02 -3.669503e-01 -7.901236e-02 2.221158e-01 1.512782e-01 4.477396e-01 1.836135e-01 4.863789e-02 2.280405e-02 1.357228e-01 1.070476e-01
<VARIANCE> 39
 1.284773e+01 2.862369e+01 3.134106e+01 4.358262e+01 3.776054e+01 4.819938e+01 4.800977e+01 5.366094e+01 6.368618e+01 4.177707e+01 4.636836e+01 3.593630e+01 2.991027e+01 2.253796e+00 3.450514e+00 5.100131e+00 5.142847e+00 5.181684e+00 4.421561e+00 4.911633e+00 5.437637e+00 6.495386e+00 4.717299e+00 4.862190e+00 3.727977e+00 3.509742e+00 3.284529e-01 4.400388e-01 6.075623e-01 6.961086e-01 6.661777e-01 6.718059e-01 7.103481e-01 9.009966e-01 1.237223e+00 6.989418e-01 7.079329e-01 5.481365e-01 3.438336e-01
<GCONST> 1.319730e+02
<TRANSP> 5
 0.000000e+00 1.000000e+00 0.000000e+00 0.000000e+00 0.000000e+00
 0.000000e+00 4.319868e-01 5.680132e-01 0.000000e+00 0.000000e+00
 0.000000e+00 0.000000e+00 6.337572e-01 3.662428e-01 0.000000e+00
 0.000000e+00 0.000000e+00 0.000000e+00 5.132478e-01 4.867522e-01
 0.000000e+00 0.000000e+00 0.000000e+00 0.000000e+00 0.000000e+00
<ENDHMM>
~h "n"
<BEGINHMM>
<NUMSTATES> 5
<STATE> 2
<MEAN> 39
 5.703497e+00 2.289866e-01 2.483626e+00 9.745978e-01 -3.571344e+00 -2.567083e+00 -7.263983e-01 -1.836031e+00 -4.123176e+00 -1.318850e+00 -2.994658e+00 -2.111995e+00 1.296731e+00 1.759388e-01 1.679411e+00 2.162462e-01 1.461998e+00 -3.828647e-02 -5.117999e-01 1.098771e+00 -2.785531e+00 -1.360276e+00 1.145768e+00 -7.333677e-01 -2.380499e-01 -1.794779e+00 -1.586594e-01 2.565091e-02 1.543571e-02 -9.538765e-02 -2.231636e-02 1.276280e-01 5.895709e-02 -8.486947e-02 9.678525e-02 3.299847e-02 4.395812e-02 8.512805e-02 5.862305e-02
<VARIANCE> 39
 1.023609e+01 2.863742e+01 3.234034e+01 4.194133e+01 3.888404e+01 4.001712e+01 4.691478e+01 7.741929e+01 5.659226e+01 4.762474e+01 3.935178e+01 3.765196e+01 2.676784e+01 1.199325e+00 2.544455e+00 3.733356e+00 3.555516e+00 4.218073e+00 4.552582e+00 4.851359e+00 6.816582e+00 5.734196e+00 4.441586e+00 3.803100e+00 3.363785e+00 2.415818e+00 1.951931e-01 4.196680e-01 4.367913e-01 5.610251e-01 5.712914e-01 5.854192e-01 7.245615e-01 1.329714e+00 8.076497e-01 6.847644e-01 5.620723e-01 4.896318e-01 3.601821e-01
<GCONST> 1.274843e+02
<STATE> 3
<MEAN> 39
 5.862412e+00 4.130508e+00 3.026467e+00 4.217458e+00 -4.303421e+00 -3.258561e+00 2.734285e+00 -9.793732e+00 -7.207807e+00 2.302741e+00 -4.887033e+00 -2.290817e+00 -2.420912e+00 -1.641822e-01 8.089657e-01 1.104111e-01 4.514863e-01 8.380312e-02 8.235908e-03 2.423587e-01 -9.444842e-01 -3.230177e-01 1.990742e-01 -2.406366e-01 1.634819e-02 -7.199534e-01 -2.888236e-01 -5.022171e-01 -7.607955e-02 -5.140613e-01 2.081023e-01 2.819652e-01 -4.948139e-01 1.149017e+00 6.162463e-01 -5.286902e-01 3.341708e-01 1.153241e-01 5.007265e-01
<VARIANCE> 39
 9.298252e+00 2.074841e+01 2.376472e+01 3.477991e+01 3.558158e+01 3.936686e+01 4.838818e+01 6.252938e+01 5.518695e+01 5.069204e+01 4.451287e+01 4.400997e+01 1.652960e+01 9.366571e-01 3.270817e+00 2.312678e+00 2.944423e+00 2.801292e+00 3.023519e+00 4.022923e+00 7.403316e+00 4.785422e+00 3.734520e+00 2.937850e+00 2.508052e+00 2.847863e+00 2.916551e-01 4.910954e-01 5.750994e-01 6.464847e-01 7.143009e-01 7.662241e-01 8.494817e-01 1.241650e+00 1.100695e+00 8.450410e-01 7.334338e-01 6.683738e-01 3.857059e-01
<GCONST> 1.265134e+02
<STATE> 4
<MEAN> 39
 4.582064e+00 3.702739e+00 2.884221e+00 3.340930e+00 -2.774510e+00 -2.210286e+00 3.332977e-01 -6.204821e+00 -5.078818e+00 -4.404769e-01 -4.171900e+00 -1.858830e+00 -2.239344e+00 -9.774758e-01 -5.461730e-01 -2.810708e-01 -7.206531e-01 7.810179e-01 6.459960e-01 -7.064002e-01 1.790918e+00 1.102421e+00 -7.570966e-01 5.843917e-01 1.910092e-01 5.017881e-01 -3.049252e-01 -3.267625e-01 -1.816383e-01 -2.933035e-01 1.345012e-01 2.280677e-01 1.861677e-02 5.157121e-01 3.139169e-01 -1.863193e-02 2.510200e-01 9.523844e-02 2.834546e-01
<VARIANCE> 39
 1.501263e+01 3.966504e+01 2.804254e+01 3.974529e+01 3.973742e+01 3.683123e+01 5.150942e+01 7.345892e+01 5.559068e+01 4.859174e+01 3.902286e+01 3.683778e+01 3.801803e+01 2.843472e+00 4.854113e+00 3.714352e+00 4.578694e+00 4.381604e+00 4.207966e+00 5.133741e+00 8.292231e+00 6.025380e+00 4.700115e+00 4.110781e+00 3.537941e+00 4.704375e+00 4.699733e-01 6.726831e-01 5.504166e-01 6.729667e-01 7.402321e-01 7.038057e-01 8.812898e-01 1.488114e+00 1.063406e+00 8.450839e-01 7.041380e-01 5.988971e-01 5.329164e-01
<GCONST> 1.349881e+02
<TRANSP> 5
 0.000000e+00 1.000000e+00 0.000000e+00 0.000000e+00 0.000000e+00
 0.000000e+00 4.795200e-01 5.204800e-01 0.000000e+00 0.000000e+00
 0.000000e+00 0.000000e+00 5.271659e-01 4.728341e-01 0.000000e+00
 0.000000e+00 0.000000e+00 0.000000e+00 5.013455e-01 4.986545e-01
 0.000000e+00 0.000000e+00 0.000000e+00 0.000000e+00 0.000000e+00
<ENDHMM>
~h "p"
<BEGINHMM>
<NUMSTATES> 5
<STATE> 2
<MEAN> 39
 -8.094593e+00 2.787414e+00 -4.925270e-01 6.570306e+00 5.393342e+00 4.657216e+00 4.479713e+00 1.168560e+00 3.570247e+00 2.674503e+00 2.422391e+00 2.037519e+00 -1.478168e+01 7.927666e-01 -1.435365e+00 -4.359366e-01 -1.039509e+00 -2.960678e-01 -7.049336e-01 -1.535501e-01 2.034844e-01 4.303344e-01 1.034972e-01 -1.392676e-03 3.051488e-02 4.480936e+00 7.420421e-01 -7.986456e-02 -1.636753e-02 -3.104012e-01 -1.499416e-01 -2.710618e-01 -3.011609e-01 -2.663680e-01 -3.455757e-01 -2.656131e-01 -2.484523e-01 -1.974412e-01 9.298424e-01
<VARIANCE> 39
 1.151235e+01 1.757295e+01 1.632891e+01 2.190585e+01 1.827784e+01 2.255279e+01 2.101007e+01 2.265889e+01 2.364133e+01 1.905965e+01 1.922266e+01 1.521007e+01 9.389473e+01 2.001208e+00 1.971052e+00 1.759128e+00 2.455852e+00 2.015369e+00 2.460831e+00 2.382946e+00 2.594790e+00 2.615361e+00 2.211282e+00 1.879131e+00 1.721368e+00 9.754916e+00 5.316337e-01 4.021989e-01 4.154009e-01 5.279708e-01 4.758613e-01 5.713447e-01 5.638230e-01 5.821199e-01 6.074839e-01 4.716009e-01 4.274041e-01 3.733694e-01 2.160007e+00
<GCONST> 1.150585e+02
<STATE> 3
<MEAN> 39
 -4.890590e+00 -2.079034e+00 -1.889151e+00 2.812126e+00 4.659671e+00 2.406847e+00 4.031086e+00 1.303894e+00 4.334581e+00 2.523252e+00 2.065469e+00 1.665645e+00 8.344718e-01 1.933768e+00 -1.183962e+00 -7.275348e-01 -1.494850e+00 -5.074546e-01 -7.185113e-01 -5.642809e-01 -3.196512e-01 -4.195423e-01 -4.234444e-01 -5.656896e-01 -3.697410e-01 3.397829e+00 4.930007e-01 4.147345e-01 -2.184444e-02 -5.688290e-02 -2.017105e-01 3.019561e-02 -3.618748e-01 -2.191310e-01 -4.438137e-01 -2.548720e-01 -2.065323e-01 -1.573681e-01 -1.089112e+00
<VARIANCE> 39
 1.569942e+01 2.263442e+01 2.715537e+01 3.172378e+01 2.700201e+01 3.065112e+01 3.108608e+01 3.064232e+01 2.912064e+01 2.462708e+01 2.444724e+01 1.824965e+01 3.634074e+01 4.092956e+00 2.928139e+00 3.037502e+00 3.783803e+00 3.478614e+00 4.298144e+00 4.193540e+00 3.479116e+00 3.298215e+00 2.758166e+00 2.520674e+00 2.014614e+00 1.124926e+01 5.745790e-01 5.432526e-01 5.142290e-01 6.596742e-01 6.759973e-01 7.060786e-01 7.533659e-01 7.610962e-01 7.787661e-01 6.078996e-01 5.654435e-01 4.515271e-01 1.285171e+00
<GCONST> 1.253159e+02
<STATE> 4
<MEAN> 39
 2.821713e-01 -2.044457e+00 -3.474565e+00 -7.236666e-01 2.931020e+00 1.930486e+00 2.929085e+00 -3.996820e-01 1.374621e+00 4.728762e-01 -2.774296e-01 1.678759e-01 1.649965e+00 3.047667e+00 -1.149181e-01 -6.215944e-01 -1.609699e+00 -1.247160e+00 -5.734447e-01 -1.603078e+00 -4.614092e-01 -1.064422e+00 -7.747306e-01 -5.613829e-01 -5.400932e-01 1.551771e+00 4.131451e-02 1.005608e-01 8.561978e-02 1.008116e-01 -1.732208e-01 5.123126e-02 -2.755715e-01 1.277099e-01 3.907866e-02 5.512838e-02 1.880388e-01 4.938639e-02 -3.726141e-01
<VARIANCE> 39
 4.591195e+01 3.411933e+01 4.540723e+01 5.429490e+01 4.835929e+01 4.688141e+01 5.312465e+01 4.256121e+01 3.819146e+01 3.328639e+01 2.825983e+01 2.306005e+01 2.469561e+01 4.746123e+00 4.101630e+00 4.873005e+00 5.443876e+00 5.425998e+00 5.996416e+00 6.476906e+00 5.509589e+00 5.368641e+00 4.066131e+00 4.346930e+00 2.898243e+00 4.877961e+00 7.677971e-01 7.263851e-01 5.109467e-01 6.834514e-01 7.673059e-01 7.500203e-01 8.634327e-01 8.039396e-01 8.212624e-01 7.228011e-01 5.981281e-01 4.802766e-01 1.303135e+00
<GCONST> 1.355756e+02
<TRANSP> 5
 0.000000e+00 1.000000e+00 0.000000e+00 0.000000e+00 0.000000e+00
 0.000000e+00 5.632515e-01 4.367484e-01 0.000000e+00 0.000000e+00
 0.000000e+00 0.000000e+00 4.808581e-01 5.191418e-01 0.000000e+00
 0.000000e+00 0.000000e+00 0.000000e+00 5.330358e-01 4.669642e-01
 0.000000e+00 0.000000e+00 0.000000e+00 0.000000e+00 0.000000e+00
<ENDHMM>
~h "q"
<BEGINHMM>
<NUMSTATES> 5
<STATE> 2
<MEAN> 39
 -2.165846e+00 8.234888e-01 -2.127540e+00 6.208869e-01 -4.494102e-01 3.974207e-01 1.126581e+00 1.360363e+00 3.918967e+00 3.510209e+00 1.153080e+00 6.757683e-02 -9.254608e+00 -1.807205e-01 1.659454e-01 4.986870e-02 -1.715294e-01 1.087206e-01 8.264635e-01 8.184685e-01 1.027699e-01 -4.751439e-02 6.542359e-02 1.225694e-01 -1.952467e-02 -5.911679e-01 3.811716e-01 -2.156392e-01 6.500684e-02 -3.133315e-01 -6.420662e-02 5.709062e-02 -3.202832e-02 -1.592378e-01 -4.077418e-01 -3.036473e-01 -1.908467e-01 -6.271073e-02 8.795534e-01
<VARIANCE> 39
 5.220340e+01 3.775976e+01 6.528484e+01 6.854848e+01 7.517149e+01 8.091236e+01 6.638771e+01 6.816348e+01 6.953881e+01 5.809153e+01 5.568720e+01 4.699990e+01 1.006250e+02 5.605844e+00 4.478356e+00 5.122564e+00 7.509911e+00 7.328236e+00 7.351813e+00 6.651110e+00 7.183880e+00 7.286737e+00 5.782624e+00 5.424166e+00 4.462183e+00 1.142908e+01 1.061767e+00 7.556937e-01 8.119213e-01 1.340476e+00 1.347751e+00 1.299699e+00 1.235407e+00 1.263498e+00 1.302872e+00 1.103020e+00 1.061827e+00 8.861412e-01 1.761621e+00
<GCONST> 1.514138e+02
<STATE> 3
<MEAN> 39
 5.352469e-01 -2.783073e-01 -1.545881e+00 -2.191464e+00 -1.763612e+00 1.354570e+00 2.409800e+00 4.773723e-01 8.874493e-01 1.726323e+00 -1.113973e-01 -4.106928e-01 -4.650541e+00 1.559884e+00 -7.736963e-01 1.035036e-01 -1.766223e+00 -7.716320e-01 2.571244e-01 1.923237e-01 -3.488567e-01 -1.006055e+00 -6.672318e-01 -5.251423e-01 -3.595412e-01 2.776021e+00 2.215986e-01 -1.651294e-01 2.893770e-02 -1.479708e-01 -5.946469e-03 -4.094402e-02 -2.329729e-01 -1.891750e-02 -3.903803e-02 -9.696380e-02 -1.941676e-02 -1.958758e-02 5.587703e-01
<VARIANCE> 39
 4.104177e+01 4.315458e+01 8.337204e+01 6.742146e+01 7.349878e+01 7.490182e+01 6.117231e+01 5.855074e+01 5.467113e+01 4.823907e+01 4.281337e+01 3.575491e+01 7.630328e+01 4.743786e+00 4.305813e+00 4.719377e+00 7.428354e+00 6.668338e+00 6.419421e+00 6.044135e+00 6.407874e+00 5.416788e+00 4.910428e+00 4.640423e+00 3.698988e+00 1.148887e+01 6.362851e-01 6.207074e-01 5.961601e-01 1.002694e+00 9.335521e-01 8.534066e-01 8.871035e-01 9.173606e-01 9.125190e-01 7.921489e-01 7.449382e-01 6.087565e-01 1.176944e+00
<GCONST> 1.438565e+02
<STATE> 4
<MEAN> 39
 3.467183e+00 -2.010797e+00 -1.745912e-01 -6.106684e+00 -4.087309e+00 9.715902e-01 2.051571e+00 6.928605e-04 -1.296383e+00 6.190932e-01 -1.110982e+00 -1.160530e+00 1.816043e+00 1.183041e+00 -7.511892e-01 1.287282e-01 -1.175025e+00 -3.845633e-01 2.935500e-01 -9.739893e-02 -8.029220e-02 -5.764846e-01 -5.388952e-01 -2.050223e-01 -2.587865e-01 2.453777e+00 -2.296368e-01 1.195434e-01 -2.122986e-02 4.022250e-01 2.258764e-01 1.397891e-02 -1.526809e-01 7.440195e-02 2.112303e-01 5.934698e-02 1.539692e-01 1.054844e-01 -3.707491e-01
<VARIANCE> 39
 2.477521e+01 4.346274e+01 9.606930e+01 6.435031e+01 6.951733e+01 7.388836e+01 5.936347e+01 5.974527e+01 4.986146e+01 4.721583e+01 4.082289e+01 3.289148e+01 4.361238e+01 2.956202e+00 3.113864e+00 2.897781e+00 4.799641e+00 4.277791e+00 4.422748e+00 3.949687e+00 4.262157e+00 3.927569e+00 3.476838e+00 3.381278e+00 2.685350e+00 6.851214e+00 4.175653e-01 5.153453e-01 4.974137e-01 7.550303e-01 6.764624e-01 6.613342e-01 6.995476e-01 7.496768e-01 6.864874e-01 6.576902e-01 5.936912e-01 4.841426e-01 9.438124e-01
<GCONST> 1.341434e+02
<TRANSP> 5
 0.000000e+00 1.000000e+00 0.000000e+00 0.000000e+00 0.000000e+00
 0.000000e+00 5.493468e-01 4.506533e-01 0.000000e+00 0.000000e+00
 0.000000e+00 0.000000e+00 2.664118e-01 7.335882e-01 0.000000e+00
 0.000000e+00 0.000000e+00 0.000000e+00 3.424354e-01 6.575647e-01
 0.000000e+00 0.000000e+00 0.000000e+00 0.000000e+00 0.000000e+00
<ENDHMM>
~h "r"
<BEGINHMM>
<NUMSTATES> 5
<STATE> 2
<MEAN> 39
 1.166383e+01 -2.528561e+00 -9.452368e+00 2.450210e+00 4.506000e+00 -4.468068e+00 -1.074527e+01 -7.290080e-02 1.417248e+00 -1.298600e+00 9.968055e-01 2.223059e+00 2.500171e+00 1.392962e+00 -4.593099e-01 -9.729920e-01 1.500608e-01 2.228157e-01 -7.824937e-01 -1.662042e+00 5.918909e-01 6.620657e-01 -1.944709e-01 -1.509103e-01 1.543070e-01 4.752833e-01 -5.222552e-01 -2.561512e-01 5.572915e-01 1.887088e-02 -4.576230e-01 -1.323001e-02 5.054613e-01 3.200529e-01 -7.211512e-02 2.537060e-03 1.749929e-02 -7.469384e-02 9.954294e-02
<VARIANCE> 39
 2.031178e+01 3.304446e+01 5.468795e+01 3.292088e+01 4.279202e+01 5.440541e+01 6.518096e+01 8.441684e+01 5.546936e+01 3.549145e+01 3.219263e+01 3.323603e+01 2.470864e+01 4.123382e+00 2.656628e+00 4.068151e+00 2.815603e+00 4.281275e+00 5.034051e+00 5.912702e+00 5.418448e+00 4.501223e+00 3.695385e+00 2.841832e+00 2.399361e+00 1.973414e+00 4.835165e-01 3.831324e-01 4.710375e-01 4.203224e-01 4.924369e-01 6.911085e-01 9.436404e-01 8.541948e-01 6.745633e-01 5.597697e-01 4.784060e-01 4.277637e-01 2.444011e-01
<GCONST> 1.280273e+02
<STATE> 3
<MEAN> 39
 1.251099e+01 -6.848591e+00 -9.267561e+00 3.675586e+00 2.692725e+00 -8.295328e+00 -1.315790e+01 6.085718e+00 4.073649e+00 -2.075630e+00 1.681740e-01 1.792463e+00 5.615035e+00 -2.653585e-01 -8.655674e-01 1.407761e+00 3.781293e-01 -1.467077e+00 -1.007652e+00 5.526025e-01 1.351742e+00 -3.137077e-01 -5.785939e-01 2.648758e-02 -1.723388e-02 5.417851e-01 -6.657570e-01 2.226645e-01 7.274182e-01 -2.096785e-01 -3.750202e-01 4.864203e-01 1.037907e+00 -3.572672e-01 -5.517480e-01 6.683057e-02 1.623809e-01 -1.151892e-01 -1.870257e-01
<VARIANCE> 39
 1.010991e+01 1.922738e+01 5.103270e+01 3.386222e+01 5.173806e+01 6.094313e+01 8.142918e+01 7.444167e+01 6.193018e+01 4.077855e+01 3.331548e+01 3.154762e+01 1.402836e+01 1.645827e+00 2.546340e+00 3.452646e+00 2.610543e+00 3.743310e+00 3.898383e+00 5.190645e+00 5.494031e+00 4.364291e+00 3.489984e+00 3.121969e+00 2.461212e+00 2.093906e+00 4.136581e-01 2.656184e-01 3.566025e-01 4.204436e-01 5.474669e-01 6.755817e-01 8.568321e-01 7.700240e-01 6.795955e-01 5.831259e-01 4.729073e-01 4.113522e-01 2.057264e-01
<GCONST> 1.241042e+02
<STATE> 4
<MEAN> 39
 1.027491e+01 -8.288554e+00 -3.198689e+00 3.745702e+00 -2.907788e+00 -9.598494e+00 -7.491288e+00 8.195454e+00 1.513914e-01 -3.207443e+00 1.388145e+00 1.314022e+00 6.667619e+00 -1.187068e+00 1.407420e-01 2.463616e+00 -5.824710e-01 -1.703341e+00 5.646429e-01 2.063271e+00 -4.736240e-01 -1.400702e+00 1.492221e-01 3.096147e-01 -4.922531e-01 4.517795e-02 -3.497628e-01 4.774669e-01 8.762923e-02 -3.049577e-01 2.957608e-01 6.595853e-01 2.120836e-01 -7.374867e-01 -3.323555e-02 3.002881e-01 -9.648677e-02 -1.519583e-01 -3.012917e-01
<VARIANCE> 39
 1.177560e+01 2.049170e+01 6.586858e+01 3.597343e+01 5.505591e+01 7.046917e+01 8.451384e+01 6.348387e+01 7.269821e+01 4.947264e+01 3.773613e+01 3.398676e+01 1.673393e+01 1.433679e+00 2.510666e+00 3.037340e+00 3.312234e+00 3.970430e+00 3.825772e+00 4.690091e+00 5.368630e+00 4.343734e+00 3.483196e+00 3.360827e+00 2.742333e+00 2.599171e+00 3.227939e-01 2.695636e-01 3.892682e-01 4.444489e-01 5.544024e-01 7.162834e-01 9.367230e-01 7.478768e-01 7.292272e-01 5.935316e-01 5.206378e-01 4.421616e-01 2.131493e-01
<GCONST> 1.260481e+02
<TRANSP> 5
 0.000000e+00 1.000000e+00 0.000000e+00 0.000000e+00 0.000000e+00
 0.000000e+00 5.915004e-01 4.084997e-01 0.000000e+00 0.000000e+00
 0.000000e+00 0.000000e+00 4.572340e-01 5.427660e-01 0.000000e+00
 0.000000e+00 0.000000e+00 0.000000e+00 4.975185e-01 5.024815e-01
 0.000000e+00 0.000000e+00 0.000000e+00 0.000000e+00 0.000000e+00
<ENDHMM>
~h "s"
<BEGINHMM>
<NUMSTATES> 5
<STATE> 2
<MEAN> 39
 -1.138810e+01 7.181906e+00 -1.127286e-01 1.290842e+00 5.613692e+00 -1.612441e+00 3.719828e+00 8.405482e-01 1.268173e+00 3.661980e-03 -7.124081e-01 1.394652e+00 3.520686e+00 -4.576288e+00 1.509257e+00 -9.833962e-01 2.978750e-01 1.915655e+00 9.829402e-01 1.511993e+00 8.532599e-01 4.725082e-01 3.057299e-01 8.251691e-01 7.200361e-01 5.127517e-02 5.071715e-01 -5.303333e-01 -8.528236e-02 -1.402583e-01 -3.776822e-01 6.270071e-02 -3.404448e-01 2.197070e-02 -8.179384e-02 7.612924e-02 2.481192e-02 -7.562751e-02 4.145915e-03
<VARIANCE> 39
 7.517613e+01 3.003245e+01 3.927539e+01 4.201034e+01 4.483318e+01 4.459303e+01 4.065917e+01 3.651994e+01 3.229363e+01 3.131468e+01 3.155399e+01 2.214211e+01 1.799501e+01 4.703206e+00 3.956229e+00 4.391007e+00 4.950918e+00 4.299055e+00 4.835343e+00 4.746200e+00 4.292118e+00 4.101214e+00 3.909800e+00 3.838125e+00 2.854040e+00 2.058002e+00 1.225839e+00 5.750501e-01 6.253707e-01 6.748602e-01 7.227598e-01 7.750604e-01 7.781703e-01 7.304560e-01 5.959484e-01 6.522721e-01 5.927881e-01 4.836951e-01 3.465331e-01
<GCONST> 1.304004e+02
<STATE> 3
<MEAN> 39
 -1.934939e+01 8.472138e+00 -3.819268e+00 1.703632e+00 8.041359e+00 4.925416e-01 5.576868e+00 2.538564e+00 2.030302e+00 1.363769e+00 1.118069e+00 2.699127e+00 3.691625e+00 -2.280151e-01 -8.596830e-02 -9.480612e-02 -1.054958e-01 4.847364e-02 5.063318e-02 -3.945238e-02 7.969107e-02 5.949279e-02 8.020288e-02 3.804123e-02 1.610058e-02 2.031060e-02 6.841098e-01 -2.425135e-01 2.627025e-01 -4.261066e-02 -2.397065e-01 -1.624721e-01 -2.387685e-01 -1.361637e-01 -3.998096e-02 -6.345510e-02 -1.173679e-01 -1.186288e-01 -1.258191e-01
<VARIANCE> 39
 1.290685e+01 2.206741e+01 2.673266e+01 5.327612e+01 3.628673e+01 3.861216e+01 3.127723e+01 2.703436e+01 2.777154e+01 2.084455e+01 2.769904e+01 1.648477e+01 1.234465e+01 1.812334e+00 1.254687e+00 1.331334e+00 1.372287e+00 1.522658e+00 1.733973e+00 1.641422e+00 1.648775e+00 1.569101e+00 1.533983e+00 1.400378e+00 1.257937e+00 6.446400e-01 4.296100e-01 2.503765e-01 2.845692e-01 3.287815e-01 3.568741e-01 3.965246e-01 4.080034e-01 3.811420e-01 3.622977e-01 3.473675e-01 3.259283e-01 2.840505e-01 1.656993e-01
<GCONST> 1.033046e+02
<STATE> 4
<MEAN> 39
 -1.547357e+01 5.611660e+00 -1.585304e+00 3.054984e-01 6.461529e+00 -4.465497e-01 3.556514e+00 2.162351e+00 2.361186e+00 1.120766e+00 4.088802e-01 1.741707e+00 2.875940e+00 3.194397e+00 -1.271311e+00 1.070336e+00 -2.313787e-01 -1.221629e+00 -4.586537e-01 -1.460290e+00 -6.562269e-01 -1.144277e-01 -1.701157e-01 -3.860913e-01 -5.944103e-01 -6.429349e-01 7.375921e-01 -2.241742e-01 8.743613e-02 8.010843e-02 -3.094546e-01 7.275437e-02 -2.721723e-01 -1.458473e-01 -1.083216e-01 1.010578e-03 -1.238165e-02 -9.339457e-02 -2.676254e-01
<VARIANCE> 39
 4.331149e+01 2.700860e+01 3.281936e+01 4.718934e+01 4.126332e+01 4.344002e+01 4.068607e+01 3.322469e+01 3.167098e+01 2.505689e+01 3.210864e+01 2.021432e+01 1.992728e+01 6.521389e+00 2.667598e+00 3.360992e+00 4.007818e+00 4.301035e+00 4.912327e+00 4.586779e+00 3.575268e+00 3.325404e+00 2.731688e+00 2.943253e+00 2.314154e+00 3.391968e+00 7.113410e-01 4.250427e-01 5.134855e-01 6.411549e-01 6.409747e-01 7.288067e-01 8.518939e-01 6.337568e-01 5.724573e-01 5.192825e-01 5.602090e-01 4.170979e-01 7.879137e-01
<GCONST> 1.269926e+02
<TRANSP> 5
 0.000000e+00 1.000000e+00 0.000000e+00 0.000000e+00 0.000000e+00
 0.000000e+00 6.150253e-01 3.849747e-01 0.000000e+00 0.000000e+00
 0.000000e+00 0.000000e+00 8.315001e-01 1.684998e-01 0.000000e+00
 0.000000e+00 0.000000e+00 0.000000e+00 6.089777e-01 3.910223e-01
 0.000000e+00 0.000000e+00 0.000000e+00 0.000000e+00 0.000000e+00
<ENDHMM>
~h "t"
<BEGINHMM>
<NUMSTATES> 5
<STATE> 2
<MEAN> 39
 -9.815417e+00 1.278922e+00 2.553211e-01 4.002996e+00 5.449122e+00 4.875721e+00 4.275265e+00 1.118033e+00 3.092488e+00 2.320024e+00 2.692122e+00 2.245391e+00 -1.170318e+01 -4.000080e-01 -1.382537e+00 -3.985182e-01 -2.121858e+00 -8.031347e-01 -8.570398e-01 1.820211e-01 4.145395e-01 1.474034e-01 6.306501e-02 3.233374e-01 4.826812e-01 4.896803e+00 2.972951e-01 3.571366e-01 2.683572e-01 -1.641896e-01 -3.950289e-01 -6.641721e-01 -2.251726e-01 -1.309093e-01 -3.122080e-01 -2.650749e-01 -3.059087e-01 -1.247450e-01 1.054134e+00
<VARIANCE> 39
 1.975822e+01 4.087298e+01 2.989259e+01 4.869481e+01 2.941758e+01 2.920613e+01 2.676752e+01 2.606893e+01 2.684331e+01 2.123667e+01 2.230797e+01 1.642991e+01 1.316223e+02 2.988826e+00 3.668330e+00 3.241524e+00 4.648967e+00 3.138303e+00 3.249718e+00 2.969120e+00 3.103868e+00 2.832769e+00 2.516904e+00 2.302039e+00 1.999130e+00 1.215708e+01 7.522105e-01 7.888105e-01 6.854299e-01 1.144623e+00 7.648075e-01 7.132169e-01 6.291240e-01 6.541063e-01 6.143585e-01 5.091965e-01 4.890462e-01 4.109034e-01 3.316624e+00
<GCONST> 1.279007e+02
<STATE> 3
<MEAN> 39
 -1.160173e+01 -1.604571e-01 -2.610378e-01 -2.058789e+00 2.562150e+00 7.402138e-01 4.732232e+00 1.748044e+00 2.257395e+00 1.670746e+00 2.755882e+00 3.360367e+00 4.476781e+00 4.972280e-01 -1.256589e-02 4.472433e-01 -6.621725e-01 -1.139700e+00 -1.667845e+00 -7.097568e-02 2.058354e-01 -3.140655e-01 -4.465857e-01 -5.223764e-01 1.040773e-02 3.168366e+00 9.543193e-01 2.768712e-01 3.230804e-01 8.007495e-01 -8.522619e-02 -5.911624e-02 -3.990737e-01 -2.012284e-01 -2.138174e-01 -1.768059e-01 -3.795151e-01 -3.498225e-01 -1.512287e+00
<VARIANCE> 39
 2.369542e+01 3.871909e+01 3.444805e+01 3.604581e+01 3.337193e+01 3.477796e+01 3.478232e+01 3.071888e+01 2.904764e+01 2.603615e+01 2.761680e+01 2.050378e+01 3.454827e+01 4.559275e+00 3.043181e+00 3.138014e+00 4.803349e+00 3.645063e+00 3.738907e+00 3.541327e+00 3.231393e+00 2.956291e+00 2.627198e+00 2.424666e+00 2.139119e+00 1.271846e+01 7.175296e-01 8.368143e-01 7.658697e-01 9.234751e-01 8.248465e-01 8.366206e-01 8.445532e-01 7.358758e-01 6.794714e-01 6.172996e-01 5.849797e-01 5.013625e-01 1.416741e+00
<GCONST> 1.293450e+02
<STATE> 4
<MEAN> 39
 -6.672741e+00 -3.688111e-01 1.710094e+00 8.974794e-01 7.095012e-01 -2.276703e+00 3.624668e+00 1.643383e+00 1.225401e+00 -1.655196e-01 -5.232175e-01 1.653458e+00 3.560428e+00 3.381224e+00 -4.847842e-01 3.668230e-01 3.227048e-01 -1.144734e+00 -1.061528e+00 -1.551138e+00 -2.273084e-01 -5.580054e-01 -5.755539e-01 -8.503252e-01 -7.607783e-01 1.571990e-01 5.130701e-01 -1.528472e-01 -1.317699e-01 -3.812559e-02 -2.428587e-02 3.012852e-01 -4.054542e-01 -8.222836e-02 -3.279021e-02 7.237120e-02 1.662129e-01 -9.660875e-02 -4.441360e-01
<VARIANCE> 39
 4.881835e+01 2.971170e+01 3.371180e+01 3.307443e+01 4.016064e+01 3.713355e+01 4.328894e+01 3.526385e+01 3.190626e+01 3.038655e+01 2.930855e+01 2.267444e+01 2.710957e+01 5.384897e+00 3.498455e+00 4.942880e+00 4.536857e+00 5.692739e+00 5.410819e+00 5.942938e+00 4.448868e+00 4.558377e+00 3.852887e+00 3.804060e+00 2.851315e+00 4.474665e+00 9.376841e-01 5.581586e-01 5.941477e-01 7.939617e-01 7.854469e-01 7.771226e-01 9.470889e-01 7.843024e-01 6.881613e-01 6.738585e-01 6.254559e-01 5.268516e-01 1.403071e+00
<GCONST> 1.330543e+02
<TRANSP> 5
 0.000000e+00 1.000000e+00 0.000000e+00 0.000000e+00 0.000000e+00
 0.000000e+00 5.026678e-01 4.973322e-01 0.000000e+00 0.000000e+00
 0.000000e+00 0.000000e+00 4.710425e-01 5.289575e-01 0.000000e+00
 0.000000e+00 0.000000e+00 0.000000e+00 5.602050e-01 4.397950e-01
 0.000000e+00 0.000000e+00 0.000000e+00 0.000000e+00 0.000000e+00
<ENDHMM>
~h "v"
<BEGINHMM>
<NUMSTATES> 5
<STATE> 2
<MEAN> 39
 6.178334e+00 5.091033e-01 -1.666187e+00 1.288639e+00 3.128289e-01 -2.022237e+00 -4.668104e+00 -3.494654e+00 -5.378140e-01 3.567885e-01 8.691790e-01 -1.069978e+00 7.352408e-01 -1.554973e+00 1.929783e+00 -1.041335e-01 1.317025e+00 1.410934e+00 6.737266e-01 5.601120e-01 -1.088323e+00 -5.210790e-01 -4.465783e-01 -5.440662e-02 1.635664e-01 -1.897954e+00 -4.330023e-01 -1.703398e-01 2.576917e-01 -1.322851e-01 -1.567176e-01 9.364945e-02 2.856917e-01 3.629314e-01 7.016057e-02 -6.208003e-02 -2.115057e-01 2.239122e-02 2.440847e-01
<VARIANCE> 39
 2.884272e+01 2.748793e+01 3.528115e+01 3.267150e+01 2.643087e+01 3.667984e+01 3.841389e+01 3.594828e+01 3.113117e+01 2.891290e+01 2.687916e+01 2.783143e+01 2.588307e+01 3.697096e+00 3.407600e+00 3.476266e+00 4.071343e+00 3.701565e+00 4.135938e+00 4.773613e+00 5.365048e+00 4.056320e+00 3.565838e+00 3.465638e+00 2.725397e+00 3.244487e+00 5.831804e-01 5.239168e-01 4.453323e-01 5.022119e-01 5.362285e-01 5.283414e-01 6.944829e-01 6.557594e-01 5.819643e-01 5.639211e-01 5.107467e-01 4.634109e-01 4.040711e-01
<GCONST> 1.252401e+02
<STATE> 3
<MEAN> 39
 1.753905e+00 3.911950e+00 -8.483865e-01 3.523839e+00 2.598222e+00 -2.697687e-01 -2.747323e+00 -4.740380e+00 -1.765132e+00 -7.364939e-01 -2.426909e-02 -8.580351e-01 -2.456119e+00 -1.760403e+00 7.443066e-01 2.782262e-01 7.181076e-01 6.921119e-01 4.775161e-01 8.076530e-01 8.540385e-02 -5.245882e-02 -3.432469e-01 -3.338117e-01 1.267422e-01 -7.279197e-01 3.823342e-01 -7.296055e-01 -3.476241e-03 -4.962957e-01 -4.733227e-01 -2.339964e-01 -9.548631e-02 5.183523e-01 2.646982e-01 1.747923e-01 1.861988e-02 1.886835e-02 7.260500e-01
<VARIANCE> 39
 3.782856e+01 2.162720e+01 3.184470e+01 3.023157e+01 2.232291e+01 2.882437e+01 3.409663e+01 2.823225e+01 2.584806e+01 2.541058e+01 2.259505e+01 2.364946e+01 2.665395e+01 4.707936e+00 3.287153e+00 2.507714e+00 3.426122e+00 2.760825e+00 3.371406e+00 3.738870e+00 3.475407e+00 2.844088e+00 2.750578e+00 2.532849e+00 1.970967e+00 3.094994e+00 8.424736e-01 5.416727e-01 6.154054e-01 6.328744e-01 6.006668e-01 6.301405e-01 8.138995e-01 7.652326e-01 6.499626e-01 5.964478e-01 5.527772e-01 4.395468e-01 5.381636e-01
<GCONST> 1.229675e+02
<STATE> 4
<MEAN> 39
 -1.019221e+00 2.893909e+00 -7.843903e-01 3.335087e+00 2.552054e+00 -1.014667e-01 -8.273415e-01 -2.670650e+00 -4.349514e-01 -5.340100e-01 -3.989042e-01 -3.149610e-01 -1.507148e+00 7.002993e-01 -9.314486e-01 -3.122367e-01 -9.190347e-01 -6.411638e-01 -4.837717e-01 -8.831823e-02 7.039545e-01 4.037357e-01 2.227951e-01 9.433514e-02 1.197392e-01 1.153202e+00 7.162147e-01 -3.979040e-01 -6.105870e-02 -4.063601e-01 -3.412137e-01 -1.938436e-01 -3.004558e-01 1.461307e-01 2.106296e-02 9.109807e-02 8.080412e-02 -3.041599e-02 3.767131e-01
<VARIANCE> 39
 5.603474e+01 2.830222e+01 3.204249e+01 3.607644e+01 2.806295e+01 3.182658e+01 3.820968e+01 3.265229e+01 2.849958e+01 2.562920e+01 2.214297e+01 2.197810e+01 3.342269e+01 8.043176e+00 3.666651e+00 3.284236e+00 4.451633e+00 3.699529e+00 3.970874e+00 5.001068e+00 3.760470e+00 3.265651e+00 2.855000e+00 2.647038e+00 2.181501e+00 4.148568e+00 1.075926e+00 6.648331e-01 5.988830e-01 7.568327e-01 6.768575e-01 7.674693e-01 8.917072e-01 7.669913e-01 6.868915e-01 5.984995e-01 5.274184e-01 4.144911e-01 6.606840e-01
<GCONST> 1.284246e+02
<TRANSP> 5
 0.000000e+00 1.000000e+00 0.000000e+00 0.000000e+00 0.000000e+00
 0.000000e+00 3.289796e-01 6.710204e-01 0.000000e+00 0.000000e+00
 0.000000e+00 0.000000e+00 3.909007e-01 6.090993e-01 0.000000e+00
 0.000000e+00 0.000000e+00 0.000000e+00 5.797606e-01 4.202394e-01
 0.000000e+00 0.000000e+00 0.000000e+00 0.000000e+00 0.000000e+00
<ENDHMM>
~h "w"
<BEGINHMM>
<NUMSTATES> 5
<STATE> 2
<MEAN> 39
 8.935467e+00 7.317024e+00 -3.475140e+00 -5.012734e+00 -2.849385e+00 2.683588e+00 -3.502322e-01 -3.844519e+00 -5.672699e+00 -1.854372e+00 2.249732e-01 -4.116486e-01 -4.724648e+00 1.493250e+00 1.215322e+00 -2.953714e-01 -1.918773e+00 -1.567031e+00 5.369292e-01 6.957942e-01 2.708589e-02 -4.140919e-01 -6.167086e-01 -1.140591e-01 8.533283e-02 1.527777e-01 -2.687661e-01 -5.461215e-01 1.599545e-01 -3.452722e-02 -1.087924e-01 -9.385255e-02 -1.277085e-01 2.524983e-01 2.487688e-01 2.030794e-01 7.900245e-02 2.364445e-03 4.702955e-01
<VARIANCE> 39
 2.451297e+01 3.320884e+01 2.324362e+01 4.254921e+01 4.959853e+01 3.482085e+01 4.665129e+01 3.634290e+01 4.615352e+01 3.342137e+01 3.047484e+01 2.435521e+01 2.545239e+01 3.918516e+00 2.902472e+00 3.354790e+00 4.680751e+00 4.553051e+00 4.683767e+00 5.486149e+00 4.522799e+00 5.179722e+00 3.831712e+00 3.433585e+00 2.727701e+00 3.881052e+00 3.906204e-01 5.321921e-01 5.852721e-01 6.697652e-01 9.864280e-01 8.364629e-01 9.564866e-01 8.183497e-01 8.510888e-01 7.807726e-01 6.438625e-01 5.083479e-01 2.645026e-01
<GCONST> 1.295911e+02
<STATE> 3
<MEAN> 39
 1.186509e+01 6.947584e+00 -4.142893e+00 -1.182108e+01 -7.954824e+00 5.230524e+00 1.327441e+00 -2.142920e+00 -5.560373e+00 -2.521126e+00 1.096503e+00 3.265287e-01 -1.346898e+00 6.250929e-01 -1.213003e+00 -4.594465e-01 -1.513033e+00 -3.704012e-01 8.880255e-01 -3.460682e-01 -1.119739e-01 -1.222934e-02 6.295019e-01 8.035612e-01 2.367555e-01 1.679285e+00 -5.285639e-01 -6.691747e-01 -5.593104e-02 5.883507e-01 7.004030e-01 -7.357196e-02 -2.802240e-01 -1.891895e-02 3.757934e-01 4.245630e-01 9.294275e-02 -1.041638e-01 1.677504e-01
<VARIANCE> 39
 8.452503e+00 2.270956e+01 2.323954e+01 3.829931e+01 4.280265e+01 3.502003e+01 3.926206e+01 3.732047e+01 4.356919e+01 3.529178e+01 3.060661e+01 2.686920e+01 1.421968e+01 1.633171e+00 2.524026e+00 1.962844e+00 3.688800e+00 4.518106e+00 3.815495e+00 4.773369e+00 3.672255e+00 3.997470e+00 4.228829e+00 3.697402e+00 2.661772e+00 2.237411e+00 4.049221e-01 2.837327e-01 3.366920e-01 5.509828e-01 5.708786e-01 6.978027e-01 6.841636e-01 7.118824e-01 8.284392e-01 6.456793e-01 5.945978e-01 5.300757e-01 2.047277e-01
<GCONST> 1.212049e+02
<STATE> 4
<MEAN> 39
 1.116775e+01 -5.635259e-01 -6.028629e+00 -1.116655e+01 -3.313937e+00 6.907031e+00 -2.856198e+00 -3.424158e+00 -3.485299e+00 2.685381e+00 4.061997e+00 -4.896892e-01 4.549784e+00 -4.691343e-01 -1.968482e+00 8.438700e-02 9.128091e-01 9.347489e-01 -8.433754e-01 -1.184500e+00 5.502927e-01 1.509527e+00 1.022634e+00 -2.907891e-01 -8.062506e-01 1.510272e+00 -3.360496e-01 1.823484e-01 3.328166e-01 5.119032e-01 -7.286001e-02 -5.209666e-01 2.790207e-01 3.774296e-01 2.462522e-01 -4.059972e-01 -4.848137e-01 -6.856609e-02 -2.999211e-01
<VARIANCE> 39
 8.721107e+00 2.978535e+01 3.161701e+01 5.699305e+01 5.178069e+01 6.297914e+01 7.880714e+01 4.854630e+01 5.425588e+01 6.679143e+01 5.218599e+01 3.774828e+01 1.775720e+01 6.389591e-01 1.585576e+00 2.594094e+00 3.827357e+00 3.842954e+00 6.220548e+00 5.173626e+00 4.892299e+00 4.008723e+00 4.630677e+00 4.297722e+00 3.213239e+00 9.681129e-01 2.491898e-01 3.153220e-01 3.519439e-01 5.546457e-01 7.939709e-01 7.613993e-01 9.453132e-01 8.220044e-01 9.318417e-01 9.999900e-01 8.004531e-01 7.098826e-01 1.622196e-01
<GCONST> 1.265711e+02
<TRANSP> 5
 0.000000e+00 1.000000e+00 0.000000e+00 0.000000e+00 0.000000e+00
 0.000000e+00 6.661335e-01 3.338664e-01 0.000000e+00 0.000000e+00
 0.000000e+00 0.000000e+00 5.793570e-01 4.206430e-01 0.000000e+00
 0.000000e+00 0.000000e+00 0.000000e+00 6.090044e-01 3.909957e-01
 0.000000e+00 0.000000e+00 0.000000e+00 0.000000e+00 0.000000e+00
<ENDHMM>
~h "y"
<BEGINHMM>
<NUMSTATES> 5
<STATE> 2
<MEAN> 39
 -1.268411e-01 4.298147e+00 1.801715e+01 -2.727151e+00 -8.154180e+00 -4.486994e-01 -4.792608e+00 -4.858078e+00 -7.493579e+00 -1.527454e+00 -5.975748e-01 -6.908764e-01 1.297783e+00 1.871838e-01 -2.456484e-01 6.018627e-01 -1.160909e-02 -7.754406e-01 -1.325048e-01 6.713459e-02 -7.840621e-02 -4.585129e-01 1.346901e-02 3.023802e-01 1.792607e-03 3.427748e-01 1.312396e-01 -2.225054e-01 -5.082802e-01 1.243666e-01 1.421183e-01 -2.157958e-01 5.604354e-02 2.081882e-01 1.989073e-01 1.037273e-01 7.098237e-02 3.235645e-02 5.968431e-02
<VARIANCE> 39
 1.052793e+01 2.804956e+01 2.329562e+01 4.601060e+01 3.521408e+01 3.296371e+01 3.237619e+01 3.810792e+01 3.242731e+01 4.157785e+01 3.032658e+01 2.353415e+01 1.774268e+01 1.548134e+00 2.082085e+00 2.991668e+00 1.845347e+00 2.974189e+00 3.343377e+00 2.662146e+00 2.551396e+00 2.645272e+00 2.357724e+00 1.721473e+00 1.451661e+00 1.531410e+00 1.681858e-01 1.907264e-01 3.653191e-01 3.709086e-01 5.356596e-01 4.943542e-01 4.128003e-01 4.524103e-01 4.567547e-01 3.916600e-01 2.931612e-01 2.653218e-01 1.519763e-01
<GCONST> 1.108303e+02
<STATE> 3
<MEAN> 39
 3.339856e+00 -2.343659e+00 1.459690e+01 1.431651e+00 -1.258218e+01 -6.529140e+00 -1.677464e+00 -2.944200e-01 -8.951589e+00 -1.516348e+00 3.921358e+00 7.953178e-02 4.928745e+00 9.816318e-01 -1.147612e+00 -1.669219e+00 9.460531e-01 1.888440e-01 -1.878651e+00 -2.021060e-01 1.861275e+00 2.945932e-01 -4.591720e-01 6.969612e-01 5.355760e-01 4.368399e-01 -2.572094e-02 1.240537e-01 -4.605552e-01 -3.032693e-02 6.075239e-01 1.292279e-01 -3.150530e-01 1.255461e-01 5.087105e-01 -1.314431e-01 -2.877274e-01 1.070684e-01 -1.783720e-01
<VARIANCE> 39
 8.527989e+00 1.527939e+01 2.822861e+01 3.984324e+01 2.190173e+01 3.604760e+01 3.734490e+01 3.666538e+01 3.629465e+01 5.746694e+01 2.763097e+01 2.371607e+01 1.219817e+01 8.917175e-01 1.048675e+00 1.745029e+00 1.492846e+00 1.986969e+00 2.436679e+00 3.396002e+00 2.719789e+00 2.548932e+00 2.145337e+00 1.777310e+00 1.575613e+00 6.474256e-01 1.420934e-01 1.511662e-01 3.164486e-01 2.660624e-01 3.813566e-01 4.322080e-01 4.422747e-01 4.089799e-01 4.458728e-01 4.481148e-01 3.149057e-01 2.603515e-01 7.693239e-02
<GCONST> 1.045753e+02
<STATE> 4
<MEAN> 39
 6.944935e+00 -5.226171e+00 5.436560e+00 4.645845e+00 -7.255737e+00 -1.192774e+01 -5.586358e+00 6.916375e+00 -3.410544e+00 -4.290496e+00 3.389100e+00 2.930599e+00 4.844182e+00 8.107051e-01 -3.485976e-01 -2.288325e+00 2.990758e-01 1.608060e+00 -3.794209e-01 -1.274935e+00 8.870885e-01 1.720265e+00 -1.305699e-01 -6.708182e-01 2.228206e-01 -1.091113e-01 -1.602356e-01 2.820970e-01 7.362959e-02 -2.139037e-01 1.670473e-01 5.530050e-01 5.602290e-02 -5.555075e-01 6.892463e-02 2.332879e-01 -2.042443e-01 -2.245467e-01 -1.844304e-01
<VARIANCE> 39
 1.006236e+01 1.694225e+01 4.853962e+01 3.200895e+01 3.545594e+01 4.247571e+01 6.114442e+01 4.066426e+01 4.990779e+01 4.495077e+01 2.826310e+01 2.676487e+01 1.552828e+01 5.409088e-01 9.403344e-01 2.048272e+00 1.485121e+00 1.832084e+00 2.377882e+00 2.841674e+00 2.952917e+00 2.634711e+00 2.633420e+00 1.672694e+00 1.712536e+00 4.365175e-01 1.065019e-01 1.447661e-01 2.702554e-01 2.715028e-01 3.784930e-01 4.977546e-01 4.862454e-01 4.535431e-01 4.754719e-01 4.275034e-01 3.442922e-01 2.611778e-01 7.747417e-02
<GCONST> 1.060578e+02
<TRANSP> 5
 0.000000e+00 1.000000e+00 0.000000e+00 0.000000e+00 0.000000e+00
 0.000000e+00 8.449706e-01 1.550293e-01 0.000000e+00 0.000000e+00
 0.000000e+00 0.000000e+00 6.713071e-01 3.286930e-01 0.000000e+00
 0.000000e+00 0.000000e+00 0.000000e+00 6.483403e-01 3.516597e-01
 0.000000e+00 0.000000e+00 0.000000e+00 0.000000e+00 0.000000e+00
<ENDHMM>
~h "z"
<BEGINHMM>
<NUMSTATES> 5
<STATE> 2
<MEAN> 39
 -5.454951e+00 9.559680e+00 2.852983e+00 7.420135e-01 3.530027e+00 -6.154692e+00 -2.438464e+00 -2.939141e+00 -2.844168e-01 -8.047113e-01 -2.251293e+00 8.310584e-01 2.888457e+00 -4.365564e+00 2.126160e+00 -7.061688e-01 3.738714e-01 2.423012e+00 1.016931e+00 1.516992e+00 7.089722e-01 4.913083e-01 2.816078e-03 4.300054e-01 3.514330e-01 -3.396027e-01 -7.605319e-03 -6.891869e-01 -1.166216e-01 -4.605806e-02 -2.186472e-01 4.471772e-01 2.157580e-01 4.151188e-01 3.860471e-02 1.430499e-01 1.881594e-01 -1.439272e-02 4.335507e-02
<VARIANCE> 39
 5.615990e+01 3.626587e+01 3.723264e+01 4.335063e+01 5.295801e+01 4.933046e+01 4.466930e+01 3.719886e+01 3.201717e+01 3.549250e+01 2.735524e+01 2.372011e+01 1.815864e+01 3.476272e+00 4.585278e+00 3.690240e+00 5.329064e+00 3.863449e+00 5.569550e+00 4.627976e+00 4.942578e+00 3.971507e+00 3.569939e+00 3.372317e+00 3.130091e+00 1.449688e+00 1.045187e+00 7.169648e-01 5.108036e-01 6.014839e-01 7.837652e-01 7.745963e-01 7.325335e-01 7.063501e-01 5.619184e-01 6.264928e-01 4.997259e-01 4.878758e-01 1.693368e-01
<GCONST> 1.288447e+02
<STATE> 3
<MEAN> 39
 -1.724726e+01 1.069224e+01 -5.141959e-01 1.397876e+00 8.955706e+00 -9.848115e-01 3.692641e+00 1.530837e+00 1.196579e+00 3.414803e-01 -2.604622e-01 1.919383e+00 2.232651e+00 -9.365909e-01 -7.296507e-01 -5.866869e-01 -1.308057e-01 1.356409e-01 5.631567e-01 5.935957e-01 6.613774e-01 4.179506e-01 3.589531e-01 3.142581e-01 1.143358e-01 1.760052e-01 1.402847e+00 -5.486925e-01 2.499464e-01 -1.379248e-01 -7.205987e-01 -4.280642e-01 -5.902298e-01 -3.493327e-01 -1.110202e-01 -6.069771e-03 -1.485716e-01 -1.348808e-01 2.901708e-02
<VARIANCE> 39
 2.412695e+01 2.658165e+01 3.724504e+01 5.312456e+01 3.777708e+01 4.440060e+01 4.323659e+01 3.652898e+01 2.826919e+01 2.511399e+01 2.685819e+01 1.839634e+01 1.229362e+01 6.032084e+00 2.011753e+00 2.131261e+00 2.104081e+00 2.858081e+00 3.808689e+00 3.397979e+00 2.773025e+00 2.410220e+00 2.148259e+00 1.897085e+00 1.688316e+00 9.145322e-01 6.148415e-01 5.261962e-01 4.620340e-01 6.168377e-01 5.432213e-01 7.420369e-01 6.473560e-01 6.189600e-01 5.349795e-01 4.891682e-01 4.381332e-01 4.098819e-01 2.432547e-01
<GCONST> 1.184658e+02
<STATE> 4
<MEAN> 39
 -1.291770e+01 5.898670e+00 -9.391978e-01 7.123771e-01 5.440905e+00 -1.338171e+00 1.800148e+00 1.281569e+00 2.267159e+00 9.190563e-01 2.319569e-01 1.356496e+00 2.096632e+00 2.723393e+00 -1.509778e+00 2.615966e-01 -2.057259e-01 -1.298507e+00 -4.459095e-01 -1.000846e+00 -4.389010e-01 -3.834165e-02 5.893600e-02 -1.691153e-01 -2.861365e-01 -3.471847e-01 6.227577e-01 -8.049075e-02 1.197442e-01 6.559598e-02 -1.851851e-01 1.688038e-03 -1.582046e-01 -1.351286e-01 -1.569781e-01 -6.551839e-02 -7.252968e-02 -6.959455e-02 -2.979509e-01
<VARIANCE> 39
 5.815611e+01 3.361151e+01 3.679259e+01 4.941317e+01 4.234824e+01 5.399007e+01 4.916426e+01 3.931192e+01 3.255841e+01 2.818773e+01 3.101778e+01 2.014935e+01 2.550816e+01 6.527754e+00 3.302266e+00 3.155550e+00 3.784762e+00 4.158880e+00 4.839739e+00 4.501739e+00 3.725435e+00 3.235027e+00 2.840991e+00 2.769373e+00 2.307085e+00 3.164844e+00 1.000511e+00 5.058833e-01 5.235810e-01 6.089179e-01 6.386975e-01 8.781435e-01 8.193477e-01 7.261815e-01 5.934117e-01 5.312603e-01 5.272147e-01 4.139401e-01 5.034398e-01
<GCONST> 1.288739e+02
<TRANSP> 5
 0.000000e+00 1.000000e+00 0.000000e+00 0.000000e+00 0.000000e+00
 0.000000e+00 6.584294e-01 3.415705e-01 0.000000e+00 0.000000e+00
 0.000000e+00 0.000000e+00 6.796521e-01 3.203479e-01 0.000000e+00
 0.000000e+00 0.000000e+00 0.000000e+00 6.526315e-01 3.473685e-01
 0.000000e+00 0.000000e+00 0.000000e+00 0.000000e+00 0.000000e+00
<ENDHMM>
~h "aa"
<BEGINHMM>
<NUMSTATES> 5
<STATE> 2
<MEAN> 39
 8.444078e+00 -7.558312e+00 -7.702650e+00 -6.601034e+00 -3.352497e-03 4.224790e+00 -7.072339e-01 1.070635e+00 2.474353e+00 8.033471e-01 -7.537104e-01 -4.015656e+00 9.854195e+00 1.122444e+00 -1.609187e+00 -1.624919e+00 -1.068534e+00 7.955039e-01 1.491398e+00 3.108283e-01 -1.589740e-01 2.506318e-01 -6.364805e-02 6.334784e-02 -8.297310e-01 1.201409e+00 -5.750903e-01 3.236855e-01 2.735137e-01 4.063960e-01 2.776496e-01 -2.614854e-02 2.320733e-01 -2.214319e-01 -1.528837e-01 -7.078407e-02 9.776682e-02 3.183021e-01 -4.626524e-01
<VARIANCE> 39
 1.438527e+01 2.486968e+01 2.959833e+01 4.845433e+01 4.460614e+01 6.668198e+01 6.166109e+01 6.270533e+01 4.697494e+01 4.466063e+01 4.661370e+01 3.293099e+01 1.888728e+01 2.622150e+00 2.117390e+00 2.866735e+00 3.802019e+00 4.377267e+00 4.176107e+00 4.800504e+00 4.720780e+00 4.075099e+00 3.423399e+00 3.536452e+00 3.255635e+00 1.482761e+00 4.596962e-01 3.595016e-01 3.531641e-01 5.568842e-01 6.322689e-01 7.561728e-01 9.070449e-01 9.062170e-01 7.095279e-01 6.465104e-01 6.918942e-01 5.317504e-01 2.961317e-01
<GCONST> 1.272526e+02
<STATE> 3
<MEAN> 39
 9.406129e+00 -9.795225e+00 -1.081741e+01 -7.945171e+00 3.460968e+00 8.380923e+00 1.115202e+00 -1.368838e+00 2.375749e+00 1.418094e-02 1.817338e-01 -4.492184e+00 1.078652e+01 6.932496e-02 -2.513952e-01 -3.486995e-01 2.916036e-01 4.408870e-01 -1.238785e-01 -8.410814e-02 7.132768e-02 1.261035e-01 -1.812877e-01 -5.512393e-02 -5.129807e-02 5.960260e-02 -6.298412e-02 2.323864e-01 1.761511e-01 1.614613e-01 -1.559023e-01 -3.488482e-01 -1.464597e-01 1.651486e-01 2.422675e-02 -3.451739e-03 -6.894825e-02 1.073625e-01 -1.805784e-01
<VARIANCE> 39
 9.717994e+00 2.122793e+01 2.272239e+01 4.413512e+01 4.268002e+01 5.462874e+01 5.904935e+01 5.746049e+01 4.481803e+01 4.053394e+01 4.220210e+01 3.513454e+01 1.263599e+01 3.242041e-01 8.066487e-01 9.985412e-01 1.652820e+00 1.521373e+00 2.247762e+00 2.064614e+00 2.111340e+00 1.674558e+00 1.572840e+00 1.521343e+00 1.464497e+00 3.145284e-01 8.090451e-02 1.329674e-01 1.549672e-01 2.142099e-01 2.458528e-01 2.628790e-01 3.437954e-01 3.149526e-01 2.946661e-01 2.842267e-01 2.672023e-01 2.688380e-01 7.306516e-02
<GCONST> 9.898898e+01
<STATE> 4
<MEAN> 39
 9.779061e+00 -9.100958e+00 -1.164561e+01 -4.541323e+00 4.303429e+00 2.908008e+00 -1.482010e+00 2.384605e+00 3.454235e+00 -1.165579e+00 -1.474756e+00 -3.453506e+00 9.502218e+00 -1.829431e-01 9.427236e-01 6.529587e-01 8.545403e-01 -4.024433e-01 -1.518744e+00 -6.318889e-01 7.453793e-01 1.193696e-01 -8.101731e-03 -4.011203e-01 4.428516e-01 -8.963475e-01 -2.753414e-01 3.855191e-01 4.070356e-01 2.283844e-01 -9.170859e-02 -8.579358e-02 -2.328436e-02 -1.701016e-01 -1.506247e-01 6.189156e-02 9.018032e-02 1.382506e-01 -4.152288e-01
<VARIANCE> 39
 1.279854e+01 2.652964e+01 3.524488e+01 4.301622e+01 4.232893e+01 6.035635e+01 7.229312e+01 6.895569e+01 5.234954e+01 4.122626e+01 4.102649e+01 3.513765e+01 1.471891e+01 8.795170e-01 1.776094e+00 2.147323e+00 2.343709e+00 2.722782e+00 2.620176e+00 3.667356e+00 3.067532e+00 2.806455e+00 2.624860e+00 2.446457e+00 2.240181e+00 1.099844e+00 2.878994e-01 2.871833e-01 2.569250e-01 3.851734e-01 3.796673e-01 4.628332e-01 4.850447e-01 5.204682e-01 4.682382e-01 4.438127e-01 4.222283e-01 3.762444e-01 2.640060e-01
<GCONST> 1.164050e+02
<TRANSP> 5
 0.000000e+00 1.000000e+00 0.000000e+00 0.000000e+00 0.000000e+00
 0.000000e+00 5.231313e-01 4.768687e-01 0.000000e+00 0.000000e+00
 0.000000e+00 0.000000e+00 8.410744e-01 1.589256e-01 0.000000e+00
 0.000000e+00 0.000000e+00 0.000000e+00 6.855028e-01 3.144973e-01
 0.000000e+00 0.000000e+00 0.000000e+00 0.000000e+00 0.000000e+00
<ENDHMM>
~h "ae"
<BEGINHMM>
<NUMSTATES> 5
<STATE> 2
<MEAN> 39
 4.747870e+00 -8.288527e+00 7.796736e-01 -4.016506e+00 -6.661889e+00 -2.035617e+00 2.885827e+00 6.019535e+00 1.452559e+00 -1.677119e+00 -2.550078e+00 -2.447247e+00 1.130909e+01 -1.132576e-01 -7.733037e-01 -6.833024e-02 -3.665170e-01 9.687591e-02 5.194289e-01 7.810726e-01 3.691913e-01 3.329112e-02 -4.827588e-01 -3.497628e-01 -1.013245e-01 6.026962e-01 -9.096921e-02 3.002764e-01 -9.710803e-02 2.343791e-01 2.888701e-01 2.018126e-02 -1.241800e-01 -2.757189e-01 -1.976901e-02 3.220287e-02 5.026303e-02 1.006090e-01 -3.277373e-01
<VARIANCE> 39
 1.302722e+01 2.188252e+01 3.610203e+01 2.782441e+01 3.781728e+01 3.929693e+01 4.335651e+01 4.027142e+01 5.107061e+01 3.179076e+01 2.865124e+01 2.512212e+01 1.417780e+01 5.455727e-01 1.154157e+00 1.440688e+00 1.390372e+00 1.740628e+00 1.856163e+00 2.258839e+00 2.190090e+00 1.845321e+00 1.644893e+00 1.631536e+00 1.507829e+00 5.811821e-01 1.664567e-01 2.101715e-01 1.997584e-01 2.456786e-01 2.987555e-01 3.233622e-01 3.945617e-01 3.700885e-01 3.337241e-01 3.054729e-01 2.978525e-01 2.586420e-01 1.434761e-01
<GCONST> 1.026890e+02
<STATE> 3
<MEAN> 39
 4.649019e+00 -9.441778e+00 -1.722160e+00 -3.339206e+00 -3.415200e+00 -3.355623e-01 4.565670e+00 4.943847e+00 1.543073e+00 -3.886213e+00 -3.939314e+00 -1.762689e+00 1.152281e+01 3.171591e-02 1.202668e-01 -2.157078e-01 1.010770e-01 2.520401e-01 -6.807687e-02 -1.214762e-01 -1.073424e-01 3.536611e-02 -1.248022e-02 -5.966214e-02 2.579580e-02 -1.504355e-01 1.707081e-02 2.153662e-01 4.521539e-02 4.828248e-02 -4.103539e-02 -1.362720e-01 -1.568053e-01 -6.310383e-02 -2.502384e-02 1.395710e-01 6.600951e-02 -1.447389e-02 -1.796288e-01
<VARIANCE> 39
 9.679891e+00 2.004116e+01 2.884577e+01 2.360105e+01 3.775548e+01 3.495993e+01 3.688702e+01 3.704744e+01 4.826619e+01 2.888522e+01 2.837955e+01 3.026645e+01 1.631415e+01 2.369064e-01 6.022803e-01 9.191463e-01 7.823319e-01 1.212423e+00 1.189242e+00 1.301938e+00 1.236941e+00 1.215382e+00 1.181384e+00 1.097027e+00 9.559998e-01 2.276081e-01 4.528322e-02 1.253249e-01 1.282023e-01 1.432148e-01 1.804448e-01 1.886413e-01 2.157441e-01 2.258099e-01 2.173498e-01 1.950928e-01 1.947214e-01 1.729397e-01 6.137611e-02
<GCONST> 8.724278e+01
<STATE> 4
<MEAN> 39
 5.161558e+00 -7.451914e+00 -2.627532e+00 -3.076382e+00 -2.886868e+00 -2.329955e+00 2.669738e+00 4.585537e+00 2.231114e+00 -2.433489e+00 -4.337483e+00 -2.483614e+00 9.865666e+00 -2.367311e-01 1.872077e+00 3.662277e-01 6.662453e-01 1.940464e-01 -6.925941e-01 -7.071055e-01 -6.642495e-01 -3.448942e-01 7.512085e-01 4.537362e-01 1.080285e-01 -1.660776e+00 -4.752874e-01 6.533718e-01 3.024278e-01 4.280543e-01 2.275542e-01 1.395584e-01 2.047102e-02 -3.357165e-01 -2.539709e-01 6.501039e-02 2.450764e-01 1.384380e-01 -7.245970e-01
<VARIANCE> 39
 1.203680e+01 2.531445e+01 3.372516e+01 2.584975e+01 4.240622e+01 4.134344e+01 4.735623e+01 4.277008e+01 4.582567e+01 4.104966e+01 3.695144e+01 3.460641e+01 2.688369e+01 1.456414e+00 2.552229e+00 2.640275e+00 2.332672e+00 3.448030e+00 3.177236e+00 3.552523e+00 3.708878e+00 3.875777e+00 3.082121e+00 3.071821e+00 2.640067e+00 1.503886e+00 4.566173e-01 3.558002e-01 3.132457e-01 4.155270e-01 5.053690e-01 5.304608e-01 6.419507e-01 6.285828e-01 6.343519e-01 6.060673e-01 5.582384e-01 4.657022e-01 3.384101e-01
<GCONST> 1.208523e+02
<TRANSP> 5
 0.000000e+00 1.000000e+00 0.000000e+00 0.000000e+00 0.000000e+00
 0.000000e+00 6.975726e-01 3.024274e-01 0.000000e+00 0.000000e+00
 0.000000e+00 0.000000e+00 8.461152e-01 1.538848e-01 0.000000e+00
 0.000000e+00 0.000000e+00 0.000000e+00 5.976232e-01 4.023768e-01
 0.000000e+00 0.000000e+00 0.000000e+00 0.000000e+00 0.000000e+00
<ENDHMM>
~h "ah"
<BEGINHMM>
<NUMSTATES> 5
<STATE> 2
<MEAN> 39
 7.545730e+00 -5.851579e+00 -4.216313e+00 -5.780475e+00 -1.286559e+00 9.373683e-01 -4.396589e+00 8.551679e-01 3.689214e+00 1.540613e+00 -1.880614e+00 -3.550180e+00 9.558774e+00 1.409140e+00 -1.775258e+00 -7.158139e-01 -1.441887e+00 -9.369512e-02 6.932460e-01 -9.582298e-01 5.895513e-01 1.140593e+00 1.713046e-01 -6.869237e-01 -1.016410e+00 1.566211e+00 -6.567852e-01 4.035207e-01 1.771341e-01 4.283319e-01 2.865825e-01 2.516264e-03 4.029142e-01 -1.204113e-01 -2.619549e-01 -8.542957e-02 1.175635e-01 2.559014e-01 -5.641008e-01
<VARIANCE> 39
 1.498279e+01 2.578742e+01 3.183371e+01 3.308801e+01 4.238122e+01 5.975110e+01 4.936890e+01 5.023925e+01 3.984336e+01 4.986231e+01 4.847827e+01 3.490017e+01 1.989515e+01 4.267351e+00 2.895416e+00 2.845334e+00 4.438618e+00 4.538007e+00 5.544282e+00 4.993187e+00 5.021162e+00 4.527224e+00 4.115316e+00 4.529989e+00 3.474290e+00 2.417865e+00 5.814350e-01 4.159320e-01 4.133020e-01 5.881894e-01 6.612731e-01 8.358091e-01 8.338317e-01 7.947996e-01 6.939946e-01 6.950475e-01 7.246863e-01 5.813028e-01 3.937086e-01
<GCONST> 1.299622e+02
<STATE> 3
<MEAN> 39
 8.004066e+00 -8.245543e+00 -5.295268e+00 -7.181481e+00 5.098100e-01 2.717611e+00 -4.471123e+00 1.917645e+00 5.305882e+00 1.234123e+00 -3.129940e+00 -4.772676e+00 1.100701e+01 3.361703e-02 1.237181e-01 -1.235996e-02 4.040986e-02 1.911019e-01 -1.234014e-01 -5.169186e-02 -6.800072e-02 3.762033e-02 -3.457500e-02 -8.735911e-02 -1.199941e-02 -1.786052e-01 -2.364719e-01 6.038856e-01 2.515647e-01 4.343627e-01 -4.068111e-02 -2.697727e-01 1.553282e-01 -2.632266e-01 -3.900802e-01 -2.611122e-02 1.831847e-01 2.712159e-01 -5.738262e-01
<VARIANCE> 39
 9.632661e+00 1.720323e+01 2.394196e+01 2.762136e+01 3.843224e+01 5.408683e+01 4.674247e+01 4.386149e+01 3.960041e+01 5.148363e+01 4.315458e+01 3.827165e+01 1.406362e+01 5.857982e-01 1.494791e+00 1.483253e+00 1.924242e+00 2.036950e+00 3.068970e+00 2.373716e+00 2.838148e+00 2.246319e+00 2.299397e+00 2.360033e+00 2.081139e+00 9.746239e-01 2.466777e-01 2.928012e-01 2.453973e-01 3.974300e-01 4.210223e-01 4.928460e-01 5.723140e-01 5.586181e-01 5.161620e-01 4.855242e-01 4.806232e-01 4.488453e-01 2.525554e-01
<GCONST> 1.121220e+02
<STATE> 4
<MEAN> 39
 7.873107e+00 -4.851109e+00 -4.364448e+00 -5.344991e+00 1.637332e-01 5.862289e-02 -4.444409e+00 4.234741e-01 3.457135e+00 1.048734e+00 -2.277594e+00 -3.114702e+00 7.974357e+00 -8.052742e-01 2.094037e+00 1.023468e+00 1.599033e+00 6.143983e-02 -7.572796e-01 5.164266e-01 -9.824362e-01 -1.310528e+00 -2.092847e-01 3.478855e-01 7.543908e-01 -2.070152e+00 -5.300125e-01 4.370833e-01 2.701238e-01 4.803473e-01 1.149205e-01 1.342781e-01 3.159892e-01 -2.393709e-01 -3.232788e-01 -8.524299e-02 2.761460e-02 1.096569e-01 -5.656144e-01
<VARIANCE> 39
 1.274744e+01 2.595828e+01 2.911357e+01 3.485748e+01 3.727269e+01 5.968831e+01 4.987327e+01 5.449303e+01 4.345530e+01 5.905225e+01 4.772577e+01 3.883675e+01 2.224483e+01 2.374682e+00 2.654882e+00 2.519479e+00 3.626535e+00 3.753399e+00 4.210512e+00 4.555961e+00 4.833683e+00 4.467654e+00 4.116781e+00 3.861235e+00 3.260753e+00 2.545376e+00 4.548953e-01 4.702306e-01 3.703282e-01 6.021246e-01 5.494506e-01 7.383813e-01 7.147584e-01 8.976108e-01 6.834940e-01 7.438803e-01 6.896237e-01 5.417510e-01 5.179256e-01
<GCONST> 1.280709e+02
<TRANSP> 5
 0.000000e+00 1.000000e+00 0.000000e+00 0.000000e+00 0.000000e+00
 0.000000e+00 4.347259e-01 5.652741e-01 0.000000e+00 0.000000e+00
 0.000000e+00 0.000000e+00 7.157577e-01 2.842423e-01 0.000000e+00
 0.000000e+00 0.000000e+00 0.000000e+00 5.322871e-01 4.677129e-01
 0.000000e+00 0.000000e+00 0.000000e+00 0.000000e+00 0.000000e+00
<ENDHMM>
~h "ao"
<BEGINHMM>
<NUMSTATES> 5
<STATE> 2
<MEAN> 39
 1.060074e+01 -1.347172e-01 -7.679906e+00 -1.318902e+01 -5.064898e+00 7.815694e+00 2.686002e+00 -1.723668e+00 -5.693628e-01 2.884405e-01 1.697610e+00 -1.156111e+00 4.593852e+00 4.247149e-01 -6.148828e-01 -5.381572e-01 -1.375268e+00 -9.692643e-03 1.356081e+00 7.298572e-01 -8.152378e-02 -8.813135e-02 -1.569253e-01 3.591362e-01 1.747955e-01 7.883366e-01 -3.696221e-01 3.672917e-02 6.150527e-02 5.282438e-01 4.036299e-01 -2.136876e-01 -5.141066e-02 9.533809e-03 1.503305e-02 -4.978327e-02 -2.488168e-02 1.132770e-01 -2.169748e-01
<VARIANCE> 39
 1.139266e+01 4.595774e+01 3.385416e+01 5.249744e+01 7.540918e+01 5.170112e+01 6.811176e+01 4.573532e+01 4.853627e+01 4.680290e+01 4.054325e+01 3.331438e+01 2.457850e+01 1.171604e+00 1.959553e+00 1.908678e+00 3.072496e+00 3.434005e+00 3.239007e+00 3.295980e+00 3.195630e+00 3.195516e+00 2.949988e+00 2.767846e+00 2.423576e+00 1.028610e+00 3.558860e-01 3.053342e-01 3.018604e-01 4.659255e-01 5.533683e-01 5.129626e-01 6.297930e-01 5.351390e-01 6.154400e-01 5.134867e-01 5.179385e-01 4.232109e-01 1.825935e-01
<GCONST> 1.205120e+02
<STATE> 3
<MEAN> 39
 1.036500e+01 -2.447170e+00 -9.660753e+00 -1.544328e+01 -1.482268e+00 1.162870e+01 4.526857e+00 -2.585036e+00 -1.375681e-02 -7.381017e-01 2.212463e+00 -5.103668e-01 6.725612e+00 -1.377468e-02 -2.610575e-01 -2.104224e-01 1.949391e-01 4.914963e-01 -1.406109e-02 -1.973728e-01 -9.371417e-02 6.646660e-02 9.893874e-02 1.599137e-01 -4.056854e-02 1.794225e-01 -3.157416e-02 2.126614e-02 4.593957e-02 2.736591e-01 3.613580e-02 -2.764831e-01 -2.233320e-01 3.027595e-02 7.108991e-02 9.769396e-02 -4.099247e-02 -7.778325e-02 -7.207196e-02
<VARIANCE> 39
 9.366750e+00 3.174264e+01 2.439004e+01 4.959530e+01 6.832632e+01 4.920440e+01 6.584922e+01 4.478996e+01 4.168469e+01 4.641438e+01 3.881741e+01 3.625130e+01 1.575107e+01 2.060838e-01 1.045091e+00 8.533750e-01 1.701767e+00 1.654849e+00 1.610331e+00 1.823832e+00 1.507990e+00 1.485051e+00 1.636904e+00 1.527564e+00 1.521595e+00 3.378763e-01 3.953633e-02 1.066606e-01 1.185846e-01 1.908514e-01 2.334218e-01 2.524560e-01 2.714973e-01 2.612401e-01 2.730289e-01 2.638294e-01 2.624692e-01 2.409791e-01 4.326567e-02
<GCONST> 9.636369e+01
<STATE> 4
<MEAN> 39
 1.052941e+01 -4.998524e+00 -1.128040e+01 -8.537854e+00 2.098338e+00 6.153974e+00 -8.553786e-01 -1.163933e+00 9.430885e-01 1.125138e+00 2.497420e+00 -2.071962e+00 7.269246e+00 -2.133679e-01 -4.226790e-02 2.833068e-01 1.631374e+00 4.327664e-01 -1.602722e+00 -1.203451e+00 4.088133e-01 7.182239e-01 3.766989e-01 -6.486224e-01 -2.679972e-01 -2.666924e-01 -1.790975e-01 2.511649e-01 3.744997e-01 2.517277e-01 -1.922198e-01 -2.446138e-01 9.443567e-03 7.269011e-02 2.863652e-02 -1.179008e-01 -2.076473e-01 1.517685e-01 -2.613676e-01
<VARIANCE> 39
 1.300644e+01 3.118248e+01 3.008463e+01 5.733165e+01 4.848178e+01 6.013430e+01 7.648333e+01 5.771215e+01 5.231118e+01 5.494881e+01 5.167684e+01 5.224444e+01 1.545510e+01 4.593863e-01 1.679897e+00 1.902213e+00 2.510521e+00 3.099342e+00 2.819991e+00 3.761067e+00 3.098112e+00 3.155015e+00 3.177096e+00 2.751350e+00 2.730447e+00 6.865591e-01 1.810954e-01 2.144875e-01 2.362932e-01 3.624790e-01 4.006160e-01 4.891572e-01 5.815885e-01 5.202057e-01 5.183797e-01 5.259787e-01 5.188367e-01 5.258513e-01 1.172874e-01
<GCONST> 1.167088e+02
<TRANSP> 5
 0.000000e+00 1.000000e+00 0.000000e+00 0.000000e+00 0.000000e+00
 0.000000e+00 6.445538e-01 3.554462e-01 0.000000e+00 0.000000e+00
 0.000000e+00 0.000000e+00 8.547330e-01 1.452670e-01 0.000000e+00
 0.000000e+00 0.000000e+00 0.000000e+00 6.780069e-01 3.219931e-01
 0.000000e+00 0.000000e+00 0.000000e+00 0.000000e+00 0.000000e+00
<ENDHMM>
~h "aw"
<BEGINHMM>
<NUMSTATES> 5
<STATE> 2
<MEAN> 39
 5.510715e+00 -1.039455e+01 -2.724842e+00 -2.914970e+00 -1.807660e+00 2.466741e-01 2.121430e+00 4.093574e+00 1.261962e+00 -3.168664e+00 -4.152643e+00 -2.082423e+00 1.175353e+01 3.015791e-01 -1.057867e+00 -7.756281e-01 -1.407659e-01 8.514280e-01 7.432827e-01 -1.459318e-01 -1.130074e-01 4.438896e-01 -3.737204e-01 -4.599546e-01 -2.778671e-01 6.611659e-01 -1.823146e-01 3.985665e-01 2.397395e-02 1.053083e-01 2.197414e-01 1.159125e-01 -9.288231e-02 -3.298333e-01 -2.912673e-02 1.450117e-01 1.900505e-01 5.613282e-02 -4.168036e-01
<VARIANCE> 39
 1.243223e+01 2.147183e+01 3.608769e+01 3.077223e+01 4.657159e+01 3.976200e+01 4.835474e+01 4.962481e+01 4.479599e+01 3.911348e+01 2.688268e+01 2.978440e+01 1.455481e+01 9.330849e-01 1.688895e+00 1.677437e+00 1.996005e+00 2.451617e+00 2.439896e+00 3.265002e+00 2.800641e+00 2.307762e+00 2.117086e+00 1.963262e+00 1.931929e+00 1.034334e+00 2.781269e-01 2.639544e-01 2.372259e-01 3.229022e-01 3.851207e-01 3.776960e-01 5.051944e-01 5.013823e-01 4.747303e-01 3.875381e-01 3.604982e-01 3.488098e-01 1.775324e-01
<GCONST> 1.110570e+02
<STATE> 3
<MEAN> 39
 7.368840e+00 -1.087786e+01 -7.221311e+00 -4.655873e+00 3.459677e+00 4.875947e+00 2.634313e-01 -3.846586e-01 3.808885e+00 -2.193863e+00 -3.866010e+00 -3.833556e+00 1.149983e+01 2.688287e-01 3.579051e-01 -4.379781e-01 -5.554070e-01 3.550951e-01 7.090141e-01 -2.632005e-01 -6.115538e-01 6.792707e-02 3.401278e-01 4.219198e-01 -1.535238e-01 -3.015083e-01 1.855638e-02 2.113169e-01 6.998263e-02 -7.149716e-02 -2.062393e-01 -7.246739e-02 2.191393e-02 3.595834e-02 -1.201146e-01 7.438683e-02 1.317788e-01 8.674673e-02 -1.426937e-01
<VARIANCE> 39
 8.983430e+00 1.685217e+01 2.347778e+01 3.512128e+01 3.555610e+01 4.605469e+01 5.712053e+01 4.663809e+01 3.662821e+01 3.906277e+01 3.041068e+01 3.385992e+01 1.297118e+01 2.412447e-01 6.370162e-01 6.947912e-01 1.185142e+00 1.336216e+00 1.408422e+00 1.551916e+00 1.613829e+00 1.499282e+00 1.375486e+00 1.397586e+00 1.262899e+00 2.285338e-01 4.141050e-02 9.840963e-02 1.132439e-01 1.605499e-01 1.889616e-01 2.215375e-01 2.549472e-01 2.442763e-01 2.378100e-01 2.056045e-01 2.173082e-01 2.121225e-01 4.179844e-02
<GCONST> 9.003555e+01
<STATE> 4
<MEAN> 39
 9.796050e+00 -5.240652e+00 -8.991885e+00 -1.008142e+01 1.363613e+00 8.148428e+00 -1.173306e-02 -2.661226e+00 1.404408e+00 3.242378e-01 1.162548e+00 -2.755870e+00 7.427968e+00 7.014364e-02 1.135011e+00 3.571098e-01 1.120485e-01 -7.957348e-01 -6.577248e-01 -1.448300e-01 2.800824e-02 -5.099317e-01 3.937535e-01 3.444122e-01 3.413102e-01 -9.882967e-01 -2.290706e-01 1.125782e-01 3.134715e-01 5.429514e-01 -3.824864e-02 -4.311315e-01 -3.042168e-02 1.347310e-02 -1.968991e-02 -2.995516e-02 -1.986850e-01 2.425580e-02 -2.169552e-01
<VARIANCE> 39
 1.054304e+01 2.610984e+01 2.356463e+01 4.852832e+01 5.202242e+01 4.911303e+01 6.457441e+01 4.176235e+01 4.306767e+01 4.520004e+01 4.407223e+01 3.724772e+01 2.224653e+01 5.766356e-01 1.598136e+00 1.576159e+00 3.239236e+00 2.709699e+00 3.093987e+00 3.096782e+00 2.834436e+00 2.762461e+00 2.597922e+00 2.666470e+00 2.545026e+00 8.229182e-01 1.479842e-01 2.528201e-01 2.575770e-01 3.948680e-01 4.936470e-01 3.955375e-01 5.179359e-01 4.906100e-01 4.848145e-01 4.826263e-01 4.628088e-01 4.347723e-01 1.840788e-01
<GCONST> 1.143768e+02
<TRANSP> 5
 0.000000e+00 1.000000e+00 0.000000e+00 0.000000e+00 0.000000e+00
 0.000000e+00 7.164090e-01 2.835911e-01 0.000000e+00 0.000000e+00
 0.000000e+00 0.000000e+00 8.550085e-01 1.449915e-01 0.000000e+00
 0.000000e+00 0.000000e+00 0.000000e+00 7.713798e-01 2.286202e-01
 0.000000e+00 0.000000e+00 0.000000e+00 0.000000e+00 0.000000e+00
<ENDHMM>
~h "ax"
<BEGINHMM>
<NUMSTATES> 5
<STATE> 2
<MEAN> 39
 6.203077e+00 -1.154221e+00 -2.376081e+00 -3.511688e+00 -2.179615e-01 -1.055901e+00 -5.342923e+00 -2.035522e+00 2.814600e+00 2.435824e+00 -1.613506e+00 -2.379030e+00 4.861800e+00 1.958323e+00 -7.369260e-01 -1.130690e-01 -1.126939e+00 -4.890909e-01 8.023758e-03 -1.507679e+00 -2.527375e-01 3.360019e-01 5.778866e-01 -2.334658e-01 -6.674889e-01 9.230987e-01 -5.996630e-01 4.596132e-01 1.217371e-01 3.877380e-01 2.041481e-01 2.596308e-01 5.641635e-01 -1.264833e-01 -4.379299e-01 -1.686909e-01 2.360598e-01 2.207157e-01 -7.608180e-01
<VARIANCE> 39
 2.437251e+01 2.890564e+01 3.189541e+01 4.558306e+01 3.494978e+01 5.083588e+01 4.683350e+01 4.752161e+01 3.982115e+01 4.502903e+01 4.206463e+01 2.891088e+01 2.441232e+01 6.532575e+00 3.411303e+00 3.480591e+00 5.730494e+00 4.720428e+00 5.841138e+00 5.942101e+00 6.039752e+00 4.990958e+00 4.158726e+00 4.896830e+00 3.427494e+00 3.441521e+00 7.130268e-01 5.560498e-01 5.078257e-01 8.927435e-01 6.594170e-01 8.819085e-01 9.413869e-01 9.171412e-01 8.814298e-01 8.299271e-01 8.098968e-01 6.017352e-01 7.771173e-01
<GCONST> 1.348918e+02
<STATE> 3
<MEAN> 39
 7.995643e+00 -2.508420e+00 -2.466818e+00 -5.300957e+00 -6.823781e-01 -3.059671e-01 -7.010087e+00 -2.134148e+00 2.800870e+00 3.593511e+00 -1.457989e+00 -3.152547e+00 5.896825e+00 4.166563e-01 4.310237e-01 1.180698e-01 -2.795275e-02 6.679466e-02 2.886375e-01 2.965963e-02 -5.026552e-01 -5.384739e-01 2.227262e-02 2.672502e-01 7.064793e-03 -5.712354e-01 -9.904059e-01 8.106481e-01 2.018637e-01 7.695652e-01 3.516756e-01 1.209103e-01 9.174702e-01 -1.521230e-01 -5.232200e-01 -4.211009e-01 1.733086e-01 3.564811e-01 -9.737781e-01
<VARIANCE> 39
 1.219421e+01 2.371577e+01 3.185426e+01 3.849383e+01 3.227803e+01 5.556350e+01 4.957740e+01 4.980565e+01 4.043330e+01 4.795015e+01 4.756805e+01 3.089486e+01 1.649954e+01 3.737895e+00 3.139285e+00 2.766474e+00 5.461732e+00 3.943897e+00 4.723382e+00 4.531261e+00 4.821928e+00 4.326168e+00 3.814951e+00 4.018018e+00 3.144218e+00 2.486120e+00 7.596458e-01 5.428673e-01 5.643758e-01 8.890196e-01 7.629261e-01 1.070634e+00 1.108364e+00 1.108483e+00 9.696540e-01 9.230838e-01 9.694225e-01 6.786252e-01 6.425893e-01
<GCONST> 1.323191e+02
<STATE> 4
<MEAN> 39
 7.366920e+00 7.200477e-02 -2.373533e+00 -4.004572e+00 5.790680e-02 2.130933e-01 -5.017791e+00 -3.671284e+00 9.355911e-01 2.403883e+00 -4.640763e-01 -2.138462e+00 3.406856e+00 -1.186215e+00 1.722336e+00 5.238296e-01 1.295717e+00 6.240430e-01 3.009329e-01 1.345077e+00 -5.881830e-01 -1.193851e+00 -7.674332e-01 2.963882e-01 4.995085e-01 -1.894308e+00 -7.777511e-01 3.374472e-01 1.408916e-01 4.707426e-01 1.988674e-01 7.187418e-02 4.946086e-01 9.873658e-02 -1.551670e-01 -2.152018e-01 -2.199431e-02 1.548467e-01 -4.995564e-01
<VARIANCE> 39
 1.719850e+01 2.945658e+01 3.204632e+01 4.503109e+01 3.568482e+01 5.431700e+01 4.933999e+01 4.975203e+01 4.471493e+01 4.831218e+01 4.514711e+01 3.268087e+01 2.203609e+01 4.715095e+00 2.924003e+00 2.925613e+00 6.306109e+00 4.062595e+00 4.945487e+00 5.005853e+00 5.246394e+00 5.200514e+00 4.396524e+00 4.342862e+00 3.460469e+00 3.771662e+00 6.725339e-01 6.776095e-01 5.008894e-01 8.219383e-01 7.034660e-01 9.118556e-01 9.365443e-01 9.921168e-01 8.720984e-01 8.469878e-01 8.105952e-01 6.123860e-01 6.967660e-01
<GCONST> 1.340410e+02
<TRANSP> 5
 0.000000e+00 1.000000e+00 0.000000e+00 0.000000e+00 0.000000e+00
 0.000000e+00 2.076647e-01 7.923353e-01 0.000000e+00 0.000000e+00
 0.000000e+00 0.000000e+00 2.546518e-01 7.453482e-01 0.000000e+00
 0.000000e+00 0.000000e+00 0.000000e+00 2.640564e-01 7.359437e-01
 0.000000e+00 0.000000e+00 0.000000e+00 0.000000e+00 0.000000e+00
<ENDHMM>
~h "ay"
<BEGINHMM>
<NUMSTATES> 5
<STATE> 2
<MEAN> 39
 8.170001e+00 -7.970310e+00 -8.602835e+00 -7.775478e+00 2.720102e+00 6.525430e+00 3.475749e-01 -1.821495e+00 3.700902e+00 9.518337e-01 -1.932673e+00 -5.060669e+00 9.945985e+00 2.877921e-01 -1.731482e+00 -2.444394e-01 5.208940e-02 3.969166e-01 2.292903e-01 -3.853576e-02 4.147056e-01 8.182108e-01 -4.440674e-01 -8.625128e-01 -5.905097e-01 1.112485e+00 -4.641703e-01 4.262278e-01 4.569790e-01 5.015421e-01 -8.225681e-02 -4.536673e-01 8.582639e-02 1.200543e-01 -2.319792e-01 -1.505725e-01 7.726347e-02 4.070815e-01 -4.383026e-01
<VARIANCE> 39
 1.264143e+01 2.425111e+01 2.478800e+01 4.042235e+01 4.401057e+01 5.525568e+01 5.209369e+01 4.959199e+01 4.054322e+01 4.553743e+01 4.316606e+01 3.457701e+01 1.543474e+01 1.891013e+00 1.860051e+00 2.611850e+00 3.803572e+00 3.221822e+00 4.669667e+00 3.253067e+00 3.943985e+00 3.068886e+00 2.761012e+00 2.801398e+00 2.876323e+00 1.350205e+00 4.387773e-01 3.083089e-01 3.269597e-01 5.386937e-01 6.018593e-01 6.030149e-01 6.122690e-01 6.605962e-01 5.893458e-01 5.489205e-01 6.159446e-01 5.202125e-01 2.100264e-01
<GCONST> 1.213889e+02
<STATE> 3
<MEAN> 39
 7.753062e+00 -1.087887e+01 -8.016055e+00 -5.274705e+00 3.791299e+00 5.487988e+00 1.659229e-01 -6.357245e-01 5.119068e+00 -1.157434e+00 -3.924955e+00 -4.950366e+00 1.114638e+01 -2.498413e-01 -3.553418e-01 7.195354e-01 7.392331e-01 -5.294122e-01 -1.059822e+00 1.602947e-01 9.854822e-01 6.121357e-02 -6.235895e-01 -3.958730e-01 4.123765e-01 1.372940e-01 -4.999110e-02 3.054470e-01 2.376885e-01 1.855633e-03 -3.429112e-01 -2.461089e-01 8.047068e-02 1.189636e-01 -2.541914e-01 1.177181e-02 2.424743e-01 2.048916e-01 -1.624128e-01
<VARIANCE> 39
 1.036943e+01 2.150290e+01 2.084069e+01 3.082108e+01 3.997572e+01 4.766825e+01 5.190257e+01 4.572387e+01 3.851701e+01 3.891610e+01 3.380361e+01 3.562115e+01 1.288913e+01 2.812332e-01 6.930773e-01 1.288633e+00 1.353287e+00 2.018338e+00 2.560165e+00 1.930718e+00 2.559906e+00 1.715062e+00 1.528417e+00 1.570041e+00 1.687002e+00 2.363935e-01 5.470936e-02 1.625234e-01 1.459967e-01 2.010417e-01 2.511351e-01 2.488574e-01 3.038645e-01 3.387694e-01 3.607200e-01 2.900379e-01 3.527606e-01 3.065570e-01 6.954307e-02
<GCONST> 9.804807e+01
<STATE> 4
<MEAN> 39
 5.970820e+00 -9.540709e+00 -1.669841e+00 -2.850628e+00 -2.990323e+00 -2.123807e+00 2.246618e+00 5.395005e+00 2.239037e+00 -3.159318e+00 -3.381953e+00 -1.328849e+00 1.053973e+01 -2.502900e-01 9.020904e-01 1.201610e+00 1.494634e-01 -1.253589e+00 -1.001474e+00 1.311648e-01 1.821699e-01 -7.069479e-01 2.662741e-01 6.636730e-01 4.069888e-01 -5.217454e-01 -9.536861e-03 3.030231e-01 -4.129830e-02 3.366087e-02 1.833342e-01 1.734729e-01 -1.565927e-01 -4.258493e-01 -8.511756e-02 1.943869e-01 9.340515e-02 -9.092467e-02 -2.833965e-01
<VARIANCE> 39
 1.114609e+01 2.379036e+01 3.718244e+01 2.670220e+01 5.189444e+01 4.102969e+01 4.717326e+01 4.102209e+01 4.816555e+01 3.629585e+01 3.111096e+01 2.938855e+01 1.669654e+01 3.871160e-01 1.105668e+00 1.835335e+00 1.684599e+00 2.679264e+00 2.222703e+00 2.884168e+00 2.888717e+00 2.541812e+00 2.382875e+00 2.082091e+00 2.173620e+00 4.701967e-01 8.586052e-02 1.884271e-01 1.901954e-01 2.618853e-01 3.775975e-01 3.058838e-01 4.091790e-01 4.539805e-01 4.067888e-01 3.757218e-01 3.431903e-01 2.992388e-01 1.328530e-01
<GCONST> 1.060919e+02
<TRANSP> 5
 0.000000e+00 1.000000e+00 0.000000e+00 0.000000e+00 0.000000e+00
 0.000000e+00 5.856853e-01 4.143147e-01 0.000000e+00 0.000000e+00
 0.000000e+00 0.000000e+00 7.740030e-01 2.259970e-01 0.000000e+00
 0.000000e+00 0.000000e+00 0.000000e+00 8.151207e-01 1.848793e-01
 0.000000e+00 0.000000e+00 0.000000e+00 0.000000e+00 0.000000e+00
<ENDHMM>
~h "ch"
<BEGINHMM>
<NUMSTATES> 5
<STATE> 2
<MEAN> 39
 -1.755457e+01 4.823683e-01 5.640405e+00 -2.532219e+00 3.443862e+00 6.736942e+00 2.078894e+00 1.012698e+00 3.547101e+00 4.584910e-01 2.709209e+00 2.112483e+00 2.416010e+00 -1.828397e+00 3.255192e-01 9.657215e-01 -4.860191e-01 -8.230088e-01 2.648143e-02 6.489248e-01 1.194324e-01 2.474174e-01 6.718066e-02 1.942000e-01 1.589173e-01 2.951661e+00 7.717517e-01 2.237765e-01 2.203670e-02 6.561218e-01 -2.054790e-01 -4.886871e-01 4.524016e-02 -9.306025e-02 -2.839857e-01 -7.724344e-02 -2.300009e-01 -1.241017e-01 -6.714721e-01
<VARIANCE> 39
 2.915476e+01 3.943465e+01 3.747839e+01 2.751100e+01 3.949998e+01 2.449480e+01 2.830802e+01 2.830440e+01 2.055070e+01 1.972272e+01 2.068536e+01 1.358575e+01 2.877929e+01 3.789982e+00 3.233933e+00 2.762626e+00 3.436214e+00 2.445942e+00 2.393345e+00 2.169652e+00 2.159055e+00 1.875689e+00 1.789422e+00 1.544995e+00 1.380774e+00 4.960789e+00 7.485355e-01 8.081861e-01 6.850631e-01 6.217750e-01 5.159959e-01 5.012984e-01 4.838734e-01 4.614853e-01 3.955876e-01 3.886895e-01 3.230499e-01 2.836355e-01 8.465817e-01
<GCONST> 1.172282e+02
<STATE> 3
<MEAN> 39
 -1.849694e+01 3.239549e-01 7.734334e+00 -7.678748e-01 -6.500415e-01 4.383566e+00 4.952356e+00 6.522030e-01 2.920816e+00 6.999381e-01 2.029083e+00 2.079432e+00 6.755476e+00 1.605626e+00 -4.447171e-01 -1.967288e-01 6.908650e-01 -8.718135e-01 -1.279457e+00 9.622002e-02 -1.354604e-02 -4.308909e-01 -1.592414e-01 -3.208041e-01 -1.776409e-01 -2.936889e-02 1.065650e+00 -1.238052e-01 -2.483475e-01 9.589697e-02 1.029555e-01 -2.907842e-01 -4.589756e-01 -2.290523e-03 -1.527368e-01 -1.727279e-01 -1.198233e-01 -8.336762e-02 -6.355242e-01
<VARIANCE> 39
 1.585068e+01 2.248550e+01 2.351570e+01 2.278810e+01 4.083088e+01 2.574048e+01 2.837672e+01 2.693360e+01 2.114209e+01 2.229408e+01 2.315960e+01 1.752415e+01 1.214957e+01 3.513101e+00 1.348992e+00 1.978784e+00 1.952451e+00 2.447791e+00 2.456850e+00 2.144499e+00 2.121968e+00 1.731728e+00 1.759549e+00 1.632090e+00 1.281233e+00 1.789567e+00 5.533667e-01 3.070672e-01 4.602951e-01 3.722046e-01 4.894123e-01 4.921639e-01 5.324464e-01 4.390208e-01 4.029336e-01 3.945569e-01 3.628814e-01 3.063792e-01 3.908822e-01
<GCONST> 1.093546e+02
<STATE> 4
<MEAN> 39
 -7.343289e+00 -1.668474e+00 5.635875e+00 2.112444e+00 -3.023523e+00 -1.715420e+00 2.713982e+00 8.378279e-01 8.442729e-01 -1.153185e+00 1.688247e-01 8.541114e-01 4.543231e+00 4.821366e+00 -7.163573e-01 -7.278402e-01 1.437833e-01 -6.041573e-01 -1.837973e+00 -2.023901e+00 1.983348e-01 -7.505513e-01 -7.672084e-01 -5.403563e-01 -4.079836e-01 -4.432279e-01 9.737925e-02 -1.400065e-01 -1.963643e-01 -4.622834e-01 1.473845e-01 3.711975e-01 -4.263193e-01 9.690504e-02 1.073110e-01 1.288269e-01 1.596356e-01 2.323492e-03 1.463666e-01
<VARIANCE> 39
 7.857910e+01 2.383237e+01 3.091004e+01 3.058692e+01 4.255028e+01 3.974194e+01 4.010261e+01 3.106825e+01 3.138044e+01 2.629535e+01 2.526133e+01 1.873178e+01 1.831242e+01 4.627735e+00 2.868867e+00 3.993176e+00 3.734152e+00 5.472422e+00 5.477307e+00 6.573020e+00 4.729890e+00 4.415378e+00 3.556390e+00 3.644250e+00 2.590405e+00 3.053828e+00 1.128479e+00 3.933104e-01 4.939429e-01 5.246206e-01 7.412584e-01 7.531521e-01 9.474017e-01 7.412564e-01 6.786293e-01 6.308363e-01 5.383003e-01 4.087183e-01 6.222280e-01
<GCONST> 1.287119e+02
<TRANSP> 5
 0.000000e+00 1.000000e+00 0.000000e+00 0.000000e+00 0.000000e+00
 0.000000e+00 7.164570e-01 2.835431e-01 0.000000e+00 0.000000e+00
 0.000000e+00 0.000000e+00 6.817564e-01 3.182437e-01 0.000000e+00
 0.000000e+00 0.000000e+00 0.000000e+00 5.766088e-01 4.233913e-01
 0.000000e+00 0.000000e+00 0.000000e+00 0.000000e+00 0.000000e+00
<ENDHMM>
~h "dh"
<BEGINHMM>
<NUMSTATES> 5
<STATE> 2
<MEAN> 39
 -6.403859e+00 5.948678e+00 -4.509245e-01 6.438874e+00 4.944562e+00 2.436716e+00 1.929947e+00 -1.539873e+00 1.345085e+00 1.131660e+00 1.002173e-01 3.951881e-01 -1.275913e+01 -3.623450e-02 4.455753e-02 -4.704010e-02 -9.139481e-02 -1.217572e-01 -1.241871e-01 -1.340679e-03 7.253323e-02 1.424862e-01 -1.784634e-01 -8.233086e-02 1.094143e-02 8.234793e-01 4.461114e-01 -3.327649e-01 -3.196529e-02 -3.640071e-01 -4.428500e-01 -4.290974e-01 -1.767338e-01 8.986022e-02 7.757320e-02 -2.797173e-02 -2.112965e-02 1.666286e-02 1.014227e+00
<VARIANCE> 39
 5.223889e+01 2.741571e+01 2.824686e+01 3.314052e+01 2.831500e+01 3.856520e+01 3.971301e+01 4.092067e+01 3.397577e+01 2.588532e+01 3.158218e+01 2.522631e+01 7.191061e+01 3.111708e+00 2.592773e+00 3.043603e+00 3.265573e+00 2.725309e+00 3.082126e+00 2.846967e+00 3.057928e+00 2.846730e+00 2.264741e+00 2.177296e+00 2.023809e+00 8.612864e+00 6.209467e-01 5.610126e-01 5.905158e-01 6.768828e-01 5.892072e-01 6.463811e-01 6.306317e-01 6.692939e-01 6.289730e-01 5.009157e-01 4.752298e-01 4.455180e-01 1.135634e+00
<GCONST> 1.257070e+02
<STATE> 3
<MEAN> 39
 -5.219688e+00 5.384503e+00 -1.122738e+00 5.263137e+00 3.513741e+00 7.615935e-01 1.854409e+00 -1.929404e+00 1.744297e+00 2.346194e-01 -2.848260e-01 2.595207e-01 -6.654168e+00 1.690995e+00 -8.811876e-01 -2.942711e-01 -1.323307e+00 -1.578406e+00 -1.695760e+00 -8.414186e-01 2.292420e-01 4.901771e-01 -2.143800e-01 -2.424065e-01 -3.654220e-02 4.120791e+00 7.485350e-01 -4.828059e-01 2.242365e-01 -5.080941e-01 -6.116086e-01 -4.286736e-01 -4.483998e-01 1.422839e-01 4.352268e-02 1.565602e-01 -7.017680e-02 -7.453472e-02 6.613225e-01
<VARIANCE> 39
 4.226739e+01 3.079290e+01 2.963963e+01 3.233251e+01 2.751146e+01 3.584713e+01 4.318723e+01 3.800242e+01 3.030277e+01 2.666435e+01 3.163794e+01 2.511773e+01 6.385448e+01 4.930490e+00 2.669848e+00 3.098931e+00 3.123130e+00 3.358479e+00 3.698825e+00 4.266257e+00 4.121838e+00 3.769104e+00 3.104370e+00 3.018318e+00 3.053675e+00 6.283919e+00 6.378197e-01 7.353465e-01 7.783945e-01 7.647754e-01 6.381341e-01 7.652665e-01 8.771265e-01 7.696927e-01 7.497287e-01 6.164129e-01 6.750020e-01 5.925745e-01 1.179395e+00
<GCONST> 1.303838e+02
<STATE> 4
<MEAN> 39
 1.216859e+00 2.206478e+00 -1.212261e+00 1.208765e+00 -2.026845e+00 -4.588576e+00 -1.393985e+00 -1.012268e+00 3.316537e+00 3.826800e-01 -1.198069e+00 -3.803872e-01 3.544284e+00 2.396609e+00 -1.775133e+00 5.639412e-01 -1.729799e+00 -2.108143e+00 -1.693751e+00 -1.337611e+00 6.970943e-01 3.451185e-01 1.099824e-01 -4.493991e-01 -3.027941e-01 3.539112e+00 -2.632551e-01 -9.897762e-02 2.793049e-01 1.291190e-01 2.554037e-01 4.717856e-01 1.617081e-01 1.144681e-01 -2.346759e-01 5.497755e-02 4.895828e-02 2.418042e-02 -8.434598e-01
<VARIANCE> 39
 3.005564e+01 2.713464e+01 2.505366e+01 2.735555e+01 3.315621e+01 3.367908e+01 4.332580e+01 3.352842e+01 2.769128e+01 2.938859e+01 2.593676e+01 2.728380e+01 2.911557e+01 3.705225e+00 3.397179e+00 3.953424e+00 3.989002e+00 4.182091e+00 5.140085e+00 6.131447e+00 4.875963e+00 4.983155e+00 3.829790e+00 4.230347e+00 3.648126e+00 4.601362e+00 7.288088e-01 5.203153e-01 5.250548e-01 6.054066e-01 6.648788e-01 6.469826e-01 8.151519e-01 6.177992e-01 6.006707e-01 5.755755e-01 5.723515e-01 5.225781e-01 6.938100e-01
<GCONST> 1.285334e+02
<TRANSP> 5
 0.000000e+00 1.000000e+00 0.000000e+00 0.000000e+00 0.000000e+00
 0.000000e+00 5.611924e-01 4.388076e-01 0.000000e+00 0.000000e+00
 0.000000e+00 0.000000e+00 3.654728e-01 6.345273e-01 0.000000e+00
 0.000000e+00 0.000000e+00 0.000000e+00 5.095414e-01 4.904586e-01
 0.000000e+00 0.000000e+00 0.000000e+00 0.000000e+00 0.000000e+00
<ENDHMM>
~h "dx"
<BEGINHMM>
<NUMSTATES> 5
<STATE> 2
<MEAN> 39
 6.778911e+00 -4.761503e+00 9.180972e-02 4.798695e-01 -6.183353e+00 -1.631708e+00 -3.439515e+00 -1.041402e+00 2.878072e+00 6.062155e-01 -7.172554e-01 -2.335155e+00 5.588112e+00 -1.307774e-01 4.157524e-01 8.437371e-01 1.769364e+00 -3.592419e-01 -5.727372e-01 -6.227788e-01 -4.617101e-01 2.771282e-01 -2.196248e-01 -2.156238e-01 5.360347e-01 -1.352360e+00 -1.115110e-03 -6.719345e-03 1.415109e-02 -2.950935e-01 1.829125e-01 -7.816937e-03 -5.008345e-02 2.031533e-01 -2.483017e-01 -1.657217e-02 9.645177e-02 1.738912e-01 1.263666e-01
<VARIANCE> 39
 1.787425e+01 2.987478e+01 9.590437e+01 5.087859e+01 5.173670e+01 4.872712e+01 5.811978e+01 5.662707e+01 6.291905e+01 5.177808e+01 4.121249e+01 3.485887e+01 2.803104e+01 1.353460e+00 2.245010e+00 3.614283e+00 6.150587e+00 6.308514e+00 5.205917e+00 5.904841e+00 5.476074e+00 5.035261e+00 4.300113e+00 4.372608e+00 3.292136e+00 3.080073e+00 2.269247e-01 3.880240e-01 4.684867e-01 8.375158e-01 9.660780e-01 6.950595e-01 9.425552e-01 1.002378e+00 8.082030e-01 7.822745e-01 7.960191e-01 5.864322e-01 6.704561e-01
<GCONST> 1.336811e+02
<STATE> 3
<MEAN> 39
 6.164679e+00 -3.563205e+00 2.667839e+00 3.463717e+00 -6.360754e+00 -2.881540e+00 -4.647998e+00 -1.691531e+00 2.186284e+00 -1.684222e-01 -9.764305e-01 -7.872164e-01 2.860536e+00 -2.143029e-01 2.399647e-01 5.942916e-01 4.580648e-01 1.856464e-01 -5.516547e-01 -4.773138e-01 2.773044e-01 -2.159924e-01 -1.572179e-01 -1.327780e-02 6.008440e-01 -4.852021e-01 7.891746e-02 -1.581016e-01 -2.237081e-01 -7.135437e-01 7.997570e-02 1.363184e-02 3.606774e-02 4.030533e-01 -1.982844e-01 8.009753e-02 1.605553e-01 -4.375272e-02 5.692884e-01
<VARIANCE> 39
 2.070903e+01 3.173668e+01 8.153631e+01 4.791723e+01 5.612911e+01 3.772605e+01 4.899044e+01 5.019376e+01 5.773498e+01 4.702990e+01 3.346091e+01 2.746671e+01 2.967606e+01 1.627659e+00 2.578462e+00 3.633391e+00 6.104911e+00 5.370104e+00 4.986943e+00 5.621241e+00 5.713633e+00 4.743145e+00 4.200325e+00 4.336643e+00 3.180768e+00 4.086155e+00 3.030716e-01 4.874913e-01 5.774837e-01 9.818022e-01 1.252699e+00 8.084589e-01 1.148079e+00 1.096402e+00 9.320790e-01 8.479385e-01 8.739682e-01 5.646334e-01 7.375516e-01
<GCONST> 1.348531e+02
<STATE> 4
<MEAN> 39
 5.331112e+00 -3.240404e+00 3.812214e+00 2.164986e+00 -5.685439e+00 -3.778918e+00 -4.868774e+00 -1.614085e-01 1.067586e+00 -5.072140e-01 -6.796830e-01 1.389133e-01 3.217928e+00 -8.191578e-03 -4.110458e-02 4.644425e-02 -6.079508e-01 1.544450e-01 -4.638925e-01 -2.720675e-01 6.891446e-01 -3.818340e-01 2.962223e-02 2.386792e-01 3.316840e-01 4.955602e-01 1.709506e-01 -6.391293e-02 -2.554513e-01 -4.041830e-01 -7.598880e-02 9.707715e-02 4.639255e-02 6.963538e-02 -7.997415e-02 1.029357e-01 1.040940e-01 -1.537773e-01 3.220704e-01
<VARIANCE> 39
 2.508680e+01 3.457589e+01 8.203186e+01 5.375662e+01 5.921170e+01 3.890734e+01 4.646403e+01 5.406375e+01 5.491088e+01 4.320409e+01 3.228911e+01 2.505357e+01 3.270911e+01 1.749290e+00 2.358395e+00 3.220500e+00 4.069595e+00 5.026254e+00 3.966698e+00 5.424333e+00 4.989494e+00 4.394910e+00 3.583760e+00 3.777535e+00 2.687277e+00 3.047147e+00 4.217838e-01 5.838390e-01 6.407400e-01 1.084070e+00 1.302560e+00 8.545733e-01 1.037023e+00 1.044338e+00 8.585859e-01 7.730865e-01 7.807575e-01 5.314055e-01 9.211864e-01
<GCONST> 1.338797e+02
<TRANSP> 5
 0.000000e+00 1.000000e+00 0.000000e+00 0.000000e+00 0.000000e+00
 0.000000e+00 2.991835e-01 7.008166e-01 0.000000e+00 0.000000e+00
 0.000000e+00 0.000000e+00 2.726127e-01 7.273873e-01 0.000000e+00
 0.000000e+00 0.000000e+00 0.000000e+00 3.115584e-01 6.884416e-01
 0.000000e+00 0.000000e+00 0.000000e+00 0.000000e+00 0.000000e+00
<ENDHMM>
~h "eh"
<BEGINHMM>
<NUMSTATES> 5
<STATE> 2
<MEAN> 39
 5.382121e+00 -5.444519e+00 3.001652e+00 -3.137187e+00 -7.241317e+00 -5.407213e+00 -1.526813e+00 3.828526e+00 1.034871e+00 -1.894106e-01 -1.204762e+00 -7.537682e-01 9.671131e+00 1.354860e+00 -2.078621e+00 -1.408838e-01 -9.670066e-01 -1.185601e+00 -5.448084e-01 -5.498652e-01 1.679978e+00 4.996797e-01 -2.884009e-01 -1.454017e-01 -1.634507e-01 1.758672e+00 -6.216435e-01 3.339976e-01 -2.354166e-01 2.235005e-01 5.792400e-01 4.357167e-01 3.216028e-01 -1.627601e-01 -4.641344e-03 4.438387e-02 9.994222e-02 9.305348e-02 -5.081570e-01
<VARIANCE> 39
 1.490439e+01 2.513307e+01 3.934693e+01 3.310011e+01 3.674890e+01 3.826996e+01 5.689964e+01 4.400902e+01 4.956230e+01 3.668768e+01 3.413060e+01 2.913343e+01 1.562791e+01 3.693574e+00 2.629111e+00 2.848514e+00 3.234587e+00 3.701850e+00 4.273666e+00 6.278724e+00 4.562083e+00 4.336758e+00 3.557114e+00 3.313199e+00 2.699482e+00 1.926858e+00 5.356260e-01 4.094308e-01 3.808485e-01 5.061083e-01 5.731539e-01 6.090930e-01 7.895334e-01 7.226171e-01 7.443824e-01 5.568317e-01 5.694683e-01 4.407748e-01 3.637106e-01
<GCONST> 1.251478e+02
<STATE> 3
<MEAN> 39
